conservative 0.48794 -0.17509 -0.16294 0.13169 -0.079426 -0.15853 -0.10362 0.26311 0.002247 0.053111 -0.0031046 0.1216 -0.19878 -0.28242 -0.09547 -0.17508 -0.095281 0.2511 -0.071683 -0.14237 0.16507 0.0073017 -0.22723 0.033128 0.059976 -0.076705 -0.069513 -0.17461 0.079259 -0.030068 0.10575 0.21596 -0.043771 0.23553 0.062479 0.38704 0.16777 0.048314 -0.16168 -0.27813 -0.021114 0.09426 0.048345 0.32771 0.20526 0.29255 0.18316 -0.0046991 0.013508 0.12138 -0.22996 0.10953 -0.016878 0.14718 -0.1725 -0.18194 -0.06382 0.050237 -0.32838 0.050166 0.053393 0.2007 0.16199 0.098378 -0.1092 -0.21039 0.26817 -0.064028 0.099958 0.20296 -0.23169 0.31159 -0.012698 0.2321 -0.056614 -0.11929 -0.053537 -0.16007 0.26676 -0.13952 -0.13003 0.45332 0.025531 0.10495 -0.14716 0.035284 0.10402 -0.078407 0.096776 0.15974 0.074993 -0.14994 0.038511 0.039809 -0.21748 -0.24932 0.2388 0.069939 0.080025 0.34808 -0.56333 -0.17301 0.19371 0.072334 0.062399 -0.40333 0.024813 -0.16624 0.33726 0.02157 -0.00794 0.23172 -0.0036185 -0.2764 0.053519 0.16888 0.16821 0.13104 -0.29046 0.17815 0.24211 -0.28492 -0.15788 -0.18366 0.1085 -0.061361 0.20641 0.16109 -0.11791 0.17861 -0.24183 -0.36312 0.29123 -0.094746 -0.56957 -0.025222 -0.034847 -0.0182 -0.070059 0.078737 0.11388 -0.043667 0.26062 0.24166 -0.15964 0.11446 -0.10348 -0.21942 0.2663 0.21179 0.2123 0.41188 0.14899 0.025565 0.10385 -0.073123 -0.04157 -0.14405 0.086839 -0.043384 -0.48109 0.20207 -0.26802 0.26018 -0.39147 -0.10814 0.02692 -0.10261 -0.1195 0.22857 -0.18026 -0.31319 -0.085632 0.086822 -0.033107 0.094567 -0.044911 -0.23434 0.17641 -0.30329 0.38537 0.075553 0.13811 0.46266 -0.16473 0.33778 0.065 -0.29348 -0.030575 -0.094487 -0.26121 -0.10518 0.081558 -0.080014 -0.063971 -0.20813 -0.26864 0.0071952 -0.15317 -0.45357 0.020401 0.06733 -0.076035 0.20969 -0.053798 0.10385 -0.029658 0.16787 -0.087874 -0.10435 -0.42479 -0.088382 0.0039136 -0.50837 -0.20001 -0.27592 -0.124 0.051053 -0.063811 0.29864 -0.015029 0.0065382 -0.13809 -0.075311 0.46115 -0.236 -0.094449 -0.080373 0.4077 -0.23101 0.26828 -0.10201 0.35379 -0.45259 0.14523 0.27032 0.15548 -0.077941 0.14377 0.21372 -0.053713 -0.078051 0.21581 0.027256 0.073431 0.28036 -0.042872 -0.2729 -0.30584 -0.28424 0.33203 0.066502 0.11984 0.31226 -0.0022966 0.025887 0.19359 -0.064831 -0.027743 0.044861 0.0054262 -0.1121 -0.26745 -0.26926 -0.13591 -0.094426 0.03984 0.12942 0.014225 -0.095187 -0.11519 0.6936 0.19443 0.073488 -0.0658 -0.36685 0.25115 0.22166 0.13654 -0.16175 -0.10681 0.01803 -0.0054403 0.10144 -0.26376 -0.17402 -0.08448 0.11148 -0.04631 0.22176 0.082674 0.083815 0.35051 0.1363 -0.033841 -0.11229 -0.24931 0.069089 -0.34718 0.13474 
liberal 0.37675 -0.013242 -0.27872 0.080026 0.23092 0.069094 -0.042569 0.39279 -0.096142 0.12735 0.28488 0.44456 -0.21303 -0.22573 0.10774 0.1508 -0.020136 -0.014602 -0.15089 -0.2122 0.34147 0.068623 -0.07367 0.029037 0.32099 -0.074136 -0.075596 -0.29719 -0.15361 -0.17689 0.32014 0.067405 -0.26639 0.35801 -0.047936 0.39509 -0.23827 -0.033045 0.010613 -0.17465 -0.14842 0.18397 0.097851 0.21242 0.25961 0.37025 0.21401 -0.30157 -0.012652 0.099468 -0.154 0.10756 0.030273 0.23308 -0.019488 -0.31868 0.013349 -0.21516 -0.49231 0.26156 -0.037661 0.021027 0.058963 0.030034 0.24696 -0.22851 0.25102 -0.045348 0.018633 0.19062 -0.37029 0.17404 -0.09739 0.11805 0.00049412 -0.043792 -0.074716 -0.080244 0.21964 -0.37824 0.038583 0.61371 0.02209 -0.05849 -0.013515 0.084825 0.025037 -0.29124 -0.013292 0.11487 -0.020761 -0.23776 0.065157 -0.18715 -0.23264 -0.20265 0.14805 0.18145 -0.043986 0.25059 -0.32637 -0.32521 -0.026459 0.14703 -0.077722 -0.1005 0.1822 0.041056 0.30225 -0.14918 -0.10803 0.33489 0.16481 -0.20697 0.13609 0.082173 0.133 0.031243 -0.3304 0.10494 0.27513 -0.16527 0.035457 -0.011483 0.18647 -0.09389 0.02601 -0.011857 -0.17236 0.24625 -0.13601 -0.21637 0.26558 -0.095514 -0.44624 0.016487 0.078292 -0.087215 -0.30623 0.09558 0.26874 0.031984 0.20187 0.1983 -0.25946 0.14771 -0.051876 -0.13929 0.22415 0.15777 0.13963 0.40844 -0.10105 0.060217 0.17526 0.054874 0.068281 0.2742 -0.11531 -0.21383 -0.2268 0.1267 -0.32114 0.2836 -0.37081 -0.11332 -0.0034464 -0.071292 -0.12167 0.16241 -0.30626 -0.30014 -0.29757 0.022297 0.088076 0.15207 0.060472 0.038313 0.17368 -0.22771 0.30691 -0.10058 0.15389 0.34156 -0.070645 0.08875 0.042598 -0.079068 0.054393 -0.079695 -0.12962 -0.19829 0.019263 0.095957 -0.039855 -0.21449 -0.29202 -0.055564 -0.18013 -0.34805 0.012049 0.11031 -0.002135 0.11457 0.018896 -0.00092099 -0.082729 0.29157 -0.30156 -0.11227 -0.25525 -0.15343 0.023177 -0.55194 -0.29953 -0.12169 0.046898 0.00086569 -0.18497 0.32098 0.10933 0.13704 -0.058721 -0.0066682 0.23225 0.15708 -0.11899 0.06192 0.29012 -0.069438 0.099284 0.0039943 0.36282 -0.28169 0.25078 0.25402 0.27034 -0.055394 0.0098648 0.15824 0.1789 -0.037638 0.15185 0.10385 -0.083858 0.21845 0.01138 -0.28074 -0.18833 -0.20402 0.10246 -0.04974 0.20412 0.32562 0.12079 0.12853 0.076083 -0.17928 0.01928 -0.15266 -0.029917 0.12504 -0.216 -0.074784 -0.18023 -0.061008 0.12913 -0.0013308 -0.083117 -0.20876 -0.053329 0.49103 -0.068757 -0.074713 -0.071889 -0.19262 0.16517 -0.069324 0.1873 -0.09737 0.10501 -0.054125 -0.051954 -0.13198 -0.079808 -0.20612 0.037636 0.22242 0.30939 0.23804 0.039866 0.18811 0.40581 0.04535 -0.07657 -0.14815 -0.14289 0.11296 -0.37145 0.31079 
good 0.12732 -0.3122 -0.064012 0.076736 0.13627 -0.1406 0.2316 0.011845 0.01492 -0.030841 0.24147 -0.031983 -0.28297 -0.26766 -0.14961 -0.03941 -0.064162 0.012029 0.26531 -0.45923 -0.047589 0.099345 0.12304 -0.059036 -0.016316 -0.30828 0.037401 -0.38367 -0.014837 0.11624 0.09076 0.029678 -0.20024 -0.016931 0.25177 -0.044411 -0.23686 -0.068613 0.018895 0.035804 0.16012 0.24427 0.12933 0.14385 -0.11251 0.034159 0.10006 0.15695 0.11094 0.18022 -0.062297 0.20361 0.21148 -0.037711 0.14788 -0.1032 -0.19912 0.15525 -0.13675 0.097091 0.047475 -0.087187 0.1198 0.034216 0.086015 -0.13431 0.12446 -0.20045 0.055092 0.05288 0.16659 -0.073457 0.18487 -0.079676 -0.084289 -0.38582 0.13686 0.026016 0.040238 -0.080765 0.087674 0.24381 0.15377 0.11704 0.019618 -0.11144 -0.013102 -0.010266 0.0024968 -0.091514 0.22079 0.082182 0.072787 0.081614 -0.070948 -0.20092 0.092764 0.07944 -0.41386 0.10747 0.067858 -0.026801 -0.22806 0.075561 -0.18611 -0.058728 -0.28777 0.0019145 -0.10159 -0.17679 -0.11209 0.24479 0.089817 -0.18832 0.18508 -0.0002202 0.10504 0.016923 -0.063812 0.2182 0.062895 0.093529 -0.0057053 0.30214 -0.17517 -0.25258 -0.062819 -0.0014747 -0.20603 0.047065 -0.19606 0.020942 0.033138 0.16715 -0.084798 -0.064529 -0.12443 -0.082767 0.033206 0.063055 0.050198 0.12832 0.016392 0.42555 -0.22733 -0.063647 0.031764 0.13225 -0.11561 0.0634 -0.01184 0.32608 0.2424 0.0055004 -0.18275 0.18087 -0.22648 -0.010047 -0.0059443 -0.035714 -0.34031 0.3607 -0.24149 0.24335 0.014965 -0.035645 0.069894 -0.24503 -0.05906 0.26024 -0.23676 0.10999 -0.23783 -0.097585 0.29269 -0.068858 0.21031 -0.013517 0.048137 0.078569 0.021104 -0.18868 -0.092165 0.03952 0.023449 0.038763 0.038245 0.16956 -0.19125 -0.084356 0.22766 -0.14732 0.025981 -0.02055 -0.15152 -0.30885 -0.14639 0.19439 0.11799 0.090665 -0.0076566 0.0075911 0.10947 0.14651 0.014359 -0.094709 -0.10863 -0.039407 -0.058191 -0.13826 -0.2466 -0.062787 -0.17077 -0.099676 -0.061917 -0.031087 -0.019352 -0.17467 0.17096 -0.24291 0.17306 -0.11205 -0.066437 -0.33798 0.087074 0.10311 -0.014741 -0.095886 0.10577 0.11976 0.094295 -0.10762 0.078605 -0.18362 -0.032547 0.072132 -0.081283 -0.0034062 -0.050309 0.11943 -0.16509 0.072016 0.33736 0.2027 0.23592 0.35446 -0.21573 -0.033619 -0.30622 0.16703 -0.18238 -0.10316 -0.078934 -0.042792 -0.15695 -0.11459 0.087576 -0.12546 -0.26457 0.10672 0.15502 0.064239 -0.27857 -0.012525 0.13848 -0.23072 -0.20012 0.26141 -0.057987 -0.075395 0.0017641 0.03032 0.030987 -0.23878 0.086263 0.0064494 0.11275 -0.057973 -0.083877 0.052375 0.1436 0.0058142 -0.25819 0.16292 0.088494 -0.026746 -0.2265 0.21954 0.089725 -0.015685 -0.29595 0.063835 0.078334 0.20595 0.12022 0.069041 0.13356 -0.12257 0.13822 -0.09962 
bad 0.093227 -0.27331 -0.14636 -0.0041602 0.076535 -0.083565 0.19811 -0.22438 -0.12619 -0.11824 0.20762 0.057139 -0.50999 -0.20021 -0.14684 -0.12954 -0.013295 -0.013412 0.093809 -0.28052 -0.13088 0.012207 0.11714 0.056996 0.18982 -0.36322 0.19225 -0.30031 0.14769 0.053168 0.17822 -0.076323 -0.17059 -0.036952 0.14032 -0.095317 -0.45085 0.13576 -0.0086633 0.15456 0.13618 0.23641 -0.022952 0.067833 -0.014188 0.018982 0.019587 0.30819 0.21793 0.21575 0.070611 0.23149 0.23956 0.069105 -0.040043 0.082055 0.0033754 0.025127 -0.076187 -0.12435 0.025242 -0.11407 0.17113 0.036906 0.039047 -0.044282 0.11746 -0.21771 0.20733 0.037972 0.17481 -0.16245 0.12711 -0.15396 -0.14486 -0.25951 0.070971 0.14049 0.070044 0.075903 -0.091927 0.29972 0.18848 0.080223 0.033457 -0.30957 -0.17234 -0.011774 -0.071526 -0.10694 0.21759 0.036778 -0.083367 -0.012647 -0.16312 -0.25567 0.25959 0.010174 -0.27097 0.064541 0.12138 -0.019782 -0.25332 0.12639 -0.28327 -0.032762 -0.21985 -0.040381 0.031842 -0.11332 -0.13085 0.15661 0.15577 -0.13359 0.1643 -0.12813 0.080932 0.1241 -0.27145 0.16843 0.021876 0.045027 0.018269 0.53986 -0.13711 -0.36826 -0.010712 -0.032718 -0.23764 0.17321 -0.23145 0.097907 0.032625 -0.0567 -0.062282 0.084906 -0.14767 -0.12274 -0.046644 0.3025 0.034861 0.13394 0.22036 0.41884 -0.08612 -0.061308 0.11661 -0.037677 -0.12359 -0.21201 0.062029 0.23572 0.36619 -0.037225 -0.048997 0.03301 -0.25844 -0.049842 0.1762 -0.028736 -0.088563 0.41415 -0.22439 0.27106 -0.020596 0.020805 -0.053385 -0.26034 0.070138 0.026254 -0.35203 0.15572 -0.1053 -0.1308 0.27378 0.037806 0.18487 -0.10974 0.23073 0.20479 0.26881 -0.18928 -0.032871 0.13454 -0.097741 0.066626 0.10693 0.11026 0.15404 -0.15479 0.18452 0.0060757 0.071387 -0.087743 0.030474 -0.31451 -0.075574 0.1946 -0.067806 0.14555 -0.048597 -0.028673 0.11557 -0.13846 -0.058252 0.065394 -0.1419 0.26579 -0.13857 -0.41454 -0.020923 -0.19673 -0.10696 -0.067136 0.0021212 -0.037593 -0.12256 -0.093035 0.10348 -0.22607 0.087914 -0.03927 0.022055 -0.21847 0.24633 0.27975 -0.097913 -0.1848 -0.047205 -0.032759 -0.046382 -0.17905 0.028267 -0.10863 0.0961 -0.020821 -0.083384 -0.1269 -0.18647 0.072575 0.046405 -0.034471 0.43965 0.30218 0.20974 0.18552 -0.28126 -0.10731 -0.2783 0.12675 -0.18958 -0.37486 -0.078818 -0.18475 -0.029318 -0.11458 0.18017 -0.10234 -0.36458 -0.11093 0.020282 0.10417 -0.19284 0.084859 0.0054547 -0.28458 -0.2092 0.19376 -0.10408 -0.17532 -0.10059 -0.0066804 0.20678 -0.3537 0.084331 -0.01566 0.010431 -0.024949 -0.2196 0.10035 0.15748 0.12709 -0.28199 0.013731 -0.038418 -0.12479 -0.21033 0.052231 0.047352 -0.0061358 -0.26093 0.049536 0.3067 0.12243 0.062839 0.1193 -0.029012 -0.057225 0.18313 -0.16475 
clinton -0.046307 0.037908 -0.085804 -0.046901 -0.077915 -0.029783 -0.10607 0.01372 -0.036196 0.22784 -0.23817 0.031744 -0.04142 -0.2913 -0.068461 0.13486 0.11742 0.090875 -0.2556 -0.33862 -0.11167 0.24801 0.012636 -0.032644 0.19011 -0.22011 0.10818 -0.20875 0.066951 0.050395 0.11247 0.27391 -0.058494 0.10872 0.095342 0.14336 -0.2817 0.13402 -0.11144 -0.34826 0.076752 0.31713 0.21763 0.049793 0.112 0.023347 0.38123 0.014232 0.049307 0.10783 -0.22139 0.044786 -0.090667 -0.1054 -0.43727 -0.073196 -0.31553 0.15531 -0.0010633 -0.10017 0.20207 -0.18639 0.21905 -0.09832 -0.1639 -0.12017 0.10102 0.33273 0.091466 -0.088947 0.11924 0.081105 -0.025141 -0.075523 -0.2524 -0.024789 0.35655 -0.53652 0.023016 -0.020035 0.18893 0.15236 0.16188 -0.032384 -0.16541 0.12018 0.13781 -0.10091 0.01338 -0.31095 -0.0097538 0.049525 0.29655 -0.24377 -0.075203 -0.40474 0.080306 0.14706 -0.29171 0.072419 -0.069009 0.047073 -0.24878 0.087679 0.16237 0.083075 0.18157 -0.032163 -0.26769 -0.0012041 0.05384 0.33488 -0.051692 -0.10657 0.18445 -0.12111 0.11062 -0.036518 -0.15992 0.0048797 0.21062 -0.042693 0.14721 -0.13361 0.12123 -0.054238 -0.00050987 -0.27282 -0.037337 -0.30776 0.12354 0.046659 0.22642 -0.25321 -0.29676 -0.38138 0.033248 -0.1575 0.048859 -0.13608 0.098793 0.21651 0.024056 0.17299 -0.41786 0.18329 0.081484 -0.018151 0.39545 -0.15214 0.21364 0.11007 0.14209 0.16005 -0.22875 0.14203 0.18407 0.2711 0.022964 -0.013361 -0.08342 0.38369 -0.086421 0.10078 -0.33336 -0.15584 -0.16951 0.024462 0.25036 0.08013 0.10022 -0.1894 0.13326 -0.01763 -0.071459 -0.053581 0.094435 -0.22165 0.15696 -0.097353 0.16443 0.037268 0.066865 0.36326 -0.061032 0.017287 -0.10888 0.0084143 -0.047493 -0.25649 0.073787 0.018404 0.023134 -0.18128 -0.16388 0.023778 0.010114 0.11456 0.26755 -0.011679 0.092035 0.051167 0.15445 0.17198 0.1235 0.12206 -0.047971 0.027245 -0.43476 -0.16344 -0.13651 -0.020514 -0.20271 -0.026855 -0.14078 0.19599 0.0044742 -0.16251 -0.1381 -0.3839 -0.19393 0.13433 0.047063 -0.39218 0.20029 -0.13661 -0.11408 -0.29456 0.090132 0.049916 -0.25688 -0.0019752 0.056562 -0.21818 -0.31879 0.10033 0.093298 0.24363 -0.016776 -0.10196 0.11192 0.026559 0.27392 0.17793 -0.0010716 -0.11692 -0.088785 -0.073455 -0.057241 -0.14625 -0.1592 -0.25458 -0.09864 0.043624 -0.047779 -0.10536 0.23876 -0.027017 -0.31193 -0.063365 -0.048887 0.48237 0.17185 0.018319 -0.00010658 -0.11761 0.011461 -0.027304 0.16115 -0.043238 0.10871 -0.0434 -0.27068 -0.055762 -0.16411 -0.20433 -0.26628 0.08478 0.33787 -0.14396 0.1519 -0.077465 -0.13977 -0.043848 0.18153 -0.07295 -0.16163 -0.051688 -0.3097 0.48245 0.23137 0.10248 0.27322 -0.33327 0.14073 0.19932 -0.075754 0.21733 -0.1478 0.10811 
heflin 0.20884 0.10154 0.08564 -0.04993 -0.18159 -0.45809 -0.44 -0.21872 -0.0083716 0.055007 0.28797 0.073703 -0.080885 -0.21124 -0.043502 -0.36853 -0.06355 0.25793 0.11554 -0.085344 0.15725 0.13977 0.19929 0.41065 -0.18423 -0.00065087 -0.084211 -0.0067808 -0.069093 0.11606 -0.1557 0.23411 -0.27884 0.17064 0.19432 -0.074502 -0.0027294 0.099265 -0.02856 -0.10995 -0.1928 -0.18563 0.51273 0.27292 -0.27261 0.92598 0.24993 -0.058021 0.33587 -0.22375 -0.21328 0.44815 0.54228 0.019741 -0.26021 -0.29339 -0.38762 -0.011487 0.090149 0.27923 -0.042569 -0.26526 0.27475 -0.13683 0.28046 0.22591 0.084927 0.012698 0.097673 0.002468 -0.15779 0.49855 0.21409 0.179 0.0084094 0.29868 0.18948 -0.092369 0.23734 -0.4666 0.52833 0.52936 0.33586 0.13001 0.071244 -0.23493 -0.19409 0.14764 0.42768 -0.074573 0.36001 0.26394 0.17349 0.16452 -0.27695 -0.15656 -0.016001 0.21847 0.036973 0.59765 0.0958 0.084652 -0.29189 -0.19559 -0.020417 0.36467 0.088241 0.1487 0.022284 -0.11177 -0.15439 0.15225 0.13306 0.12086 -0.079535 -0.0256 -0.030969 -0.4486 -0.076263 0.071979 0.67439 -0.0060107 -0.017787 0.17424 -0.18073 -0.26879 -0.059304 -0.15895 0.36038 -0.40399 -0.2252 -0.030645 -0.18557 -0.38719 -0.25596 0.016316 0.093379 -0.021497 0.098182 -0.32947 0.11231 0.26704 0.4015 0.15248 0.0191 -0.14761 0.27065 -0.35679 0.043024 0.2232 -0.088028 0.49818 -0.26591 -0.28393 0.052805 0.38147 -0.26015 0.046215 0.01065 -0.30391 0.050139 0.0099826 -0.48356 -0.11109 -0.19821 -0.3981 -0.089997 -0.35804 0.52493 0.37109 -0.24752 -0.46926 0.050908 0.065843 -0.12407 0.059632 -0.42223 -0.11852 -0.36021 0.023547 0.52923 -0.25111 -0.012713 0.48472 -0.47551 -0.18808 0.2665 -0.052 -0.23604 -0.26116 -0.012453 -0.12434 -0.054607 0.44149 -0.18078 0.57716 0.068743 0.064372 0.09957 -0.13954 -0.61657 0.079622 -0.16924 -0.60272 0.20785 -0.020316 -0.31142 0.26035 0.038807 -0.14113 -0.10364 -0.061413 0.25326 -0.10671 -0.11557 0.0083719 0.043062 -0.2486 -0.19416 -0.4426 0.026419 0.057869 -0.076269 -0.11448 0.96237 -0.50722 0.26731 -0.40506 0.13856 0.41945 0.15239 0.28222 0.50568 -0.13867 0.2264 0.08158 0.025187 -0.08172 0.0031561 -0.61158 0.21511 0.15338 -0.23967 -0.58216 -0.081107 0.17603 -0.06039 -0.04787 0.073467 -0.52969 0.030299 0.13624 -0.0061784 -0.35341 -0.71053 -0.061124 -0.12351 0.048535 -0.42745 0.06112 0.014334 -0.21221 -0.4809 0.31126 -0.47413 -0.47274 -0.19134 0.38902 -0.002955 0.11491 -0.25582 0.44899 -0.15837 -0.22811 0.38832 -0.28002 0.026774 -0.092468 0.10765 -0.64132 -0.21262 -0.034625 0.30694 -0.059894 0.043593 0.36205 0.35266 0.36054 -0.25783 0.47645 0.65811 0.52139 0.34817 0.40577 0.12059 0.22795 -0.46004 0.25097 0.057624 0.085381 
shelby 0.18221 -0.080091 -0.052582 0.078981 0.2039 -0.1107 -0.30783 -0.19586 -0.081727 -0.043526 -0.0010008 -0.17922 -0.0076504 -0.22018 -0.028921 -0.18013 0.18466 0.44854 -0.044113 -0.10101 0.31747 0.39863 -0.18992 0.13897 -0.07677 -0.29994 -0.21441 0.057194 0.25027 -0.091981 -0.5592 0.020356 -0.22537 0.016901 0.33576 0.0084889 -0.42604 0.36393 -0.22242 -0.17508 -0.22774 0.092432 0.66694 -0.10332 -0.17242 0.20936 0.20199 0.1745 0.27974 -0.095563 -0.44161 0.43112 0.1524 -0.086293 -0.057078 -0.23551 0.052999 0.13852 -0.23762 -0.061487 -0.11416 -0.26472 0.15521 -0.13111 0.073926 -0.025465 0.39974 0.11011 -0.13248 0.27411 -0.087126 0.097848 0.38118 0.083 -0.094871 -0.014308 0.25681 -0.19719 0.36305 -0.13416 0.2318 0.23938 0.24708 -0.027609 -0.18531 -0.32494 -0.17841 0.19323 -0.17489 -0.3924 -0.032161 0.41544 0.07452 -0.0052423 -0.51529 -0.28037 0.0025197 -0.11627 0.15643 -0.22576 0.11979 0.10906 -0.070823 0.21667 -0.11473 -0.16732 0.061359 0.22433 -0.26514 0.13203 0.098712 -0.014593 0.22645 0.10822 -0.27966 -0.16857 0.20127 -0.06077 -0.13165 -0.071807 0.64982 -0.21303 -0.071495 0.18612 0.10329 -0.38986 0.1789 -0.19795 -0.16018 -0.20009 -0.038109 0.03776 0.059043 -0.3131 -0.25698 0.24808 -0.047536 0.16545 0.33698 -0.40389 0.018166 -0.10876 0.12504 0.22143 -0.091466 -0.18526 0.36696 -0.24164 0.33412 -0.011547 0.066144 0.41666 -0.12835 0.10063 -0.41233 0.22168 -0.40549 -0.076321 -0.039852 -0.12318 0.022439 0.22442 -0.015688 0.10799 -0.24737 -0.16013 0.18982 -0.41649 0.49786 0.43049 -0.24458 -0.17002 0.10702 0.37761 0.26019 -0.09735 0.13462 -0.21198 0.029672 -0.19276 0.2103 -0.10442 0.32674 0.14431 -0.39761 -0.019218 0.079979 -0.27981 0.16239 -0.061677 0.036764 -0.18533 0.034601 0.22175 0.048557 0.23728 -0.022157 -0.060521 -0.060055 0.14838 -0.47061 0.0089655 -0.2641 -0.18087 0.14906 -0.37946 -0.60659 0.25484 0.051604 0.099783 -0.0031197 -0.06754 -0.059869 -0.21927 -0.080176 0.087901 0.056382 0.095929 -0.2236 -0.46324 -0.13549 -0.3814 0.29819 -0.16207 0.53367 -0.53646 0.20994 -0.38357 -0.28802 0.072634 0.1127 0.23508 0.3977 0.038168 0.0784 0.14014 0.28202 -0.045181 0.14026 -0.16602 0.12013 0.30143 0.064753 -0.23891 -0.071265 -0.069811 0.052083 -0.042324 0.0049291 -0.20476 -0.040158 0.0065469 -0.089258 -0.18375 -0.45739 0.16114 -0.18497 0.020145 -0.45179 -0.22028 -0.15098 0.056347 -0.17769 0.56638 -0.052476 -0.39964 -0.06006 0.10011 0.23268 -0.19762 0.081089 0.40549 -0.14888 -0.37517 0.2801 -0.1777 -0.15509 0.009395 0.21591 -0.0010722 -0.29451 0.090198 0.0075758 0.13922 -0.05479 0.14269 -0.066704 0.10352 -0.44479 0.045329 0.24452 0.37218 0.12008 0.31392 -0.018281 0.27232 -0.35735 0.31261 -0.035481 0.0025876 
stevens 0.16717 -0.12342 0.021616 0.27099 -0.11012 -0.44793 -0.026858 0.30682 0.026004 0.17081 -0.015504 0.058044 -0.19606 -0.040064 -0.23585 -0.098341 -0.19339 0.075646 -0.15863 -0.12825 -0.33646 0.00037767 0.048495 0.063076 0.082488 -0.32791 0.012448 0.14486 -0.44779 0.0028205 0.29935 0.037473 0.14205 0.060734 0.19221 -0.070671 0.19143 -0.051736 -0.033342 -0.16189 -0.43441 -0.024198 0.37075 0.096623 0.077598 0.24736 0.29315 -0.21216 0.18615 -0.03265 -0.31891 0.10067 0.2445 0.067774 0.18982 -0.064303 -0.16965 -0.1006 0.27477 0.24588 0.052201 0.040881 -0.081318 -0.010419 0.65336 0.14798 -0.062367 0.058105 0.022479 0.33263 -0.13472 -0.10981 0.21123 0.15149 -0.07794 0.1264 0.14316 -0.39346 -0.1689 -0.30727 0.18938 0.12867 0.48593 0.38607 0.012122 -0.37497 -0.40123 0.013891 0.212 -0.011155 0.51824 0.1675 0.49405 -0.17391 -0.22305 -0.27748 -0.17999 0.13834 -0.25813 0.0075586 -0.021183 -0.3062 -0.097562 0.48708 -0.14002 -0.14197 0.08942 -0.14758 -0.027478 0.05909 -0.14102 -0.13743 -0.09546 0.030605 0.095248 -0.050221 -0.031947 -0.07346 0.018053 0.2482 0.25306 -0.020078 -0.14199 -0.048349 0.15278 -0.21898 0.28017 0.28786 -0.28422 0.074828 -0.23729 -0.056533 -0.0096905 -0.17891 -0.39531 0.039232 -0.18646 -0.23817 -0.15987 0.07937 0.33587 0.10813 0.24399 0.40942 -0.19072 -0.14301 0.40789 -0.019719 -0.037211 0.10867 -0.14376 0.23596 -0.090714 -0.10319 -0.2178 0.30691 -0.23938 -0.061298 -0.084229 -0.17129 0.038337 -0.11958 -0.28809 0.30547 -0.14493 -0.062572 -0.13635 -0.57083 -0.098597 0.26785 -0.219 -0.14353 0.20438 -0.03121 -0.078079 -0.19714 0.13313 -0.10164 0.080342 -0.10095 -0.18888 0.031684 0.14637 0.34906 -0.33019 -0.32618 0.0024225 0.012973 0.27848 -0.062315 -0.064149 -0.53703 0.013831 0.068421 -0.079273 0.098668 0.16483 -0.45592 -0.17752 -0.077958 -0.16576 0.097502 -0.41516 -0.10553 0.030594 0.18001 0.17889 0.13544 0.062366 -0.14726 0.12531 -0.39346 -0.045338 0.20975 0.080685 0.075455 0.18795 0.19963 -0.10991 0.068805 0.18407 -0.36931 -0.26639 -0.078013 0.69696 -0.48033 -0.027205 0.12383 0.065522 0.38268 0.1873 0.34433 0.036283 -0.22963 0.082643 -0.15881 0.1913 -0.12485 -0.33804 0.054906 0.050755 0.16306 0.23695 -0.074727 0.24717 -0.024025 -0.1172 -0.12503 0.39325 -0.27584 -0.11011 -0.17271 0.17512 -0.19825 -0.51187 0.14899 -0.18664 -0.018399 0.059953 0.10576 -0.34596 0.27205 -0.19172 0.1727 -0.4757 -0.28483 0.020261 -0.27541 0.02183 -0.087325 -0.25174 0.07515 -0.3695 -0.24264 0.35882 -0.18247 -0.087025 0.24183 0.18051 0.19657 0.30962 -0.25336 0.06819 -0.43293 -0.25201 -0.050262 -0.13546 0.13012 -0.080691 0.14008 0.25896 0.10046 -0.020111 0.0083562 0.13335 0.015414 -0.28232 -0.089383 0.10941 -0.15986 
murkowski 0.15253 -0.12159 -0.14782 0.12391 0.12907 -0.32256 0.076404 0.14616 0.23483 0.63654 0.24277 -0.1541 -0.0047609 0.2513 -0.70279 0.076774 0.32072 0.01241 -0.58625 -0.64422 0.13289 0.31664 -0.02556 0.10887 -0.16458 -0.27547 0.1215 -0.013575 -0.12496 -0.25547 -0.41852 -0.1166 0.015614 0.2284 0.24706 -0.30688 0.25036 -0.34164 0.25489 0.096093 -0.33856 0.34532 0.46285 0.080819 -0.029452 0.2183 0.5616 0.31339 0.46108 -0.049196 -0.38565 0.42877 -0.11057 -0.10758 -0.27388 -0.30465 -0.32868 0.19677 0.2247 0.32863 0.068644 -0.20423 -0.063413 0.10397 0.04538 0.3189 -0.33806 0.18079 0.25245 0.14148 -0.4856 -0.23927 0.36342 0.099503 -0.060233 -0.0025125 0.038448 -0.29671 0.087666 -0.16552 0.49519 0.0072191 0.16262 0.1299 -0.11921 -0.36743 -0.10778 0.0080988 0.38605 0.26326 0.22597 0.18099 0.071711 -0.3804 -0.39974 -0.24828 -0.068887 0.13858 5.5234e-05 0.1677 0.060242 -0.10102 -0.018262 0.3522 -0.48257 -0.12435 0.28074 -0.13179 -0.14541 -0.17337 -0.23499 -0.081535 -0.12202 0.40816 -0.40196 -0.12393 0.15932 -0.26221 0.05528 -0.25596 0.10587 -0.06984 -0.021221 -0.24698 -0.018249 -0.099704 0.31507 0.26598 0.26688 0.12456 -0.17952 -0.036965 -0.23924 -0.15958 -0.27114 0.21076 -0.079013 -0.31546 -0.1118 0.029328 0.43134 0.28009 0.19468 0.41032 -0.27572 0.050129 0.22503 0.091667 0.38475 -0.075494 -0.00057495 0.74954 0.17264 0.086145 -0.63601 0.0075174 -0.39308 0.16478 -0.37005 -0.3568 -0.0022409 -0.30665 -0.80332 0.23185 -0.1371 -0.18723 0.23181 -0.93219 0.0076786 0.31108 -0.086724 -0.35601 0.26585 0.50142 0.089486 -0.26214 0.34049 0.052719 -0.1317 -0.24445 0.090033 0.024421 0.22625 0.21279 -0.3142 0.16832 0.0067956 -0.34355 0.12317 -0.26564 -0.053397 -0.18845 0.15816 0.27541 -0.040053 0.18999 0.26624 -0.23802 0.075801 0.075719 -0.58193 0.072248 -0.017812 -0.20355 -0.02037 -0.40344 0.02177 0.11235 -0.14689 -0.012121 0.065453 -0.55586 -0.12462 0.10862 0.27245 0.21705 -0.013868 0.11195 -0.17642 0.14239 -0.15079 -0.17495 0.57379 -0.41198 0.70064 -0.49197 -0.17318 0.18687 -0.031563 0.53969 0.1418 0.06191 0.019112 0.13473 -0.0063191 0.15034 0.10596 -0.2796 -0.24845 0.045699 0.20763 -0.026291 0.12177 -0.10077 0.18358 0.13565 0.031825 0.096168 0.29164 -0.074591 0.039539 -0.30358 -0.19273 -0.17474 -0.56859 0.046513 -0.11938 -0.39352 -0.15314 -0.13088 0.1971 0.26127 0.0058595 0.35332 -0.68593 -0.35488 0.053627 0.10426 0.4882 -0.17319 -0.17939 -0.085271 -0.40495 -0.20786 0.080084 -0.40101 -0.34792 -0.17941 0.64347 0.12833 0.22163 -0.39282 0.015177 -0.072527 -0.02075 -0.35271 -0.06742 0.1683 -0.6247 0.063265 0.30079 -0.063439 -0.12154 0.025229 0.25546 0.31854 0.058181 0.26197 -0.018321 -0.1499 
mccain -0.036243 -0.086684 -0.28885 0.24212 -0.37167 0.018506 0.24243 0.0472 -0.0022091 0.22905 0.14159 -0.12803 0.072035 -0.28017 -0.11569 0.052848 -0.14925 -0.017548 -0.43695 -0.52247 -0.093809 0.28515 -0.32247 0.44293 0.078992 -0.22181 -0.040638 0.17073 -0.23859 -0.12952 -0.41645 0.33175 0.28866 0.34262 0.20111 -0.0067915 -0.0058844 0.00032221 0.39987 0.1224 -0.44631 -0.032145 0.66249 0.45872 -0.28474 0.22288 0.29908 -0.17214 0.29122 -0.17596 -0.33888 -0.09799 -0.026556 0.070019 -0.12007 -0.074279 0.015701 -0.046513 0.20802 0.026724 0.15127 -0.069734 0.012336 -0.046404 0.2256 0.18292 -0.022987 0.31064 0.15853 0.36364 -0.35932 -0.30561 0.082858 0.37236 -0.029449 -0.010969 0.21325 -0.28063 0.28947 -0.028821 0.38367 0.346 0.12005 0.19248 -0.41423 -0.3027 -0.093966 -0.2765 0.32685 -0.27361 0.30966 0.17548 0.24028 -0.24788 -0.39368 -0.081322 0.14763 -0.019821 -0.24443 0.2635 -0.14465 -0.1342 -0.38171 0.1467 -0.3548 -0.056766 0.37291 0.082854 -0.083991 0.036069 -0.26257 0.23418 0.09734 -0.2421 0.092384 -0.016572 -0.12272 -0.089246 -0.15919 0.33327 0.12031 -0.20868 -0.11453 -0.20477 -0.099536 -0.2777 0.10734 0.11904 0.29764 -0.17951 -0.25519 -0.31022 0.20658 -0.24834 -0.54837 -0.043732 -0.077677 -0.25216 0.13126 -0.025138 0.34232 0.10412 -0.024968 0.34477 0.0082729 0.29558 0.053774 0.19128 0.09417 -0.26983 -0.087308 0.2128 0.2436 -0.27961 -0.28687 0.57434 0.020141 -0.25221 0.26046 -0.14635 0.014418 0.03877 -0.38312 0.10213 -0.27094 -0.020494 0.071477 -0.49344 0.31795 0.28259 -0.030706 -0.072114 0.36809 0.31502 -0.013418 0.042353 -0.1785 -0.25242 -0.13075 -0.2275 0.16889 -0.15931 0.044807 0.28961 -0.33892 -0.028908 0.13524 -0.24259 0.16786 -0.11994 -0.067332 -0.23117 0.18871 -0.035916 -0.27156 0.24218 -0.12648 0.12141 0.19884 0.42853 -0.11814 -0.12366 -0.12612 0.16373 0.26213 0.015601 -0.24227 0.13766 0.15891 0.084684 0.25001 -0.0019369 -0.28523 -0.030769 -0.0070021 -0.11624 0.044765 -0.25938 0.063575 -0.025357 -0.51797 -0.53969 0.13022 -0.30642 0.46368 -0.34555 -0.033902 0.074617 0.05328 -0.1089 0.019899 0.020942 0.14082 0.027423 -0.13215 0.20224 0.20985 0.14043 0.11079 -0.035131 0.13878 0.13404 0.15344 -0.37956 -0.17215 0.085583 -0.065874 -0.090818 0.0091968 -0.075173 -0.10373 -0.52026 0.056806 0.2146 -0.4019 0.16552 0.16238 -0.12873 -0.024795 0.14139 0.17512 0.23373 -0.10031 0.29901 -0.27423 -0.32635 -0.058217 -0.061057 0.24609 -0.2752 -0.070502 0.012097 -0.37115 -0.17755 0.12258 -0.42798 -0.050451 -0.00035119 0.61228 -0.0071566 -0.24799 0.14383 0.035417 0.18574 -0.11642 -0.12852 -0.32843 0.19934 -0.39245 0.18223 0.35912 0.10019 0.19419 -0.10995 0.26888 0.2978 -0.19882 -0.12562 -0.061717 -0.12901 
kyl -0.057161 -0.082745 -0.010674 0.19487 -0.079782 -0.3375 -0.045794 0.060454 -0.0015348 0.24585 0.12649 -0.22594 0.17364 -0.13916 -0.080448 -0.072767 0.055885 0.096147 -0.47405 -0.58539 0.21101 0.085926 -0.61137 0.50849 -0.035956 -0.89904 -0.15685 -0.058373 0.1769 -0.021562 -0.7056 0.16287 0.14241 0.24897 0.43936 0.031207 0.27709 0.34252 0.28844 0.16918 0.10813 0.26941 0.68493 0.51879 -0.27273 0.48163 0.29984 0.32374 0.23661 0.0037932 -0.43143 -0.071892 0.20012 -0.25376 0.046484 -0.010053 -0.1564 0.074891 0.034411 -0.26331 0.31281 -0.081599 0.24929 -0.0087635 -0.12929 0.32957 0.096346 0.068155 -0.10291 0.38218 -0.48382 0.058104 0.20296 0.57527 0.25243 0.126 0.40654 -0.2335 -0.0068224 -0.28118 0.355 0.52265 0.25184 0.011346 0.080589 -0.36505 -0.25803 0.068522 0.3288 0.23491 -0.057116 -0.12798 0.44837 0.14487 -0.17447 -0.16932 0.24875 0.074722 -0.28807 0.29743 -0.25912 -0.2544 -0.61634 0.076965 -0.013893 -0.16935 0.088146 0.15763 -0.332 0.17774 -0.19238 0.20357 -0.024511 -0.034228 -0.39597 0.037228 0.22489 -0.47256 -0.26073 0.33225 0.25803 -0.17496 0.098391 -0.31879 0.21397 -0.15861 0.20789 0.034343 0.42178 -0.11568 -0.17976 0.038803 0.10602 -0.22225 -0.28905 0.20076 -0.1947 -0.061789 -0.52146 -0.13383 0.20337 0.422 0.1711 0.14225 -0.17315 0.043941 0.56238 -0.14145 0.30062 -0.016066 -0.14058 0.4934 0.077469 -0.38374 -0.25263 0.28243 -0.31737 -0.33449 -0.28205 -0.26189 0.070645 0.056981 -0.48535 0.20377 -0.011491 -0.30656 -0.16687 -0.72203 0.36306 0.37964 0.137 -0.20292 0.61768 0.5775 0.31133 0.042963 0.23892 -0.0086074 0.08845 -0.0032792 0.46436 -0.070978 0.23779 0.41689 -0.32574 -0.14767 0.27592 -0.34794 -0.35896 -0.11614 0.048587 -0.18924 0.098677 0.28297 -0.19544 -0.24209 -0.092447 -0.20643 0.22353 -0.1908 -0.10086 -0.60939 -0.19494 0.28733 0.029564 -0.166 -0.31466 0.20412 -0.27835 0.29288 0.028851 0.11284 0.19273 -0.14088 -0.031422 0.088769 0.29847 0.19031 -0.19703 -0.13606 -0.25608 -0.53149 0.47684 -0.23412 0.5776 -0.24504 0.026106 0.14026 -0.17722 0.035714 0.1874 0.1168 0.12449 -0.13059 -0.29194 0.1513 -0.045986 -0.17594 0.16427 0.33782 0.46914 0.20137 0.27862 -0.41531 -0.032872 0.18865 0.096074 0.23064 -0.08191 0.21938 -0.17197 -0.017728 -0.09996 0.059081 -0.27139 0.048804 -0.12213 -0.35882 -0.05338 0.086568 0.30449 0.41906 0.027954 0.34133 -0.17923 -0.37589 0.17961 0.39937 0.67363 -0.41015 0.024026 0.034713 -0.1353 -0.08976 0.087666 -0.19118 0.25472 -0.087837 0.15246 0.23814 -0.09784 -0.34548 0.17419 0.28281 0.33611 0.14406 -0.24984 0.098207 -0.45585 0.15347 0.16838 0.41553 0.17722 0.11056 0.043368 0.22139 -0.50673 0.078715 0.1274 -0.031591 
pryor 0.018142 0.072001 0.071118 0.1514 0.47131 -0.5279 -0.1509 -0.16717 -0.15432 0.059852 0.043051 0.019838 -0.026082 -0.38202 -0.18647 -0.039163 -0.32373 0.3814 0.045574 -0.21474 -0.042534 -0.19791 -0.10297 0.26366 -0.077316 -0.093141 -0.12483 0.025637 0.065041 0.17371 -0.00019276 0.072991 0.14478 -0.0019112 0.20595 0.11702 0.035682 0.051895 -0.059975 -0.059747 -0.35061 0.11119 0.23388 0.30903 -0.095851 0.20316 0.26586 -0.26174 0.36249 0.25465 -0.11807 0.016376 0.0030793 0.027421 -0.05105 -0.24374 -0.15794 0.082967 -0.087874 0.049403 -0.12306 -0.25835 0.46899 -0.20158 0.43105 -0.11409 -0.14027 0.28555 -0.28518 -0.001327 -0.21067 -0.063701 0.25235 0.28651 0.049866 0.15041 0.39515 -0.45198 0.010332 -0.06028 0.23477 0.31038 -0.023428 0.16179 0.13628 -0.11531 -0.16534 0.033659 0.31639 0.27215 0.13135 0.062673 0.48754 -0.14522 -0.26754 -0.10315 -0.013165 0.27846 -0.1209 0.36556 -0.16333 -0.13404 0.064743 0.051316 -0.20818 0.040171 0.26047 7.9437e-05 -0.18083 0.22379 -0.13757 0.18307 -0.21022 0.14423 0.22201 0.046289 0.13655 -0.35627 -0.13507 0.27395 0.4389 -0.069097 -0.1336 0.27633 -0.27631 -0.28892 0.33224 -0.17912 0.27028 0.034749 -0.1966 0.020331 0.095862 -0.087614 -0.4433 0.21872 -0.14667 0.025127 0.022479 0.2819 0.26521 0.21798 0.25717 -0.0020968 0.15152 -0.16328 0.37814 -0.18259 0.15241 0.038896 0.017476 0.60348 -0.32844 0.38132 -0.62456 0.023937 -0.1395 0.28122 -0.18591 -0.14652 -0.096296 0.018561 -0.22749 0.24166 -0.087534 -0.18767 -0.19375 -0.22615 -0.04216 0.37786 0.12039 -0.15149 0.12484 0.17057 -0.26881 -0.050426 -0.10569 -0.18552 -0.11982 -0.10182 0.19901 -0.20651 -0.13588 0.63547 -0.5283 -0.38727 0.17522 -0.0018373 0.051698 -0.05506 -0.0052621 -0.30989 -0.37028 -0.15955 -0.21149 0.11905 0.12747 -0.14133 0.20431 -0.35576 -0.14719 0.073908 -0.061003 -0.4099 0.28538 -0.10194 -0.24016 0.26149 -0.15787 0.26839 -0.17618 -0.24932 -0.10542 0.25817 0.37843 -0.010209 -0.14377 -0.0077291 -0.34096 -0.16069 -0.074672 -0.023638 -0.057374 -0.24361 0.5969 -0.19378 0.019472 -0.13843 0.045889 0.45197 0.12807 0.49709 0.51696 -0.16004 0.024353 0.23918 0.39921 0.13081 0.0081081 -0.13704 0.097647 0.1902 0.19253 -0.11727 -0.32169 0.03494 -0.11144 0.21198 -0.037695 -0.28966 0.22329 0.083549 -0.088982 -0.032797 -0.38676 -0.021574 0.097056 0.014167 0.10874 -0.036304 -0.040216 0.28445 -0.042041 0.17396 -0.39266 -0.42655 -0.16341 0.29589 0.31398 -0.39923 0.0034502 0.16423 -0.17069 -0.56352 0.19228 -0.54131 -0.32316 -0.075356 0.40205 -0.10609 0.073063 -0.16022 0.047797 0.12228 0.21535 0.28882 -0.15422 0.188 -0.51768 0.47167 0.27767 0.085558 0.047372 -0.18371 0.12772 0.091277 -0.10978 0.20139 0.13394 -0.13589 
bumpers 0.034241 0.046645 0.021326 -0.27318 0.056443 -0.17034 -0.12673 0.28611 0.01008 0.082859 0.075968 0.20253 0.080845 -0.44329 -0.26622 -0.16282 -0.03922 0.030198 0.054183 -0.28859 -0.14764 0.19205 -0.16821 0.30665 0.029051 -0.14853 -0.20179 0.024882 -0.1505 0.081414 0.011753 0.090044 -0.35757 0.20291 0.33042 0.047217 0.096725 -0.091541 -0.086634 -0.14791 -0.33869 -0.10995 0.50227 0.2941 0.088348 0.63644 0.20473 0.046403 0.43402 0.021545 -0.12247 0.062762 0.24547 -0.19654 -0.29758 -0.11059 -0.34569 -0.2885 0.142 0.21984 -0.040727 -0.3648 0.51471 -0.2274 0.1659 0.1752 0.052066 0.28255 0.20957 -0.072996 -0.075886 -0.066442 0.5073 0.25849 0.024264 0.024583 -0.10204 -0.15314 0.14089 -0.11069 0.4128 0.29938 -0.063503 0.055951 0.0074835 0.13846 -0.22654 -0.15851 -0.22888 0.29682 0.21478 0.077685 0.49714 0.24774 -0.17305 -0.25519 0.010854 0.20285 -0.3035 0.42733 -0.10727 0.021395 -0.14985 -0.079016 -0.078279 0.054054 0.47419 -0.041926 -0.30599 -0.29187 -0.13608 0.20736 -0.012229 0.24303 -0.072312 0.042259 0.092561 -0.033199 -0.32241 0.02707 0.38869 -0.011994 -0.30397 -0.033164 0.00535 -0.27486 0.13643 -0.46851 0.4928 0.065957 -0.028644 0.26145 -0.064973 0.014735 -0.19637 -0.086078 -0.056846 -0.032595 -0.060589 -0.053133 -0.0094929 0.58092 0.29064 -0.15912 -0.085011 -0.051664 0.078101 -0.25387 0.17319 0.1506 -0.043891 0.41691 -0.3346 0.38383 -0.43033 -0.19631 -0.021003 0.008815 -0.39598 0.017962 -0.094899 0.11926 -0.55851 0.10024 -0.090358 0.047692 -0.20648 -0.3623 0.3137 -0.028635 -0.034457 -0.39813 0.22722 -0.062537 0.15962 -0.1388 -0.069883 -0.25592 0.25058 0.23052 0.34317 -0.37363 0.020648 0.29878 -0.36481 -0.18775 -0.06052 0.033291 -0.081746 -0.19975 0.02804 -0.26648 -0.46301 -0.052186 -0.30025 0.025444 0.0020856 -0.12847 0.0090677 0.07751 -0.43676 0.15762 0.15893 -0.47327 0.12098 -0.063642 0.076189 0.20938 -0.32955 0.089017 0.21083 -0.24908 -0.11567 0.17921 0.24817 -0.036148 -0.22753 0.080389 -0.20043 -0.54087 0.21819 -0.17845 -0.27837 -0.14718 0.48924 -0.22985 -0.043876 -0.15202 0.17998 0.30381 -0.28536 -0.0040193 0.42666 -0.088496 0.011426 -0.13978 -0.018916 -0.10943 -0.22968 -0.27846 0.030403 0.31962 -0.22913 -0.22607 -0.41767 0.24971 -0.21534 0.23049 0.025523 -0.10344 0.32523 -0.22873 0.27581 -0.15902 -0.50445 -0.023493 0.20484 -0.0082604 -0.054364 -0.15308 -0.23817 0.31932 -0.037145 -0.11848 -0.32235 -0.27861 -0.042951 0.22 0.0048197 -0.11556 0.070033 0.28933 -0.45377 -0.27571 0.32431 -0.47858 -0.42174 0.055131 0.39159 -0.096857 0.19881 -0.30838 0.1131 0.24298 0.34474 -0.12723 0.1028 0.28776 -0.12591 0.58382 -0.0040813 0.16014 0.36373 -0.018599 0.12585 -0.27757 -0.43773 0.26061 0.40524 0.28687 
boxer -0.045501 -0.055651 -0.32643 0.0043403 0.18386 0.28938 -0.051527 0.14175 -0.075356 -0.092898 0.176 0.093665 0.08575 -0.026459 -0.061506 -0.16478 -0.018438 0.10449 -0.62281 -0.086302 0.059331 0.2341 -0.2501 0.70076 -0.27845 0.011717 0.015279 -0.12068 0.036422 -0.0098469 -0.31669 0.38545 -0.29379 0.26844 0.18678 0.085469 0.088599 -0.25148 -0.14386 -0.26404 -0.19599 0.11849 0.002997 0.56805 0.014183 0.24885 -0.026044 0.14892 -0.086766 -0.15634 -0.3152 -0.19364 0.12809 -0.17281 0.014512 -0.2022 -0.20952 0.00030005 -0.32549 0.22122 0.051629 -0.51121 0.25818 0.013133 -0.08352 -0.053868 -0.31699 0.17124 0.09119 -0.03064 -0.25339 0.083428 0.12043 0.11542 -0.21826 -0.051724 0.29938 0.072424 0.16827 -0.067835 0.41504 0.29527 0.14808 0.17062 0.11866 -0.043303 -0.30405 -0.16971 0.17149 0.16799 -0.13313 -0.045951 -0.29103 0.14554 -0.34615 -0.40711 -0.1309 -0.13619 -0.30503 0.24399 -0.42714 0.041075 -0.33864 0.02584 0.094488 0.31873 0.63887 0.11186 -0.26837 0.15167 -0.12428 0.22822 -0.2397 -0.1859 0.037347 -0.10124 0.1777 -0.16276 -0.25024 0.047005 0.30421 -0.21403 0.32535 -0.1694 0.49867 -0.1767 0.13733 -0.041539 0.33938 -0.19507 0.043372 0.42592 0.24111 -0.11527 -0.16649 0.26687 -0.17397 -0.14715 -0.27097 -0.12396 0.31634 0.43767 0.3958 -0.12442 -0.18083 0.12734 0.35015 -0.25723 0.064705 0.16314 -0.16804 0.50481 0.18406 0.26704 -0.40456 -0.092959 -0.11483 0.064506 0.070236 -0.39916 0.15341 0.041282 -0.1362 -0.26827 -0.048488 -0.24736 -0.22384 -0.27934 -0.28987 0.046677 -0.41682 0.0027151 0.47777 0.21393 0.1629 -0.099468 0.30082 -0.092029 0.1876 -0.29824 0.28545 0.098697 0.083201 0.22209 -0.096136 -0.066503 -0.079675 -0.0027735 0.25549 0.10936 0.087493 -0.11008 -0.14157 0.20647 -0.13448 -0.44315 0.21798 0.046149 0.061464 -0.14128 -0.30977 -0.013259 0.1444 0.16482 0.28512 0.033981 -0.36289 0.011763 -0.36043 -0.028619 0.55723 -0.038576 0.14583 0.14516 0.037892 0.31501 -0.23062 0.16532 -0.040413 -0.24322 0.092558 -0.28182 0.079639 -0.24849 0.19035 -0.075975 -0.01644 -0.4705 -0.040364 0.3573 -0.021741 0.39948 0.41024 -0.13549 -0.0087896 0.23643 0.048754 0.19382 0.001537 -0.10556 0.18716 0.18704 0.068538 0.023009 -0.35314 0.04644 -0.30122 -0.66103 0.16559 0.28341 0.01748 -0.52632 0.010545 -0.035848 -0.49354 -0.13103 0.37245 -0.38006 -0.16406 -0.37296 -0.3791 0.27519 -0.012769 -0.26562 -0.31773 -0.37864 0.24159 0.044132 0.39717 0.13587 0.044857 0.36384 -0.39611 -0.20878 -0.07184 -0.2002 0.13638 0.23248 0.31112 -0.16205 -0.055843 -0.021475 0.019557 0.08559 0.06253 0.029486 0.046666 0.20443 -0.56214 0.22782 0.16271 0.15976 0.46215 0.25865 0.15312 -0.058666 -0.1886 -0.056719 -0.1386 -0.14522 
feinstein -0.049046 -0.35285 -0.34824 0.19127 -0.053993 0.14302 -0.17715 0.27884 0.23594 0.076012 0.17611 -0.0026074 0.14237 -0.45901 0.13417 -0.16834 0.050205 -0.12215 -0.44761 -0.40448 0.17226 0.20014 -0.091513 0.55356 -0.18826 -0.10926 -0.14249 -0.49063 -0.38304 -0.022155 -0.25171 0.4172 -0.030899 0.44273 0.18064 0.014147 0.027739 0.15087 -0.29146 0.11552 -0.2649 0.0078379 0.4044 0.36317 -0.023357 0.2544 -0.13549 0.0023901 -0.06287 -0.093045 -0.25953 0.0028816 0.12546 0.21107 -0.082553 -0.068256 0.15315 0.024297 -0.15909 -0.1041 0.037609 -0.28253 0.2039 -0.22273 -0.068013 0.23754 -0.18207 0.11658 -0.069742 0.076046 -0.15149 0.15717 0.017996 0.0090043 -0.13501 -0.011913 0.2116 0.044121 0.24827 -0.25942 0.48818 0.42968 0.015633 0.2965 0.035955 0.1034 0.076428 -0.32808 0.22397 0.12573 -0.002393 -0.039576 -0.050204 -0.064847 -0.11002 -0.17508 -0.20874 0.11805 -0.44483 0.27842 -0.14918 -0.069307 -0.25518 0.2517 -0.040028 0.20191 0.58231 -0.079725 -0.35882 0.16084 -0.34657 0.14509 -0.31579 -0.21317 -0.1283 0.19744 0.1082 -0.19741 -0.36562 0.16651 0.38768 -0.058689 0.045282 -0.031131 0.15491 -0.11466 -0.036254 -0.070572 0.39516 -0.20283 0.0082925 -0.1649 0.20821 -0.30613 0.057522 -0.0059617 0.10804 -0.175 -0.12652 -0.15843 0.14644 0.032007 0.43361 -0.061689 -0.037811 0.31325 0.19292 -0.43809 0.088091 -0.018738 -0.25821 0.27329 0.15826 -0.065794 -0.24384 0.25719 -0.22891 0.094492 -0.23177 -0.1414 -0.11517 -0.31562 0.024513 0.095663 0.038016 -0.34076 -0.054292 -0.45302 0.081556 0.063753 -0.18911 0.03643 0.34279 0.34608 0.27086 -0.091123 0.12405 -0.13846 -0.075702 -0.33858 0.34313 -0.33473 0.14701 0.47744 -0.43289 -0.04718 0.013357 -0.37379 -0.01675 0.20048 0.03032 -0.14247 0.21255 0.27093 -0.23533 -0.027222 -0.1862 0.014241 0.19626 0.17423 -0.23016 0.047199 0.1047 -0.056218 0.40704 -0.297 -0.17093 0.054743 -0.085149 0.010767 0.1541 -0.17431 -0.068137 0.061498 0.013447 0.16896 -0.058877 0.19087 -0.053142 -0.22325 -0.066494 -0.17226 0.23081 -0.10453 0.042957 -0.30897 0.21001 -0.34208 -0.22448 0.36304 -0.012075 0.23797 0.26699 -0.12235 -0.016343 0.35169 0.042618 0.21979 0.39941 -0.062646 0.19695 0.063498 0.26609 0.25916 -0.21155 0.2571 0.12652 -0.40267 0.65269 -0.032973 -0.0054467 -0.31303 0.003251 0.074132 -0.18977 -0.19861 0.20394 -0.52348 -0.22291 -0.1775 -0.36289 0.33872 -0.19694 -0.33184 -0.34039 -0.44387 0.18665 0.068977 0.42197 -0.25819 -0.24058 0.1807 -0.32441 -0.33625 0.10175 -0.17901 -0.45048 0.011415 0.27131 0.016263 -0.12154 -0.080214 0.11913 0.0016575 0.52379 0.014662 -0.18292 0.10064 -0.37614 0.32807 0.50922 0.19437 0.21091 0.38635 0.00088107 -0.12527 -0.21971 0.061755 -0.31183 -0.1627 
brown 0.12006 -0.074451 -0.21566 -0.083988 -0.019733 -0.47667 0.079148 0.19714 -0.14557 -0.080245 -0.024476 -0.26549 -0.17576 -0.30663 -0.091309 -0.026407 -0.031479 0.28467 -0.24395 -0.080629 -0.24724 0.19598 0.17334 0.31043 -0.098927 0.1153 0.031915 -0.10076 -0.18486 0.1423 0.33952 0.056545 -0.16972 -0.15176 -0.091737 0.43706 0.01836 -0.12543 0.10358 -0.085789 -0.23856 -0.076943 0.16545 0.10986 -0.072435 -0.22553 0.05718 0.00012049 0.0071442 0.029284 0.16974 0.20116 0.04288 0.055352 -0.2463 -0.15365 -0.028215 -0.11527 0.016895 -0.16434 -0.033582 0.03246 0.37018 0.17288 0.28061 -0.13083 0.068743 -0.064797 -0.12079 -0.19094 -0.35603 -0.25435 -0.10608 0.18122 -0.0012514 0.12452 0.25416 -0.20457 -0.295 0.038899 0.24295 0.0071942 0.059671 0.21077 0.091332 0.091126 0.22497 0.055679 0.029059 -0.09844 -0.038568 -0.19393 -0.035529 0.16982 -0.27012 -0.29751 0.12045 0.26735 -0.072423 0.3136 0.018898 -0.023034 -0.11998 0.049343 -0.10829 0.11319 0.008061 -0.23358 0.16541 -0.04127 -0.22562 0.17105 0.17367 -0.16256 0.17059 -0.071368 -0.10467 -0.11575 -0.11467 -0.19388 0.34954 -0.038454 -0.03296 0.15545 0.35089 -0.1358 0.27613 0.11367 -0.099259 -0.11179 0.02775 0.15698 -0.089981 -0.10714 -0.28451 -0.042191 -0.27628 0.15334 0.050746 -0.26909 0.44024 0.1756 0.4303 -0.21715 -0.38095 -0.10325 -0.029125 0.0016228 0.36324 0.024546 -0.078511 0.32189 0.25785 0.36047 -0.11916 0.097552 -0.33369 0.14064 0.020771 -0.11942 -0.1454 0.16549 -0.08124 0.20081 0.16527 -0.058232 -0.35052 -0.42047 -0.20858 -0.14072 0.054418 0.0035558 0.12018 -0.11355 0.30561 0.20574 0.24264 -0.077327 0.31283 -0.025909 0.24068 -0.20587 0.43298 0.27372 -0.075239 0.087584 -0.089831 -0.013046 -0.044232 0.11276 0.24324 -0.045555 0.20978 -0.12935 -0.077799 -0.077852 -0.057223 -0.18689 0.09542 0.0016947 -0.30633 0.0057821 0.030763 -0.15824 0.076372 -0.13936 0.11488 -0.0053509 -0.14038 -0.077657 0.24158 -0.17131 -0.49973 0.055413 0.22041 -0.068296 -0.1968 0.17486 -0.16475 -0.15109 0.074174 -0.22176 -0.083631 -0.23581 0.38206 -0.18644 0.07956 -0.35342 -0.11371 -0.093765 -0.058544 0.25117 0.18207 0.029446 -0.0044144 0.14834 0.061889 0.33944 0.15199 0.057606 -0.12364 -0.24637 0.25538 0.20658 -0.29687 0.21234 -0.16018 0.057027 0.066008 -0.016762 0.10082 -0.1826 0.18799 -0.16881 0.11134 -0.36401 -0.036268 -0.13332 -0.45395 0.00070043 -0.22184 0.22529 -0.17364 -0.10178 -0.012528 -0.26223 0.24232 -0.078573 0.35261 -0.21595 -0.41813 0.20635 -0.23724 -0.12991 0.1003 -0.16267 -0.14424 0.049964 -0.0065741 0.15718 0.013799 -0.13101 -0.25878 -0.31022 -0.053575 0.03907 -0.041122 0.15852 -0.25624 0.22988 0.071025 0.31125 -0.18901 0.1773 0.21931 -0.14466 0.19499 -0.047451 0.049054 -0.17543 
campbell 0.20494 -0.30756 -0.17825 -0.08731 0.063328 -0.071563 -0.27086 -0.15611 0.19766 -0.019456 0.18612 -0.28629 -0.11045 -0.28458 -0.14363 -0.19314 0.20704 0.26262 0.08721 -0.25965 -0.051171 0.41723 -0.23002 0.29167 -0.062287 -0.16368 0.13107 0.046657 -0.18633 0.084065 0.0081671 0.28377 -0.24187 0.075644 0.16014 0.16921 0.019115 0.042191 -0.15544 -0.083017 -0.020526 0.16969 0.26958 0.29409 0.22038 -0.083654 0.15995 0.14866 -0.078312 -0.076927 0.15805 0.03292 0.15989 0.11856 -0.12334 -0.14729 0.075389 -0.052045 -0.039631 0.006 0.15758 -0.10683 0.44753 0.12683 0.019023 -0.040278 0.053141 0.034698 -0.15125 0.13108 -0.37648 -0.15641 0.29862 0.081016 0.21807 0.22035 0.20359 -0.29149 -0.025576 -0.11974 0.27792 -0.19752 0.16078 0.020458 0.0079821 -0.14615 -0.039366 -0.12465 0.2445 -0.036702 -0.026491 -0.060485 0.087417 -0.032293 -0.10319 -0.041763 0.20901 0.30526 -0.20878 0.12167 -0.15915 0.023891 -0.1664 0.10548 0.096952 -0.010455 0.1397 -0.17022 -0.10875 0.082215 0.043587 0.035557 0.029458 -0.062011 0.035848 0.042462 -0.21945 0.089461 -0.091566 -0.015158 0.16566 0.12947 -0.084186 -0.13424 0.33227 -0.068933 0.41536 0.36726 0.051072 0.081929 -0.27912 -0.20432 0.21537 -0.22704 -0.2746 -0.097105 -0.14608 -0.081209 0.036429 0.030691 0.43356 -0.17448 0.22367 0.23021 -0.30579 0.24402 -0.083412 -0.012546 0.1318 0.045128 -0.054021 0.29755 0.13295 0.09357 -0.125 0.19693 -0.52346 0.018004 -0.097983 0.12206 -0.25414 0.20231 0.15556 -0.13296 0.072782 -0.16418 -0.22276 -0.14057 -0.39132 0.30242 -0.12766 -0.50801 0.094098 0.14624 0.19308 -0.14982 0.25771 -0.14745 0.20261 -0.1293 0.22587 0.17028 0.30077 0.24149 -0.097499 0.044411 -0.27058 0.035664 -0.38103 0.11578 0.066854 -0.050875 -0.20894 0.20889 -0.023829 0.11728 -0.025985 0.039537 -0.1095 -0.13648 -0.23471 0.008325 -0.12805 -0.20253 0.25339 -0.045432 -0.16526 0.15277 0.049125 -0.073454 0.2878 -0.19771 -0.41595 -0.50107 0.27692 0.04433 -0.035616 -0.15021 -0.45487 -0.12551 -0.11601 -0.17898 -0.047397 -0.33781 0.15336 -0.2702 -0.0098748 -0.21075 0.10042 0.13096 -0.09931 0.1051 0.15901 -0.077069 0.19542 -0.25099 -0.080419 0.24684 0.17766 0.050584 -0.10698 -0.27123 -0.16801 -0.13085 -0.20863 -0.13959 -0.059896 0.25558 -0.062983 0.10236 0.14174 -0.37848 0.084913 -0.21583 -0.078858 -0.1657 -0.17418 -0.13095 -0.12372 -0.017241 0.10632 0.27241 -0.20519 -0.0014635 -0.27073 -0.17678 -0.29621 -0.18663 0.11438 -0.20504 -0.25011 0.45386 0.01093 -0.22647 0.28086 -0.086413 0.35155 -0.2268 0.016851 0.0023042 0.16593 -0.17098 0.0049149 -0.13587 0.1672 -0.052698 -0.20896 0.23136 -0.45251 0.18795 0.070719 0.26657 -0.095284 0.15662 0.090094 -0.13059 -0.05973 0.023256 0.16398 -0.15229 
campbell 0.20494 -0.30756 -0.17825 -0.08731 0.063328 -0.071563 -0.27086 -0.15611 0.19766 -0.019456 0.18612 -0.28629 -0.11045 -0.28458 -0.14363 -0.19314 0.20704 0.26262 0.08721 -0.25965 -0.051171 0.41723 -0.23002 0.29167 -0.062287 -0.16368 0.13107 0.046657 -0.18633 0.084065 0.0081671 0.28377 -0.24187 0.075644 0.16014 0.16921 0.019115 0.042191 -0.15544 -0.083017 -0.020526 0.16969 0.26958 0.29409 0.22038 -0.083654 0.15995 0.14866 -0.078312 -0.076927 0.15805 0.03292 0.15989 0.11856 -0.12334 -0.14729 0.075389 -0.052045 -0.039631 0.006 0.15758 -0.10683 0.44753 0.12683 0.019023 -0.040278 0.053141 0.034698 -0.15125 0.13108 -0.37648 -0.15641 0.29862 0.081016 0.21807 0.22035 0.20359 -0.29149 -0.025576 -0.11974 0.27792 -0.19752 0.16078 0.020458 0.0079821 -0.14615 -0.039366 -0.12465 0.2445 -0.036702 -0.026491 -0.060485 0.087417 -0.032293 -0.10319 -0.041763 0.20901 0.30526 -0.20878 0.12167 -0.15915 0.023891 -0.1664 0.10548 0.096952 -0.010455 0.1397 -0.17022 -0.10875 0.082215 0.043587 0.035557 0.029458 -0.062011 0.035848 0.042462 -0.21945 0.089461 -0.091566 -0.015158 0.16566 0.12947 -0.084186 -0.13424 0.33227 -0.068933 0.41536 0.36726 0.051072 0.081929 -0.27912 -0.20432 0.21537 -0.22704 -0.2746 -0.097105 -0.14608 -0.081209 0.036429 0.030691 0.43356 -0.17448 0.22367 0.23021 -0.30579 0.24402 -0.083412 -0.012546 0.1318 0.045128 -0.054021 0.29755 0.13295 0.09357 -0.125 0.19693 -0.52346 0.018004 -0.097983 0.12206 -0.25414 0.20231 0.15556 -0.13296 0.072782 -0.16418 -0.22276 -0.14057 -0.39132 0.30242 -0.12766 -0.50801 0.094098 0.14624 0.19308 -0.14982 0.25771 -0.14745 0.20261 -0.1293 0.22587 0.17028 0.30077 0.24149 -0.097499 0.044411 -0.27058 0.035664 -0.38103 0.11578 0.066854 -0.050875 -0.20894 0.20889 -0.023829 0.11728 -0.025985 0.039537 -0.1095 -0.13648 -0.23471 0.008325 -0.12805 -0.20253 0.25339 -0.045432 -0.16526 0.15277 0.049125 -0.073454 0.2878 -0.19771 -0.41595 -0.50107 0.27692 0.04433 -0.035616 -0.15021 -0.45487 -0.12551 -0.11601 -0.17898 -0.047397 -0.33781 0.15336 -0.2702 -0.0098748 -0.21075 0.10042 0.13096 -0.09931 0.1051 0.15901 -0.077069 0.19542 -0.25099 -0.080419 0.24684 0.17766 0.050584 -0.10698 -0.27123 -0.16801 -0.13085 -0.20863 -0.13959 -0.059896 0.25558 -0.062983 0.10236 0.14174 -0.37848 0.084913 -0.21583 -0.078858 -0.1657 -0.17418 -0.13095 -0.12372 -0.017241 0.10632 0.27241 -0.20519 -0.0014635 -0.27073 -0.17678 -0.29621 -0.18663 0.11438 -0.20504 -0.25011 0.45386 0.01093 -0.22647 0.28086 -0.086413 0.35155 -0.2268 0.016851 0.0023042 0.16593 -0.17098 0.0049149 -0.13587 0.1672 -0.052698 -0.20896 0.23136 -0.45251 0.18795 0.070719 0.26657 -0.095284 0.15662 0.090094 -0.13059 -0.05973 0.023256 0.16398 -0.15229 
dodd 0.04745 -0.1339 -0.18786 -0.13884 -0.0087638 0.13975 -0.25461 0.04825 -0.1492 0.41409 0.35487 0.094563 0.18585 -0.27577 -0.0040555 -0.11894 -0.079724 0.034906 -0.2138 -0.32225 0.054696 0.39875 -0.051344 0.40563 -0.26738 -0.33247 -0.065469 -0.16704 0.079124 0.19817 -0.17213 0.30568 -0.13222 -0.11177 0.25298 0.02261 -0.052031 0.088049 0.079368 0.11745 -0.51508 0.24331 0.78796 0.29988 -0.36534 0.07019 0.073704 -0.16782 0.39704 -0.18337 -0.25878 -0.011377 0.15874 -0.15509 0.1178 0.065299 -0.18013 -0.093644 -0.22156 0.3824 0.0075793 -0.17742 0.20327 -0.022033 0.015064 0.2044 0.080763 0.092351 -0.020562 0.11663 -0.21909 -0.16157 0.2599 0.277 -0.21416 0.25244 0.49228 0.069489 0.19541 -0.017215 0.25259 0.15707 0.057388 -0.019016 -0.089778 -0.21611 0.25247 -0.10446 -0.11453 0.11107 -0.058788 0.053803 0.32062 0.37998 -0.23854 -0.19562 0.065195 0.076373 -0.26814 -0.053172 -0.099416 -0.039514 -0.31343 0.098833 -0.099965 0.24242 0.17734 0.15806 -0.5139 0.13728 -0.36066 0.30272 -0.28257 -0.19664 0.084023 -0.082005 -0.093672 -0.17557 -0.3367 -0.34727 0.32073 -0.098783 -0.0090901 -0.12325 -0.030004 0.093811 -0.011584 -0.093363 0.012656 -0.026421 -0.28821 -0.056213 -0.40462 -0.10572 -0.23989 0.12588 0.35881 -0.20589 -0.17522 -0.43374 0.32474 0.14472 0.43798 0.16452 -0.1048 0.19296 0.070886 0.061722 -0.052478 0.072876 0.20412 0.50615 -0.093704 -0.17252 -0.073878 0.48906 0.10428 0.38271 -0.039457 -0.27013 0.25946 0.27603 -0.56833 -0.013915 -0.30994 0.11878 0.036762 -0.15737 0.12635 0.25624 -0.012783 -0.21595 0.32171 0.21237 0.056812 -0.01128 0.13749 -0.16354 -0.17294 -0.27902 0.099267 -0.42716 -0.3965 0.22087 -0.32271 -0.11523 -0.028369 -0.055855 0.14459 -0.061125 -0.25548 -0.38113 -0.035832 0.01891 -0.067842 0.25454 0.13923 -0.1484 -0.039544 0.17762 -0.25197 -0.20359 -0.23359 0.051713 0.21572 -0.23476 -0.39863 0.18924 -0.26282 -0.025319 0.15376 -0.15004 0.22308 -0.063234 0.1735 0.014753 -0.10541 0.014337 0.074941 -0.35712 0.12507 -0.16658 0.054885 -0.012324 0.20855 -0.4218 0.0064901 -0.10777 0.40798 -0.056696 -0.04657 -0.072236 0.31726 0.25985 0.11277 0.000727 -0.066614 0.23906 0.2219 -0.37283 0.45778 0.31719 0.33479 -0.33411 -0.069263 0.17492 0.056413 -0.0076265 0.44425 0.10466 0.23866 -0.016761 0.065337 -0.18751 -0.37984 -0.074254 0.1208 -0.031678 -0.2023 -0.23256 -0.14272 0.47221 -0.31645 0.13189 -0.090589 -0.44515 -0.049627 -0.028001 0.33265 -0.24001 -0.18436 0.017778 -0.22106 -0.29972 0.20422 -0.12451 0.037444 -0.1142 0.75985 -0.22787 0.10316 -0.055211 0.075611 -0.10226 0.08105 -0.14899 0.1183 0.38828 -0.28792 0.60222 0.27929 0.29664 0.27941 -0.078366 -0.18895 0.13456 -0.19653 0.071823 0.15991 0.36462 
lieberman -0.11936 0.11458 0.15492 -0.013242 -0.1138 0.14818 0.07606 0.12314 -0.064938 0.045516 0.32892 0.16292 0.11382 -0.39638 -0.29301 0.10597 -0.2783 0.09432 -0.25106 -0.49739 0.18747 0.39769 -0.16095 0.1988 0.093276 -0.29622 0.073986 0.099845 -0.1891 -0.12408 -0.2674 0.13967 -0.045811 0.37631 0.25989 0.066886 -0.23035 -0.14696 0.067063 -0.1094 -0.16782 0.15767 0.8165 0.23506 -0.35468 0.26312 0.3546 -0.18511 0.030553 -0.36109 -0.16318 0.0064471 0.050163 0.13394 0.12428 0.060019 0.012853 0.056369 -0.21527 -0.088921 -0.00078606 -0.12444 0.32074 0.14956 -0.041914 -0.25939 -0.04443 0.23664 0.17271 -0.052497 -0.11303 -0.14595 -0.12602 0.24506 -0.31876 -0.079868 0.26708 -0.49411 0.49401 -0.13637 0.0074383 0.43993 -0.015014 0.041049 -0.04001 -0.0096262 -0.28509 -0.13632 0.17217 -0.15607 -0.097384 0.2718 0.21988 -0.25531 -0.18959 -0.21252 -0.45489 0.0043205 -0.2483 0.073285 -0.090499 -0.12652 -0.083623 0.14206 0.0214 0.42999 0.31002 0.13428 -0.2724 0.44803 -0.24106 0.31897 -0.20712 -0.35534 0.10964 0.095692 -0.03794 -0.40817 -0.28014 0.097832 0.18375 0.063707 -0.0059839 -0.25745 -0.20633 -0.16185 0.11335 -0.38948 0.26368 0.16254 -0.031683 -0.27485 0.035295 -0.050859 -0.73582 0.21626 0.12135 -0.29102 -0.11392 -0.1964 0.27291 0.18279 0.22164 -0.11251 -0.37829 -0.045969 -0.064586 -0.027137 0.19266 0.084635 -0.0095328 0.56962 0.24414 -0.088135 -0.089019 0.47122 0.030135 -0.10661 0.1577 -0.19312 0.21865 -0.0085923 -0.16848 -0.17708 -0.60188 0.024486 0.093796 -0.019364 0.35304 0.41762 -0.13873 0.20817 0.13769 0.4056 0.019719 -0.13259 0.068235 0.061759 -0.019652 -0.2003 0.45345 -0.46378 -0.1458 0.55926 -0.21729 -0.19938 -0.20976 -0.066895 -0.068583 -0.11819 -0.30085 -0.35261 -0.21194 -0.25119 -0.3808 0.28088 -0.29414 -0.06648 0.11444 0.24297 -0.27664 -0.02264 -0.068771 -0.17022 0.33123 -0.26382 -0.47077 0.19114 -0.47698 0.28456 -0.15797 0.14253 -0.02077 -0.040342 -0.1684 0.016154 -0.25667 -0.26507 0.11395 -0.32492 -0.012683 -0.39284 0.36938 -0.19897 0.32964 -0.24464 0.10274 0.0021202 0.33054 0.13266 -0.18422 -0.029606 0.19755 -0.079815 -0.098399 0.19841 0.0040461 0.17778 0.18518 -0.19603 0.41805 0.2715 0.19185 -0.037434 -0.24145 -0.14233 -0.20374 -0.074351 -0.014327 -0.12194 0.078337 -0.16483 0.020731 -0.0015984 -0.076019 0.030386 0.13923 -0.11484 0.058331 0.21608 0.063121 0.13081 -0.24782 0.19418 -0.19807 -0.42624 -0.11986 0.23898 0.2097 -0.2459 0.27582 0.10667 -0.54106 -0.32264 -0.016895 -0.23189 -0.051214 -0.14621 0.38127 -0.41145 0.070809 -0.080252 -0.054121 0.19254 0.20463 -0.021662 0.067149 0.11449 -0.36653 0.24774 0.52482 0.31583 0.17675 0.014117 0.1543 0.027819 -0.10605 0.041179 -0.087455 -0.094118 
roth -0.0071468 0.1781 -0.22778 0.056491 0.28006 -0.020505 -0.083023 -0.13902 0.03433 0.098776 0.2351 -0.079138 -0.22268 -0.089652 -0.32349 -0.019055 -0.15705 0.034111 0.19522 -0.19472 0.21292 0.4824 -0.20435 0.10127 0.010208 -0.3527 -0.20617 -0.17061 0.048463 -0.23508 -0.39227 0.063824 -0.076675 -0.21544 0.27806 0.074133 -0.10199 0.0056174 0.45299 0.22026 -0.51193 0.085252 0.46053 0.029818 -0.23766 0.069433 0.33391 -0.0078614 0.52763 0.07149 0.044782 0.035207 -0.0077817 -0.21937 0.15768 0.1325 -0.093252 -0.1436 0.36837 -0.27091 0.20499 0.21258 -0.21892 -0.08696 0.035718 -0.050868 0.15928 -0.39794 0.11942 0.33063 0.032009 0.020868 0.11352 0.2735 -0.48001 0.21427 -0.026215 -0.27482 -0.10033 -0.040582 0.098538 -0.082311 0.11077 -0.030252 0.22827 -0.12472 0.040706 0.16213 -0.35142 0.046627 -0.20334 -0.25547 0.44644 -0.15768 0.010205 -0.13552 -0.10184 0.14508 -0.085944 0.19261 -0.006652 0.15602 -0.40836 0.15532 -0.1688 0.35979 -0.027847 -0.02529 -0.26074 -0.13782 -0.21391 0.10572 -0.20119 0.022912 0.058251 0.20649 -0.33576 -0.020977 0.069053 -0.14965 -0.26886 -0.33203 -0.18588 -0.078143 -0.25704 0.049679 0.32063 0.066972 -0.098602 0.61763 -0.16431 -0.1171 -0.1921 -0.2363 -0.48043 -0.04608 0.048964 -0.1488 0.038562 -0.14737 0.47775 -0.10929 0.16057 0.48346 -0.46142 0.050125 0.074464 -0.088523 0.13667 0.11926 -0.24368 -0.075475 -0.0015843 0.26627 -0.17508 0.38445 0.0099421 0.057934 0.010679 -0.22205 -0.186 0.32096 -0.29198 0.30982 -0.39859 -0.38674 -0.27477 -0.042476 -0.23324 0.21164 0.069797 -0.22165 0.31529 0.020297 -0.38725 0.1032 0.23925 -0.17265 -0.12559 -0.1326 0.20793 0.037389 0.36676 0.47015 -0.38213 -0.13261 -0.13394 -0.27792 -0.23696 0.21937 -0.22659 -0.07452 -0.21762 -0.083583 0.036149 0.019981 -0.43356 -0.2884 0.13202 -0.31085 -0.51375 0.29071 0.10706 0.01956 -0.014776 -0.25818 -0.029742 0.01466 -0.094041 -0.095301 -0.16498 -0.3748 -0.27808 -0.11263 -0.061326 -0.29818 0.23659 0.28398 -0.27627 -0.2997 0.14401 -0.078991 -0.069228 -0.28956 0.49478 -0.5607 -0.20951 0.070586 0.14398 0.2164 0.097531 0.172 0.14632 -0.35194 0.090621 -0.23014 0.29797 0.3694 -0.053726 -0.077538 0.21954 0.34907 0.27513 0.32632 -0.078107 -0.083585 -0.031158 -0.13038 -0.25036 -0.30677 0.23586 -0.020349 -0.25009 0.19664 -0.1986 0.10915 0.32751 -0.069614 0.11911 -0.089454 -0.15619 0.072554 -0.26628 0.11903 0.15289 -0.56251 0.21289 0.16111 0.42899 -0.095986 0.037992 0.22608 -0.1177 -0.19786 -0.082953 -0.3192 -0.10935 -0.082932 0.53916 0.22031 0.19743 -0.21292 -0.15994 0.0066362 -0.3987 -0.061092 -0.22269 -0.22936 -0.45589 -0.077525 0.3953 0.20289 0.1727 0.20602 0.0097756 0.44524 -0.40586 -0.018969 0.063578 -0.17566 
biden 0.072302 -0.069764 0.17664 -0.033533 -0.18874 0.25235 -0.12767 -0.011973 0.16726 0.059741 0.44194 -0.061224 0.20297 -0.057586 -0.17686 -0.097015 -0.067613 -0.081924 -0.1706 -0.39111 0.38587 -0.11902 -0.013875 0.49285 0.18534 -0.29444 -0.030068 0.0041485 -0.18366 -0.24215 -0.15594 0.021069 -0.15573 0.2398 0.56387 0.088003 0.063111 -0.064663 -0.00035366 -0.018307 -0.41438 0.14573 0.1211 0.25989 0.16743 0.10267 0.27597 -0.2559 0.60762 -0.46494 0.077724 0.10048 0.27153 0.001432 0.21277 -0.060637 -0.22799 -0.19566 -0.021292 0.17517 -0.037073 -0.022691 0.23791 -0.033512 0.034339 -0.079847 -0.20335 -0.1039 0.16495 0.10026 -0.19405 0.10987 0.22543 0.33123 -0.13996 0.32619 0.17735 -0.40619 0.16318 -0.37646 -0.018765 0.6768 0.3543 -0.045642 0.055195 -0.22325 0.070525 0.093527 0.045539 0.14032 -0.066468 0.1472 0.44415 -0.043309 -0.22724 -0.5333 -0.054352 0.12619 -0.21371 0.18616 -0.066661 0.063997 -0.47273 0.28812 -0.041408 0.70265 0.08503 0.20279 -0.35361 0.12529 -0.1146 0.20777 -0.1815 0.096588 0.21412 -0.15901 0.084628 -0.2859 -0.39929 -0.10486 -0.008888 -0.18123 0.0031552 -0.1285 0.0072501 -0.10796 0.20693 -0.25942 0.1339 0.13758 -0.34583 -0.029973 0.038036 -0.024847 -0.33936 0.32706 0.043917 -0.25206 -0.38057 -0.22309 0.1253 0.21855 -0.11639 0.20986 -0.15831 -0.25559 -0.074422 -0.015093 0.014363 0.036619 -0.13973 0.12249 0.12385 -0.16021 0.056925 0.42659 0.14613 0.21126 -0.055658 -0.14629 0.26247 0.291 -0.47182 -0.04165 -0.45409 0.054147 -0.22861 -0.18345 0.037813 0.16522 -0.22575 -0.3059 0.33273 -0.24532 0.24614 -0.36612 0.11734 0.099902 -0.075699 0.063708 0.48318 -0.32936 -0.1793 0.61439 -0.52657 -0.030814 -0.27412 -0.17014 0.048198 -0.086115 -0.1766 -0.11392 -0.034946 0.073104 0.015746 0.172 -0.37711 -0.20857 -0.20575 0.087985 -0.29859 0.1328 -0.10193 -0.28162 0.26454 -0.030838 -0.31549 0.037188 -0.13329 -0.19005 -0.17443 -0.24703 -0.14184 -0.11713 0.13152 -0.1596 -0.27264 -0.039206 0.030943 -0.66355 0.31496 -0.49937 -0.032483 -0.16178 0.54955 -0.15665 0.12631 -0.26021 -0.13329 -0.077227 0.11467 0.13166 0.02348 -0.24064 0.12875 0.24005 0.085394 0.2358 0.085079 -0.09836 0.41295 0.49339 0.18942 -0.11069 -0.054885 0.13926 0.082187 -0.35444 0.024199 -0.0099866 0.12373 -0.13926 -0.078616 -0.10273 -0.24687 0.13442 0.41642 -0.22863 -0.16643 0.24556 -0.038522 0.35685 -0.19979 0.23925 -0.34905 -0.51461 -0.11189 0.42721 0.30104 0.038044 0.218 0.14631 -0.42114 -0.36775 0.32088 -0.21751 -0.073059 0.18956 0.51379 -0.073797 -0.24676 -0.33147 -0.02767 -0.052277 0.082522 0.011319 0.07297 0.21703 -0.21783 0.29414 0.13003 0.2984 0.47699 0.042785 0.2291 0.21263 -0.27823 0.1128 -0.041307 -0.20261 
mack 0.26962 0.10766 -0.10277 -0.02374 0.32077 -0.076124 -0.31293 -0.20844 -0.19908 -0.035722 -0.37729 -0.13832 0.030208 -0.45633 -0.12468 0.070164 0.28212 -0.067253 -0.11094 -0.13663 -0.101 0.21697 0.17579 0.17301 0.08393 -0.23182 0.1899 -0.29867 -0.15467 0.12493 0.16335 0.016794 0.15217 0.11539 0.44969 0.30891 -0.20641 0.26235 -0.19608 -0.097804 -0.19439 0.0095426 0.45029 0.30247 -0.080099 0.25621 0.41528 -0.042698 0.62174 -0.19721 -0.016338 0.2617 -0.20973 -0.4323 -0.20786 0.037263 0.018252 0.25295 -0.14906 0.097396 0.44041 -0.082476 0.2429 -0.0077979 -0.078115 0.088094 -0.11339 0.039417 0.043198 -0.10431 -0.008972 0.082545 0.14631 0.40835 -0.17599 -0.06158 0.1607 -0.26295 -0.0070043 -0.16584 0.38127 0.17749 0.28824 -0.036951 -0.029187 -0.037565 -0.32338 -0.1462 0.15547 -0.15937 0.25131 -0.026822 0.27895 -0.10828 -0.36647 -0.21945 0.072821 0.23794 -0.22516 0.3005 -0.068532 0.046223 -0.21572 0.13684 -0.45849 0.17665 -0.25705 -0.12691 -0.26284 0.074873 -0.40635 0.13325 -0.13002 0.019226 -0.16914 0.11264 0.045766 -0.18451 0.21285 -0.16403 0.34884 -0.062839 -0.17952 -0.16877 0.093325 -0.060605 0.29887 0.29559 0.052378 -0.19084 -0.037979 -0.15348 0.25765 -0.079863 -0.40586 -0.36046 -0.183 -0.028096 0.061838 -0.23847 0.20869 0.33196 0.10351 0.21343 -0.069067 -0.038782 0.13784 0.14368 0.14965 -0.083105 -0.041033 0.25458 -0.10194 -0.23153 -0.12814 0.13551 -0.13202 -0.23772 -0.29352 -0.071434 -0.3342 0.15902 -0.35653 0.15543 -0.13258 0.083722 -0.039486 -0.24911 -0.11737 0.058822 -0.0076945 -0.25724 -0.066694 0.17007 -0.22791 -0.081478 0.03262 -0.35898 0.17482 -0.038275 0.14436 -0.07326 0.27107 0.23027 -0.68354 -0.00026712 -0.050723 0.17656 -0.51352 0.021938 0.18578 -0.52476 0.065864 -0.11451 -0.24015 0.53967 -0.035135 -0.48058 0.20472 0.015675 -0.01969 -0.34843 -0.041872 -0.13543 -0.04354 -0.18978 -0.18297 0.092531 -0.10502 0.27201 0.054189 -0.19692 -0.18903 0.20156 0.25779 -0.26626 -0.16957 0.47342 -0.24582 -0.44549 -0.22502 -0.29424 0.30252 -0.12729 0.21408 -0.16138 0.0096367 -0.14125 0.28896 0.16038 -0.1213 0.23138 -0.032297 -0.38482 -0.11333 -0.1025 0.093145 0.020044 -0.051548 -0.078307 0.25803 -0.013483 -0.20675 -0.23492 -0.22894 0.14874 -0.51193 -0.32548 0.11323 -0.14217 -0.068651 -0.081503 -0.36871 -0.088432 -0.17996 -0.25801 0.12072 -0.3416 -0.15845 -0.19586 -0.17278 0.43936 -0.32274 -0.1914 -0.22472 -0.35723 0.183 0.0047564 0.27609 -0.12272 -0.10453 0.32887 -0.18571 -0.011835 0.089518 -0.32938 0.25025 0.019208 0.49621 -0.15929 0.0048904 -0.038023 0.01623 -0.10036 0.098496 -0.19888 0.058812 -0.028132 -0.6057 0.04894 0.012993 0.14101 -0.036663 0.26306 0.14296 0.32434 -0.30302 -0.15152 0.24058 -0.52035 
graham 0.086685 -0.20669 -0.10444 0.096194 0.062318 -0.031299 -0.037759 0.045967 -0.21627 0.065316 -0.061012 -0.14883 -0.12365 -0.30192 0.0079852 0.096299 0.081908 0.3071 -0.055298 -0.40925 -0.14987 0.29909 -0.14682 0.35939 -0.27282 -0.10282 -0.012094 -0.31568 -0.22738 -0.070534 -0.086309 0.16094 0.38176 0.016327 0.22102 0.10405 0.11606 -0.11161 0.020107 -0.21157 -0.24714 0.21317 0.37336 0.38313 -0.1368 0.12181 0.37423 -0.0384 0.24487 -0.44947 -0.09397 0.28012 0.085519 -0.15747 0.006515 -0.23936 -0.21993 -0.0096187 -0.14056 0.14808 0.11878 -0.0012045 0.53259 -0.056786 0.16385 -0.093991 0.121 0.13289 -0.024706 0.14414 -0.1789 -0.016541 0.24275 0.13271 0.32148 -0.09607 -0.13595 -0.097463 0.10106 0.049619 0.045348 0.03265 0.37945 -0.18268 -0.086273 0.11337 0.25034 0.049694 0.23469 -0.4082 -0.03255 0.1811 0.30304 -0.098489 -0.30399 0.067886 0.059545 0.017512 -0.12948 0.33789 -0.23393 -0.24513 0.000573 0.23423 -0.10749 0.057653 -0.12291 -0.14608 -0.078719 0.15478 -0.17696 -0.13568 0.10788 0.074839 0.082123 0.00011214 -0.24821 -0.011947 -0.27232 -0.086435 0.43207 0.096521 -0.073221 0.00089848 -0.095729 -0.35216 0.31505 0.030745 0.067687 -0.10769 -0.0081811 -0.14867 -0.08567 -0.27041 -0.32459 -0.1283 -0.21176 0.026096 -0.14544 -0.17761 0.10355 0.047575 0.09685 -0.0028181 -0.1562 0.19288 -0.061809 0.15483 0.33983 -0.21201 0.0028835 0.18303 0.09068 0.13068 -0.24651 0.2115 0.010613 -0.15511 -0.13693 -0.2454 -0.23664 0.17721 -0.16763 0.017091 0.10104 0.05838 0.066276 -0.20987 0.17823 0.22079 -0.022159 -0.17378 0.045927 0.21417 -0.07768 0.0007463 0.36798 -0.041571 0.11943 -0.14497 0.34049 -0.28001 0.42114 0.31694 -0.23646 -0.042665 0.40964 0.33642 -0.075906 0.23745 0.14308 -0.16365 0.072859 -0.15196 -0.098687 0.3071 -0.17437 -0.030017 0.28188 0.11973 -0.51173 -0.0056566 -0.043075 -0.071011 -0.17187 -0.004539 -0.050694 -0.083507 -0.10204 0.28336 0.034979 -0.062415 -0.29862 -0.056929 0.10701 -0.07106 -0.25069 0.12547 -0.20799 -0.1187 -0.29645 -0.27421 -0.15775 0.010667 0.37553 -0.51759 0.35429 -0.11891 0.33569 0.31075 -0.26589 0.14563 -0.053236 0.11949 0.077417 0.15882 0.13673 0.048474 0.031947 -0.24206 -0.038081 0.20776 -0.20791 -0.013162 -0.084718 -0.12904 -0.2337 -0.060542 0.22543 0.089915 -0.12499 -0.06347 0.14256 -0.063009 -0.45261 -0.13649 -0.052144 -0.30884 0.041042 0.017111 -0.062828 0.26136 -0.12349 0.1962 -0.16705 -0.3635 -0.11065 0.092234 0.30894 -0.088407 -0.14946 0.35242 -0.18321 -0.13907 0.023435 -0.02516 0.17758 -0.17239 0.15404 -0.090057 -0.1549 -0.0021273 0.022773 0.24174 0.19724 0.28916 0.10391 0.16879 -0.15187 0.58551 0.2179 0.011028 -0.054144 -0.031935 -0.20604 0.16014 -0.22787 0.078558 0.11852 -0.04933 
nunn -0.061069 -0.053845 0.041248 0.10465 0.13339 0.26795 -0.1388 0.030063 -0.001307 0.072447 0.042601 -0.21291 0.15924 -0.0918 -0.21011 -0.115 0.036994 0.025901 -0.40836 0.13837 0.31335 0.049213 -0.074656 0.24997 0.0084107 -0.31228 -0.047927 0.056748 0.18016 0.061953 -0.1368 -0.039581 -0.15705 -0.10223 0.37859 0.053141 0.033508 -0.19372 0.18576 -0.27138 -0.13178 0.2533 0.39746 0.32173 0.20851 0.34548 0.087456 -0.18486 0.27338 -0.076201 -0.13148 -0.11481 0.15458 -0.25805 -0.3346 -0.31825 0.21594 -0.12316 0.10838 -0.11574 -0.5017 0.23196 0.28274 0.087559 0.34139 0.2113 -0.060661 0.12169 -0.35358 -0.073971 -0.19001 0.12279 0.40344 0.42483 0.088263 -0.21774 0.2175 -0.46286 0.40526 -0.070429 0.085046 0.58318 0.073068 -0.30853 -0.073217 -0.15663 0.20408 -0.11306 -0.15358 -0.042026 0.31043 0.12504 0.31291 0.081358 -0.38645 0.020441 -0.27323 -0.044059 0.093574 0.22015 0.15992 0.096685 -0.25095 0.093526 0.0045907 0.37915 -0.14651 0.044146 -0.16681 0.13369 -0.52476 0.22698 -0.30059 0.49085 -0.2128 -0.29988 0.026394 -0.11112 -0.33224 0.16032 0.37319 -0.24351 -0.142 -0.20821 0.20711 -0.49531 0.25736 -0.46891 0.1137 -0.28051 -0.10215 -0.1976 0.011296 -0.47962 -0.15794 -0.023443 -0.21808 0.40014 -0.19158 0.083426 0.42132 0.22206 0.016232 0.05953 -0.27013 -0.18817 0.34763 -0.21978 0.11917 0.092832 0.3605 0.11347 -0.070456 0.25204 -0.35001 0.052763 -0.071532 0.16216 -0.17749 -0.077027 0.15034 0.22825 -0.45901 0.21286 -0.14151 -0.31259 0.0044597 -0.38063 0.37416 0.4935 -0.22045 -0.56561 0.4623 0.19849 0.062225 0.1866 -0.13636 -0.18374 0.01816 0.030635 0.36971 -0.3446 -0.13396 0.27655 -0.23927 -0.037135 -0.050141 -0.1077 -0.046077 -0.11026 -0.34406 -0.091361 0.12065 0.076484 0.072921 0.081074 -0.19515 -0.47079 0.18708 0.20591 -0.29842 0.20542 -0.077759 -0.086866 0.19829 0.040982 -0.23854 -0.028336 -0.38359 0.14142 -0.084393 -0.27737 -0.048861 0.32254 0.15608 0.0044296 -0.11993 -0.10191 -0.039704 -0.21713 -0.19978 -0.14594 -0.13037 -0.19996 0.55553 -0.37767 0.14336 -0.11715 0.036166 0.037867 -0.23335 0.1366 0.49631 -0.069366 0.032459 0.066623 0.23864 0.17577 -0.11287 -0.35715 0.1029 -0.10244 0.071923 -0.34646 -0.32452 -0.097536 0.12758 -0.21933 -0.15308 -0.28025 -0.14566 0.080717 -0.29088 0.037759 -0.47892 -0.14274 0.4194 -0.082432 -0.30218 0.09089 0.33115 0.12485 -0.44167 0.12564 -0.31942 -0.39022 -0.082778 0.33943 0.21118 -0.008817 0.21907 0.087338 -0.0045012 -0.17566 0.090587 -0.18772 -0.34843 0.13898 0.49252 -0.24329 0.035445 -0.15806 -0.041058 -0.25353 -0.091787 0.07745 0.1141 0.37404 -0.12931 0.47383 0.069755 -0.00051241 0.2453 -0.09678 0.031028 -0.11872 -0.23069 0.051376 0.27271 0.060451 
coverdell -0.14611 0.24081 -0.083235 -0.026703 0.09548 -0.12322 -0.094642 -0.024926 0.0841 0.23335 0.20403 0.28466 -0.039326 -0.15632 -0.12121 -0.18196 0.40611 0.081189 -0.16856 -0.25932 0.18703 0.1492 0.059396 0.087619 0.16227 -0.35873 -0.15116 -0.24389 -0.27147 0.19808 -0.093347 0.10033 0.24944 0.065063 0.17223 0.23743 0.063765 -0.037301 -0.12407 -0.10559 -0.24189 0.27885 0.29349 0.065109 -0.096216 0.69266 0.038798 -0.1207 0.38286 0.029929 -0.26613 0.16971 0.096779 -0.29311 -0.24788 0.18462 -0.16746 -0.045479 -0.59512 0.079197 0.1823 -0.43037 0.14204 0.17006 0.18608 0.2703 0.055468 0.098747 -0.12132 0.2403 -0.35808 0.040658 0.037268 0.0097298 0.0097499 -0.12666 0.22254 -0.56536 0.48939 -0.32238 0.085206 -0.015196 0.21212 0.19421 0.040199 0.32068 -0.31428 0.1621 -0.15581 0.089928 0.33903 0.17341 0.30521 -0.04173 -0.20627 -0.28338 -0.0023086 -0.063747 -0.096985 0.25643 -0.26229 -0.077321 -0.22148 0.26558 -0.30497 -0.12394 0.26249 -0.11863 -0.033268 0.065158 -0.22577 0.15138 -0.48963 0.19893 -0.30738 -0.35626 -0.15127 -0.19591 0.15362 0.38876 0.15216 -0.24717 0.012685 0.10826 0.4936 -0.37371 0.39265 -0.19052 0.062407 0.069339 0.29708 -0.095618 0.005941 -0.34555 -0.018142 0.030414 -0.42311 -0.062823 0.11347 -0.0061509 0.40712 0.18863 0.4485 0.49778 -0.17624 -0.043425 0.09504 -0.16365 -0.024007 -0.028328 0.10892 0.1027 -0.20327 -0.04805 -0.43312 0.13398 -0.29652 -0.11006 -0.19885 -0.25956 -0.15974 -0.26794 -0.5548 0.16031 -0.13876 -0.48929 -0.21741 -0.30896 0.23062 0.39451 -0.1435 -0.61839 0.0481 0.29322 0.20874 0.10624 0.4172 -0.4696 -0.063367 -0.29105 0.13113 -0.20268 0.30557 0.7049 -0.68489 -0.1252 0.075472 0.047019 -0.12316 -0.034237 0.26264 -0.2402 -0.10075 -0.18935 0.15537 0.01944 -0.015942 -0.65665 -0.15702 0.090065 0.10641 0.21522 -0.10137 0.19977 0.22441 -0.28073 -0.40917 -0.01474 -0.061287 -0.12907 0.01801 -0.020005 -0.12862 0.12414 0.025463 -0.32161 0.10131 -0.038934 -0.051314 -0.41239 -0.35456 -0.25433 0.30322 -0.52925 0.55436 -0.073621 -0.10654 0.097228 0.23209 0.25758 -0.28315 0.21321 0.59187 -0.41652 -0.27555 -0.22446 -0.16278 0.16016 0.21612 -0.071113 0.15813 0.19975 0.32735 -0.11008 -0.33972 0.020892 0.18209 0.33481 0.18361 0.055169 0.26471 -0.11693 -0.17702 0.11851 -0.28275 -0.12275 0.14767 -0.35951 -0.37416 0.18439 0.22205 0.36328 -0.35369 0.18073 -0.43407 0.041606 -0.082316 -0.15523 0.5111 -0.68749 -0.17027 0.40242 -0.22904 -0.22755 -0.05285 -0.37125 -0.32961 0.18748 0.53966 -0.077446 0.061311 -0.1926 -0.054737 -0.097467 -0.20494 -0.030116 -0.21812 0.029167 -0.21097 0.1463 0.41553 0.35216 0.25541 0.13887 0.13458 -0.33079 -0.57945 -0.15514 0.24973 -0.26988 
inouye 0.10565 -0.051549 0.0075656 0.18477 -0.078189 -0.2315 -0.13702 -0.0081631 -0.03547 0.20547 0.39686 0.20091 0.046371 -0.10092 -0.18735 -0.29534 -0.015094 0.090734 -0.3034 -0.24986 0.12892 0.42269 -0.073805 0.33369 -0.20547 -0.37839 0.16163 0.08508 -0.22113 0.15934 -0.30947 0.099217 -0.4715 0.51887 0.47455 -0.27388 0.14136 -0.083925 0.055845 -0.22133 -0.17301 -0.11975 0.19704 0.12323 -0.026706 0.20345 0.17919 -0.32613 0.34052 -0.17334 -0.11625 0.12288 0.45495 -0.154 -0.092303 -0.26643 -0.11622 0.11317 0.018317 0.28021 -0.28319 -0.08805 0.33943 -0.3807 0.17491 0.26752 -0.34329 0.10993 0.11619 -0.02082 -0.24679 0.12903 0.44924 0.33951 -0.44112 0.18477 0.2056 -0.12564 0.091183 0.15875 0.26363 -0.080008 0.20814 0.15298 0.3867 -0.16105 0.42628 -0.039262 -0.040058 0.072468 0.45734 0.19241 0.2834 -0.02234 -0.50883 -0.040274 -0.037378 -0.15084 -0.32263 0.18526 0.060892 -0.30977 -0.30722 0.15977 0.23324 0.18756 0.35911 0.48696 -0.23182 -0.21415 -0.17502 0.32818 -0.063769 0.37338 0.079337 0.20724 0.033432 -4.5594e-05 -0.4147 0.079141 0.32442 -0.039795 0.26855 -0.32024 -0.099156 -0.23652 0.18518 -0.13665 -0.05451 0.024596 -0.47556 0.041306 -0.34236 -0.32198 -0.72501 0.39849 0.15243 -0.098413 0.17922 -0.11769 0.52394 0.39931 0.30164 0.22885 -0.13934 0.18279 0.34801 -0.14533 -0.051352 -0.13075 -0.11177 0.39399 -0.27033 -0.069507 -0.095631 0.19124 0.037783 0.3263 0.015512 0.1337 0.21055 0.074599 -0.21304 -0.12567 0.022986 -0.33718 0.033606 -0.088736 0.38378 0.12351 -0.2608 -0.22324 0.28728 0.21809 -0.085148 -0.18757 0.12727 -0.10974 -0.098187 -0.19341 0.61336 -0.36502 -0.20017 0.25672 -0.13007 -0.028724 -0.22843 -0.25322 -0.0012356 0.39346 0.20434 -0.13306 -0.38153 0.28609 0.21863 0.16948 0.29623 -0.30091 0.12142 -0.10655 -0.79206 -0.32844 -0.16165 -0.17904 0.27743 -0.046874 -0.42091 0.44702 0.037309 -0.072432 0.11516 -0.34915 0.34238 0.12457 0.26902 0.19609 0.11901 -0.41688 0.0088317 -0.54193 0.044595 0.20435 0.017197 -0.057566 0.33486 -0.28707 -0.0041506 -0.059565 0.11366 0.3939 -0.31055 0.17758 0.12957 0.19167 -0.13863 -0.083742 0.1938 0.0020532 0.23696 -0.4022 0.59961 0.14764 -0.033995 -0.45494 0.14926 0.14416 0.15684 -0.35978 0.26708 -0.25509 -0.27371 -0.13222 -0.43853 -0.30838 -0.84817 0.15561 -0.17148 -0.017931 -0.35176 0.0032078 -0.15071 0.24148 -0.085508 0.0081613 -0.17828 -0.58502 0.0047303 0.3522 0.23615 0.17391 0.18088 0.032875 -0.45472 -0.38037 -0.098086 -0.19564 -0.22063 -0.19255 0.58398 -0.31333 -0.1337 0.012766 -0.068276 -0.11294 -0.5038 -0.29069 0.15542 0.5662 0.061017 0.40967 0.58069 -0.058982 -0.23649 0.12435 0.096089 0.11794 -0.24168 0.10073 0.22898 -0.20092 
akaka -0.092536 -0.2594 0.26747 0.048082 0.45317 -0.62187 -0.65435 -0.12921 -0.23124 -0.072905 0.42086 0.13534 -0.14054 -0.096425 -0.31618 0.090861 0.18819 0.17019 -0.86907 -0.52209 0.2065 0.13204 -0.45562 0.32463 0.18919 -0.49607 -0.18238 -0.14115 -0.035267 -0.15184 -0.37914 -0.12662 -0.51563 0.073129 0.54503 -0.3336 0.19204 0.22086 -0.31845 -0.071069 -0.3948 -0.2223 0.28082 0.0075405 -0.49225 0.35582 0.1868 -0.35743 0.25985 -0.2207 -0.17138 0.12397 -0.17909 0.11644 0.072687 -0.53925 -0.021436 -0.28433 -0.1636 0.38513 -0.28768 -0.13684 0.19601 -0.23305 0.16725 0.30059 -0.605 -0.19629 -0.32067 0.17581 -0.29602 0.38054 0.42868 0.36226 -0.50198 0.1622 0.42821 -0.18572 -0.16162 -0.12663 0.52 0.0865 0.22731 0.22435 0.35855 0.22712 -0.38412 0.10158 -0.018965 0.29954 0.060251 -0.03045 0.24995 0.30919 -0.43718 -0.71062 0.0018375 0.19994 -0.29195 0.30209 -0.30605 -0.32935 -0.36652 -0.039024 0.087137 0.1812 0.4274 -0.11647 -0.44929 -0.091432 0.1684 0.1792 -0.18963 0.35847 -0.22341 0.22804 -0.18512 -0.2763 0.0091235 -0.15258 0.58058 0.026226 0.42922 -0.24402 -0.27114 -0.14531 0.24258 0.38617 0.012465 -0.11466 -0.14261 0.46537 -0.23742 0.11008 -0.46367 0.19905 -0.35952 -0.57608 -0.1376 -0.17908 0.71898 0.76126 0.19474 0.3818 -0.036353 0.080571 0.011757 -0.43062 0.083978 0.19017 -0.22175 0.43376 -0.12898 -0.061835 -0.2584 -0.08706 -0.21301 0.15616 -0.37475 -0.3802 0.14256 0.037259 -0.29382 -0.29312 0.075367 -0.1972 0.37241 -0.24442 0.20228 0.55526 -0.38956 0.036658 0.72212 0.42456 -0.26368 -0.25657 0.56702 -0.22573 0.018438 -0.33844 0.73093 -0.095107 -0.0079013 0.573 -0.49238 0.053137 -0.58482 -0.16741 -0.44265 0.12014 0.47297 0.47977 0.014871 0.35139 -0.20431 0.16998 -0.071061 -0.71401 0.0043163 -0.046168 -0.35743 -0.28925 0.061739 0.45128 0.30309 -0.46003 -0.43276 0.12619 -0.16722 -0.23342 0.30441 -0.89421 0.30428 -0.11482 0.15902 -0.035882 0.31886 0.054746 -0.21964 -0.070023 0.15115 0.16427 0.21301 -0.4347 0.1405 -0.34153 0.092576 0.19682 -0.13906 0.33686 -0.38765 -0.054919 0.076586 -0.1436 -0.35415 -0.11946 -0.099564 -0.063585 -0.14826 -0.40893 0.77988 0.058314 0.060439 -0.59637 -0.26625 0.10822 0.21876 0.055377 -0.010933 -0.27923 0.17974 0.084653 -0.21645 -0.10417 -0.56145 -0.11678 0.032301 -0.17973 0.24336 0.13263 -0.095213 0.58512 -0.111 -0.0083914 -0.33503 -0.41841 -0.027691 0.057277 0.40728 -0.298 0.295 0.13474 -0.65538 -0.49686 0.18262 0.003086 -0.37117 -0.33759 0.55509 -0.56543 -0.24241 -0.030871 0.015299 -0.068362 -0.37824 -0.24319 -0.0368 0.36527 -0.31965 0.41977 0.58511 0.26516 0.077657 0.35871 0.18098 -0.092085 -0.25198 0.07671 -0.27906 -0.24534 
craig 0.39362 -0.1151 -0.04652 -0.30995 -0.14131 -0.28015 -0.18227 0.13276 0.17977 -0.045825 0.14036 0.28354 -0.10461 -0.34929 -0.057285 0.096298 0.15892 0.22599 -0.20033 -0.25849 0.16094 0.17355 -0.12767 -0.045796 -0.21151 -0.098472 -0.13861 0.33945 -0.16036 0.049619 -0.36606 0.0049446 0.00022018 0.0020827 0.015595 -0.11924 0.092241 0.065972 0.023472 -0.029428 -0.037067 0.12015 0.40171 0.22874 -0.077774 -0.029527 -0.0096871 0.18779 0.21164 0.14877 -0.333 0.50541 0.10542 -0.32474 -0.12122 0.1057 -0.030415 0.15235 -0.18027 0.26659 0.16573 -0.17694 0.065054 0.13986 -0.080237 0.069058 0.013352 -0.15823 -0.19101 0.30646 -0.26762 -0.17099 0.29299 -0.031809 0.040811 0.40424 0.52767 -0.42153 0.00094611 0.0067466 -0.050676 -0.0026573 0.33607 -0.24349 -0.14466 -0.16236 -0.056295 0.29696 0.034237 0.14147 0.08384 0.092782 0.29036 0.17491 -0.24122 0.02823 -0.077549 -0.055528 0.0075719 0.26541 -0.1263 -0.21894 -0.065376 0.19733 0.042221 0.086748 0.028165 -0.25382 -0.24693 0.24077 -0.082651 0.2068 -0.07753 0.10653 -0.24297 -0.082701 0.19989 -0.018829 0.10686 -0.041465 -0.02611 0.023895 -0.050725 -0.1149 -0.17328 0.032242 0.11001 0.12007 -0.24884 0.058063 0.020726 0.15493 0.42848 0.10387 -0.056693 -0.040389 0.01843 -0.042472 0.032393 -0.18405 0.16095 0.031182 0.20909 0.12353 -0.34653 0.16886 -0.15156 0.11671 0.2021 -0.048819 -0.038915 0.082384 -0.058086 0.075187 -0.351 0.29202 -0.24493 -0.23354 -0.19768 -0.10707 -0.11207 0.030313 -0.060345 0.089187 -0.12363 -0.10362 0.094176 -0.12579 0.032577 0.22841 -0.076225 -0.27788 -0.37574 0.3753 -0.018027 0.088216 0.39252 -0.11968 0.2375 -0.17954 0.28454 -0.16415 0.42955 -0.039166 -0.20181 -0.052092 0.060475 0.12324 -0.1942 0.15435 0.4737 -0.37323 -0.30826 -0.19656 0.1568 0.2713 -0.096452 -0.051777 -0.028204 -0.066978 -0.21489 0.23371 0.1565 0.24355 -0.13123 -0.020125 0.00090074 -0.083937 -0.18467 -0.023798 0.19218 -0.26296 0.043151 -0.10742 0.10399 -0.19916 -0.11954 0.056129 -0.21937 -0.097747 -0.24781 -0.18455 0.19278 -0.34095 0.35931 -0.37249 -0.16143 0.10463 0.17991 0.13094 -0.045386 0.14358 -0.023889 -0.28523 0.18181 -0.09076 -0.11406 -0.1431 -0.09427 0.25721 -0.10424 0.25725 0.10445 -0.058092 -0.025376 0.061521 -0.38522 0.097083 0.23123 -0.13989 -0.357 0.037762 -0.077425 -0.098651 -0.098024 -0.090823 0.035092 -0.066491 0.085088 -0.27177 0.075961 0.54305 -0.23055 -0.14312 -0.2292 -0.29241 0.059445 0.053593 0.30166 -0.43182 -0.57149 0.14422 -0.1651 0.024771 0.24645 -0.098507 -0.0013651 -0.074291 0.39482 0.18411 0.027886 -0.18269 0.11842 -0.32101 -0.31189 -0.40236 -0.061957 0.23797 -0.70687 0.18281 0.35252 0.33002 -0.17349 0.30704 0.39012 0.12388 -0.31762 -0.2245 0.25627 -0.014499 
kempthorne 0.19325 -0.21193 -0.20616 0.0063891 -0.25819 -0.32695 0.070918 -0.010987 0.092167 0.038809 0.24427 -0.48759 -0.20238 -0.37183 -0.31634 -0.048339 0.62783 0.12775 -0.44976 -0.4662 0.41368 0.096583 0.10486 -0.092364 0.027959 -0.42921 -0.09894 -0.13195 -0.11152 -0.17468 -0.29073 0.18031 -0.031115 0.32972 0.16389 -0.15057 0.15602 -0.043324 -0.25515 -0.32348 0.22985 0.098171 0.74757 0.29084 0.16318 0.4797 0.11941 0.28069 0.043768 -0.24725 -0.33967 -0.018353 -0.25005 0.018143 -0.20743 -0.29998 0.048671 0.069645 -0.43295 0.094367 0.39064 -0.25011 0.082238 0.036028 0.041895 0.014415 -0.29042 0.044095 -0.027464 0.19854 -0.3411 0.26132 0.22152 0.31975 -0.30797 -0.060292 0.45296 -0.10199 0.045638 -0.089089 0.11036 0.25144 0.20633 0.073224 0.062495 -0.40879 -0.11369 0.10695 0.11119 -0.23732 0.11338 -0.0096015 0.41306 0.16604 -0.010251 -0.20849 -0.030581 0.049094 -0.12018 0.21237 -0.067789 -0.15329 -0.040216 0.37033 -0.19926 -0.41221 0.27178 -0.23245 -0.046547 -0.15267 0.21963 0.21511 -0.14628 0.25567 -0.50546 -0.37816 0.029752 -0.2233 0.043401 0.11797 0.1525 -0.38074 -0.042491 -0.13855 0.26624 0.12658 0.035439 0.20148 0.28849 -0.052306 -0.026926 -0.083461 0.23457 -0.041781 -0.064579 -0.084705 -0.25761 -0.026631 -0.084356 -0.0062617 0.33008 0.61318 0.47369 0.60559 -0.034966 0.089245 -0.038721 0.0024341 0.24684 -0.46013 0.11557 0.36431 0.1032 0.29798 -0.45323 0.37262 0.15119 0.00075697 -0.55531 -0.19338 -0.012541 -0.14644 -0.15917 0.25465 0.13883 -0.090165 0.12622 -0.55095 -0.11261 0.48494 0.12028 -0.28013 0.39487 0.41419 0.0039091 0.01707 0.22132 -0.0091678 0.19386 -0.11932 0.34338 0.18691 -0.043245 -0.017001 -0.24592 0.28699 0.088683 0.11586 -0.2908 -0.3345 -0.099227 -0.28296 0.18185 -0.17389 -0.11817 0.11853 -0.07093 -0.23788 0.0034718 -0.033949 -0.39094 -0.030663 0.046845 0.12075 0.12188 -0.16373 -0.29176 0.24846 -0.13962 -0.16653 0.084273 -0.37093 -0.07843 0.37849 0.21243 0.066975 -0.1887 0.12708 -0.48316 -0.305 0.031598 -0.36746 0.73198 -0.54782 0.65145 -0.48551 -0.17044 -0.03155 -0.024958 -0.18257 -0.25441 0.16586 0.16083 -0.010769 -0.17692 -0.019089 0.075079 0.020745 0.13198 0.057283 -0.086788 0.11188 0.24849 -0.23645 -0.4575 0.23729 -0.10345 0.15237 -0.013756 -0.089382 0.13284 -0.10128 0.13163 0.26165 -0.52795 -0.11031 0.022594 -0.27406 0.080382 0.2565 0.18966 0.1476 0.047254 -0.0081074 -0.60971 -0.27759 -0.098437 -0.068102 0.45126 -0.34375 -0.72565 -0.049305 -0.1029 -0.31246 0.099016 -0.22002 -0.12559 -0.28186 0.25204 0.14015 -0.15914 -0.43834 0.17913 0.0023878 -0.23567 0.052906 -0.19328 0.18359 -0.62947 0.1048 0.079963 0.48483 0.12565 0.31597 0.37479 0.14886 -0.008406 0.084763 -0.27326 -0.24878 
simon 0.094707 -0.083604 0.039129 0.25819 -0.039275 -0.031383 -0.51832 0.0305 0.19964 -0.080514 0.086244 -0.062119 0.1265 -0.31762 0.15925 -0.23958 -0.18155 -0.20286 -0.0066905 -0.2674 0.35109 0.32338 0.10398 0.45151 0.037601 -0.23758 0.038838 -0.22593 -0.32863 0.039914 -0.051313 0.19678 -0.049094 0.24363 0.15277 0.13507 -0.22372 -0.059301 -0.059903 -0.43326 -0.070882 0.092896 0.27869 0.049466 0.086336 0.13317 -0.10705 0.062587 0.10064 0.15738 -0.3391 0.49777 0.27429 0.018446 0.37327 0.2577 0.078992 -0.091989 -0.048374 -0.073529 -0.022382 0.17706 -0.089329 -0.015846 0.077383 -0.24618 -0.092922 0.1255 0.083469 0.27694 -0.14772 -0.086683 0.06421 0.19295 0.022403 0.20466 0.1106 -0.17958 -0.0038488 0.071511 -0.099492 -0.09349 0.083487 0.0026341 0.037842 -0.15989 -0.2166 -0.1009 0.13449 -0.0055957 -0.14605 -0.1343 0.081071 0.072498 0.020588 -0.11375 0.016742 -0.035244 0.057477 0.055284 -0.17038 -0.18694 -0.048207 -0.0028486 0.39769 0.13374 0.17328 -0.20398 -0.02772 0.10836 -0.19303 0.26682 -0.11151 -0.20759 0.10434 0.16684 -0.11298 0.03874 -0.3724 0.083008 0.49217 -0.11992 0.25084 0.28501 -0.042268 0.13115 0.18687 -0.36894 0.008083 0.26367 -0.38519 0.13057 0.04805 -0.37078 -0.26121 0.17111 0.16625 -0.087819 0.13737 -0.048527 0.11296 0.29469 0.41997 0.39403 -0.12501 0.23349 -0.16172 -0.096552 -0.084833 0.23094 -0.21413 0.35961 0.12895 0.35422 -0.37638 -0.16052 -0.17851 0.19518 0.020354 -0.24963 -0.071566 0.16297 -0.17089 0.29481 -0.11813 -0.11142 -0.047542 -0.082684 -0.055982 -0.012908 -0.14 -0.16204 -0.34334 0.18602 0.085402 0.15594 0.25455 -0.087405 0.029389 0.023084 -0.16245 -0.21196 0.15363 0.31054 -0.36491 0.039826 -0.076006 -0.00065735 0.092297 0.19101 0.087175 -0.46549 -0.034867 -0.054328 0.17168 0.039287 -0.17637 -0.14901 -0.32362 -0.11564 -0.084881 0.099775 -0.21487 -0.23214 0.33324 0.043739 -0.038873 0.011226 -0.39747 -0.17706 -0.085434 -0.08831 0.018196 0.26883 -0.18764 -0.087598 -0.039729 0.0103 -0.12527 -0.21054 0.11898 -0.35867 0.20839 -0.010876 0.45494 -0.15426 0.029628 -0.38968 -0.033892 0.27862 -0.029266 0.20193 0.11131 -0.16334 0.11199 -0.13237 0.11187 0.25372 -0.062442 0.049955 0.20465 0.19235 0.19629 0.017665 -0.13758 -0.054063 -0.14548 -0.027064 0.24615 -0.19998 0.02472 0.12242 0.035877 0.12666 -0.19323 0.16435 0.18772 -0.088329 -0.19658 -0.031181 -0.10543 0.18056 -0.1551 0.15946 -0.068088 -0.35739 0.0067217 0.014162 0.41829 -0.20501 -0.10135 0.49655 -0.22375 -0.40929 -0.067735 -0.38131 -0.17034 -0.055403 0.019277 0.061092 -0.16645 -0.31018 -0.53929 -0.19535 0.3004 -0.0056578 -0.086373 0.30152 0.0078564 0.20139 0.279 -0.039974 0.28762 0.23063 0.28543 0.020469 -0.11116 0.017877 0.090644 0.091911 
moseley-braun 0.12251 -0.080569 -0.091786 -0.24628 -0.074882 0.071682 -0.11699 0.06028 -0.21856 0.10057 -0.045017 0.11882 0.14262 -0.19915 0.056166 0.043841 -0.12072 0.17429 -0.23456 -0.15005 0.086284 0.23496 -0.019055 0.061641 -0.09001 -0.23934 0.082834 -0.20305 0.046926 0.054254 -0.072886 0.22577 -0.10449 0.00029533 0.053367 -0.14681 -0.1555 0.12183 -0.045894 -0.20634 0.032388 0.16139 0.077362 0.18923 -0.14175 0.012951 -0.097912 0.072297 -0.038171 -0.051565 -0.26738 0.23619 0.064497 -0.00092101 0.066845 0.065022 0.17133 0.072815 -0.15682 0.14483 0.039102 -0.074523 0.13581 -0.081335 0.056572 -0.011146 -0.04935 0.0084146 0.23085 0.063155 -0.14457 0.13631 -0.11812 0.096529 -0.056604 0.009736 0.15861 -0.11643 -0.07302 -0.27373 0.089247 0.18015 0.069875 0.21901 0.010306 -0.073539 -0.11167 -0.056716 0.32428 -0.11539 -0.229 -0.30576 -0.0067883 -0.19508 -0.19149 -0.36502 -0.15891 0.016223 -0.14889 -0.042795 -0.22699 -0.22611 -0.098196 -0.14052 0.0083565 0.14014 0.11099 0.12133 -0.13134 0.10308 0.1421 -0.0010017 -0.26832 -0.018322 0.16394 -0.0073482 -0.1247 -0.20977 -0.16703 -0.080285 0.25136 -0.14552 -0.0017837 0.12459 -0.0011466 -0.022247 0.1957 -0.1851 0.094488 0.055784 -0.11589 0.2227 -0.0065791 -0.1946 -0.033847 0.13128 0.14426 -0.1981 -0.012065 -0.14018 0.13029 0.088828 0.34492 0.14978 -0.063148 0.17815 -0.21457 -0.017001 -0.29098 -0.039645 -0.08961 0.33225 0.13383 0.15991 0.047277 0.41219 0.046118 0.12506 0.001893 -0.22081 0.072316 0.13466 -0.14763 0.11896 0.20804 -0.27274 0.010922 -0.081282 0.30654 0.12416 0.098783 -0.19608 0.076695 0.089841 -0.067513 -0.056985 0.14346 0.098944 0.042119 -0.20749 0.14775 -0.20474 -0.01119 0.23374 -0.086647 -0.13466 -0.1017 0.11005 0.047645 0.21884 -0.17165 -0.064745 0.07641 0.19286 0.022755 0.11384 -0.2567 0.0047559 0.092085 -0.13445 -0.21589 0.15709 -0.005261 -0.22343 0.020259 -0.12987 -0.051695 0.087385 -0.32616 -0.086922 0.076892 -0.17972 0.013976 -0.0061793 -0.11372 0.048721 -0.075093 -0.076414 -0.07316 -0.12111 -0.017161 -0.19731 0.091531 -0.063437 0.1821 -0.039272 0.044637 -0.42296 0.13926 0.25696 -0.037542 0.12791 0.18109 -0.05186 0.050984 0.047664 -0.055544 0.16808 0.046464 -0.32475 -0.087017 0.012781 0.061747 -0.095875 -0.1426 0.11544 -0.26709 0.073391 0.21999 -0.065666 -0.01235 0.15776 -0.13544 -0.17193 -0.2066 -0.099479 0.12885 -0.24836 -0.060338 0.1411 -0.1178 0.011825 -0.12656 -0.26941 0.0013958 -0.28758 0.10959 0.058111 0.17842 -0.018226 -0.02263 0.29505 -0.23116 -0.1007 -0.020804 -0.093063 0.059135 -0.12469 0.1738 -0.20175 -0.068747 -0.16565 -0.015276 0.00086815 -0.080914 0.0030084 0.023863 0.026484 -0.20494 0.24977 0.11419 0.13122 0.031775 0.15618 0.099604 -0.24868 -0.14708 0.013687 -0.085865 0.092646 
lugar -0.16238 -0.064804 0.33959 0.28666 -0.16294 -0.016387 -0.080026 0.19527 0.053564 0.35008 0.15217 -0.26201 0.26462 0.10283 -0.16445 -0.29364 0.057718 0.21069 -0.26168 -0.13882 0.47174 -0.091144 -0.017139 0.34174 0.018564 -0.42236 0.017923 -0.20531 0.049307 -0.026999 -0.25475 -0.15446 -0.057183 0.12574 0.57784 -0.017987 0.27644 -0.17559 -0.083031 -0.011839 -0.060055 0.31805 0.59259 -0.1045 0.24662 0.022466 -0.066597 -0.029446 0.24803 -0.17529 -0.21513 0.14503 -0.038501 0.081548 -0.17892 -0.094696 0.032503 0.20877 -0.18583 0.037301 -0.10193 0.11018 0.41714 0.11524 -0.12791 0.58705 -0.36998 0.007087 -0.13348 0.027271 -0.2037 0.33516 0.13547 0.35604 -0.11005 -0.4242 0.30138 -0.29519 -0.032205 -0.091237 0.036524 0.27345 0.12427 0.49741 0.15367 -0.34211 -0.10393 0.20304 -0.041108 -0.040187 0.48526 0.53735 0.3641 0.18029 -0.27545 -0.11026 0.063159 -0.10083 -0.050726 0.040095 -0.20703 -0.048599 -0.35198 0.25483 -0.095553 0.40614 -0.057195 0.2237 0.018613 0.14261 -0.22206 0.37347 -0.20259 -0.019574 -0.42643 -0.0055988 0.0067836 -0.16717 -0.18734 0.030867 0.059081 -0.4038 -0.24037 -0.23646 -0.085757 0.015778 -0.08207 -0.11065 -0.034858 -0.035271 -0.13464 -0.10495 0.093418 -0.47986 -0.40687 0.43227 -0.26211 -0.015614 -0.17415 -0.29328 0.11525 0.31219 0.040801 0.40075 -0.51992 0.19938 0.31912 -0.3633 0.31569 -0.14896 0.2015 0.29336 0.099894 -0.083304 -0.27449 0.2918 -0.057452 0.25903 0.0028235 -0.33989 -0.15913 -0.24456 -0.40665 0.25254 -0.099488 -0.022105 0.02325 -0.53188 0.15963 0.015892 -0.15424 -0.63821 0.28504 0.30526 -0.0072826 0.063804 0.064672 -0.2244 -0.18318 -0.03048 -0.066505 -0.34803 -0.33582 0.27908 -0.43969 0.17 0.20201 0.0018779 -0.32758 -0.087504 -0.43894 0.062145 0.19794 -0.01363 0.15516 0.28855 -0.24894 -0.31039 0.029043 0.38245 -0.40076 -0.0010086 -0.31542 -0.044637 0.016252 -0.24792 -0.36528 0.11887 -0.23471 -0.14344 0.098488 -0.17087 -0.081457 -0.055816 0.22894 -0.4221 -0.08291 -0.0024029 0.14599 -0.42908 -0.15917 -0.53325 0.041046 -0.14035 0.52129 -0.26787 -0.029435 -0.34605 0.20402 0.036872 -0.10845 -0.021751 0.31515 -0.4624 -0.01896 0.054165 0.094699 0.28267 0.21344 0.037599 -0.011872 0.079077 0.0066792 -0.17195 0.037908 0.17983 -0.15119 -0.045897 -0.14037 -0.045755 0.34259 0.010322 -0.2551 -0.12161 -0.51682 -0.13381 0.3383 -0.0093505 -0.57647 0.24194 0.088365 0.27261 -0.40423 -0.00013959 -0.25996 -0.3481 -0.10894 0.34341 0.49297 -0.054162 -0.11391 0.011727 -0.021255 -0.24473 0.074966 -0.54283 0.29549 0.15365 0.58058 -0.14489 -0.13385 -0.095427 -0.14012 -0.098177 -0.086453 -0.28335 -0.16983 0.31759 -0.47516 0.20555 0.05827 0.068706 0.25435 0.31724 -0.090923 0.063266 -0.11692 -0.080033 0.31773 0.37813 
coats -0.09174 -0.19334 0.2207 -0.08629 -0.144 -0.2873 -0.11813 -0.162 -0.16174 0.11451 -0.18378 0.17292 -0.1205 -0.41174 -0.52269 -0.14913 -0.0028936 0.47354 -0.16317 -0.094966 0.22764 0.1129 0.027419 0.72677 0.011435 -0.39131 0.12066 -0.059423 0.012419 -0.068922 0.10444 -0.0013215 -0.46222 0.031496 0.32416 -0.087976 0.07391 0.33129 -0.059764 0.094922 -0.09065 0.31939 0.36183 0.12228 -0.068559 0.13349 -0.15221 -0.043234 -0.020114 -0.040139 0.064434 0.19847 -0.48404 -0.14317 -0.095231 -0.24602 0.21809 -0.053444 -0.22128 -0.0072442 0.0926 -0.55675 0.20812 -0.31683 0.0063748 0.47885 -0.30074 0.081001 -0.1669 0.29163 -0.034272 -0.12288 0.27581 0.36261 -0.48061 -0.33282 0.18032 -0.27121 0.30269 0.13265 0.11956 0.11031 -0.044453 0.0094355 -0.088431 0.39019 -0.27191 0.23255 -0.06221 0.089716 0.32746 0.019868 0.36083 0.15877 0.11787 -0.10365 0.015931 -0.0052242 0.1972 0.18072 0.019696 0.33259 -0.36124 -0.12573 -0.024673 -0.18767 0.084233 -0.4319 0.020583 -0.095905 -0.076572 0.033271 -0.24014 -0.048276 0.024813 -0.048711 -0.46495 -0.021605 -0.12469 0.25648 0.10562 -0.3369 0.05455 -0.33153 0.10948 -0.052013 0.45639 0.28707 0.38973 0.0070415 -0.05985 0.1614 -0.45905 -0.39786 -0.44835 0.12988 -0.15523 -0.24223 0.26124 0.26075 0.37455 0.23726 0.75227 0.18025 -0.58117 -0.27592 -0.41692 -0.35322 0.28276 0.23824 0.038055 0.33372 -0.049503 -0.019448 -0.26114 -0.11726 -0.24249 -0.24678 0.11734 -0.15883 -0.031732 -0.1791 -0.099692 0.082907 0.066466 0.43343 -0.071386 -0.5068 0.19435 0.13661 -0.15201 -0.18588 -0.17741 -0.60354 0.048447 -0.2219 0.23585 -0.55606 0.13678 0.11524 0.21176 -0.061191 0.21528 0.38403 -0.032955 0.05814 -0.53346 0.18121 -0.071779 -0.085455 -0.045217 0.11214 -0.31246 -0.0032988 0.16391 -0.015127 -0.0041587 -0.091664 0.028998 0.039357 -0.17518 0.046793 -0.061428 -0.27365 -0.015098 -0.29329 0.27488 0.058481 0.018037 0.066314 0.07762 -0.31843 -0.053581 -0.12702 0.1682 -0.23184 -0.19044 -0.078634 0.39926 -0.27239 -0.23218 -0.40563 -0.0035889 -0.078015 0.39157 0.058631 0.10616 0.27825 0.088555 0.25026 -0.054369 0.21001 0.20894 -0.070395 -0.0492 0.0039564 -0.095965 0.09647 0.10669 -0.041016 0.06156 0.044709 0.24952 -0.13075 -0.43219 0.070862 -0.48845 -0.41396 -0.088666 -0.24278 0.083897 -0.014726 0.01574 0.03358 -0.54771 0.18531 0.18757 -0.04445 -0.51906 0.359 0.060867 -0.17733 -0.48525 -0.10516 -0.045453 -0.108 -0.11973 0.0025734 0.53638 0.19578 0.18069 0.16351 -0.58483 -0.46182 0.023284 -0.48063 0.0088361 -0.13774 0.13767 0.02332 -0.13144 -0.21476 0.062423 0.17409 -0.28552 -0.25835 -0.22619 0.31353 -0.48414 0.024895 0.34988 0.49471 -0.023231 0.40684 0.090157 0.091704 0.0027612 -0.23335 -0.25473 -0.26196 
grassley 0.18554 0.064764 -0.03517 0.095496 -0.10554 -0.14996 0.14045 -0.17784 -0.17781 0.39367 0.10859 0.15834 0.16328 0.072834 -0.32881 -0.030661 -0.36676 -0.02651 -0.11195 -0.58644 0.32587 0.49252 -0.25894 0.31426 0.084275 -0.10025 0.13971 -0.26736 -0.027434 -0.12733 -0.5565 0.001193 0.10706 0.018125 0.14252 -0.018598 0.15538 0.025516 -0.10303 0.34864 -0.2886 0.011294 0.53911 0.46296 -0.14889 0.29821 0.21843 -0.10402 0.18393 0.2552 0.12203 0.26096 0.38186 -0.14618 -0.29226 -0.043101 0.31315 0.067233 0.19419 0.12735 0.54614 -0.24697 -0.038039 -0.13627 0.18152 0.39721 -0.0037801 -0.18302 0.060901 0.29844 -0.1816 0.13211 0.21443 0.052643 -0.2734 -0.11203 0.23595 -0.042242 -0.10855 0.093813 -0.095618 0.24399 0.2111 -0.037453 0.012448 -0.28881 -0.29295 0.28565 0.23311 -0.2311 0.58004 0.086429 0.49768 0.22849 -0.29771 -0.25253 -0.045132 -0.19002 -0.077535 0.24223 -0.12117 0.011674 -0.06643 0.4859 -0.066672 0.092307 0.15032 0.13056 -0.16935 0.021705 -0.37483 0.38953 -0.098555 0.22312 0.21203 -0.11003 0.022213 -0.40934 -0.12536 0.11663 0.020295 -0.40262 -0.06771 0.12707 0.086635 -0.012684 0.36675 -0.097812 0.19382 -0.25357 -0.3629 -0.059737 0.19849 -0.26555 -0.015931 -0.10125 -0.09007 -0.1927 -0.15439 -0.31194 -0.3305 0.37956 0.096883 0.50115 -0.040893 -0.0017801 0.3019 0.11263 0.14186 0.05252 -0.078429 0.059104 -0.11965 0.099788 -0.17176 -0.037576 -0.058774 -0.17232 0.022427 0.038771 -0.044516 0.13322 -0.13789 -0.081386 -0.056208 -0.18575 -0.34365 -0.30073 0.23805 0.28083 0.047686 -0.5706 0.22919 0.21358 0.12195 0.031448 -0.22751 0.0069202 -0.064772 -0.09988 0.47007 -0.10946 -0.08878 0.36473 -0.69211 0.25352 0.13929 -0.30791 -0.2211 0.27883 -0.51974 -0.32214 0.17694 0.17226 -0.29048 -0.00051996 -0.138 -0.055735 -0.23017 0.051427 -0.26284 -0.12848 -0.29322 -0.50161 0.27941 -0.24378 -0.21244 0.29076 -0.27243 0.16197 0.065007 -0.27257 0.19326 -0.12937 -0.078152 -0.19411 0.13313 -0.066757 -0.39892 -0.094429 -0.46348 -0.20502 -0.15117 -0.41401 0.69992 -0.35057 -0.17065 -0.26859 0.21031 0.52038 0.22552 0.11477 0.03054 0.04801 0.1871 0.036515 0.12262 0.12485 0.077991 -0.21337 0.22682 0.47608 0.37317 0.09915 -0.11248 0.34919 -0.01261 0.025099 0.24288 -0.28935 -0.29975 -0.29792 0.13573 -0.19738 -0.60419 0.20914 -0.044353 0.01147 -0.068353 0.2833 0.12969 0.030411 -0.10483 0.15276 -0.46287 -0.53273 -0.15299 0.54325 0.50561 -0.40865 -0.24886 -0.33687 -0.36373 -0.028523 0.28666 -0.51198 0.18309 -0.19773 0.58646 -0.062159 -0.22307 -0.16941 -0.18361 -0.038498 -0.18507 -0.052512 -0.26497 0.2835 -0.52832 0.21366 0.31693 0.22562 -0.00042223 0.26957 0.3127 -0.0077205 -0.4111 0.29087 -0.24455 -0.12461 
harkin 0.011527 -0.043606 -0.067389 -0.044155 -0.11334 -0.19327 0.10634 0.39456 0.16077 0.10943 0.13285 0.17299 -0.14515 -0.32763 0.00056582 -0.1463 -0.03473 0.11657 -0.39123 -0.13683 0.37568 0.47964 -0.33368 0.29348 0.19445 -0.14422 0.049604 -0.36502 -0.10482 -0.13157 -0.2761 0.23838 0.12678 0.39738 0.41837 0.31175 0.028507 -0.00364 0.065577 -0.20737 -0.28426 -0.027695 0.42563 0.36222 -0.020977 0.36498 0.13456 -0.087711 0.094961 0.088354 0.033458 0.19227 0.29555 -0.27316 -0.25179 -0.016688 -0.17207 -0.14421 -0.16626 0.54236 0.10439 -0.58237 0.15213 -0.11954 0.07057 0.27214 -0.1331 0.073902 -0.07736 -0.035976 0.10213 -0.021849 0.40103 -0.078091 0.013304 -0.11916 0.28228 -0.10948 0.17231 0.053094 0.1681 0.35068 0.050873 -0.11249 0.12457 -0.29215 -0.20181 -0.049853 0.03582 -0.07629 0.30297 0.11375 0.41588 -0.3517 -0.26978 -0.16128 -0.11429 -0.18897 -0.43391 0.085704 -0.27028 -0.1503 -0.15194 0.36247 -0.16465 0.25541 0.35941 0.12076 -0.09648 0.040849 -0.30482 0.3785 -0.20844 0.063471 0.37113 0.064736 0.070554 -0.2547 0.0076105 -0.14832 0.41323 -0.039753 0.16595 0.039273 -0.15904 -0.086684 0.090193 -0.18233 0.065774 -0.1937 -0.17938 0.036533 0.041939 -0.30439 -0.2129 -0.048876 -0.11215 -0.30305 -0.26526 -0.34043 0.09547 0.40117 0.4101 0.18675 -0.097034 0.25671 0.16256 -0.052778 0.031594 -0.034731 -0.09579 0.21336 -0.25841 0.38059 -0.2129 -0.1878 0.02861 0.091026 0.062354 -0.31529 -0.037377 0.21507 -0.14233 0.2114 -0.023594 -0.011293 -0.24397 -0.099661 0.29818 0.29549 -0.0051171 -0.27863 0.2573 0.18479 -0.04988 0.13348 -0.0043039 -0.067963 -0.14146 -0.29233 0.31637 -0.20768 0.020563 0.54885 -0.17935 -0.050069 -0.21968 -0.30963 -0.07687 0.16647 -0.21548 -0.32095 -0.091608 -0.041578 -0.14675 0.26167 -0.24679 -0.22763 -0.19701 0.096238 -0.39114 -0.24367 -0.11349 -0.57217 0.37169 -0.0014875 0.054633 0.31126 -0.41123 -0.048733 0.18598 -0.22283 0.019694 -0.0253 0.10494 -0.03246 -0.20624 -0.17514 -0.28398 -0.36311 -0.071469 -0.14797 -0.14383 0.060789 0.71845 -0.17648 0.12272 -0.078953 0.027147 0.035935 -0.031993 -0.080637 0.054885 -0.039371 0.073819 0.097517 0.028325 0.3026 -0.071694 -0.14979 0.093482 0.15697 0.068975 -0.42428 -0.13285 0.054373 -0.17647 -0.11428 0.42311 -0.11019 0.010079 -0.21809 -0.018221 -0.1844 -0.21344 -0.090861 -0.057025 -0.09385 0.017367 0.08452 0.12205 0.36537 -0.26623 0.16625 -0.16681 -0.53203 -0.19026 0.20891 0.43786 -0.10658 -0.12131 0.12696 -0.34269 -0.2094 -0.15194 -0.43656 -0.00080166 0.11266 0.7612 -0.12271 -0.066112 -0.10733 -0.16799 -0.041262 0.13439 0.0060425 0.078402 0.35846 -0.33469 0.63449 0.28603 0.12647 0.3318 0.33939 -0.0022415 -0.099777 -0.077252 0.19158 0.10862 0.36667 
dole 0.013781 0.040713 -0.1644 0.163 -0.14997 -0.066462 0.034565 0.05794 0.14825 0.17973 0.00071761 -0.16899 -0.045142 -0.21355 -0.0061041 0.10872 0.19734 -0.23491 0.029566 -0.32178 -0.30237 0.57747 0.014936 0.35153 -0.016811 -0.22823 0.011818 -0.17776 0.31451 0.024805 -0.01612 -0.068432 -0.28466 0.078293 0.18967 0.23549 0.17817 -0.12893 -0.054573 -0.1799 0.018926 0.082484 0.2942 0.19177 -0.0071168 0.22614 0.22193 -0.00091274 0.35292 -0.14675 -0.091854 -0.24211 0.073147 -0.082891 -0.13609 0.079442 -0.28039 0.14191 0.037913 -0.29565 0.15603 0.14104 -0.03561 0.22542 0.082531 0.31338 0.0057441 0.1958 -0.027365 0.15467 -0.16794 -0.05327 0.29856 0.15637 -0.080804 -0.192 0.0311 -0.015628 -0.065504 0.1479 0.15818 0.22035 0.026926 0.072164 -0.3101 -0.28595 0.18711 -0.15917 -0.31618 -0.36461 0.034473 0.36287 0.45983 -0.12444 -0.56541 -0.45687 0.27446 0.058029 -0.19988 0.10018 -0.086196 -0.11612 -0.27899 -0.044477 -0.1773 0.0041788 0.14452 -0.072249 0.10963 0.023789 -0.16204 0.37956 -0.49295 -0.32181 0.37896 0.083895 -0.10128 -0.090054 -0.22041 0.20849 -0.1768 0.044371 -0.0096366 0.093952 0.069538 -0.14343 -0.033589 0.0085835 -0.012275 -0.15145 -0.31412 -0.26301 0.062166 0.051058 -0.39417 0.15823 0.12853 -0.33583 0.097855 -0.10076 0.23237 0.32399 0.17718 0.70791 -0.26118 0.18112 0.21886 0.23254 0.24918 -0.11583 -0.12692 -0.014447 -0.15931 0.064041 -0.24392 0.20161 -0.010326 0.063498 0.15564 0.049724 -0.043443 0.25858 -0.25759 0.17362 -0.22175 -0.038625 -0.41364 -0.33418 0.36996 0.32592 0.071069 -0.54642 0.49005 -0.092574 0.014604 -0.19328 -0.00085316 -0.1316 -0.15362 -0.15125 0.25791 -0.28552 -0.054016 0.40997 -0.47412 0.16206 -0.038254 -0.27694 -0.14883 -0.17534 -0.26273 -0.017943 0.18151 -0.089546 0.19018 0.020153 -0.19757 -0.15507 -0.072586 -0.1276 0.024563 -0.012332 0.15569 0.029358 0.087741 0.14228 -0.15517 0.27841 -0.047436 -0.15538 -0.1595 -0.13751 -0.22746 0.054707 -0.041949 -0.49378 -0.23068 -0.20727 -0.27321 -0.46167 -0.12093 -0.42401 -0.3181 -0.19231 0.61881 -0.49123 0.036548 -0.098106 0.083092 0.32646 -0.24721 -0.1859 0.23071 -0.31607 -0.21811 -0.036808 0.0077194 0.46764 0.074306 0.0058475 0.32515 0.18152 0.14618 -0.16237 0.30492 0.16763 -0.28707 0.224 0.11992 -0.13582 0.099084 -0.22825 -0.091576 0.024682 -0.11802 -0.12584 0.12605 -0.035428 -0.23659 0.30903 0.073884 0.33042 -0.34541 -0.1431 -0.31797 -0.34603 0.12194 -0.36374 0.28442 0.11314 -0.15268 0.13199 -0.41046 0.059219 0.29456 -0.47769 -0.26761 0.073184 0.63855 -0.055481 -0.174 -0.038562 -0.006772 -0.071549 -0.19611 -0.16479 -0.25273 0.30171 -0.26912 0.27286 0.47417 0.15075 0.25479 -0.14872 0.16709 0.08716 0.0011373 -0.11093 0.33047 0.15459 
