conservative 0.48794 -0.17509 -0.16294 0.13169 -0.079426 -0.15853 -0.10362 0.26311 0.002247 0.053111 -0.0031046 0.1216 -0.19878 -0.28242 -0.09547 -0.17508 -0.095281 0.2511 -0.071683 -0.14237 0.16507 0.0073017 -0.22723 0.033128 0.059976 -0.076705 -0.069513 -0.17461 0.079259 -0.030068 0.10575 0.21596 -0.043771 0.23553 0.062479 0.38704 0.16777 0.048314 -0.16168 -0.27813 -0.021114 0.09426 0.048345 0.32771 0.20526 0.29255 0.18316 -0.0046991 0.013508 0.12138 -0.22996 0.10953 -0.016878 0.14718 -0.1725 -0.18194 -0.06382 0.050237 -0.32838 0.050166 0.053393 0.2007 0.16199 0.098378 -0.1092 -0.21039 0.26817 -0.064028 0.099958 0.20296 -0.23169 0.31159 -0.012698 0.2321 -0.056614 -0.11929 -0.053537 -0.16007 0.26676 -0.13952 -0.13003 0.45332 0.025531 0.10495 -0.14716 0.035284 0.10402 -0.078407 0.096776 0.15974 0.074993 -0.14994 0.038511 0.039809 -0.21748 -0.24932 0.2388 0.069939 0.080025 0.34808 -0.56333 -0.17301 0.19371 0.072334 0.062399 -0.40333 0.024813 -0.16624 0.33726 0.02157 -0.00794 0.23172 -0.0036185 -0.2764 0.053519 0.16888 0.16821 0.13104 -0.29046 0.17815 0.24211 -0.28492 -0.15788 -0.18366 0.1085 -0.061361 0.20641 0.16109 -0.11791 0.17861 -0.24183 -0.36312 0.29123 -0.094746 -0.56957 -0.025222 -0.034847 -0.0182 -0.070059 0.078737 0.11388 -0.043667 0.26062 0.24166 -0.15964 0.11446 -0.10348 -0.21942 0.2663 0.21179 0.2123 0.41188 0.14899 0.025565 0.10385 -0.073123 -0.04157 -0.14405 0.086839 -0.043384 -0.48109 0.20207 -0.26802 0.26018 -0.39147 -0.10814 0.02692 -0.10261 -0.1195 0.22857 -0.18026 -0.31319 -0.085632 0.086822 -0.033107 0.094567 -0.044911 -0.23434 0.17641 -0.30329 0.38537 0.075553 0.13811 0.46266 -0.16473 0.33778 0.065 -0.29348 -0.030575 -0.094487 -0.26121 -0.10518 0.081558 -0.080014 -0.063971 -0.20813 -0.26864 0.0071952 -0.15317 -0.45357 0.020401 0.06733 -0.076035 0.20969 -0.053798 0.10385 -0.029658 0.16787 -0.087874 -0.10435 -0.42479 -0.088382 0.0039136 -0.50837 -0.20001 -0.27592 -0.124 0.051053 -0.063811 0.29864 -0.015029 0.0065382 -0.13809 -0.075311 0.46115 -0.236 -0.094449 -0.080373 0.4077 -0.23101 0.26828 -0.10201 0.35379 -0.45259 0.14523 0.27032 0.15548 -0.077941 0.14377 0.21372 -0.053713 -0.078051 0.21581 0.027256 0.073431 0.28036 -0.042872 -0.2729 -0.30584 -0.28424 0.33203 0.066502 0.11984 0.31226 -0.0022966 0.025887 0.19359 -0.064831 -0.027743 0.044861 0.0054262 -0.1121 -0.26745 -0.26926 -0.13591 -0.094426 0.03984 0.12942 0.014225 -0.095187 -0.11519 0.6936 0.19443 0.073488 -0.0658 -0.36685 0.25115 0.22166 0.13654 -0.16175 -0.10681 0.01803 -0.0054403 0.10144 -0.26376 -0.17402 -0.08448 0.11148 -0.04631 0.22176 0.082674 0.083815 0.35051 0.1363 -0.033841 -0.11229 -0.24931 0.069089 -0.34718 0.13474 
liberal 0.37675 -0.013242 -0.27872 0.080026 0.23092 0.069094 -0.042569 0.39279 -0.096142 0.12735 0.28488 0.44456 -0.21303 -0.22573 0.10774 0.1508 -0.020136 -0.014602 -0.15089 -0.2122 0.34147 0.068623 -0.07367 0.029037 0.32099 -0.074136 -0.075596 -0.29719 -0.15361 -0.17689 0.32014 0.067405 -0.26639 0.35801 -0.047936 0.39509 -0.23827 -0.033045 0.010613 -0.17465 -0.14842 0.18397 0.097851 0.21242 0.25961 0.37025 0.21401 -0.30157 -0.012652 0.099468 -0.154 0.10756 0.030273 0.23308 -0.019488 -0.31868 0.013349 -0.21516 -0.49231 0.26156 -0.037661 0.021027 0.058963 0.030034 0.24696 -0.22851 0.25102 -0.045348 0.018633 0.19062 -0.37029 0.17404 -0.09739 0.11805 0.00049412 -0.043792 -0.074716 -0.080244 0.21964 -0.37824 0.038583 0.61371 0.02209 -0.05849 -0.013515 0.084825 0.025037 -0.29124 -0.013292 0.11487 -0.020761 -0.23776 0.065157 -0.18715 -0.23264 -0.20265 0.14805 0.18145 -0.043986 0.25059 -0.32637 -0.32521 -0.026459 0.14703 -0.077722 -0.1005 0.1822 0.041056 0.30225 -0.14918 -0.10803 0.33489 0.16481 -0.20697 0.13609 0.082173 0.133 0.031243 -0.3304 0.10494 0.27513 -0.16527 0.035457 -0.011483 0.18647 -0.09389 0.02601 -0.011857 -0.17236 0.24625 -0.13601 -0.21637 0.26558 -0.095514 -0.44624 0.016487 0.078292 -0.087215 -0.30623 0.09558 0.26874 0.031984 0.20187 0.1983 -0.25946 0.14771 -0.051876 -0.13929 0.22415 0.15777 0.13963 0.40844 -0.10105 0.060217 0.17526 0.054874 0.068281 0.2742 -0.11531 -0.21383 -0.2268 0.1267 -0.32114 0.2836 -0.37081 -0.11332 -0.0034464 -0.071292 -0.12167 0.16241 -0.30626 -0.30014 -0.29757 0.022297 0.088076 0.15207 0.060472 0.038313 0.17368 -0.22771 0.30691 -0.10058 0.15389 0.34156 -0.070645 0.08875 0.042598 -0.079068 0.054393 -0.079695 -0.12962 -0.19829 0.019263 0.095957 -0.039855 -0.21449 -0.29202 -0.055564 -0.18013 -0.34805 0.012049 0.11031 -0.002135 0.11457 0.018896 -0.00092099 -0.082729 0.29157 -0.30156 -0.11227 -0.25525 -0.15343 0.023177 -0.55194 -0.29953 -0.12169 0.046898 0.00086569 -0.18497 0.32098 0.10933 0.13704 -0.058721 -0.0066682 0.23225 0.15708 -0.11899 0.06192 0.29012 -0.069438 0.099284 0.0039943 0.36282 -0.28169 0.25078 0.25402 0.27034 -0.055394 0.0098648 0.15824 0.1789 -0.037638 0.15185 0.10385 -0.083858 0.21845 0.01138 -0.28074 -0.18833 -0.20402 0.10246 -0.04974 0.20412 0.32562 0.12079 0.12853 0.076083 -0.17928 0.01928 -0.15266 -0.029917 0.12504 -0.216 -0.074784 -0.18023 -0.061008 0.12913 -0.0013308 -0.083117 -0.20876 -0.053329 0.49103 -0.068757 -0.074713 -0.071889 -0.19262 0.16517 -0.069324 0.1873 -0.09737 0.10501 -0.054125 -0.051954 -0.13198 -0.079808 -0.20612 0.037636 0.22242 0.30939 0.23804 0.039866 0.18811 0.40581 0.04535 -0.07657 -0.14815 -0.14289 0.11296 -0.37145 0.31079 
good 0.12732 -0.3122 -0.064012 0.076736 0.13627 -0.1406 0.2316 0.011845 0.01492 -0.030841 0.24147 -0.031983 -0.28297 -0.26766 -0.14961 -0.03941 -0.064162 0.012029 0.26531 -0.45923 -0.047589 0.099345 0.12304 -0.059036 -0.016316 -0.30828 0.037401 -0.38367 -0.014837 0.11624 0.09076 0.029678 -0.20024 -0.016931 0.25177 -0.044411 -0.23686 -0.068613 0.018895 0.035804 0.16012 0.24427 0.12933 0.14385 -0.11251 0.034159 0.10006 0.15695 0.11094 0.18022 -0.062297 0.20361 0.21148 -0.037711 0.14788 -0.1032 -0.19912 0.15525 -0.13675 0.097091 0.047475 -0.087187 0.1198 0.034216 0.086015 -0.13431 0.12446 -0.20045 0.055092 0.05288 0.16659 -0.073457 0.18487 -0.079676 -0.084289 -0.38582 0.13686 0.026016 0.040238 -0.080765 0.087674 0.24381 0.15377 0.11704 0.019618 -0.11144 -0.013102 -0.010266 0.0024968 -0.091514 0.22079 0.082182 0.072787 0.081614 -0.070948 -0.20092 0.092764 0.07944 -0.41386 0.10747 0.067858 -0.026801 -0.22806 0.075561 -0.18611 -0.058728 -0.28777 0.0019145 -0.10159 -0.17679 -0.11209 0.24479 0.089817 -0.18832 0.18508 -0.0002202 0.10504 0.016923 -0.063812 0.2182 0.062895 0.093529 -0.0057053 0.30214 -0.17517 -0.25258 -0.062819 -0.0014747 -0.20603 0.047065 -0.19606 0.020942 0.033138 0.16715 -0.084798 -0.064529 -0.12443 -0.082767 0.033206 0.063055 0.050198 0.12832 0.016392 0.42555 -0.22733 -0.063647 0.031764 0.13225 -0.11561 0.0634 -0.01184 0.32608 0.2424 0.0055004 -0.18275 0.18087 -0.22648 -0.010047 -0.0059443 -0.035714 -0.34031 0.3607 -0.24149 0.24335 0.014965 -0.035645 0.069894 -0.24503 -0.05906 0.26024 -0.23676 0.10999 -0.23783 -0.097585 0.29269 -0.068858 0.21031 -0.013517 0.048137 0.078569 0.021104 -0.18868 -0.092165 0.03952 0.023449 0.038763 0.038245 0.16956 -0.19125 -0.084356 0.22766 -0.14732 0.025981 -0.02055 -0.15152 -0.30885 -0.14639 0.19439 0.11799 0.090665 -0.0076566 0.0075911 0.10947 0.14651 0.014359 -0.094709 -0.10863 -0.039407 -0.058191 -0.13826 -0.2466 -0.062787 -0.17077 -0.099676 -0.061917 -0.031087 -0.019352 -0.17467 0.17096 -0.24291 0.17306 -0.11205 -0.066437 -0.33798 0.087074 0.10311 -0.014741 -0.095886 0.10577 0.11976 0.094295 -0.10762 0.078605 -0.18362 -0.032547 0.072132 -0.081283 -0.0034062 -0.050309 0.11943 -0.16509 0.072016 0.33736 0.2027 0.23592 0.35446 -0.21573 -0.033619 -0.30622 0.16703 -0.18238 -0.10316 -0.078934 -0.042792 -0.15695 -0.11459 0.087576 -0.12546 -0.26457 0.10672 0.15502 0.064239 -0.27857 -0.012525 0.13848 -0.23072 -0.20012 0.26141 -0.057987 -0.075395 0.0017641 0.03032 0.030987 -0.23878 0.086263 0.0064494 0.11275 -0.057973 -0.083877 0.052375 0.1436 0.0058142 -0.25819 0.16292 0.088494 -0.026746 -0.2265 0.21954 0.089725 -0.015685 -0.29595 0.063835 0.078334 0.20595 0.12022 0.069041 0.13356 -0.12257 0.13822 -0.09962 
bad 0.093227 -0.27331 -0.14636 -0.0041602 0.076535 -0.083565 0.19811 -0.22438 -0.12619 -0.11824 0.20762 0.057139 -0.50999 -0.20021 -0.14684 -0.12954 -0.013295 -0.013412 0.093809 -0.28052 -0.13088 0.012207 0.11714 0.056996 0.18982 -0.36322 0.19225 -0.30031 0.14769 0.053168 0.17822 -0.076323 -0.17059 -0.036952 0.14032 -0.095317 -0.45085 0.13576 -0.0086633 0.15456 0.13618 0.23641 -0.022952 0.067833 -0.014188 0.018982 0.019587 0.30819 0.21793 0.21575 0.070611 0.23149 0.23956 0.069105 -0.040043 0.082055 0.0033754 0.025127 -0.076187 -0.12435 0.025242 -0.11407 0.17113 0.036906 0.039047 -0.044282 0.11746 -0.21771 0.20733 0.037972 0.17481 -0.16245 0.12711 -0.15396 -0.14486 -0.25951 0.070971 0.14049 0.070044 0.075903 -0.091927 0.29972 0.18848 0.080223 0.033457 -0.30957 -0.17234 -0.011774 -0.071526 -0.10694 0.21759 0.036778 -0.083367 -0.012647 -0.16312 -0.25567 0.25959 0.010174 -0.27097 0.064541 0.12138 -0.019782 -0.25332 0.12639 -0.28327 -0.032762 -0.21985 -0.040381 0.031842 -0.11332 -0.13085 0.15661 0.15577 -0.13359 0.1643 -0.12813 0.080932 0.1241 -0.27145 0.16843 0.021876 0.045027 0.018269 0.53986 -0.13711 -0.36826 -0.010712 -0.032718 -0.23764 0.17321 -0.23145 0.097907 0.032625 -0.0567 -0.062282 0.084906 -0.14767 -0.12274 -0.046644 0.3025 0.034861 0.13394 0.22036 0.41884 -0.08612 -0.061308 0.11661 -0.037677 -0.12359 -0.21201 0.062029 0.23572 0.36619 -0.037225 -0.048997 0.03301 -0.25844 -0.049842 0.1762 -0.028736 -0.088563 0.41415 -0.22439 0.27106 -0.020596 0.020805 -0.053385 -0.26034 0.070138 0.026254 -0.35203 0.15572 -0.1053 -0.1308 0.27378 0.037806 0.18487 -0.10974 0.23073 0.20479 0.26881 -0.18928 -0.032871 0.13454 -0.097741 0.066626 0.10693 0.11026 0.15404 -0.15479 0.18452 0.0060757 0.071387 -0.087743 0.030474 -0.31451 -0.075574 0.1946 -0.067806 0.14555 -0.048597 -0.028673 0.11557 -0.13846 -0.058252 0.065394 -0.1419 0.26579 -0.13857 -0.41454 -0.020923 -0.19673 -0.10696 -0.067136 0.0021212 -0.037593 -0.12256 -0.093035 0.10348 -0.22607 0.087914 -0.03927 0.022055 -0.21847 0.24633 0.27975 -0.097913 -0.1848 -0.047205 -0.032759 -0.046382 -0.17905 0.028267 -0.10863 0.0961 -0.020821 -0.083384 -0.1269 -0.18647 0.072575 0.046405 -0.034471 0.43965 0.30218 0.20974 0.18552 -0.28126 -0.10731 -0.2783 0.12675 -0.18958 -0.37486 -0.078818 -0.18475 -0.029318 -0.11458 0.18017 -0.10234 -0.36458 -0.11093 0.020282 0.10417 -0.19284 0.084859 0.0054547 -0.28458 -0.2092 0.19376 -0.10408 -0.17532 -0.10059 -0.0066804 0.20678 -0.3537 0.084331 -0.01566 0.010431 -0.024949 -0.2196 0.10035 0.15748 0.12709 -0.28199 0.013731 -0.038418 -0.12479 -0.21033 0.052231 0.047352 -0.0061358 -0.26093 0.049536 0.3067 0.12243 0.062839 0.1193 -0.029012 -0.057225 0.18313 -0.16475 
carter -0.031012 0.088731 -0.18139 0.24234 -0.1236 -0.21594 -0.17532 0.042867 0.0070597 0.13078 -0.14032 -0.15232 -0.050678 -0.14008 0.27539 0.23235 -0.16625 -0.21471 -0.026324 -0.059983 -0.19462 0.35783 0.1957 0.044834 -0.20046 -0.064762 0.1502 -0.2774 -0.24326 -0.025282 0.25043 0.10584 -0.27875 -0.21248 0.17502 0.15438 -0.10085 0.079325 -0.093582 -0.58505 0.056599 0.28947 0.16224 -0.15293 0.29343 -0.092667 0.56553 0.035813 0.0020416 0.25956 -0.045996 0.22812 0.17441 0.024134 -0.30651 -0.10937 -0.27733 -0.1004 -0.097056 0.22682 -0.26819 -0.17707 0.31701 -0.031378 -0.029943 0.12769 0.23728 0.33981 -0.091768 0.1266 -0.21492 0.22664 -0.1147 -0.068222 -0.02238 -0.051324 -0.063544 -0.44296 -0.41345 0.10097 0.23836 -0.14922 0.055505 -0.0039376 -0.002516 -0.070338 0.15143 -0.10082 -0.062899 0.069281 0.054747 0.22639 0.45169 0.10748 0.10076 -0.15465 0.042781 0.27308 -0.052537 0.21791 -0.053177 0.026477 -0.10434 0.02437 -0.16737 0.28141 -0.085687 0.14317 -0.013368 0.090379 -0.10362 0.3747 -0.057387 0.035831 0.25583 -0.022233 0.14308 0.23116 -0.20673 0.19578 0.23763 0.005614 -0.22437 -0.043734 0.19337 -0.017681 -0.082906 -0.41634 -0.23078 -0.26599 -0.082968 -0.041912 -0.068806 -0.34722 -0.41953 -0.097223 -0.063757 0.44758 -0.13315 0.028096 0.043041 0.29193 0.13499 0.40818 -0.27224 -0.10812 0.20422 -0.067933 0.21345 0.23146 0.15297 0.17803 0.30563 -0.020968 -0.080555 0.21237 -0.11315 0.051114 0.088919 0.066278 -0.21464 0.14807 -0.40635 0.48684 -0.19512 -0.31876 -0.16273 -0.19664 0.098436 -0.034903 0.10799 -0.44604 0.026873 0.20547 -0.075479 -0.20581 -0.0090669 -0.12979 -0.090423 0.03522 0.52489 -0.16904 0.24414 0.39329 -0.01663 0.1101 -0.12007 -0.16379 0.036831 -0.25819 0.24435 -0.078361 0.25272 -0.064942 -0.02372 0.29386 -0.17039 -0.22955 -0.19995 -0.081561 -0.13037 0.23358 0.30581 -0.20125 -0.21445 0.10311 0.21124 0.08719 -0.35718 -0.095808 -0.036047 -0.25421 -0.10064 0.30697 0.35617 0.22855 -0.16237 0.035043 0.030818 -0.017653 0.12032 0.20433 -0.28552 0.023182 0.45372 -0.18973 0.19439 -0.33068 -0.088464 0.14465 -0.17873 0.00018563 -0.0066597 0.15164 -0.082259 0.095405 0.0085627 0.12211 0.096146 0.085072 0.086556 -0.14497 0.029335 0.011072 -0.1293 -0.21416 -0.22616 -0.023654 -0.11903 -0.12266 -0.033794 -0.12625 0.097652 -0.044178 -0.034979 -0.29158 0.16977 -0.0096983 -0.30226 0.020984 0.13797 0.35307 -0.059186 0.21527 0.016183 -0.13024 -0.016725 -0.10156 -0.15364 0.19134 -0.25512 0.33858 -0.19693 -0.28321 0.0090155 0.2316 -0.31678 -0.018277 0.3018 -0.21142 0.18427 0.00081307 -0.22811 0.12124 0.34463 -0.22015 0.22352 0.020295 -0.01931 0.20081 0.062253 0.047458 -0.037337 -0.21995 0.12962 0.15591 0.37034 0.20436 0.11009 0.058397 
sparkman -0.10049 0.50934 0.17736 -0.080114 0.41932 -0.20894 -0.16246 -0.12736 -0.20061 0.1665 0.32695 0.039227 0.071983 -0.40601 -0.053017 -0.28874 0.041853 0.48301 0.25544 0.07396 0.0094164 0.37823 -0.13057 0.4189 0.071861 0.016647 0.097963 -0.21113 -0.20238 0.084533 -0.20564 0.18839 -0.20445 0.040994 0.25212 0.063194 -0.06087 -0.0036534 -0.022341 0.11167 -0.38784 0.111 0.078225 0.072704 0.036455 0.1813 0.083267 0.10434 0.46885 -0.13752 -0.33093 0.056364 -0.15409 0.17355 -0.14699 0.26607 -0.1499 -0.067482 -0.18152 0.32623 -0.27574 -0.023391 0.46664 0.039918 0.20038 0.18574 0.24373 0.17022 0.065558 0.17701 -0.65945 0.2037 0.31587 0.44829 0.23331 0.11154 -0.23131 -0.21766 -0.038683 -0.25956 0.17414 -0.051307 -0.03503 0.32777 0.14936 -0.14581 -0.20768 0.046254 0.068455 -0.032582 0.21105 0.15043 0.23601 0.43736 -0.52287 -0.13084 0.017366 0.29305 -0.23584 0.0057523 -0.11937 0.086787 0.060109 -0.0793 -0.37066 0.16398 -0.028371 0.40433 -0.0477 0.13625 0.091954 0.078415 0.137 0.054629 0.093939 -0.20961 -0.15437 -0.24462 -0.16747 -0.19992 0.69458 -0.23153 -0.11177 -0.14658 0.27022 -0.045457 0.28457 -0.18545 -0.2769 0.059989 -0.1974 0.0092829 -0.23721 -0.27415 -0.18706 -0.10302 0.14698 0.22643 0.069755 -0.15108 -0.017623 0.089594 0.53353 -0.041916 0.1925 -0.31255 0.26192 0.16655 -0.053345 0.14025 0.041146 0.52037 -0.2099 -0.024663 -0.17042 0.13261 -0.24931 -0.25492 -0.010849 -0.22455 -0.1472 0.11013 -0.65971 0.14869 0.023103 -0.2467 0.12039 -0.40767 0.0077158 0.37166 -0.051424 -0.51093 0.32419 -0.036065 0.096827 -0.095422 0.20471 -0.067113 -0.13981 0.14192 0.22158 -0.23037 0.040861 0.35877 -0.35172 -0.17401 -0.26427 -0.29318 -0.19773 -0.21995 0.019157 -0.26457 0.082256 -0.059539 0.16434 0.2366 -0.23348 -0.37029 0.19748 -0.013934 -0.27951 0.26936 -0.031515 -0.3905 0.077319 -0.16687 0.16932 0.29945 0.057467 -0.050212 -0.069885 -0.26375 -0.086144 0.13891 0.17982 0.2453 0.14282 -0.010916 0.029603 -0.3157 0.25078 -0.49745 -0.37477 -0.30683 0.51823 -0.22032 0.25429 -0.47111 -0.39003 0.07478 -0.34538 -0.0075787 0.5725 0.081957 -0.081264 -0.036534 0.29335 -0.1406 -0.15492 -0.1018 0.3339 0.31209 -0.14252 -0.28545 0.062924 0.061384 -0.1575 0.067628 0.19918 -0.10683 0.11961 0.43531 -0.031786 -0.38418 -0.70072 -0.32596 0.038488 -0.088809 -0.070645 0.42876 -0.071359 0.52597 -0.44184 0.059445 -0.05839 -0.24317 0.063246 0.4202 0.23542 -0.098354 -0.062503 0.33263 -0.27372 -0.3392 0.39644 -0.075366 0.084841 -0.21901 -0.11692 -0.050491 -0.13057 -0.13231 -0.016069 0.0087369 0.22447 0.021847 0.080601 -0.068773 -0.28738 0.52579 0.085277 0.020811 0.18107 -0.33455 0.1033 0.18109 -0.29885 0.01597 0.057871 -0.21659 
allen 0.1612 -0.25469 0.21041 0.20815 -0.28059 -0.21426 -0.14456 -0.14005 0.074711 0.25485 -0.15795 -0.14364 -0.086649 -0.45119 -0.10816 0.048647 -0.07177 0.19856 -0.066408 -0.04213 -0.19058 0.391 0.13383 0.25472 -0.034851 -0.28508 -0.16616 0.14344 -0.19621 0.015877 0.043296 0.16258 0.026993 0.14437 0.1139 0.055071 -0.063993 -0.15683 0.046726 -0.06407 -0.15116 -0.094912 0.18285 -0.0099781 -0.096396 0.060384 0.21013 0.15092 -0.047986 -0.030873 0.0075837 0.048556 -0.30101 0.035633 -0.094961 -0.09212 0.012427 -0.075097 -0.18915 -0.20006 -0.18417 -0.091093 0.20294 0.19323 0.013878 0.0028356 0.28226 -0.0067269 -0.013478 0.20566 -0.18374 0.047053 0.15841 0.13886 0.11496 -0.019343 0.22196 -0.39228 -0.17921 -0.070566 -0.073331 0.023225 0.36584 -0.054692 -0.012243 -0.060297 -0.18356 -0.1203 0.079042 -0.020006 0.13189 0.21283 -0.024322 0.37432 -0.28559 0.075765 -0.035057 0.081888 -0.034593 0.36987 -0.010885 0.21265 0.11299 0.24986 -0.13868 0.075565 -0.16022 -0.094844 -0.18161 -0.054715 -0.071311 0.30199 -0.1014 -0.12325 0.13265 0.10237 0.04853 0.0020011 -0.057303 -0.17541 0.31681 -0.044149 -0.043552 0.039466 0.0028037 -0.24907 0.23164 0.067751 -0.14068 -0.095898 -0.2075 0.175 0.38095 -0.24921 -0.033102 0.18413 -0.035095 0.040578 0.018945 -0.13644 0.069588 0.28683 0.22443 0.37962 -0.20433 -0.091209 -0.092809 0.1618 -0.056473 -0.058029 0.14272 0.42879 0.16594 0.066421 -0.37421 0.098981 -0.0028268 -0.055568 -0.089965 -0.10683 0.1165 0.13326 -0.078493 0.33281 -0.22263 0.039817 0.11109 -0.00090385 -0.082171 0.29965 -0.05893 -0.14785 -0.088816 0.043098 -0.14012 0.10415 0.16521 -0.1352 0.22181 -0.052153 0.22626 -0.19739 0.50419 -0.073107 -0.10802 0.095632 -0.24794 0.1955 -0.12124 -0.16048 0.30917 -0.19232 -0.16831 -0.16336 0.078111 0.21355 -0.012157 0.036477 0.1125 -0.092989 -0.2127 0.013211 0.1436 -0.10454 -0.095852 -0.21208 0.077965 -0.25008 -0.32976 0.0048557 0.18687 -0.20775 -0.23632 -0.2096 0.027679 -0.09142 -0.13597 -0.038127 0.010907 0.078558 0.083162 -0.27151 -0.13928 -0.11837 0.44066 -0.26853 -0.16429 -0.35459 -0.27807 0.042394 -0.22028 0.050689 0.08377 -0.27065 0.058702 -0.020596 0.29503 0.31397 0.17245 -0.072387 0.16802 0.15245 0.13657 0.16231 -0.14898 0.026931 0.026515 -0.26276 -0.11898 -0.10252 0.07324 -0.20644 0.049779 -0.080172 -0.046075 -0.21251 -0.18054 0.16222 -0.21546 0.18893 -0.17159 0.14834 -0.39978 -0.056067 0.089435 -0.32326 0.1008 0.0029822 0.15598 -0.31632 -0.2878 0.44074 -0.15054 -0.10641 0.58532 -0.21795 -0.19523 0.24657 0.17616 -0.091278 -0.31379 -0.091932 -0.014531 0.097453 -0.11489 -0.18211 0.10872 0.24247 -0.5649 0.25693 0.31151 -0.051774 -0.075947 -0.026677 0.20734 0.24117 0.019285 0.10118 0.13248 -0.44851 
allen 0.1612 -0.25469 0.21041 0.20815 -0.28059 -0.21426 -0.14456 -0.14005 0.074711 0.25485 -0.15795 -0.14364 -0.086649 -0.45119 -0.10816 0.048647 -0.07177 0.19856 -0.066408 -0.04213 -0.19058 0.391 0.13383 0.25472 -0.034851 -0.28508 -0.16616 0.14344 -0.19621 0.015877 0.043296 0.16258 0.026993 0.14437 0.1139 0.055071 -0.063993 -0.15683 0.046726 -0.06407 -0.15116 -0.094912 0.18285 -0.0099781 -0.096396 0.060384 0.21013 0.15092 -0.047986 -0.030873 0.0075837 0.048556 -0.30101 0.035633 -0.094961 -0.09212 0.012427 -0.075097 -0.18915 -0.20006 -0.18417 -0.091093 0.20294 0.19323 0.013878 0.0028356 0.28226 -0.0067269 -0.013478 0.20566 -0.18374 0.047053 0.15841 0.13886 0.11496 -0.019343 0.22196 -0.39228 -0.17921 -0.070566 -0.073331 0.023225 0.36584 -0.054692 -0.012243 -0.060297 -0.18356 -0.1203 0.079042 -0.020006 0.13189 0.21283 -0.024322 0.37432 -0.28559 0.075765 -0.035057 0.081888 -0.034593 0.36987 -0.010885 0.21265 0.11299 0.24986 -0.13868 0.075565 -0.16022 -0.094844 -0.18161 -0.054715 -0.071311 0.30199 -0.1014 -0.12325 0.13265 0.10237 0.04853 0.0020011 -0.057303 -0.17541 0.31681 -0.044149 -0.043552 0.039466 0.0028037 -0.24907 0.23164 0.067751 -0.14068 -0.095898 -0.2075 0.175 0.38095 -0.24921 -0.033102 0.18413 -0.035095 0.040578 0.018945 -0.13644 0.069588 0.28683 0.22443 0.37962 -0.20433 -0.091209 -0.092809 0.1618 -0.056473 -0.058029 0.14272 0.42879 0.16594 0.066421 -0.37421 0.098981 -0.0028268 -0.055568 -0.089965 -0.10683 0.1165 0.13326 -0.078493 0.33281 -0.22263 0.039817 0.11109 -0.00090385 -0.082171 0.29965 -0.05893 -0.14785 -0.088816 0.043098 -0.14012 0.10415 0.16521 -0.1352 0.22181 -0.052153 0.22626 -0.19739 0.50419 -0.073107 -0.10802 0.095632 -0.24794 0.1955 -0.12124 -0.16048 0.30917 -0.19232 -0.16831 -0.16336 0.078111 0.21355 -0.012157 0.036477 0.1125 -0.092989 -0.2127 0.013211 0.1436 -0.10454 -0.095852 -0.21208 0.077965 -0.25008 -0.32976 0.0048557 0.18687 -0.20775 -0.23632 -0.2096 0.027679 -0.09142 -0.13597 -0.038127 0.010907 0.078558 0.083162 -0.27151 -0.13928 -0.11837 0.44066 -0.26853 -0.16429 -0.35459 -0.27807 0.042394 -0.22028 0.050689 0.08377 -0.27065 0.058702 -0.020596 0.29503 0.31397 0.17245 -0.072387 0.16802 0.15245 0.13657 0.16231 -0.14898 0.026931 0.026515 -0.26276 -0.11898 -0.10252 0.07324 -0.20644 0.049779 -0.080172 -0.046075 -0.21251 -0.18054 0.16222 -0.21546 0.18893 -0.17159 0.14834 -0.39978 -0.056067 0.089435 -0.32326 0.1008 0.0029822 0.15598 -0.31632 -0.2878 0.44074 -0.15054 -0.10641 0.58532 -0.21795 -0.19523 0.24657 0.17616 -0.091278 -0.31379 -0.091932 -0.014531 0.097453 -0.11489 -0.18211 0.10872 0.24247 -0.5649 0.25693 0.31151 -0.051774 -0.075947 -0.026677 0.20734 0.24117 0.019285 0.10118 0.13248 -0.44851 
gravel 0.26347 0.0091882 -0.058021 0.013562 0.084828 -0.39939 -0.021279 -0.091144 -0.010172 -0.028189 0.2228 -0.23493 -0.071362 -0.14795 -0.18423 -0.23233 -0.37437 0.15715 -0.42144 0.058089 0.0031974 0.59506 -0.042329 0.18413 -0.11486 0.12555 0.13613 0.32764 -0.047816 0.078942 -0.048564 0.071234 -0.092122 0.14635 0.44378 0.15894 0.10807 -0.16103 0.17278 0.10562 -0.11644 -0.24501 0.2296 0.018864 0.11169 0.36525 -0.20079 0.1867 0.41234 -0.096192 -0.43132 -0.056035 0.12948 -0.064274 0.067192 -0.013138 0.10325 0.0077216 -0.08289 0.71844 0.15378 0.042106 0.068588 0.0819 -0.080657 -0.12339 -0.16139 -0.26562 0.17691 -0.13052 -0.25349 -0.14703 0.36674 0.10962 -0.20332 0.37717 0.13257 -0.024325 -0.099872 -0.22 0.35373 0.039718 0.019925 -0.26658 -0.23722 -0.076034 -0.46981 0.18927 -0.19362 0.10216 0.32455 0.094668 -0.10735 -0.12209 -0.023759 -0.39249 -0.17148 0.13419 -0.40101 0.26813 0.0010336 0.26438 -0.015822 0.063349 -0.20775 0.099564 0.028245 -0.22401 0.19358 -0.16411 0.12996 0.15532 -0.072708 0.2681 0.023017 -0.16726 -0.18442 -0.020559 -0.033176 0.48062 0.53666 -0.15434 -0.22648 -0.021214 0.39941 0.12396 0.24661 -0.3692 0.047868 -0.43875 -0.47424 0.32664 -0.018625 -0.21836 -0.28303 -0.014573 -0.071028 -0.51388 -0.22224 0.10619 0.27518 0.39907 0.31326 0.029488 0.16444 -0.47375 -0.083262 0.037108 0.33986 0.30295 0.059673 0.61836 -0.13703 0.23224 -0.0060725 0.099261 -0.29036 0.16155 -0.076468 0.10291 -0.021904 -0.25438 -0.38357 0.49823 -0.1764 0.32814 0.07603 -0.73936 0.022451 0.049661 0.026924 -0.41213 0.080397 -0.49346 0.045454 -0.22838 0.044967 -0.17803 0.18122 -0.04739 0.11867 -0.1569 0.2306 0.076414 0.29634 -0.079439 -0.22709 0.044739 -0.29352 -0.22165 -0.20321 -0.36963 -0.17623 -0.075645 -0.014759 -0.024381 0.11736 -0.21185 0.26827 0.088228 -0.24109 -0.14468 -0.052765 -0.21145 0.006927 0.18533 -0.21195 0.017461 -0.097045 0.11733 0.19018 -0.14238 -0.39495 -0.033163 0.21921 -0.080831 -0.15262 -0.044194 -0.074682 -0.10772 0.12597 -0.040869 -0.066477 -0.21124 0.17915 -0.15893 -0.33752 -0.37745 0.062264 0.19212 0.048873 -0.076541 0.20505 0.11465 -0.019587 -0.32588 0.079595 -0.077959 -0.22395 0.29371 -0.15478 -0.22215 -0.061426 -0.080999 0.087889 0.44132 -0.37366 0.0024353 0.094212 -0.12876 -0.0033595 -0.35883 0.20111 0.026081 -0.40446 0.089785 0.010528 0.058088 -0.2126 0.0082057 -0.22785 0.101 -0.081376 0.20927 -0.1497 0.066656 -0.10103 -0.040374 0.31535 -0.21261 -0.092901 0.1781 -0.17209 -0.1754 0.38562 0.025054 0.090125 0.05756 0.071035 0.32766 0.11494 -0.38093 -0.2341 0.14338 -0.14425 -0.0084578 0.053756 -0.038626 -0.097661 0.28183 -0.14376 0.15723 0.28504 -0.052303 0.36045 0.17526 -0.25822 0.01271 0.15705 0.45101 
stevens 0.16717 -0.12342 0.021616 0.27099 -0.11012 -0.44793 -0.026858 0.30682 0.026004 0.17081 -0.015504 0.058044 -0.19606 -0.040064 -0.23585 -0.098341 -0.19339 0.075646 -0.15863 -0.12825 -0.33646 0.00037767 0.048495 0.063076 0.082488 -0.32791 0.012448 0.14486 -0.44779 0.0028205 0.29935 0.037473 0.14205 0.060734 0.19221 -0.070671 0.19143 -0.051736 -0.033342 -0.16189 -0.43441 -0.024198 0.37075 0.096623 0.077598 0.24736 0.29315 -0.21216 0.18615 -0.03265 -0.31891 0.10067 0.2445 0.067774 0.18982 -0.064303 -0.16965 -0.1006 0.27477 0.24588 0.052201 0.040881 -0.081318 -0.010419 0.65336 0.14798 -0.062367 0.058105 0.022479 0.33263 -0.13472 -0.10981 0.21123 0.15149 -0.07794 0.1264 0.14316 -0.39346 -0.1689 -0.30727 0.18938 0.12867 0.48593 0.38607 0.012122 -0.37497 -0.40123 0.013891 0.212 -0.011155 0.51824 0.1675 0.49405 -0.17391 -0.22305 -0.27748 -0.17999 0.13834 -0.25813 0.0075586 -0.021183 -0.3062 -0.097562 0.48708 -0.14002 -0.14197 0.08942 -0.14758 -0.027478 0.05909 -0.14102 -0.13743 -0.09546 0.030605 0.095248 -0.050221 -0.031947 -0.07346 0.018053 0.2482 0.25306 -0.020078 -0.14199 -0.048349 0.15278 -0.21898 0.28017 0.28786 -0.28422 0.074828 -0.23729 -0.056533 -0.0096905 -0.17891 -0.39531 0.039232 -0.18646 -0.23817 -0.15987 0.07937 0.33587 0.10813 0.24399 0.40942 -0.19072 -0.14301 0.40789 -0.019719 -0.037211 0.10867 -0.14376 0.23596 -0.090714 -0.10319 -0.2178 0.30691 -0.23938 -0.061298 -0.084229 -0.17129 0.038337 -0.11958 -0.28809 0.30547 -0.14493 -0.062572 -0.13635 -0.57083 -0.098597 0.26785 -0.219 -0.14353 0.20438 -0.03121 -0.078079 -0.19714 0.13313 -0.10164 0.080342 -0.10095 -0.18888 0.031684 0.14637 0.34906 -0.33019 -0.32618 0.0024225 0.012973 0.27848 -0.062315 -0.064149 -0.53703 0.013831 0.068421 -0.079273 0.098668 0.16483 -0.45592 -0.17752 -0.077958 -0.16576 0.097502 -0.41516 -0.10553 0.030594 0.18001 0.17889 0.13544 0.062366 -0.14726 0.12531 -0.39346 -0.045338 0.20975 0.080685 0.075455 0.18795 0.19963 -0.10991 0.068805 0.18407 -0.36931 -0.26639 -0.078013 0.69696 -0.48033 -0.027205 0.12383 0.065522 0.38268 0.1873 0.34433 0.036283 -0.22963 0.082643 -0.15881 0.1913 -0.12485 -0.33804 0.054906 0.050755 0.16306 0.23695 -0.074727 0.24717 -0.024025 -0.1172 -0.12503 0.39325 -0.27584 -0.11011 -0.17271 0.17512 -0.19825 -0.51187 0.14899 -0.18664 -0.018399 0.059953 0.10576 -0.34596 0.27205 -0.19172 0.1727 -0.4757 -0.28483 0.020261 -0.27541 0.02183 -0.087325 -0.25174 0.07515 -0.3695 -0.24264 0.35882 -0.18247 -0.087025 0.24183 0.18051 0.19657 0.30962 -0.25336 0.06819 -0.43293 -0.25201 -0.050262 -0.13546 0.13012 -0.080691 0.14008 0.25896 0.10046 -0.020111 0.0083562 0.13335 0.015414 -0.28232 -0.089383 0.10941 -0.15986 
goldwater 0.31795 -0.036406 -0.11813 0.61525 -0.13854 -0.051006 -0.23488 -0.31659 -0.13293 0.040148 -0.071795 0.034024 0.16882 -0.1277 0.32234 -0.12113 -0.065422 -0.16191 -0.36002 -0.15867 0.01335 0.29205 0.1134 0.53051 -0.041956 0.35562 0.25033 0.15673 0.073423 0.30794 -0.0090803 0.31625 -0.21516 -0.021423 0.37188 -0.17513 0.081586 -0.12713 0.099681 -0.18275 -0.38409 -0.1939 0.46299 0.50725 -0.1925 -0.099194 0.12896 -0.063197 0.075607 -0.19514 -0.14637 -0.062334 0.097457 0.39123 -0.27735 -0.2715 -0.15316 -0.016855 -0.26401 -0.12247 -0.2591 0.11242 0.21288 -0.052997 -0.28031 0.16865 -0.066137 0.10897 0.041027 -0.001884 -0.60134 0.43624 0.37289 0.46649 0.30165 0.07761 -0.12823 -0.42563 0.085517 -0.24816 0.075461 0.43192 -0.081021 -0.094807 0.015379 -0.56553 0.11742 0.0036606 -0.35467 -0.012762 0.033577 -0.052676 0.38916 0.17724 -0.011105 -0.29024 0.058447 -0.10331 -0.17108 0.28939 0.031731 -0.058282 -0.24554 0.30365 -0.45579 0.25448 -0.039858 0.24529 -0.073722 -0.01322 0.28038 0.070203 -0.10354 0.028949 0.18514 -0.18957 -0.12807 0.0055458 -0.44272 0.48764 0.12485 -0.58634 -0.33128 -0.19853 0.25509 -0.43286 -0.01929 -0.14401 0.34168 0.038333 -0.443 -0.0069545 0.19992 -0.31251 -0.2894 -0.14468 -0.34012 0.058054 0.020403 -0.20064 0.17419 0.23738 0.40843 0.45067 -0.10084 0.064904 0.35616 -0.0098503 -0.082542 0.2392 -0.040134 0.37765 0.12317 0.004363 -0.14355 0.33575 -0.41882 -0.23914 0.10082 -0.08026 -0.26178 0.32066 -0.25804 0.25279 -0.22033 -0.55619 0.098455 -0.3719 0.26963 0.1225 0.24051 -0.14348 0.36 0.39786 0.015141 0.05879 -0.018544 -0.32745 -0.091224 0.24146 0.33234 -0.24119 0.0012414 0.46289 -0.12271 0.37929 -0.18143 -0.27887 -0.084775 -0.13392 -0.05824 -0.12493 0.18522 0.038118 0.14312 -0.031909 -0.22862 0.12651 -0.094091 -0.061916 -0.11336 -0.13704 -0.24423 0.17479 -0.097091 -0.072351 -0.16998 0.39884 0.32307 -0.093711 0.15077 -0.2671 -0.14602 0.01619 -0.087367 -0.14755 -0.22887 -0.056886 -0.093569 -0.13601 0.14729 -0.097254 0.090485 -0.13987 0.58687 -0.35119 -0.013884 0.22037 -0.12563 -0.016831 0.059936 0.14781 0.56553 -0.052254 -0.10232 -0.06094 0.22972 0.12192 0.37368 0.13356 -0.13552 0.22177 -0.062986 -0.46817 -0.066486 0.028016 -0.18476 -0.24201 -0.075088 -0.35965 0.30359 -0.073732 0.064065 0.12736 -0.29076 0.057328 0.68292 -0.38656 0.091851 -0.10678 -0.029351 0.11624 -0.24691 -0.37727 -0.3202 -0.11454 0.14211 0.29416 0.322 -0.011976 -0.30795 0.36833 -0.51473 -0.234 -0.032434 -0.53598 -0.12117 0.13295 -0.21165 -0.18595 -0.048609 0.10764 -0.11602 -0.082827 -0.10941 -0.10592 -0.17176 0.2665 -0.072592 0.43202 0.19886 0.60234 0.037197 0.066374 0.12472 0.0037026 -0.44868 0.152 -0.026609 -0.08248 
deconcini -0.17073 -0.16053 -0.23197 0.1388 -0.41175 -0.031219 -0.26048 0.11612 0.15164 0.26668 0.24175 -0.060059 0.12512 -0.18775 -0.3455 -0.10569 -0.18914 -0.2399 -0.25256 -0.37832 0.13955 0.15856 0.045122 0.44596 -0.14551 -0.60006 -0.032353 0.29613 0.091088 0.26847 -0.3184 0.38632 0.092549 0.34287 0.17158 -0.28711 0.22569 0.081008 -0.19133 -0.12867 -0.38149 -0.091837 0.35699 0.55459 -0.068288 0.25849 0.13219 0.054327 0.43704 -0.14366 -0.11071 0.10659 0.53665 -0.1936 -0.32639 0.097604 -0.2157 -0.025797 0.015255 0.29021 -0.029915 -0.19505 0.31156 -0.25626 0.59727 0.22068 -0.069417 0.052813 -0.01584 0.18544 -0.49373 0.037627 0.28684 0.25274 -0.28047 0.060913 0.20303 0.033013 0.19189 0.19267 0.26209 0.34106 0.19001 0.20272 0.084148 -0.35456 -0.1813 -0.24188 0.13901 0.16853 0.19006 -0.014383 0.23976 0.28968 -0.21773 -0.077149 0.29468 0.081311 -0.040766 0.34004 0.15674 -0.045428 -0.46477 0.15924 0.16334 0.3412 0.25856 -0.034809 -0.41059 0.12463 -0.4432 0.05625 -0.060819 0.16134 0.17254 0.3756 0.086201 -0.28331 -0.35978 0.027387 0.59665 -0.30468 -0.18375 -0.11998 -0.01101 -0.37453 0.22282 -0.20258 0.303 -0.18001 -0.29918 -0.26572 -0.049109 -0.36964 -0.029333 -0.3457 0.23722 0.049371 0.12837 -0.42752 0.013707 0.51458 0.3481 0.060355 0.17743 0.28662 0.26895 -0.30499 0.11735 0.020727 -0.25737 0.44417 0.14807 -0.22566 0.094873 0.21835 0.092482 -0.24449 -0.1471 -0.060529 0.11783 0.12165 -0.50486 0.034475 -0.051206 -0.38087 0.075837 -0.5289 0.38003 0.31542 -0.033797 -0.40013 0.32491 0.45088 0.38116 -0.02156 -0.24553 -0.25404 -0.26728 0.041203 0.19708 -0.076133 -0.24919 0.31285 -0.64346 -0.25448 0.097508 -0.14757 0.052327 -0.075739 0.0083121 -0.031843 0.17174 0.26934 -0.13499 0.1629 -0.31451 -0.18622 0.25667 0.081599 -0.27742 -0.41792 -0.14069 -0.05777 0.11611 -0.36449 -0.101 0.46418 -0.32715 0.093941 0.038065 -0.26725 0.045142 0.25808 0.040561 0.037 -0.092781 0.1342 0.059713 -0.32767 0.05725 0.07886 -0.29516 0.030336 -0.0028402 -0.4994 0.11114 -0.16297 0.2116 0.10639 0.17028 0.11789 0.36947 0.0048215 0.09815 -0.10995 -0.16466 0.11095 0.017634 -0.1934 0.45145 0.09235 -0.34402 -0.3086 -0.26453 0.45095 0.012518 -0.10437 -0.076442 -0.21599 -0.041587 -0.029479 -0.18601 -0.20876 -0.57557 0.073303 0.16545 -0.242 -0.23516 -0.075151 -0.53372 0.21311 0.013788 0.28995 -0.26436 -0.31138 -0.21155 0.027715 -0.04605 -0.044012 -0.085594 0.25443 -0.38254 -0.53078 0.24616 -0.47501 -0.29411 -0.038631 0.46925 0.0066378 0.061119 0.1084 0.067164 -0.42319 -0.071149 -0.0080647 0.00017758 0.36744 -0.24861 0.25078 0.43395 0.29243 0.19981 -0.082587 0.18134 0.36934 -0.23917 0.034692 -0.31974 0.41502 
mcclellan 0.23407 -0.27613 0.55145 -0.16782 0.090149 -0.043007 0.28162 -0.12507 -0.025789 0.089059 -0.1904 -0.2062 -0.077584 -0.33704 -0.34215 -0.26027 -0.065781 0.13917 -0.32607 0.12589 -0.068633 0.17409 -0.14457 0.24207 -0.017348 -0.0082764 -0.082204 -0.037292 -0.31649 0.18126 -0.059485 0.31581 0.11615 0.21399 0.23662 0.45391 0.0053477 0.023918 -0.33306 0.16198 0.023924 0.36934 0.34805 0.11353 -0.24061 0.14719 0.28906 -0.23843 0.3063 0.27716 -0.070825 -0.074527 -0.1753 0.12485 -0.10256 -0.2488 -0.20816 -0.080723 0.29628 0.11606 0.18441 -0.40842 0.8959 0.022976 -0.10768 0.12193 -0.058202 -0.022515 -0.37162 0.25174 -0.062154 -0.17276 -0.0070836 0.19014 -0.021894 0.027731 0.41919 -0.13899 -0.1627 -0.0085401 -0.17697 0.35929 0.31851 0.01018 -0.10077 -0.073841 -0.099382 -0.098115 -0.06656 -0.50952 0.037876 0.44013 0.16646 -0.26761 -0.25571 0.25313 0.16058 -0.061253 -0.085251 0.01212 -0.34478 0.037982 0.0086106 -0.26037 -0.10514 0.075441 -0.081877 0.049434 -0.58409 -0.0054647 -0.055538 0.11834 0.10695 -0.34702 0.013878 0.20018 0.13987 -0.5697 -0.13272 0.12995 0.34123 -0.43669 -0.062077 0.10351 -0.012598 -0.20793 0.16079 -0.25957 0.1101 -0.21603 0.006719 -0.26957 0.22536 -0.087854 0.018408 0.16416 -0.1385 0.070826 -0.38836 0.19318 -0.17341 0.17026 0.24452 -0.098511 -0.52192 0.022905 0.22158 -0.20901 0.30289 -0.23339 0.20713 0.017829 0.047216 0.055461 -0.28249 0.53257 0.053072 -0.15155 -0.039859 -0.17878 0.13133 0.13148 0.23874 0.047974 -0.0098514 -0.48654 0.17752 -0.46525 -0.37707 0.47989 0.16248 -0.29229 0.12557 0.39178 0.22179 -0.22978 0.052068 0.19743 0.20108 -0.073483 0.342 -0.51668 0.065042 -0.0087769 -0.17196 -0.53364 0.04767 0.16157 0.29526 -0.078235 -0.17728 -0.24751 0.064617 -0.012082 0.012596 0.24509 0.10432 0.003643 -0.10361 -0.018362 0.16602 0.15833 -0.34658 -0.14757 0.14952 0.030098 -0.20222 0.19336 -0.0040307 0.24802 0.085148 -0.25204 -0.1114 0.046536 0.19393 0.04862 -0.080581 -0.21289 -0.2823 0.052623 -0.036287 -0.047541 0.15962 -0.16663 0.47849 -0.055429 0.41837 0.20334 0.10396 0.15109 -0.132 0.091162 0.2905 -0.18603 -0.41835 0.19972 -0.083061 0.23927 0.025512 -0.066359 -0.26798 0.32088 0.20302 -0.17282 0.020016 0.032356 0.023021 -0.045053 -0.1328 -0.020245 0.078749 -0.18347 0.32301 -0.080006 -0.64546 -0.22996 -0.249 -0.19203 0.28075 -0.21927 0.11364 0.44598 -0.052902 -0.087885 -0.072718 -0.2273 -0.14542 0.3175 0.34595 -0.16495 -0.20706 0.79788 -0.065826 -0.020573 0.041598 0.26906 -0.088741 -0.61639 0.38306 -0.17508 -0.38455 0.10026 0.09054 0.025383 0.047126 0.086302 0.26942 -0.21834 -0.31851 0.30257 0.32076 0.1935 -0.016622 -0.42028 0.30142 0.013291 0.17933 -0.072723 -0.072987 -0.19698 
bumpers 0.034241 0.046645 0.021326 -0.27318 0.056443 -0.17034 -0.12673 0.28611 0.01008 0.082859 0.075968 0.20253 0.080845 -0.44329 -0.26622 -0.16282 -0.03922 0.030198 0.054183 -0.28859 -0.14764 0.19205 -0.16821 0.30665 0.029051 -0.14853 -0.20179 0.024882 -0.1505 0.081414 0.011753 0.090044 -0.35757 0.20291 0.33042 0.047217 0.096725 -0.091541 -0.086634 -0.14791 -0.33869 -0.10995 0.50227 0.2941 0.088348 0.63644 0.20473 0.046403 0.43402 0.021545 -0.12247 0.062762 0.24547 -0.19654 -0.29758 -0.11059 -0.34569 -0.2885 0.142 0.21984 -0.040727 -0.3648 0.51471 -0.2274 0.1659 0.1752 0.052066 0.28255 0.20957 -0.072996 -0.075886 -0.066442 0.5073 0.25849 0.024264 0.024583 -0.10204 -0.15314 0.14089 -0.11069 0.4128 0.29938 -0.063503 0.055951 0.0074835 0.13846 -0.22654 -0.15851 -0.22888 0.29682 0.21478 0.077685 0.49714 0.24774 -0.17305 -0.25519 0.010854 0.20285 -0.3035 0.42733 -0.10727 0.021395 -0.14985 -0.079016 -0.078279 0.054054 0.47419 -0.041926 -0.30599 -0.29187 -0.13608 0.20736 -0.012229 0.24303 -0.072312 0.042259 0.092561 -0.033199 -0.32241 0.02707 0.38869 -0.011994 -0.30397 -0.033164 0.00535 -0.27486 0.13643 -0.46851 0.4928 0.065957 -0.028644 0.26145 -0.064973 0.014735 -0.19637 -0.086078 -0.056846 -0.032595 -0.060589 -0.053133 -0.0094929 0.58092 0.29064 -0.15912 -0.085011 -0.051664 0.078101 -0.25387 0.17319 0.1506 -0.043891 0.41691 -0.3346 0.38383 -0.43033 -0.19631 -0.021003 0.008815 -0.39598 0.017962 -0.094899 0.11926 -0.55851 0.10024 -0.090358 0.047692 -0.20648 -0.3623 0.3137 -0.028635 -0.034457 -0.39813 0.22722 -0.062537 0.15962 -0.1388 -0.069883 -0.25592 0.25058 0.23052 0.34317 -0.37363 0.020648 0.29878 -0.36481 -0.18775 -0.06052 0.033291 -0.081746 -0.19975 0.02804 -0.26648 -0.46301 -0.052186 -0.30025 0.025444 0.0020856 -0.12847 0.0090677 0.07751 -0.43676 0.15762 0.15893 -0.47327 0.12098 -0.063642 0.076189 0.20938 -0.32955 0.089017 0.21083 -0.24908 -0.11567 0.17921 0.24817 -0.036148 -0.22753 0.080389 -0.20043 -0.54087 0.21819 -0.17845 -0.27837 -0.14718 0.48924 -0.22985 -0.043876 -0.15202 0.17998 0.30381 -0.28536 -0.0040193 0.42666 -0.088496 0.011426 -0.13978 -0.018916 -0.10943 -0.22968 -0.27846 0.030403 0.31962 -0.22913 -0.22607 -0.41767 0.24971 -0.21534 0.23049 0.025523 -0.10344 0.32523 -0.22873 0.27581 -0.15902 -0.50445 -0.023493 0.20484 -0.0082604 -0.054364 -0.15308 -0.23817 0.31932 -0.037145 -0.11848 -0.32235 -0.27861 -0.042951 0.22 0.0048197 -0.11556 0.070033 0.28933 -0.45377 -0.27571 0.32431 -0.47858 -0.42174 0.055131 0.39159 -0.096857 0.19881 -0.30838 0.1131 0.24298 0.34474 -0.12723 0.1028 0.28776 -0.12591 0.58382 -0.0040813 0.16014 0.36373 -0.018599 0.12585 -0.27757 -0.43773 0.26061 0.40524 0.28687 
hodges 0.10783 -0.48605 -0.025405 -0.19521 0.25465 -0.17479 -0.015433 -0.17154 0.05333 -0.13602 -0.016545 -0.27481 -0.10898 -0.31978 -0.23193 -0.19641 0.004991 0.31083 0.18375 0.09447 -0.3201 0.16435 -0.044943 0.30697 0.040021 0.14607 0.17908 -0.092526 -0.019366 0.089464 0.14823 0.17233 -0.094095 0.20651 0.38386 0.086085 0.064883 -0.0791 -0.15886 -0.21255 -0.20919 0.073309 0.32035 0.21468 -0.16965 -0.10034 0.27291 0.010823 0.36519 -0.079694 0.070531 0.10415 0.065269 -0.0087087 -0.079139 -0.014381 -0.10707 -0.16539 -0.078946 0.21256 0.15669 -0.2107 0.12046 0.057105 0.10336 -0.29134 0.031147 0.48929 -0.23598 -0.11203 -0.13715 -0.15415 0.16936 0.27671 0.52944 0.33407 -0.071034 -0.081794 -0.43493 -0.285 0.20539 -0.044983 0.13491 0.16735 0.088748 0.003056 -0.16909 -0.10217 0.3115 0.028702 -0.13813 -0.021141 -0.0013657 -0.034545 -0.20318 -0.19398 0.31928 0.29085 -0.3158 0.28672 0.051463 0.023538 0.1033 -0.026711 -0.054409 -0.15346 -0.28268 0.19053 0.023119 0.25992 0.25277 -0.2023 -0.10654 -0.16 -0.017097 0.14617 0.017483 -0.068909 -0.033984 0.038558 0.57564 0.018742 -0.014942 0.064115 0.19152 0.068154 0.46331 -0.25632 0.12069 0.15731 -0.22406 0.068778 0.12356 -0.1282 -0.11946 0.10266 -0.15238 0.3417 0.33009 0.12923 0.60464 -0.021264 0.25434 0.26143 -0.17159 -0.29016 0.20131 0.14992 -0.043804 -0.092544 0.0029048 0.64656 0.24783 0.16438 -0.22936 -0.0083085 -0.048168 -0.098867 -0.22579 -0.19249 0.25448 0.45976 -0.27156 0.061935 -0.144 -0.35719 -0.15576 -0.2278 -0.17405 0.57041 0.40459 -0.52872 -0.13456 -0.109 0.012688 -0.093279 0.17592 0.07702 0.17283 -0.16932 0.4195 0.025245 0.24037 0.29876 -0.32366 -0.027903 -0.144 0.27571 -0.23148 -0.076518 0.16081 -0.0077683 -0.54381 -0.12833 -0.32353 0.13459 0.052678 -0.078407 0.02442 -0.22454 -0.20918 -0.29137 0.02693 -0.00044221 0.070794 0.11395 -0.08174 0.1906 -0.11998 0.15364 0.01944 0.11297 -0.37253 -0.13253 0.51128 -0.16902 -0.082388 0.017665 -0.45872 -0.17522 -0.10766 0.17696 0.17762 0.015647 0.10935 -0.38182 0.062211 -0.14702 -0.31219 0.29808 0.14456 0.12843 0.39221 -0.26876 -0.27307 -0.056974 -0.072088 0.17676 0.2728 -0.17886 0.096049 0.12551 -0.14623 -0.2405 -0.20178 0.16045 -0.16867 0.1815 -0.044237 -0.1338 0.05767 -0.21538 -0.03771 -0.22949 -0.28712 -0.35388 0.12769 -0.15709 -0.40206 0.025183 0.0048062 0.25365 -0.045202 0.22692 -0.0069168 -0.4399 -0.17353 0.038297 0.26304 -0.4546 -0.45011 0.5076 -0.20457 -0.22515 0.33144 0.021256 -0.1266 -0.076217 0.10386 0.17848 0.028043 -0.031848 -0.058932 0.013078 0.086468 -0.26071 -0.13945 0.017375 -0.52574 0.28231 -0.18346 -0.10571 -0.025552 -0.070903 0.092583 0.15749 0.1019 -0.14479 0.076701 -0.056287 
cranston -0.048186 -0.13301 -0.11369 0.26133 -0.11709 0.17348 -0.19673 0.0049594 0.10884 -0.16711 0.4679 -0.035866 -0.070387 -0.18668 0.15812 -0.25461 -0.27433 -0.40285 -0.51422 -0.45447 -0.043737 0.0031518 0.18533 0.72019 -0.031293 -0.19294 0.0734 0.071758 -0.16766 0.0089518 -0.17726 0.24018 -0.16597 0.093532 0.30479 0.13981 0.24554 -0.36018 0.020616 -0.24829 -0.32141 -0.13605 0.26546 0.33471 -0.17497 0.16406 0.083459 -0.097806 0.45816 -0.18267 -0.22307 0.23436 0.6792 -0.21654 -0.093344 0.14391 -0.27976 -0.057274 0.062286 0.36706 -0.1938 -0.056975 0.23016 0.047736 0.092166 -0.014002 -0.036352 0.1541 -0.18164 -0.050461 -0.4246 0.0046852 0.1588 0.35963 -0.20375 0.11883 -0.081664 -0.09795 0.010699 0.25098 0.53904 0.083982 0.17933 0.61994 0.33588 -0.44475 0.047208 -0.36655 -0.12775 0.23365 0.017878 0.00079129 0.12962 0.066096 0.081192 -0.27575 -0.0093332 -0.037991 -0.21523 0.27771 -0.090825 -0.20421 -0.44141 0.032084 -0.027917 0.43879 0.46032 -0.086957 0.037985 0.12959 -0.39205 0.50395 -0.23774 0.24621 0.40114 0.3782 -0.11647 -0.31138 -0.34272 0.03015 0.37584 -0.22016 -0.26444 -0.16129 -0.19401 -0.26471 0.0020492 -0.30393 0.29714 -0.018602 -0.2424 0.097538 0.047162 -0.26819 -0.20058 0.0034204 0.040413 -0.1014 -0.19901 -0.3286 0.13433 0.3079 0.1938 0.36414 0.038912 0.18105 -0.11401 -0.14505 0.11075 -0.087912 -0.37357 0.2362 0.13356 0.11732 0.072514 0.11483 0.040745 0.15999 -0.13614 -0.026968 -0.21652 0.058519 -0.60269 0.21666 0.090347 -0.35705 -0.27092 -0.50409 0.2013 -0.0070662 -0.25858 -0.19365 0.26001 0.30431 0.56338 -0.36852 0.025169 -0.23249 -0.13998 -0.23297 0.31293 -0.21047 -0.063599 0.29891 -0.55405 -0.078312 -0.24278 -0.38909 -0.015284 0.16372 -0.035442 -0.31526 -0.034399 0.1623 -0.22785 0.083221 -0.2477 -0.4085 0.050424 0.15263 -0.37067 -0.20672 0.002251 -0.030445 0.02689 -0.34161 -0.010288 0.045336 -0.14676 -0.1844 0.14525 -0.29642 -0.11195 0.042492 0.052781 -0.056268 0.0056151 -0.37013 -0.16951 -0.2786 0.10278 -0.049382 -0.12117 -0.12602 0.18889 -0.25602 0.16574 -0.15903 0.12192 0.58794 0.07489 -0.026323 0.32462 0.04021 0.21006 0.17899 -0.0099422 0.26517 0.1546 0.19079 0.2201 0.1908 -0.28907 -0.11808 -0.14001 0.13401 -0.063539 0.023873 0.071517 -0.26184 -0.020564 -0.11151 -0.29718 -0.28598 -0.23725 -0.23172 0.29604 -0.027728 -0.37935 -0.22686 -0.41279 0.24723 -0.33458 -0.15531 -0.39288 -0.32989 0.19103 0.042123 0.37084 0.014878 -0.33783 0.37104 -0.41276 -0.27238 -0.0089926 -0.41254 -0.29511 -0.052555 0.33044 -0.04201 -0.082987 -0.030691 -0.10026 -0.23719 0.1059 -0.51464 0.22351 0.11097 -0.32453 0.62016 0.44868 0.057373 0.30293 0.32585 0.04445 -0.16316 0.042341 0.24554 -0.066741 0.16254 
hayakawa 0.19171 0.10002 -0.044715 0.63098 0.015742 0.013857 0.16676 0.049109 0.23266 -0.063452 0.095743 -0.063427 0.23979 -0.47927 -0.081648 -0.18225 0.12061 -0.29519 -0.39587 0.18019 0.30846 0.0059106 -0.10595 0.7306 0.14272 -0.26717 -0.035209 0.17071 -0.37653 0.17629 -0.2953 0.24942 -0.40932 -0.0066471 0.24057 -0.026933 0.33983 -0.67679 -0.090212 0.22894 -0.3655 -0.044911 0.24826 0.13507 -0.072062 0.082404 -0.028803 0.20765 0.16478 -0.27707 -0.36205 0.2134 0.21421 0.2364 0.02778 0.24697 -0.40704 0.17777 -0.38312 -0.1117 -0.01021 -0.23147 0.3855 0.25991 -0.028719 0.15876 -0.61847 0.082666 -0.24125 0.26051 -0.54436 -0.12675 -0.016256 0.044758 -0.47077 0.23666 -0.36034 -0.079457 -0.38442 -0.21206 0.36985 0.15806 -0.21832 0.53092 0.18992 -0.17495 -0.23186 -0.19395 0.10692 0.43184 -0.0090322 -0.1352 0.074742 0.22636 -0.17735 -0.28351 -0.076107 0.046078 -0.23836 0.087242 0.084314 -0.28042 -0.27471 0.19238 -0.25586 0.40532 0.35481 0.28599 0.041393 -0.092349 -0.17295 0.38168 0.17851 3.6054e-05 0.00021852 0.0097788 0.27853 -0.1602 -0.49369 0.10362 0.1994 -0.10281 -0.56673 -0.21988 -0.04663 -0.083022 0.081424 0.063838 0.5576 0.047303 -0.38541 0.061788 -0.33486 -0.082862 -0.034998 -0.029644 -0.27387 0.066074 -0.15865 -0.13627 0.25913 0.025112 0.52807 0.45592 -0.36126 0.023537 0.568 -0.11038 0.22201 0.18329 -0.2356 0.48253 0.12523 0.023121 -0.072138 0.33529 -0.26627 0.23483 -0.29868 0.12854 -0.26221 -0.035325 -0.53711 0.066408 -0.0094273 -0.66831 0.016936 -0.19633 0.00080616 -0.066592 -0.40513 -0.41436 0.31817 0.23222 0.12952 -0.14442 0.28791 -0.24508 -0.054374 0.096965 0.54877 -0.29081 0.068847 0.35677 -0.41538 0.23672 0.20631 -0.42832 -0.50914 0.12833 0.074868 -0.001378 0.29654 0.19432 0.28246 0.46502 -0.20195 -0.16592 0.029049 0.050157 -0.093834 -0.16975 0.37728 0.028763 -0.16612 -0.23081 -0.24928 0.19059 0.034584 -0.34488 0.31773 0.020467 -0.15228 0.061956 0.1372 -0.090287 -0.3633 0.014209 -0.29755 0.035267 0.22283 -0.44418 -0.36943 0.049628 0.40658 -0.43553 0.1473 -0.44281 0.12316 0.51206 0.068564 -0.046662 0.14535 0.18901 -0.074363 -0.0030123 0.1299 -0.22649 0.2773 0.13692 -0.069879 0.34447 0.0015833 -0.094518 -0.27388 0.15836 -0.39773 0.21798 0.0675 -0.082944 0.14405 0.27161 0.12574 -0.25762 -0.12919 0.22718 0.021127 -0.33923 0.014293 0.16832 0.13902 0.22638 -0.38716 -0.39405 -0.26901 -0.11368 -0.24383 -0.014147 0.07093 -0.17439 -0.33407 0.39618 -0.3565 -0.096847 0.050258 -0.4784 -0.13175 0.25318 0.31552 -0.32888 -0.23023 -0.19938 -0.26914 -0.43222 0.038234 -0.37165 0.1781 0.20887 -0.14365 0.030101 0.30212 0.19585 0.25802 0.11237 -0.35622 0.18929 -0.15173 0.1253 -0.055032 -0.052446 
haskell -0.1523 0.13772 -0.34963 -0.019253 0.10094 -0.08041 -0.26531 -0.066518 0.44824 0.13176 0.1433 0.050347 -0.29501 -0.45446 0.12342 -0.26995 0.085682 -0.18297 -0.086392 -0.36149 0.17735 0.47726 -0.021534 0.0013619 0.012779 0.23161 -0.085842 -0.27812 -0.080727 0.16003 -0.31433 -0.12009 -0.063865 0.083774 0.098278 -0.41291 0.04293 -0.37124 0.0098646 0.053176 -0.098825 -0.11244 0.30923 0.16668 0.14917 0.17432 0.41486 0.37735 0.35157 0.16545 0.02039 0.012767 0.48537 0.092678 -0.093323 -0.20694 0.11416 0.26864 -0.25988 0.23107 -0.37015 -0.26264 0.0093866 -0.16658 0.079357 -0.24563 -0.28286 -0.12295 -0.092151 -0.17987 -0.45283 0.039373 0.12242 0.12136 -0.11701 0.34802 0.056845 -0.34822 -0.1077 0.00031671 0.39704 -0.043435 0.28108 0.14961 -0.21446 -0.32898 -0.15767 -0.11346 0.27558 0.21088 -0.15073 -0.19192 0.28469 -0.019881 0.019158 0.063796 0.092841 -0.06955 -0.2749 0.16968 0.067286 -0.032043 -0.16457 0.2305 -0.24907 -0.21333 0.043329 -0.1181 0.026774 -0.013154 -0.0069598 0.13361 -0.13857 0.10253 0.3678 0.048341 -0.2164 0.048367 -0.17968 -0.32735 0.5828 0.12259 -0.17643 0.014499 -0.26889 0.052775 0.026616 -0.25296 0.058897 -0.040556 -0.025862 0.11969 0.0025112 -0.26775 -0.5052 -0.22864 -0.090946 0.21188 0.014883 0.03626 0.39161 -0.094101 0.21313 0.56886 -0.2085 0.099572 0.22886 -0.016441 0.17153 0.39999 0.12078 0.24575 -0.036686 0.17762 -0.35801 0.17612 -0.10274 -0.10061 -0.18953 0.014327 -0.15411 0.017614 -0.29708 0.18271 -0.12635 -0.058758 -0.22399 -0.048899 0.042562 0.061991 0.15639 -0.2883 0.028957 0.28832 -0.15656 -0.11593 0.40297 -0.20902 -0.46297 -0.33463 0.84208 -0.28748 0.35228 0.31274 -0.26886 -0.13608 -0.2374 -0.22558 -0.25071 0.10101 0.18312 -0.088303 -0.17744 0.25704 0.06365 -0.0879 -0.13667 -0.24916 -0.099488 -0.40956 -0.74865 0.052413 0.20439 -0.33966 0.26355 -0.27113 0.1141 0.14756 0.0095889 0.079845 0.25715 -0.12633 -0.36243 -0.10101 0.49204 -0.017029 -0.23373 0.026637 -0.2795 -0.26519 0.33703 -0.11819 -0.27054 -0.17828 0.32157 -0.20353 -0.036786 0.047989 0.17517 -0.11702 -0.21583 0.1477 0.20086 -0.083718 0.26235 -0.0056292 -0.062215 0.33325 -0.071668 -0.12309 -0.074351 0.070492 0.20856 -0.072446 0.14207 0.26017 -0.13699 0.20691 -0.0088425 -0.34949 -0.014693 -0.15268 0.096842 -0.17066 -0.2371 -0.1039 0.19948 -0.12443 0.33173 0.16461 0.37934 0.37512 -0.34484 0.0071313 -0.60346 -0.2283 -0.03486 -0.25542 0.31705 -0.48546 -0.21489 0.44568 -0.40071 -0.55234 0.052862 0.12888 -0.095969 0.1094 0.29615 -0.037438 0.27033 -0.09949 -0.51012 0.070893 -0.31606 -0.4536 -0.088214 -0.24283 -0.080709 0.052547 0.34864 0.26229 0.1207 0.097629 0.029605 -0.1138 -0.0050719 -0.050975 0.19105 0.11916 
hart -0.20109 -0.1731 -0.0089284 0.20417 0.082496 0.036419 -0.16069 0.10042 0.27338 -0.084186 0.12931 -0.10113 0.05765 -0.036687 0.59883 0.17227 -0.12653 -0.2148 -0.17102 -0.32971 0.17011 0.33576 0.12847 0.43757 0.043359 0.016049 0.36955 -0.087216 -0.2777 -0.24642 -0.014925 0.096117 -0.26443 0.14791 0.065889 0.16312 -0.028756 -0.10256 0.23238 -0.26523 -0.19192 0.30372 0.40162 -0.15927 0.092663 0.23394 0.41307 -0.11504 0.4203 -0.031596 0.087481 0.15688 0.18229 0.1319 -0.14945 -0.045836 -0.018422 -0.021789 -0.032571 0.21716 -0.16339 -0.039614 0.13038 -0.017564 0.13095 -0.42664 -0.18293 0.30492 0.026001 0.28627 -0.17222 0.14343 0.42337 0.040711 0.13902 0.20534 0.084164 -0.32926 0.23773 0.096521 0.13236 0.3252 0.0048217 -0.17666 -0.056309 -0.1752 -0.022424 -0.17523 -0.10003 0.13551 -0.13694 0.08017 0.093218 0.11019 -0.38914 -0.27962 0.094953 -0.0095636 -0.17049 0.32939 0.049417 -0.2699 -0.74448 -0.063007 -0.27482 0.34532 0.14704 0.051795 -0.011171 -0.079957 -0.43564 0.38494 -0.10651 -0.047277 0.36774 0.38737 0.00052195 -0.17886 -0.17365 -0.081246 0.62377 0.1306 0.052609 0.013103 -0.001663 -0.24685 0.30303 -0.49303 0.033888 0.03258 -0.29416 -0.10793 -0.03889 -0.061859 -0.24472 -0.30097 -0.25702 0.0078056 -0.037922 -0.11713 0.10205 0.082962 0.24273 0.37591 0.00011434 0.16264 -0.25292 0.13869 -0.012482 0.14259 -0.24305 0.3203 0.050793 0.075137 -0.174 0.41048 -0.05461 0.044894 0.042608 0.11899 -0.017138 0.016399 -0.13536 0.1995 -0.36108 -0.29315 -0.31246 -0.21012 0.03747 0.062634 0.024976 -0.32792 0.081677 -0.12228 0.3078 -0.35925 0.26161 -0.15822 0.056248 -0.15513 0.49634 -0.38022 0.086395 0.23495 0.090489 -0.18489 -0.43108 0.045565 -0.037804 0.051074 -0.21355 -0.28542 -0.019465 -0.078979 0.16526 0.16229 -0.18604 -0.30181 -0.19746 -0.040876 -0.53132 0.081309 -0.28172 -0.14895 0.22314 -0.18105 0.36971 0.094617 0.063676 -0.0097229 0.25011 -0.27952 -0.27207 0.034884 0.072419 -0.099599 -0.084952 -0.12104 -0.30523 -0.43141 0.024709 -0.16578 -0.11305 0.15713 0.54527 0.076016 0.20465 -0.15833 -0.12849 0.075535 -0.11879 0.25207 0.34635 -0.033097 0.20279 -0.019743 -0.023593 0.20463 0.26091 0.059523 0.015565 -0.25455 0.16504 -0.16846 -0.18518 0.25172 -0.31789 -0.0057337 -0.085289 -0.02362 -0.09253 -0.35336 -0.23656 -0.17841 -0.28217 -0.2499 0.22101 0.010308 -0.13433 -0.11713 -0.33644 0.14953 -0.48107 0.26816 -0.19164 -0.40418 0.15322 0.0726 0.2514 0.020522 -0.035177 0.43237 -0.10808 -0.13349 0.16345 -0.45594 -0.40628 0.0482 0.19271 -0.2482 -0.12509 -0.13857 -0.31419 0.22666 0.12332 -0.47007 0.038574 -0.01905 0.01344 0.37142 0.078345 0.29427 0.17801 0.15722 0.22526 -0.29953 0.19795 0.13351 -0.21385 0.1572 
ribicoff -0.061272 -0.059116 0.054422 0.26415 0.21781 0.12874 0.063001 -0.012779 -0.12122 0.2644 0.33474 0.47452 0.25062 -0.22196 -0.21222 -0.10702 0.074981 -0.17727 -0.18902 -0.32867 0.24527 0.18853 -0.065057 0.47046 -0.15748 -0.14454 0.083249 0.096842 -0.30095 0.28797 -0.23168 0.22387 -0.33895 0.43828 0.2856 -0.44151 -0.22849 0.05782 -0.11261 -0.16874 0.01225 0.29319 0.32329 -0.015028 -0.23629 0.00099749 0.43266 -0.17577 0.51178 0.029827 0.19952 -0.00030114 0.44075 -0.0054607 -0.038547 0.25513 -0.13654 0.10068 0.20711 -0.092547 -0.38998 -0.16555 0.17784 0.11548 0.14757 0.13517 -0.14424 -0.25913 0.11073 -0.076561 -0.40453 -0.064099 0.035112 0.53676 -0.053568 0.15969 -0.22818 -0.25762 -0.039399 0.12658 0.33938 -0.13621 -0.1215 0.2741 0.10014 0.10105 -0.071687 -0.13077 0.34181 0.50294 0.28516 0.21356 0.37872 0.25294 -0.1204 -0.25369 -0.1319 0.45086 -0.091392 0.34744 0.10115 0.012989 -0.0057223 0.19275 -0.14724 0.88931 -0.088119 0.14252 -0.35954 0.51335 -0.12228 -0.047203 -0.18462 0.22298 0.10909 -0.028564 -0.30789 -0.25815 -0.70799 0.095234 0.068063 -0.17066 -0.251 -0.41243 -0.024717 0.089326 -0.22435 -0.55262 -0.10215 0.18553 -0.090268 -0.42357 -0.29673 -0.083304 -0.36644 0.020667 0.34779 0.23541 -0.033223 -0.037149 0.47348 0.13257 0.39143 -0.026162 -0.26044 -0.040274 0.42855 -0.21079 -0.026921 0.23127 0.2678 0.35275 0.11701 -0.033073 -0.36563 0.49674 0.014239 0.31097 -0.37042 0.038544 -0.063945 0.077177 -0.32824 0.11211 -0.45529 -0.39062 0.12749 -0.16972 0.060555 0.48056 -0.12565 -0.5101 0.23095 0.33855 -0.15145 -0.29636 -0.0041363 0.049302 -0.14876 -0.26882 0.52824 -0.13688 -0.051746 0.33151 -0.13406 0.1321 0.22452 -0.66667 -0.3283 0.014816 -0.020113 -0.59283 0.28864 0.29797 -0.010897 0.19279 -0.38525 -0.45609 -0.024846 0.071321 -0.047505 0.20778 -0.13478 -0.32646 0.043908 -0.20952 -0.1321 0.27923 -0.27292 -0.15869 0.11979 -0.48706 0.13437 0.46867 0.2281 0.066341 0.036819 -0.20179 0.083753 -0.1474 -0.17605 0.15466 0.045757 0.22514 0.33844 -0.072788 -0.32685 -0.18289 0.053959 0.29447 0.25983 -0.31283 0.20445 0.17734 0.084137 -0.0019559 0.11864 0.036097 0.035872 -0.28407 0.20699 0.4377 -0.029022 -0.1569 -0.28736 0.1324 -0.17212 -0.22026 -0.12891 -0.2603 0.013767 0.21438 -0.059178 0.054476 -0.53953 0.012049 0.16325 -0.21444 -0.012976 0.13132 -0.041334 0.10303 -0.1262 0.12162 -0.19483 -0.34687 -0.043045 0.063258 -0.13117 -0.23955 -0.0068651 0.19603 -0.29469 -0.38466 0.19224 -0.21246 -0.27981 0.0289 0.38169 0.0049579 0.11091 -0.66498 -0.31403 -0.14949 -0.046713 -0.10625 -0.028889 0.071248 -0.087768 0.58844 0.47341 0.20814 -0.20344 -0.21693 0.23393 -0.066831 -0.11989 -0.0097641 -0.078823 0.41869 
weicker 0.31516 -0.48103 -0.094385 0.37171 -0.13566 -0.11225 -0.086622 0.019173 0.014953 0.18507 0.45302 0.037117 0.053722 -0.11553 -0.54546 -0.088218 -0.050226 -0.067295 -0.32524 -0.22364 -0.026611 0.017127 0.0043333 0.46217 0.18465 0.14757 -0.094695 -0.025539 -0.34055 0.11275 -0.33013 0.20489 -0.34417 0.30933 0.30556 -0.26284 0.1754 -0.43715 0.087408 -0.056125 -0.47319 -0.13154 0.47707 0.30305 -0.18434 0.15073 0.38841 -0.19929 0.3175 -0.026467 -0.18232 0.0059425 0.42706 0.036861 0.23464 -0.12576 -0.45839 -0.20126 -0.045325 -0.0064039 -0.10357 0.029967 0.090876 0.19589 0.16336 0.13639 0.19786 0.040139 -0.033641 -0.00073771 -0.28414 -0.41699 0.20399 0.09204 -0.34772 -0.022701 -0.040231 0.022943 -0.061889 -0.34855 0.47855 0.10035 -0.04418 0.0071551 0.17758 -0.2434 -0.14765 -0.21659 -0.25064 0.1845 0.019327 -0.06715 0.48855 0.049213 -0.42211 -0.19487 -0.025905 0.19673 -0.31176 0.24494 0.18806 -0.0019868 -0.18505 0.15396 -0.1531 0.292 -0.044244 0.18119 -0.02518 0.1982 0.027008 0.29441 -0.40493 -0.082861 -0.0017616 0.027912 -0.20871 -0.058986 -0.24174 -0.1204 0.034518 -0.11246 -0.37343 -0.31027 -0.19486 0.22351 0.05209 -0.18797 0.28289 0.16955 -0.46181 -0.22013 -0.10046 -0.37879 -0.66023 0.33976 -0.17213 -0.11442 0.19488 -0.15864 0.17733 0.079838 0.28195 0.41949 -0.23306 0.45578 -0.30606 -0.17703 0.3743 0.3238 -0.071394 0.12795 0.044608 0.12121 -0.11278 0.41986 -0.1302 0.19773 -0.24007 -0.15922 0.24028 -0.13793 -0.13318 -0.00037445 -0.35931 -0.23837 -0.092317 0.0035761 0.051421 0.18535 0.25413 -0.44999 0.61718 0.16412 0.2024 -0.16938 0.14541 -0.16992 -0.13994 -0.19458 0.44918 -0.30645 -0.022686 0.66214 -0.133 -0.14057 -0.10565 -0.19946 0.070787 -0.083174 -0.10249 -0.18911 0.071236 0.050455 0.15046 0.37669 -0.26317 -0.28328 -0.34532 0.17547 -0.25298 -0.19158 0.44182 -0.18672 0.076685 -0.19308 -0.22794 -0.12258 -0.10156 -0.059488 -0.11005 -0.45609 0.023271 -0.36203 0.008004 -0.053992 -0.07449 0.15724 -0.12399 -0.21908 0.21964 -0.24505 0.081221 0.10544 0.32376 -0.20213 -0.18754 -0.21545 0.3016 0.01656 0.022233 -0.14806 0.4666 -0.087309 0.13075 -0.035551 0.21679 0.1094 -0.001653 -0.37244 0.19261 0.29561 0.1595 -0.54387 -0.06463 0.39499 -0.21552 -0.23422 -0.0043376 -0.35502 0.28954 -0.38155 0.07282 -0.029126 -0.4778 0.46735 0.49886 0.0586 0.29248 0.25698 0.087533 0.29809 -0.33314 0.014596 -0.15594 -0.17547 0.04946 0.13562 -0.088636 -0.087145 -0.48119 0.24553 -0.32033 -0.25296 0.38115 -0.41606 0.048578 0.18941 0.45875 -0.46546 0.26029 -0.21952 -0.072571 0.12366 -0.154 -0.18472 0.079976 0.28565 -0.1057 0.18012 0.3646 0.24789 0.16812 -0.04706 0.21823 0.42355 -0.17204 0.21773 -0.16723 0.039861 
roth -0.0071468 0.1781 -0.22778 0.056491 0.28006 -0.020505 -0.083023 -0.13902 0.03433 0.098776 0.2351 -0.079138 -0.22268 -0.089652 -0.32349 -0.019055 -0.15705 0.034111 0.19522 -0.19472 0.21292 0.4824 -0.20435 0.10127 0.010208 -0.3527 -0.20617 -0.17061 0.048463 -0.23508 -0.39227 0.063824 -0.076675 -0.21544 0.27806 0.074133 -0.10199 0.0056174 0.45299 0.22026 -0.51193 0.085252 0.46053 0.029818 -0.23766 0.069433 0.33391 -0.0078614 0.52763 0.07149 0.044782 0.035207 -0.0077817 -0.21937 0.15768 0.1325 -0.093252 -0.1436 0.36837 -0.27091 0.20499 0.21258 -0.21892 -0.08696 0.035718 -0.050868 0.15928 -0.39794 0.11942 0.33063 0.032009 0.020868 0.11352 0.2735 -0.48001 0.21427 -0.026215 -0.27482 -0.10033 -0.040582 0.098538 -0.082311 0.11077 -0.030252 0.22827 -0.12472 0.040706 0.16213 -0.35142 0.046627 -0.20334 -0.25547 0.44644 -0.15768 0.010205 -0.13552 -0.10184 0.14508 -0.085944 0.19261 -0.006652 0.15602 -0.40836 0.15532 -0.1688 0.35979 -0.027847 -0.02529 -0.26074 -0.13782 -0.21391 0.10572 -0.20119 0.022912 0.058251 0.20649 -0.33576 -0.020977 0.069053 -0.14965 -0.26886 -0.33203 -0.18588 -0.078143 -0.25704 0.049679 0.32063 0.066972 -0.098602 0.61763 -0.16431 -0.1171 -0.1921 -0.2363 -0.48043 -0.04608 0.048964 -0.1488 0.038562 -0.14737 0.47775 -0.10929 0.16057 0.48346 -0.46142 0.050125 0.074464 -0.088523 0.13667 0.11926 -0.24368 -0.075475 -0.0015843 0.26627 -0.17508 0.38445 0.0099421 0.057934 0.010679 -0.22205 -0.186 0.32096 -0.29198 0.30982 -0.39859 -0.38674 -0.27477 -0.042476 -0.23324 0.21164 0.069797 -0.22165 0.31529 0.020297 -0.38725 0.1032 0.23925 -0.17265 -0.12559 -0.1326 0.20793 0.037389 0.36676 0.47015 -0.38213 -0.13261 -0.13394 -0.27792 -0.23696 0.21937 -0.22659 -0.07452 -0.21762 -0.083583 0.036149 0.019981 -0.43356 -0.2884 0.13202 -0.31085 -0.51375 0.29071 0.10706 0.01956 -0.014776 -0.25818 -0.029742 0.01466 -0.094041 -0.095301 -0.16498 -0.3748 -0.27808 -0.11263 -0.061326 -0.29818 0.23659 0.28398 -0.27627 -0.2997 0.14401 -0.078991 -0.069228 -0.28956 0.49478 -0.5607 -0.20951 0.070586 0.14398 0.2164 0.097531 0.172 0.14632 -0.35194 0.090621 -0.23014 0.29797 0.3694 -0.053726 -0.077538 0.21954 0.34907 0.27513 0.32632 -0.078107 -0.083585 -0.031158 -0.13038 -0.25036 -0.30677 0.23586 -0.020349 -0.25009 0.19664 -0.1986 0.10915 0.32751 -0.069614 0.11911 -0.089454 -0.15619 0.072554 -0.26628 0.11903 0.15289 -0.56251 0.21289 0.16111 0.42899 -0.095986 0.037992 0.22608 -0.1177 -0.19786 -0.082953 -0.3192 -0.10935 -0.082932 0.53916 0.22031 0.19743 -0.21292 -0.15994 0.0066362 -0.3987 -0.061092 -0.22269 -0.22936 -0.45589 -0.077525 0.3953 0.20289 0.1727 0.20602 0.0097756 0.44524 -0.40586 -0.018969 0.063578 -0.17566 
biden 0.072302 -0.069764 0.17664 -0.033533 -0.18874 0.25235 -0.12767 -0.011973 0.16726 0.059741 0.44194 -0.061224 0.20297 -0.057586 -0.17686 -0.097015 -0.067613 -0.081924 -0.1706 -0.39111 0.38587 -0.11902 -0.013875 0.49285 0.18534 -0.29444 -0.030068 0.0041485 -0.18366 -0.24215 -0.15594 0.021069 -0.15573 0.2398 0.56387 0.088003 0.063111 -0.064663 -0.00035366 -0.018307 -0.41438 0.14573 0.1211 0.25989 0.16743 0.10267 0.27597 -0.2559 0.60762 -0.46494 0.077724 0.10048 0.27153 0.001432 0.21277 -0.060637 -0.22799 -0.19566 -0.021292 0.17517 -0.037073 -0.022691 0.23791 -0.033512 0.034339 -0.079847 -0.20335 -0.1039 0.16495 0.10026 -0.19405 0.10987 0.22543 0.33123 -0.13996 0.32619 0.17735 -0.40619 0.16318 -0.37646 -0.018765 0.6768 0.3543 -0.045642 0.055195 -0.22325 0.070525 0.093527 0.045539 0.14032 -0.066468 0.1472 0.44415 -0.043309 -0.22724 -0.5333 -0.054352 0.12619 -0.21371 0.18616 -0.066661 0.063997 -0.47273 0.28812 -0.041408 0.70265 0.08503 0.20279 -0.35361 0.12529 -0.1146 0.20777 -0.1815 0.096588 0.21412 -0.15901 0.084628 -0.2859 -0.39929 -0.10486 -0.008888 -0.18123 0.0031552 -0.1285 0.0072501 -0.10796 0.20693 -0.25942 0.1339 0.13758 -0.34583 -0.029973 0.038036 -0.024847 -0.33936 0.32706 0.043917 -0.25206 -0.38057 -0.22309 0.1253 0.21855 -0.11639 0.20986 -0.15831 -0.25559 -0.074422 -0.015093 0.014363 0.036619 -0.13973 0.12249 0.12385 -0.16021 0.056925 0.42659 0.14613 0.21126 -0.055658 -0.14629 0.26247 0.291 -0.47182 -0.04165 -0.45409 0.054147 -0.22861 -0.18345 0.037813 0.16522 -0.22575 -0.3059 0.33273 -0.24532 0.24614 -0.36612 0.11734 0.099902 -0.075699 0.063708 0.48318 -0.32936 -0.1793 0.61439 -0.52657 -0.030814 -0.27412 -0.17014 0.048198 -0.086115 -0.1766 -0.11392 -0.034946 0.073104 0.015746 0.172 -0.37711 -0.20857 -0.20575 0.087985 -0.29859 0.1328 -0.10193 -0.28162 0.26454 -0.030838 -0.31549 0.037188 -0.13329 -0.19005 -0.17443 -0.24703 -0.14184 -0.11713 0.13152 -0.1596 -0.27264 -0.039206 0.030943 -0.66355 0.31496 -0.49937 -0.032483 -0.16178 0.54955 -0.15665 0.12631 -0.26021 -0.13329 -0.077227 0.11467 0.13166 0.02348 -0.24064 0.12875 0.24005 0.085394 0.2358 0.085079 -0.09836 0.41295 0.49339 0.18942 -0.11069 -0.054885 0.13926 0.082187 -0.35444 0.024199 -0.0099866 0.12373 -0.13926 -0.078616 -0.10273 -0.24687 0.13442 0.41642 -0.22863 -0.16643 0.24556 -0.038522 0.35685 -0.19979 0.23925 -0.34905 -0.51461 -0.11189 0.42721 0.30104 0.038044 0.218 0.14631 -0.42114 -0.36775 0.32088 -0.21751 -0.073059 0.18956 0.51379 -0.073797 -0.24676 -0.33147 -0.02767 -0.052277 0.082522 0.011319 0.07297 0.21703 -0.21783 0.29414 0.13003 0.2984 0.47699 0.042785 0.2291 0.21263 -0.27823 0.1128 -0.041307 -0.20261 
chiles 0.15797 -0.19259 -0.47243 0.081473 0.0060291 0.0058173 -0.072411 -0.16163 -0.054084 0.10463 0.089206 -0.23474 -0.22121 -0.1728 -0.25544 -0.064244 0.1139 0.27514 -0.21769 -0.06687 0.027603 -0.014267 0.12078 0.076809 0.17864 -0.013139 0.00077798 -0.11152 -0.039569 -0.09984 0.14085 0.16058 0.19779 0.25818 0.4853 0.05206 0.16726 -0.12105 -0.18017 -0.29697 -0.38774 -0.076542 0.3508 0.23979 0.051641 0.34886 0.65947 -0.13121 0.1719 -0.37351 -0.036036 0.28719 0.34008 0.023175 -0.24434 -0.15382 -0.3518 0.2151 -0.34924 -0.0053723 -0.010297 -0.18457 0.25258 -0.071896 0.13188 0.057642 -0.0045941 0.42359 -0.13775 -0.12817 -0.15116 -0.048632 0.39782 0.059595 -0.1242 -0.20393 -0.24192 0.019195 0.26309 -0.11317 0.14417 0.15682 0.36208 0.15266 0.025449 -0.24452 -0.10351 -0.067529 -0.15819 -0.27331 0.4099 0.0091284 0.39819 -0.14872 -0.45559 -0.24787 -0.20892 -0.057409 -0.035036 0.45404 -0.15654 -0.062925 -0.25919 -0.14466 -0.43392 0.27389 -0.092641 -0.10211 -0.2803 -0.22402 -0.35544 0.11211 -0.036036 0.3535 -0.15306 0.15219 -0.15684 -0.21054 -0.20819 -0.063893 0.45642 0.13974 -0.076194 -0.13155 0.0026075 -0.35335 0.15335 -0.24595 0.17606 0.045136 -0.23404 -0.26402 -0.025731 -0.28168 -0.059875 0.038323 -0.30262 0.12299 0.13253 -0.12647 0.17719 0.34095 0.07076 -0.0021488 0.076646 0.062881 0.081396 -0.064994 0.25833 0.068874 0.018195 0.44593 0.05088 0.46939 -0.19724 -0.078882 -0.19155 0.16211 -0.23861 0.02858 -0.10654 0.10044 -0.087692 0.27173 -0.15891 -0.069233 -0.20713 -0.3546 0.13626 0.1423 -0.033421 -0.5358 0.38153 0.18267 0.019393 -0.05737 -0.14015 -0.33946 0.1583 -0.19141 0.35487 -0.42125 0.11612 0.065666 -0.39712 -0.14616 -0.29425 0.027818 -0.30645 -0.073831 0.13771 -0.032097 0.023388 -0.23381 -0.28629 0.023416 0.067153 -0.60813 0.07683 -0.19584 -0.25923 -0.30195 0.33502 -0.38863 -0.1475 0.0068799 -0.47139 0.066788 -0.1154 0.056528 -0.0059546 -0.24281 -0.02381 0.15013 0.10196 -0.39679 -0.19729 -0.10345 -0.25557 -0.41617 0.04172 -0.025464 -0.23708 0.23708 0.28064 -0.38912 -0.066173 -0.047064 0.12331 -0.12821 -0.080773 0.1889 0.25623 -0.20448 -0.058714 0.30806 0.065363 0.29998 -0.0056345 -0.48734 0.57837 0.40212 0.24465 -0.19461 -0.087792 -0.17778 0.28146 -0.035815 0.085837 -0.063129 -0.016817 -0.36503 0.059671 -0.055016 -0.14343 -0.21964 -0.0068396 -0.4742 0.07312 0.25771 -0.18006 0.42413 -0.092823 0.07733 -0.25762 -0.49362 -0.020765 0.0015877 0.433 -0.041556 -0.21552 0.058618 -0.064582 -0.32123 0.17463 -0.37577 -0.24909 -0.39462 0.2165 -0.21418 -0.1357 -0.07397 0.057276 -0.27405 0.29102 0.16943 -0.19953 0.33922 -0.33051 0.3985 0.44547 -0.17623 0.21534 0.059319 0.28923 0.22205 -0.30579 0.12539 0.011695 -0.17345 
stone 0.13916 -0.22016 -0.070985 -0.12487 0.12298 -0.23005 -0.07211 -0.43516 -0.085381 -0.15765 -0.054501 0.14364 -0.25334 -0.36869 -0.090325 -0.20227 -0.35979 0.31465 -0.25688 -0.18869 -0.4088 0.36009 0.14019 -0.12513 -0.079967 -0.1041 0.11674 0.20096 0.12087 0.12841 0.19809 -0.018973 -0.09101 0.039338 0.15963 0.65416 0.027882 -0.1837 0.18182 0.19784 -0.04582 -0.0020735 0.17179 -0.16818 0.20626 0.12866 -0.12353 -0.20461 0.2902 0.13561 -0.070772 -0.09087 0.10647 0.018043 -0.065392 -5.0219e-05 -0.207 0.10302 -0.17873 0.42587 0.086329 0.46955 0.18174 0.24427 -0.26232 -0.013471 0.0030342 0.05308 0.096849 0.27121 -0.057408 -0.17157 0.54325 -0.025054 -0.050934 0.12206 0.0058919 0.0079442 -0.0097764 -0.19064 0.12772 0.24632 0.14353 -0.36885 -0.28814 -0.23991 -0.10993 0.17589 0.15596 0.004526 0.10003 0.13971 0.079287 -0.17877 -0.25419 -0.34159 -0.02085 0.25172 0.055618 0.21268 0.017733 -0.1006 0.039803 -0.12174 0.10106 0.12795 0.0034935 0.32167 0.19741 -0.047421 0.17659 0.21434 -0.037498 0.20336 0.34075 0.14188 -0.1495 -0.087354 -0.15182 0.04136 0.48104 -0.29252 -0.24686 -0.059163 -0.11277 0.086088 0.28414 -0.3672 -0.20172 -0.21387 -0.24385 0.19082 -0.15973 -0.037478 -0.042437 -0.15963 0.093526 -0.28177 0.072194 -0.39633 0.16404 0.23936 0.12407 0.1765 -0.38456 -0.13009 -0.0027508 -0.21692 0.12533 0.20488 0.13649 0.26342 -0.063221 0.13276 -0.055025 0.0039933 -0.15699 -0.018196 0.036455 0.14624 -0.17249 0.13533 0.021032 0.42445 0.1899 0.23337 -0.17181 -0.31259 -0.27652 0.22858 -0.027967 -0.51816 -0.010062 -0.19847 -0.1052 -0.34991 0.16668 -0.21209 0.094281 -0.21251 -0.017897 -0.25959 0.43976 -0.20422 0.055509 0.086354 -0.38372 0.22219 0.084854 0.07612 0.063437 -0.27028 -0.079257 -0.19223 0.19569 0.1748 -0.16062 -0.043585 -0.24754 -0.20998 0.04553 0.019585 0.025655 0.065208 -0.14396 0.10762 -0.17537 0.10361 0.14274 0.13289 0.19976 -0.15246 -0.47579 0.36726 0.082096 -0.24962 0.039091 0.15118 -0.19962 0.075853 0.077794 -0.066737 -0.024373 -0.18589 -0.27712 0.086691 0.0013487 -0.32241 0.088339 0.038387 -0.022855 0.18364 0.3821 -0.32296 0.091393 0.016715 0.27237 0.19981 -0.22175 -0.079889 0.095643 -0.1717 0.010197 0.094028 0.099688 -0.043901 -0.31335 -0.46551 0.074556 -0.20902 -0.098896 0.1157 0.0075441 0.13028 -0.62309 -0.015523 0.32918 0.21938 -0.25864 -0.1716 -0.3789 0.15058 -0.44818 0.030653 0.099899 -0.31083 -0.13819 -0.10901 0.47175 -0.066608 0.15829 0.31472 -0.44723 -0.4009 0.39471 -0.11579 0.1232 0.039348 -0.11604 0.22622 -0.048399 0.15399 -0.18834 -0.016568 -0.011283 -0.066741 0.34285 0.015504 0.059163 0.0038768 0.27925 -0.044187 -0.28902 -0.07671 0.017179 0.10067 0.035771 -0.024591 0.023461 -0.036796 
talmadge -0.19226 -0.17042 -0.46368 -0.021527 0.21847 -0.11069 -0.261 -0.0048154 -0.03179 0.43833 -0.25187 0.308 -0.43462 0.43001 -0.32763 -0.10852 -0.019713 0.18084 -0.28145 0.28407 -0.39453 0.34467 -0.078214 0.35676 0.027663 0.072456 -0.14045 -0.33648 -0.036402 0.065566 -0.46245 0.12548 -0.56786 -0.27052 0.3487 -0.12572 0.27585 0.076943 -0.01868 -0.33999 0.18953 -0.14631 0.38439 -0.26548 -0.19776 0.23601 0.46457 -0.19498 0.43221 -0.51791 -0.043662 -0.28775 0.19717 -0.1686 -0.20134 -0.087464 0.012429 -0.17878 -0.39142 -0.066283 -0.28469 -0.27803 0.50016 -0.087991 0.31867 0.18706 -0.41166 -0.032226 -0.25772 -0.45674 -0.35686 -0.15372 0.23721 0.18129 0.046635 -0.37197 -0.2189 -0.41928 -0.21129 -0.38344 0.54164 -0.56584 0.39511 0.44283 -0.11797 -0.16778 -0.52639 -0.36374 0.23514 0.030956 0.16896 -0.21152 -0.061178 0.054408 -0.29869 -0.62052 -0.18967 -0.095403 0.021087 0.4569 0.002847 0.28468 0.062434 0.21134 0.15083 0.46388 0.25714 0.40372 -0.081485 0.2609 -0.33684 0.19527 -0.3365 0.34693 0.11789 -0.11768 -0.036131 -0.29139 0.11402 0.29653 0.29342 0.47932 -0.17294 0.049544 0.033958 -0.33409 0.17323 -0.43325 -0.10135 0.14413 0.013647 -0.05755 0.15845 -0.35317 0.18242 -0.54721 -0.61841 -0.02715 0.043704 -0.15208 0.23491 0.29 0.4602 0.34923 -0.24396 0.26376 0.31085 -0.15076 -0.18348 -0.16427 0.3837 0.11784 -0.17858 0.27841 0.19915 0.26579 -0.21399 -0.094305 0.0021323 0.29149 -0.53858 -0.37918 -0.5552 0.14341 -0.19348 -0.22031 -0.29129 -0.55252 0.15961 0.51969 0.48095 -0.98337 0.26432 -0.37159 0.50431 -0.45023 -0.18652 -0.2582 -0.10818 0.18619 0.80606 0.034067 0.14185 0.77562 -0.19181 0.13337 0.048666 -0.21526 -0.072147 0.38279 0.080341 0.20672 0.19306 0.30247 0.34764 0.44866 -0.23192 -0.53861 0.47734 -0.065049 0.080686 -0.27457 -0.039525 -0.48545 0.16066 -0.55554 -0.26594 0.29193 -0.38895 -0.32301 0.032227 -0.11168 -0.34961 -0.12788 -0.13282 0.21763 -0.22704 -0.24956 -0.58813 -0.17624 -0.29545 -0.17678 0.073801 -0.22443 0.73587 -0.32499 -0.069945 -0.35433 -0.073583 0.074025 -0.23838 -0.0086302 0.25532 -0.075581 -0.24638 -0.14846 0.13578 -0.16086 0.41475 -0.77942 0.32477 0.64846 0.054504 -0.041172 -0.13252 0.43492 -0.46698 -0.3795 0.24876 -0.234 -0.51309 -0.15923 -0.18574 -0.058173 -0.56436 -0.30337 -0.1303 -0.097073 -0.26679 -0.24453 -0.082013 0.31071 -0.19956 0.15828 -0.14467 -0.31101 -0.19822 0.44434 0.43828 0.13007 -0.82645 0.2204 -0.20052 -0.30459 0.4488 0.21163 -0.030376 -0.42312 0.49005 -0.62634 0.21346 -0.2515 -0.38754 0.074986 -0.46895 -0.32242 0.21746 0.060718 -0.22465 0.74503 0.34283 0.49834 0.16523 -0.49011 0.40819 0.22202 -0.13515 -0.11296 0.39787 0.16258 
nunn -0.061069 -0.053845 0.041248 0.10465 0.13339 0.26795 -0.1388 0.030063 -0.001307 0.072447 0.042601 -0.21291 0.15924 -0.0918 -0.21011 -0.115 0.036994 0.025901 -0.40836 0.13837 0.31335 0.049213 -0.074656 0.24997 0.0084107 -0.31228 -0.047927 0.056748 0.18016 0.061953 -0.1368 -0.039581 -0.15705 -0.10223 0.37859 0.053141 0.033508 -0.19372 0.18576 -0.27138 -0.13178 0.2533 0.39746 0.32173 0.20851 0.34548 0.087456 -0.18486 0.27338 -0.076201 -0.13148 -0.11481 0.15458 -0.25805 -0.3346 -0.31825 0.21594 -0.12316 0.10838 -0.11574 -0.5017 0.23196 0.28274 0.087559 0.34139 0.2113 -0.060661 0.12169 -0.35358 -0.073971 -0.19001 0.12279 0.40344 0.42483 0.088263 -0.21774 0.2175 -0.46286 0.40526 -0.070429 0.085046 0.58318 0.073068 -0.30853 -0.073217 -0.15663 0.20408 -0.11306 -0.15358 -0.042026 0.31043 0.12504 0.31291 0.081358 -0.38645 0.020441 -0.27323 -0.044059 0.093574 0.22015 0.15992 0.096685 -0.25095 0.093526 0.0045907 0.37915 -0.14651 0.044146 -0.16681 0.13369 -0.52476 0.22698 -0.30059 0.49085 -0.2128 -0.29988 0.026394 -0.11112 -0.33224 0.16032 0.37319 -0.24351 -0.142 -0.20821 0.20711 -0.49531 0.25736 -0.46891 0.1137 -0.28051 -0.10215 -0.1976 0.011296 -0.47962 -0.15794 -0.023443 -0.21808 0.40014 -0.19158 0.083426 0.42132 0.22206 0.016232 0.05953 -0.27013 -0.18817 0.34763 -0.21978 0.11917 0.092832 0.3605 0.11347 -0.070456 0.25204 -0.35001 0.052763 -0.071532 0.16216 -0.17749 -0.077027 0.15034 0.22825 -0.45901 0.21286 -0.14151 -0.31259 0.0044597 -0.38063 0.37416 0.4935 -0.22045 -0.56561 0.4623 0.19849 0.062225 0.1866 -0.13636 -0.18374 0.01816 0.030635 0.36971 -0.3446 -0.13396 0.27655 -0.23927 -0.037135 -0.050141 -0.1077 -0.046077 -0.11026 -0.34406 -0.091361 0.12065 0.076484 0.072921 0.081074 -0.19515 -0.47079 0.18708 0.20591 -0.29842 0.20542 -0.077759 -0.086866 0.19829 0.040982 -0.23854 -0.028336 -0.38359 0.14142 -0.084393 -0.27737 -0.048861 0.32254 0.15608 0.0044296 -0.11993 -0.10191 -0.039704 -0.21713 -0.19978 -0.14594 -0.13037 -0.19996 0.55553 -0.37767 0.14336 -0.11715 0.036166 0.037867 -0.23335 0.1366 0.49631 -0.069366 0.032459 0.066623 0.23864 0.17577 -0.11287 -0.35715 0.1029 -0.10244 0.071923 -0.34646 -0.32452 -0.097536 0.12758 -0.21933 -0.15308 -0.28025 -0.14566 0.080717 -0.29088 0.037759 -0.47892 -0.14274 0.4194 -0.082432 -0.30218 0.09089 0.33115 0.12485 -0.44167 0.12564 -0.31942 -0.39022 -0.082778 0.33943 0.21118 -0.008817 0.21907 0.087338 -0.0045012 -0.17566 0.090587 -0.18772 -0.34843 0.13898 0.49252 -0.24329 0.035445 -0.15806 -0.041058 -0.25353 -0.091787 0.07745 0.1141 0.37404 -0.12931 0.47383 0.069755 -0.00051241 0.2453 -0.09678 0.031028 -0.11872 -0.23069 0.051376 0.27271 0.060451 
inouye 0.10565 -0.051549 0.0075656 0.18477 -0.078189 -0.2315 -0.13702 -0.0081631 -0.03547 0.20547 0.39686 0.20091 0.046371 -0.10092 -0.18735 -0.29534 -0.015094 0.090734 -0.3034 -0.24986 0.12892 0.42269 -0.073805 0.33369 -0.20547 -0.37839 0.16163 0.08508 -0.22113 0.15934 -0.30947 0.099217 -0.4715 0.51887 0.47455 -0.27388 0.14136 -0.083925 0.055845 -0.22133 -0.17301 -0.11975 0.19704 0.12323 -0.026706 0.20345 0.17919 -0.32613 0.34052 -0.17334 -0.11625 0.12288 0.45495 -0.154 -0.092303 -0.26643 -0.11622 0.11317 0.018317 0.28021 -0.28319 -0.08805 0.33943 -0.3807 0.17491 0.26752 -0.34329 0.10993 0.11619 -0.02082 -0.24679 0.12903 0.44924 0.33951 -0.44112 0.18477 0.2056 -0.12564 0.091183 0.15875 0.26363 -0.080008 0.20814 0.15298 0.3867 -0.16105 0.42628 -0.039262 -0.040058 0.072468 0.45734 0.19241 0.2834 -0.02234 -0.50883 -0.040274 -0.037378 -0.15084 -0.32263 0.18526 0.060892 -0.30977 -0.30722 0.15977 0.23324 0.18756 0.35911 0.48696 -0.23182 -0.21415 -0.17502 0.32818 -0.063769 0.37338 0.079337 0.20724 0.033432 -4.5594e-05 -0.4147 0.079141 0.32442 -0.039795 0.26855 -0.32024 -0.099156 -0.23652 0.18518 -0.13665 -0.05451 0.024596 -0.47556 0.041306 -0.34236 -0.32198 -0.72501 0.39849 0.15243 -0.098413 0.17922 -0.11769 0.52394 0.39931 0.30164 0.22885 -0.13934 0.18279 0.34801 -0.14533 -0.051352 -0.13075 -0.11177 0.39399 -0.27033 -0.069507 -0.095631 0.19124 0.037783 0.3263 0.015512 0.1337 0.21055 0.074599 -0.21304 -0.12567 0.022986 -0.33718 0.033606 -0.088736 0.38378 0.12351 -0.2608 -0.22324 0.28728 0.21809 -0.085148 -0.18757 0.12727 -0.10974 -0.098187 -0.19341 0.61336 -0.36502 -0.20017 0.25672 -0.13007 -0.028724 -0.22843 -0.25322 -0.0012356 0.39346 0.20434 -0.13306 -0.38153 0.28609 0.21863 0.16948 0.29623 -0.30091 0.12142 -0.10655 -0.79206 -0.32844 -0.16165 -0.17904 0.27743 -0.046874 -0.42091 0.44702 0.037309 -0.072432 0.11516 -0.34915 0.34238 0.12457 0.26902 0.19609 0.11901 -0.41688 0.0088317 -0.54193 0.044595 0.20435 0.017197 -0.057566 0.33486 -0.28707 -0.0041506 -0.059565 0.11366 0.3939 -0.31055 0.17758 0.12957 0.19167 -0.13863 -0.083742 0.1938 0.0020532 0.23696 -0.4022 0.59961 0.14764 -0.033995 -0.45494 0.14926 0.14416 0.15684 -0.35978 0.26708 -0.25509 -0.27371 -0.13222 -0.43853 -0.30838 -0.84817 0.15561 -0.17148 -0.017931 -0.35176 0.0032078 -0.15071 0.24148 -0.085508 0.0081613 -0.17828 -0.58502 0.0047303 0.3522 0.23615 0.17391 0.18088 0.032875 -0.45472 -0.38037 -0.098086 -0.19564 -0.22063 -0.19255 0.58398 -0.31333 -0.1337 0.012766 -0.068276 -0.11294 -0.5038 -0.29069 0.15542 0.5662 0.061017 0.40967 0.58069 -0.058982 -0.23649 0.12435 0.096089 0.11794 -0.24168 0.10073 0.22898 -0.20092 
matsunaga -0.22865 0.13869 0.087628 -0.028531 0.089307 -0.3368 -0.0515 -0.21814 -0.48287 0.12034 0.60442 0.45942 -0.062457 -0.13494 -0.32599 0.51514 0.55666 0.037111 -0.13103 -0.25415 0.38473 0.42441 -0.35899 0.80221 -0.12148 -0.23802 0.101 -0.0018234 -0.5253 0.034403 -0.089906 0.00053037 -0.12608 0.52769 0.38505 -0.43935 -0.045127 -0.18296 0.20998 0.084394 -0.67905 0.019017 -0.0018521 0.36312 -0.080013 0.30439 0.13945 0.073603 0.33463 0.023526 -0.26394 -0.10051 0.22653 -0.0015242 -0.0057841 -0.25588 -0.10735 -0.42888 -0.36735 0.12701 -0.36415 -0.21983 0.29213 -0.26816 0.45573 0.31913 -0.093054 -0.27282 0.28411 0.088191 -0.40277 0.47771 0.47935 0.56607 -0.33026 0.38613 -0.13146 -0.19239 0.13419 -0.093812 0.2818 -0.26284 0.091639 0.54672 0.18183 0.15371 -0.34535 0.30023 0.15201 0.58782 -0.22566 0.15993 0.2939 0.045348 -0.33687 -0.60227 -0.30621 0.32256 -0.054452 0.29198 0.023593 -0.089978 -0.085189 0.38407 0.019833 0.23702 0.2137 0.27575 -0.17593 -0.11022 -0.54618 -0.13075 0.071277 0.20141 -0.078751 0.033709 -0.13983 0.12239 0.16671 -0.16061 0.67985 -0.08986 0.15792 -0.32106 0.031321 0.051626 0.13947 0.37478 0.38514 0.36539 -0.0067459 0.38631 0.081268 0.0099773 -0.67119 0.50146 0.18771 -0.47473 -0.25212 0.029212 0.51576 0.3864 0.29285 -0.10932 0.1545 0.14449 0.13622 -0.32339 0.077518 -0.070226 -0.13855 0.89868 0.17251 0.18933 -0.365 0.42655 -0.26256 0.15881 -0.54843 0.1037 0.0030357 0.064985 -0.66051 -0.01848 -0.28979 -0.50625 0.14897 0.20944 0.067971 0.51957 -0.25419 -0.40861 0.30305 0.29978 0.067558 0.035266 0.22969 -0.24296 -0.4678 -0.31502 0.81533 -0.023652 -0.22465 0.24469 -0.53233 -0.35981 -0.28822 -0.15762 -0.38743 0.017859 -0.042335 -0.19184 0.048267 0.40668 0.28446 0.14419 -0.0034142 -0.79494 0.22614 0.32429 -0.45069 0.027192 0.068039 0.024286 -0.054378 -0.10099 -0.3029 0.33106 -0.096235 -0.30397 0.097457 -0.63065 0.072376 0.26666 0.051704 0.06671 0.1587 -0.28612 -0.37015 0.13306 0.07462 0.012447 0.20118 -0.23798 0.22664 -0.11287 -0.31185 0.14082 -0.043365 0.23784 -0.21393 -0.063681 0.22711 0.32463 -0.20688 -0.18275 -0.21392 0.14186 -0.16827 0.07003 0.33248 0.26763 -0.11926 -0.17111 0.10623 0.29863 0.035092 0.33829 0.10499 -0.22041 -0.049929 0.16543 0.34294 -0.16099 -0.41049 -0.30939 0.11591 -0.13285 -0.081827 0.26679 0.014593 0.33659 -0.16552 -0.41999 -0.46973 -0.41987 -0.25036 -0.067747 0.62377 -0.22622 0.30967 0.086209 -0.59116 -0.89951 0.52798 -0.21692 -0.6447 -0.20642 0.18399 -0.14179 0.17213 -0.2021 -0.26443 -0.37095 -0.15642 -0.039036 0.34546 0.8267 0.31124 0.047261 0.6281 -0.032672 0.002584 0.46917 0.092208 -0.35825 -0.5307 0.29785 -0.083355 -0.03945 
church 0.28028 0.24833 0.028864 0.038045 -0.10436 -0.01324 0.23834 0.13596 0.023158 -0.4014 0.29181 0.24921 -0.18853 -0.51897 -0.15023 -0.10499 -0.0052275 0.07466 -0.054685 0.0068298 -0.055751 0.19137 0.0041965 -0.27738 -0.020645 -0.45252 0.20531 -0.22445 0.093971 0.20988 0.2792 0.12828 -0.0084945 -0.10258 0.24413 0.06967 0.040814 -0.041174 0.0081831 -0.082665 -0.37208 -0.32116 0.25061 0.086821 -0.0042331 0.23056 0.0063814 0.093721 0.36494 0.10952 -0.078154 0.060167 -0.021368 0.035167 0.10034 -0.18424 -0.31809 -0.21192 -0.68996 0.22808 -0.017166 0.36837 0.0018009 0.29454 -0.10424 0.18409 0.048125 0.030566 -0.059659 0.54292 -0.303 0.34163 -0.096123 -0.26197 -0.14465 -0.092002 -0.23475 -0.4368 0.10198 -0.24802 0.29983 -0.019057 0.22183 0.17303 -0.033221 0.018248 0.18568 0.0096575 0.17576 -0.20238 -0.006194 -0.31904 0.16859 0.021732 -0.090815 0.083936 -0.098644 -0.052641 0.070751 0.13418 -0.2048 -0.19299 -0.03208 0.11667 0.25272 -0.15235 -0.13992 0.19879 -0.14209 -0.06415 -0.27321 0.15149 -0.29779 0.00061296 0.26292 0.014979 0.080246 0.097924 -0.094957 -0.095328 0.35048 -0.078312 -0.034508 -0.0025649 0.01487 0.20194 0.46134 -0.17813 -0.076836 0.19618 -0.12993 0.11657 -0.21782 0.068013 -0.21494 -0.22289 -0.095655 -0.22408 0.15072 0.2129 -0.10099 -0.050185 0.23841 -0.20394 -0.251 -0.19214 -0.20934 -0.083576 0.38482 -0.11669 0.23109 0.15531 0.1494 -0.01094 -0.24014 0.040304 0.28931 -0.076915 0.019637 0.033567 -0.18414 -0.1556 -0.41228 0.049764 -0.044596 -0.31511 0.075568 -0.36293 -0.030755 0.38466 -0.30347 -0.37128 -0.054537 0.17515 -0.2534 -0.13456 -0.066692 -0.41757 0.24959 0.18691 0.38507 0.080109 0.37408 0.13778 -0.063694 -0.22658 0.24399 0.16021 0.018629 -0.051324 0.052884 -0.26586 0.19858 -0.2653 0.089497 -0.09816 -0.24154 0.21741 0.18938 0.058209 0.064396 -0.11743 -0.34587 0.2374 0.29952 -0.13827 0.13343 -0.20273 0.23069 0.16504 -0.27151 0.0042501 -0.3374 -0.063732 -0.39767 0.12761 -0.20943 -0.21462 -0.45695 0.19944 0.11351 -0.033154 -0.048973 0.016252 -8.0002e-05 -0.0026605 -0.083323 -0.17844 -0.10925 0.041823 0.29212 0.19556 -0.041951 -0.11974 0.071277 -0.32674 0.032342 0.088602 0.062628 -0.19473 0.19866 -0.16998 0.16711 0.22144 -0.18849 0.272 -0.50921 -0.31271 0.10265 -0.22473 0.31761 0.098817 -0.16836 -0.15513 0.12586 0.09744 -0.0068504 -0.086821 -0.18085 0.086189 -0.039844 0.15566 -0.18206 0.06046 -0.086548 0.18712 0.19371 -0.024175 -0.071739 -0.035687 -0.17872 0.23884 -0.18004 -0.047643 -0.12009 -0.089131 0.22432 -0.1924 -0.00046044 0.18968 0.15346 0.22081 -0.29198 0.34107 -0.13452 -0.13917 0.055083 0.029167 -0.25018 0.38577 -0.079389 0.12645 0.033639 -0.25912 -0.14888 0.44987 0.1196 0.077143 0.11001 0.012727 
mcclure 0.24276 0.15428 0.073421 0.46219 -0.14699 -0.47465 -0.10747 0.040472 0.083376 -0.10724 0.29515 0.17044 0.10399 -0.14946 -0.43317 -0.20631 0.074336 -0.23808 -0.12585 -0.2617 0.033304 0.14065 -0.17249 0.10978 -0.080306 -0.30927 -0.31747 0.10783 0.061136 -0.012982 -0.32609 0.026411 -0.066356 0.036309 0.14697 0.022619 0.21635 0.13906 -0.043736 0.31386 -0.3985 0.017574 0.91342 0.27184 0.24511 0.18333 0.13546 0.2741 0.21585 -0.11146 -0.33972 0.23184 0.015704 -0.082884 -0.19583 -0.019636 -0.28158 -0.11312 -0.062585 0.097071 -0.13827 0.024522 -0.018228 0.070227 -0.086824 0.16036 0.081226 0.2479 -0.29757 0.22906 -0.38207 0.028157 -0.023607 0.17964 -0.35338 0.082636 -0.092243 -0.37646 -0.28021 0.17942 0.36148 0.10389 0.27544 -0.08866 0.062203 -0.082988 -0.12438 0.086872 0.23603 0.013044 0.025051 0.09621 0.49224 0.26443 0.02503 -0.26299 0.027166 -0.029994 -0.18437 0.18104 0.24452 0.083088 -0.059034 0.023656 -0.3433 -0.18299 -0.17956 -0.072324 -0.24264 0.15517 -0.074356 0.041532 -0.31137 0.20862 -0.27341 0.010147 0.12178 0.50492 -0.37447 0.14399 0.10521 -0.30247 -0.10888 0.022737 -0.16986 0.032727 0.37676 0.10628 -0.23446 0.021252 -0.10342 0.27679 0.36246 -0.0012356 -0.29422 -0.20283 -0.029143 0.066752 0.34587 0.02181 0.37395 0.39319 0.20854 0.23529 -0.041354 0.25727 0.36348 0.044143 0.22316 -0.025914 -0.059559 0.095851 -0.23285 0.070443 -0.20997 0.46388 -0.037375 -0.21826 -0.29082 -0.24895 -0.19805 -0.21917 -0.34512 0.24434 -0.1767 -0.07175 -0.17424 -0.47491 -0.12933 0.2717 -0.11301 -0.13942 0.25201 0.42858 0.13624 -0.1521 0.16235 -0.089033 -0.16959 0.16588 0.41711 0.02668 0.11007 0.084431 -0.62481 -0.23637 0.1344 -0.32287 -0.039017 0.044161 -0.026922 -0.29496 -0.20877 0.10377 0.013195 0.059055 0.023695 -0.22711 -0.082554 -0.08915 -0.38925 0.14399 -0.04427 -0.54619 -0.14582 -0.28496 -0.081585 0.27808 -0.0036716 0.12071 0.4192 -0.26093 -0.34771 0.33308 0.28793 -0.23513 -0.17155 0.29007 -0.056972 -0.15176 0.0016785 -0.10528 0.21876 -0.27609 0.72413 -0.5733 -0.12177 -0.13617 0.11435 0.3989 0.18119 0.23479 0.1258 -0.29734 -0.015541 -0.10134 0.055753 -0.19052 0.060357 0.027686 -0.1392 0.42182 -0.39791 -0.3816 0.13121 0.53036 0.036574 0.19325 -0.10463 -0.30691 -0.050456 -0.25614 -0.29021 0.14756 -0.3901 0.049497 0.221 0.043837 -0.17033 0.19115 0.058859 0.10742 -0.12629 -0.092276 -0.36468 -0.32187 -0.16082 0.14644 0.13752 -0.48429 -0.22587 0.20803 -0.10389 -0.19503 0.43779 -0.13592 0.073021 -0.068371 0.2124 0.062337 -0.026931 -0.13187 -0.048166 -0.24906 -0.021597 -0.21106 0.01842 0.18277 -0.38875 0.091461 -0.12402 -0.042067 0.11614 0.18554 -0.045264 -0.022262 0.11251 0.37685 0.32953 0.044804 
percy 0.16573 0.23396 0.015072 0.20657 -0.068973 0.033606 -0.13041 -0.082364 0.010909 0.1679 -0.034945 -0.025217 0.15707 -0.24301 -0.12894 -0.015035 -0.046742 -0.16396 -0.26051 -0.27021 0.27403 0.25372 0.0058073 0.30763 0.072207 0.086013 0.26764 0.19122 0.080724 0.23682 0.11685 0.043649 -0.15496 -0.1684 0.31976 -0.16183 -0.24604 -0.083449 0.13276 -0.087942 -0.10563 0.18556 0.1292 0.29013 0.26569 -0.0519 -0.11817 -0.17382 0.19596 0.003319 -0.12656 0.66333 0.31683 0.052187 -0.11002 0.18482 -0.022172 0.2914 0.11956 0.097928 -0.043982 0.30718 0.36015 0.11752 -0.02155 0.1061 -0.055032 -0.03747 -0.12111 0.28803 -0.57544 -0.0042988 0.096686 0.42439 -0.18519 -0.029099 -0.12171 -0.32102 -0.14336 -0.021322 0.25079 0.12125 -0.044535 0.34358 0.15783 -0.19499 -0.17631 0.10429 0.076625 0.17909 -0.05723 -0.12966 0.34464 0.33985 -0.33591 0.025348 0.010979 0.092694 -0.30113 0.06684 0.01577 0.1984 0.17249 0.28683 -0.068343 0.30725 0.14405 0.15972 0.16208 -0.1076 -0.036977 0.053607 0.16288 0.2661 0.11927 -0.32227 -0.21585 -0.22851 -0.36139 -0.050175 0.36134 -0.26343 -0.25995 0.38171 0.06675 0.17819 0.29211 -0.28514 -0.0034189 0.12625 -0.30474 0.11846 -0.066714 -0.3497 -0.52593 -0.0039854 0.098837 -0.10164 0.013854 0.16652 -0.084993 0.13488 0.15256 0.48916 -0.12108 0.14044 0.2499 0.24642 0.098151 0.21735 -0.078805 0.068655 0.017787 0.16611 -0.011091 -0.061961 -0.0057553 0.22893 -0.21432 -0.27278 -0.18359 0.067991 -0.29787 -0.05266 0.17794 -0.4579 -0.020965 -0.34971 0.059881 0.2656 0.12161 -0.24888 0.40382 0.3674 0.18619 0.033994 0.29371 -0.10255 -0.25522 0.18059 0.091816 -0.21587 0.0029033 0.70907 -0.30605 0.46088 0.24784 -0.44726 0.1589 0.047553 0.22362 -0.62705 -0.050059 0.29198 0.35695 0.036579 -0.31499 -0.45744 -0.024369 -0.055426 -0.18684 0.19344 0.050057 -0.40339 -0.019051 -0.018982 0.12507 -0.019781 -0.47722 -0.27856 -0.07655 -0.28388 -0.34444 0.080211 -0.043439 -0.26204 -0.21578 0.067949 0.00017063 0.060223 -0.09045 -0.053203 -0.18957 -0.32576 0.8413 -0.16409 0.08696 -0.51746 -0.048514 0.21683 0.22039 0.081834 0.27512 -0.16883 0.1868 -0.15788 0.2453 -0.042626 0.33411 0.23972 0.15619 0.14632 -0.0043045 -0.13749 -0.28116 0.065406 -0.15056 0.032324 0.34369 -0.40398 0.13527 0.045733 -0.18487 -0.10328 -0.6048 0.11241 0.064349 -0.05678 -0.2484 0.36012 0.25818 0.0019576 0.031308 0.18574 -0.13704 -0.41622 0.23932 -0.092477 0.27041 0.069661 -0.059362 0.23934 -0.4952 -0.31082 0.025659 -0.18 0.028798 0.55236 -0.029046 -0.039009 -0.2076 -0.27018 -0.63205 -0.13602 0.095051 -0.16793 -0.070391 0.10395 -0.16258 0.31601 0.11244 -0.073925 0.15835 0.28271 0.185 -0.0099444 0.054331 -0.04216 -0.1346 -0.05761 
stevenson 0.16249 0.1159 -0.078829 0.28747 -0.13261 0.0039559 -0.43818 -0.049595 -0.14322 0.15791 -0.017037 0.023054 0.13838 -0.28665 0.081475 -0.034257 -0.077878 -0.038101 -0.30537 0.24672 0.0072267 0.38972 -0.0613 0.38235 0.19857 0.17081 0.16696 -0.44451 -0.26815 -0.090856 0.077837 -0.031422 -0.11157 -0.023488 0.084025 0.075738 -0.079959 -0.26274 0.06009 -0.17868 -0.27773 -0.03122 0.17932 0.1248 0.13847 -0.14572 0.072368 -0.042 -0.0458 -0.17241 -0.32856 0.27655 0.16092 0.16102 -0.1025 0.10154 -0.15677 0.071124 -0.081716 -0.20096 -0.11556 -0.35026 0.068857 -0.044529 0.21375 -0.04241 -0.035273 0.11928 0.10809 0.20568 -0.021648 -0.1028 0.37366 0.013521 0.21834 0.09093 -0.047404 -0.12478 -0.075214 -0.03997 0.17408 -0.049591 0.12107 0.089913 -0.1433 -0.064707 -0.25736 0.022495 0.27767 -0.026322 -0.2214 0.20188 0.12266 0.29133 -0.1226 -0.54623 0.0013217 0.26606 -0.051744 0.31552 -0.2994 0.11456 -0.097897 -0.034572 -0.10815 0.16824 0.15734 0.24565 -0.058493 0.0728 -0.077661 -0.021919 0.021091 0.045798 0.19674 -0.0016337 -0.043523 -0.05414 -0.31841 -0.19374 0.36408 0.2628 0.073765 0.019588 0.20948 -0.090259 0.052472 -0.38104 -0.08003 -0.16862 -0.33063 -0.069709 0.021005 -0.062835 -0.35154 0.0091928 -0.046687 -0.013748 -0.18449 -0.34093 0.1102 0.061308 0.29138 0.40722 0.010107 0.1819 0.09926 0.18217 -0.12264 0.10887 -0.094315 0.36196 -0.18524 0.17819 0.081547 0.33425 0.020099 0.10739 0.062972 -0.16983 0.023608 0.10871 -0.1499 0.24475 -0.20889 -0.15873 -0.065478 -0.41546 -0.196 0.078327 -0.038903 -0.55544 0.21192 0.04409 0.251 0.033309 -0.027691 -0.069348 0.11907 -0.058257 0.035087 -0.38139 0.36093 0.17262 -0.10567 -0.033241 -0.0034933 -0.33584 -0.035296 0.064565 0.18316 -0.27522 0.22296 -0.00040567 0.25435 0.17504 0.15534 -0.38202 -0.038452 0.064455 -0.21687 0.29518 -0.063395 -0.20594 -0.0952 -0.0237 -0.1255 0.19614 -0.057662 -0.24823 0.042674 -0.12139 -0.062764 0.044153 -0.2335 0.09692 -0.00031111 -0.007726 0.033511 -0.10389 0.11916 -0.36002 -0.26887 0.19805 0.42281 -0.12113 -0.043662 -0.3311 -0.03666 0.37081 -0.074821 0.031481 0.36269 0.1087 0.044406 -0.29564 0.2708 0.070057 -0.038093 -0.099266 0.031041 0.36317 0.069443 0.2253 -0.27831 0.16181 -0.29979 -0.4171 0.071915 -0.037843 -0.19363 -0.12701 0.26717 -0.1683 -0.2812 0.037172 0.044237 -0.21081 -0.17049 -0.15694 -0.043926 0.38964 -0.094926 -0.21056 -0.041188 -0.35143 -0.24105 0.0095887 0.18477 -0.13895 -0.17202 0.45713 -0.49982 -0.25255 0.27151 -0.28813 0.17961 -0.16554 0.081021 -0.13007 0.10293 -0.29946 -0.28729 0.1506 0.22463 -0.098124 -0.069632 0.39282 0.014904 0.29399 0.054305 -0.0091325 0.029741 -0.065623 0.22919 0.05689 0.059913 0.041562 -0.19873 -0.24543 
bayh -0.019711 0.02905 0.055294 0.2858 0.0077531 -0.010652 -0.0089688 -0.15742 -0.044125 0.24563 0.22689 -0.12589 0.16705 -0.12623 -0.12227 0.23492 0.28232 -0.052316 -0.39996 -0.29573 0.10834 -0.023535 -0.26425 0.48219 -0.10779 -0.30249 -0.19804 -0.13427 -0.19254 0.24065 -0.10255 0.13313 -0.22543 0.13604 0.52795 -0.20423 0.3356 -0.14855 -0.29376 -0.12429 -0.39714 0.22211 0.3968 0.016155 0.21229 0.14505 -0.002395 -0.40186 0.3768 -0.055893 -0.20377 -0.022588 -0.082031 0.16095 -0.061815 -0.23416 -0.21045 -0.19762 -0.37489 0.48535 0.027394 -0.23803 0.34431 0.020472 -0.034483 -0.23747 -0.18448 -0.16208 -0.13299 0.17033 -0.17575 0.050475 0.33846 0.42859 -0.21181 0.092991 0.068733 -0.22386 0.18028 -0.3291 0.32107 0.2228 -0.077553 -0.14391 -0.14734 -0.052298 -0.16003 0.046348 0.1134 -0.13232 0.16525 0.35569 0.083712 -0.2145 -0.25254 -0.21417 0.06303 0.14518 -0.066983 0.26921 -0.31544 0.11809 -0.37312 0.25092 -0.12207 0.39365 0.46951 0.15008 -0.21146 0.059052 -0.07036 0.17391 -0.3202 0.059197 -0.25027 0.03785 0.066246 -0.23637 -0.059759 -0.032885 0.00083415 0.095857 -0.061668 -0.17368 -0.34367 -0.098097 0.27324 -0.35211 0.02553 -0.043712 -0.59146 -0.046593 0.030129 -0.38993 -0.42067 0.22843 -0.16701 -0.42848 -0.1643 -0.21951 0.064256 0.20663 0.1359 0.20799 0.25192 0.048147 0.17383 0.031919 -0.037609 0.10988 0.064444 0.48888 0.26266 0.035909 -0.0025139 0.44083 0.14458 0.081511 -0.056436 -0.32837 0.12547 -0.0051875 -0.61332 0.24926 -0.20788 -0.56819 0.33936 -0.50905 0.2402 0.22908 0.033476 -0.60376 0.4152 0.060488 -0.037533 -0.33007 -0.1328 -0.29573 -0.16008 -0.28599 0.5655 -0.15689 0.034527 0.30642 -0.18644 -0.21032 0.019269 -0.15596 -0.042334 -0.27101 0.16396 -0.072718 0.073584 0.051506 0.18331 0.11636 -0.40013 -0.2342 0.14989 0.48369 -0.33333 -0.010909 0.061121 -0.41362 0.31097 -0.39744 -0.24202 0.2514 -0.12053 0.35184 0.034902 -0.38392 0.14908 -0.075865 -0.07869 0.14491 -0.0055357 -0.08168 0.15761 0.05426 -0.0163 -0.35228 0.065113 -0.20959 0.50454 -0.5472 0.081463 -0.041575 -0.16214 -0.17559 -0.26213 -0.047934 0.11119 -0.021471 0.015202 -0.11952 0.072002 0.047319 0.10732 -0.1956 0.35193 0.22592 0.061168 -0.13235 -0.092057 0.067433 -0.031032 -0.15256 0.2401 -0.12138 0.15949 -0.22473 -0.052965 -0.1233 -0.3975 -0.053293 0.14985 -0.11008 -0.25141 -0.11094 0.075599 0.12691 -0.37566 0.22949 -0.13725 -0.31037 -0.48285 0.36322 0.32106 -0.11073 -0.10284 0.35673 -0.34423 -0.16864 0.067271 -0.13571 0.10733 -0.34172 0.32171 0.044442 0.041882 -0.37353 0.31337 0.37999 0.28823 0.0015218 0.033259 0.2642 -0.35804 0.31516 0.43649 0.37935 0.30574 0.27227 0.017702 -0.080148 -0.30184 0.37048 0.013956 0.046632 
lugar -0.16238 -0.064804 0.33959 0.28666 -0.16294 -0.016387 -0.080026 0.19527 0.053564 0.35008 0.15217 -0.26201 0.26462 0.10283 -0.16445 -0.29364 0.057718 0.21069 -0.26168 -0.13882 0.47174 -0.091144 -0.017139 0.34174 0.018564 -0.42236 0.017923 -0.20531 0.049307 -0.026999 -0.25475 -0.15446 -0.057183 0.12574 0.57784 -0.017987 0.27644 -0.17559 -0.083031 -0.011839 -0.060055 0.31805 0.59259 -0.1045 0.24662 0.022466 -0.066597 -0.029446 0.24803 -0.17529 -0.21513 0.14503 -0.038501 0.081548 -0.17892 -0.094696 0.032503 0.20877 -0.18583 0.037301 -0.10193 0.11018 0.41714 0.11524 -0.12791 0.58705 -0.36998 0.007087 -0.13348 0.027271 -0.2037 0.33516 0.13547 0.35604 -0.11005 -0.4242 0.30138 -0.29519 -0.032205 -0.091237 0.036524 0.27345 0.12427 0.49741 0.15367 -0.34211 -0.10393 0.20304 -0.041108 -0.040187 0.48526 0.53735 0.3641 0.18029 -0.27545 -0.11026 0.063159 -0.10083 -0.050726 0.040095 -0.20703 -0.048599 -0.35198 0.25483 -0.095553 0.40614 -0.057195 0.2237 0.018613 0.14261 -0.22206 0.37347 -0.20259 -0.019574 -0.42643 -0.0055988 0.0067836 -0.16717 -0.18734 0.030867 0.059081 -0.4038 -0.24037 -0.23646 -0.085757 0.015778 -0.08207 -0.11065 -0.034858 -0.035271 -0.13464 -0.10495 0.093418 -0.47986 -0.40687 0.43227 -0.26211 -0.015614 -0.17415 -0.29328 0.11525 0.31219 0.040801 0.40075 -0.51992 0.19938 0.31912 -0.3633 0.31569 -0.14896 0.2015 0.29336 0.099894 -0.083304 -0.27449 0.2918 -0.057452 0.25903 0.0028235 -0.33989 -0.15913 -0.24456 -0.40665 0.25254 -0.099488 -0.022105 0.02325 -0.53188 0.15963 0.015892 -0.15424 -0.63821 0.28504 0.30526 -0.0072826 0.063804 0.064672 -0.2244 -0.18318 -0.03048 -0.066505 -0.34803 -0.33582 0.27908 -0.43969 0.17 0.20201 0.0018779 -0.32758 -0.087504 -0.43894 0.062145 0.19794 -0.01363 0.15516 0.28855 -0.24894 -0.31039 0.029043 0.38245 -0.40076 -0.0010086 -0.31542 -0.044637 0.016252 -0.24792 -0.36528 0.11887 -0.23471 -0.14344 0.098488 -0.17087 -0.081457 -0.055816 0.22894 -0.4221 -0.08291 -0.0024029 0.14599 -0.42908 -0.15917 -0.53325 0.041046 -0.14035 0.52129 -0.26787 -0.029435 -0.34605 0.20402 0.036872 -0.10845 -0.021751 0.31515 -0.4624 -0.01896 0.054165 0.094699 0.28267 0.21344 0.037599 -0.011872 0.079077 0.0066792 -0.17195 0.037908 0.17983 -0.15119 -0.045897 -0.14037 -0.045755 0.34259 0.010322 -0.2551 -0.12161 -0.51682 -0.13381 0.3383 -0.0093505 -0.57647 0.24194 0.088365 0.27261 -0.40423 -0.00013959 -0.25996 -0.3481 -0.10894 0.34341 0.49297 -0.054162 -0.11391 0.011727 -0.021255 -0.24473 0.074966 -0.54283 0.29549 0.15365 0.58058 -0.14489 -0.13385 -0.095427 -0.14012 -0.098177 -0.086453 -0.28335 -0.16983 0.31759 -0.47516 0.20555 0.05827 0.068706 0.25435 0.31724 -0.090923 0.063266 -0.11692 -0.080033 0.31773 0.37813 
culver 0.33184 0.13686 -0.11904 0.12378 0.13514 0.052009 -0.03516 -0.0034727 -0.093271 -0.14322 -0.016432 -0.096239 0.22149 -0.39773 0.25459 -0.10741 0.026597 -0.31149 -0.30333 -0.11533 0.25175 0.25749 -0.049297 0.43663 -0.22294 0.040663 -0.043638 -0.2016 -0.16287 -0.15901 -0.3878 0.058197 -0.038477 0.21874 0.24525 0.24651 0.035212 -0.0035162 0.25743 -0.54013 -0.30105 -0.20047 0.33641 -0.09824 0.11359 0.18398 0.18933 0.044302 -0.068717 -0.0060377 -0.26684 0.13393 0.26126 -0.032428 -0.055213 -0.039686 0.17094 0.041976 -0.1491 0.37908 -0.10225 -0.12174 0.13818 0.096386 0.40543 -0.13341 0.0043482 0.079369 0.074807 0.34039 -0.52376 0.16192 0.24806 0.18553 -0.35907 0.29139 0.0030393 -0.16227 -0.21615 -0.39918 0.02577 0.4848 0.02449 -0.015023 -0.096408 -0.49428 -0.29282 0.0031918 -0.056313 -0.047142 0.21686 0.10744 0.12451 0.35784 -0.18402 -0.14642 -0.22076 0.10044 -0.12261 0.18433 -0.14328 -0.083662 -0.079363 0.087517 -0.31384 0.099449 0.33233 0.25319 0.099356 -0.14381 -0.11834 0.69374 -0.11466 0.225 0.51069 0.093961 0.28594 -0.14146 -0.55427 -0.078194 0.3613 -0.12722 -0.20848 -0.11288 -0.12413 -0.017617 0.43824 -0.14693 -0.092536 -0.0079891 -0.27117 0.41233 -0.1369 -0.2781 -0.34956 -0.2068 -0.076778 0.048059 -0.25538 -0.39519 -0.018225 -0.17286 -0.06376 0.24736 -0.14171 -0.091645 0.12063 0.10093 0.056258 0.23753 -0.068376 0.30825 0.50121 -0.071721 -0.35699 0.071665 -0.47768 -0.1714 -0.15616 -0.35891 -0.21336 -0.076212 -0.56189 0.25084 0.37689 0.085747 0.044623 -0.30061 0.18423 0.20043 -0.18233 -0.26316 0.12111 -0.052413 0.27523 -0.21697 0.025752 -0.070518 0.21307 -0.32713 0.20433 0.07474 0.046024 0.41815 -0.23546 -0.0092068 -0.12344 -0.43262 -0.069748 0.16623 0.020162 -0.060092 -0.040221 -0.12254 0.16364 0.26563 0.023557 -0.15115 -0.22878 -0.055951 -0.24851 -0.26019 -0.12764 -0.53866 0.016742 -0.23841 0.10037 0.032244 -0.12442 0.17905 0.21725 -0.10023 0.11458 0.12219 0.43015 0.095633 -0.25511 -0.21209 -0.30112 -0.49567 0.04871 0.21972 -0.14942 -0.090351 0.29651 -0.17155 0.098715 -0.21616 0.1064 0.19283 0.015528 0.0080183 0.25197 0.017203 0.11234 -0.22035 0.30711 -0.12643 -0.0095311 0.13781 -0.13946 0.20365 0.12336 -0.093045 -0.053625 0.10394 -0.20232 -0.032222 0.0020657 -0.14455 0.26831 -0.29457 0.0027701 -0.21094 -0.49274 -0.024998 0.08877 -0.070355 -0.12037 0.067078 -0.08712 -0.13395 -0.32806 0.16934 -0.17075 -0.18943 -0.14967 0.089741 -0.088498 -0.29585 -0.0018505 0.37394 -0.67222 -0.1499 0.37292 -0.18515 0.29169 0.06573 0.089197 -0.089748 -0.13042 -0.38481 -0.21785 -0.058871 0.038892 -0.14826 0.27377 0.18316 -0.10493 0.43884 -0.15022 0.17694 0.12057 0.19226 -0.022741 -0.033338 0.12981 0.29711 0.029687 -0.083124 
clark 0.46617 0.18758 0.20489 -0.0036372 -0.13039 -0.19298 0.24512 0.33791 0.25827 -0.16906 -0.039752 0.058628 0.043369 -0.34429 0.0058549 0.09183 -0.1567 0.082057 0.019638 -0.17177 0.055709 0.19773 -0.050582 0.16198 0.058372 -0.15215 0.42743 0.030618 -0.23303 -0.074818 -0.22167 -0.079179 -0.29181 0.1077 0.24075 0.055183 0.0064832 -0.33699 0.15793 0.054321 0.12469 -0.036227 0.30377 -0.050304 -0.14086 -0.19429 0.041508 0.28932 -0.14503 -0.0032732 -0.15087 0.14408 0.19835 0.49312 0.063131 -0.17608 0.12953 -0.038957 -0.19899 -0.03541 0.054512 0.0038259 0.27129 0.14435 -0.032026 -0.0017864 0.062234 0.086871 -0.036334 -0.0018643 -0.37602 -0.081117 0.060666 0.097144 0.10513 0.25996 0.19476 -0.28974 -0.2326 -0.12432 -0.009283 0.32325 0.48116 0.03829 0.035496 -0.34025 -0.14525 -0.017204 0.0079323 0.010507 -0.049195 -0.21468 0.06111 0.27675 -0.0038697 -0.1947 -0.078948 0.028563 -0.32391 0.059159 0.18182 -0.30523 -0.17548 0.35938 -0.17908 0.18596 -0.19672 0.011173 -0.0205 0.092706 -0.083488 0.15849 0.18003 -0.085011 0.26331 0.19162 0.11816 -0.084497 -0.054236 -0.1759 0.24335 0.013268 0.026307 -0.0067189 0.21579 0.32012 0.35752 -0.13057 -0.22387 0.12546 -0.081507 0.13424 0.1615 -0.008544 -0.52383 0.083854 -0.096535 0.1061 -0.1131 -0.018031 0.23063 -0.13252 0.095247 0.37334 0.011506 0.17936 -0.0028023 0.18444 -0.011988 0.5377 0.1206 -0.045835 0.089141 0.01812 -0.19943 0.43227 -0.11762 -0.02599 0.087002 -0.060052 -0.19681 0.16758 -0.14016 0.024635 -0.10983 0.15019 -0.074533 0.052526 -0.12464 0.19051 0.052176 -0.2875 -0.031786 0.1352 -0.157 -0.10444 0.41207 0.075544 -0.049595 0.046955 -0.011343 -0.31289 0.23722 0.16161 -0.20391 -0.22027 -0.21137 0.27866 0.048843 0.018668 0.060077 -0.11008 -0.11038 0.061865 0.10043 0.25039 -0.07755 0.073478 -0.092612 -0.22428 -0.17448 -0.23172 -0.056231 -0.21926 -0.14222 0.16164 -0.0022473 -0.18405 -0.2814 -0.0629 0.31483 -0.037923 -0.28605 -0.15704 0.14007 0.11406 0.093901 -0.11941 -0.44152 -0.20562 0.11918 -0.043101 0.047494 -0.3542 0.27652 -0.29904 -0.083002 -0.17309 0.11333 0.34318 -0.24224 0.32207 0.16371 0.10651 -0.15628 -0.2341 0.29922 0.18589 0.19636 0.26277 0.20753 -0.18055 -0.11632 0.011959 -0.032277 0.047586 -0.041229 -0.24203 -0.19249 -0.039288 -0.030829 -0.26249 0.11197 -0.25078 -0.13538 -0.093302 -0.10586 -0.29657 0.14543 -0.1416 0.12287 0.21134 -0.017955 0.14437 -0.15039 -0.52392 0.097566 0.011955 0.047476 -0.23754 -0.17314 0.30206 -0.32505 -0.13297 0.28129 -0.029568 -0.019093 -0.26543 -0.085293 -0.057836 -0.020875 -0.31167 -0.33196 -0.19298 -0.22328 -0.37947 0.18946 0.18347 -0.15281 0.17641 0.17547 0.38829 -0.093345 0.15994 0.065056 -0.076466 -0.06751 -0.20557 0.13976 -0.26474 
