conservative 0.48794 -0.17509 -0.16294 0.13169 -0.079426 -0.15853 -0.10362 0.26311 0.002247 0.053111 -0.0031046 0.1216 -0.19878 -0.28242 -0.09547 -0.17508 -0.095281 0.2511 -0.071683 -0.14237 0.16507 0.0073017 -0.22723 0.033128 0.059976 -0.076705 -0.069513 -0.17461 0.079259 -0.030068 0.10575 0.21596 -0.043771 0.23553 0.062479 0.38704 0.16777 0.048314 -0.16168 -0.27813 -0.021114 0.09426 0.048345 0.32771 0.20526 0.29255 0.18316 -0.0046991 0.013508 0.12138 -0.22996 0.10953 -0.016878 0.14718 -0.1725 -0.18194 -0.06382 0.050237 -0.32838 0.050166 0.053393 0.2007 0.16199 0.098378 -0.1092 -0.21039 0.26817 -0.064028 0.099958 0.20296 -0.23169 0.31159 -0.012698 0.2321 -0.056614 -0.11929 -0.053537 -0.16007 0.26676 -0.13952 -0.13003 0.45332 0.025531 0.10495 -0.14716 0.035284 0.10402 -0.078407 0.096776 0.15974 0.074993 -0.14994 0.038511 0.039809 -0.21748 -0.24932 0.2388 0.069939 0.080025 0.34808 -0.56333 -0.17301 0.19371 0.072334 0.062399 -0.40333 0.024813 -0.16624 0.33726 0.02157 -0.00794 0.23172 -0.0036185 -0.2764 0.053519 0.16888 0.16821 0.13104 -0.29046 0.17815 0.24211 -0.28492 -0.15788 -0.18366 0.1085 -0.061361 0.20641 0.16109 -0.11791 0.17861 -0.24183 -0.36312 0.29123 -0.094746 -0.56957 -0.025222 -0.034847 -0.0182 -0.070059 0.078737 0.11388 -0.043667 0.26062 0.24166 -0.15964 0.11446 -0.10348 -0.21942 0.2663 0.21179 0.2123 0.41188 0.14899 0.025565 0.10385 -0.073123 -0.04157 -0.14405 0.086839 -0.043384 -0.48109 0.20207 -0.26802 0.26018 -0.39147 -0.10814 0.02692 -0.10261 -0.1195 0.22857 -0.18026 -0.31319 -0.085632 0.086822 -0.033107 0.094567 -0.044911 -0.23434 0.17641 -0.30329 0.38537 0.075553 0.13811 0.46266 -0.16473 0.33778 0.065 -0.29348 -0.030575 -0.094487 -0.26121 -0.10518 0.081558 -0.080014 -0.063971 -0.20813 -0.26864 0.0071952 -0.15317 -0.45357 0.020401 0.06733 -0.076035 0.20969 -0.053798 0.10385 -0.029658 0.16787 -0.087874 -0.10435 -0.42479 -0.088382 0.0039136 -0.50837 -0.20001 -0.27592 -0.124 0.051053 -0.063811 0.29864 -0.015029 0.0065382 -0.13809 -0.075311 0.46115 -0.236 -0.094449 -0.080373 0.4077 -0.23101 0.26828 -0.10201 0.35379 -0.45259 0.14523 0.27032 0.15548 -0.077941 0.14377 0.21372 -0.053713 -0.078051 0.21581 0.027256 0.073431 0.28036 -0.042872 -0.2729 -0.30584 -0.28424 0.33203 0.066502 0.11984 0.31226 -0.0022966 0.025887 0.19359 -0.064831 -0.027743 0.044861 0.0054262 -0.1121 -0.26745 -0.26926 -0.13591 -0.094426 0.03984 0.12942 0.014225 -0.095187 -0.11519 0.6936 0.19443 0.073488 -0.0658 -0.36685 0.25115 0.22166 0.13654 -0.16175 -0.10681 0.01803 -0.0054403 0.10144 -0.26376 -0.17402 -0.08448 0.11148 -0.04631 0.22176 0.082674 0.083815 0.35051 0.1363 -0.033841 -0.11229 -0.24931 0.069089 -0.34718 0.13474 
liberal 0.37675 -0.013242 -0.27872 0.080026 0.23092 0.069094 -0.042569 0.39279 -0.096142 0.12735 0.28488 0.44456 -0.21303 -0.22573 0.10774 0.1508 -0.020136 -0.014602 -0.15089 -0.2122 0.34147 0.068623 -0.07367 0.029037 0.32099 -0.074136 -0.075596 -0.29719 -0.15361 -0.17689 0.32014 0.067405 -0.26639 0.35801 -0.047936 0.39509 -0.23827 -0.033045 0.010613 -0.17465 -0.14842 0.18397 0.097851 0.21242 0.25961 0.37025 0.21401 -0.30157 -0.012652 0.099468 -0.154 0.10756 0.030273 0.23308 -0.019488 -0.31868 0.013349 -0.21516 -0.49231 0.26156 -0.037661 0.021027 0.058963 0.030034 0.24696 -0.22851 0.25102 -0.045348 0.018633 0.19062 -0.37029 0.17404 -0.09739 0.11805 0.00049412 -0.043792 -0.074716 -0.080244 0.21964 -0.37824 0.038583 0.61371 0.02209 -0.05849 -0.013515 0.084825 0.025037 -0.29124 -0.013292 0.11487 -0.020761 -0.23776 0.065157 -0.18715 -0.23264 -0.20265 0.14805 0.18145 -0.043986 0.25059 -0.32637 -0.32521 -0.026459 0.14703 -0.077722 -0.1005 0.1822 0.041056 0.30225 -0.14918 -0.10803 0.33489 0.16481 -0.20697 0.13609 0.082173 0.133 0.031243 -0.3304 0.10494 0.27513 -0.16527 0.035457 -0.011483 0.18647 -0.09389 0.02601 -0.011857 -0.17236 0.24625 -0.13601 -0.21637 0.26558 -0.095514 -0.44624 0.016487 0.078292 -0.087215 -0.30623 0.09558 0.26874 0.031984 0.20187 0.1983 -0.25946 0.14771 -0.051876 -0.13929 0.22415 0.15777 0.13963 0.40844 -0.10105 0.060217 0.17526 0.054874 0.068281 0.2742 -0.11531 -0.21383 -0.2268 0.1267 -0.32114 0.2836 -0.37081 -0.11332 -0.0034464 -0.071292 -0.12167 0.16241 -0.30626 -0.30014 -0.29757 0.022297 0.088076 0.15207 0.060472 0.038313 0.17368 -0.22771 0.30691 -0.10058 0.15389 0.34156 -0.070645 0.08875 0.042598 -0.079068 0.054393 -0.079695 -0.12962 -0.19829 0.019263 0.095957 -0.039855 -0.21449 -0.29202 -0.055564 -0.18013 -0.34805 0.012049 0.11031 -0.002135 0.11457 0.018896 -0.00092099 -0.082729 0.29157 -0.30156 -0.11227 -0.25525 -0.15343 0.023177 -0.55194 -0.29953 -0.12169 0.046898 0.00086569 -0.18497 0.32098 0.10933 0.13704 -0.058721 -0.0066682 0.23225 0.15708 -0.11899 0.06192 0.29012 -0.069438 0.099284 0.0039943 0.36282 -0.28169 0.25078 0.25402 0.27034 -0.055394 0.0098648 0.15824 0.1789 -0.037638 0.15185 0.10385 -0.083858 0.21845 0.01138 -0.28074 -0.18833 -0.20402 0.10246 -0.04974 0.20412 0.32562 0.12079 0.12853 0.076083 -0.17928 0.01928 -0.15266 -0.029917 0.12504 -0.216 -0.074784 -0.18023 -0.061008 0.12913 -0.0013308 -0.083117 -0.20876 -0.053329 0.49103 -0.068757 -0.074713 -0.071889 -0.19262 0.16517 -0.069324 0.1873 -0.09737 0.10501 -0.054125 -0.051954 -0.13198 -0.079808 -0.20612 0.037636 0.22242 0.30939 0.23804 0.039866 0.18811 0.40581 0.04535 -0.07657 -0.14815 -0.14289 0.11296 -0.37145 0.31079 
good 0.12732 -0.3122 -0.064012 0.076736 0.13627 -0.1406 0.2316 0.011845 0.01492 -0.030841 0.24147 -0.031983 -0.28297 -0.26766 -0.14961 -0.03941 -0.064162 0.012029 0.26531 -0.45923 -0.047589 0.099345 0.12304 -0.059036 -0.016316 -0.30828 0.037401 -0.38367 -0.014837 0.11624 0.09076 0.029678 -0.20024 -0.016931 0.25177 -0.044411 -0.23686 -0.068613 0.018895 0.035804 0.16012 0.24427 0.12933 0.14385 -0.11251 0.034159 0.10006 0.15695 0.11094 0.18022 -0.062297 0.20361 0.21148 -0.037711 0.14788 -0.1032 -0.19912 0.15525 -0.13675 0.097091 0.047475 -0.087187 0.1198 0.034216 0.086015 -0.13431 0.12446 -0.20045 0.055092 0.05288 0.16659 -0.073457 0.18487 -0.079676 -0.084289 -0.38582 0.13686 0.026016 0.040238 -0.080765 0.087674 0.24381 0.15377 0.11704 0.019618 -0.11144 -0.013102 -0.010266 0.0024968 -0.091514 0.22079 0.082182 0.072787 0.081614 -0.070948 -0.20092 0.092764 0.07944 -0.41386 0.10747 0.067858 -0.026801 -0.22806 0.075561 -0.18611 -0.058728 -0.28777 0.0019145 -0.10159 -0.17679 -0.11209 0.24479 0.089817 -0.18832 0.18508 -0.0002202 0.10504 0.016923 -0.063812 0.2182 0.062895 0.093529 -0.0057053 0.30214 -0.17517 -0.25258 -0.062819 -0.0014747 -0.20603 0.047065 -0.19606 0.020942 0.033138 0.16715 -0.084798 -0.064529 -0.12443 -0.082767 0.033206 0.063055 0.050198 0.12832 0.016392 0.42555 -0.22733 -0.063647 0.031764 0.13225 -0.11561 0.0634 -0.01184 0.32608 0.2424 0.0055004 -0.18275 0.18087 -0.22648 -0.010047 -0.0059443 -0.035714 -0.34031 0.3607 -0.24149 0.24335 0.014965 -0.035645 0.069894 -0.24503 -0.05906 0.26024 -0.23676 0.10999 -0.23783 -0.097585 0.29269 -0.068858 0.21031 -0.013517 0.048137 0.078569 0.021104 -0.18868 -0.092165 0.03952 0.023449 0.038763 0.038245 0.16956 -0.19125 -0.084356 0.22766 -0.14732 0.025981 -0.02055 -0.15152 -0.30885 -0.14639 0.19439 0.11799 0.090665 -0.0076566 0.0075911 0.10947 0.14651 0.014359 -0.094709 -0.10863 -0.039407 -0.058191 -0.13826 -0.2466 -0.062787 -0.17077 -0.099676 -0.061917 -0.031087 -0.019352 -0.17467 0.17096 -0.24291 0.17306 -0.11205 -0.066437 -0.33798 0.087074 0.10311 -0.014741 -0.095886 0.10577 0.11976 0.094295 -0.10762 0.078605 -0.18362 -0.032547 0.072132 -0.081283 -0.0034062 -0.050309 0.11943 -0.16509 0.072016 0.33736 0.2027 0.23592 0.35446 -0.21573 -0.033619 -0.30622 0.16703 -0.18238 -0.10316 -0.078934 -0.042792 -0.15695 -0.11459 0.087576 -0.12546 -0.26457 0.10672 0.15502 0.064239 -0.27857 -0.012525 0.13848 -0.23072 -0.20012 0.26141 -0.057987 -0.075395 0.0017641 0.03032 0.030987 -0.23878 0.086263 0.0064494 0.11275 -0.057973 -0.083877 0.052375 0.1436 0.0058142 -0.25819 0.16292 0.088494 -0.026746 -0.2265 0.21954 0.089725 -0.015685 -0.29595 0.063835 0.078334 0.20595 0.12022 0.069041 0.13356 -0.12257 0.13822 -0.09962 
bad 0.093227 -0.27331 -0.14636 -0.0041602 0.076535 -0.083565 0.19811 -0.22438 -0.12619 -0.11824 0.20762 0.057139 -0.50999 -0.20021 -0.14684 -0.12954 -0.013295 -0.013412 0.093809 -0.28052 -0.13088 0.012207 0.11714 0.056996 0.18982 -0.36322 0.19225 -0.30031 0.14769 0.053168 0.17822 -0.076323 -0.17059 -0.036952 0.14032 -0.095317 -0.45085 0.13576 -0.0086633 0.15456 0.13618 0.23641 -0.022952 0.067833 -0.014188 0.018982 0.019587 0.30819 0.21793 0.21575 0.070611 0.23149 0.23956 0.069105 -0.040043 0.082055 0.0033754 0.025127 -0.076187 -0.12435 0.025242 -0.11407 0.17113 0.036906 0.039047 -0.044282 0.11746 -0.21771 0.20733 0.037972 0.17481 -0.16245 0.12711 -0.15396 -0.14486 -0.25951 0.070971 0.14049 0.070044 0.075903 -0.091927 0.29972 0.18848 0.080223 0.033457 -0.30957 -0.17234 -0.011774 -0.071526 -0.10694 0.21759 0.036778 -0.083367 -0.012647 -0.16312 -0.25567 0.25959 0.010174 -0.27097 0.064541 0.12138 -0.019782 -0.25332 0.12639 -0.28327 -0.032762 -0.21985 -0.040381 0.031842 -0.11332 -0.13085 0.15661 0.15577 -0.13359 0.1643 -0.12813 0.080932 0.1241 -0.27145 0.16843 0.021876 0.045027 0.018269 0.53986 -0.13711 -0.36826 -0.010712 -0.032718 -0.23764 0.17321 -0.23145 0.097907 0.032625 -0.0567 -0.062282 0.084906 -0.14767 -0.12274 -0.046644 0.3025 0.034861 0.13394 0.22036 0.41884 -0.08612 -0.061308 0.11661 -0.037677 -0.12359 -0.21201 0.062029 0.23572 0.36619 -0.037225 -0.048997 0.03301 -0.25844 -0.049842 0.1762 -0.028736 -0.088563 0.41415 -0.22439 0.27106 -0.020596 0.020805 -0.053385 -0.26034 0.070138 0.026254 -0.35203 0.15572 -0.1053 -0.1308 0.27378 0.037806 0.18487 -0.10974 0.23073 0.20479 0.26881 -0.18928 -0.032871 0.13454 -0.097741 0.066626 0.10693 0.11026 0.15404 -0.15479 0.18452 0.0060757 0.071387 -0.087743 0.030474 -0.31451 -0.075574 0.1946 -0.067806 0.14555 -0.048597 -0.028673 0.11557 -0.13846 -0.058252 0.065394 -0.1419 0.26579 -0.13857 -0.41454 -0.020923 -0.19673 -0.10696 -0.067136 0.0021212 -0.037593 -0.12256 -0.093035 0.10348 -0.22607 0.087914 -0.03927 0.022055 -0.21847 0.24633 0.27975 -0.097913 -0.1848 -0.047205 -0.032759 -0.046382 -0.17905 0.028267 -0.10863 0.0961 -0.020821 -0.083384 -0.1269 -0.18647 0.072575 0.046405 -0.034471 0.43965 0.30218 0.20974 0.18552 -0.28126 -0.10731 -0.2783 0.12675 -0.18958 -0.37486 -0.078818 -0.18475 -0.029318 -0.11458 0.18017 -0.10234 -0.36458 -0.11093 0.020282 0.10417 -0.19284 0.084859 0.0054547 -0.28458 -0.2092 0.19376 -0.10408 -0.17532 -0.10059 -0.0066804 0.20678 -0.3537 0.084331 -0.01566 0.010431 -0.024949 -0.2196 0.10035 0.15748 0.12709 -0.28199 0.013731 -0.038418 -0.12479 -0.21033 0.052231 0.047352 -0.0061358 -0.26093 0.049536 0.3067 0.12243 0.062839 0.1193 -0.029012 -0.057225 0.18313 -0.16475 
reagan 0.08443 -0.016176 -0.13944 0.43822 -0.15527 -0.23402 -0.094736 0.071102 0.15562 0.18764 -0.28991 -0.19367 0.12413 -0.17097 0.099621 -0.11202 -0.10745 -0.018686 -0.090338 -0.11524 -0.014602 0.25587 0.20887 0.14708 -0.19745 -0.076553 0.05793 -0.13509 -0.22586 0.12606 0.0090996 -0.014939 -0.23816 0.087837 0.30973 0.010553 0.096312 -0.19925 -0.040974 -0.29652 -0.016645 0.11893 0.068748 0.051291 0.2385 -0.15327 0.21797 -0.0010236 0.045444 0.28617 -0.029244 0.22026 0.26485 -0.073912 -0.28929 -0.0010002 -0.35807 -0.097069 0.092349 0.031974 -0.10082 0.085795 0.10475 0.050192 -0.10567 0.10952 0.19647 0.016127 -0.17844 0.42051 -0.2612 0.18507 -0.088392 0.03392 -0.14722 -0.14139 0.044775 -0.22035 -0.27117 0.06826 -0.026734 0.081212 0.33146 -0.051691 0.13116 -0.25772 0.2241 -0.085438 -0.46141 -0.16573 0.044191 0.12205 0.54151 0.11867 -0.1367 -0.21766 0.16136 0.061737 -0.17011 0.36172 -0.03714 0.089007 0.0030016 0.12122 -0.18558 0.25838 -0.10145 0.18652 0.072928 -0.01614 -0.066251 0.40388 -0.16511 -0.069545 0.1772 0.17241 0.081192 0.3412 -0.1654 0.13957 0.046398 -0.2152 -0.28544 -0.093672 0.023258 0.11974 -0.15711 -0.089609 -0.087614 -0.34591 -0.03636 -0.0093674 0.15191 -0.18078 -0.4464 0.16651 -0.13677 0.21799 0.16864 -0.027728 -0.22963 0.28669 -0.030036 0.46405 -0.12224 0.091555 0.060291 0.17472 0.25765 0.011264 -0.075064 0.10703 0.17219 0.16543 -0.01458 0.049156 0.0065741 -0.026832 -0.015966 0.25352 -0.1913 0.084679 -0.13221 0.5642 -0.27622 -0.36119 -0.13505 -0.0085606 0.10326 0.013388 0.021949 -0.31018 0.2602 0.23908 0.001638 -0.11599 -0.075976 -0.090768 -0.060032 -0.18509 0.32539 -0.2609 -0.17921 0.29898 -0.18041 0.33354 -0.21935 0.083964 0.10084 -0.11845 0.091063 0.014912 0.28961 -0.13352 0.10114 0.23464 -0.2793 -0.03121 -0.14948 -0.18761 0.0073205 0.14502 0.17906 -0.035587 -0.22313 0.14844 0.041848 0.068399 -0.031138 -0.29874 0.003245 -0.31957 -0.011554 -0.1446 0.26072 -0.003573 0.072012 0.058649 -0.059364 -0.10594 0.07346 0.29723 -0.31373 -0.016062 0.29915 -0.235 0.030497 -0.25424 -0.034364 0.085761 -0.044655 0.03703 0.085918 -0.15126 -0.05452 0.2042 0.19231 0.12617 0.24364 -0.0036826 0.20606 0.066936 0.20633 0.073563 0.083387 0.050973 -0.082403 -0.028804 -0.3176 -0.35188 0.1512 -0.15876 0.070581 0.085565 -0.15475 -0.21295 0.21044 -0.032922 -0.13063 0.011141 -0.15038 0.36624 -0.13703 -0.15322 0.078217 0.013318 0.14974 0.18092 0.010915 0.22388 -0.19262 0.36243 -0.1479 -0.23657 0.057644 -0.2199 -0.30303 -0.066016 0.18579 -0.07861 -0.15901 0.084556 -0.2664 -0.15118 0.0567 -0.29678 0.070922 -0.019692 -0.26682 0.27667 0.065657 -0.086358 0.16399 -0.086167 0.12984 -0.004486 0.28268 0.009509 -0.041823 0.16267 
heflin 0.20884 0.10154 0.08564 -0.04993 -0.18159 -0.45809 -0.44 -0.21872 -0.0083716 0.055007 0.28797 0.073703 -0.080885 -0.21124 -0.043502 -0.36853 -0.06355 0.25793 0.11554 -0.085344 0.15725 0.13977 0.19929 0.41065 -0.18423 -0.00065087 -0.084211 -0.0067808 -0.069093 0.11606 -0.1557 0.23411 -0.27884 0.17064 0.19432 -0.074502 -0.0027294 0.099265 -0.02856 -0.10995 -0.1928 -0.18563 0.51273 0.27292 -0.27261 0.92598 0.24993 -0.058021 0.33587 -0.22375 -0.21328 0.44815 0.54228 0.019741 -0.26021 -0.29339 -0.38762 -0.011487 0.090149 0.27923 -0.042569 -0.26526 0.27475 -0.13683 0.28046 0.22591 0.084927 0.012698 0.097673 0.002468 -0.15779 0.49855 0.21409 0.179 0.0084094 0.29868 0.18948 -0.092369 0.23734 -0.4666 0.52833 0.52936 0.33586 0.13001 0.071244 -0.23493 -0.19409 0.14764 0.42768 -0.074573 0.36001 0.26394 0.17349 0.16452 -0.27695 -0.15656 -0.016001 0.21847 0.036973 0.59765 0.0958 0.084652 -0.29189 -0.19559 -0.020417 0.36467 0.088241 0.1487 0.022284 -0.11177 -0.15439 0.15225 0.13306 0.12086 -0.079535 -0.0256 -0.030969 -0.4486 -0.076263 0.071979 0.67439 -0.0060107 -0.017787 0.17424 -0.18073 -0.26879 -0.059304 -0.15895 0.36038 -0.40399 -0.2252 -0.030645 -0.18557 -0.38719 -0.25596 0.016316 0.093379 -0.021497 0.098182 -0.32947 0.11231 0.26704 0.4015 0.15248 0.0191 -0.14761 0.27065 -0.35679 0.043024 0.2232 -0.088028 0.49818 -0.26591 -0.28393 0.052805 0.38147 -0.26015 0.046215 0.01065 -0.30391 0.050139 0.0099826 -0.48356 -0.11109 -0.19821 -0.3981 -0.089997 -0.35804 0.52493 0.37109 -0.24752 -0.46926 0.050908 0.065843 -0.12407 0.059632 -0.42223 -0.11852 -0.36021 0.023547 0.52923 -0.25111 -0.012713 0.48472 -0.47551 -0.18808 0.2665 -0.052 -0.23604 -0.26116 -0.012453 -0.12434 -0.054607 0.44149 -0.18078 0.57716 0.068743 0.064372 0.09957 -0.13954 -0.61657 0.079622 -0.16924 -0.60272 0.20785 -0.020316 -0.31142 0.26035 0.038807 -0.14113 -0.10364 -0.061413 0.25326 -0.10671 -0.11557 0.0083719 0.043062 -0.2486 -0.19416 -0.4426 0.026419 0.057869 -0.076269 -0.11448 0.96237 -0.50722 0.26731 -0.40506 0.13856 0.41945 0.15239 0.28222 0.50568 -0.13867 0.2264 0.08158 0.025187 -0.08172 0.0031561 -0.61158 0.21511 0.15338 -0.23967 -0.58216 -0.081107 0.17603 -0.06039 -0.04787 0.073467 -0.52969 0.030299 0.13624 -0.0061784 -0.35341 -0.71053 -0.061124 -0.12351 0.048535 -0.42745 0.06112 0.014334 -0.21221 -0.4809 0.31126 -0.47413 -0.47274 -0.19134 0.38902 -0.002955 0.11491 -0.25582 0.44899 -0.15837 -0.22811 0.38832 -0.28002 0.026774 -0.092468 0.10765 -0.64132 -0.21262 -0.034625 0.30694 -0.059894 0.043593 0.36205 0.35266 0.36054 -0.25783 0.47645 0.65811 0.52139 0.34817 0.40577 0.12059 0.22795 -0.46004 0.25097 0.057624 0.085381 
denton 0.23746 -0.082273 -0.19539 0.17273 0.35439 -0.6404 -0.1163 -0.029947 0.16482 -0.0609 -0.04135 -0.084275 -0.017813 -0.60785 0.026289 -0.13069 -0.060073 0.18617 -0.089189 -0.064781 0.22786 0.048544 0.06856 0.18033 0.15803 0.049327 -0.12118 0.062906 0.16305 0.077491 -0.22056 0.075026 0.12407 -0.18218 -0.16838 0.078759 0.40569 0.020197 0.015104 -0.15864 0.33299 -0.087949 0.52267 0.2342 -0.23716 0.15418 0.283 0.32698 0.3234 -0.22127 -0.28067 0.15815 0.16866 0.021657 -0.25879 0.18706 -0.11745 -0.17113 0.010094 0.34945 -0.17568 -0.38192 0.35983 -0.084667 -0.10466 -0.1009 0.46564 0.09248 -0.26882 0.25893 -0.31168 -0.0175 0.29641 0.18775 0.11246 -0.14866 0.070049 -0.077433 0.0058511 0.1278 0.15193 0.079357 0.0040524 -0.077684 0.16314 -0.27024 -0.30422 0.25182 0.020055 0.16316 -0.088501 -0.077024 0.24792 0.0040493 -0.18822 -0.40564 0.38599 0.20278 0.066909 0.31077 0.17408 0.10283 0.00021817 0.47168 -0.010373 -0.1516 0.035806 -0.061854 -0.086568 -0.011322 -0.05583 0.12784 0.0079416 0.23622 0.23444 -0.10804 -0.020867 -0.097584 -0.039776 0.15895 0.31093 -0.19652 -0.39748 -0.020018 -0.18722 0.0079991 0.38622 0.15307 0.010781 -0.022271 -0.16774 -0.22879 -0.17158 -0.10239 -0.10041 -0.029559 -0.41557 0.0062629 0.42967 -0.11527 0.22052 0.064942 0.24028 0.0625 -0.26529 -0.29333 -0.057689 0.12506 0.069346 -0.090865 0.12442 0.15049 0.10314 0.085587 -0.51053 0.2106 -0.056043 -0.17031 -0.18806 -0.11494 -0.044626 0.22111 -0.04814 0.1613 -0.067973 -0.2046 -0.34152 -0.20434 0.1107 0.062092 -0.015747 -0.39499 -0.15657 0.43214 -0.10088 -0.12669 0.30291 -0.069589 0.016403 0.068166 0.62477 -0.17718 0.45007 0.38792 -0.065544 -0.015576 0.13407 -0.15738 -0.15899 0.055471 -0.0043796 -0.0067183 -0.39082 0.16948 -0.10136 0.36259 -0.4216 0.068404 0.086138 -0.043546 -0.33168 -0.058518 -0.091543 -0.18865 -0.0026036 -0.065641 -0.11169 0.20229 0.038797 0.017687 0.36334 -0.055858 -0.37731 -0.31768 0.1392 -0.1579 -0.16603 -0.047522 -0.11331 -0.34178 0.078131 -0.04039 0.028838 -0.2382 0.73802 -0.25862 0.11271 0.011398 0.45142 0.077431 0.31593 0.23019 0.1295 -0.15787 0.36244 -0.33798 0.14283 -0.060566 -0.18205 -0.15596 -0.058457 0.25299 -0.14501 -0.2775 0.063566 -0.20402 -0.13007 -0.17207 -0.35958 -0.1466 0.11725 -0.1519 -0.25574 -0.10114 -0.075322 -0.18243 -0.16864 0.065183 -0.47144 -0.061672 -0.18362 0.53028 -0.24165 0.33434 -0.10735 -0.60615 0.26362 0.38129 0.12774 -0.044042 -0.26215 0.30303 -0.099942 -0.27072 0.53444 -0.13788 -0.23311 0.18335 0.00516 0.027029 -0.3713 0.14375 -0.2389 -0.20632 0.16228 0.18034 0.25592 -0.26062 -0.40757 0.44132 0.010135 0.31568 0.23757 -0.091123 0.18488 0.18288 -0.30382 0.27449 -0.096655 0.19006 
stevens 0.16717 -0.12342 0.021616 0.27099 -0.11012 -0.44793 -0.026858 0.30682 0.026004 0.17081 -0.015504 0.058044 -0.19606 -0.040064 -0.23585 -0.098341 -0.19339 0.075646 -0.15863 -0.12825 -0.33646 0.00037767 0.048495 0.063076 0.082488 -0.32791 0.012448 0.14486 -0.44779 0.0028205 0.29935 0.037473 0.14205 0.060734 0.19221 -0.070671 0.19143 -0.051736 -0.033342 -0.16189 -0.43441 -0.024198 0.37075 0.096623 0.077598 0.24736 0.29315 -0.21216 0.18615 -0.03265 -0.31891 0.10067 0.2445 0.067774 0.18982 -0.064303 -0.16965 -0.1006 0.27477 0.24588 0.052201 0.040881 -0.081318 -0.010419 0.65336 0.14798 -0.062367 0.058105 0.022479 0.33263 -0.13472 -0.10981 0.21123 0.15149 -0.07794 0.1264 0.14316 -0.39346 -0.1689 -0.30727 0.18938 0.12867 0.48593 0.38607 0.012122 -0.37497 -0.40123 0.013891 0.212 -0.011155 0.51824 0.1675 0.49405 -0.17391 -0.22305 -0.27748 -0.17999 0.13834 -0.25813 0.0075586 -0.021183 -0.3062 -0.097562 0.48708 -0.14002 -0.14197 0.08942 -0.14758 -0.027478 0.05909 -0.14102 -0.13743 -0.09546 0.030605 0.095248 -0.050221 -0.031947 -0.07346 0.018053 0.2482 0.25306 -0.020078 -0.14199 -0.048349 0.15278 -0.21898 0.28017 0.28786 -0.28422 0.074828 -0.23729 -0.056533 -0.0096905 -0.17891 -0.39531 0.039232 -0.18646 -0.23817 -0.15987 0.07937 0.33587 0.10813 0.24399 0.40942 -0.19072 -0.14301 0.40789 -0.019719 -0.037211 0.10867 -0.14376 0.23596 -0.090714 -0.10319 -0.2178 0.30691 -0.23938 -0.061298 -0.084229 -0.17129 0.038337 -0.11958 -0.28809 0.30547 -0.14493 -0.062572 -0.13635 -0.57083 -0.098597 0.26785 -0.219 -0.14353 0.20438 -0.03121 -0.078079 -0.19714 0.13313 -0.10164 0.080342 -0.10095 -0.18888 0.031684 0.14637 0.34906 -0.33019 -0.32618 0.0024225 0.012973 0.27848 -0.062315 -0.064149 -0.53703 0.013831 0.068421 -0.079273 0.098668 0.16483 -0.45592 -0.17752 -0.077958 -0.16576 0.097502 -0.41516 -0.10553 0.030594 0.18001 0.17889 0.13544 0.062366 -0.14726 0.12531 -0.39346 -0.045338 0.20975 0.080685 0.075455 0.18795 0.19963 -0.10991 0.068805 0.18407 -0.36931 -0.26639 -0.078013 0.69696 -0.48033 -0.027205 0.12383 0.065522 0.38268 0.1873 0.34433 0.036283 -0.22963 0.082643 -0.15881 0.1913 -0.12485 -0.33804 0.054906 0.050755 0.16306 0.23695 -0.074727 0.24717 -0.024025 -0.1172 -0.12503 0.39325 -0.27584 -0.11011 -0.17271 0.17512 -0.19825 -0.51187 0.14899 -0.18664 -0.018399 0.059953 0.10576 -0.34596 0.27205 -0.19172 0.1727 -0.4757 -0.28483 0.020261 -0.27541 0.02183 -0.087325 -0.25174 0.07515 -0.3695 -0.24264 0.35882 -0.18247 -0.087025 0.24183 0.18051 0.19657 0.30962 -0.25336 0.06819 -0.43293 -0.25201 -0.050262 -0.13546 0.13012 -0.080691 0.14008 0.25896 0.10046 -0.020111 0.0083562 0.13335 0.015414 -0.28232 -0.089383 0.10941 -0.15986 
murkowski 0.15253 -0.12159 -0.14782 0.12391 0.12907 -0.32256 0.076404 0.14616 0.23483 0.63654 0.24277 -0.1541 -0.0047609 0.2513 -0.70279 0.076774 0.32072 0.01241 -0.58625 -0.64422 0.13289 0.31664 -0.02556 0.10887 -0.16458 -0.27547 0.1215 -0.013575 -0.12496 -0.25547 -0.41852 -0.1166 0.015614 0.2284 0.24706 -0.30688 0.25036 -0.34164 0.25489 0.096093 -0.33856 0.34532 0.46285 0.080819 -0.029452 0.2183 0.5616 0.31339 0.46108 -0.049196 -0.38565 0.42877 -0.11057 -0.10758 -0.27388 -0.30465 -0.32868 0.19677 0.2247 0.32863 0.068644 -0.20423 -0.063413 0.10397 0.04538 0.3189 -0.33806 0.18079 0.25245 0.14148 -0.4856 -0.23927 0.36342 0.099503 -0.060233 -0.0025125 0.038448 -0.29671 0.087666 -0.16552 0.49519 0.0072191 0.16262 0.1299 -0.11921 -0.36743 -0.10778 0.0080988 0.38605 0.26326 0.22597 0.18099 0.071711 -0.3804 -0.39974 -0.24828 -0.068887 0.13858 5.5234e-05 0.1677 0.060242 -0.10102 -0.018262 0.3522 -0.48257 -0.12435 0.28074 -0.13179 -0.14541 -0.17337 -0.23499 -0.081535 -0.12202 0.40816 -0.40196 -0.12393 0.15932 -0.26221 0.05528 -0.25596 0.10587 -0.06984 -0.021221 -0.24698 -0.018249 -0.099704 0.31507 0.26598 0.26688 0.12456 -0.17952 -0.036965 -0.23924 -0.15958 -0.27114 0.21076 -0.079013 -0.31546 -0.1118 0.029328 0.43134 0.28009 0.19468 0.41032 -0.27572 0.050129 0.22503 0.091667 0.38475 -0.075494 -0.00057495 0.74954 0.17264 0.086145 -0.63601 0.0075174 -0.39308 0.16478 -0.37005 -0.3568 -0.0022409 -0.30665 -0.80332 0.23185 -0.1371 -0.18723 0.23181 -0.93219 0.0076786 0.31108 -0.086724 -0.35601 0.26585 0.50142 0.089486 -0.26214 0.34049 0.052719 -0.1317 -0.24445 0.090033 0.024421 0.22625 0.21279 -0.3142 0.16832 0.0067956 -0.34355 0.12317 -0.26564 -0.053397 -0.18845 0.15816 0.27541 -0.040053 0.18999 0.26624 -0.23802 0.075801 0.075719 -0.58193 0.072248 -0.017812 -0.20355 -0.02037 -0.40344 0.02177 0.11235 -0.14689 -0.012121 0.065453 -0.55586 -0.12462 0.10862 0.27245 0.21705 -0.013868 0.11195 -0.17642 0.14239 -0.15079 -0.17495 0.57379 -0.41198 0.70064 -0.49197 -0.17318 0.18687 -0.031563 0.53969 0.1418 0.06191 0.019112 0.13473 -0.0063191 0.15034 0.10596 -0.2796 -0.24845 0.045699 0.20763 -0.026291 0.12177 -0.10077 0.18358 0.13565 0.031825 0.096168 0.29164 -0.074591 0.039539 -0.30358 -0.19273 -0.17474 -0.56859 0.046513 -0.11938 -0.39352 -0.15314 -0.13088 0.1971 0.26127 0.0058595 0.35332 -0.68593 -0.35488 0.053627 0.10426 0.4882 -0.17319 -0.17939 -0.085271 -0.40495 -0.20786 0.080084 -0.40101 -0.34792 -0.17941 0.64347 0.12833 0.22163 -0.39282 0.015177 -0.072527 -0.02075 -0.35271 -0.06742 0.1683 -0.6247 0.063265 0.30079 -0.063439 -0.12154 0.025229 0.25546 0.31854 0.058181 0.26197 -0.018321 -0.1499 
goldwater 0.31795 -0.036406 -0.11813 0.61525 -0.13854 -0.051006 -0.23488 -0.31659 -0.13293 0.040148 -0.071795 0.034024 0.16882 -0.1277 0.32234 -0.12113 -0.065422 -0.16191 -0.36002 -0.15867 0.01335 0.29205 0.1134 0.53051 -0.041956 0.35562 0.25033 0.15673 0.073423 0.30794 -0.0090803 0.31625 -0.21516 -0.021423 0.37188 -0.17513 0.081586 -0.12713 0.099681 -0.18275 -0.38409 -0.1939 0.46299 0.50725 -0.1925 -0.099194 0.12896 -0.063197 0.075607 -0.19514 -0.14637 -0.062334 0.097457 0.39123 -0.27735 -0.2715 -0.15316 -0.016855 -0.26401 -0.12247 -0.2591 0.11242 0.21288 -0.052997 -0.28031 0.16865 -0.066137 0.10897 0.041027 -0.001884 -0.60134 0.43624 0.37289 0.46649 0.30165 0.07761 -0.12823 -0.42563 0.085517 -0.24816 0.075461 0.43192 -0.081021 -0.094807 0.015379 -0.56553 0.11742 0.0036606 -0.35467 -0.012762 0.033577 -0.052676 0.38916 0.17724 -0.011105 -0.29024 0.058447 -0.10331 -0.17108 0.28939 0.031731 -0.058282 -0.24554 0.30365 -0.45579 0.25448 -0.039858 0.24529 -0.073722 -0.01322 0.28038 0.070203 -0.10354 0.028949 0.18514 -0.18957 -0.12807 0.0055458 -0.44272 0.48764 0.12485 -0.58634 -0.33128 -0.19853 0.25509 -0.43286 -0.01929 -0.14401 0.34168 0.038333 -0.443 -0.0069545 0.19992 -0.31251 -0.2894 -0.14468 -0.34012 0.058054 0.020403 -0.20064 0.17419 0.23738 0.40843 0.45067 -0.10084 0.064904 0.35616 -0.0098503 -0.082542 0.2392 -0.040134 0.37765 0.12317 0.004363 -0.14355 0.33575 -0.41882 -0.23914 0.10082 -0.08026 -0.26178 0.32066 -0.25804 0.25279 -0.22033 -0.55619 0.098455 -0.3719 0.26963 0.1225 0.24051 -0.14348 0.36 0.39786 0.015141 0.05879 -0.018544 -0.32745 -0.091224 0.24146 0.33234 -0.24119 0.0012414 0.46289 -0.12271 0.37929 -0.18143 -0.27887 -0.084775 -0.13392 -0.05824 -0.12493 0.18522 0.038118 0.14312 -0.031909 -0.22862 0.12651 -0.094091 -0.061916 -0.11336 -0.13704 -0.24423 0.17479 -0.097091 -0.072351 -0.16998 0.39884 0.32307 -0.093711 0.15077 -0.2671 -0.14602 0.01619 -0.087367 -0.14755 -0.22887 -0.056886 -0.093569 -0.13601 0.14729 -0.097254 0.090485 -0.13987 0.58687 -0.35119 -0.013884 0.22037 -0.12563 -0.016831 0.059936 0.14781 0.56553 -0.052254 -0.10232 -0.06094 0.22972 0.12192 0.37368 0.13356 -0.13552 0.22177 -0.062986 -0.46817 -0.066486 0.028016 -0.18476 -0.24201 -0.075088 -0.35965 0.30359 -0.073732 0.064065 0.12736 -0.29076 0.057328 0.68292 -0.38656 0.091851 -0.10678 -0.029351 0.11624 -0.24691 -0.37727 -0.3202 -0.11454 0.14211 0.29416 0.322 -0.011976 -0.30795 0.36833 -0.51473 -0.234 -0.032434 -0.53598 -0.12117 0.13295 -0.21165 -0.18595 -0.048609 0.10764 -0.11602 -0.082827 -0.10941 -0.10592 -0.17176 0.2665 -0.072592 0.43202 0.19886 0.60234 0.037197 0.066374 0.12472 0.0037026 -0.44868 0.152 -0.026609 -0.08248 
deconcini -0.17073 -0.16053 -0.23197 0.1388 -0.41175 -0.031219 -0.26048 0.11612 0.15164 0.26668 0.24175 -0.060059 0.12512 -0.18775 -0.3455 -0.10569 -0.18914 -0.2399 -0.25256 -0.37832 0.13955 0.15856 0.045122 0.44596 -0.14551 -0.60006 -0.032353 0.29613 0.091088 0.26847 -0.3184 0.38632 0.092549 0.34287 0.17158 -0.28711 0.22569 0.081008 -0.19133 -0.12867 -0.38149 -0.091837 0.35699 0.55459 -0.068288 0.25849 0.13219 0.054327 0.43704 -0.14366 -0.11071 0.10659 0.53665 -0.1936 -0.32639 0.097604 -0.2157 -0.025797 0.015255 0.29021 -0.029915 -0.19505 0.31156 -0.25626 0.59727 0.22068 -0.069417 0.052813 -0.01584 0.18544 -0.49373 0.037627 0.28684 0.25274 -0.28047 0.060913 0.20303 0.033013 0.19189 0.19267 0.26209 0.34106 0.19001 0.20272 0.084148 -0.35456 -0.1813 -0.24188 0.13901 0.16853 0.19006 -0.014383 0.23976 0.28968 -0.21773 -0.077149 0.29468 0.081311 -0.040766 0.34004 0.15674 -0.045428 -0.46477 0.15924 0.16334 0.3412 0.25856 -0.034809 -0.41059 0.12463 -0.4432 0.05625 -0.060819 0.16134 0.17254 0.3756 0.086201 -0.28331 -0.35978 0.027387 0.59665 -0.30468 -0.18375 -0.11998 -0.01101 -0.37453 0.22282 -0.20258 0.303 -0.18001 -0.29918 -0.26572 -0.049109 -0.36964 -0.029333 -0.3457 0.23722 0.049371 0.12837 -0.42752 0.013707 0.51458 0.3481 0.060355 0.17743 0.28662 0.26895 -0.30499 0.11735 0.020727 -0.25737 0.44417 0.14807 -0.22566 0.094873 0.21835 0.092482 -0.24449 -0.1471 -0.060529 0.11783 0.12165 -0.50486 0.034475 -0.051206 -0.38087 0.075837 -0.5289 0.38003 0.31542 -0.033797 -0.40013 0.32491 0.45088 0.38116 -0.02156 -0.24553 -0.25404 -0.26728 0.041203 0.19708 -0.076133 -0.24919 0.31285 -0.64346 -0.25448 0.097508 -0.14757 0.052327 -0.075739 0.0083121 -0.031843 0.17174 0.26934 -0.13499 0.1629 -0.31451 -0.18622 0.25667 0.081599 -0.27742 -0.41792 -0.14069 -0.05777 0.11611 -0.36449 -0.101 0.46418 -0.32715 0.093941 0.038065 -0.26725 0.045142 0.25808 0.040561 0.037 -0.092781 0.1342 0.059713 -0.32767 0.05725 0.07886 -0.29516 0.030336 -0.0028402 -0.4994 0.11114 -0.16297 0.2116 0.10639 0.17028 0.11789 0.36947 0.0048215 0.09815 -0.10995 -0.16466 0.11095 0.017634 -0.1934 0.45145 0.09235 -0.34402 -0.3086 -0.26453 0.45095 0.012518 -0.10437 -0.076442 -0.21599 -0.041587 -0.029479 -0.18601 -0.20876 -0.57557 0.073303 0.16545 -0.242 -0.23516 -0.075151 -0.53372 0.21311 0.013788 0.28995 -0.26436 -0.31138 -0.21155 0.027715 -0.04605 -0.044012 -0.085594 0.25443 -0.38254 -0.53078 0.24616 -0.47501 -0.29411 -0.038631 0.46925 0.0066378 0.061119 0.1084 0.067164 -0.42319 -0.071149 -0.0080647 0.00017758 0.36744 -0.24861 0.25078 0.43395 0.29243 0.19981 -0.082587 0.18134 0.36934 -0.23917 0.034692 -0.31974 0.41502 
pryor 0.018142 0.072001 0.071118 0.1514 0.47131 -0.5279 -0.1509 -0.16717 -0.15432 0.059852 0.043051 0.019838 -0.026082 -0.38202 -0.18647 -0.039163 -0.32373 0.3814 0.045574 -0.21474 -0.042534 -0.19791 -0.10297 0.26366 -0.077316 -0.093141 -0.12483 0.025637 0.065041 0.17371 -0.00019276 0.072991 0.14478 -0.0019112 0.20595 0.11702 0.035682 0.051895 -0.059975 -0.059747 -0.35061 0.11119 0.23388 0.30903 -0.095851 0.20316 0.26586 -0.26174 0.36249 0.25465 -0.11807 0.016376 0.0030793 0.027421 -0.05105 -0.24374 -0.15794 0.082967 -0.087874 0.049403 -0.12306 -0.25835 0.46899 -0.20158 0.43105 -0.11409 -0.14027 0.28555 -0.28518 -0.001327 -0.21067 -0.063701 0.25235 0.28651 0.049866 0.15041 0.39515 -0.45198 0.010332 -0.06028 0.23477 0.31038 -0.023428 0.16179 0.13628 -0.11531 -0.16534 0.033659 0.31639 0.27215 0.13135 0.062673 0.48754 -0.14522 -0.26754 -0.10315 -0.013165 0.27846 -0.1209 0.36556 -0.16333 -0.13404 0.064743 0.051316 -0.20818 0.040171 0.26047 7.9437e-05 -0.18083 0.22379 -0.13757 0.18307 -0.21022 0.14423 0.22201 0.046289 0.13655 -0.35627 -0.13507 0.27395 0.4389 -0.069097 -0.1336 0.27633 -0.27631 -0.28892 0.33224 -0.17912 0.27028 0.034749 -0.1966 0.020331 0.095862 -0.087614 -0.4433 0.21872 -0.14667 0.025127 0.022479 0.2819 0.26521 0.21798 0.25717 -0.0020968 0.15152 -0.16328 0.37814 -0.18259 0.15241 0.038896 0.017476 0.60348 -0.32844 0.38132 -0.62456 0.023937 -0.1395 0.28122 -0.18591 -0.14652 -0.096296 0.018561 -0.22749 0.24166 -0.087534 -0.18767 -0.19375 -0.22615 -0.04216 0.37786 0.12039 -0.15149 0.12484 0.17057 -0.26881 -0.050426 -0.10569 -0.18552 -0.11982 -0.10182 0.19901 -0.20651 -0.13588 0.63547 -0.5283 -0.38727 0.17522 -0.0018373 0.051698 -0.05506 -0.0052621 -0.30989 -0.37028 -0.15955 -0.21149 0.11905 0.12747 -0.14133 0.20431 -0.35576 -0.14719 0.073908 -0.061003 -0.4099 0.28538 -0.10194 -0.24016 0.26149 -0.15787 0.26839 -0.17618 -0.24932 -0.10542 0.25817 0.37843 -0.010209 -0.14377 -0.0077291 -0.34096 -0.16069 -0.074672 -0.023638 -0.057374 -0.24361 0.5969 -0.19378 0.019472 -0.13843 0.045889 0.45197 0.12807 0.49709 0.51696 -0.16004 0.024353 0.23918 0.39921 0.13081 0.0081081 -0.13704 0.097647 0.1902 0.19253 -0.11727 -0.32169 0.03494 -0.11144 0.21198 -0.037695 -0.28966 0.22329 0.083549 -0.088982 -0.032797 -0.38676 -0.021574 0.097056 0.014167 0.10874 -0.036304 -0.040216 0.28445 -0.042041 0.17396 -0.39266 -0.42655 -0.16341 0.29589 0.31398 -0.39923 0.0034502 0.16423 -0.17069 -0.56352 0.19228 -0.54131 -0.32316 -0.075356 0.40205 -0.10609 0.073063 -0.16022 0.047797 0.12228 0.21535 0.28882 -0.15422 0.188 -0.51768 0.47167 0.27767 0.085558 0.047372 -0.18371 0.12772 0.091277 -0.10978 0.20139 0.13394 -0.13589 
bumpers 0.034241 0.046645 0.021326 -0.27318 0.056443 -0.17034 -0.12673 0.28611 0.01008 0.082859 0.075968 0.20253 0.080845 -0.44329 -0.26622 -0.16282 -0.03922 0.030198 0.054183 -0.28859 -0.14764 0.19205 -0.16821 0.30665 0.029051 -0.14853 -0.20179 0.024882 -0.1505 0.081414 0.011753 0.090044 -0.35757 0.20291 0.33042 0.047217 0.096725 -0.091541 -0.086634 -0.14791 -0.33869 -0.10995 0.50227 0.2941 0.088348 0.63644 0.20473 0.046403 0.43402 0.021545 -0.12247 0.062762 0.24547 -0.19654 -0.29758 -0.11059 -0.34569 -0.2885 0.142 0.21984 -0.040727 -0.3648 0.51471 -0.2274 0.1659 0.1752 0.052066 0.28255 0.20957 -0.072996 -0.075886 -0.066442 0.5073 0.25849 0.024264 0.024583 -0.10204 -0.15314 0.14089 -0.11069 0.4128 0.29938 -0.063503 0.055951 0.0074835 0.13846 -0.22654 -0.15851 -0.22888 0.29682 0.21478 0.077685 0.49714 0.24774 -0.17305 -0.25519 0.010854 0.20285 -0.3035 0.42733 -0.10727 0.021395 -0.14985 -0.079016 -0.078279 0.054054 0.47419 -0.041926 -0.30599 -0.29187 -0.13608 0.20736 -0.012229 0.24303 -0.072312 0.042259 0.092561 -0.033199 -0.32241 0.02707 0.38869 -0.011994 -0.30397 -0.033164 0.00535 -0.27486 0.13643 -0.46851 0.4928 0.065957 -0.028644 0.26145 -0.064973 0.014735 -0.19637 -0.086078 -0.056846 -0.032595 -0.060589 -0.053133 -0.0094929 0.58092 0.29064 -0.15912 -0.085011 -0.051664 0.078101 -0.25387 0.17319 0.1506 -0.043891 0.41691 -0.3346 0.38383 -0.43033 -0.19631 -0.021003 0.008815 -0.39598 0.017962 -0.094899 0.11926 -0.55851 0.10024 -0.090358 0.047692 -0.20648 -0.3623 0.3137 -0.028635 -0.034457 -0.39813 0.22722 -0.062537 0.15962 -0.1388 -0.069883 -0.25592 0.25058 0.23052 0.34317 -0.37363 0.020648 0.29878 -0.36481 -0.18775 -0.06052 0.033291 -0.081746 -0.19975 0.02804 -0.26648 -0.46301 -0.052186 -0.30025 0.025444 0.0020856 -0.12847 0.0090677 0.07751 -0.43676 0.15762 0.15893 -0.47327 0.12098 -0.063642 0.076189 0.20938 -0.32955 0.089017 0.21083 -0.24908 -0.11567 0.17921 0.24817 -0.036148 -0.22753 0.080389 -0.20043 -0.54087 0.21819 -0.17845 -0.27837 -0.14718 0.48924 -0.22985 -0.043876 -0.15202 0.17998 0.30381 -0.28536 -0.0040193 0.42666 -0.088496 0.011426 -0.13978 -0.018916 -0.10943 -0.22968 -0.27846 0.030403 0.31962 -0.22913 -0.22607 -0.41767 0.24971 -0.21534 0.23049 0.025523 -0.10344 0.32523 -0.22873 0.27581 -0.15902 -0.50445 -0.023493 0.20484 -0.0082604 -0.054364 -0.15308 -0.23817 0.31932 -0.037145 -0.11848 -0.32235 -0.27861 -0.042951 0.22 0.0048197 -0.11556 0.070033 0.28933 -0.45377 -0.27571 0.32431 -0.47858 -0.42174 0.055131 0.39159 -0.096857 0.19881 -0.30838 0.1131 0.24298 0.34474 -0.12723 0.1028 0.28776 -0.12591 0.58382 -0.0040813 0.16014 0.36373 -0.018599 0.12585 -0.27757 -0.43773 0.26061 0.40524 0.28687 
cranston -0.048186 -0.13301 -0.11369 0.26133 -0.11709 0.17348 -0.19673 0.0049594 0.10884 -0.16711 0.4679 -0.035866 -0.070387 -0.18668 0.15812 -0.25461 -0.27433 -0.40285 -0.51422 -0.45447 -0.043737 0.0031518 0.18533 0.72019 -0.031293 -0.19294 0.0734 0.071758 -0.16766 0.0089518 -0.17726 0.24018 -0.16597 0.093532 0.30479 0.13981 0.24554 -0.36018 0.020616 -0.24829 -0.32141 -0.13605 0.26546 0.33471 -0.17497 0.16406 0.083459 -0.097806 0.45816 -0.18267 -0.22307 0.23436 0.6792 -0.21654 -0.093344 0.14391 -0.27976 -0.057274 0.062286 0.36706 -0.1938 -0.056975 0.23016 0.047736 0.092166 -0.014002 -0.036352 0.1541 -0.18164 -0.050461 -0.4246 0.0046852 0.1588 0.35963 -0.20375 0.11883 -0.081664 -0.09795 0.010699 0.25098 0.53904 0.083982 0.17933 0.61994 0.33588 -0.44475 0.047208 -0.36655 -0.12775 0.23365 0.017878 0.00079129 0.12962 0.066096 0.081192 -0.27575 -0.0093332 -0.037991 -0.21523 0.27771 -0.090825 -0.20421 -0.44141 0.032084 -0.027917 0.43879 0.46032 -0.086957 0.037985 0.12959 -0.39205 0.50395 -0.23774 0.24621 0.40114 0.3782 -0.11647 -0.31138 -0.34272 0.03015 0.37584 -0.22016 -0.26444 -0.16129 -0.19401 -0.26471 0.0020492 -0.30393 0.29714 -0.018602 -0.2424 0.097538 0.047162 -0.26819 -0.20058 0.0034204 0.040413 -0.1014 -0.19901 -0.3286 0.13433 0.3079 0.1938 0.36414 0.038912 0.18105 -0.11401 -0.14505 0.11075 -0.087912 -0.37357 0.2362 0.13356 0.11732 0.072514 0.11483 0.040745 0.15999 -0.13614 -0.026968 -0.21652 0.058519 -0.60269 0.21666 0.090347 -0.35705 -0.27092 -0.50409 0.2013 -0.0070662 -0.25858 -0.19365 0.26001 0.30431 0.56338 -0.36852 0.025169 -0.23249 -0.13998 -0.23297 0.31293 -0.21047 -0.063599 0.29891 -0.55405 -0.078312 -0.24278 -0.38909 -0.015284 0.16372 -0.035442 -0.31526 -0.034399 0.1623 -0.22785 0.083221 -0.2477 -0.4085 0.050424 0.15263 -0.37067 -0.20672 0.002251 -0.030445 0.02689 -0.34161 -0.010288 0.045336 -0.14676 -0.1844 0.14525 -0.29642 -0.11195 0.042492 0.052781 -0.056268 0.0056151 -0.37013 -0.16951 -0.2786 0.10278 -0.049382 -0.12117 -0.12602 0.18889 -0.25602 0.16574 -0.15903 0.12192 0.58794 0.07489 -0.026323 0.32462 0.04021 0.21006 0.17899 -0.0099422 0.26517 0.1546 0.19079 0.2201 0.1908 -0.28907 -0.11808 -0.14001 0.13401 -0.063539 0.023873 0.071517 -0.26184 -0.020564 -0.11151 -0.29718 -0.28598 -0.23725 -0.23172 0.29604 -0.027728 -0.37935 -0.22686 -0.41279 0.24723 -0.33458 -0.15531 -0.39288 -0.32989 0.19103 0.042123 0.37084 0.014878 -0.33783 0.37104 -0.41276 -0.27238 -0.0089926 -0.41254 -0.29511 -0.052555 0.33044 -0.04201 -0.082987 -0.030691 -0.10026 -0.23719 0.1059 -0.51464 0.22351 0.11097 -0.32453 0.62016 0.44868 0.057373 0.30293 0.32585 0.04445 -0.16316 0.042341 0.24554 -0.066741 0.16254 
wilson 0.12191 -0.24779 -0.15985 0.092946 -0.36188 -0.073893 0.2169 -0.21598 -0.17287 -0.01878 -0.25492 -0.060708 -0.022636 -0.27334 0.084526 -0.040225 -0.1877 -0.091393 -0.081075 -0.20236 -0.19357 0.052905 0.01474 0.25073 -0.20387 0.29434 -0.081823 0.016717 -0.13122 -0.078548 -0.04976 0.25317 0.06976 0.28523 0.21613 0.18489 0.13553 -0.10567 0.02232 -0.22886 -0.39998 0.22077 0.01617 0.35994 -0.0011085 -0.26147 0.067278 0.039552 0.11765 -0.023456 0.069178 0.30114 0.17393 0.19606 -0.17732 0.17866 -0.048991 -0.14889 -0.066752 -0.29383 0.17917 -0.12466 0.18405 -0.033422 -0.056188 0.17652 0.10016 -0.23522 -0.14777 0.16468 -0.5839 -0.01469 -0.073977 0.3492 -0.095358 -0.10437 0.069811 -0.034202 0.1817 -0.32697 0.086342 0.15825 0.2594 0.12107 -0.096049 0.080175 0.24299 0.0034211 0.1439 0.1229 -0.063106 0.0093113 0.27075 0.033603 -0.18341 -0.22179 -0.44147 0.093151 -0.35133 0.43165 -0.12811 -0.033628 0.069712 0.0083899 -0.0090688 -0.081529 -0.11121 0.058556 -0.33596 0.099052 -0.068979 -0.06688 0.12653 0.20207 0.010337 0.1589 0.072997 -0.070804 -0.082662 0.055024 0.35914 0.0029502 0.18356 -0.14205 0.036536 -0.4485 0.19802 0.22651 0.050094 0.29344 -0.29186 0.037029 0.11017 -0.089051 -0.10597 -0.029332 0.041401 -0.0021103 -0.2086 -0.27577 0.15421 -0.026854 0.30017 0.26866 -0.30378 -0.071222 -0.058605 -0.017849 0.30014 -0.035915 -0.22872 -0.027096 0.21572 0.23892 -0.22181 0.18655 -0.14818 -0.18749 0.091263 0.023283 -0.13663 0.062672 0.16016 0.079232 -0.1153 0.015828 -0.080731 -0.23915 -0.062109 -0.036344 -0.16494 -0.21277 0.011882 0.21291 0.22562 -0.082297 0.24052 -0.097012 0.39463 -0.1629 0.25966 -0.32184 0.28148 0.046206 -0.11323 -0.11964 -0.084204 0.077345 -0.12456 0.20166 0.10039 0.045234 0.21865 0.10802 0.0076123 0.089409 -0.098527 -0.11587 0.011069 0.10532 -0.10359 -0.0031696 0.10544 0.015834 -0.028142 -0.18906 -0.0055354 -0.065056 0.17866 -0.01682 0.35005 0.14314 -0.33649 -0.29867 0.058315 -0.12539 -0.27612 -0.081516 -0.55006 -0.2738 0.061537 -0.10849 0.11172 -0.17547 -0.0098966 -0.35188 0.012244 -0.56792 -0.064267 -0.098568 0.0021211 -0.15676 0.41045 0.063927 -0.13415 -0.34062 0.14664 0.10819 0.3825 0.11913 0.2921 0.098372 0.050885 0.39521 0.01356 0.24897 -0.071934 -0.21596 0.16136 -0.16685 0.21947 -0.31942 0.19768 -0.11005 -0.10732 -0.114 0.068021 -0.29928 -0.32142 0.014276 -0.16687 0.40848 -0.12074 -0.10727 -0.033513 -0.18606 -0.0098767 -0.14746 0.49675 -0.32523 -0.36619 0.47836 -0.33723 0.011452 0.10805 0.0014717 -0.20434 0.12863 -0.05011 -0.11108 -0.07018 0.0029725 -0.094395 0.0075064 0.060613 0.008682 -0.013218 0.11735 -0.44998 0.19413 0.1574 0.11954 -0.076024 -0.15293 -0.012166 0.088477 0.12874 0.01958 -0.34969 -0.30388 
armstrong 0.2271 -0.15255 -0.24705 0.069155 -0.053174 -0.14297 -0.1135 -0.012448 -0.12025 0.1005 0.038263 0.0049823 -0.16087 -0.21375 -0.026617 0.060783 0.11866 0.3252 -0.055073 -0.33427 0.089023 0.22133 -0.042685 0.49375 -0.11158 -0.43846 -0.0025587 -0.0076812 -0.063315 0.061547 -0.12288 0.066634 -0.055301 0.047633 0.24283 0.0085013 0.13454 0.19754 0.10541 -0.13316 0.046613 -0.12927 0.63525 0.14609 0.13395 -0.031156 0.21701 0.1334 0.23569 0.23189 0.30076 0.065168 0.08665 -0.04976 -0.029079 -0.12486 0.02957 0.20109 0.062732 -0.045484 0.070593 -0.09248 0.34976 -0.028114 -0.19649 -0.040678 0.078972 0.15787 -0.10977 0.079211 -0.43501 0.17468 0.31839 0.27 0.02284 0.29622 0.036026 -0.11312 -0.017176 -0.27376 -0.0051237 0.1547 0.14223 -0.0082818 0.10804 -0.27759 0.18529 0.21507 -0.0082127 -0.40529 -0.082318 0.014688 0.18153 0.098468 -0.11238 -0.19472 0.13547 -0.24939 -0.08099 0.10815 -0.29944 -0.19727 0.11989 0.14819 -0.03218 0.018736 -0.15141 -0.088083 -0.3022 0.034794 -0.028311 0.18649 -0.011316 -0.054693 -0.084823 0.21214 0.0070544 0.044189 -0.049753 0.010157 0.59513 -0.31439 -0.081229 0.012071 0.19779 0.20327 0.27258 0.10419 0.1142 0.16586 -0.070085 0.13102 -0.15465 -0.28568 -0.25808 0.082928 -0.020696 0.13488 0.059552 -0.10592 0.19864 0.1335 0.47694 0.45839 -0.15126 -0.039833 0.16412 -0.14965 0.03769 0.23513 -0.085674 -0.11797 -0.13503 0.20765 -0.3331 0.068776 -0.42817 0.030403 0.09993 -0.01478 -0.10176 0.0030728 0.074719 -0.026731 -0.29709 -0.36182 -0.27948 -0.099758 -0.072879 -0.0071322 0.22194 -0.34881 -0.048334 0.14167 -0.28745 -0.32726 0.38236 -0.047255 -0.38464 -0.091687 0.29097 -0.23929 0.21188 -0.11102 -0.34652 -0.046538 0.037234 -0.11217 -0.40041 0.10227 0.19153 -0.17154 0.065469 0.12604 0.0757 -0.09977 -0.19502 0.24607 -0.058522 -0.085822 -0.5811 0.16994 -0.091764 -0.17807 -0.017618 -0.037156 0.14291 -0.071096 -0.16905 -0.27617 -0.092249 -0.29231 -0.29434 0.01536 0.27939 -0.47014 0.14585 0.20032 -0.13832 -0.004303 0.13336 -0.24071 -0.29836 -0.23459 0.38419 -0.054453 0.057013 -0.19895 0.21245 0.11926 -0.060645 0.17788 0.024909 -0.080652 0.25736 -0.26107 -0.27016 0.21731 -0.024542 -0.10909 -0.14283 0.092434 0.17338 0.21665 0.08651 0.20315 -0.23773 -0.11672 0.016073 -0.2555 0.0025145 -0.36798 0.13915 -0.15855 -0.58516 -0.052025 0.03937 -0.070992 0.062799 -0.044243 0.12193 0.081044 -0.43933 -0.054553 -0.32129 -0.058759 0.15493 -0.031082 0.20596 -0.14639 -0.18361 0.6239 -0.1568 -0.25621 0.33191 -0.13268 0.22698 -0.15975 -0.084636 0.096768 0.12309 -0.17813 -0.0099033 0.085308 -0.097958 -0.11211 -0.17879 0.083092 -0.078921 0.078657 0.072056 0.16933 0.037436 -0.011863 0.12728 0.033254 -0.17037 0.15785 0.155 -0.49748 
hart -0.20109 -0.1731 -0.0089284 0.20417 0.082496 0.036419 -0.16069 0.10042 0.27338 -0.084186 0.12931 -0.10113 0.05765 -0.036687 0.59883 0.17227 -0.12653 -0.2148 -0.17102 -0.32971 0.17011 0.33576 0.12847 0.43757 0.043359 0.016049 0.36955 -0.087216 -0.2777 -0.24642 -0.014925 0.096117 -0.26443 0.14791 0.065889 0.16312 -0.028756 -0.10256 0.23238 -0.26523 -0.19192 0.30372 0.40162 -0.15927 0.092663 0.23394 0.41307 -0.11504 0.4203 -0.031596 0.087481 0.15688 0.18229 0.1319 -0.14945 -0.045836 -0.018422 -0.021789 -0.032571 0.21716 -0.16339 -0.039614 0.13038 -0.017564 0.13095 -0.42664 -0.18293 0.30492 0.026001 0.28627 -0.17222 0.14343 0.42337 0.040711 0.13902 0.20534 0.084164 -0.32926 0.23773 0.096521 0.13236 0.3252 0.0048217 -0.17666 -0.056309 -0.1752 -0.022424 -0.17523 -0.10003 0.13551 -0.13694 0.08017 0.093218 0.11019 -0.38914 -0.27962 0.094953 -0.0095636 -0.17049 0.32939 0.049417 -0.2699 -0.74448 -0.063007 -0.27482 0.34532 0.14704 0.051795 -0.011171 -0.079957 -0.43564 0.38494 -0.10651 -0.047277 0.36774 0.38737 0.00052195 -0.17886 -0.17365 -0.081246 0.62377 0.1306 0.052609 0.013103 -0.001663 -0.24685 0.30303 -0.49303 0.033888 0.03258 -0.29416 -0.10793 -0.03889 -0.061859 -0.24472 -0.30097 -0.25702 0.0078056 -0.037922 -0.11713 0.10205 0.082962 0.24273 0.37591 0.00011434 0.16264 -0.25292 0.13869 -0.012482 0.14259 -0.24305 0.3203 0.050793 0.075137 -0.174 0.41048 -0.05461 0.044894 0.042608 0.11899 -0.017138 0.016399 -0.13536 0.1995 -0.36108 -0.29315 -0.31246 -0.21012 0.03747 0.062634 0.024976 -0.32792 0.081677 -0.12228 0.3078 -0.35925 0.26161 -0.15822 0.056248 -0.15513 0.49634 -0.38022 0.086395 0.23495 0.090489 -0.18489 -0.43108 0.045565 -0.037804 0.051074 -0.21355 -0.28542 -0.019465 -0.078979 0.16526 0.16229 -0.18604 -0.30181 -0.19746 -0.040876 -0.53132 0.081309 -0.28172 -0.14895 0.22314 -0.18105 0.36971 0.094617 0.063676 -0.0097229 0.25011 -0.27952 -0.27207 0.034884 0.072419 -0.099599 -0.084952 -0.12104 -0.30523 -0.43141 0.024709 -0.16578 -0.11305 0.15713 0.54527 0.076016 0.20465 -0.15833 -0.12849 0.075535 -0.11879 0.25207 0.34635 -0.033097 0.20279 -0.019743 -0.023593 0.20463 0.26091 0.059523 0.015565 -0.25455 0.16504 -0.16846 -0.18518 0.25172 -0.31789 -0.0057337 -0.085289 -0.02362 -0.09253 -0.35336 -0.23656 -0.17841 -0.28217 -0.2499 0.22101 0.010308 -0.13433 -0.11713 -0.33644 0.14953 -0.48107 0.26816 -0.19164 -0.40418 0.15322 0.0726 0.2514 0.020522 -0.035177 0.43237 -0.10808 -0.13349 0.16345 -0.45594 -0.40628 0.0482 0.19271 -0.2482 -0.12509 -0.13857 -0.31419 0.22666 0.12332 -0.47007 0.038574 -0.01905 0.01344 0.37142 0.078345 0.29427 0.17801 0.15722 0.22526 -0.29953 0.19795 0.13351 -0.21385 0.1572 
weicker 0.31516 -0.48103 -0.094385 0.37171 -0.13566 -0.11225 -0.086622 0.019173 0.014953 0.18507 0.45302 0.037117 0.053722 -0.11553 -0.54546 -0.088218 -0.050226 -0.067295 -0.32524 -0.22364 -0.026611 0.017127 0.0043333 0.46217 0.18465 0.14757 -0.094695 -0.025539 -0.34055 0.11275 -0.33013 0.20489 -0.34417 0.30933 0.30556 -0.26284 0.1754 -0.43715 0.087408 -0.056125 -0.47319 -0.13154 0.47707 0.30305 -0.18434 0.15073 0.38841 -0.19929 0.3175 -0.026467 -0.18232 0.0059425 0.42706 0.036861 0.23464 -0.12576 -0.45839 -0.20126 -0.045325 -0.0064039 -0.10357 0.029967 0.090876 0.19589 0.16336 0.13639 0.19786 0.040139 -0.033641 -0.00073771 -0.28414 -0.41699 0.20399 0.09204 -0.34772 -0.022701 -0.040231 0.022943 -0.061889 -0.34855 0.47855 0.10035 -0.04418 0.0071551 0.17758 -0.2434 -0.14765 -0.21659 -0.25064 0.1845 0.019327 -0.06715 0.48855 0.049213 -0.42211 -0.19487 -0.025905 0.19673 -0.31176 0.24494 0.18806 -0.0019868 -0.18505 0.15396 -0.1531 0.292 -0.044244 0.18119 -0.02518 0.1982 0.027008 0.29441 -0.40493 -0.082861 -0.0017616 0.027912 -0.20871 -0.058986 -0.24174 -0.1204 0.034518 -0.11246 -0.37343 -0.31027 -0.19486 0.22351 0.05209 -0.18797 0.28289 0.16955 -0.46181 -0.22013 -0.10046 -0.37879 -0.66023 0.33976 -0.17213 -0.11442 0.19488 -0.15864 0.17733 0.079838 0.28195 0.41949 -0.23306 0.45578 -0.30606 -0.17703 0.3743 0.3238 -0.071394 0.12795 0.044608 0.12121 -0.11278 0.41986 -0.1302 0.19773 -0.24007 -0.15922 0.24028 -0.13793 -0.13318 -0.00037445 -0.35931 -0.23837 -0.092317 0.0035761 0.051421 0.18535 0.25413 -0.44999 0.61718 0.16412 0.2024 -0.16938 0.14541 -0.16992 -0.13994 -0.19458 0.44918 -0.30645 -0.022686 0.66214 -0.133 -0.14057 -0.10565 -0.19946 0.070787 -0.083174 -0.10249 -0.18911 0.071236 0.050455 0.15046 0.37669 -0.26317 -0.28328 -0.34532 0.17547 -0.25298 -0.19158 0.44182 -0.18672 0.076685 -0.19308 -0.22794 -0.12258 -0.10156 -0.059488 -0.11005 -0.45609 0.023271 -0.36203 0.008004 -0.053992 -0.07449 0.15724 -0.12399 -0.21908 0.21964 -0.24505 0.081221 0.10544 0.32376 -0.20213 -0.18754 -0.21545 0.3016 0.01656 0.022233 -0.14806 0.4666 -0.087309 0.13075 -0.035551 0.21679 0.1094 -0.001653 -0.37244 0.19261 0.29561 0.1595 -0.54387 -0.06463 0.39499 -0.21552 -0.23422 -0.0043376 -0.35502 0.28954 -0.38155 0.07282 -0.029126 -0.4778 0.46735 0.49886 0.0586 0.29248 0.25698 0.087533 0.29809 -0.33314 0.014596 -0.15594 -0.17547 0.04946 0.13562 -0.088636 -0.087145 -0.48119 0.24553 -0.32033 -0.25296 0.38115 -0.41606 0.048578 0.18941 0.45875 -0.46546 0.26029 -0.21952 -0.072571 0.12366 -0.154 -0.18472 0.079976 0.28565 -0.1057 0.18012 0.3646 0.24789 0.16812 -0.04706 0.21823 0.42355 -0.17204 0.21773 -0.16723 0.039861 
dodd 0.04745 -0.1339 -0.18786 -0.13884 -0.0087638 0.13975 -0.25461 0.04825 -0.1492 0.41409 0.35487 0.094563 0.18585 -0.27577 -0.0040555 -0.11894 -0.079724 0.034906 -0.2138 -0.32225 0.054696 0.39875 -0.051344 0.40563 -0.26738 -0.33247 -0.065469 -0.16704 0.079124 0.19817 -0.17213 0.30568 -0.13222 -0.11177 0.25298 0.02261 -0.052031 0.088049 0.079368 0.11745 -0.51508 0.24331 0.78796 0.29988 -0.36534 0.07019 0.073704 -0.16782 0.39704 -0.18337 -0.25878 -0.011377 0.15874 -0.15509 0.1178 0.065299 -0.18013 -0.093644 -0.22156 0.3824 0.0075793 -0.17742 0.20327 -0.022033 0.015064 0.2044 0.080763 0.092351 -0.020562 0.11663 -0.21909 -0.16157 0.2599 0.277 -0.21416 0.25244 0.49228 0.069489 0.19541 -0.017215 0.25259 0.15707 0.057388 -0.019016 -0.089778 -0.21611 0.25247 -0.10446 -0.11453 0.11107 -0.058788 0.053803 0.32062 0.37998 -0.23854 -0.19562 0.065195 0.076373 -0.26814 -0.053172 -0.099416 -0.039514 -0.31343 0.098833 -0.099965 0.24242 0.17734 0.15806 -0.5139 0.13728 -0.36066 0.30272 -0.28257 -0.19664 0.084023 -0.082005 -0.093672 -0.17557 -0.3367 -0.34727 0.32073 -0.098783 -0.0090901 -0.12325 -0.030004 0.093811 -0.011584 -0.093363 0.012656 -0.026421 -0.28821 -0.056213 -0.40462 -0.10572 -0.23989 0.12588 0.35881 -0.20589 -0.17522 -0.43374 0.32474 0.14472 0.43798 0.16452 -0.1048 0.19296 0.070886 0.061722 -0.052478 0.072876 0.20412 0.50615 -0.093704 -0.17252 -0.073878 0.48906 0.10428 0.38271 -0.039457 -0.27013 0.25946 0.27603 -0.56833 -0.013915 -0.30994 0.11878 0.036762 -0.15737 0.12635 0.25624 -0.012783 -0.21595 0.32171 0.21237 0.056812 -0.01128 0.13749 -0.16354 -0.17294 -0.27902 0.099267 -0.42716 -0.3965 0.22087 -0.32271 -0.11523 -0.028369 -0.055855 0.14459 -0.061125 -0.25548 -0.38113 -0.035832 0.01891 -0.067842 0.25454 0.13923 -0.1484 -0.039544 0.17762 -0.25197 -0.20359 -0.23359 0.051713 0.21572 -0.23476 -0.39863 0.18924 -0.26282 -0.025319 0.15376 -0.15004 0.22308 -0.063234 0.1735 0.014753 -0.10541 0.014337 0.074941 -0.35712 0.12507 -0.16658 0.054885 -0.012324 0.20855 -0.4218 0.0064901 -0.10777 0.40798 -0.056696 -0.04657 -0.072236 0.31726 0.25985 0.11277 0.000727 -0.066614 0.23906 0.2219 -0.37283 0.45778 0.31719 0.33479 -0.33411 -0.069263 0.17492 0.056413 -0.0076265 0.44425 0.10466 0.23866 -0.016761 0.065337 -0.18751 -0.37984 -0.074254 0.1208 -0.031678 -0.2023 -0.23256 -0.14272 0.47221 -0.31645 0.13189 -0.090589 -0.44515 -0.049627 -0.028001 0.33265 -0.24001 -0.18436 0.017778 -0.22106 -0.29972 0.20422 -0.12451 0.037444 -0.1142 0.75985 -0.22787 0.10316 -0.055211 0.075611 -0.10226 0.08105 -0.14899 0.1183 0.38828 -0.28792 0.60222 0.27929 0.29664 0.27941 -0.078366 -0.18895 0.13456 -0.19653 0.071823 0.15991 0.36462 
roth -0.0071468 0.1781 -0.22778 0.056491 0.28006 -0.020505 -0.083023 -0.13902 0.03433 0.098776 0.2351 -0.079138 -0.22268 -0.089652 -0.32349 -0.019055 -0.15705 0.034111 0.19522 -0.19472 0.21292 0.4824 -0.20435 0.10127 0.010208 -0.3527 -0.20617 -0.17061 0.048463 -0.23508 -0.39227 0.063824 -0.076675 -0.21544 0.27806 0.074133 -0.10199 0.0056174 0.45299 0.22026 -0.51193 0.085252 0.46053 0.029818 -0.23766 0.069433 0.33391 -0.0078614 0.52763 0.07149 0.044782 0.035207 -0.0077817 -0.21937 0.15768 0.1325 -0.093252 -0.1436 0.36837 -0.27091 0.20499 0.21258 -0.21892 -0.08696 0.035718 -0.050868 0.15928 -0.39794 0.11942 0.33063 0.032009 0.020868 0.11352 0.2735 -0.48001 0.21427 -0.026215 -0.27482 -0.10033 -0.040582 0.098538 -0.082311 0.11077 -0.030252 0.22827 -0.12472 0.040706 0.16213 -0.35142 0.046627 -0.20334 -0.25547 0.44644 -0.15768 0.010205 -0.13552 -0.10184 0.14508 -0.085944 0.19261 -0.006652 0.15602 -0.40836 0.15532 -0.1688 0.35979 -0.027847 -0.02529 -0.26074 -0.13782 -0.21391 0.10572 -0.20119 0.022912 0.058251 0.20649 -0.33576 -0.020977 0.069053 -0.14965 -0.26886 -0.33203 -0.18588 -0.078143 -0.25704 0.049679 0.32063 0.066972 -0.098602 0.61763 -0.16431 -0.1171 -0.1921 -0.2363 -0.48043 -0.04608 0.048964 -0.1488 0.038562 -0.14737 0.47775 -0.10929 0.16057 0.48346 -0.46142 0.050125 0.074464 -0.088523 0.13667 0.11926 -0.24368 -0.075475 -0.0015843 0.26627 -0.17508 0.38445 0.0099421 0.057934 0.010679 -0.22205 -0.186 0.32096 -0.29198 0.30982 -0.39859 -0.38674 -0.27477 -0.042476 -0.23324 0.21164 0.069797 -0.22165 0.31529 0.020297 -0.38725 0.1032 0.23925 -0.17265 -0.12559 -0.1326 0.20793 0.037389 0.36676 0.47015 -0.38213 -0.13261 -0.13394 -0.27792 -0.23696 0.21937 -0.22659 -0.07452 -0.21762 -0.083583 0.036149 0.019981 -0.43356 -0.2884 0.13202 -0.31085 -0.51375 0.29071 0.10706 0.01956 -0.014776 -0.25818 -0.029742 0.01466 -0.094041 -0.095301 -0.16498 -0.3748 -0.27808 -0.11263 -0.061326 -0.29818 0.23659 0.28398 -0.27627 -0.2997 0.14401 -0.078991 -0.069228 -0.28956 0.49478 -0.5607 -0.20951 0.070586 0.14398 0.2164 0.097531 0.172 0.14632 -0.35194 0.090621 -0.23014 0.29797 0.3694 -0.053726 -0.077538 0.21954 0.34907 0.27513 0.32632 -0.078107 -0.083585 -0.031158 -0.13038 -0.25036 -0.30677 0.23586 -0.020349 -0.25009 0.19664 -0.1986 0.10915 0.32751 -0.069614 0.11911 -0.089454 -0.15619 0.072554 -0.26628 0.11903 0.15289 -0.56251 0.21289 0.16111 0.42899 -0.095986 0.037992 0.22608 -0.1177 -0.19786 -0.082953 -0.3192 -0.10935 -0.082932 0.53916 0.22031 0.19743 -0.21292 -0.15994 0.0066362 -0.3987 -0.061092 -0.22269 -0.22936 -0.45589 -0.077525 0.3953 0.20289 0.1727 0.20602 0.0097756 0.44524 -0.40586 -0.018969 0.063578 -0.17566 
biden 0.072302 -0.069764 0.17664 -0.033533 -0.18874 0.25235 -0.12767 -0.011973 0.16726 0.059741 0.44194 -0.061224 0.20297 -0.057586 -0.17686 -0.097015 -0.067613 -0.081924 -0.1706 -0.39111 0.38587 -0.11902 -0.013875 0.49285 0.18534 -0.29444 -0.030068 0.0041485 -0.18366 -0.24215 -0.15594 0.021069 -0.15573 0.2398 0.56387 0.088003 0.063111 -0.064663 -0.00035366 -0.018307 -0.41438 0.14573 0.1211 0.25989 0.16743 0.10267 0.27597 -0.2559 0.60762 -0.46494 0.077724 0.10048 0.27153 0.001432 0.21277 -0.060637 -0.22799 -0.19566 -0.021292 0.17517 -0.037073 -0.022691 0.23791 -0.033512 0.034339 -0.079847 -0.20335 -0.1039 0.16495 0.10026 -0.19405 0.10987 0.22543 0.33123 -0.13996 0.32619 0.17735 -0.40619 0.16318 -0.37646 -0.018765 0.6768 0.3543 -0.045642 0.055195 -0.22325 0.070525 0.093527 0.045539 0.14032 -0.066468 0.1472 0.44415 -0.043309 -0.22724 -0.5333 -0.054352 0.12619 -0.21371 0.18616 -0.066661 0.063997 -0.47273 0.28812 -0.041408 0.70265 0.08503 0.20279 -0.35361 0.12529 -0.1146 0.20777 -0.1815 0.096588 0.21412 -0.15901 0.084628 -0.2859 -0.39929 -0.10486 -0.008888 -0.18123 0.0031552 -0.1285 0.0072501 -0.10796 0.20693 -0.25942 0.1339 0.13758 -0.34583 -0.029973 0.038036 -0.024847 -0.33936 0.32706 0.043917 -0.25206 -0.38057 -0.22309 0.1253 0.21855 -0.11639 0.20986 -0.15831 -0.25559 -0.074422 -0.015093 0.014363 0.036619 -0.13973 0.12249 0.12385 -0.16021 0.056925 0.42659 0.14613 0.21126 -0.055658 -0.14629 0.26247 0.291 -0.47182 -0.04165 -0.45409 0.054147 -0.22861 -0.18345 0.037813 0.16522 -0.22575 -0.3059 0.33273 -0.24532 0.24614 -0.36612 0.11734 0.099902 -0.075699 0.063708 0.48318 -0.32936 -0.1793 0.61439 -0.52657 -0.030814 -0.27412 -0.17014 0.048198 -0.086115 -0.1766 -0.11392 -0.034946 0.073104 0.015746 0.172 -0.37711 -0.20857 -0.20575 0.087985 -0.29859 0.1328 -0.10193 -0.28162 0.26454 -0.030838 -0.31549 0.037188 -0.13329 -0.19005 -0.17443 -0.24703 -0.14184 -0.11713 0.13152 -0.1596 -0.27264 -0.039206 0.030943 -0.66355 0.31496 -0.49937 -0.032483 -0.16178 0.54955 -0.15665 0.12631 -0.26021 -0.13329 -0.077227 0.11467 0.13166 0.02348 -0.24064 0.12875 0.24005 0.085394 0.2358 0.085079 -0.09836 0.41295 0.49339 0.18942 -0.11069 -0.054885 0.13926 0.082187 -0.35444 0.024199 -0.0099866 0.12373 -0.13926 -0.078616 -0.10273 -0.24687 0.13442 0.41642 -0.22863 -0.16643 0.24556 -0.038522 0.35685 -0.19979 0.23925 -0.34905 -0.51461 -0.11189 0.42721 0.30104 0.038044 0.218 0.14631 -0.42114 -0.36775 0.32088 -0.21751 -0.073059 0.18956 0.51379 -0.073797 -0.24676 -0.33147 -0.02767 -0.052277 0.082522 0.011319 0.07297 0.21703 -0.21783 0.29414 0.13003 0.2984 0.47699 0.042785 0.2291 0.21263 -0.27823 0.1128 -0.041307 -0.20261 
chiles 0.15797 -0.19259 -0.47243 0.081473 0.0060291 0.0058173 -0.072411 -0.16163 -0.054084 0.10463 0.089206 -0.23474 -0.22121 -0.1728 -0.25544 -0.064244 0.1139 0.27514 -0.21769 -0.06687 0.027603 -0.014267 0.12078 0.076809 0.17864 -0.013139 0.00077798 -0.11152 -0.039569 -0.09984 0.14085 0.16058 0.19779 0.25818 0.4853 0.05206 0.16726 -0.12105 -0.18017 -0.29697 -0.38774 -0.076542 0.3508 0.23979 0.051641 0.34886 0.65947 -0.13121 0.1719 -0.37351 -0.036036 0.28719 0.34008 0.023175 -0.24434 -0.15382 -0.3518 0.2151 -0.34924 -0.0053723 -0.010297 -0.18457 0.25258 -0.071896 0.13188 0.057642 -0.0045941 0.42359 -0.13775 -0.12817 -0.15116 -0.048632 0.39782 0.059595 -0.1242 -0.20393 -0.24192 0.019195 0.26309 -0.11317 0.14417 0.15682 0.36208 0.15266 0.025449 -0.24452 -0.10351 -0.067529 -0.15819 -0.27331 0.4099 0.0091284 0.39819 -0.14872 -0.45559 -0.24787 -0.20892 -0.057409 -0.035036 0.45404 -0.15654 -0.062925 -0.25919 -0.14466 -0.43392 0.27389 -0.092641 -0.10211 -0.2803 -0.22402 -0.35544 0.11211 -0.036036 0.3535 -0.15306 0.15219 -0.15684 -0.21054 -0.20819 -0.063893 0.45642 0.13974 -0.076194 -0.13155 0.0026075 -0.35335 0.15335 -0.24595 0.17606 0.045136 -0.23404 -0.26402 -0.025731 -0.28168 -0.059875 0.038323 -0.30262 0.12299 0.13253 -0.12647 0.17719 0.34095 0.07076 -0.0021488 0.076646 0.062881 0.081396 -0.064994 0.25833 0.068874 0.018195 0.44593 0.05088 0.46939 -0.19724 -0.078882 -0.19155 0.16211 -0.23861 0.02858 -0.10654 0.10044 -0.087692 0.27173 -0.15891 -0.069233 -0.20713 -0.3546 0.13626 0.1423 -0.033421 -0.5358 0.38153 0.18267 0.019393 -0.05737 -0.14015 -0.33946 0.1583 -0.19141 0.35487 -0.42125 0.11612 0.065666 -0.39712 -0.14616 -0.29425 0.027818 -0.30645 -0.073831 0.13771 -0.032097 0.023388 -0.23381 -0.28629 0.023416 0.067153 -0.60813 0.07683 -0.19584 -0.25923 -0.30195 0.33502 -0.38863 -0.1475 0.0068799 -0.47139 0.066788 -0.1154 0.056528 -0.0059546 -0.24281 -0.02381 0.15013 0.10196 -0.39679 -0.19729 -0.10345 -0.25557 -0.41617 0.04172 -0.025464 -0.23708 0.23708 0.28064 -0.38912 -0.066173 -0.047064 0.12331 -0.12821 -0.080773 0.1889 0.25623 -0.20448 -0.058714 0.30806 0.065363 0.29998 -0.0056345 -0.48734 0.57837 0.40212 0.24465 -0.19461 -0.087792 -0.17778 0.28146 -0.035815 0.085837 -0.063129 -0.016817 -0.36503 0.059671 -0.055016 -0.14343 -0.21964 -0.0068396 -0.4742 0.07312 0.25771 -0.18006 0.42413 -0.092823 0.07733 -0.25762 -0.49362 -0.020765 0.0015877 0.433 -0.041556 -0.21552 0.058618 -0.064582 -0.32123 0.17463 -0.37577 -0.24909 -0.39462 0.2165 -0.21418 -0.1357 -0.07397 0.057276 -0.27405 0.29102 0.16943 -0.19953 0.33922 -0.33051 0.3985 0.44547 -0.17623 0.21534 0.059319 0.28923 0.22205 -0.30579 0.12539 0.011695 -0.17345 
hawkins 0.034801 0.2105 0.14083 -0.064999 0.079175 0.050717 -0.22149 -0.24797 -0.11629 -0.029112 -0.049671 -0.38081 -0.29353 -0.31129 -0.10343 -0.089311 0.023398 0.07312 -0.18675 -0.26727 0.12994 0.10445 -0.10488 0.14058 -0.10826 0.21531 -0.25672 -0.30223 -0.1753 -0.071148 0.00544 0.14871 -0.041157 0.039496 0.037093 0.16979 -0.0067409 -0.074279 0.089445 -0.053014 -0.098528 -0.13542 0.27075 0.139 0.2527 0.078496 0.6004 0.010795 0.13436 -0.14033 0.035267 0.31354 0.028602 -0.29211 -0.064812 0.28671 -0.3811 -0.023777 -0.2195 0.37561 0.30211 -0.037329 0.18253 0.15244 0.17707 -0.12496 0.18177 0.027957 -0.39448 0.03214 -0.051595 -0.19121 -0.0072961 -0.14191 -0.17675 0.083804 -0.041786 -0.25426 0.13686 0.044765 0.38231 -0.1468 0.34972 0.076462 -0.15156 0.01766 0.02765 -0.049445 0.42354 -0.23358 0.27693 -0.34293 0.4481 -0.26174 -0.23566 -0.21397 -0.34901 0.07354 -0.2092 0.12907 -0.157 0.28126 -0.013666 0.26653 -0.39525 0.32643 -0.34356 -0.16614 -0.48063 0.10559 0.045026 0.065542 -0.17385 0.19474 0.19261 -0.10058 0.097596 0.081467 -0.2139 -0.091051 0.41231 -0.10325 -0.11289 -0.056341 0.06876 -0.067829 0.27098 0.042942 0.25759 0.017462 -0.091161 0.070912 0.059549 -0.096975 0.10577 0.054434 -0.10294 0.12276 0.16515 -0.20726 0.20856 -0.15971 0.46576 0.34655 0.12671 0.1355 0.21534 -0.1578 0.091091 0.14768 -0.089544 0.32611 0.1817 0.19624 -0.020557 0.35878 -0.25369 -0.175 -0.28025 0.027602 -0.2192 -0.16304 -0.17492 0.098914 0.0029454 0.0094037 -0.16391 -0.47368 -0.038135 -0.081133 -0.068386 -0.23869 0.0095302 0.019407 0.092773 0.16224 0.39304 0.00019091 0.0037263 -0.25651 0.23894 -0.096753 0.39071 0.10499 -0.31007 0.17261 -0.03642 0.19726 -0.15371 0.20862 0.17722 0.12894 -0.14025 0.11759 0.028015 0.23991 -0.17845 -0.2792 0.19288 0.023709 -0.33343 -0.04043 -0.060602 -0.39153 -0.050322 -0.24084 -0.12085 -0.069969 -0.26608 0.065643 0.016033 -0.31377 -0.17999 0.2068 0.21667 -0.3914 -0.21295 0.048326 -0.23991 -0.21155 0.19556 -0.0071767 0.22699 -0.046483 0.5177 -0.16939 0.04287 -0.19253 -0.091678 0.41731 0.096068 0.24323 -0.067138 -0.040771 -0.32659 0.1601 0.22833 0.45994 -0.07828 -0.032492 0.04097 0.41223 -0.14052 -0.13316 -0.29157 0.16774 -0.3247 -0.19313 0.25768 -0.15611 -0.24666 -0.15744 -0.0023421 -0.038923 -0.19538 -0.044064 0.034546 -0.33589 0.051301 0.17194 -0.3876 0.35929 -0.23644 0.099743 -0.40039 -0.41235 -0.20517 0.29225 0.30244 -0.36785 -0.28128 0.49296 0.055509 -0.040956 0.011823 0.12307 -0.052433 0.31105 0.076692 0.060943 -0.2753 -0.064309 -0.41144 -0.3198 0.1977 -0.002431 0.15255 0.022886 -0.34054 0.29703 0.2881 0.13285 0.18646 0.21451 0.077582 0.031317 0.058689 0.15212 -0.056721 -0.025823 
nunn -0.061069 -0.053845 0.041248 0.10465 0.13339 0.26795 -0.1388 0.030063 -0.001307 0.072447 0.042601 -0.21291 0.15924 -0.0918 -0.21011 -0.115 0.036994 0.025901 -0.40836 0.13837 0.31335 0.049213 -0.074656 0.24997 0.0084107 -0.31228 -0.047927 0.056748 0.18016 0.061953 -0.1368 -0.039581 -0.15705 -0.10223 0.37859 0.053141 0.033508 -0.19372 0.18576 -0.27138 -0.13178 0.2533 0.39746 0.32173 0.20851 0.34548 0.087456 -0.18486 0.27338 -0.076201 -0.13148 -0.11481 0.15458 -0.25805 -0.3346 -0.31825 0.21594 -0.12316 0.10838 -0.11574 -0.5017 0.23196 0.28274 0.087559 0.34139 0.2113 -0.060661 0.12169 -0.35358 -0.073971 -0.19001 0.12279 0.40344 0.42483 0.088263 -0.21774 0.2175 -0.46286 0.40526 -0.070429 0.085046 0.58318 0.073068 -0.30853 -0.073217 -0.15663 0.20408 -0.11306 -0.15358 -0.042026 0.31043 0.12504 0.31291 0.081358 -0.38645 0.020441 -0.27323 -0.044059 0.093574 0.22015 0.15992 0.096685 -0.25095 0.093526 0.0045907 0.37915 -0.14651 0.044146 -0.16681 0.13369 -0.52476 0.22698 -0.30059 0.49085 -0.2128 -0.29988 0.026394 -0.11112 -0.33224 0.16032 0.37319 -0.24351 -0.142 -0.20821 0.20711 -0.49531 0.25736 -0.46891 0.1137 -0.28051 -0.10215 -0.1976 0.011296 -0.47962 -0.15794 -0.023443 -0.21808 0.40014 -0.19158 0.083426 0.42132 0.22206 0.016232 0.05953 -0.27013 -0.18817 0.34763 -0.21978 0.11917 0.092832 0.3605 0.11347 -0.070456 0.25204 -0.35001 0.052763 -0.071532 0.16216 -0.17749 -0.077027 0.15034 0.22825 -0.45901 0.21286 -0.14151 -0.31259 0.0044597 -0.38063 0.37416 0.4935 -0.22045 -0.56561 0.4623 0.19849 0.062225 0.1866 -0.13636 -0.18374 0.01816 0.030635 0.36971 -0.3446 -0.13396 0.27655 -0.23927 -0.037135 -0.050141 -0.1077 -0.046077 -0.11026 -0.34406 -0.091361 0.12065 0.076484 0.072921 0.081074 -0.19515 -0.47079 0.18708 0.20591 -0.29842 0.20542 -0.077759 -0.086866 0.19829 0.040982 -0.23854 -0.028336 -0.38359 0.14142 -0.084393 -0.27737 -0.048861 0.32254 0.15608 0.0044296 -0.11993 -0.10191 -0.039704 -0.21713 -0.19978 -0.14594 -0.13037 -0.19996 0.55553 -0.37767 0.14336 -0.11715 0.036166 0.037867 -0.23335 0.1366 0.49631 -0.069366 0.032459 0.066623 0.23864 0.17577 -0.11287 -0.35715 0.1029 -0.10244 0.071923 -0.34646 -0.32452 -0.097536 0.12758 -0.21933 -0.15308 -0.28025 -0.14566 0.080717 -0.29088 0.037759 -0.47892 -0.14274 0.4194 -0.082432 -0.30218 0.09089 0.33115 0.12485 -0.44167 0.12564 -0.31942 -0.39022 -0.082778 0.33943 0.21118 -0.008817 0.21907 0.087338 -0.0045012 -0.17566 0.090587 -0.18772 -0.34843 0.13898 0.49252 -0.24329 0.035445 -0.15806 -0.041058 -0.25353 -0.091787 0.07745 0.1141 0.37404 -0.12931 0.47383 0.069755 -0.00051241 0.2453 -0.09678 0.031028 -0.11872 -0.23069 0.051376 0.27271 0.060451 
mattingly 0.46085 0.10225 0.21021 -0.28018 0.23457 -0.1232 -0.44862 -0.23687 -0.27095 0.10375 6.3802e-05 -0.21512 -0.30023 -0.65581 -0.075216 -0.19818 0.13651 -0.0070608 -0.32736 -0.046659 -0.080955 -0.14675 -0.031192 0.14432 -0.067598 -0.043632 0.21539 -0.41423 -0.012282 -0.028259 -0.35831 0.056105 -0.21467 0.080988 0.60876 -0.093444 -0.066296 0.10476 0.086632 -0.2243 0.0073892 -0.19925 0.38403 -0.060344 -0.27276 0.26283 0.13537 0.025017 0.56963 -0.1544 0.072737 0.030355 -0.019433 -0.14728 -0.12293 -0.17809 -0.048457 0.23452 -0.28215 0.34181 -0.065807 -0.20105 -0.054197 0.047879 0.10504 0.30315 -0.1959 0.056664 -0.42449 0.18872 -0.18108 0.12136 0.22586 0.17206 -0.12065 -0.24251 0.38404 -0.27948 -0.014536 -0.23931 0.42083 -0.046733 0.064062 -0.13966 -0.36919 -0.43281 -0.39192 0.077282 0.10723 -0.08515 0.12777 -0.093906 0.15941 -0.011623 -0.1559 -0.15625 -0.036382 -0.042015 -0.11925 0.1441 -0.01025 0.13116 -0.18415 0.079288 -0.50637 0.11774 -0.18205 0.0055581 -0.013694 0.15504 -0.22157 0.16277 -0.19055 0.31245 -0.0053418 0.14995 -0.13011 -0.16941 -0.05108 0.00085738 0.35322 -0.21946 -0.095289 -0.092995 0.19227 0.14295 -0.10841 -0.019229 -0.029773 -0.13754 0.032453 -0.1014 0.18728 -0.44518 -0.22903 -0.030257 -0.20494 -0.14357 0.17763 0.043284 0.27611 0.2437 0.24031 0.40018 -0.077856 -0.022284 -0.035998 -0.20048 -0.090207 0.011643 0.022716 0.2273 0.10175 -0.18509 -0.20415 0.10831 -0.1214 -0.10172 -0.0039719 -0.083175 -0.37389 -0.055652 -0.40931 -0.00069247 0.2577 -0.073464 0.091921 -0.40014 0.034002 0.053776 0.068072 -0.43778 0.10758 0.26027 -0.01029 0.06926 0.16314 -0.38722 -0.15168 -0.12807 0.37391 0.18371 0.16235 0.48945 -0.3137 0.12292 -0.32067 0.0044516 -0.21654 0.078148 0.012658 -0.25362 -0.15572 0.039926 -0.079385 0.1727 -0.29834 -0.46387 0.031705 -0.070522 -0.42085 -0.25416 0.038631 -0.18569 -0.10927 -0.14734 -0.18555 -0.12768 -0.19926 -0.19884 0.059678 -0.33023 -0.17889 0.0022881 0.049091 -0.2266 0.043504 0.37002 -0.28027 -0.22433 -0.19939 -0.023799 0.059847 -0.10657 0.65435 -0.010311 -0.067012 -0.21276 0.18415 0.44513 -0.034282 0.28356 0.40184 -0.3692 -0.0077818 -0.023524 0.014245 -0.13948 0.14562 -0.27563 0.010701 0.015445 0.024775 -0.22352 0.026041 0.035219 -0.22541 0.16511 0.098907 -0.17583 -0.3806 -0.29202 -0.33871 -0.28697 -0.47539 -0.28647 0.10105 -0.26845 -0.52915 -0.048714 0.13504 0.24503 -0.28429 0.10356 -0.073213 -0.42382 0.16534 0.003945 0.39211 0.097473 -0.39953 0.43958 -0.1036 -0.038945 0.48682 -0.28553 -0.36859 0.20494 0.0474 -0.2873 0.062497 -0.1347 -0.093405 -0.037521 -0.22856 -0.093091 0.19646 0.075352 -0.4269 0.17109 0.106 0.20541 0.30804 0.21829 -0.0040317 0.065269 -0.34228 0.12932 0.16044 -0.3217 
inouye 0.10565 -0.051549 0.0075656 0.18477 -0.078189 -0.2315 -0.13702 -0.0081631 -0.03547 0.20547 0.39686 0.20091 0.046371 -0.10092 -0.18735 -0.29534 -0.015094 0.090734 -0.3034 -0.24986 0.12892 0.42269 -0.073805 0.33369 -0.20547 -0.37839 0.16163 0.08508 -0.22113 0.15934 -0.30947 0.099217 -0.4715 0.51887 0.47455 -0.27388 0.14136 -0.083925 0.055845 -0.22133 -0.17301 -0.11975 0.19704 0.12323 -0.026706 0.20345 0.17919 -0.32613 0.34052 -0.17334 -0.11625 0.12288 0.45495 -0.154 -0.092303 -0.26643 -0.11622 0.11317 0.018317 0.28021 -0.28319 -0.08805 0.33943 -0.3807 0.17491 0.26752 -0.34329 0.10993 0.11619 -0.02082 -0.24679 0.12903 0.44924 0.33951 -0.44112 0.18477 0.2056 -0.12564 0.091183 0.15875 0.26363 -0.080008 0.20814 0.15298 0.3867 -0.16105 0.42628 -0.039262 -0.040058 0.072468 0.45734 0.19241 0.2834 -0.02234 -0.50883 -0.040274 -0.037378 -0.15084 -0.32263 0.18526 0.060892 -0.30977 -0.30722 0.15977 0.23324 0.18756 0.35911 0.48696 -0.23182 -0.21415 -0.17502 0.32818 -0.063769 0.37338 0.079337 0.20724 0.033432 -4.5594e-05 -0.4147 0.079141 0.32442 -0.039795 0.26855 -0.32024 -0.099156 -0.23652 0.18518 -0.13665 -0.05451 0.024596 -0.47556 0.041306 -0.34236 -0.32198 -0.72501 0.39849 0.15243 -0.098413 0.17922 -0.11769 0.52394 0.39931 0.30164 0.22885 -0.13934 0.18279 0.34801 -0.14533 -0.051352 -0.13075 -0.11177 0.39399 -0.27033 -0.069507 -0.095631 0.19124 0.037783 0.3263 0.015512 0.1337 0.21055 0.074599 -0.21304 -0.12567 0.022986 -0.33718 0.033606 -0.088736 0.38378 0.12351 -0.2608 -0.22324 0.28728 0.21809 -0.085148 -0.18757 0.12727 -0.10974 -0.098187 -0.19341 0.61336 -0.36502 -0.20017 0.25672 -0.13007 -0.028724 -0.22843 -0.25322 -0.0012356 0.39346 0.20434 -0.13306 -0.38153 0.28609 0.21863 0.16948 0.29623 -0.30091 0.12142 -0.10655 -0.79206 -0.32844 -0.16165 -0.17904 0.27743 -0.046874 -0.42091 0.44702 0.037309 -0.072432 0.11516 -0.34915 0.34238 0.12457 0.26902 0.19609 0.11901 -0.41688 0.0088317 -0.54193 0.044595 0.20435 0.017197 -0.057566 0.33486 -0.28707 -0.0041506 -0.059565 0.11366 0.3939 -0.31055 0.17758 0.12957 0.19167 -0.13863 -0.083742 0.1938 0.0020532 0.23696 -0.4022 0.59961 0.14764 -0.033995 -0.45494 0.14926 0.14416 0.15684 -0.35978 0.26708 -0.25509 -0.27371 -0.13222 -0.43853 -0.30838 -0.84817 0.15561 -0.17148 -0.017931 -0.35176 0.0032078 -0.15071 0.24148 -0.085508 0.0081613 -0.17828 -0.58502 0.0047303 0.3522 0.23615 0.17391 0.18088 0.032875 -0.45472 -0.38037 -0.098086 -0.19564 -0.22063 -0.19255 0.58398 -0.31333 -0.1337 0.012766 -0.068276 -0.11294 -0.5038 -0.29069 0.15542 0.5662 0.061017 0.40967 0.58069 -0.058982 -0.23649 0.12435 0.096089 0.11794 -0.24168 0.10073 0.22898 -0.20092 
matsunaga -0.22865 0.13869 0.087628 -0.028531 0.089307 -0.3368 -0.0515 -0.21814 -0.48287 0.12034 0.60442 0.45942 -0.062457 -0.13494 -0.32599 0.51514 0.55666 0.037111 -0.13103 -0.25415 0.38473 0.42441 -0.35899 0.80221 -0.12148 -0.23802 0.101 -0.0018234 -0.5253 0.034403 -0.089906 0.00053037 -0.12608 0.52769 0.38505 -0.43935 -0.045127 -0.18296 0.20998 0.084394 -0.67905 0.019017 -0.0018521 0.36312 -0.080013 0.30439 0.13945 0.073603 0.33463 0.023526 -0.26394 -0.10051 0.22653 -0.0015242 -0.0057841 -0.25588 -0.10735 -0.42888 -0.36735 0.12701 -0.36415 -0.21983 0.29213 -0.26816 0.45573 0.31913 -0.093054 -0.27282 0.28411 0.088191 -0.40277 0.47771 0.47935 0.56607 -0.33026 0.38613 -0.13146 -0.19239 0.13419 -0.093812 0.2818 -0.26284 0.091639 0.54672 0.18183 0.15371 -0.34535 0.30023 0.15201 0.58782 -0.22566 0.15993 0.2939 0.045348 -0.33687 -0.60227 -0.30621 0.32256 -0.054452 0.29198 0.023593 -0.089978 -0.085189 0.38407 0.019833 0.23702 0.2137 0.27575 -0.17593 -0.11022 -0.54618 -0.13075 0.071277 0.20141 -0.078751 0.033709 -0.13983 0.12239 0.16671 -0.16061 0.67985 -0.08986 0.15792 -0.32106 0.031321 0.051626 0.13947 0.37478 0.38514 0.36539 -0.0067459 0.38631 0.081268 0.0099773 -0.67119 0.50146 0.18771 -0.47473 -0.25212 0.029212 0.51576 0.3864 0.29285 -0.10932 0.1545 0.14449 0.13622 -0.32339 0.077518 -0.070226 -0.13855 0.89868 0.17251 0.18933 -0.365 0.42655 -0.26256 0.15881 -0.54843 0.1037 0.0030357 0.064985 -0.66051 -0.01848 -0.28979 -0.50625 0.14897 0.20944 0.067971 0.51957 -0.25419 -0.40861 0.30305 0.29978 0.067558 0.035266 0.22969 -0.24296 -0.4678 -0.31502 0.81533 -0.023652 -0.22465 0.24469 -0.53233 -0.35981 -0.28822 -0.15762 -0.38743 0.017859 -0.042335 -0.19184 0.048267 0.40668 0.28446 0.14419 -0.0034142 -0.79494 0.22614 0.32429 -0.45069 0.027192 0.068039 0.024286 -0.054378 -0.10099 -0.3029 0.33106 -0.096235 -0.30397 0.097457 -0.63065 0.072376 0.26666 0.051704 0.06671 0.1587 -0.28612 -0.37015 0.13306 0.07462 0.012447 0.20118 -0.23798 0.22664 -0.11287 -0.31185 0.14082 -0.043365 0.23784 -0.21393 -0.063681 0.22711 0.32463 -0.20688 -0.18275 -0.21392 0.14186 -0.16827 0.07003 0.33248 0.26763 -0.11926 -0.17111 0.10623 0.29863 0.035092 0.33829 0.10499 -0.22041 -0.049929 0.16543 0.34294 -0.16099 -0.41049 -0.30939 0.11591 -0.13285 -0.081827 0.26679 0.014593 0.33659 -0.16552 -0.41999 -0.46973 -0.41987 -0.25036 -0.067747 0.62377 -0.22622 0.30967 0.086209 -0.59116 -0.89951 0.52798 -0.21692 -0.6447 -0.20642 0.18399 -0.14179 0.17213 -0.2021 -0.26443 -0.37095 -0.15642 -0.039036 0.34546 0.8267 0.31124 0.047261 0.6281 -0.032672 0.002584 0.46917 0.092208 -0.35825 -0.5307 0.29785 -0.083355 -0.03945 
mcclure 0.24276 0.15428 0.073421 0.46219 -0.14699 -0.47465 -0.10747 0.040472 0.083376 -0.10724 0.29515 0.17044 0.10399 -0.14946 -0.43317 -0.20631 0.074336 -0.23808 -0.12585 -0.2617 0.033304 0.14065 -0.17249 0.10978 -0.080306 -0.30927 -0.31747 0.10783 0.061136 -0.012982 -0.32609 0.026411 -0.066356 0.036309 0.14697 0.022619 0.21635 0.13906 -0.043736 0.31386 -0.3985 0.017574 0.91342 0.27184 0.24511 0.18333 0.13546 0.2741 0.21585 -0.11146 -0.33972 0.23184 0.015704 -0.082884 -0.19583 -0.019636 -0.28158 -0.11312 -0.062585 0.097071 -0.13827 0.024522 -0.018228 0.070227 -0.086824 0.16036 0.081226 0.2479 -0.29757 0.22906 -0.38207 0.028157 -0.023607 0.17964 -0.35338 0.082636 -0.092243 -0.37646 -0.28021 0.17942 0.36148 0.10389 0.27544 -0.08866 0.062203 -0.082988 -0.12438 0.086872 0.23603 0.013044 0.025051 0.09621 0.49224 0.26443 0.02503 -0.26299 0.027166 -0.029994 -0.18437 0.18104 0.24452 0.083088 -0.059034 0.023656 -0.3433 -0.18299 -0.17956 -0.072324 -0.24264 0.15517 -0.074356 0.041532 -0.31137 0.20862 -0.27341 0.010147 0.12178 0.50492 -0.37447 0.14399 0.10521 -0.30247 -0.10888 0.022737 -0.16986 0.032727 0.37676 0.10628 -0.23446 0.021252 -0.10342 0.27679 0.36246 -0.0012356 -0.29422 -0.20283 -0.029143 0.066752 0.34587 0.02181 0.37395 0.39319 0.20854 0.23529 -0.041354 0.25727 0.36348 0.044143 0.22316 -0.025914 -0.059559 0.095851 -0.23285 0.070443 -0.20997 0.46388 -0.037375 -0.21826 -0.29082 -0.24895 -0.19805 -0.21917 -0.34512 0.24434 -0.1767 -0.07175 -0.17424 -0.47491 -0.12933 0.2717 -0.11301 -0.13942 0.25201 0.42858 0.13624 -0.1521 0.16235 -0.089033 -0.16959 0.16588 0.41711 0.02668 0.11007 0.084431 -0.62481 -0.23637 0.1344 -0.32287 -0.039017 0.044161 -0.026922 -0.29496 -0.20877 0.10377 0.013195 0.059055 0.023695 -0.22711 -0.082554 -0.08915 -0.38925 0.14399 -0.04427 -0.54619 -0.14582 -0.28496 -0.081585 0.27808 -0.0036716 0.12071 0.4192 -0.26093 -0.34771 0.33308 0.28793 -0.23513 -0.17155 0.29007 -0.056972 -0.15176 0.0016785 -0.10528 0.21876 -0.27609 0.72413 -0.5733 -0.12177 -0.13617 0.11435 0.3989 0.18119 0.23479 0.1258 -0.29734 -0.015541 -0.10134 0.055753 -0.19052 0.060357 0.027686 -0.1392 0.42182 -0.39791 -0.3816 0.13121 0.53036 0.036574 0.19325 -0.10463 -0.30691 -0.050456 -0.25614 -0.29021 0.14756 -0.3901 0.049497 0.221 0.043837 -0.17033 0.19115 0.058859 0.10742 -0.12629 -0.092276 -0.36468 -0.32187 -0.16082 0.14644 0.13752 -0.48429 -0.22587 0.20803 -0.10389 -0.19503 0.43779 -0.13592 0.073021 -0.068371 0.2124 0.062337 -0.026931 -0.13187 -0.048166 -0.24906 -0.021597 -0.21106 0.01842 0.18277 -0.38875 0.091461 -0.12402 -0.042067 0.11614 0.18554 -0.045264 -0.022262 0.11251 0.37685 0.32953 0.044804 
symms 0.056837 -0.095919 -0.19213 0.1577 -0.11869 -0.45984 -0.19438 0.18608 0.28905 0.37336 0.16422 -0.058739 -0.044583 -0.18723 -0.19264 -0.034899 0.0855 0.096495 -0.5458 -0.1182 0.21939 -0.032603 -0.12614 0.31375 0.008152 -0.55805 -0.144 0.010868 0.24558 -0.10045 -0.32978 -0.1035 0.26488 0.059592 0.61986 -0.12481 0.32947 0.12729 -0.009899 0.22412 -0.41659 -0.34015 0.64986 0.043297 0.026037 0.69 0.0076645 0.29417 0.44402 0.1497 -0.26524 0.45278 0.015752 -0.39889 0.12622 0.48097 -0.18824 -0.10897 0.039813 0.27801 0.34221 -0.20221 -0.038804 0.065396 0.3831 0.045256 0.11524 -0.18198 -0.16372 0.095865 -0.47376 -0.20017 0.3179 0.23428 -0.26676 0.3059 -0.10927 -0.30014 -0.17756 -0.028461 0.27347 0.071548 0.13868 0.01893 -0.047892 -0.27714 -0.13731 0.093799 -0.042819 0.13829 0.26079 -0.18764 0.68798 0.45611 -0.11092 -0.35123 -0.13107 0.027091 -0.25351 0.53592 -0.15297 -0.13377 -0.26602 0.069825 -0.39702 -0.23215 0.19815 -0.17816 0.19646 -0.24901 0.0055348 0.048479 -0.44231 0.14903 -0.32318 0.3406 -0.25735 0.24533 -0.048835 -0.041742 -0.24894 -0.37383 -0.48958 -0.19157 -0.24243 0.026272 0.10681 0.20631 -0.016393 0.20346 -0.20898 0.38572 0.040203 -0.16154 -0.34917 -0.15744 0.18614 -0.10985 0.306 -0.53752 0.048919 -0.0031292 0.37852 0.40675 0.093355 0.4223 0.057913 -0.24626 0.36839 0.12378 -0.082803 0.4375 0.15036 0.43445 -0.088837 -0.13052 -0.11053 -0.32664 -0.19834 -0.086253 -0.16051 -0.27591 -0.79711 0.39799 -0.17944 -0.23325 -0.15991 -0.41919 0.4366 0.24321 -0.045846 -0.38377 0.56437 0.21909 0.29034 0.1408 -0.1983 -0.42329 -0.083601 -0.089872 0.4135 -0.023044 -0.28216 0.3073 0.10364 -0.010241 0.1475 -0.41779 -0.2876 0.052136 0.17614 -0.11809 0.021572 0.075984 0.12949 0.021255 -0.18075 -0.20971 0.081343 0.038066 -0.55956 0.011261 -0.042827 -0.20576 -0.12528 -0.28941 0.045304 0.25821 -0.30911 -0.22393 0.30042 -0.16459 -0.38596 -0.066257 0.42782 -0.28136 0.042973 0.18776 -0.14258 -0.06556 0.029437 -0.32631 0.20451 -0.056559 0.83116 -0.62356 0.23208 -0.075142 0.18585 0.33546 -0.26375 -0.086763 0.20141 -0.14583 -0.12321 -0.14341 -0.21392 -0.088434 -0.22443 0.055398 0.080212 0.42184 -0.15685 -0.36272 -0.00089139 0.53711 -0.54066 0.18792 0.1372 -0.11165 0.22335 -0.021135 -0.3994 -0.2128 -0.76388 -0.1428 0.0081085 -0.15659 -0.052911 0.1195 0.29166 -0.044969 -0.21149 0.051345 -0.58987 -0.18568 -0.12535 0.1674 0.54068 -0.58081 -0.37128 0.047873 -0.31954 -0.23852 0.34676 -0.63758 -0.24293 0.025891 0.34268 -0.002689 -0.30739 0.041121 0.042796 -0.38552 -0.089931 -0.35561 -0.24792 0.20452 -0.68895 0.36422 0.4526 0.23243 0.51996 0.45748 0.17042 0.28421 -0.28467 0.2144 0.018793 -0.0039026 
percy 0.16573 0.23396 0.015072 0.20657 -0.068973 0.033606 -0.13041 -0.082364 0.010909 0.1679 -0.034945 -0.025217 0.15707 -0.24301 -0.12894 -0.015035 -0.046742 -0.16396 -0.26051 -0.27021 0.27403 0.25372 0.0058073 0.30763 0.072207 0.086013 0.26764 0.19122 0.080724 0.23682 0.11685 0.043649 -0.15496 -0.1684 0.31976 -0.16183 -0.24604 -0.083449 0.13276 -0.087942 -0.10563 0.18556 0.1292 0.29013 0.26569 -0.0519 -0.11817 -0.17382 0.19596 0.003319 -0.12656 0.66333 0.31683 0.052187 -0.11002 0.18482 -0.022172 0.2914 0.11956 0.097928 -0.043982 0.30718 0.36015 0.11752 -0.02155 0.1061 -0.055032 -0.03747 -0.12111 0.28803 -0.57544 -0.0042988 0.096686 0.42439 -0.18519 -0.029099 -0.12171 -0.32102 -0.14336 -0.021322 0.25079 0.12125 -0.044535 0.34358 0.15783 -0.19499 -0.17631 0.10429 0.076625 0.17909 -0.05723 -0.12966 0.34464 0.33985 -0.33591 0.025348 0.010979 0.092694 -0.30113 0.06684 0.01577 0.1984 0.17249 0.28683 -0.068343 0.30725 0.14405 0.15972 0.16208 -0.1076 -0.036977 0.053607 0.16288 0.2661 0.11927 -0.32227 -0.21585 -0.22851 -0.36139 -0.050175 0.36134 -0.26343 -0.25995 0.38171 0.06675 0.17819 0.29211 -0.28514 -0.0034189 0.12625 -0.30474 0.11846 -0.066714 -0.3497 -0.52593 -0.0039854 0.098837 -0.10164 0.013854 0.16652 -0.084993 0.13488 0.15256 0.48916 -0.12108 0.14044 0.2499 0.24642 0.098151 0.21735 -0.078805 0.068655 0.017787 0.16611 -0.011091 -0.061961 -0.0057553 0.22893 -0.21432 -0.27278 -0.18359 0.067991 -0.29787 -0.05266 0.17794 -0.4579 -0.020965 -0.34971 0.059881 0.2656 0.12161 -0.24888 0.40382 0.3674 0.18619 0.033994 0.29371 -0.10255 -0.25522 0.18059 0.091816 -0.21587 0.0029033 0.70907 -0.30605 0.46088 0.24784 -0.44726 0.1589 0.047553 0.22362 -0.62705 -0.050059 0.29198 0.35695 0.036579 -0.31499 -0.45744 -0.024369 -0.055426 -0.18684 0.19344 0.050057 -0.40339 -0.019051 -0.018982 0.12507 -0.019781 -0.47722 -0.27856 -0.07655 -0.28388 -0.34444 0.080211 -0.043439 -0.26204 -0.21578 0.067949 0.00017063 0.060223 -0.09045 -0.053203 -0.18957 -0.32576 0.8413 -0.16409 0.08696 -0.51746 -0.048514 0.21683 0.22039 0.081834 0.27512 -0.16883 0.1868 -0.15788 0.2453 -0.042626 0.33411 0.23972 0.15619 0.14632 -0.0043045 -0.13749 -0.28116 0.065406 -0.15056 0.032324 0.34369 -0.40398 0.13527 0.045733 -0.18487 -0.10328 -0.6048 0.11241 0.064349 -0.05678 -0.2484 0.36012 0.25818 0.0019576 0.031308 0.18574 -0.13704 -0.41622 0.23932 -0.092477 0.27041 0.069661 -0.059362 0.23934 -0.4952 -0.31082 0.025659 -0.18 0.028798 0.55236 -0.029046 -0.039009 -0.2076 -0.27018 -0.63205 -0.13602 0.095051 -0.16793 -0.070391 0.10395 -0.16258 0.31601 0.11244 -0.073925 0.15835 0.28271 0.185 -0.0099444 0.054331 -0.04216 -0.1346 -0.05761 
dixon 0.19103 0.13603 -0.17286 -0.21095 0.033799 -0.091441 -0.41655 -0.064795 0.083847 -0.17733 0.34859 0.25485 0.25141 -0.14851 0.078511 -0.1903 -0.2697 0.35575 -0.27896 -0.078528 0.0082203 0.2403 0.076798 0.21209 -0.24594 0.10073 0.1008 -0.099209 0.0099732 -0.19412 0.08631 0.26154 -0.096228 0.23082 0.39903 -0.43314 -0.061627 0.13628 0.019645 -0.31828 -0.28304 0.25071 0.49747 0.58741 -0.1269 0.033704 0.072237 0.20868 0.020934 -0.21841 0.007205 0.40852 0.33751 0.10076 0.12287 -0.15391 -0.28588 -0.20895 0.00094657 0.1062 0.19745 0.052692 0.39437 0.0553 -0.043963 -0.23798 -0.19548 -0.12593 -0.00055465 0.19225 -0.597 0.15056 0.075972 0.31674 -0.035981 0.12885 0.1789 -0.27409 0.20651 0.01849 0.02949 -0.15174 0.35148 0.2151 0.035198 -0.33911 0.065013 -0.099701 -0.0041846 -0.16804 0.2499 -0.16481 0.15258 -0.10834 -0.066828 -0.17807 -0.10789 0.16516 -0.46657 0.15312 0.16423 0.082824 -0.11296 -0.1803 -0.084158 0.17596 0.21442 -0.16124 -0.28319 0.11667 -0.016888 -0.059597 0.020959 0.079852 0.2884 0.2377 -0.16628 0.015644 -0.30448 -0.32051 0.18853 0.00064763 -0.061384 0.07913 -0.038549 -0.12865 0.35537 -0.15844 0.20478 0.078254 -0.19963 -0.095683 -0.077094 -0.0025523 -0.027148 -0.26608 0.01239 0.012653 0.31886 -0.35381 0.12782 0.011531 0.36454 0.49734 0.091816 0.014901 0.20901 -0.32917 -0.090536 0.12718 -0.33648 0.62997 0.0060402 0.20739 -0.39375 0.16965 -0.13858 -0.10977 -0.39486 -0.089935 -0.22899 0.046712 0.1369 0.044371 -0.10718 -0.37567 -0.061711 -0.029252 0.2245 0.068834 -0.028577 -0.21442 -0.05992 0.14261 0.15197 -0.15708 0.35755 0.069058 0.24064 -0.1591 0.34944 -0.24446 0.015677 -0.049158 -0.19662 -0.049844 -0.47967 0.032549 0.13195 0.16119 -0.12684 -0.21834 -0.098057 0.23144 0.039165 0.39215 -0.14562 -0.16579 0.23148 -0.021018 0.065376 -0.1776 0.0057668 -0.18843 0.31234 -0.34033 0.14523 0.2786 -0.47197 -0.14894 -0.10001 -0.060952 -0.22106 0.038008 0.34449 -0.23317 -0.2762 -0.34693 -0.20757 -0.29356 0.12379 -0.17762 0.051079 0.20574 0.019417 -0.35794 0.11923 -0.33566 -0.13071 -0.00064607 -0.075135 0.35358 0.309 -0.11319 -0.16831 0.066051 0.13124 0.18198 0.2731 -0.18761 -0.036979 -0.15163 0.042695 -0.1091 -0.13179 -0.0073095 -0.069805 -0.2975 0.28897 0.019087 -0.09242 -0.37913 -0.40796 -0.0029918 -0.18897 -0.47227 0.38113 -0.26612 -0.40158 -0.11837 -0.40492 0.34738 -0.2324 -0.042697 0.18023 -0.3426 0.15784 -0.16804 -0.0098636 0.045744 -0.32306 0.39039 -0.16593 0.020504 0.30976 -0.1405 0.12702 0.38354 0.24624 0.10945 -0.099646 0.027402 -0.13719 -0.25969 0.096405 0.18359 -0.072983 0.57291 -0.19087 0.30308 0.06449 -0.23079 0.07297 0.046664 -0.078533 -0.0050597 0.50383 0.23253 -0.2862 -0.19422 
quayle -0.075882 0.078628 0.13143 0.11495 -0.001303 -0.45043 -0.11384 0.088711 0.098004 0.3206 -0.097227 -0.099293 0.008681 -0.091604 0.051632 0.00049659 0.24797 0.1197 -0.22966 -0.31264 0.12311 0.26754 0.013965 0.38026 -0.0053048 -0.076581 0.060647 -0.23934 0.14141 0.084529 0.11003 0.18805 -0.2594 0.084776 0.15206 0.036319 0.039749 0.14811 -0.14215 0.14478 -0.17886 0.061285 0.38465 -0.072301 -0.018835 0.2049 -0.18133 0.11857 0.16049 -0.22854 -0.34426 0.32189 -0.36021 -0.16077 -0.34897 -0.012755 -0.42878 -0.018925 -0.20646 -0.25011 -0.27351 -0.17862 0.27782 0.18889 -0.26149 -0.04402 -0.25739 -0.11812 -0.072668 0.32687 0.027974 0.13251 0.23344 0.24834 -0.40245 -0.091841 0.22399 -0.48292 0.13267 0.11416 -0.18615 0.62125 0.029214 -0.03969 0.078638 -0.25504 0.12178 0.0013024 -0.3005 -0.038671 0.063532 0.41168 0.25494 -0.17121 -0.14832 -0.18288 0.22582 -0.06452 -0.13856 0.33852 -0.25464 0.40742 -0.073803 0.022146 -0.090807 -0.14205 0.12482 0.2693 0.090702 0.059617 0.12592 0.19553 -0.43513 -0.33143 0.14512 0.16228 0.035321 0.11394 0.028979 -0.056743 0.016998 -0.19373 -0.038551 0.068396 -0.35981 -0.14968 -0.019987 0.034888 -0.19903 -0.039869 -0.094072 -0.2402 0.053311 -0.39133 -0.48687 0.081915 -0.32784 -0.15971 0.081465 -0.13909 0.18204 0.36643 0.068601 0.19817 -0.3174 -0.041324 -0.047165 0.25463 0.23838 0.0085117 -0.058565 0.59912 0.28522 0.14772 0.03842 0.17632 -0.083845 0.027878 0.16334 -0.095739 0.16825 0.18263 -0.22389 -0.05516 -0.16995 -0.33953 0.12659 0.0086123 0.090825 0.12441 -0.055779 -0.13095 0.17755 0.31671 -0.28314 0.0056215 -0.10619 -0.27686 -0.38258 0.067592 0.104 -0.19748 -0.075176 0.31898 -0.15294 0.091951 -0.37036 -0.04365 0.050643 -0.016624 0.078869 0.018817 -0.052988 -0.15066 0.23159 0.22028 -0.33123 0.12171 0.10014 0.082046 0.005617 -0.012703 0.089228 0.10389 0.25454 -0.11531 -0.096745 0.1292 0.030902 -0.20291 -0.11274 -0.18385 0.043601 0.24617 0.23336 -0.30501 -0.043883 -0.15799 0.054411 -0.3469 -0.31297 -0.19782 -0.14471 -0.1346 0.65402 -0.24929 0.033581 -0.17711 0.33375 0.22734 -0.15742 0.076622 0.14124 0.037832 -0.07056 0.025825 0.0089001 -0.006952 -0.048468 0.18778 0.0783 0.10496 0.050481 -0.14537 0.087716 0.37622 0.019358 -0.20642 -0.18821 -0.24795 0.28087 -0.096001 -0.018944 0.11132 -0.35747 -0.074035 0.085541 -0.30295 -0.21553 0.077292 -0.03214 0.31763 -0.47127 0.060263 -0.05797 0.014508 -0.13435 0.2341 0.24291 0.10456 0.032926 0.43325 -0.16877 -0.10214 -0.033815 -0.46606 -0.52399 0.016266 0.39149 -0.022206 -0.3314 -0.024224 -0.17266 -0.10725 0.013694 -0.18463 -0.27055 -0.041231 -0.37257 0.21339 0.37072 0.074338 0.088488 0.0054086 0.28248 -0.02892 0.071961 0.031382 -0.030335 0.28056 
lugar -0.16238 -0.064804 0.33959 0.28666 -0.16294 -0.016387 -0.080026 0.19527 0.053564 0.35008 0.15217 -0.26201 0.26462 0.10283 -0.16445 -0.29364 0.057718 0.21069 -0.26168 -0.13882 0.47174 -0.091144 -0.017139 0.34174 0.018564 -0.42236 0.017923 -0.20531 0.049307 -0.026999 -0.25475 -0.15446 -0.057183 0.12574 0.57784 -0.017987 0.27644 -0.17559 -0.083031 -0.011839 -0.060055 0.31805 0.59259 -0.1045 0.24662 0.022466 -0.066597 -0.029446 0.24803 -0.17529 -0.21513 0.14503 -0.038501 0.081548 -0.17892 -0.094696 0.032503 0.20877 -0.18583 0.037301 -0.10193 0.11018 0.41714 0.11524 -0.12791 0.58705 -0.36998 0.007087 -0.13348 0.027271 -0.2037 0.33516 0.13547 0.35604 -0.11005 -0.4242 0.30138 -0.29519 -0.032205 -0.091237 0.036524 0.27345 0.12427 0.49741 0.15367 -0.34211 -0.10393 0.20304 -0.041108 -0.040187 0.48526 0.53735 0.3641 0.18029 -0.27545 -0.11026 0.063159 -0.10083 -0.050726 0.040095 -0.20703 -0.048599 -0.35198 0.25483 -0.095553 0.40614 -0.057195 0.2237 0.018613 0.14261 -0.22206 0.37347 -0.20259 -0.019574 -0.42643 -0.0055988 0.0067836 -0.16717 -0.18734 0.030867 0.059081 -0.4038 -0.24037 -0.23646 -0.085757 0.015778 -0.08207 -0.11065 -0.034858 -0.035271 -0.13464 -0.10495 0.093418 -0.47986 -0.40687 0.43227 -0.26211 -0.015614 -0.17415 -0.29328 0.11525 0.31219 0.040801 0.40075 -0.51992 0.19938 0.31912 -0.3633 0.31569 -0.14896 0.2015 0.29336 0.099894 -0.083304 -0.27449 0.2918 -0.057452 0.25903 0.0028235 -0.33989 -0.15913 -0.24456 -0.40665 0.25254 -0.099488 -0.022105 0.02325 -0.53188 0.15963 0.015892 -0.15424 -0.63821 0.28504 0.30526 -0.0072826 0.063804 0.064672 -0.2244 -0.18318 -0.03048 -0.066505 -0.34803 -0.33582 0.27908 -0.43969 0.17 0.20201 0.0018779 -0.32758 -0.087504 -0.43894 0.062145 0.19794 -0.01363 0.15516 0.28855 -0.24894 -0.31039 0.029043 0.38245 -0.40076 -0.0010086 -0.31542 -0.044637 0.016252 -0.24792 -0.36528 0.11887 -0.23471 -0.14344 0.098488 -0.17087 -0.081457 -0.055816 0.22894 -0.4221 -0.08291 -0.0024029 0.14599 -0.42908 -0.15917 -0.53325 0.041046 -0.14035 0.52129 -0.26787 -0.029435 -0.34605 0.20402 0.036872 -0.10845 -0.021751 0.31515 -0.4624 -0.01896 0.054165 0.094699 0.28267 0.21344 0.037599 -0.011872 0.079077 0.0066792 -0.17195 0.037908 0.17983 -0.15119 -0.045897 -0.14037 -0.045755 0.34259 0.010322 -0.2551 -0.12161 -0.51682 -0.13381 0.3383 -0.0093505 -0.57647 0.24194 0.088365 0.27261 -0.40423 -0.00013959 -0.25996 -0.3481 -0.10894 0.34341 0.49297 -0.054162 -0.11391 0.011727 -0.021255 -0.24473 0.074966 -0.54283 0.29549 0.15365 0.58058 -0.14489 -0.13385 -0.095427 -0.14012 -0.098177 -0.086453 -0.28335 -0.16983 0.31759 -0.47516 0.20555 0.05827 0.068706 0.25435 0.31724 -0.090923 0.063266 -0.11692 -0.080033 0.31773 0.37813 
grassley 0.18554 0.064764 -0.03517 0.095496 -0.10554 -0.14996 0.14045 -0.17784 -0.17781 0.39367 0.10859 0.15834 0.16328 0.072834 -0.32881 -0.030661 -0.36676 -0.02651 -0.11195 -0.58644 0.32587 0.49252 -0.25894 0.31426 0.084275 -0.10025 0.13971 -0.26736 -0.027434 -0.12733 -0.5565 0.001193 0.10706 0.018125 0.14252 -0.018598 0.15538 0.025516 -0.10303 0.34864 -0.2886 0.011294 0.53911 0.46296 -0.14889 0.29821 0.21843 -0.10402 0.18393 0.2552 0.12203 0.26096 0.38186 -0.14618 -0.29226 -0.043101 0.31315 0.067233 0.19419 0.12735 0.54614 -0.24697 -0.038039 -0.13627 0.18152 0.39721 -0.0037801 -0.18302 0.060901 0.29844 -0.1816 0.13211 0.21443 0.052643 -0.2734 -0.11203 0.23595 -0.042242 -0.10855 0.093813 -0.095618 0.24399 0.2111 -0.037453 0.012448 -0.28881 -0.29295 0.28565 0.23311 -0.2311 0.58004 0.086429 0.49768 0.22849 -0.29771 -0.25253 -0.045132 -0.19002 -0.077535 0.24223 -0.12117 0.011674 -0.06643 0.4859 -0.066672 0.092307 0.15032 0.13056 -0.16935 0.021705 -0.37483 0.38953 -0.098555 0.22312 0.21203 -0.11003 0.022213 -0.40934 -0.12536 0.11663 0.020295 -0.40262 -0.06771 0.12707 0.086635 -0.012684 0.36675 -0.097812 0.19382 -0.25357 -0.3629 -0.059737 0.19849 -0.26555 -0.015931 -0.10125 -0.09007 -0.1927 -0.15439 -0.31194 -0.3305 0.37956 0.096883 0.50115 -0.040893 -0.0017801 0.3019 0.11263 0.14186 0.05252 -0.078429 0.059104 -0.11965 0.099788 -0.17176 -0.037576 -0.058774 -0.17232 0.022427 0.038771 -0.044516 0.13322 -0.13789 -0.081386 -0.056208 -0.18575 -0.34365 -0.30073 0.23805 0.28083 0.047686 -0.5706 0.22919 0.21358 0.12195 0.031448 -0.22751 0.0069202 -0.064772 -0.09988 0.47007 -0.10946 -0.08878 0.36473 -0.69211 0.25352 0.13929 -0.30791 -0.2211 0.27883 -0.51974 -0.32214 0.17694 0.17226 -0.29048 -0.00051996 -0.138 -0.055735 -0.23017 0.051427 -0.26284 -0.12848 -0.29322 -0.50161 0.27941 -0.24378 -0.21244 0.29076 -0.27243 0.16197 0.065007 -0.27257 0.19326 -0.12937 -0.078152 -0.19411 0.13313 -0.066757 -0.39892 -0.094429 -0.46348 -0.20502 -0.15117 -0.41401 0.69992 -0.35057 -0.17065 -0.26859 0.21031 0.52038 0.22552 0.11477 0.03054 0.04801 0.1871 0.036515 0.12262 0.12485 0.077991 -0.21337 0.22682 0.47608 0.37317 0.09915 -0.11248 0.34919 -0.01261 0.025099 0.24288 -0.28935 -0.29975 -0.29792 0.13573 -0.19738 -0.60419 0.20914 -0.044353 0.01147 -0.068353 0.2833 0.12969 0.030411 -0.10483 0.15276 -0.46287 -0.53273 -0.15299 0.54325 0.50561 -0.40865 -0.24886 -0.33687 -0.36373 -0.028523 0.28666 -0.51198 0.18309 -0.19773 0.58646 -0.062159 -0.22307 -0.16941 -0.18361 -0.038498 -0.18507 -0.052512 -0.26497 0.2835 -0.52832 0.21366 0.31693 0.22562 -0.00042223 0.26957 0.3127 -0.0077205 -0.4111 0.29087 -0.24455 -0.12461 
jepsen 0.10239 0.2926 -0.24226 -0.085829 0.22493 -0.3647 0.087146 -0.2342 0.35778 -0.0389 -0.26605 0.33611 -0.13578 -0.38824 -0.058086 -0.092203 0.21788 -0.11934 -0.31738 0.12229 0.38538 0.58606 -0.00082118 0.42872 0.22559 -0.040628 0.11385 -0.092675 -0.18726 0.34817 -0.21242 -0.087445 -0.28267 0.55517 0.21372 0.11824 -0.0928 -0.10818 -0.2187 -0.063941 -0.17524 -0.075632 0.5379 0.38537 -0.22539 -0.14464 0.0051468 0.097584 0.060289 0.51561 0.27313 0.77342 0.31304 0.019237 -0.31999 -0.16569 0.13697 -0.0052126 0.079733 0.55658 0.15613 -0.20123 0.017355 0.085435 -0.089246 0.19734 -0.19335 -0.074209 -0.32652 0.15493 0.0074816 0.54458 0.143 0.21993 -0.36127 0.05027 -0.024714 -0.33535 -0.30678 0.077107 0.1525 0.29924 0.18145 -0.093719 -0.082259 -0.48033 0.19427 -0.23413 0.15482 0.16703 0.23762 -0.16347 0.40763 0.075372 -0.21424 0.026398 0.0059728 0.27911 -0.53192 0.1948 -0.54005 0.0244 -0.1673 0.39007 -0.13156 -0.35996 0.27983 0.19608 0.1118 0.13897 0.024304 0.26166 -0.24409 0.22635 0.14551 -0.14743 -0.28802 -0.093935 -0.24482 -0.012022 0.14184 -0.35308 -0.64247 -0.010962 -0.20282 0.088988 0.21701 -0.016654 0.084131 0.17104 -0.29435 0.084195 0.15679 -0.29934 -0.44376 -0.32935 0.21516 -0.079037 0.049734 0.028315 -0.16268 0.23318 0.28615 0.9013 0.14053 0.32624 0.34431 0.19942 0.096837 0.31063 0.11126 -0.019702 0.37032 0.12598 -0.24305 -0.14931 0.19519 -0.061271 -0.18451 -0.28354 -0.28494 -0.17936 -0.20968 0.31189 0.00093064 -0.32706 -0.36079 -0.71673 0.05861 0.18063 0.29442 -0.54631 0.57937 0.38802 0.12618 -0.27728 0.36077 0.20463 -0.086158 -0.15208 0.18086 -0.2768 0.16802 0.48808 -0.27022 0.22194 0.032491 -0.39446 -0.20055 0.22357 -0.33711 -0.12614 0.10691 -0.14311 -0.18216 -0.048225 -0.4348 -0.15233 0.28694 0.067854 -0.35178 -0.18857 0.0058699 -0.49936 0.26393 -0.10382 -0.21859 0.19697 -0.19664 0.25782 0.031803 -0.25543 -0.080397 -0.19452 0.20231 -0.26489 0.11301 -0.057905 -0.53979 -0.33565 -0.22715 0.15481 -0.40174 -0.17985 0.89299 -0.33057 -0.0093785 -0.20507 -0.10588 0.48902 -0.026428 0.22472 -0.04139 -0.3714 0.24954 0.10969 -0.095888 0.091809 0.05567 -0.1729 -0.14058 0.42839 0.31084 -0.33431 -0.33176 0.22461 -0.1712 -0.087266 0.24549 -0.18468 0.083738 -0.25454 0.10383 -0.14332 -0.73625 -0.028818 -0.13539 -0.11257 0.17582 0.14919 0.18013 0.13594 -0.46838 0.045026 -0.038882 -0.11788 -0.13148 -0.079689 0.11416 -0.30513 -0.34194 0.36536 -0.073465 -0.20668 0.33467 -0.42524 0.067185 0.31812 0.093657 0.08573 -0.1439 0.25714 -0.15794 -0.034278 0.0063967 -0.53103 0.22945 0.23881 -0.34055 0.6433 0.26133 0.15721 0.30336 0.028499 0.067043 -0.079735 -0.076824 0.53552 -0.069069 0.15762 
dole 0.013781 0.040713 -0.1644 0.163 -0.14997 -0.066462 0.034565 0.05794 0.14825 0.17973 0.00071761 -0.16899 -0.045142 -0.21355 -0.0061041 0.10872 0.19734 -0.23491 0.029566 -0.32178 -0.30237 0.57747 0.014936 0.35153 -0.016811 -0.22823 0.011818 -0.17776 0.31451 0.024805 -0.01612 -0.068432 -0.28466 0.078293 0.18967 0.23549 0.17817 -0.12893 -0.054573 -0.1799 0.018926 0.082484 0.2942 0.19177 -0.0071168 0.22614 0.22193 -0.00091274 0.35292 -0.14675 -0.091854 -0.24211 0.073147 -0.082891 -0.13609 0.079442 -0.28039 0.14191 0.037913 -0.29565 0.15603 0.14104 -0.03561 0.22542 0.082531 0.31338 0.0057441 0.1958 -0.027365 0.15467 -0.16794 -0.05327 0.29856 0.15637 -0.080804 -0.192 0.0311 -0.015628 -0.065504 0.1479 0.15818 0.22035 0.026926 0.072164 -0.3101 -0.28595 0.18711 -0.15917 -0.31618 -0.36461 0.034473 0.36287 0.45983 -0.12444 -0.56541 -0.45687 0.27446 0.058029 -0.19988 0.10018 -0.086196 -0.11612 -0.27899 -0.044477 -0.1773 0.0041788 0.14452 -0.072249 0.10963 0.023789 -0.16204 0.37956 -0.49295 -0.32181 0.37896 0.083895 -0.10128 -0.090054 -0.22041 0.20849 -0.1768 0.044371 -0.0096366 0.093952 0.069538 -0.14343 -0.033589 0.0085835 -0.012275 -0.15145 -0.31412 -0.26301 0.062166 0.051058 -0.39417 0.15823 0.12853 -0.33583 0.097855 -0.10076 0.23237 0.32399 0.17718 0.70791 -0.26118 0.18112 0.21886 0.23254 0.24918 -0.11583 -0.12692 -0.014447 -0.15931 0.064041 -0.24392 0.20161 -0.010326 0.063498 0.15564 0.049724 -0.043443 0.25858 -0.25759 0.17362 -0.22175 -0.038625 -0.41364 -0.33418 0.36996 0.32592 0.071069 -0.54642 0.49005 -0.092574 0.014604 -0.19328 -0.00085316 -0.1316 -0.15362 -0.15125 0.25791 -0.28552 -0.054016 0.40997 -0.47412 0.16206 -0.038254 -0.27694 -0.14883 -0.17534 -0.26273 -0.017943 0.18151 -0.089546 0.19018 0.020153 -0.19757 -0.15507 -0.072586 -0.1276 0.024563 -0.012332 0.15569 0.029358 0.087741 0.14228 -0.15517 0.27841 -0.047436 -0.15538 -0.1595 -0.13751 -0.22746 0.054707 -0.041949 -0.49378 -0.23068 -0.20727 -0.27321 -0.46167 -0.12093 -0.42401 -0.3181 -0.19231 0.61881 -0.49123 0.036548 -0.098106 0.083092 0.32646 -0.24721 -0.1859 0.23071 -0.31607 -0.21811 -0.036808 0.0077194 0.46764 0.074306 0.0058475 0.32515 0.18152 0.14618 -0.16237 0.30492 0.16763 -0.28707 0.224 0.11992 -0.13582 0.099084 -0.22825 -0.091576 0.024682 -0.11802 -0.12584 0.12605 -0.035428 -0.23659 0.30903 0.073884 0.33042 -0.34541 -0.1431 -0.31797 -0.34603 0.12194 -0.36374 0.28442 0.11314 -0.15268 0.13199 -0.41046 0.059219 0.29456 -0.47769 -0.26761 0.073184 0.63855 -0.055481 -0.174 -0.038562 -0.006772 -0.071549 -0.19611 -0.16479 -0.25273 0.30171 -0.26912 0.27286 0.47417 0.15075 0.25479 -0.14872 0.16709 0.08716 0.0011373 -0.11093 0.33047 0.15459 
kassebaum -0.18062 0.029986 -0.24741 0.35847 0.042477 -0.3404 0.14341 -0.07556 0.080069 0.65758 0.14357 0.37557 0.34469 -0.14325 -0.225 0.10393 0.35879 -0.15923 0.12278 -0.19568 0.13702 0.49837 0.12045 0.40976 0.16783 -0.47365 -0.26498 -0.41989 -0.20599 0.027993 -0.29647 -0.00059156 -0.22552 -0.27643 0.16179 -0.28198 0.2234 0.12659 -0.26128 -0.00080843 -0.010852 0.034197 0.79618 0.098442 -0.05968 0.27726 -4.1958e-05 -0.022659 0.31132 0.054424 -0.16784 0.15769 0.14655 -0.46987 -0.063483 0.055995 -0.23378 -0.12917 -0.092163 0.22653 0.31847 -0.26369 -0.021906 0.13935 0.084813 0.64126 -0.24862 -0.018689 0.23996 0.15725 -0.20755 0.11524 0.27655 0.11403 -0.1008 -0.15053 0.17213 -0.11586 0.11495 0.16116 0.19311 0.26157 -0.041039 0.049376 0.32622 -0.26564 0.2703 0.061779 -0.37721 -0.098597 0.27215 0.019424 0.2186 -0.24333 -0.33236 -0.29893 0.226 0.24847 -0.28717 0.054821 -0.33389 -0.35716 -0.27594 0.31034 -0.25178 0.62093 0.28146 0.24594 -0.22293 -0.12743 -0.081679 0.031739 -0.37856 -0.13662 -0.40241 -0.14604 0.20519 -0.044375 -0.54443 0.067956 0.085202 -0.31584 -0.086375 -0.34872 -0.13297 -0.06484 -0.16641 -0.11284 0.17242 -0.27359 -0.43764 -0.098137 0.10057 -0.046414 -0.19942 0.21497 0.23877 -0.35111 0.26426 -0.08153 0.3594 0.1238 0.51619 0.15986 -0.23212 0.11713 0.71084 -0.074844 0.26316 0.06535 -0.099952 0.28359 -0.6011 0.12034 -0.28456 0.40623 -0.020722 0.19287 -0.28912 -0.31308 -0.014183 0.060103 -0.21202 0.016067 0.090402 -0.11268 -0.3355 -0.57726 0.11331 0.31995 -0.2599 -0.41448 0.8762 0.60918 -0.17074 -0.21742 0.3089 -0.021256 -0.024858 -0.27908 0.4089 -0.3641 -0.19692 0.34259 -0.17117 0.22752 -0.058981 -0.26296 -0.089191 -0.031693 -0.46316 0.099338 -0.0028129 -0.037697 -0.079523 -0.15475 0.22902 0.0072156 -0.045293 0.081895 -0.29599 0.081255 0.15621 -0.2034 0.08436 0.21479 -0.061021 0.12114 0.14677 -0.069255 -0.048136 -0.25678 -0.12834 0.011411 0.1486 -0.44577 0.30689 0.086784 -0.087752 -0.18693 -0.11186 -0.29091 -0.46528 -0.44849 0.78537 -0.48552 -0.023025 0.021261 -0.096422 0.38744 0.12833 -0.069916 0.15478 -0.18808 -0.21701 0.10004 -0.063901 0.48031 0.087882 -0.095617 0.047049 0.16612 0.0063835 -0.59111 0.01084 -0.011543 -0.024578 0.17743 0.28453 -0.21196 0.19723 -0.42713 -0.34899 -0.1417 -0.68935 -0.10026 -0.11026 -0.11095 -0.24453 0.10371 0.0068282 0.2879 -0.28179 0.018758 -0.26939 -0.30674 0.091827 0.044781 0.5245 -0.20714 -0.098823 0.28645 -0.21936 0.14345 0.17747 -0.52928 0.1963 -0.073707 0.19289 -0.13291 0.042526 -0.33048 0.03902 0.10174 -0.15322 -0.51059 0.027001 0.02256 -0.19111 0.1719 0.46326 0.64854 0.39223 0.085816 0.0082546 0.29715 -0.15312 0.10141 0.013744 0.075421 
