conservative 0.085342 0.17152 -0.0162 -0.34792 -0.19908 0.022589 0.11714 0.017171 0.13127 -0.11378 -0.031365 0.2196 -0.087964 0.05291 0.25635 -0.091181 -0.091179 -0.32619 -0.52022 -0.25173 0.31684 0.20515 0.049964 -0.024604 0.050593 -0.032409 0.47447 -0.19426 0.011876 -0.16413 0.045485 0.037805 0.14821 -0.3142 -0.26072 0.12966 -0.35601 -0.17367 -0.22925 0.18003 0.22245 0.26303 0.086711 -0.27709 -0.31808 -0.447 0.23357 -0.017669 0.066661 0.03353 -0.074272 0.16592 -0.14266 -0.012713 -0.17087 0.030528 0.13772 -0.071983 0.34062 0.2027 0.47097 -0.067563 0.2915 0.113 -0.10106 -0.034725 -0.097 0.022757 -0.18847 -0.01998 -0.41384 0.034563 0.18667 -0.079642 -0.051806 0.35354 0.031184 0.026759 -0.42922 0.23471 0.10154 0.16427 0.1474 -0.10987 -0.1086 -0.33305 0.084437 -0.25595 0.24185 0.029197 -0.29303 0.069374 -0.10207 -0.47286 0.052237 0.1439 -0.041252 -0.059637 -0.23252 0.2502 -0.23293 0.022246 0.029446 -0.067961 -0.27274 -0.031754 -0.21935 0.12381 0.022792 0.25678 -0.37177 -0.15899 -0.26713 -0.35962 -0.072335 0.23768 0.23663 -0.23871 -0.2249 -0.032709 0.39724 0.18439 0.020823 -0.13911 -0.15621 0.20957 0.077286 0.29913 0.12814 -0.01266 -0.1007 0.17226 -0.17985 0.43724 0.25657 0.33491 -0.16439 0.19277 0.16545 0.067151 -0.42167 0.16888 0.05865 0.046603 0.049834 0.10211 -0.027309 -0.30713 0.037401 -0.081125 0.025326 -0.17664 0.29062 0.019196 -0.21513 -0.089106 0.12114 0.080645 0.43145 -0.10596 -0.31916 0.10821 -0.088464 0.091669 -0.0028227 -0.17731 -0.074722 -0.11049 0.015881 -0.14895 -0.068398 -0.094453 -0.096978 0.44422 -0.07831 0.20774 -0.26593 0.097061 0.32682 -0.59409 0.053668 0.20758 -0.33892 -0.018148 -0.1459 0.20016 0.072826 -0.28564 0.085226 -0.18045 -0.079227 0.20377 0.13721 0.062157 -0.071617 -0.23991 -0.04265 0.35698 -0.1616 -0.14228 -0.063496 -0.25552 0.067178 0.29212 0.31852 0.3995 0.22131 -0.26674 0.077821 -0.14025 0.13961 0.16695 -0.17965 -0.10087 0.044603 -0.38612 -0.033338 0.19428 0.18275 0.047871 0.24121 0.21399 -0.30465 0.21675 -0.24685 -0.094034 0.091293 -0.023585 0.02542 0.046997 0.02179 -0.037284 0.085422 -0.19009 0.32453 0.26187 -0.034722 -0.30753 -0.16702 0.10068 -0.23588 -0.089533 -0.11229 -0.11257 0.25567 -0.12216 -0.16 -0.02626 -0.10948 0.13355 -0.19424 -0.11355 -0.10815 0.043329 -0.15713 -0.29574 -0.38406 0.10241 -0.17828 0.31112 -0.11674 0.0937 -0.090437 0.29106 0.058397 0.051249 -0.11782 -0.19743 -0.06818 0.17306 0.27235 -0.010102 -0.17584 0.37296 0.065658 0.32513 0.055625 0.32799 -0.089609 -0.017227 -0.048925 0.16094 0.10891 -0.010493 -0.14328 -0.16446 -0.18804 0.010023 0.14882 0.15121 0.20035 -0.055871 0.077758 0.082142 -0.12709 -0.35863 0.10323 0.14758 -0.24666 0.25461 
liberal 0.045761 0.016044 -0.069441 -0.060739 -0.091812 0.099945 0.32534 -0.089988 -0.082858 -0.076234 -0.032818 0.13904 -0.17637 -0.1364 0.20486 0.035133 -0.216 -0.14177 -0.32942 -0.16632 0.35212 0.29503 0.11862 -0.077021 -0.1585 -0.2714 0.33497 0.036847 0.022705 -0.24792 -0.23815 -0.012333 0.049608 -0.037477 -0.20628 0.031347 -0.13566 -0.34205 -0.48891 -0.23569 0.35678 0.26243 0.15055 -0.21486 0.011407 -0.24816 0.33624 -0.093268 0.10596 -0.087325 0.087888 0.066336 -0.23875 -0.046114 0.14398 -0.14075 0.059374 0.035053 0.28617 0.020365 0.24755 -0.10589 0.3044 -0.03213 -0.062555 0.11987 0.18574 0.10348 -0.13782 0.071342 -0.31484 0.076812 0.21483 -0.22085 -0.044276 0.31714 -0.1736 -0.076085 -0.47126 0.036249 -0.060113 0.22995 0.17067 -0.13503 -0.11866 -0.023901 -0.070368 -0.14408 0.21888 -0.080154 -0.35968 0.32302 0.068332 -0.33635 0.13345 0.012561 -0.16197 0.089262 -0.21173 0.21322 -0.10243 -0.095129 0.3213 0.033737 -0.30113 -0.021243 -0.1946 -0.22714 -0.17747 0.021381 -0.27893 -0.070339 -0.2991 -0.19662 -0.15893 0.12621 0.26067 -0.12328 -0.12653 0.075202 0.21722 0.069311 -0.21325 -0.1264 -0.28212 0.17556 0.15892 0.18594 0.17171 0.016273 -0.051168 0.136 -0.12688 0.7899 0.15998 0.19322 -0.20581 0.21926 0.18266 -0.17406 -0.20833 0.23897 -0.061934 0.024568 0.14405 0.11129 0.02241 -0.16035 0.18238 -0.17541 -0.038271 -0.13114 0.26276 -0.021599 -0.29707 0.15612 0.054041 -0.04584 0.18923 -0.20516 -0.12072 0.44752 0.01676 0.24937 0.0053442 -0.091185 -0.28219 0.0026501 0.20844 0.02844 -0.085544 0.096183 -0.2129 0.40547 -0.11552 0.10984 -0.11058 -0.14294 0.35023 -0.29606 -0.13674 -0.036138 -0.46753 0.28423 -0.30869 0.1632 0.16533 -0.21768 0.024651 -0.21662 -0.030897 0.22338 0.30513 -0.001541 -0.071581 -0.1113 0.13093 0.43736 -0.089715 0.11845 0.063926 -0.040143 -0.1413 0.48046 0.13305 0.21822 0.13704 -0.17887 0.12876 -0.27215 0.085097 0.10123 -0.25139 -0.11486 0.080566 -0.1936 -0.10058 0.067124 -0.016527 -0.14808 0.24169 0.26371 -0.099827 0.22409 -0.16947 -0.10441 -0.098589 -0.012507 0.32236 -0.075946 -0.10686 0.2631 0.26113 -0.36366 0.2783 0.24032 0.20008 -0.23708 -0.047994 0.16841 -0.089515 -0.016736 0.022793 -0.20075 0.3264 -0.043512 0.048638 0.18748 -0.074407 0.16407 -0.052248 -0.29735 -0.012579 0.13509 -0.034193 -0.42456 -0.16811 -0.057254 -0.11657 0.12969 0.082052 -0.0076823 -0.090266 0.33558 -0.13003 -0.092685 0.12855 -0.015834 -0.12104 0.03064 -0.099652 -0.19957 -0.28138 0.094135 -0.007299 0.30196 -0.054411 0.10534 -0.13753 -0.069614 0.023277 0.14178 0.15498 -0.013791 0.014615 -0.12537 -0.00038741 0.38314 0.051421 0.34661 0.15751 0.069272 0.082813 -0.00041657 -0.050973 -0.10085 0.050271 -0.1828 -0.24812 0.018508 
good -0.02359 0.17905 0.048883 0.13798 0.13921 0.090168 -0.029457 0.099171 -0.06952 -0.14701 -0.20552 0.14745 0.067736 0.16041 0.033947 -0.037194 0.012112 -0.036956 -0.033078 0.20473 0.17498 0.0096347 0.08623 -0.019615 -0.078682 0.11372 -0.20644 0.26533 0.14662 0.1178 -0.13649 -0.19213 0.17235 0.29966 -0.15308 -0.085693 -0.028464 -0.069019 -0.040226 -0.11706 0.16414 0.3954 0.048336 -0.10745 -0.002714 0.085494 0.34143 -0.35438 0.092752 -0.14303 -0.21792 -0.049946 0.0078612 0.16898 0.22204 -0.025462 -0.12713 -0.012786 -0.081408 -0.27769 0.088687 -0.16298 0.067777 -0.1532 -0.135 -0.081358 -0.30803 0.317 -0.26819 0.33869 -0.12049 -0.044024 0.094599 -0.19826 0.0080322 0.020029 -0.036986 -0.32791 -0.084993 -0.12382 0.058206 -0.0097845 -0.0056074 -0.0089164 0.14038 -0.27155 0.080426 0.13456 0.022337 0.10897 -0.31049 0.17585 -0.31111 -0.14964 -0.091437 0.064863 0.064883 -0.065883 0.20761 -0.034437 -0.25494 -0.066439 0.19299 0.16321 0.12577 -0.1823 0.00048099 0.0399 0.050333 -0.13343 -0.17425 0.084327 0.13927 0.17654 -0.038753 0.27939 -0.045347 -0.033226 -0.22564 -0.21686 0.13791 -0.07486 -0.067691 0.098361 -0.1697 -0.042189 0.033928 -0.19211 0.21383 -0.14017 -0.020724 -0.20565 0.086198 -0.046544 0.031601 0.15296 -0.22806 -0.078336 0.015139 -0.090192 -0.29194 -0.017701 0.21677 0.12495 0.12616 0.17627 -0.018992 -0.23711 0.012252 0.14996 -0.10494 0.03693 0.06693 -0.15167 0.050728 -0.14945 -0.085568 0.14542 0.17495 -0.13844 0.19107 0.1297 0.19647 0.13678 0.0042897 -0.17221 -0.21177 0.084996 -0.025132 0.10308 0.097989 0.059937 -0.23085 0.28406 -0.078725 0.04249 0.01893 -0.066448 -0.017739 -0.43748 0.23574 0.10125 -0.058371 0.094498 -0.10105 -0.15262 0.055614 0.059982 0.19366 -0.096427 -0.19686 0.11563 0.0040541 0.045203 -0.0070423 -0.23624 0.011654 0.18479 0.19093 0.085684 0.32432 -0.16431 -0.020857 0.095216 0.070619 -0.079707 0.017399 -0.15667 0.14461 -0.26412 0.12759 -0.14162 -0.32579 0.010358 -0.10033 -0.1199 0.15003 -0.0030869 0.021986 0.016369 -0.10166 -0.13519 -0.046659 0.079737 -0.06129 0.054121 0.11834 0.0072118 0.065799 0.032348 0.019895 -0.028001 0.093113 -0.01206 0.17588 0.012968 -0.022718 -0.023555 0.22711 0.15965 0.003589 0.14054 -0.27432 -0.050549 -0.010857 0.14997 -0.065572 -0.058957 -0.16829 0.20186 0.16166 -0.11269 -0.053883 0.062851 -0.085196 0.055266 -0.17995 -0.073214 -0.10892 0.077517 0.10704 0.25696 -0.03189 0.31538 -0.038844 0.15458 0.11185 0.027417 -0.04325 -0.11083 -0.021347 0.33475 -0.047287 0.19162 0.11556 0.16631 -0.17875 -0.15797 0.18462 -0.055709 0.12251 -0.021485 0.063063 -0.1468 0.0028003 0.11801 -0.00986 0.1103 -0.19389 -0.22846 0.082821 -0.15868 0.0023781 0.14232 0.073362 -0.31288 0.32229 -0.001024 -0.025979 0.043773 
bad 0.046997 0.25441 -0.065633 0.00012842 0.052445 -0.053405 -0.096928 0.17794 -0.12909 -0.28981 -0.11223 0.17112 0.065311 0.1565 -0.030365 -0.19475 0.045715 -0.052304 -0.23711 0.2374 -0.06376 -0.023229 0.26525 -0.097845 -0.12822 0.18004 -0.5252 0.143 0.20081 0.16363 -0.17181 -0.19491 0.066781 0.46164 -0.089308 -0.055198 0.03194 -0.020004 0.20495 -0.27059 0.18821 0.41403 -0.06476 -0.059916 -0.0041053 0.08729 0.29981 -0.25796 0.1394 -0.069219 -0.34088 -0.024911 0.094111 0.32885 0.078026 0.10095 -0.19567 -0.20226 -0.001073 -0.29146 0.23942 -0.14777 0.18511 -0.12131 -0.21937 -0.053531 -0.49622 0.23282 -0.03769 0.5562 -0.19927 -0.16814 -0.020786 -0.047395 -0.17296 -0.017647 -0.20035 -0.257 -0.19883 -0.20827 0.15146 -0.2105 -0.093078 -0.21025 0.21368 -0.21689 0.04218 0.072469 0.18555 -0.070791 -0.13052 0.10196 -0.34633 -0.026719 -0.16561 -0.047603 0.041216 -0.08332 0.23321 0.067129 -0.2314 0.034625 0.33189 0.076523 0.027573 -0.16773 0.054116 -0.015827 0.10615 -0.25336 -0.092782 -0.027785 0.081257 0.15963 0.14848 0.425 0.071256 0.0069163 -0.21851 -0.22269 0.10997 -0.092063 0.070684 -0.047299 -0.10458 0.041218 -0.033013 -0.3434 0.23765 -0.045512 0.006429 -0.24595 -0.19035 0.22457 -0.068449 -0.032655 -0.23678 -0.049763 0.24456 0.023844 -0.20164 -0.27139 0.27632 0.097747 0.066875 0.0011402 -0.15527 -0.07602 -0.1212 0.24404 -0.16928 0.047979 0.057719 -0.12442 -0.0052895 -0.14995 0.046481 0.24456 0.24019 -0.18267 -0.051864 -0.013906 0.39322 0.19649 -0.051777 0.043379 -0.29937 0.0339 0.010976 0.22889 -0.10704 0.016991 -0.18874 0.1803 -0.043281 0.01829 -0.08175 0.014795 0.0064457 -0.33905 0.20059 0.027314 -0.13398 0.14506 -0.13769 0.07376 0.13229 0.1091 0.24065 0.10142 -0.11082 0.16741 0.13965 0.15849 0.0343 -0.2854 0.105 0.27258 0.23934 -0.17597 -0.009686 0.1254 0.10839 0.0092045 0.23454 0.051224 -0.096083 -0.01664 0.10947 -0.17203 0.013798 -0.17847 -0.26619 0.014323 0.050387 -0.025696 0.19538 -0.018742 0.14212 -0.092134 0.10548 -0.097148 -0.040726 0.064289 -0.10335 -0.039779 -0.030303 0.11298 0.1603 0.19535 0.012561 -0.098893 0.105 0.080955 0.16615 0.039142 0.11141 -0.077543 0.41092 0.077529 0.020527 0.37909 -0.30499 -0.26717 0.012497 0.13327 0.027127 0.085736 -0.4697 0.19224 0.0017594 -0.11412 0.075424 0.12332 -0.047003 0.10376 -0.37664 -0.07023 -0.19559 -0.0057399 0.19662 0.11419 -0.12856 0.14978 -0.010913 0.12578 -0.023142 0.079069 -0.018392 -0.13673 0.03484 0.31055 -0.010592 0.27784 0.26367 0.083043 -0.10341 -0.051534 0.17277 0.13159 0.16879 0.14092 0.078748 -0.19343 0.025813 0.020371 -0.016696 0.23921 -0.14549 -0.36687 0.13225 -0.06629 0.15456 0.19467 -0.1501 -0.17183 0.34166 0.060666 0.094213 0.021679 
bush -0.2327 0.10588 -0.20262 -0.10623 -0.092564 0.1161 -0.30905 -0.063952 -0.16304 -0.35125 0.028606 0.1032 -0.1987 -0.059521 -0.16054 0.18658 0.072236 0.01977 0.0080476 0.055051 0.16289 -0.13601 0.44725 0.13495 0.022979 -0.093333 -0.14753 0.056046 -0.27513 0.26517 0.10614 -0.12434 0.089195 -0.43732 0.12015 0.037419 0.02353 0.18357 -0.34436 0.018669 0.056375 0.053121 0.027623 0.13164 -0.087528 -0.0098408 0.11261 0.1786 0.24652 -0.31057 -0.27495 -0.0019512 0.25771 0.0015975 0.11188 -0.10139 -0.16553 -0.042557 0.32986 0.34788 0.19767 -0.066771 0.38345 -0.030001 -0.03845 -0.04785 -0.11544 0.12124 0.10824 0.0060387 -0.5725 -0.07319 -0.12855 -0.21275 -0.077728 0.14638 0.097539 -0.09473 -0.34128 -0.24597 -0.17153 0.14107 0.32901 -0.022918 -0.098064 -0.052044 0.12147 -0.16123 -0.064923 -0.038229 -0.031863 0.4152 0.099761 0.1083 -0.069549 0.16904 -0.16323 -0.28637 -0.019693 0.12547 -0.28901 -0.036507 -0.0011455 0.013355 0.022763 0.13716 -0.16336 -0.047815 0.13779 0.2925 -0.27916 0.051042 0.33011 0.15112 -0.17477 0.35819 0.29952 0.015018 -0.42055 -0.12537 0.14572 0.114 0.064269 -0.12546 -0.26892 0.33865 0.22298 -0.0079713 0.44197 0.0432 0.21886 -0.069552 0.079569 -0.038849 -0.30929 0.14127 -0.14638 -0.10678 -0.0087016 -0.025836 -0.18808 0.087657 0.35749 0.20063 0.036942 0.13601 0.062815 0.020535 0.091745 0.017805 -0.025179 -0.25427 -0.12054 0.13371 0.058136 0.097864 -0.16094 -0.40296 0.19627 -0.12473 -0.31499 -0.069809 0.16383 0.092779 -0.098903 0.057278 0.24531 0.26051 0.050113 -0.31047 0.012626 0.063822 0.17883 0.26022 0.059192 -0.030557 -0.28124 -0.13162 -0.35641 -0.17229 -0.1705 -0.032082 -0.38609 -0.025377 0.01025 -0.0032404 -0.38245 -0.23239 0.25884 -0.04904 0.37386 0.18654 0.15345 0.070008 -0.12769 -0.39221 -0.13251 0.57959 0.19222 0.018637 0.099767 -0.21808 0.14596 0.31307 0.20721 0.19844 0.14708 -0.043064 0.20838 -0.17694 -0.06803 -0.010958 0.13902 -0.048231 0.10355 -0.1901 0.055263 -0.030681 0.094 -0.10037 -0.024075 0.19858 -0.12328 0.12949 0.091199 -0.15679 -0.15113 -0.2492 0.023111 0.23628 -0.15624 0.12137 0.098983 0.12561 0.12917 0.080938 0.070201 -0.021476 0.21371 -0.094001 -0.10388 0.24785 -0.13216 0.067394 0.14959 0.066011 0.15486 -0.1364 -0.19935 -0.025161 0.26219 -0.047035 -0.13774 -0.1956 -0.10521 -0.010624 -0.30554 0.14085 -0.0051209 0.046198 0.35652 0.21153 -0.29925 -0.018084 0.2144 0.18837 0.063265 0.16763 0.069981 0.65718 -0.038595 0.025449 0.16169 0.30568 -0.14039 0.19703 -0.067617 -0.32456 0.25603 -0.48628 -0.25891 -0.16279 0.24143 0.082117 0.087323 0.1839 0.11988 -0.061268 0.10826 0.075856 0.13484 0.15859 -0.26539 -0.020841 0.045232 0.10236 0.50138 0.10892 0.10362 -0.31447 
sessions -0.2006 0.050655 -0.031988 -0.016914 0.048436 -0.29095 -0.11985 0.022136 0.35458 -0.21123 -0.145 0.0031252 0.050715 0.1822 -0.1872 -0.1696 -0.032386 -0.45008 0.28599 -0.11601 -0.018245 0.020002 -0.19918 0.013896 -0.24201 -0.30459 0.034359 -0.070319 0.23424 -0.30999 -0.1285 0.27782 0.47431 -0.22441 -0.38373 0.14134 0.077952 -0.50421 -0.2119 0.047649 0.1478 -0.1932 0.51619 -0.31767 -0.40649 -0.032616 0.038601 -0.45923 -0.024689 -0.41783 0.0075677 0.13458 0.039167 -0.17393 0.43768 0.046304 -0.13572 0.0010167 0.29155 -0.03363 0.031446 -0.4229 -0.013752 -0.04199 -0.13381 -0.23126 0.016473 0.26543 0.096512 0.30737 -0.087166 0.29293 0.017531 0.15778 0.28064 -0.12693 0.054405 0.13753 -0.15363 0.041262 -0.14196 0.00037012 -0.0302 0.15749 -0.53566 -0.23056 0.0065717 -0.11186 0.17388 0.45097 -0.31704 0.15084 0.042022 0.072371 -0.53507 0.24963 0.21888 -0.14717 -0.09668 0.27127 0.10557 -0.0048797 0.0033009 0.036926 -0.28013 0.019216 0.094735 0.3562 0.61994 -0.058973 -0.016677 0.38136 -0.20199 -0.13528 -0.070978 0.2293 0.38477 0.044443 -0.38529 -0.039969 -0.38777 -0.096985 -0.18019 -0.22374 -0.0027367 0.17095 -0.29206 0.14073 0.10398 -0.049359 -0.047695 -0.18531 -0.34864 0.22458 -0.49982 0.099336 0.099371 0.51832 -0.013151 0.063798 0.063622 -0.029377 0.2707 0.21326 0.1407 0.038555 -0.036067 -0.35119 -0.10408 -0.24756 0.28515 -0.12117 -0.014471 0.1305 -0.095561 0.098573 0.40422 0.089395 -0.12586 0.043881 -0.46992 -0.041252 0.14758 -0.045842 -0.17625 -0.054394 0.052112 0.061252 -0.30638 -0.38656 -0.36914 -0.21836 -0.40401 0.032064 0.12438 0.092167 0.19008 -0.18647 0.072128 -0.31284 0.32906 0.13387 0.27436 -0.29961 -0.29742 0.056236 -0.083413 0.21308 0.34481 -0.3284 0.30906 0.10734 0.1721 0.46457 -0.11533 -0.12624 0.24108 0.25141 0.068361 -0.20597 -0.27815 0.00050049 -0.034687 0.12923 0.30571 0.45342 0.42864 0.088767 -0.018247 -0.1338 0.14885 0.027429 -0.20333 -0.33352 -0.38053 0.3843 0.11988 -0.069806 0.16395 -0.22423 -0.11057 0.2196 0.15326 -0.005743 -0.30826 -0.23636 0.037241 -0.23778 0.032963 -0.16069 -0.078905 -0.11223 -0.10073 0.32932 0.061304 -0.022391 -0.4279 0.17406 0.05981 0.14367 -0.025331 0.22052 -0.0072042 -0.25845 0.27944 0.072918 0.075867 0.061836 -0.29396 0.037253 0.39009 -0.32088 -0.28776 -0.077731 -0.27608 0.063168 -0.15038 -0.16697 -0.26338 -0.027171 -0.11638 0.10135 0.13955 0.14504 0.17446 -0.060061 0.21291 -0.22635 -0.37341 0.28788 0.30844 -0.45942 -0.04523 0.021412 -0.02416 0.19397 -0.010257 -0.47396 -0.41618 -0.40153 0.14789 -0.0067374 0.12626 -0.14973 0.14418 -0.097372 0.42507 0.036546 -0.033023 0.21782 0.27552 -0.47725 -0.061182 0.15611 0.14456 -0.47104 -0.005033 0.31344 0.19362 -0.093257 
shelby -0.40584 0.64559 -0.0092869 -0.37254 -0.29572 -0.57925 -0.16256 -0.10815 0.28525 -0.063109 -0.095643 0.19604 0.25007 0.061748 -0.16981 -0.28738 0.24375 -0.69879 0.31431 -0.23095 0.29814 0.096659 -0.32233 0.31602 0.1959 -0.044623 0.25496 0.013387 0.15859 0.26146 -0.26124 -0.34379 0.028983 -0.29982 -0.36617 0.17363 0.41155 -0.31298 -0.098529 -0.023395 -0.13926 -0.31284 -0.079832 -0.071743 -0.064932 -0.18828 -0.080071 -0.15176 0.049342 -0.31067 -0.27068 0.13553 0.13056 -0.65167 -0.095257 -0.19534 -0.35204 -0.10315 0.026134 0.30473 0.2321 -0.11509 0.21473 0.0055561 0.19834 -0.44063 -0.24358 0.18703 -0.33722 0.49603 -0.26729 0.2165 0.15266 -0.41484 0.04799 0.15777 0.31793 -0.28161 -0.72172 -0.16289 -0.13276 -0.25815 0.099699 -0.31487 -0.48343 0.070664 0.41111 -0.12648 0.29455 0.21227 -0.42109 0.0067715 0.050121 0.25523 -0.32103 -0.28685 0.15277 -0.32251 0.11694 0.27733 -0.20968 0.16818 -0.12742 0.00066268 -0.17475 0.11891 0.050067 0.5851 -0.032172 -0.20658 -0.093915 -0.21661 -0.11941 0.010606 0.26522 0.7963 0.38 -0.10659 -0.27568 -0.3068 -0.27418 0.46447 -0.39726 0.29716 -0.13421 -0.092114 0.14105 0.28066 -0.23763 -0.12568 0.14163 -0.15236 -0.1241 0.040595 -0.085536 0.077035 -0.038717 0.59487 0.15669 0.10627 0.24858 0.0075407 0.065516 -0.33557 0.53497 0.063239 -0.2308 -0.27419 -0.056884 0.45959 0.35747 -0.22667 -0.77557 0.3452 0.026999 -0.18447 -0.029805 0.34004 0.12393 -0.027309 0.051488 0.1643 0.12747 -0.1913 0.19977 0.25938 -0.33011 0.15838 -0.30379 -0.087042 0.17199 -0.084864 -0.60111 0.62655 -0.03522 -0.17858 -0.13168 -0.10211 0.15358 0.022301 0.35196 0.1704 -0.50372 0.34614 -0.41462 -0.41579 -0.26231 -0.0089074 0.26862 -0.25053 -0.32056 -0.054311 0.30199 0.5606 -0.29727 -0.25602 0.083767 -0.18289 0.11565 -0.16098 -0.019813 -0.26364 -0.058266 -0.43317 0.35092 0.048527 -0.58433 -0.22601 0.23775 -0.12109 -0.17719 0.43471 0.021855 0.21231 -0.29248 0.093649 0.41146 0.043469 0.047197 -0.61313 0.45284 0.23377 -0.26207 0.12372 0.17283 -0.034571 -0.37323 -0.23823 -0.073573 -0.085543 -0.43357 0.040765 0.45583 0.40385 0.10219 -0.27591 -0.1779 -0.12644 -0.22149 0.12513 0.42541 0.0066572 0.39438 -0.22085 0.3504 0.56125 0.066852 0.3001 -0.13451 -0.029164 -0.064789 0.021623 0.53558 0.35633 -0.27064 0.38471 -0.3502 -0.087371 -0.054781 -0.15159 -0.18175 -0.19223 -0.57037 0.1152 -0.048599 0.44429 0.2369 -0.38893 -0.25297 -0.054776 0.0014633 0.48139 0.02637 -0.14848 -0.16275 -0.39102 -0.14608 -0.65096 -0.28422 -0.72641 -0.076796 0.11287 -0.20388 -0.061276 -0.076345 -0.45 -0.046137 -0.16819 0.037728 0.54361 0.27102 -0.4291 0.37861 0.045214 0.23093 0.064142 -0.051195 0.65215 -0.37056 0.093871 
stevens -0.15349 0.50261 0.11283 0.056732 -0.18252 -0.06353 0.13221 -0.053486 0.54941 -0.14013 -0.30824 0.015307 -0.23684 -0.036391 -0.029191 -0.031418 0.0051902 -0.19709 -0.27362 0.044604 0.037074 0.032879 -0.019015 0.19004 -0.053545 0.046946 0.38001 0.20325 -0.095012 0.16688 -0.366 -0.34358 0.5255 0.26752 0.021949 0.27701 0.30472 -0.45818 -0.1864 -0.41841 0.15492 -0.23677 -0.026587 0.45073 -0.046664 0.038615 0.41454 -0.24624 -0.23581 -0.71056 -0.35917 -0.061598 0.020891 -0.27261 0.19234 -0.49439 -0.036404 0.52329 0.17202 0.28262 0.20353 -0.43652 0.44015 -0.27961 -0.2767 -0.30222 0.38085 0.11395 -0.22111 -0.019335 0.031088 -0.012518 -0.34034 0.27992 -0.16103 -0.16505 -0.32381 -0.052659 -0.17954 -0.44906 0.094956 -0.43394 0.046801 0.16271 0.03318 -0.073276 -0.11004 -0.27873 0.16204 -0.025285 -0.17735 0.15324 0.16926 -0.42233 0.12327 -0.22671 -0.31014 0.13269 -0.025339 -0.1131 -0.01743 -0.23369 -0.086177 0.1202 -0.40887 -0.27367 0.023007 0.16954 -0.4292 0.26908 -0.92011 0.0028458 -0.27044 -0.29695 -0.084317 0.29702 0.36853 -0.54255 -0.42465 0.087355 0.036569 0.17451 -0.084692 -0.30675 -0.2786 -0.28861 0.3396 0.061877 0.30163 -0.2985 -0.013915 -0.44469 -0.20104 0.35588 -0.094747 -0.06039 0.16865 0.18211 -0.096629 -0.19069 -0.11933 -0.28754 0.47903 -0.51028 0.20814 0.19947 -0.12974 0.2858 0.31757 0.517 -0.11094 -0.53907 -0.38347 0.29668 0.046481 -0.52352 0.34857 -0.081013 -0.029421 -0.17039 -0.10532 0.28417 -0.048244 -0.050447 -0.3481 0.21546 -0.040057 0.14219 -0.42687 -0.45236 0.08679 -0.5853 -0.019608 0.3041 -0.032315 0.071599 -0.032566 0.063147 -0.023969 0.14354 0.12082 0.095156 0.06095 0.29708 0.019886 0.099381 -0.28152 -0.50931 -0.032532 -0.15343 -0.35084 0.38039 -0.20001 -0.40814 -0.02205 -0.34584 0.36864 0.43624 -0.057241 0.00041222 0.023193 -0.06255 -0.48349 0.028609 0.025792 0.31159 -0.081677 -0.3147 -0.13305 0.047229 -0.016152 0.58891 -0.17552 -0.13768 0.040876 -0.06215 -0.11569 -0.15071 0.16342 -0.06502 0.093382 0.10202 -0.065257 0.0098329 -0.0019042 0.12711 -0.044863 0.15429 -0.0055841 -0.20954 -0.31274 0.12625 0.10341 0.45243 -0.064367 0.15067 -0.14348 0.23968 0.34842 -0.023497 0.37917 -0.2256 -0.56139 -0.10344 -0.017157 -0.01001 -0.26182 -0.27225 -0.41508 0.076459 0.31546 -0.052783 -0.22164 -0.0028563 -0.080046 0.33667 -0.24865 0.14596 -0.098188 -0.12449 0.020404 -0.16976 -0.32617 0.17207 -0.13689 -0.032332 -0.29918 -0.088851 -0.51517 0.28505 -0.16411 -0.37251 -0.29694 0.14428 -0.49925 0.23093 0.18544 -0.42398 -0.47812 -0.79242 0.18325 -0.15466 0.044346 -0.0056551 0.18933 -0.59887 -0.13974 -0.2695 0.045346 0.38531 -0.16626 -0.15729 -0.047489 -0.10835 -0.043296 0.6537 -0.25692 -0.10031 0.014385 0.16186 
murkowski -0.090171 0.031244 0.61345 0.188 -0.21633 -0.22057 -0.045664 0.003946 0.78551 -0.48233 -0.32156 -0.060173 -0.13273 0.31907 0.14367 0.286 0.32418 -0.32101 -0.11409 0.18007 0.30448 0.060272 -0.14729 0.14418 0.34634 -0.086564 0.30694 0.48505 0.14864 0.69213 0.19733 -0.46299 0.19295 0.03267 -0.065019 0.27268 0.24146 -0.14725 -0.028362 -0.096282 0.19926 0.26009 -0.44591 0.16986 -0.27461 -0.40965 -0.24289 0.22214 0.56764 -0.19992 -0.076869 -0.70205 -0.79447 -0.18666 -0.24613 0.049793 -0.08762 0.33313 0.61031 -0.32076 0.11835 -0.098923 0.32928 -0.15715 -0.16305 0.18458 -0.13669 -0.079779 -0.1588 0.32572 -0.17644 0.2561 -0.21562 -0.092634 -0.12228 -0.44434 0.30527 -0.053263 -0.51736 -0.46795 -0.076535 -0.18945 0.44566 -0.088227 -0.27733 -0.15846 -0.27664 -0.51766 -0.12417 0.10179 0.066101 0.35794 0.096797 -0.62116 0.23736 -0.1021 0.056624 0.20452 -0.67408 0.42531 -0.011565 -0.092411 -0.15956 0.37351 0.339 0.25506 -0.20153 -0.12522 0.35799 -0.40506 -0.27448 -0.59975 0.23092 -0.36397 -0.18373 0.12003 0.46675 -0.1636 -0.7146 0.12328 0.18613 0.39544 0.20647 -0.12091 -0.099877 -0.44175 0.60551 -0.22288 0.77069 0.22573 0.11192 0.013464 -0.29952 0.73599 0.31816 -0.35407 0.23455 0.44659 0.036949 0.035087 -0.12108 -0.049257 0.36494 -0.32085 0.19644 0.062922 0.18795 -0.23025 0.24535 0.38218 0.011623 -0.41196 -0.41545 0.23422 -0.24346 -0.35017 0.23534 0.113 0.3757 0.35979 0.13362 0.18745 0.43274 0.64538 -0.30154 0.0037349 -0.054583 0.50976 -0.25466 -0.43499 0.44005 -0.21669 -0.082896 0.1475 -0.054424 0.49166 -0.22339 -0.078636 -0.17268 0.18823 0.3446 0.30966 -0.038881 -0.069685 0.16706 0.33676 -0.41477 -0.29671 0.0097381 0.24749 0.34267 -0.19078 0.10213 0.37716 -0.059582 0.17165 0.18023 0.46845 -0.21781 -0.011247 -0.26301 -0.17809 -0.52057 0.27749 0.16821 0.057772 0.059595 -0.24318 -0.0048619 0.012495 0.051483 0.33778 -0.3472 0.042388 -0.57553 -0.46865 0.66028 -0.045819 0.47053 -0.39132 0.26054 0.038448 -0.078898 -0.12129 0.28904 -0.21342 -0.12158 -0.21249 0.22586 0.21485 -0.050819 0.24198 0.30447 0.19676 -0.58318 0.18156 0.11116 0.66255 0.18185 0.093339 0.39983 -0.13091 -0.18487 -0.037806 -0.16526 0.57529 0.57039 0.22819 -0.16583 0.51595 -0.51971 -0.27198 0.062366 -0.50925 -0.28086 -0.1327 -0.091593 0.16525 -0.1291 0.19022 -0.076487 0.22968 -0.37632 -0.33113 -0.062036 -0.54744 -0.29684 -0.73697 -0.25887 0.40765 0.29242 0.035038 -0.4626 -0.22161 -0.20558 -0.06596 0.13904 -0.35735 -0.65958 -0.67172 0.13356 -0.095522 0.54067 0.06698 0.17389 -0.10038 -0.04216 -0.2749 -0.26161 0.6103 0.41966 -0.052762 -0.23053 0.27977 0.081973 -0.45207 0.63234 0.036687 -0.019169 0.33166 
mccain 0.41134 0.53568 -0.083355 0.038089 -0.11235 -0.17433 0.086149 -0.15344 0.20062 -0.20978 -0.25983 0.25202 -0.033371 -0.11795 -0.62332 0.43084 0.28276 -0.25477 -0.077191 -0.0065858 0.11344 -0.046517 0.1005 -0.13304 0.054589 -0.12246 -0.18301 0.34684 0.081485 0.38681 -0.12082 -0.050806 0.31163 -0.35997 -0.029139 0.32005 -0.060516 -0.10346 -0.27358 0.1855 0.19022 0.13532 -0.060304 0.25423 0.063422 -0.027021 -0.29695 0.08263 -0.0053377 -0.15767 -0.15006 -0.22027 -0.034101 -0.14507 -0.12546 -0.10691 -0.18337 0.18254 0.21383 0.20365 0.38299 -0.18096 0.30539 0.0833 0.091063 -0.16322 -0.16175 -0.071255 0.012248 -0.1517 -0.18421 0.0034013 -0.054632 -0.19727 0.049662 -0.026554 -0.0053581 -0.3511 -0.15504 -0.34359 -0.20301 -0.082112 0.37673 -0.010314 -0.06086 -0.095623 0.14868 -0.14773 0.16257 0.4463 0.064498 -0.12912 0.06691 0.016836 -0.29912 0.0037563 -0.23159 -0.24641 0.041998 0.34034 -0.27986 -0.44197 -0.18027 -0.089451 0.16613 0.011415 0.1773 -0.056863 0.22049 0.0091876 0.028096 0.084181 0.019064 0.0057876 -0.40297 -0.0111 0.039843 -0.15927 -0.61624 0.0011078 -0.052018 0.027709 -0.38928 -0.17479 -0.11546 -0.022773 0.53008 0.076278 0.52717 -0.08487 -0.058472 -0.37892 0.013309 0.18214 0.058149 0.07774 0.11465 0.0026531 -0.18327 0.10746 -0.022531 -0.059595 0.27243 -0.29287 0.0046246 0.6327 -0.22649 0.005233 -0.24017 0.33946 0.069811 -0.66965 -0.20749 -0.21463 0.21578 0.050647 0.21376 -0.1048 -0.24717 0.27745 -0.34853 0.26551 0.4129 0.27557 0.10046 0.10749 0.19902 0.55676 0.034616 -0.2574 -0.056532 -0.091974 0.12898 0.56207 0.080391 0.20887 -0.26326 0.10618 0.06131 0.057341 -0.018424 0.27439 -0.26275 0.2219 -0.10017 0.42709 -0.41879 -0.19653 0.25594 -0.27988 0.20313 0.21465 0.073441 0.023896 -0.417 -0.26219 -0.37156 0.25744 0.082823 0.011733 0.11477 -0.10252 -0.15748 0.04588 0.26727 0.087712 0.071271 -0.083884 0.17448 -0.26055 -0.095065 0.13775 0.0022463 0.041733 0.15257 0.051174 0.081615 -0.28455 0.017266 -0.40878 0.014931 0.58447 0.15355 -0.0028281 0.25442 -0.43996 0.45608 -0.083946 0.40148 0.1263 -0.026192 0.35426 0.24339 -0.046891 -0.12826 -0.057538 -0.22538 -0.0016683 0.2348 0.0022489 -0.1291 0.09657 -0.14973 0.11268 0.019821 0.13479 0.11466 -0.047132 -0.2417 0.38449 0.083325 -0.27804 -0.028478 -0.012036 -0.074696 0.049616 -0.13982 0.10354 0.082726 0.22315 -0.090607 0.37769 -0.40284 -0.12063 -0.041764 0.21021 -0.33895 0.0086066 -0.33687 0.31524 0.3665 0.26572 -0.2284 0.25436 -0.10283 -0.012808 0.15607 -0.081904 -0.36537 -0.31067 0.062758 0.098322 0.17495 0.32404 0.10711 -0.24887 -0.063131 -0.32204 -0.046307 0.1207 0.50222 -0.065013 -0.086714 0.06329 -0.036101 -0.21145 0.2343 0.28485 -0.27852 0.15961 
kyl 0.12457 0.3724 0.3083 -0.10111 -0.01826 0.040774 -0.28962 -0.11705 0.24522 0.0067136 -0.4102 -0.53707 -0.19288 0.10399 -0.33329 0.29182 -0.40527 -0.16497 -0.095642 -0.35391 0.17237 -0.069377 -0.36452 0.042225 -0.14742 -0.49197 0.18097 0.010539 0.073279 0.62389 -0.54086 0.1554 0.066625 -0.22503 -0.39837 0.061568 -0.21514 -0.10835 -0.30891 0.44801 -0.056965 0.29739 0.44287 -0.45086 -0.41131 -0.096595 0.063615 0.31587 0.037865 -0.49659 0.161 0.17198 0.31288 -0.14297 0.087624 0.20064 -0.4988 0.24598 0.093527 0.43142 0.091646 -0.36933 0.53706 -0.40172 0.28729 0.15331 0.15955 0.42307 0.17024 0.32444 -0.30086 0.33582 0.10611 -0.20761 0.24611 0.2626 0.039341 -0.08975 0.06275 -0.64401 -0.4572 0.032655 -0.23654 -0.39813 -0.45628 -0.24032 -0.035812 -0.16748 -0.15 0.95322 0.26627 0.038736 0.67979 -0.23993 -0.25611 0.198 0.2584 -0.324 -0.13871 0.38026 -0.34888 0.15186 0.074399 -0.058632 -0.44415 -0.17104 0.28374 0.13601 0.54636 -0.26036 -0.11794 0.18255 0.013678 0.33003 0.22442 -0.094725 0.19783 -0.076758 -0.44577 -0.43307 -0.52394 0.10384 0.18906 -0.21393 -0.25153 0.047134 0.59225 0.16977 0.1671 -0.049638 -0.32816 -0.17038 -0.15101 0.059586 0.096894 -0.15721 -0.27055 0.45168 -0.24575 -0.098391 0.37982 -0.21382 0.29493 -0.19541 -0.33091 0.093181 -0.095563 -0.33323 0.46941 0.26137 0.027699 -0.32684 -0.063295 0.055961 -0.22386 -0.15308 0.66294 -0.057909 -0.02516 0.062397 -0.59113 0.064865 0.40822 0.26502 0.12137 0.17352 0.011033 0.13835 -0.33521 -0.20095 0.011635 -0.41753 -0.00064284 0.27419 -0.11456 0.74225 -0.30023 -0.25073 0.51128 -0.2082 0.20835 0.3243 -0.29602 0.29455 -0.2552 0.21528 -0.30138 -0.080779 0.23699 -0.37505 0.57401 -0.25507 0.4695 0.22762 -0.042953 -0.3581 -0.28169 0.11164 -0.36461 -0.23077 -0.21236 -0.67126 0.24569 0.15864 0.23655 -0.036833 -0.15667 -0.26031 -0.2055 -0.084585 -0.15601 0.25956 -0.3945 0.23759 0.60427 0.20752 -0.5003 -0.064815 0.1916 -0.6485 0.44761 0.15512 -0.062196 -0.16624 -0.0040104 -0.28743 0.16531 -0.25455 0.28769 0.47509 -0.039197 -0.024702 -0.078129 0.090556 -0.19581 0.31969 -0.33275 0.25517 0.56341 0.018498 0.30753 0.09572 -0.62373 -0.0078095 0.17714 0.4815 0.30254 0.16101 -0.42986 0.053034 -0.15378 -0.16309 0.28307 0.024656 0.13712 0.47029 0.21593 0.5556 -0.25086 -0.27628 -0.49379 0.13086 -0.44881 0.32721 0.37345 -0.033717 0.11552 0.21416 -0.25537 0.29054 0.077405 0.052084 0.063399 0.2968 -0.1313 -0.18553 -0.41037 -0.39826 -0.22239 -0.86046 0.30297 -0.29251 0.31427 0.108 0.051017 -0.1085 0.2279 -0.18417 0.33413 0.031169 0.44271 -0.23367 0.0038265 0.23883 -0.17197 -0.454 0.075367 0.30102 -0.13901 0.045335 
lincoln 0.19487 0.24432 0.20988 -0.54635 0.19913 -0.30434 0.13651 -0.55668 0.10989 0.029579 -0.23246 0.0050682 0.10922 -0.2287 -0.45094 0.35065 0.3398 -0.35512 -0.42253 -0.45012 0.27238 0.20784 0.21106 -0.2644 -0.14315 0.33509 -0.038845 0.02 0.00377 0.11327 -0.077689 -0.083653 -0.087062 0.34873 -0.33455 0.045946 0.037111 -0.095832 -0.59995 0.077896 -0.1244 -2.9896e-05 0.41319 -0.16845 0.029786 -0.40252 0.14343 -0.063007 0.30365 -0.39265 0.11602 0.11855 0.068648 -0.11435 0.33244 -0.1651 -0.090173 -0.21841 0.23645 -0.063535 -0.009397 -0.13763 0.064625 -0.086295 0.57164 -0.20817 -0.05587 -0.40529 0.2042 0.38847 -0.33737 -0.078681 -0.011783 -0.31832 0.19217 -0.062153 0.047105 -0.043141 -0.48256 0.22223 -0.43413 0.11734 -0.27336 0.17264 -0.16863 0.04431 -0.24207 -0.25232 0.093231 -0.043663 -0.048425 -0.14879 0.34778 -0.14229 -0.094148 -0.058556 -0.29795 -0.5847 0.07415 0.44566 -0.056808 -0.18985 0.2391 0.18236 -0.028225 0.41961 0.098397 -0.039563 0.070313 0.083957 -0.53945 -0.29389 -0.32277 -0.0054303 0.048742 -0.021368 0.029149 -0.34783 -0.81752 0.23082 0.079765 -0.28242 0.083363 0.061932 0.30586 -0.0088657 0.27895 0.2066 -0.02021 0.026798 -0.23547 -0.065788 0.24716 0.25571 -0.28344 -0.15819 -0.029136 0.21491 -0.17082 0.18847 -0.1671 -0.25786 0.021685 0.26663 0.021197 -0.12111 0.1749 0.44892 -0.31733 0.11088 -0.26672 0.14262 -0.41449 0.057667 0.0047229 -0.21476 -0.037248 0.10475 0.053263 0.21392 -0.11601 0.11041 0.17881 0.18019 -0.23777 -0.22723 -0.080389 0.29375 0.15935 -0.33831 -0.050836 -0.010813 -0.30376 -0.014777 0.25433 0.39573 -0.14754 -0.031294 0.28711 0.09412 0.086229 0.2051 -0.13505 0.31208 -0.26437 -0.0010354 -0.19192 -0.38763 0.21407 0.085589 0.014474 0.15622 -0.14928 0.010544 0.12309 -0.24751 -0.26124 -0.088416 0.17376 -0.3235 0.068239 -0.36861 -0.0026682 -0.054853 -0.098015 0.26202 -0.27437 -0.090558 0.0088534 -0.073829 0.29761 0.061688 -0.37735 0.0021332 0.18107 -0.085604 -0.13907 -0.21078 0.068428 -0.17412 0.36177 0.17514 -0.10422 -0.041755 -0.005532 -0.44416 0.012514 0.013276 0.10691 0.15954 -0.40088 0.0068341 0.24952 -0.20469 0.13963 -0.45596 0.396 0.13606 0.26913 -0.057147 -0.27147 -0.16454 0.037942 -0.062653 0.17238 0.1039 0.098921 0.32955 0.17025 0.05042 -0.1269 0.54874 0.14009 0.31143 0.1338 -0.4014 -0.19956 0.35958 -0.12514 -0.083655 0.075574 -0.18835 -0.39172 0.40339 -0.29941 0.31188 -0.40247 -0.38072 -0.17407 0.26496 0.39935 -0.19787 0.13334 0.14106 -0.26373 0.23157 -0.39079 -0.28045 -0.29832 -0.3458 0.54033 -0.2728 0.16989 0.0017438 -0.016907 0.2354 0.04898 0.085056 -0.19338 0.22085 0.20534 0.016243 -0.21525 -0.16111 0.43428 -0.25088 0.6154 -0.048908 -0.29824 -0.38896 
pryor -0.15698 0.36666 0.073296 0.11721 -0.041788 -0.63548 0.35979 -0.0303 0.32957 -0.20509 -0.41507 0.19331 0.048709 0.25606 0.4054 0.21264 0.36304 -0.34219 -0.20888 -0.30998 0.12868 0.54281 -0.077962 0.44436 -0.15579 -0.31356 0.34145 0.29461 -0.10537 0.14178 -0.089661 -0.4691 0.28241 -0.087735 -0.23442 0.56463 0.18085 -0.2216 -0.37289 0.23815 0.060717 -0.25875 0.0027063 0.080466 -0.38267 -0.29471 0.64949 -0.047716 0.42038 -0.16275 -0.2118 0.069627 0.69702 -0.15326 -0.050877 0.015142 -0.38425 -0.24524 -0.21889 0.08628 0.14442 -0.25206 -0.23993 -0.10232 0.35298 -0.5889 -0.69834 -0.14496 -0.14487 0.25367 -0.29314 0.0079299 -0.34935 -0.35447 0.22653 0.48146 -0.033442 -0.32892 -0.16692 -0.65634 -0.15318 0.29918 0.65239 -0.12465 0.20625 -0.49947 -0.40473 -0.69588 -0.16775 0.063731 0.17598 0.019265 0.007325 -0.29181 -0.090961 -0.073033 -0.24863 0.23049 -0.10247 0.21511 -0.13307 -0.19059 -0.28329 -0.22255 -0.07273 0.31702 -0.082968 0.11504 -0.066012 -0.14173 -0.3995 -0.2777 -0.4586 -0.11016 0.2564 0.15395 -0.37598 -0.24709 -0.78123 0.25369 -0.1532 -0.0055491 -0.38079 0.24648 0.34646 0.41675 0.68361 0.044321 0.51064 -0.088462 -0.23403 0.27514 0.010126 0.52306 -0.013118 -0.25918 -0.56339 0.44835 -0.10851 0.070827 -0.24273 0.031542 0.13581 -0.10448 0.049656 -0.3735 0.11575 0.089013 0.096404 0.60784 0.28144 -0.44244 -0.27761 0.30299 -0.33267 -0.18065 0.24103 0.28239 0.14451 0.082069 0.021872 0.2518 -0.13052 0.50523 -0.17406 -0.23492 0.16231 0.18181 -0.21702 0.17495 0.063342 -0.26894 -0.27464 0.26617 0.10433 0.41557 -0.49657 0.05936 -0.53324 0.11131 -0.22625 -0.078633 -0.42609 -0.088304 -0.52193 -0.02454 -0.1763 -0.22795 0.092117 -0.024571 -0.0047527 0.081985 0.14613 0.47658 -0.074033 -0.14845 0.018588 0.23519 0.18934 -0.19695 0.14217 -0.053198 -0.18591 0.010391 -0.41181 0.11036 -0.22621 -0.026895 -0.32851 -0.10585 -0.22744 0.11129 -0.68184 -0.21565 -0.23712 0.26443 -0.07822 -0.12429 0.39636 -0.66527 -0.11454 0.20373 -0.1412 0.24203 -0.095947 -0.20483 -0.30406 -0.30452 0.22784 0.085767 -0.21115 0.00093555 0.28824 0.060445 -0.012392 0.070796 -0.11694 0.25592 0.19167 -0.088076 0.1117 0.10718 -0.1786 0.094753 -0.13787 0.37678 0.37343 0.18273 -0.3244 0.38977 -0.022592 -0.023965 -0.075949 0.27607 0.47063 -0.035839 -0.61384 0.41214 0.026134 -0.013815 0.16277 0.25804 -0.75337 0.39599 -0.035142 0.40418 -0.010616 0.15056 -0.25786 0.72092 0.27211 0.15137 -0.3375 0.46693 -0.28265 0.028711 0.0096461 -0.42992 -0.10492 -0.78635 0.42515 0.013247 0.37623 0.056411 -0.23323 -0.048361 0.044911 -0.039983 0.27391 0.83649 0.3121 -0.045498 -0.15157 0.045085 0.34323 0.00023861 0.1007 -0.004805 -0.58011 -0.014376 
boxer -0.079257 -0.070454 0.47148 -0.12356 -0.34448 -0.62648 0.57115 0.35476 0.047343 -0.055157 -0.42355 0.18663 -0.0094265 0.13585 0.28876 -0.1167 0.094297 -0.29359 0.14947 0.092278 -0.097198 -0.17565 -0.086918 0.091489 -0.045735 -0.1626 0.062818 -0.050895 0.72733 0.43826 -0.58193 -0.34258 0.17212 -0.035249 -0.198 0.22824 0.16741 -0.21874 -0.55107 0.015646 0.0014859 -0.1035 0.14396 0.01118 -0.13967 -0.30925 0.20476 -0.35749 0.060418 -0.0063636 0.17713 0.1832 -0.41349 -0.2364 -0.26766 -0.0059993 0.087392 0.51861 0.07728 -0.19741 -0.11011 0.17245 0.33523 -0.36607 0.16819 0.2137 0.0088501 -0.11219 -0.12592 -0.10129 -0.22243 -0.083101 0.15906 -0.34057 -0.21859 0.17585 0.014882 -0.50207 -0.16327 -0.20412 -0.10717 0.41479 0.26484 -0.098457 -0.14331 -0.068248 -0.289 -0.4323 0.1608 0.50719 -0.11563 0.10697 -0.050773 -0.14816 -0.2824 -0.31385 -0.40296 0.021162 -0.088013 0.051911 -0.055013 -0.31683 0.4607 -0.31242 0.035809 -0.013959 0.24337 0.12647 0.53203 -0.32976 -0.10108 -0.080636 0.12804 -0.40513 0.096626 0.14508 0.17076 0.40617 -0.73802 -0.018081 0.35136 0.0052433 -0.15574 -0.28495 0.27869 -0.13755 0.31305 -0.11017 0.067772 0.046688 -0.19339 -0.55026 -0.32204 0.22326 0.16059 -0.08722 0.074425 0.33071 -0.068666 -0.11717 -0.095266 -0.16765 0.19352 -0.35819 -0.0082638 0.26039 -0.31513 -0.043864 -0.29531 0.073525 0.50595 -0.25379 -0.17317 0.21509 -0.13609 0.085134 0.33925 -0.3269 -0.039559 0.47825 -0.10909 0.1474 -0.15995 0.21275 0.12405 -0.29561 0.00072228 0.55619 0.44739 -0.30802 -0.14626 -0.21301 0.15322 0.56564 -0.1803 0.33683 0.071326 -0.45316 -0.18524 0.01938 -0.046515 0.075204 -0.11763 -0.051894 -0.42888 0.348 -0.09539 -0.15927 -0.0239 -0.05718 0.19049 0.13448 0.20726 0.26261 0.29385 -0.21427 -0.40765 0.1099 -0.13317 0.45444 0.17794 0.108 -0.2473 0.42175 0.34868 0.18243 0.045889 0.006834 -0.24076 -0.14709 -0.22162 -0.1156 0.078918 -0.092852 0.31763 0.010336 0.11929 -0.30776 -0.1556 -0.49738 -0.15858 0.15046 0.34516 -0.21464 -0.16232 -0.30315 -0.30433 -0.17548 -0.071631 -0.25131 0.12388 -0.019348 -0.16022 0.06414 -0.25881 -0.11715 -0.2092 0.4522 0.053318 0.15441 0.29102 -0.22164 -0.10401 0.066719 0.090984 -0.023075 0.39016 0.20497 -0.72166 0.34186 0.13517 0.027036 0.3225 -0.14078 -0.63127 0.013147 -0.22827 0.28305 -0.060555 -0.157 0.40615 -0.039648 -0.76584 0.29526 -0.38374 -0.27668 -0.15259 -0.036665 -0.29388 0.2976 -0.062413 0.14958 -0.11393 -0.23655 -0.24997 0.14949 0.061097 -0.16834 -0.40956 -0.43238 0.24572 0.020798 0.03677 0.13911 -0.070912 -0.10532 0.38437 0.054391 0.34517 0.54204 -0.049708 -0.18718 -0.41248 0.43444 -0.041678 -0.41456 0.75651 -0.054288 0.0042452 0.12844 
feinstein -0.35757 0.22308 0.20884 0.30891 -0.083887 -0.5444 0.10412 0.041987 0.45222 0.1011 -0.007838 0.096256 -0.32094 -0.33905 0.13256 0.26614 0.2919 -0.3567 0.052234 0.071935 0.10768 -0.22923 -0.15971 0.13693 -0.27537 0.052105 -0.26926 0.22413 0.5629 0.49126 -0.6715 -0.018383 0.059849 -0.13588 -0.11696 -0.25751 0.14042 -0.43111 -0.58217 -0.11395 0.01002 -0.31975 -0.013941 -0.10897 -0.13913 -0.060693 0.31035 0.2 0.21959 -0.31153 0.085847 0.13484 -0.3047 -0.26595 -0.33269 -0.27887 -0.29047 0.049932 0.22192 -0.081602 0.092835 0.27402 0.42482 -0.34927 0.52489 -0.091443 0.057938 0.079519 -0.1371 0.26866 -0.48064 0.088104 0.0318 -0.36059 0.1051 0.19554 -0.18003 -0.73907 -0.24318 -0.091567 -0.197 0.54051 0.34832 0.16518 -0.039779 0.27292 0.0048594 -0.33291 0.45771 0.68012 -0.35052 0.10751 -0.2124 -0.10651 -0.27216 -0.20789 -0.52087 -0.35991 0.061859 0.28227 0.055202 -0.39489 -0.14295 -0.32002 -0.06378 0.27561 0.068108 -0.005872 0.16475 -0.028495 -0.063046 0.052487 0.18994 -0.12076 0.35413 0.16695 0.22985 0.25332 -0.27291 -0.33072 -0.20193 -0.18238 0.60088 -0.094641 0.073202 -0.19473 0.2848 -0.03116 -0.0011954 0.17228 -0.40505 -0.43129 -0.18976 0.41415 0.26969 0.087477 -0.090436 0.50938 -0.12981 -0.17636 0.27077 -0.073131 0.0052402 -0.27877 -0.089471 0.23915 -0.1953 -0.070608 0.32383 0.29393 0.15321 -0.15428 -0.19028 -0.10812 0.16732 -0.010221 -0.089305 0.26324 -0.10909 0.092388 -0.48465 0.27348 -0.25679 0.45249 -0.15726 0.23093 -0.20582 0.43363 0.24802 0.041196 -0.15651 -0.16159 0.19937 0.29124 0.15413 0.34509 0.07976 0.022424 -0.12198 0.29337 0.18288 0.12159 -0.13227 0.090217 -0.42863 0.4345 -0.21907 -0.49629 -0.09713 -0.048475 0.33664 0.099735 0.090901 0.41515 0.38645 -0.56408 0.1196 0.248 0.042622 0.33904 0.40348 0.016587 0.11219 0.49868 0.097029 0.12976 -0.079364 0.31256 -0.34535 0.0098683 -0.2427 0.2475 -0.15944 -0.1268 0.087315 0.1327 0.13787 -0.20087 -0.046333 -0.63754 -0.054891 -0.10087 0.12905 0.095042 -0.10197 -0.40031 -0.29049 -0.069894 -0.37183 -0.041426 -0.1702 0.0853 0.18975 -0.016419 0.051186 -0.39803 -0.25714 0.53913 -0.27887 0.068198 0.50317 0.42914 -0.040659 -0.22137 -0.11516 -0.0076714 0.52329 0.52114 0.015022 0.38885 0.2877 -0.15851 0.12572 -0.041487 -0.35113 0.15508 -0.074585 0.49606 0.09546 0.015281 0.018541 0.028129 -0.70577 0.39679 -0.33116 -0.29694 -0.042775 -0.08055 -0.44436 0.18829 0.056297 0.072478 -0.23844 0.24328 0.08228 0.11128 -0.040766 -0.5051 -0.47682 -0.62998 0.063681 -0.35713 -0.12566 -0.26151 -0.12937 -0.061633 0.087836 -0.0080817 0.083522 0.36808 0.042722 0.23641 -0.28493 0.13785 0.013983 -0.070667 0.48126 -0.01263 0.15106 -0.15446 
allard 0.19414 0.068407 0.12626 -0.28139 -0.081413 -0.0090633 0.11134 -0.084353 0.24629 -0.38765 -0.24234 0.33794 -0.096236 -0.0028648 0.12166 -0.058152 0.021133 -0.40301 0.26047 0.17323 0.0093846 0.31773 0.25977 -0.011222 0.22244 -0.069564 0.17878 0.1555 0.096744 0.43734 -0.32143 -0.10639 0.1348 -0.16918 -0.23332 0.17237 0.27023 -0.065582 -0.52146 0.33607 -0.28894 -0.012829 0.042921 0.205 -0.49733 0.25974 -0.17727 -0.010441 -0.10694 -0.1897 -0.078519 0.035186 -0.027737 -0.13711 0.46615 0.34937 -0.089382 0.53462 0.29918 0.15677 0.32533 -0.23439 0.29329 -0.37479 0.051026 -0.20966 0.5388 0.11931 0.015137 0.28303 -0.23084 0.16468 0.12222 -0.28061 -0.32094 0.0096471 0.1447 -0.09306 -0.65801 -0.28805 -0.13411 -0.27919 -0.12869 -0.38297 -0.21687 0.086479 -0.27133 -0.48946 0.0053019 0.30397 -0.31351 0.19629 0.076279 -0.66802 0.17449 -0.011626 -0.1754 -0.016572 -0.07413 0.092865 -0.24789 -0.1363 0.45977 -0.10149 -0.1199 -0.0016254 -0.071834 0.13733 -0.0095681 -0.1422 -0.14739 0.1983 0.097693 -0.048843 -0.40523 0.18409 0.13039 -0.19405 -0.33735 -0.064812 -0.56458 0.0097521 0.22533 0.13297 -0.17347 -0.3682 0.15123 -0.1152 0.018189 -0.04923 -0.12516 0.23876 -0.1769 0.47109 0.12437 -0.026209 0.12472 0.33427 0.18144 -0.28037 0.15213 -0.18741 0.46181 0.085268 0.53744 0.15847 -0.24783 -0.21289 0.017314 0.27907 0.057984 -0.76143 0.31321 -0.014821 0.22998 0.017925 -0.0062148 0.45043 -0.3155 0.26985 -0.2594 0.40049 0.1525 0.52282 -0.035507 0.034635 0.11051 -0.12457 0.021573 -0.063821 -0.24636 0.011267 0.071967 0.24879 0.14755 0.43893 -0.18138 0.16887 -0.16842 0.18375 0.19291 0.19037 -0.5246 0.20751 -0.23443 -0.227 -0.10696 -0.38282 -0.23297 -0.15038 -0.1419 0.14723 -0.084809 -0.17321 -0.12061 -0.059725 0.25333 -0.058211 -0.18589 0.3332 0.15068 0.1665 -0.32495 0.36626 -0.14182 0.78705 -0.0094982 -0.18416 0.10135 0.092736 0.0044618 0.20098 0.059015 0.11983 -0.17561 0.098149 0.15286 0.36049 0.16739 -0.27277 0.069306 0.099352 0.3368 -0.11424 -0.14979 -0.13857 0.18083 -0.042347 -0.2463 0.033777 -0.51146 0.20084 0.08686 -0.029451 0.12358 -0.21281 -0.18598 -0.14786 0.14683 0.036504 0.0041467 0.30811 0.19863 0.24551 -0.12267 0.27234 0.11981 -0.15609 0.23598 0.011582 -0.45147 -0.16571 -0.20075 -0.183 -0.36965 0.24602 -0.26006 0.34588 -0.02072 0.035798 -0.098237 0.13793 -0.32723 0.13947 -0.031852 0.46774 -0.30541 0.32301 -0.45427 0.22684 -0.20737 0.12267 -0.2525 0.19928 -0.23659 -0.21108 0.036108 -0.54065 -0.67555 -0.40495 0.11425 0.28863 0.15362 0.042708 -0.01199 -0.69746 0.16078 0.23566 -0.0024892 0.23082 0.27707 0.052652 0.31343 -0.17603 -0.088203 0.22983 -0.14256 -0.012412 -0.15337 0.329 
salazar -0.23336 0.0028294 0.20346 0.67675 -0.31304 -0.23763 0.079355 0.21488 -0.23591 -0.30316 -0.20877 0.17925 0.17413 -0.094275 0.052686 -0.13723 0.012139 0.56696 0.14324 -0.01982 0.55515 -0.31028 0.050034 0.25827 0.064559 -0.081342 0.020694 -0.1218 0.0033042 0.58394 -0.22884 0.23727 -0.19627 -0.19001 -0.20493 0.30231 0.23695 -0.16984 -0.16196 -0.082679 -0.29656 -0.2946 0.33179 0.31094 -0.27178 -0.10186 0.29199 0.62377 0.14482 -0.24859 0.077466 -0.13693 -0.37645 -0.26341 0.26517 0.078368 -0.84303 -0.051234 0.10262 0.069804 0.21528 -0.019003 -0.0087718 0.15493 0.32294 0.30493 0.022395 -0.12596 -0.088144 -0.21408 -0.51105 -0.24941 -0.28853 -0.268 0.16035 -0.4977 -0.20841 -0.055668 -0.41804 -0.36646 0.23687 -0.1459 -0.012855 0.079284 0.010211 -0.029554 -0.27588 -0.46027 0.21914 0.3755 -0.24883 0.50298 0.19205 -0.28895 0.036652 0.02514 -0.63964 -0.60539 -0.36275 0.41146 -0.49385 0.26315 0.29701 0.083505 0.17633 0.19183 0.096639 -0.0067397 0.18929 -0.038059 0.070646 -0.65649 0.20165 0.052748 -0.006908 0.17863 0.29642 -0.23136 -0.089901 0.032639 -0.27698 -0.16932 0.68002 -0.13618 -0.22719 -0.43806 0.12567 0.43004 -0.12106 -0.043867 0.21867 0.65688 -0.20602 0.44902 -0.070056 0.1293 -0.27046 0.1654 -0.086347 -0.14803 0.32565 -0.20072 0.59612 0.19715 0.17933 0.17637 -0.1962 -0.17404 0.00035476 0.012948 -0.065413 -0.19647 -0.061231 -0.15559 -0.31443 -0.54387 -0.031659 0.47728 0.018388 0.5809 0.18314 -0.15837 0.28042 0.41021 -0.42208 -0.17136 0.26837 0.43269 0.20892 -0.038623 0.18388 -0.34604 -0.14051 -0.15763 -0.49529 0.22419 0.18132 -0.050659 0.063151 0.016997 0.34508 0.32268 0.028009 -0.24692 -0.34724 0.26118 -0.2524 -0.2514 -0.24785 0.093627 0.15594 -0.075567 -0.37196 0.11566 -0.15296 -0.22264 -0.40591 0.23368 0.078498 -0.020926 -0.051528 0.012468 -0.074216 -0.0085384 0.59886 0.28452 -0.12577 -0.28176 -0.49197 0.19898 0.10058 0.47699 0.14299 -0.40816 0.0022634 0.2634 0.24684 0.38356 0.4828 -0.23053 0.01025 0.033912 0.28336 -0.045106 0.33785 -0.66165 -0.082113 -0.094815 0.14299 -0.035063 -0.33267 0.045315 -0.17684 0.41103 0.002312 -0.27729 0.0069104 0.27972 0.33617 -0.045322 -0.059091 0.16787 -0.10113 -0.1022 0.075644 0.78742 0.42308 -0.25808 -0.21352 0.29453 -0.47318 -0.20737 0.46426 -0.085191 0.088589 -0.2218 -0.10802 0.13778 -0.032866 0.29779 0.30288 0.69201 -0.44136 0.31758 -0.17133 -0.27957 0.22879 0.0049997 0.018812 0.047132 0.26962 -0.21792 -0.43175 -0.21509 -0.07423 0.57542 -0.14983 0.25576 -0.57207 -0.19434 -0.27653 -0.32139 -0.10551 -0.098822 0.4978 0.092059 0.079755 0.020005 0.36653 0.34058 -0.11824 -0.26608 -0.90925 -0.010053 -0.17 0.13473 0.36653 -0.029989 -0.023677 0.52464 
dodd -0.08045 0.055247 0.0013259 -0.25716 -0.10804 -0.70668 0.15445 -0.13829 0.18278 -0.15321 -0.20367 0.41209 -0.30613 -0.19555 -0.15559 -0.25448 0.20109 -0.0991 -0.34359 -0.037473 -0.30841 0.074089 0.33331 0.21491 -0.3212 0.057444 -0.062979 0.91817 0.46936 0.6688 -0.45403 0.10089 -0.1826 0.054766 -0.18985 -0.14219 -0.014105 -0.30139 -0.0090653 0.12969 0.076737 0.14978 -0.19597 0.27252 0.05318 -0.38421 0.079869 0.032601 0.079163 -0.42108 -0.46463 -0.02217 -0.10429 -0.53085 0.15591 -0.10895 -0.69797 -0.39124 0.22968 -0.25841 0.22885 -0.37957 0.16347 -0.4243 0.29424 0.46743 0.08732 -0.038689 -0.38269 0.42174 -0.52455 -0.2332 -0.32712 -0.0048614 -0.13051 -0.055189 0.21217 -0.37439 -0.15221 -0.51352 -0.40352 -0.13537 -0.043721 0.03402 -0.079367 -0.11958 0.10116 -0.45166 -0.39483 -0.18007 -0.37511 -0.060534 -0.16815 -0.34362 0.2489 0.042833 0.02522 -0.12588 -0.30232 0.21977 -0.39493 -0.014682 0.17108 0.076204 -0.15832 -0.050557 0.26895 -0.063844 0.13745 0.070351 -0.10524 -0.44627 -0.28647 0.2123 -0.022916 0.177 0.53047 -0.02144 -0.41355 -0.21977 -0.46811 0.86099 -0.13302 -0.41905 0.20213 0.067767 0.39769 0.21057 0.033783 0.094135 0.41851 -0.064147 -0.14784 -0.11714 0.32218 -0.18486 0.11262 0.53551 0.025462 -0.091906 0.21179 -0.028488 0.049136 -0.22829 0.15312 -0.049032 0.075183 -0.19628 0.36106 0.48202 -0.084186 0.14014 -0.064962 0.25619 -0.13047 -0.23303 -0.24376 0.24497 -0.40346 0.070018 0.10161 0.043412 0.55558 0.14687 -0.074241 0.40234 0.30295 -0.080102 -0.16089 0.19342 0.21098 -0.43603 -0.24683 0.30723 -0.060557 -0.058356 -0.68079 -0.19279 0.021261 0.0080385 0.046098 0.0072896 -0.29008 0.15404 -0.24277 -0.17743 -0.10014 0.18189 0.30794 -0.025245 0.41261 -0.085024 0.30907 0.21393 0.20839 -0.49692 -0.15522 0.0076843 -0.46773 0.28972 -0.19126 -0.13737 0.14381 0.019716 0.16377 -0.088219 -0.15442 -0.30869 0.11239 0.039044 0.049727 0.6111 -0.37926 0.0061161 0.071144 0.094258 -0.041765 -0.36001 0.0032457 0.002261 0.11609 0.31769 0.16063 0.25075 0.30097 -0.13267 -0.18622 -0.024109 0.042452 0.1515 -0.20447 0.13473 0.54336 0.52145 -0.26307 -0.46413 -0.18457 0.1396 0.22496 0.31198 0.16463 0.17114 0.28939 0.17296 0.23211 0.21877 0.42616 0.16537 0.0731 -0.12575 -0.1063 -0.082282 0.64278 0.28828 -0.37051 0.12151 -0.30366 -0.11611 -0.01653 -0.26363 -0.095768 -0.27405 -0.59624 -0.044849 -0.54191 0.08293 -0.011469 0.07492 0.21073 0.2123 -0.27618 0.3786 -0.23829 -0.33076 -0.35759 -0.15979 -0.28601 -0.32859 -0.23418 -0.5296 0.12489 0.083 0.33866 0.088793 -0.058352 -0.26144 -0.53478 -0.25244 -0.01073 0.38159 -0.051896 -0.30313 0.14685 0.233 0.10787 0.1136 0.061435 0.13912 0.018989 -0.2602 
lieberman 0.1251 -0.13414 0.16755 0.046035 0.13522 -0.25867 0.35887 -0.23757 0.31991 -0.19745 -0.14724 -0.22332 -0.050196 -0.47315 -0.21771 0.093914 0.35451 -0.5209 -0.54908 -0.13463 -0.21755 -0.10853 -0.11161 0.014185 0.34245 -0.26161 -0.1199 0.18304 0.21549 0.11593 -0.46828 -0.095243 0.15533 -0.18543 0.010646 0.18046 0.40019 -0.066385 -0.32087 -0.088672 -0.085626 -0.060846 -0.21679 -0.24615 -0.19787 0.0016796 0.37793 0.11927 0.16472 -0.22122 0.23274 0.0038386 -0.40019 0.0016329 -0.059772 0.095957 -0.12598 0.35195 0.19592 -0.015023 0.30579 -0.28177 0.2158 -0.27711 0.16684 0.22523 0.018117 -0.128 -0.25215 0.047249 -0.26837 0.18421 -0.2867 -0.4138 0.044334 0.22049 0.058794 -0.36961 -0.19843 -0.51063 -0.18778 0.14477 -0.11582 -0.24738 -0.1689 -0.12499 0.17499 -0.60157 0.013474 0.29464 -0.14394 0.23119 0.10773 -0.35443 0.11093 0.34474 -0.15529 -0.16736 -0.29369 0.026995 -0.14673 -0.099975 -0.47292 0.010266 -0.0069186 0.081053 0.097746 -0.1306 0.1203 -0.0049903 -0.072804 0.18231 -0.011896 -0.19673 -0.23835 0.13059 -0.067258 -0.25959 -0.48274 -0.015802 -0.17699 0.32116 -0.1522 -0.40732 -0.24684 0.17087 0.11791 0.33647 0.018596 0.36051 -0.022679 -0.092799 0.12647 0.37861 -0.23024 0.014098 -0.20046 0.086455 -0.080311 0.13088 0.16282 -0.11616 -0.030107 -0.52685 0.22277 0.36395 -0.41281 -0.081536 0.22926 0.15401 -0.0061363 -0.37429 0.30772 -0.0031894 0.02665 -0.044807 0.0088703 -0.0065401 -0.26315 0.20314 -0.58156 0.18409 0.2938 0.14643 0.2484 -0.038233 0.024269 0.37973 0.050515 0.06907 -0.11768 0.19129 -0.38156 0.43188 0.30287 0.047693 -0.026785 -0.064587 0.33555 -0.22199 -0.18996 0.10865 -0.059503 0.090473 -0.39965 -0.22556 -0.40738 -0.12218 0.14418 0.043217 0.51942 0.37108 0.38164 0.19348 0.070673 -0.35069 0.077023 0.13037 0.044734 0.3127 0.083338 -0.58434 0.39101 0.29612 0.11724 -0.41445 0.068736 -0.2673 0.011676 -0.10131 -0.10046 -0.025569 -0.054622 -0.14214 0.30377 0.29785 -0.41318 -0.3251 0.51782 -0.30693 0.086922 -0.17142 0.30651 0.45847 0.14349 0.051997 -0.025249 -0.47725 0.27927 0.30384 -0.18913 -0.061348 0.32901 -0.30836 -0.23909 0.12706 -0.27065 0.46501 0.1716 0.14134 0.10704 0.57832 -0.021661 0.37453 0.57065 0.20815 0.21428 0.17424 -0.038039 0.41756 -0.064801 -0.18713 -0.14344 -0.015231 -0.23806 0.11819 0.10044 0.40565 0.022517 0.11566 0.32976 0.28049 -0.55394 0.011656 -0.36544 0.28765 -0.60515 0.16994 -0.3921 0.44782 0.32505 0.22903 -0.20148 0.11813 -0.17087 0.1259 -0.3156 -0.28083 -0.44629 -0.35549 0.44762 -0.026087 0.0031503 -0.0061662 0.004474 -0.041139 0.10857 0.056545 0.19145 -0.00015237 0.40161 -0.31352 0.011264 0.28102 0.37127 0.062392 0.43776 -0.16617 -0.16806 0.074313 
biden 0.012269 -0.027629 0.18088 0.028508 -0.0018114 -0.33993 0.30134 -0.074378 -0.12926 -0.25247 -0.3345 0.099839 0.22454 -0.45031 -0.46367 0.087001 0.38929 -0.25245 0.055744 -0.13521 0.1855 -0.29659 -0.51129 -0.0084786 0.24337 -0.14636 0.081407 0.57075 -0.019802 0.11357 -0.33503 -0.1196 -0.24192 0.16482 -0.035852 -0.048901 -0.2694 -0.25798 -0.15896 -0.3869 0.35056 -0.066988 -0.11954 -0.033127 -0.051518 0.19198 0.40334 -0.072624 -0.00098796 -0.52358 -0.15246 0.015304 0.10746 -0.34157 0.11882 -0.060161 -0.011939 0.14553 0.28098 -0.26535 0.079111 -0.227 0.071678 0.022201 0.010188 -0.019626 -0.11753 0.26149 -0.02051 0.2045 -0.28974 -0.084086 -0.06086 -0.35258 0.2109 -0.21763 0.33697 0.022488 -0.41987 -0.70125 -0.17618 -0.023421 0.42347 0.047973 0.092674 0.09856 0.10432 -0.30213 0.20945 0.16735 -0.010138 -0.40578 0.023819 -0.22825 0.044543 0.41182 -0.12034 -0.32349 -0.25821 0.15222 -0.32141 -0.18388 0.011849 0.18187 0.16757 0.018012 0.34671 0.22882 0.25092 0.1853 0.067275 0.09755 -0.03226 0.10535 0.070379 0.11697 -0.082553 -0.10992 -0.22888 0.088112 -0.039011 0.33513 -0.25987 -0.22583 -0.045294 -0.095478 0.075433 0.33928 0.34074 0.1832 -0.20083 -0.1563 -0.089352 0.29146 -0.39887 -0.24198 -0.13248 0.19487 -0.20965 -0.26615 -0.15188 -0.28498 -0.19164 -0.1251 0.20645 0.40644 -0.077959 -0.038856 -0.013289 -0.0036283 0.065313 -0.31644 0.062754 -0.040347 0.23818 -0.11664 -0.17809 -0.20817 -0.26926 0.07102 -0.39643 0.2735 0.15556 0.25836 -0.31011 -0.12921 0.16173 0.28943 0.17916 -0.021836 -0.26551 0.13681 0.25929 0.0083925 -0.29202 0.44724 -0.24906 -0.10568 0.18413 -0.37137 0.026548 0.10448 0.064436 0.052891 -0.20548 0.099162 -0.51886 0.098484 0.067738 -0.2856 0.35207 0.29712 0.4396 -0.16415 -0.054821 -0.28756 0.038084 0.39208 0.36032 0.12264 0.095807 -0.48775 0.43535 0.14133 0.12602 -0.1298 -0.04294 -0.22529 0.31648 0.090919 -0.25052 0.099657 -0.17324 0.11799 0.22847 0.044419 0.0069358 -0.31378 0.12788 -0.33087 -0.22938 0.37184 0.14529 0.34673 -0.089336 -0.041306 0.090426 -0.59809 0.28112 0.21639 -0.10029 0.084142 0.094575 0.066413 -0.2006 -0.047907 -0.20458 0.22348 0.071798 0.028672 -0.055293 -0.016881 -0.15268 0.477 0.3183 -0.021221 0.30082 0.0035609 0.082573 0.47845 0.12183 -0.29007 -0.088358 -0.19294 -0.21266 0.345 -0.25506 0.10934 -0.0024452 0.080585 0.18497 -0.14019 -0.26024 -0.42976 -0.039473 0.36044 -0.36339 0.30427 -0.38073 0.4563 -0.17603 0.041166 -0.39674 0.18723 -0.088729 0.23376 -0.17996 -0.082333 -0.1793 -0.19749 0.26977 0.11996 0.15571 0.13677 0.26297 0.05725 0.069626 0.057064 -0.15841 -0.18458 0.12814 -0.15119 -0.14307 0.087681 0.24767 -0.080842 0.232 0.090521 -0.0762 0.2676 
carper 0.17458 0.032871 0.3144 0.1353 0.042341 -0.87808 0.069398 0.2258 0.18643 -0.049883 -0.64278 0.24626 -0.25319 0.25464 0.025112 0.31215 0.34808 -0.46632 -0.12764 0.011038 0.39545 -0.036556 -0.070443 -0.20008 -0.00059557 0.21396 0.10663 0.38482 -0.046573 0.65966 -0.53422 -0.16926 -0.07098 0.34197 -0.14472 0.26876 -0.18252 -0.11233 -0.20264 0.31175 0.082354 0.27088 0.077476 0.0062198 -0.53039 -0.57961 0.60169 0.027106 0.11472 -0.51674 0.03373 0.11514 -0.14806 -0.19333 -0.039843 0.2412 -0.17632 -0.52707 0.12009 -0.19316 0.52677 0.52025 0.24244 0.13301 0.16982 0.13764 -0.12351 0.3423 -0.59669 0.16768 -0.055125 0.36793 -0.32269 0.0095612 0.083817 -0.3597 0.0027697 0.022448 -0.51143 -0.5016 -0.015487 0.04126 0.23803 -0.40988 -0.35003 -0.15815 -0.088481 -0.7281 0.16807 0.31684 -0.11636 0.069916 0.14355 -0.22417 -0.10628 0.30282 -0.25757 0.093336 -0.053505 0.49598 -0.22197 -0.47892 0.017001 -0.072933 -0.44057 0.43316 0.47845 0.0016605 0.40926 -0.2039 -0.21057 0.05566 -0.070988 0.024494 0.20468 -0.02199 0.11877 0.14945 -0.40592 -0.12617 0.03728 0.78482 -0.18535 -0.35648 -0.14676 -0.19786 0.5085 0.11532 0.30794 -0.28564 -0.084107 0.21692 -0.054739 0.15443 -0.085824 -0.32313 0.090072 0.31542 -0.21581 -0.1691 -0.019733 0.056333 0.072836 -0.050164 -0.0093354 -0.12046 -0.51325 0.14762 0.21121 0.10779 -0.13343 -0.29026 0.11319 -0.12925 0.021837 -0.062997 -0.18671 0.1777 0.34064 -0.14445 -0.092597 0.21242 0.18356 0.17003 -0.080445 -0.26293 0.25527 0.55592 -0.29482 0.19416 -0.43513 -0.4794 -0.15533 0.38039 -0.078497 0.56977 -0.1335 -0.052923 0.39388 -0.28184 -0.065768 0.31348 -0.21198 0.57584 -0.19227 -0.2933 0.0028108 -0.040106 -0.52325 0.045814 0.23817 0.098192 0.024671 0.35786 0.024924 -0.28158 -0.057951 0.15432 -0.11095 0.037084 -0.13913 -0.2418 -0.076189 0.029002 0.41982 0.26288 -0.16652 -0.2462 -0.28111 0.11065 -0.13835 0.033747 -0.031286 -0.24679 -0.1608 0.11746 0.0040005 -0.051028 0.67974 -0.18881 -0.10788 -0.27186 0.56112 0.21119 0.32818 -0.47713 -0.045014 -0.050649 -0.016445 0.042807 -0.55589 -0.066377 0.05776 0.024477 -0.084347 0.10805 0.062846 0.4025 0.54525 0.087854 0.40249 0.11908 0.074679 0.30636 0.082224 0.35862 0.56769 0.080291 0.093164 0.49133 -0.71961 -0.35939 0.11666 -0.046498 -0.48936 -0.067974 -0.06484 0.27963 -0.21196 0.0020831 -0.22662 0.33181 -0.5568 0.20871 -0.14692 -0.18406 0.11402 0.028348 -0.30301 0.046317 0.62227 0.0052093 -0.2761 -0.04084 -0.20939 0.22521 0.20486 -0.16213 -0.017503 -0.37741 0.17036 0.14382 0.066651 0.012775 -0.52533 0.14867 -0.14165 0.25768 0.38587 0.57325 0.17016 -0.60901 -0.25095 0.34145 0.43992 -0.12932 -0.12029 0.50953 0.042524 0.53271 
nelson 0.070246 0.1252 0.14949 -0.23705 -0.17852 -0.37887 0.39976 -0.063703 0.41072 -0.45074 -0.35328 -0.081287 -0.084306 -0.075014 -0.28399 0.44067 0.44899 -0.39393 -0.10974 0.053861 0.045832 -0.35244 0.31065 0.0085559 -0.11332 0.077503 -0.19827 0.17858 0.18752 0.44038 -0.45127 0.081213 0.41461 -0.31613 -0.066774 0.34531 -0.071472 -0.22092 -0.34767 -0.0090992 -0.16587 0.075612 -0.12333 -0.10895 -0.11177 -0.15708 -0.11189 0.13035 -0.31069 -0.13908 -0.1399 -0.023082 -0.3314 -0.19102 0.16761 -0.01541 -0.24084 -0.0095114 0.05075 0.16725 0.13625 -0.26681 0.22123 0.17059 0.18141 -0.1927 -0.008516 0.076441 0.40094 -0.22347 0.020211 -0.061068 0.058023 0.012663 0.046645 -0.026547 -0.10901 0.055159 0.2571 0.10644 -0.1949 0.12 -0.12051 -0.048282 0.15457 0.0022384 -0.069525 -0.30994 0.21913 0.43982 -0.26998 -0.031559 0.2848 -0.22304 0.033922 -0.31226 -0.16642 -0.33265 0.35187 0.21985 -0.1824 -0.56456 0.19954 0.076725 -0.14582 -0.22824 0.11484 0.040902 0.20351 -0.036505 -0.12461 -0.31208 -0.56409 -0.29981 -0.20044 -0.19216 -0.28864 -0.27073 -0.75964 -0.1064 0.056581 -0.15295 -0.46528 -0.32824 -0.42961 0.3321 0.2642 0.31229 0.11113 0.12518 -0.038354 0.1339 -0.1421 0.14884 -0.085112 0.040496 -0.083767 0.072038 -0.3157 0.40329 0.43687 -0.21609 0.0037893 -0.44243 -0.056638 0.49495 -0.25818 0.085329 -0.248 0.49239 -0.072008 -0.58131 0.061914 -0.017444 0.28292 -0.14263 -0.0098082 0.10866 0.31941 -0.12521 -0.46481 0.13168 0.29108 0.053273 -0.22351 -0.20049 -0.090235 0.033184 -0.063308 -0.10497 0.36155 -0.25252 -0.079667 0.12292 -0.032647 0.20093 -0.0063421 -0.18525 -0.23206 0.034892 0.15073 0.37923 -0.028444 0.26785 -0.11381 -0.12327 0.05642 -0.70519 -0.25674 -0.0081981 -0.077427 0.27286 -0.34347 0.25206 0.02886 -0.2669 -0.45944 -0.0415 0.26456 -0.19838 0.16986 -0.27601 -0.31785 0.39197 -0.48414 0.44957 0.030068 -0.088202 -0.14136 0.31059 0.062324 0.16038 -0.19495 0.074902 -0.058708 0.26307 -0.15649 -0.20335 0.5769 -0.38645 -0.050562 0.31562 0.020361 0.48297 -0.011618 -0.16473 0.1932 0.018184 0.21978 -0.040646 -0.3193 0.33454 0.47524 -0.32674 0.062098 -0.088412 -0.18244 0.35319 0.12103 -0.14043 -0.063331 0.21663 -0.20379 -0.095894 0.061626 0.18406 -0.1111 -0.1916 -0.19549 0.28981 -0.58826 0.11566 0.11184 0.016305 0.11593 0.069846 0.09459 0.022008 0.17319 -0.13751 -0.059239 0.26769 -0.71029 0.41339 -0.14398 0.13834 -0.15374 0.17914 -0.27793 0.17849 0.37882 -0.12052 -0.081242 -0.052679 -0.064084 -0.30444 0.10829 -0.22587 -0.47575 -0.037178 0.20227 0.085534 0.42697 0.14042 -0.059767 -0.14171 0.19009 0.32415 0.18085 0.020863 -0.102 -0.012628 -0.076264 0.10828 0.43436 0.018798 0.46088 0.17888 -0.20771 -0.090435 
martinez 0.2691 0.52306 0.28962 0.26381 0.072208 -0.24817 -0.18634 -0.16913 -0.13432 -0.5265 -0.10923 0.069916 -0.093694 -0.32961 0.047586 0.010113 0.18397 0.022718 -0.15006 0.10926 0.17339 -0.043406 0.082052 0.5016 0.11002 -0.33872 -0.35575 0.17153 -0.063334 0.42473 -0.13011 -0.0067863 0.32455 -0.15294 0.058463 -0.033367 0.4964 -0.36526 -0.38531 -0.29557 -0.052481 0.1112 -0.1158 0.031226 0.021475 0.094536 -0.0099304 -0.074924 0.42123 -0.014277 0.16361 0.053075 -0.14754 -0.039022 -0.0020927 -0.15064 -0.024239 0.024681 0.04512 0.18037 0.13576 -0.21469 -0.089791 -0.28596 0.090664 -0.10338 0.31347 -0.45101 -0.40804 0.23261 -0.24675 0.071941 0.18323 0.14492 0.0042393 -0.15366 -0.23022 -0.061843 -0.090424 -0.12002 -0.20411 0.33553 -0.060346 0.051742 0.13063 0.03377 -0.064956 -0.41237 0.10578 0.31394 -0.26017 -0.10757 -0.19884 -0.11979 -0.0015935 -0.10139 -0.056727 -0.53092 0.39763 0.26067 0.091869 -0.05575 0.2289 0.022637 0.17074 0.21111 0.050993 0.17765 0.21703 0.30548 -0.01649 0.052528 -0.29498 -0.21818 0.30798 0.20169 0.0088737 0.29723 -0.67179 -0.089242 -0.18887 -0.14581 -0.039829 0.020565 -0.5461 0.074239 0.48077 0.061892 0.092095 -0.53855 -0.22677 -0.020115 -0.040829 -0.21488 0.22478 0.23097 -0.30092 0.23178 -0.036177 -0.20292 0.14445 -0.16865 0.48234 -0.15147 0.17009 0.1925 -0.016857 -0.23377 -0.028694 -0.03974 0.097203 0.14051 -0.018216 0.20263 -0.18049 0.073432 0.11356 -0.022336 0.044175 0.7306 -0.29583 0.16569 -0.018883 0.17458 -0.15874 -0.19621 -0.22649 0.1079 -0.15838 -0.10732 0.58808 -0.51135 -0.084715 -0.057619 -0.11075 0.19525 -0.063597 -0.091452 -0.24475 -0.25085 0.3311 0.13995 0.11123 0.088441 -0.23782 0.16052 0.26664 -0.2083 -0.022054 0.25559 0.019608 0.26037 -0.34457 0.30603 0.2401 -0.38545 -0.51236 0.24374 0.24267 -0.020764 0.21534 0.14239 0.20349 0.36694 0.45429 -0.023954 0.037903 -0.2322 -0.085381 0.092926 -0.080062 0.33851 -0.099973 0.06724 -0.16614 0.33724 0.34353 0.14242 0.56814 -0.32292 0.025268 0.11974 0.11682 -0.30526 0.32984 -0.19348 -0.20347 0.26561 -0.2216 -0.3478 -0.26698 -0.0013404 0.092898 0.25066 -0.11053 -0.42795 -0.11105 0.24626 0.18244 -0.0024707 -0.23682 0.20128 -0.22507 -0.11253 -0.13338 0.082757 -0.17296 -0.23901 -0.51267 0.32032 -0.71954 0.31019 0.24802 -0.1264 -0.076556 0.193 -0.19454 0.27158 -0.29603 0.016733 0.14781 0.20205 -0.41742 0.24709 0.18377 -0.26969 0.15325 0.067237 -0.30166 0.16555 -0.11134 -0.031048 -0.28968 0.24617 0.1263 0.15681 0.13414 -0.22225 -0.58723 -0.69254 -0.22586 -0.18429 -0.45929 -0.43968 -0.30384 -0.09389 -0.031741 -0.11162 -0.17868 0.78882 0.10337 -0.23821 0.11063 0.10921 -0.076523 -0.075493 0.30603 0.42402 0.28229 0.054199 
chambliss 0.28853 0.23909 0.20889 -0.43954 -0.11287 -0.75622 -0.17319 -0.14428 0.16576 -0.018505 -0.071615 -0.035023 -0.056908 0.13679 0.24169 0.5088 0.13841 -0.42674 0.15051 -0.19941 0.45197 0.040884 -0.094583 0.38801 0.11879 -0.17451 0.31684 0.2726 0.065599 0.56893 -0.51106 -0.34913 0.31676 -0.18063 -0.34244 0.0022584 0.2029 -0.33235 0.026784 0.6324 -0.177 -0.39889 0.18142 0.21171 -0.93968 -0.31509 0.2998 0.057209 0.32228 -0.16354 0.20288 0.24551 -0.33632 -0.13061 0.063835 -0.079193 -0.30621 0.15465 0.32895 -0.037735 0.11312 -0.10832 0.43179 -0.29425 0.24957 -0.56078 -0.50389 0.56498 -0.31988 0.29552 -0.12019 0.25501 -0.46236 -0.39431 -0.040068 -0.43732 0.035817 -0.2824 -0.22928 -0.37168 -0.058778 -0.17034 0.44988 -0.89655 -0.15709 0.020945 -0.21837 -0.65404 -0.17422 0.57019 -0.0085553 -0.20329 0.21444 0.29837 -0.48141 -0.015364 -0.34083 -0.25798 -0.49271 0.40903 -0.58674 0.11761 -0.3338 -0.66605 -0.14146 0.50683 0.0049954 0.33495 0.064457 -0.179 -0.029486 0.21032 0.16538 -0.31857 -0.44873 0.2757 0.083807 0.1232 -0.56326 -0.36748 0.27948 0.41722 0.041888 -0.16552 -0.3016 -0.15612 0.27121 -0.15782 0.42232 -0.14032 -0.19793 0.0058911 0.10352 -0.03237 0.077892 0.018675 -0.10101 0.54475 0.13424 0.10933 0.32307 0.37206 0.01183 -0.22724 -0.10509 -0.093893 -0.26312 0.098002 0.19138 0.34143 0.21389 -0.33431 -0.29674 -0.11077 -0.44058 -0.12548 -0.31624 -0.098864 0.22104 -0.12309 0.091774 0.19964 0.10509 0.22663 -0.024495 -0.021587 0.14385 0.38021 -0.42845 -0.16126 -0.0053905 -0.0054567 -0.19432 0.52731 0.10133 0.32359 0.052849 0.14628 -0.16432 -0.09816 0.32948 0.35329 -0.38939 0.13215 -0.2196 0.39753 -0.21036 -0.095406 0.30541 -0.29856 0.64087 0.33942 0.18118 0.25605 -0.1708 -0.70215 -0.23587 -0.10943 -0.20954 -0.25431 0.0166 -0.11024 0.40131 -0.48824 0.18563 0.51475 -0.06897 0.10296 -0.0318 -0.10713 0.16762 0.16237 -0.18495 0.28043 -0.10046 -0.050005 0.15838 -0.08174 0.023898 -0.79855 0.42114 -0.17538 -0.25384 -0.22069 0.21496 -0.33406 0.1169 0.17322 -0.27638 -0.054139 -0.47026 0.17748 -0.077763 0.073101 -0.34639 -0.17532 -0.098371 -0.08566 0.4758 -0.26492 -0.047565 -0.1031 -0.035454 0.19711 0.20491 0.2844 0.59639 0.47172 -0.11105 0.25902 -0.19933 -0.36489 -0.27652 -0.026147 -0.13862 0.37096 -0.23195 0.29059 0.066632 0.27321 -0.26777 0.14121 -0.68014 0.51939 -0.069284 0.24 -0.011416 -0.23753 -0.44015 -0.018959 0.4444 0.50169 -0.068839 -0.22833 -0.11201 -0.35588 0.019876 -0.53007 -0.24358 -0.22976 0.54932 -0.036086 0.10772 -0.054466 0.08551 0.041394 0.024141 -0.26562 -0.059265 0.54011 0.72629 -0.076294 -0.50126 0.19925 0.573 -0.36045 0.69736 0.17649 -0.21468 0.10709 
isakson -0.14575 0.38186 0.082337 0.15821 0.29255 -0.55798 0.036152 0.39503 0.47794 -0.064233 0.025198 0.091299 0.2898 0.071912 -0.046398 0.24703 0.31353 -0.12478 0.23498 -0.23266 0.25278 -0.057381 -0.21118 -0.061349 -0.21869 0.19343 -0.1721 0.80482 -0.038817 0.52018 -0.46167 0.27234 0.14139 -0.31657 -0.42341 0.36669 -0.33733 -0.75549 -0.35499 0.62494 0.082692 0.18568 -0.27534 0.18567 -0.58022 -0.097593 0.084551 -0.14754 0.17658 0.24668 -0.2964 0.02733 -0.38352 0.22858 0.65025 0.32542 -0.57849 0.40425 0.19056 0.25261 -0.033529 -0.36482 0.28881 -0.30374 -0.19312 -0.37952 -0.3993 0.28778 0.15928 0.2627 0.10665 0.62318 -0.2951 -0.49672 -0.21181 -0.33205 -0.095265 -0.15103 -0.33533 -0.47977 -0.44353 -0.28347 0.0027441 0.025156 -0.57616 -0.79354 -0.45105 -0.6438 -0.23147 0.35388 -0.60371 -0.10909 -0.062395 -0.29829 -0.40888 0.29017 0.066698 -0.23634 0.048744 0.57557 -0.36717 0.11353 0.074735 0.055291 -0.146 0.38128 0.31489 0.18223 0.71754 -0.35476 -0.1455 0.41633 -0.40437 0.29304 0.018311 0.14364 0.021143 -0.25982 -0.068074 -0.58166 -0.19383 0.80945 0.1458 -0.13081 -0.044774 -0.34203 0.54544 0.085766 0.77193 -0.0078686 -0.37016 -0.24021 0.031516 -0.14219 0.27438 0.012968 -0.12775 0.56887 0.011906 -0.15745 0.05957 0.26423 0.13589 -0.11048 0.040159 -0.31019 -0.13475 -0.12405 -0.16936 0.43002 0.12513 -0.18675 -0.094293 -0.22407 -0.057534 -0.016896 0.018168 -0.083387 -0.21889 0.068959 -0.2843 -0.21643 -0.024868 0.026818 -0.18838 0.017916 0.24702 0.55119 -0.80051 -0.16276 -0.016651 -0.6009 -0.070688 0.10415 0.007485 0.43047 -0.45564 0.37499 -0.061834 -0.0048522 0.22421 0.18127 -0.37459 0.368 -0.095438 -0.097275 -0.025164 -0.51066 0.063617 -0.11005 0.13554 0.36404 0.071823 0.32029 0.082387 -0.61907 0.23015 0.14113 -0.47752 0.40447 -0.12535 -0.19825 0.22527 -0.21675 -0.31802 0.42654 -0.22608 0.27191 0.043249 0.041595 -0.11087 0.15348 -0.50782 -0.14836 -0.27646 0.26256 -0.065818 -0.40053 0.34149 -0.60508 0.014764 0.25935 0.37947 -0.44671 0.47805 -0.24498 -0.042591 0.57262 0.65373 0.26554 -0.48606 0.31578 -0.077933 0.37578 0.026567 -0.26965 -0.36525 -0.1123 0.36931 0.36703 0.1332 0.056405 0.16798 0.34095 0.0553 -0.043337 0.28426 -0.093921 -0.048069 0.52718 0.15075 -0.2095 0.20779 -0.19711 -0.45061 0.19335 -0.064502 0.4072 0.2241 -0.38675 -0.26836 -0.34662 -0.82316 -0.21625 -0.068992 -0.021106 0.36832 -0.31195 -0.70085 0.4953 0.39976 0.34061 -0.11714 0.26349 0.4355 -0.18619 -0.41063 -0.56074 -0.072165 -0.81444 0.27349 0.11051 0.067328 -0.064654 -0.45265 0.49628 -0.26995 0.013874 -0.22351 0.23817 0.69193 -0.1102 -0.39974 -0.4934 0.19513 0.029953 0.32092 0.47889 -0.08507 0.30521 
inouye -0.031647 -0.35885 0.63789 0.054292 -0.19142 -0.94681 0.7137 -0.1043 0.047338 -0.40136 -0.15562 -0.22012 0.0509 -0.21193 -0.044946 -0.40099 -0.067159 -0.24938 0.026612 0.45423 0.42775 0.33169 0.27949 0.25285 -0.45862 0.24781 0.2236 0.28833 0.1215 0.58395 -1.0293 -0.025109 0.15813 -0.26681 -0.9769 -0.11906 0.17295 -0.51912 -0.50619 -0.52038 -0.087125 -0.46898 -0.5447 0.082071 -0.065743 -0.020555 0.60798 0.14607 -0.03008 -0.5157 -0.4172 -0.016993 -0.17914 -0.46816 0.50636 -0.20675 -0.19073 0.16922 -0.043292 0.42737 0.34176 -0.42649 0.22671 0.13639 0.30806 0.3675 0.0023634 0.79559 -0.089503 0.17957 -0.059558 0.48082 -0.90083 -0.088331 0.11662 -0.39074 0.088342 0.21816 -0.11964 -0.52573 0.00022497 -0.3625 0.005754 -0.10172 0.31907 0.17732 -0.091961 -0.079986 0.47733 0.51732 -0.33404 0.21794 -0.37929 -0.53297 -0.057817 -0.26942 -0.32649 -0.48096 0.030598 -0.12265 -0.31093 -0.55863 0.062929 0.075128 0.25291 0.23751 -0.025418 0.07346 0.13984 0.0041261 -0.23102 -0.29058 0.087468 -0.40123 0.38961 -0.42675 0.14223 -0.21329 -0.4066 0.018779 -0.2162 0.099777 -0.030453 0.0072799 -0.021427 -0.29886 0.55188 -0.40007 0.48969 0.040309 0.20882 -0.7012 -0.091116 0.10365 -0.33024 -0.015388 0.09773 0.67342 0.165 -0.18335 0.20522 -0.45528 0.26908 -0.2058 0.11057 0.19054 0.52865 -0.22674 0.38245 0.47919 -0.036914 -0.62062 0.15507 0.35617 -0.40055 -0.25487 -0.27099 -0.20727 0.060171 0.73278 -0.43479 -0.039449 0.36311 0.24161 -0.029449 0.59965 0.65242 0.71879 -0.39216 -0.39635 -0.041565 -0.29467 0.10472 0.795 -0.059515 0.22554 -0.37291 -0.30124 0.26311 0.57158 -0.063022 0.60802 0.057436 0.17448 -0.53194 -0.12351 0.078705 -0.15513 -0.30684 -0.38277 -0.27091 0.41563 0.20829 -0.19641 -0.086108 -0.065842 0.47729 -0.33114 0.13721 -0.038738 -0.55334 -0.68449 -0.07918 0.081406 -0.71559 -0.24482 -0.14543 -0.41078 -0.030502 0.53965 -0.059247 0.3211 0.0049999 0.11215 0.24548 0.04531 -0.25534 -0.12782 -0.096394 -0.68692 -0.25766 0.097922 0.23837 0.24985 0.31279 -0.20363 0.024176 -0.12549 0.59794 -0.33176 0.22765 0.1572 0.0089165 0.14862 -0.23957 0.20031 0.025915 0.567 0.0070479 -0.2601 0.24235 0.35078 0.29814 -0.1427 0.44205 0.4093 0.073773 0.02883 -0.56846 0.36078 0.12878 0.31551 -0.24677 0.54137 -0.20047 0.34637 0.010257 0.86516 -0.48614 0.28642 0.015732 0.27938 -0.99086 0.18543 -0.11631 0.18135 -0.18414 0.18417 -0.35799 -0.31192 -0.28267 -0.39049 -0.11295 -0.18368 -0.37037 -0.26331 0.12583 -0.47181 -0.25784 -0.724 0.56906 -0.10356 -0.47795 0.08566 0.28635 0.17611 -0.17592 0.1786 0.12497 0.41739 0.76125 0.10982 -0.14813 0.014733 -0.14495 -0.23991 0.032035 -0.28193 0.24132 0.17433 
akaka -0.019588 0.22567 0.30869 0.23638 -0.040044 -0.50037 0.27102 -0.26227 0.21027 0.044246 -0.91356 0.36652 -0.081528 -0.11755 -0.39685 -0.48013 0.0048498 -0.13006 0.025494 0.11702 0.0032018 0.61875 -0.20922 -0.46652 -0.083499 0.23394 -0.15468 0.47201 0.024515 0.28256 -0.40003 0.051003 0.39477 -0.11868 -0.32938 0.52197 0.3416 -0.6633 -0.36677 0.25713 0.037775 0.080244 -0.11975 -0.32455 -0.47417 -0.063129 -0.23108 0.56768 -0.00097451 -0.34684 0.034824 0.37862 -0.61485 -0.67874 0.24264 -0.09728 -0.68835 -0.32985 0.30762 0.022395 0.12976 -0.16435 -0.10624 -0.67883 -0.13401 0.039093 -0.26989 0.057421 0.067621 0.22797 -0.17362 0.075726 -0.026794 0.031344 -0.055259 -0.2076 0.10624 -0.058106 -0.82501 -0.56279 0.0008672 0.08768 0.21341 -0.33103 -0.119 0.049654 -0.17002 -0.095938 -0.43354 0.36518 -0.027778 0.084981 0.11646 -0.30524 -0.39792 -0.54205 -0.25109 0.1106 -0.15998 0.38914 -0.58873 -0.35499 -0.22421 -0.28424 -0.46851 0.54577 0.32771 0.020298 0.060769 0.20398 0.23205 -0.18929 0.2071 -0.44343 0.3949 -0.56687 -0.069998 -0.54478 -0.56156 0.1182 -0.64863 1.0973 0.026042 -0.11563 -0.03538 0.0063977 0.37111 -0.27495 0.017722 0.21944 -0.086063 -0.20544 0.40263 -0.062005 0.28968 -0.60136 -0.32131 0.58272 -0.074634 -0.0061649 0.1932 -0.53733 -0.053133 -0.37127 -0.32095 0.036111 -0.21688 -0.1441 0.37616 0.41078 -0.033303 -0.25976 0.12629 0.19429 -0.051723 -0.60718 -0.097592 0.49552 0.35602 0.51596 -0.049357 -0.20916 0.78784 1.2884 -0.41036 0.032598 0.42687 0.5833 0.019727 -0.17337 -0.28383 -0.0549 0.10068 0.37772 -0.33936 0.52627 -0.046884 -0.17224 -0.060556 0.1927 0.091569 0.65712 -0.27556 0.36172 -0.18686 -0.13441 -0.12197 -0.20697 0.11889 -0.22865 0.4856 -0.10077 0.13398 -0.18355 -0.24667 0.55864 0.48232 0.21972 0.22809 0.15676 0.065955 -0.30593 -0.35962 0.72666 0.19317 -0.23172 -0.037432 -0.58729 0.14639 0.54578 0.35042 -0.046623 -0.48899 -0.75338 0.082686 0.052553 0.20928 -0.40865 0.50594 -0.29037 0.5428 0.22073 0.39658 -0.020139 0.47922 -0.37675 -0.1743 0.1339 0.26096 0.13739 0.080752 -0.025247 0.13143 -0.28546 -0.25695 0.0083522 -0.067039 0.61204 0.06595 0.25774 0.36235 0.058289 0.44905 0.30338 0.62561 0.52489 -0.079934 0.50241 0.017971 0.27916 -0.50751 0.30647 -0.085541 -0.014568 0.19219 -0.42876 0.29027 0.39258 -0.061537 -0.02918 0.25623 -0.27375 -0.78838 0.54829 -0.14651 0.26754 0.22193 -0.022654 0.22874 -0.42266 -0.2091 -0.33052 -0.29408 0.11946 -0.20841 0.091758 0.29906 0.02148 -0.36856 -0.20952 0.57348 -0.31862 0.22907 0.20805 -0.095078 0.28891 0.57379 -0.11415 0.30204 0.44644 0.27004 -0.25812 -0.25798 0.30129 0.27526 -0.091844 0.21323 0.046709 0.24123 0.34561 
craig -0.047912 0.42589 0.16182 -0.08034 0.032055 0.11124 0.48572 0.36583 0.086938 0.16566 -0.13825 -0.15788 0.066652 -0.089965 -0.40929 0.3218 0.2333 -0.47884 0.21218 0.0955 0.17818 0.067042 0.011543 0.27796 0.12017 -0.22195 0.13009 -0.36635 -0.16394 -0.056591 -0.57061 -0.21197 -0.091376 -0.34977 -0.017559 0.29933 0.27259 -0.18432 -0.067347 0.055451 -0.39417 -0.15806 0.17258 0.12496 -0.11777 0.13282 -0.051656 -0.28724 0.094761 -0.35718 -0.021034 -0.018866 0.42488 -0.01775 0.23163 0.096314 0.17746 -0.087867 0.47972 0.27506 0.030244 -0.34303 0.052119 -0.12314 -0.1192 -0.060284 -0.1173 -0.31671 -0.12926 0.42035 -0.10227 0.25605 -0.040965 -0.010126 -0.34 -0.084931 0.19937 -0.052593 -0.24259 -0.1865 0.36571 0.24084 -0.2682 -0.32545 0.10463 0.044474 -0.62892 0.010704 0.12315 0.3119 -0.18923 0.051969 -0.50515 -0.45402 -0.14459 -0.12662 0.035185 -0.44458 0.30944 -0.070678 -0.43098 0.38371 -0.15216 0.15794 -0.15522 -0.052222 0.075603 0.15444 0.022805 0.013846 -0.15024 -0.2055 -0.30254 0.0123 -0.24007 0.12816 0.4972 -0.38299 0.19765 -0.22302 0.17041 0.13814 -0.16429 -0.015982 -0.44587 -0.39966 0.061107 0.0928 0.686 -0.069902 0.038838 -0.2241 -0.098401 0.13487 0.38675 0.35385 0.14955 0.1742 -0.18092 -0.16466 -0.073172 -0.18169 -0.12388 -0.042652 -0.056145 -0.052719 -0.35725 -0.15186 0.069976 0.60816 0.068374 -0.4381 -0.084773 -0.1981 0.44891 -0.29312 0.022514 0.15062 -0.07927 0.23174 -0.10944 0.078788 -0.084124 0.034317 -0.45764 -0.00092348 -0.076412 -0.22815 0.03048 -0.0090029 -0.10042 -0.18126 -0.24202 0.043547 -0.19257 0.33936 -0.11042 0.081052 0.055954 0.4253 0.079037 0.21154 -0.26159 0.39878 -0.099716 -0.4788 -0.4193 -0.28027 -0.065341 -0.065898 -0.14816 0.29066 0.20502 0.1447 0.58709 -0.11682 0.020815 0.2019 0.04147 -0.23456 0.48403 0.055971 -0.51942 0.40343 0.26785 0.24561 -0.044399 -0.015659 -0.23198 -0.19512 -0.0084582 0.13833 -0.26009 0.010633 -0.16344 -0.028841 0.49484 0.10018 0.45645 -0.064876 -0.063514 -0.050652 -0.25124 -0.039144 0.15623 -0.21283 -0.24965 -0.13408 -0.19394 -0.091897 -0.063025 0.10893 0.37376 -0.00034101 0.20554 -0.37908 -0.36739 0.00021572 0.34944 -0.048112 -0.34807 0.027782 0.065247 -0.11315 -0.33716 0.3462 -0.24519 -0.15813 -0.25243 0.37905 -0.35617 0.21854 0.29235 -0.22364 -0.058621 0.15036 -0.15301 0.14475 -0.053145 -0.18534 -0.080321 0.30183 0.16449 0.22931 -0.40009 -0.28339 -0.034833 -0.2355 0.057874 0.22961 -0.16177 -0.017823 -0.092009 0.015736 -0.1898 -0.13836 0.18521 -0.51179 -0.64887 -0.44783 -0.066919 0.014171 0.11871 -0.074399 0.2353 0.075721 -0.39263 0.3568 0.061358 0.22253 0.13652 -0.16493 0.38465 -0.16847 0.060475 0.23659 0.33082 -0.022728 -0.037818 -0.093324 
crapo -0.31408 0.19297 -0.063597 0.16866 -0.043416 -0.8635 0.15286 0.43302 0.28606 -0.72208 0.074898 0.28954 -0.10809 -0.19727 -0.28243 -0.0057083 0.20652 0.083513 0.14768 -0.56385 0.51014 -0.21316 -0.10543 0.14006 -0.53406 -0.29457 0.49439 0.3769 0.095997 0.36704 -0.45105 -0.033849 -0.11866 -0.28428 0.21701 0.25641 0.43077 -0.25951 -0.32085 0.53878 0.10196 0.15644 0.1253 -0.28322 -1.3 -0.83234 -0.1869 -0.081498 0.66986 -0.39116 -0.35899 -0.13508 -0.4532 -0.17475 -0.32207 0.24161 -0.58787 -0.19341 0.047006 -0.27296 0.002053 -0.02045 0.40422 -0.78237 -0.065718 0.17612 -0.54182 0.15099 -0.34953 0.31606 -0.52665 0.32571 -0.17766 0.082316 0.43465 -0.426 -0.19659 0.25091 -0.62279 -0.16723 0.44418 -0.13128 -0.14169 -0.2474 -0.541 -0.37143 -0.22661 -0.57575 -0.27361 0.55632 -0.061723 -0.35505 0.45415 -0.36209 -0.45735 -0.11765 0.17575 -0.53069 0.069231 0.14258 -0.24901 -0.20347 -0.075471 -0.20611 -0.43821 0.1768 0.48639 0.56181 0.099265 -0.27546 -0.29139 -0.35312 0.29004 0.25692 0.48932 0.44934 0.055713 -0.44448 0.092764 -0.29484 -0.40483 0.32456 -0.50689 -0.66683 -0.050923 0.1447 -0.096357 -0.072622 0.25641 -0.40408 0.19954 -0.093455 -0.69354 0.10586 0.46416 0.28358 -0.12809 0.4006 -0.11796 -0.044485 -0.12355 -0.17768 -0.51224 -0.29031 0.020928 -0.43192 -0.4033 -0.077258 -0.17734 0.60568 -0.23749 0.10471 -0.38773 -0.10612 -0.046682 -0.23839 -0.0020223 0.053443 0.45793 0.20231 -0.47818 -0.18139 0.42358 0.26568 0.035899 0.080486 0.50331 0.24164 -0.37564 0.15441 0.041518 -0.60352 -0.38544 0.56815 0.22611 0.37505 -0.426 0.0077227 -0.45585 -0.31347 -0.21994 0.26186 -0.41645 0.035894 -0.30931 -0.034885 -0.36577 -0.18782 0.055977 -0.39179 0.041489 0.0092433 -0.31265 0.12051 -0.26916 -0.7786 0.060239 -0.0022698 -0.21752 -0.28928 -0.13944 0.20428 0.029029 0.43791 0.38489 0.22446 0.4472 -0.12532 0.31896 0.069117 0.1464 0.31906 -0.11771 0.20839 -0.12089 0.12478 -0.17703 -0.095575 0.63403 -0.28506 -0.047598 0.20124 0.1157 -0.53546 0.13407 -0.15376 0.19638 -0.16652 -0.12786 0.46178 -0.51509 -0.082453 0.4162 0.49586 0.2236 -0.63951 -0.28634 0.011103 0.39344 0.30128 0.38321 0.17763 0.093395 0.039955 0.30494 -0.25285 0.11959 -0.099923 0.076067 0.34066 -0.39836 0.25737 0.33944 -0.35247 -0.093291 0.17973 -0.21387 0.18501 -0.12973 0.17947 -0.42815 0.1468 -0.69015 -0.061809 0.092029 0.035106 0.40349 -0.1784 -0.32048 -0.097214 0.22421 0.3572 0.23583 0.063194 0.047985 -0.14494 0.44256 -0.60734 -0.52019 -0.47237 -0.12911 0.052248 -0.32443 0.17093 -0.10151 -0.10772 -0.097387 0.077465 -0.39127 0.31181 0.67736 -0.30165 -0.17102 -0.11989 0.078193 0.18217 0.077048 0.015092 -0.38165 -0.0095033 
durbin -0.18215 0.1407 0.046487 -0.30254 0.23311 -0.18201 0.18406 -0.19719 0.36757 0.13505 -0.011894 -0.28306 -0.22701 0.14529 -0.37939 0.089983 0.16788 0.11131 0.41272 -0.1823 0.30549 -0.09555 -0.028771 0.47059 -0.37348 -0.070575 0.0066052 0.70172 -0.06398 0.18324 -0.27502 -0.020453 0.084882 -0.055497 -0.23124 0.12368 0.050135 0.0068921 -0.40454 0.4059 0.46396 -0.19815 -0.069803 -0.0071088 -0.16704 -0.26342 0.40977 -0.046958 0.42781 -0.35547 0.18105 0.19971 -0.22367 -0.33323 0.027893 0.19067 -0.38742 -0.21334 0.56434 -0.14865 0.33074 -0.13278 0.14817 -0.41533 0.29706 0.54171 -0.15619 0.050425 -0.28563 0.40945 -0.41695 0.2421 -0.020188 -0.10959 0.093526 -0.1357 0.089927 -0.023864 -0.32373 -0.72595 -0.19533 0.051077 -0.035288 -0.13863 -0.44319 0.23464 0.062697 -0.37828 0.2715 0.39509 -0.090558 -0.2338 0.4088 0.25919 -0.29261 -0.11334 -0.12088 -0.053517 -0.091199 0.19662 -0.44565 -0.23688 0.19978 -0.012963 -0.096152 0.15046 -0.037918 0.17225 0.047972 -0.09019 -0.1398 0.04822 0.18008 0.4044 0.075505 0.20951 0.053626 -0.028612 -0.34991 -0.13608 -0.42127 0.17984 -0.18733 -0.63288 0.0018727 -0.32396 0.42373 -0.084026 0.54677 0.021774 -0.079961 -0.022777 -0.11388 0.17754 -0.10412 0.096565 -0.18736 0.31927 -0.022675 -0.12394 -0.19401 -0.16026 -0.36732 -0.067798 -0.13008 -0.17436 -0.32269 -0.20775 0.1373 0.17643 0.074937 -0.207 -0.14536 -0.27511 -0.24424 -0.57408 0.33336 0.041592 -0.5397 0.57123 -0.32767 0.37769 0.066273 0.019194 0.075965 0.33979 0.2202 0.25941 -0.064667 -0.040821 0.1569 -0.18509 -0.095582 0.22247 -0.040534 -0.081809 -0.1814 -0.29529 0.067324 -0.23512 0.0047448 -0.0020963 -0.29547 0.43585 -0.16314 0.23086 0.17063 -0.055644 0.067505 -0.50445 0.43595 0.083814 0.23741 0.358 -0.28565 -0.35309 -0.060375 0.16358 -0.39382 0.29308 -0.27053 0.0035484 0.11074 -0.20471 0.22258 -0.16492 -0.28265 -0.40036 -0.26444 0.055647 0.067702 0.44449 -0.62489 -0.019946 0.028414 -0.20631 -0.13717 0.33468 0.051722 -0.93785 0.21872 0.035255 0.28707 0.14845 -0.0087487 -0.41773 -0.0047908 -0.52009 0.37724 0.26563 -0.027126 0.04967 0.57648 -0.0017846 -0.21245 -0.05457 0.26097 -0.30461 0.12645 0.46193 -0.073069 -0.016461 0.10254 -0.41437 0.22297 0.21637 0.55536 0.30403 0.045518 0.42327 -0.039069 -0.038834 -0.27115 -0.33615 -0.026483 0.49858 0.0036388 0.29155 0.22156 -0.21205 -0.018183 -0.080037 -0.45557 0.35104 -0.11425 0.16436 0.16489 -0.049029 -0.10334 0.37574 0.086208 0.24079 0.059458 0.34218 0.1111 0.033355 -0.22362 -0.62025 -0.72731 -0.47126 0.067317 -0.17396 0.13451 0.0060287 -0.64634 -0.28059 0.034237 0.41185 0.34794 0.39386 -0.018073 0.043126 0.031899 0.46767 -0.20076 0.050157 0.13007 0.19683 -0.21559 -0.22096 
obama -0.066112 0.062566 -0.14846 -0.064969 -0.055882 -0.20383 0.21329 -0.16284 -0.12558 -0.1339 -0.23796 0.14858 0.046875 -0.061214 -0.26869 0.19187 0.254 -0.20648 -0.13477 0.13194 0.32424 -0.28178 0.12217 -0.065447 -0.11355 -0.1551 -0.051845 0.14011 -0.14185 0.12658 -0.16872 0.019884 -0.016885 -0.20483 0.055233 0.10489 -0.074846 -0.0010575 -0.19489 -0.057348 0.17914 0.069832 0.0031345 0.018106 -0.01778 -0.060522 0.091424 0.24678 0.12822 -0.22251 -0.22861 -0.08705 0.36927 -0.12525 0.0069373 -0.20508 -0.21219 0.035446 0.34108 0.27724 0.053529 -0.23686 0.040436 0.065509 -0.13231 0.047146 -0.053367 -0.0086399 -0.054487 0.0085911 -0.2777 -0.118 -0.10175 -0.29315 0.018675 -0.17729 0.023308 -0.12761 -0.34152 -0.46714 -0.022372 -0.087351 0.19739 0.017022 0.057491 -0.066729 0.078028 -0.11664 0.061923 0.074661 -0.11402 0.12159 0.17981 -0.048057 -0.041307 0.069633 -0.17488 -0.042122 -0.12622 0.17877 -0.37331 -0.10841 0.091054 -0.0076438 0.040465 0.13856 0.15337 -0.014571 0.027971 0.056078 0.096654 -0.18253 0.096646 0.31131 -0.044294 0.10235 0.092006 -0.025818 -0.20094 -0.09021 0.060889 -0.1111 -0.11891 0.019632 -0.14309 0.12509 0.083614 0.042836 0.38816 0.0356 0.15794 -0.15283 0.032942 0.065349 -0.13272 0.069949 -0.13351 0.1999 -0.016292 -0.18182 -0.21348 -0.17967 -0.09272 0.048494 -0.02581 0.22698 0.09514 -0.023517 0.0039906 0.12995 0.033558 -0.23027 -0.041478 0.0036188 0.057258 -0.10335 -0.092123 -0.28628 0.099089 0.14243 -0.23665 0.11223 0.16236 0.082291 0.0015511 0.11823 0.20443 0.26348 0.33518 -0.11371 -0.1418 0.11003 0.14345 0.099248 -0.18882 0.31145 -0.16037 -0.046296 -0.16034 -0.086879 -0.10383 0.05985 -0.50975 -0.059741 -0.10718 0.063173 -0.25073 -0.11125 0.27738 -0.16326 0.10234 0.090992 0.36583 -0.18748 -0.15879 -0.26099 -0.12869 0.22793 0.14743 -0.13989 0.15011 -0.28858 0.092615 0.063172 0.25823 0.040819 -0.074892 -0.011684 0.19216 -0.1708 0.052067 0.24431 -0.2468 -0.043938 0.056795 -0.098905 0.10017 -0.19447 -0.010086 -0.33885 -0.28469 0.36357 0.07874 0.05626 -0.10055 -0.19764 0.20605 -0.25365 0.12939 0.048497 0.038459 0.12656 0.16761 -0.06178 0.026349 -0.124 -0.10154 0.041797 0.36575 -0.10648 -0.16447 0.12898 -0.18752 0.14112 0.099455 0.11025 0.40107 -0.064036 -0.035709 -0.090159 -0.073668 -0.12789 0.089523 0.054846 -0.12157 -0.084469 -0.12469 -0.083006 0.14508 -0.043915 0.11213 0.032276 -0.15941 -0.12126 -0.017211 0.10331 0.041264 0.040315 -0.086366 0.30843 -0.1761 0.026598 -0.16014 -0.036288 0.15602 0.14517 -0.14303 -0.26572 -0.071577 -0.30853 -0.082858 -0.0095465 0.12544 0.20087 0.13468 0.15071 -0.029442 -0.015741 -0.11609 -0.011507 -0.018878 -0.044595 -0.2028 -0.069472 0.044282 0.081072 0.033784 0.072024 0.15875 -0.13332 
lugar -0.052234 0.16512 0.081791 -0.17751 -0.0081684 0.079575 0.0077112 0.43747 0.2485 -0.30381 -0.30391 0.097914 0.093072 0.15416 -0.47977 0.038244 0.36278 -0.54357 0.13317 -0.29039 0.2307 -0.22277 -0.29087 0.47265 0.11854 -0.47038 0.13171 0.37775 0.67688 0.37717 -0.19578 -0.34701 0.045492 -0.27886 -0.31383 0.14294 0.3002 0.19757 -0.21308 0.028318 0.068396 0.28798 -0.22848 -0.0028327 -0.25943 -0.25495 0.34275 -0.20681 0.76974 0.082853 0.036856 -0.22472 -0.052738 -0.12521 0.14394 0.04253 -0.54593 -0.10827 0.13281 -0.15717 0.42902 -0.048707 0.33152 -0.34426 -0.11697 0.00085184 0.11982 0.077894 -0.18403 0.33603 -0.72622 0.41946 0.030129 -0.12526 -0.37818 0.0618 -0.13027 0.11164 0.084625 -0.51073 -0.20684 0.15215 0.68403 -0.13901 -0.2441 -0.25759 0.39256 -0.21608 -0.23292 0.58843 -0.19541 0.26537 0.13958 0.1615 0.069489 -0.3522 -0.24424 -0.098925 -0.13531 0.25748 -0.37762 0.40494 -0.33203 0.42877 -0.1533 0.12595 -0.10212 0.38948 -0.028236 -0.23843 -0.17335 -0.10199 0.19773 0.18328 0.27195 0.22365 0.15353 -0.47037 -0.29761 0.0053474 0.23867 0.38312 0.11367 -0.54204 -0.14754 0.25684 0.1855 0.14594 0.41833 0.51949 -0.063029 0.019967 0.049444 0.075988 0.061941 -0.17308 -0.08831 0.72694 -0.09882 0.22497 -0.029182 0.018303 0.12471 -0.036228 0.1338 0.55965 -0.086812 -0.31935 0.30647 0.14079 0.33536 -0.39532 -0.16641 0.065769 -0.40987 0.057453 0.053388 0.20231 -0.2197 0.3246 -0.21573 0.039045 -0.062778 0.33674 0.18269 -0.084219 -0.19725 -0.04773 -0.21745 -0.51131 -0.096964 -0.061982 -0.042876 0.75635 -0.3345 0.18205 -0.15232 -0.093822 0.23928 -0.42841 0.33506 0.2542 -0.16408 -0.22004 -0.4809 -0.42266 -0.3236 -0.060919 -0.0011471 -0.23857 0.60732 0.15722 0.1491 0.11425 -0.066708 0.01014 -0.022834 0.095594 0.14812 -0.11611 -0.24246 -0.72929 0.093341 -0.24747 0.46703 0.30374 0.044138 0.080291 -0.14626 0.25679 -0.024813 0.082593 -0.4127 -0.01871 0.064334 -0.18412 0.17619 -0.32297 0.31099 -0.65007 0.26681 0.3221 -0.17694 -0.27681 0.36386 0.008408 0.068155 -0.29712 0.047818 0.28307 -0.097224 0.35659 0.14694 0.030435 -0.38438 -0.20971 0.22182 0.39946 0.29272 0.22625 0.1266 0.040719 -0.66931 0.080771 0.31775 0.493 0.37737 -0.16139 -0.047235 0.24202 -0.069964 0.23295 -0.082827 -0.41385 -0.02855 0.1682 -0.091536 0.35386 -0.24262 -0.013121 -0.090281 -0.31973 -0.52679 -0.20489 0.031844 0.0086745 -0.35946 0.092608 -0.087593 0.23549 0.71852 0.50904 -0.0088716 0.27217 -0.18197 0.076528 -0.25939 -0.17203 -0.46543 -0.62947 0.1718 0.32237 0.39734 -0.13074 0.01453 -0.53625 0.046476 -0.27701 0.18702 0.10172 0.052452 0.34941 -0.18255 -0.11436 0.37845 0.078726 0.26065 0.38561 -0.66808 0.22123 
bayh -0.17124 0.36107 0.46775 -0.10109 0.08432 -0.2132 0.4193 -0.21523 0.0027346 0.0076645 -0.69491 0.1331 0.13059 -0.33196 -0.44472 0.076853 -0.063094 -0.4089 0.080257 -0.057544 0.12026 -0.010056 0.081866 0.49622 0.022187 -0.70671 -0.11501 0.57678 0.47988 0.28708 -0.41469 -0.041346 -0.18045 0.45536 -0.060388 0.5573 0.2825 -0.34156 -0.84893 0.15473 0.069625 0.096811 -0.12322 0.076082 0.012663 0.097585 0.42032 -0.063005 0.93054 0.059259 -0.096866 0.23725 0.094148 -0.06249 -0.010298 -0.036281 -0.37552 0.038589 0.080826 -0.1824 -0.079751 -0.12418 0.40859 -0.24874 0.50891 0.094783 -0.19036 -0.0068937 -0.0034466 0.38235 -0.61694 0.68204 -0.61239 -0.0094343 0.34738 0.1755 0.15343 -0.2178 0.21726 -0.36775 -0.49354 0.27362 0.3 -0.11888 -0.18462 -0.33086 -0.15057 -0.61736 -0.42241 0.46813 -0.49544 -0.31889 0.31228 -0.51154 0.6114 0.052481 -0.13034 -0.55773 -0.091303 0.50632 -0.30967 -0.16103 0.060866 -0.023258 -0.14913 -0.10903 0.19423 0.017996 0.030023 -0.13902 -0.073858 0.042507 -0.0038621 -0.16063 -0.089978 0.042606 0.54591 -0.46578 -0.79555 -0.19998 -0.095098 -0.3229 -0.17006 -0.17745 -0.29528 0.5151 0.14536 -0.11098 0.18342 0.54824 0.27328 0.022755 0.54308 0.65721 0.54114 -0.46397 -0.20297 0.34557 0.14648 0.31209 0.066241 -0.70717 -0.011323 -0.33536 -0.021655 -0.10492 -0.36047 -0.26507 0.43444 0.069585 -0.18293 -0.31502 -0.403 -0.099162 -0.33498 0.21503 0.06536 0.14384 -0.1045 0.11784 -0.86571 -0.032301 0.21536 0.47882 0.011324 0.19931 0.0018764 -0.32886 -0.037863 0.0019376 -0.26329 -0.43939 -0.057336 0.49108 0.14331 0.39684 -0.35842 -0.028684 0.28175 -0.11754 -0.1846 0.28892 -0.52108 0.34853 -0.053025 0.0082502 -0.22405 0.024309 0.24389 -0.066585 0.36432 0.43575 0.34017 0.13475 0.18016 -0.14194 -0.04316 0.39436 0.47641 0.37446 0.16439 -0.29725 0.40228 -0.12402 0.19378 -0.083369 0.050959 -0.19414 -0.427 0.04641 -0.43805 0.14036 -0.32663 0.10716 -0.31425 0.026602 0.15391 -0.23106 0.61671 -0.85084 0.11374 -0.20444 -0.16753 0.41585 0.21226 -0.18498 -0.0070857 -0.26402 -0.11 0.32557 -0.27435 0.62665 0.44461 -0.018844 -0.60004 0.39279 -0.0084823 0.42795 0.095456 -0.11128 0.039118 0.50836 -0.19578 0.26169 0.036628 0.46857 0.27113 -0.23645 -0.30825 0.57438 -0.023582 0.51372 -0.10416 0.13569 -0.14595 0.2696 -0.39287 0.48096 -0.21233 -0.22687 -0.25943 -0.082001 -0.37614 0.56748 -0.27077 0.205 -0.28422 0.36043 -0.21396 0.00079327 0.11556 0.095774 -0.24914 0.035258 -0.00087086 0.14958 -0.32606 0.13744 -0.27035 -0.68702 0.22561 0.00052408 0.41208 0.23232 -0.0081599 0.034175 0.30275 -0.32864 0.036268 0.013075 0.35695 0.33382 -0.18112 0.10651 0.63047 -0.0077121 0.41439 -0.31276 -0.58336 0.22867 
grassley -0.19361 0.23598 -0.23036 0.24378 0.06918 -0.31635 -0.17307 -0.030065 0.3907 -0.036746 -0.15493 0.53373 0.0076487 0.13389 0.049242 0.14449 -0.014142 -0.15553 0.036999 0.068761 0.58534 0.0083205 -0.15973 0.24685 -0.41416 -0.1032 0.23837 0.33526 -0.054553 0.58779 -0.22273 0.36563 0.012404 0.098947 -0.1794 -0.032708 0.21346 -0.18525 -0.13492 0.82708 0.17697 0.056388 0.22205 0.31108 -0.3631 -0.47785 0.1881 0.11598 0.22216 -0.38374 -0.21796 0.18786 0.18904 -0.38751 -0.23102 -0.027782 -0.66971 0.11072 0.34152 -0.15038 0.38064 0.22505 0.20168 0.22564 0.25547 -0.12709 -0.090205 0.06013 -0.12452 0.080529 -0.55779 0.25793 0.050386 0.11034 0.21891 0.090952 -0.1753 0.042609 -0.10238 -0.33609 -0.086896 0.22045 0.14103 0.2274 -0.50938 -0.48966 -0.085338 -0.16274 0.18848 0.4795 -0.21272 -0.35411 0.14694 0.076181 -0.11638 -0.015748 0.050212 -0.50941 0.37489 0.11542 -0.27065 -0.11285 0.20818 -0.40886 0.035842 0.1419 -0.15053 -0.037803 -0.052597 -0.18655 -0.028572 0.0013528 0.00096167 0.35049 -0.14557 0.39448 0.18752 -0.17776 -0.13783 -0.54503 -0.22199 0.35344 -0.21813 -0.4163 -0.0061911 -0.24492 0.10768 0.3947 0.043516 -0.33601 -0.080125 0.23293 -0.016542 0.071896 -0.15017 -0.057746 -0.32407 0.48158 -0.29645 0.45081 -0.034864 -0.2225 -0.0059681 -0.12548 -0.1244 0.28046 -0.36282 -0.12806 0.10247 0.34621 -0.06731 0.083819 0.010121 0.060047 0.03435 -0.22006 0.17245 -0.077642 -0.035135 0.080144 -0.32966 0.0036586 0.15495 -0.041174 -0.23756 0.38656 0.025267 0.031678 -0.036697 0.040658 -0.10149 0.043249 -0.21027 0.45725 0.0020973 0.4284 0.077269 -0.045094 0.10339 -0.22617 0.073646 0.20852 -0.24482 0.17346 -0.45327 -0.045223 -0.40722 -0.42524 -0.0038353 -0.59924 0.17278 -0.24748 0.17652 0.19956 0.12352 -0.085084 0.44331 0.23584 -0.1031 0.23142 0.16045 -0.28596 0.28113 -0.094887 -0.0029293 0.075105 0.14722 -0.12664 -0.25314 0.11185 0.11422 0.23725 -0.11106 -0.083411 -0.091851 0.0026871 -0.15175 -0.075141 0.24892 -0.47985 -0.055827 0.33862 -0.069446 0.0087291 -0.14421 -0.80561 -0.014533 -0.036196 0.11661 0.23276 -0.11611 0.073305 0.12776 0.30071 -0.21769 0.085092 -0.41939 0.2222 0.32622 -0.31131 0.46812 0.76379 0.17222 0.16299 -0.24769 0.23686 0.57959 0.36331 0.13006 0.34803 0.56391 -0.054789 0.71005 0.0091922 -0.107 -0.011682 -0.10495 0.57773 0.4488 -0.10462 -0.23274 0.21315 -0.52803 0.2104 0.22008 -0.38589 0.35579 0.094931 -0.89609 0.26599 0.45211 0.29039 -0.36078 0.12819 -0.17072 -0.13112 0.41024 -0.64649 -0.39314 -0.61605 0.41161 0.097705 -0.19774 0.27944 -0.18721 -0.22053 0.017758 0.2233 -0.04926 0.48773 0.22969 -0.10277 0.041199 0.040321 -0.16038 0.040325 0.29623 0.23914 0.33936 0.31328 
harkin -0.19398 -0.23003 0.24407 -0.25448 -0.057988 0.065055 0.42225 0.26973 0.39788 -0.063923 -0.0062461 0.30656 -0.26222 0.06704 0.034135 0.0091938 0.17857 -0.30419 -0.10309 -0.074261 0.29473 0.13103 -0.088612 -0.22079 -0.46776 -0.050046 0.28455 0.46329 -0.059799 0.16247 -0.41253 0.053524 -0.25265 0.033377 -0.27271 0.18252 0.049124 -0.15446 -0.62312 0.1908 0.53432 -0.15216 0.27066 0.29388 -0.34419 -0.52771 0.41289 -0.023264 0.25203 -0.33516 -0.011896 -0.037163 -0.045742 -0.26083 0.068693 0.022621 -0.16076 -0.27364 0.22642 -0.0056959 0.43552 -0.087932 0.25697 0.16714 0.031376 0.27655 -0.072908 0.37587 -0.16139 0.27509 -0.2734 0.58242 -0.30016 -0.15505 0.12081 0.069951 -0.11296 -0.26468 -0.42357 -0.64351 -0.13426 0.59387 0.25164 -0.45194 0.16234 -0.080277 -0.12705 -0.55002 0.2862 0.14124 -0.25194 0.25373 -0.12492 0.25817 0.010494 0.32343 -0.185 0.037108 0.085953 0.17852 -0.43442 -0.14082 0.24557 -0.10303 -0.051554 0.30702 0.086449 0.14313 0.051067 -0.66978 0.017806 -0.28431 -0.087722 0.15055 -0.11591 0.021 -0.011071 -0.12652 -0.47487 -0.37573 -0.15053 0.2942 -0.1355 -0.31296 -0.046434 -0.40202 0.092237 0.36038 0.38672 -0.25356 0.16455 0.11032 0.19634 0.090583 -0.17273 0.060464 -0.42168 0.23518 0.058941 0.22414 0.21876 -0.39935 -0.083815 -0.29182 0.16353 0.039393 -0.41744 0.047924 -0.10067 0.62001 -0.39754 -0.43585 0.16351 -0.011961 -0.021127 -0.1128 0.088595 0.23179 -0.59012 -0.04768 -0.25184 0.42287 -0.072815 0.034458 0.051674 0.073582 0.43692 0.0014093 0.084305 -0.37215 -0.57744 -0.16464 -0.14712 0.32852 -0.010956 0.57569 -0.014394 0.2611 -0.21529 0.31905 0.12328 0.10517 -0.26654 0.39386 -0.29826 -0.18518 -0.2267 -0.13062 0.034279 -0.4062 0.25146 0.11065 0.26796 -0.0032257 0.13733 -0.16331 0.14232 0.016566 -0.17865 0.20447 0.21073 -0.072185 0.019584 0.077464 0.01802 0.027407 -0.20214 -0.072729 -0.092537 -0.076667 -0.20806 -0.0038599 -0.36268 -0.45646 0.2336 -0.021748 -0.25219 -0.11097 0.47071 -0.26605 -0.013041 0.062332 -0.13554 0.084817 0.12887 -0.59097 -0.035351 0.063122 0.161 -0.039157 -0.49359 0.022419 0.37203 -0.16914 -0.47021 -0.11981 -0.021612 0.011566 0.11819 0.001496 0.28744 0.23086 -0.082536 0.089215 0.25955 -0.021825 0.89335 0.68688 -0.059332 0.48009 -0.11994 -0.13787 0.10533 -0.055224 -0.13132 0.024392 -0.10733 0.48336 0.14875 -0.04623 0.20754 -0.22357 -0.44298 0.052715 -0.12926 -0.10869 0.37821 -0.41976 -0.58536 -0.0056192 0.20797 0.62444 -0.10099 0.27882 -0.1024 -0.27307 -0.0313 -0.34417 -0.22247 -0.56868 0.050252 0.13561 0.12039 0.080568 -0.32504 -0.056964 -0.040204 0.23823 0.094497 0.68762 0.1995 -0.20942 -0.063044 0.077329 0.062389 -0.14241 0.30867 -0.21119 -0.18375 -0.11419 
roberts -0.39854 0.44109 -0.126 -0.0048314 -0.18688 -0.023332 0.36304 -0.012119 0.22811 0.16847 -0.17366 -0.078633 -0.036536 -0.11454 0.2857 -0.099827 0.10844 -0.45504 -0.061543 0.056089 0.27744 0.1421 0.20314 -0.10379 -0.20175 -0.015014 0.15842 -0.026382 0.047578 0.15977 0.046789 -0.34803 0.13147 0.35148 0.031339 0.20707 -0.25311 -0.36169 -0.29187 0.29302 -0.16771 0.0806 -0.19297 0.14019 -0.2954 -0.36092 0.22703 -0.25789 0.2026 -0.44415 -0.29217 0.1983 0.34341 -0.1468 0.27484 -0.087666 -0.33637 -0.15343 0.29571 0.4951 0.0075505 -0.34829 0.34234 0.10942 -0.092268 -0.35311 -0.081416 -0.078556 -0.11474 0.29576 -0.26042 -0.22204 0.33192 0.17782 -0.12349 0.28863 0.024917 -0.13154 -0.39056 -0.38731 0.0064122 -0.047519 -0.050157 0.24683 -0.16231 -0.10692 -0.45973 0.044453 0.04904 0.28452 -0.080335 -0.34624 0.13061 -0.38422 -0.24378 0.056061 -0.1461 0.39672 -0.35146 0.10916 -0.25339 0.070387 -0.14358 0.14885 -0.23916 0.042341 0.1356 0.15065 -0.037701 -0.0037646 -0.36083 -0.046402 -0.075397 -0.098156 -0.017039 -0.043322 0.13737 -0.4152 -0.049052 -0.02241 0.14325 0.58577 0.15166 0.010355 -0.25936 -0.14367 0.5791 0.20854 0.25118 -0.54756 0.093818 -0.17163 0.050696 0.35297 0.085306 0.017573 -0.17972 0.39895 -0.27987 -0.065098 0.30611 -0.096148 0.18311 0.016863 0.36235 0.14546 -0.17589 -0.12044 0.050907 0.10073 -0.011365 -0.39359 -0.19055 0.49613 0.17715 -0.064969 0.24322 -0.17482 0.35305 -0.14175 -0.099719 0.56064 0.17867 0.20939 0.26898 -0.062447 0.066257 0.34727 -0.26357 -0.051945 -0.042167 -0.0028732 -0.49118 0.28322 0.12863 0.28056 0.042898 -0.15257 0.32957 0.049731 0.09989 0.13586 -0.11518 0.37996 -0.14412 -0.017516 -0.16947 -0.3298 0.20188 -0.070391 -0.094872 0.090715 0.30514 0.05052 -0.35327 -0.1963 0.063055 0.34636 0.05809 0.11593 0.063821 -0.25188 -0.12401 -0.00014972 0.032176 -0.058158 0.23164 -0.16482 -0.31014 -0.30132 -0.22538 0.29527 0.10326 0.25047 -0.070236 -0.13275 -0.022666 0.16912 0.25986 -0.1895 0.066996 0.54721 0.18256 0.15513 -0.15839 -0.14913 -0.13876 -0.029782 -0.15128 0.18402 -0.13976 0.29543 0.2394 -0.1251 0.19605 -0.20418 0.15203 -0.10529 0.13867 0.024298 -0.034928 0.2356 -0.27956 -0.01382 0.0071579 0.18005 0.085872 0.12119 -0.028955 0.16021 0.30834 -0.058835 0.09062 -0.15532 0.19209 -0.042773 -0.021847 -0.048818 0.091853 -0.2164 -0.21234 -0.13121 -0.09289 0.43205 0.17016 0.15485 -0.18716 -0.042366 -0.27712 0.37377 0.49906 0.078631 -0.33151 0.15133 -0.30214 0.053103 -0.022625 -0.19449 -0.45589 -0.15569 0.33992 -0.027315 0.081603 0.056034 0.078832 0.064363 0.38413 -0.045801 -0.051455 0.37871 0.30979 -0.042977 -0.014274 -0.11415 -0.26407 -0.1056 0.083172 0.49156 -0.22724 -0.0041456 
brownback -0.31793 0.27292 0.056357 -0.1426 0.60965 -0.1001 -0.034535 0.19393 -0.16989 -0.24009 -0.34574 0.21988 -0.20672 0.019374 -0.016731 0.044739 -0.077135 -0.27252 -0.022433 -0.05286 0.36755 0.39346 0.068536 0.29073 0.28443 -0.47331 0.42441 0.34143 0.069926 0.18566 0.42003 -0.046549 -0.14647 0.20696 -0.39471 0.21478 0.17753 -0.2069 -0.47591 0.81301 0.21156 0.066082 0.14489 0.25885 -0.41859 -0.65676 0.54727 0.10408 0.21689 -0.14473 -0.13039 0.62246 0.11316 -0.095254 -0.40296 0.21623 -0.10546 0.14811 -0.09913 0.23178 -0.11798 -0.45256 0.63374 -0.24464 -0.034197 0.11673 -0.45524 0.1328 0.0059602 0.047902 -0.26308 0.11524 -0.2022 0.1113 -0.14471 -0.19186 0.18348 -0.24978 -0.22707 -0.39291 0.20171 -0.36294 0.24972 0.0084272 -0.30698 -0.17271 -0.27757 -0.25773 0.2201 0.074759 -0.20873 -0.53242 -0.045956 -0.14376 -0.010372 0.21824 0.078644 -0.011343 -0.19523 0.35642 -0.48593 -0.073842 0.23978 -0.036845 -0.085115 0.29926 -0.11752 0.2438 0.56623 0.027867 -0.43221 -0.25331 0.26806 -0.075017 0.31468 0.42672 0.52436 -0.27379 -0.27333 -0.16493 -0.10691 0.013701 -0.1197 -0.47815 -0.25906 0.24068 0.42929 0.1911 0.28127 -0.11172 -0.059137 -0.20926 0.060784 -0.041972 0.14929 0.14846 0.13729 0.066379 -0.010315 0.039086 -0.12533 0.019924 -0.32602 -0.19851 0.33383 0.38426 0.31458 -0.24829 -0.17431 0.096785 0.046177 -0.28331 -0.066687 0.37958 0.083123 -0.19467 -0.029375 -0.19007 0.066393 -0.022755 -0.4775 -0.089154 0.46007 0.57893 -0.1957 0.16436 -0.19672 0.11793 -0.0024226 -0.40139 -0.040511 -0.15387 -0.0052869 0.38644 -0.35911 0.42546 -0.015621 0.13487 -0.26516 -0.078454 -0.20345 0.3389 -0.51223 -0.017821 -0.093041 0.052004 -0.12247 -0.4644 0.15609 -0.26085 0.34159 0.31006 0.16266 0.14881 0.25819 -0.44849 0.097188 0.31525 -0.083855 0.0068844 -0.20471 -0.13085 0.079638 0.16744 0.20115 0.2324 -0.021821 0.12511 0.21146 0.24494 -0.0062754 0.073968 0.20383 -0.20222 0.22137 0.015073 0.27827 0.1692 0.37774 -0.71438 0.015877 0.12816 -0.13713 0.091381 0.098683 -0.40937 -0.36973 0.17609 -0.11531 0.41147 -0.063264 0.30457 0.16269 0.3052 0.18818 0.34539 -0.17866 0.053635 -0.13125 0.048053 -0.3346 0.31893 -0.32656 -0.072428 -0.28286 -0.12505 0.1295 -0.070435 -0.13125 0.45439 0.044405 0.058344 0.19887 0.18036 0.048089 0.13398 0.15969 0.12411 -0.075866 -0.012299 -0.49725 -0.020377 -0.76871 0.40621 0.10127 -0.10982 0.24189 0.17096 0.078228 0.36703 0.1857 -0.13614 -0.11179 0.030435 -0.010651 0.26815 -0.26102 -0.0070885 -0.10282 -0.75334 0.13508 -0.37025 0.048588 -0.089882 -0.37723 -0.04708 0.33932 -0.096909 -0.24474 0.62708 0.25886 -0.089462 -0.20078 -0.18281 -0.082202 -0.19172 -0.1641 0.28715 -0.59722 -0.083686 
mcconnell -0.17051 0.097061 -0.071567 -0.19065 -0.095393 -0.029802 0.046259 0.11818 0.25761 0.19798 -0.26267 -0.091548 -0.10468 0.071238 -0.034355 0.36535 0.24728 -0.074879 -0.27304 -0.040667 -0.070303 -0.2742 -0.27353 0.32147 -0.093779 -0.33128 0.38789 0.089002 0.025596 0.16601 -0.37603 -0.0076888 0.35465 -0.36596 -0.14124 -0.082752 0.19054 -0.11985 -0.16257 0.17081 0.11588 0.2035 -0.18233 -0.099684 -0.43505 -0.25007 -0.1246 -0.18852 -0.098462 -0.063405 -0.04282 0.28497 0.29714 -0.23837 -0.16238 -0.06421 -0.25445 -0.01577 0.29667 -0.2367 0.17347 -0.17534 0.3171 -0.42561 -0.27946 -0.095904 -0.31276 0.042011 -0.18561 0.22103 -0.28193 0.35891 -0.10599 -0.12312 -0.18532 0.0086799 -0.085514 -0.14047 -0.48621 -0.39974 -0.02329 0.015478 -0.079002 -0.40131 -0.15419 -0.24639 0.22206 -0.17859 0.021135 0.7532 -0.10622 0.086583 0.21165 0.075863 -0.076472 -0.14593 -0.089641 -0.16256 -0.17136 0.53464 -0.43133 -0.044848 -0.16192 -0.060438 -0.33606 0.11794 0.27253 0.075011 0.32426 -0.039644 -0.063022 -0.12761 0.12557 0.26864 -0.11808 0.57318 0.25166 -0.095198 -0.34927 -0.12462 -0.16377 0.13472 0.14036 0.19178 0.14385 0.0010413 0.27342 -0.085404 0.43782 -0.14667 -0.14247 -0.0169 -0.01807 -0.032408 0.1922 -0.17196 -0.20583 0.53126 -0.081028 0.020641 0.042587 -0.52933 0.19595 -0.14686 -0.34617 0.14887 -0.060038 -0.13034 0.18352 0.3121 0.14066 -0.071305 -0.32169 -0.1292 0.26775 -0.28208 0.32472 -0.33458 0.10106 0.35037 -0.90213 0.1297 0.062326 0.22868 -0.064105 -0.24774 0.23329 0.081002 -0.091453 0.0056778 -0.14576 -0.17036 0.0021112 0.059668 0.015966 0.24873 -0.31682 0.033003 0.044869 0.029304 -0.024948 0.24521 -0.19453 0.40249 0.09769 0.1132 -0.10248 0.11178 0.15874 -0.57726 0.13152 0.19931 0.50749 0.13165 -0.51842 -0.39924 -0.067278 0.30191 -0.18644 0.025311 -0.18881 -0.43631 0.26549 0.13263 0.19115 0.0062686 0.018322 -0.402 -0.058497 -0.0059213 -0.076319 0.081579 -0.13966 0.24968 -0.19246 -0.17488 0.063617 0.22 0.33293 -0.63041 -0.068513 0.040895 0.12938 0.13889 -0.14793 -0.34006 0.13702 -0.49083 -0.020532 -0.083481 -0.22756 -0.071567 0.48492 0.10071 -0.11682 -0.10331 -0.045592 0.055958 0.068226 -0.072313 0.17545 -0.011573 -0.27921 0.27827 0.07754 -0.18223 0.61069 0.13656 -0.16841 0.57126 -0.099624 0.12587 0.315 0.17587 -0.39711 0.13202 -0.28677 -0.091249 -0.43102 -0.54021 -0.17424 -0.14978 -0.36009 0.23427 -0.015165 -0.072183 0.2371 0.0020613 -0.36094 0.49395 0.39519 0.25794 -0.21277 0.22895 -0.0015513 0.12703 0.19569 -0.29713 -0.49906 -0.69777 0.12761 -0.35517 0.028478 0.13402 0.32179 0.20424 0.19303 -0.32681 -0.059145 0.21049 0.29905 0.05296 -0.36699 -0.046857 0.015687 -0.02317 0.037164 0.42974 -0.33159 -0.38651 
