conservative 0.33274 0.32182 -0.19147 -0.23513 -0.054022 0.035739 -0.083691 0.1807 0.15378 0.00011456 -0.087111 -0.42144 0.66463 -0.10757 0.040499 -0.11151 -0.1668 -0.30677 -0.39854 0.084849 0.084475 0.21922 -0.034727 0.29536 0.019689 -0.087787 -0.041002 -0.29017 -0.01855 0.26965 0.04269 0.13506 0.028816 0.032031 -0.20061 -0.20726 0.024785 0.067584 -0.0018203 -0.014841 -0.16634 0.057259 0.045426 0.042903 -2.1692e-05 0.35564 0.15545 -0.14816 -0.046743 0.51079 0.48482 -0.11341 0.13869 0.017475 0.11605 0.070726 -0.29778 -0.029222 -0.31857 -0.35108 0.078416 -0.017122 0.19156 -0.13525 -0.14948 0.1373 0.094141 0.22408 -0.17576 0.029725 -0.23073 -0.069398 0.16853 -0.18645 0.18782 -0.12897 -0.099951 0.089587 -0.29666 -0.25149 -0.087109 0.048101 -0.004789 -0.085856 -0.1178 -0.15051 -0.17831 -0.064094 0.04252 0.045432 -0.04374 0.01499 -0.096539 -0.12098 -0.18057 -0.050151 -0.049656 -0.093323 -0.18859 0.086257 -0.26666 -0.40686 -0.070934 0.29122 -0.049109 0.010422 0.055962 0.098894 0.025407 -0.1024 -0.087532 0.33389 0.024146 0.0698 -0.10908 0.068984 -0.21392 0.0094192 0.2248 0.45842 0.35007 -0.10466 -0.39784 -0.20129 -0.19853 -0.062317 -0.24027 -0.14472 0.16722 -0.022917 0.07309 -0.075423 -0.22215 -0.2007 -0.15501 -0.14292 0.020762 -0.073934 -0.1297 -0.17733 0.00040018 0.37486 -0.23568 0.2873 -0.09412 -0.30545 0.10058 0.13206 0.034703 0.25295 -0.00025812 -0.25604 0.10521 -0.37451 0.054506 -0.3641 0.023067 0.28082 0.075776 -0.0085844 -0.028469 -0.32731 -0.25453 -0.24361 0.14963 -0.018535 -0.046559 0.27258 0.1117 0.044678 0.068228 0.0055006 0.19131 -0.07009 -0.081737 0.29043 -0.063953 -0.21298 -0.098314 0.3272 0.21177 0.0063094 0.18614 -0.026134 -0.19672 -0.19871 -0.23843 -0.13453 -0.16033 0.33616 0.061887 -0.24282 0.041914 -0.058487 0.10543 0.010916 0.0074689 -0.072874 -0.087537 -0.27248 0.32189 0.18007 -0.07637 -0.057976 0.080317 -0.13742 -0.32417 0.23343 0.21642 -0.2611 0.082234 -0.30399 -0.11936 0.14208 -0.052509 -0.25122 -0.22477 0.052094 -0.34903 0.27491 -0.11244 0.29951 0.26191 0.12437 0.30532 -0.061578 0.068883 -0.0021915 -0.069667 0.32008 0.26071 -0.23254 0.076379 -0.20056 0.064546 -0.31387 0.062595 -0.15019 0.33912 -0.0090496 0.36837 0.19216 -0.22625 -0.0082418 -0.11223 0.16118 -0.46052 -0.091179 -0.2101 -0.024787 0.12483 -0.33266 -0.011648 -0.046781 -0.16715 -0.045204 -0.012046 -0.18273 0.027313 -0.052088 -0.12463 0.089849 0.031236 -0.046284 -0.10183 0.015689 0.028505 0.41893 -0.33513 -0.16907 0.081215 -0.31798 0.33488 -0.07572 0.12465 0.19711 0.13179 0.042467 -0.10059 -0.061605 -0.23083 0.55137 -0.16056 0.46969 0.21441 0.20486 -0.14737 -0.072532 -0.062257 -0.027511 -0.13189 -0.40392 -0.018608 -0.43712 0.035436 -0.022148 -0.10226 -0.13832 0.029951 0.3291 
liberal 0.090607 0.36529 -0.19312 -0.25308 -0.033109 -0.1188 -0.33458 0.063354 0.10623 0.017053 0.089328 -0.45124 0.36229 0.053601 -0.02754 0.016722 -0.3191 -0.42605 -0.3777 0.035212 0.09083 0.15125 -0.050783 -0.001745 0.076772 -0.16323 -0.063784 -0.16904 -0.10583 0.4679 0.014489 0.0048005 -0.1126 0.14732 -0.4157 -0.1015 0.18477 0.15661 -0.091867 0.15153 -0.13571 -0.079006 0.026274 -0.18476 0.11025 0.32564 0.20221 -0.12903 -0.013804 0.15212 0.38487 0.0090648 0.069068 -0.078112 -0.043551 0.18201 -0.059005 -0.0027491 -0.23607 -0.29858 0.037092 -0.0071566 0.19578 0.096405 -0.08231 0.12455 0.11042 0.13677 -0.15373 0.014829 -0.20246 -0.13591 0.086614 0.062782 0.15586 -0.093518 0.095772 0.038938 -0.26957 -0.1982 0.025342 -0.048738 -0.16691 0.041296 -0.091853 -0.12832 -0.095145 -0.11604 0.14243 0.10903 -0.097424 0.19277 -0.24189 -0.14014 -0.29761 -0.12605 0.29218 -0.22387 -0.15482 -0.016378 0.0017319 -0.4767 -0.033939 -0.053121 -0.10942 0.025321 -0.073524 -0.072448 0.060892 0.004104 -0.27068 0.25007 0.14362 0.029647 -0.21011 -0.031208 -0.4995 0.073759 0.12451 0.53412 0.24372 0.063341 -0.25336 -0.23129 -0.27841 0.10183 -0.23976 -0.012231 0.27085 0.088145 0.23213 -0.33494 -0.46183 -0.25608 -0.30565 -0.34089 0.01684 0.0019952 -0.11602 -0.17165 -0.25161 0.04116 -0.30917 0.27613 0.017433 -0.22169 0.052068 0.069653 0.19815 0.12321 0.004844 -0.33784 -0.01735 -0.37408 0.21121 -0.34565 0.046829 0.1609 -0.036393 -0.16464 -0.10348 -0.25823 -0.34872 -0.29738 0.37147 -0.053458 -0.1045 0.25769 0.062898 0.12581 0.10178 0.10331 0.31859 -0.019577 -0.093692 -0.15975 0.20224 -0.23101 -0.075848 0.13913 0.036372 0.10395 0.13825 0.063121 0.014421 -0.067676 -0.10752 -0.2503 -0.038857 0.25 0.31258 -0.094815 0.19308 -0.025422 0.10345 -0.037341 0.12154 -0.036495 -0.16208 -0.17097 0.47083 0.36532 -0.085195 0.020242 0.051521 0.083129 -0.14753 0.10452 0.068049 -0.0091868 -0.00172 -0.10529 0.2049 0.29546 -0.08613 -0.39496 -0.14676 -0.35903 -0.31686 0.35388 -0.023758 0.2327 0.26915 0.14196 0.23391 0.019676 0.10334 -0.13497 -0.11415 0.27774 0.041845 -0.22134 0.23839 -0.080588 0.10982 -0.26328 -0.081454 -0.099192 0.19334 -0.2627 0.043125 0.061196 -0.15405 -0.11602 0.054723 0.17562 -0.38208 0.05369 -0.058253 -0.12401 0.19362 -0.24181 0.01149 -0.034489 -0.20122 -0.092529 0.0093997 -0.16565 0.13575 -0.17731 0.16804 0.16131 0.0191 0.041237 -0.17555 -0.13607 0.079564 0.22308 -0.301 -0.10808 0.087299 -0.18933 0.40592 -0.16576 0.27296 0.15096 0.030514 0.27544 0.1983 -0.091117 -0.046274 0.28548 -0.14929 0.43594 0.068681 0.21151 -0.19568 0.024883 -0.12255 0.033272 -0.20332 -0.29354 0.1822 -0.44097 0.30081 0.28203 0.032423 -0.20491 0.18981 0.37296 
good -0.17416 0.15926 -0.16148 -0.039977 -0.099657 0.17113 -0.15669 -0.010151 0.18706 0.1588 -0.11971 -0.064372 0.10525 0.25221 -0.21945 -0.045934 0.14315 0.13017 -0.073385 0.03471 0.02925 -0.040645 -0.17094 -0.031914 -0.14073 0.016793 -0.16378 -0.039733 -0.32424 0.090783 -0.025423 0.14096 0.050933 0.057188 0.11608 0.066583 0.029596 -0.18915 -0.21081 -0.28749 -0.17113 0.012643 0.11435 -0.31525 -0.082045 0.15507 0.015761 -0.089197 -0.21749 -0.10049 0.1834 -0.028259 -0.23143 -0.044201 -0.23486 0.16719 -0.14699 0.11897 -0.044533 0.21743 0.036744 -0.21604 0.089207 0.060042 -0.351 0.26905 0.15401 0.37547 0.011377 0.0103 -0.017329 -0.018642 0.11359 0.070832 0.049536 0.014688 0.26568 0.06663 -0.17661 -0.033615 -0.056174 -0.18165 0.24832 -0.33814 -0.26338 -0.21847 0.055443 0.11473 -0.093589 0.043926 -0.060139 -0.098059 0.24711 -0.064575 -0.14505 -0.11541 -0.11 -0.23908 -0.025743 -0.036964 -0.056413 0.11046 -0.0062308 -0.17838 0.011346 0.12047 0.025257 0.068783 -0.028833 0.12213 -0.30127 0.15387 0.10646 -0.16517 0.28419 -0.26954 -0.28371 -0.040856 -0.29673 -0.1152 0.10693 -0.055379 -0.079481 0.034277 0.15974 0.00015344 0.005882 0.086325 -0.24709 0.11007 0.15346 0.20443 -0.21262 -0.029675 -0.30546 0.20236 -0.10823 -0.28904 0.12557 -0.11196 0.11791 0.051958 0.06342 0.11605 0.07672 0.033011 0.20704 0.0345 0.094293 -0.095681 -0.32611 -0.13105 0.06373 -0.017112 0.12612 -0.20266 -0.031323 -0.028017 0.1193 -0.20375 0.11044 -0.41447 -0.058223 -0.21662 0.32471 -0.10063 -0.050489 -0.20483 -0.039159 -0.26886 0.28818 0.022328 0.087049 0.027829 0.018999 0.14092 0.086767 -0.091707 0.0033263 0.20469 -0.095018 -0.2079 0.098259 -0.080213 0.09455 0.015685 -0.032075 -0.05882 -0.44025 -0.060855 -0.10502 -0.084592 0.10757 0.076313 0.040101 0.13636 -0.093133 0.030751 -0.05603 0.14615 0.24216 0.12168 -0.25207 0.15683 -0.088152 -0.09706 0.11693 0.079763 0.072022 -0.057813 0.12081 -0.14308 0.055195 -0.043797 -0.23986 -0.22905 0.11064 0.2125 -0.054812 0.2605 0.013119 0.18689 -0.053176 0.16275 0.053049 0.069332 0.12024 -0.070683 0.016269 0.080775 0.15873 0.037206 0.31826 -0.10542 -0.11552 -0.10391 -0.12097 -0.19567 0.3405 -0.14851 0.040038 0.050863 -0.15591 -0.15607 -0.10396 0.15919 -0.11725 -0.058141 -0.015634 0.0014237 0.14244 -0.055807 -0.047644 0.03331 -0.09297 0.10779 0.35589 0.11344 0.043093 -0.20089 0.20868 0.064589 0.06677 0.0032134 -0.10295 0.11812 0.024293 -0.095011 -0.19627 -0.018019 0.038754 -0.12616 0.090741 -0.17358 0.14025 -0.16916 0.16502 0.35847 0.11964 -0.080442 0.19395 0.337 -0.050962 -0.11655 -0.082951 -0.26978 0.069547 0.13944 0.14015 0.17826 -0.01448 0.068827 0.11478 0.085038 0.059229 -0.10142 0.0085801 -0.013934 -0.27635 0.14858 
bad -0.19931 0.10521 -0.07457 0.23225 -0.040549 0.14715 -0.031882 -0.20638 0.23219 0.13524 -0.25712 0.074775 0.09448 0.19193 -0.15024 -0.0045901 0.15481 -0.079699 0.059892 0.059968 0.011039 0.098307 -0.12108 0.21672 -0.034677 0.12684 0.032936 -0.1193 -0.33236 0.10054 -0.0067356 0.10491 -0.025958 0.0014471 -0.03568 0.03989 0.012795 -0.15053 -0.18329 -0.22157 -0.20806 -0.14638 0.14497 -0.17827 -0.14056 -0.042416 -0.080649 0.073611 -0.094603 -0.0145 0.20588 0.045535 -0.14255 -0.143 -0.19937 0.29203 -0.088824 -0.054389 -0.025762 -0.036006 0.29622 -0.19654 0.29283 0.07604 -0.32793 0.21861 -0.14119 0.3114 0.024992 0.12527 -0.09654 0.053354 0.10757 -0.050724 -0.00059507 0.17679 0.17036 0.11246 -0.089363 -0.17165 -0.25212 -0.15971 0.11324 -0.30164 -0.23702 -0.32793 -0.18643 -0.046425 -0.050797 0.053214 -0.13115 -0.14588 0.22183 -0.013862 -0.26062 -0.064912 -0.086646 -0.21873 -0.16294 -0.18113 -0.12995 -0.15901 0.078029 -0.19023 -0.031592 0.030779 0.12761 0.15814 -0.025353 0.11097 -0.27152 0.073002 0.14315 -0.036609 0.37182 -0.35587 -0.41274 -0.23857 -0.25803 0.06873 -0.063694 0.041555 -0.21957 0.031012 0.19198 -0.1409 0.048069 0.14179 -0.11746 0.16919 0.25142 0.27232 -0.063201 0.038836 -0.31154 0.023403 0.038382 -0.17493 -0.084802 -0.10685 -0.0062652 -0.023459 0.065772 0.17565 0.23066 0.0819 0.10937 0.19185 0.10607 -0.12096 -0.31016 -0.083048 -0.098067 0.084215 0.033747 -0.14873 -0.020364 -0.061681 0.20596 -0.34355 0.19071 -0.3622 0.0057642 -0.075891 0.34303 0.092137 -0.035026 -0.17427 0.061538 -0.2382 0.27217 -0.085171 0.16815 -0.10702 0.16283 0.099813 -0.016368 -0.13544 0.13542 0.19916 -0.24368 -0.076779 0.029918 -0.13066 0.29693 0.12392 0.075358 -0.20637 -0.48758 -0.010737 -0.04896 0.085296 -0.0011419 -0.19121 -0.03067 0.14716 -0.022898 -0.17218 0.26768 0.161 0.28249 0.17156 -0.29641 0.10843 -0.13279 0.15021 0.26984 0.031897 0.0033 -0.055065 0.044446 -0.32465 0.014347 0.073509 -0.3378 0.02369 0.10331 0.18176 0.081394 0.42377 0.038923 0.19238 -0.10215 0.11904 0.13575 -0.026952 -0.066729 0.11579 -0.083746 -0.050382 0.12891 -0.044872 0.41648 -0.10691 -0.35055 -0.17921 -0.060974 -0.2023 0.27813 -0.19265 -0.13301 -0.10204 -0.20394 -0.24801 -0.083389 0.063305 -0.2303 -0.010951 0.024401 -0.12333 -0.038989 -0.0684 -0.031993 0.085541 -0.16834 0.11173 0.39606 0.1061 -0.14214 -0.04712 0.26911 -0.080368 0.13478 -0.082961 -0.11651 0.17881 -0.05095 -0.14117 -0.10421 0.0011704 0.15424 -0.14835 0.10815 -0.19106 0.21602 -0.24764 0.10208 0.32643 -0.054012 -0.23516 0.33701 0.17646 -0.064672 -0.19213 0.10898 -0.12703 0.13045 0.32218 0.092046 0.009581 0.13011 0.22171 0.096972 -0.11912 0.079704 -0.10432 -0.15031 -0.052694 -0.246 0.022444 
reagan 0.31568 -0.027593 0.14023 -0.13111 0.24844 -0.036054 0.1018 -0.22464 0.21591 0.085547 0.25153 0.026049 -0.088489 0.23083 -0.12186 -0.071117 -0.082282 -0.12843 -0.012373 0.1194 0.019668 -0.19631 -0.26995 0.18994 -0.37844 0.074168 0.087494 0.15086 -0.30938 0.24706 -0.14205 0.26642 -0.65778 -0.064817 0.14356 0.22232 -0.021528 -0.35767 0.076584 -0.22592 -0.16177 0.31076 0.054616 0.00091254 0.12643 0.17393 0.23038 -0.33769 -0.075902 0.41923 0.053073 -0.14424 -0.18584 -0.10741 0.40265 0.31268 -0.074739 -0.047183 -0.25577 -0.27 0.37886 -0.027311 -0.057246 0.09617 -0.54923 0.135 -0.19584 0.045052 -0.17025 -0.16967 0.13144 -0.36247 0.12479 -0.22218 0.14235 0.13214 0.078369 0.1371 -0.087747 -0.31914 0.17485 -0.29284 -0.26878 0.011227 -0.062503 -0.14269 -0.14813 0.28444 -0.1472 -0.11156 0.12741 -0.10449 0.012291 0.083007 0.043289 -0.17713 -0.0093022 0.18817 0.1868 0.27426 0.11307 -0.12155 0.031993 0.16742 -0.050941 -0.24729 -0.031349 -0.066556 0.033165 0.16594 0.012992 0.31645 -0.018354 -0.15628 0.094166 -0.0037244 -0.29747 -0.012617 0.049058 0.15352 0.10126 -0.045449 -0.41556 0.15258 0.27284 0.12758 -0.1111 -0.12866 -0.11158 -0.079829 0.10188 -0.15417 -0.16404 -0.14837 0.048687 -0.33777 0.094127 0.16614 -0.15011 -0.28445 0.042643 0.34598 0.17035 0.17638 0.29118 -0.16126 0.49019 0.095246 0.25966 0.4295 0.041378 0.20098 0.084034 -0.1656 0.048085 -0.12171 -0.061836 0.073941 0.21527 0.12524 0.039079 0.057255 0.072498 0.16752 -0.061334 0.14465 0.00090124 0.049599 -0.071299 -0.071472 -0.27091 0.17927 0.43921 0.22075 -0.035288 -0.17956 0.087924 0.067363 0.086348 0.32273 -0.37342 -0.28714 -0.21589 -0.25239 0.23048 -0.1288 -0.20714 0.20877 -0.25118 0.13612 -0.23286 0.041851 0.064947 -0.35474 0.033989 0.19603 -0.015639 0.085031 -0.29024 0.0086225 0.39501 0.37462 0.14173 0.37457 0.23182 -0.042241 -0.31668 -0.0020797 0.018981 -0.29244 0.034031 0.15263 0.08859 -0.058231 -0.20416 -0.26446 -0.039996 0.071974 0.022417 0.2016 -0.10556 -0.069552 -0.064469 -0.14663 -0.25662 0.17745 -0.087936 -0.050713 0.14977 0.35073 0.18841 0.2662 0.18163 -0.060181 -0.2616 0.053504 0.063041 -0.36356 0.12959 -0.22077 0.25157 0.062236 -0.44566 0.10851 0.18883 0.3667 0.072928 -0.17741 0.16506 0.088906 -0.053239 -0.15089 0.16511 -0.11208 0.011617 -0.28496 -0.19094 -0.06362 -0.14559 0.011366 -0.091066 -0.072027 -0.12338 -0.13783 -0.29147 0.083779 0.18176 -0.074371 -0.18991 -0.2563 0.16873 -0.30093 0.44558 0.22125 0.20042 0.21705 -0.013268 0.12207 -0.054259 -0.44994 -0.20698 0.46671 -0.025256 0.26209 0.079765 0.030788 0.20134 -0.020206 0.29444 0.52004 -0.14155 -0.30155 -0.0036708 0.011507 -0.1135 -0.090323 -0.10242 0.070455 0.12651 0.44854 
shelby -0.19023 -0.21615 -0.077666 -0.28746 0.24035 -0.0935 -0.058115 0.022503 0.098252 0.5257 -0.27848 -0.027276 0.25633 0.049478 0.42869 0.30904 -0.34047 -0.19131 0.27354 -0.18004 0.096415 0.35577 -0.15686 0.065972 -0.49141 -0.17216 -0.25863 -0.14817 0.029186 -0.043986 -0.30774 0.35567 -0.21167 0.28092 -0.041039 0.25925 0.34531 0.055221 -0.37022 0.017156 -0.28517 0.078225 -0.22962 -0.24185 0.036829 -0.021689 0.14736 -0.18102 0.13246 -0.052018 0.48874 -0.28965 -0.25584 -0.045105 0.42874 -0.14686 0.10277 -0.12348 -0.14195 -0.20266 -0.13322 0.23065 0.20955 0.14504 -0.24399 0.20511 0.11196 -0.11872 0.24381 -0.23575 -0.34268 0.48254 0.17785 -0.31961 -0.016695 0.077695 0.093319 0.15838 0.074178 0.18451 -0.016388 -0.52893 -0.1684 0.016629 0.27024 -0.28497 -0.50062 -0.015004 0.015433 0.38004 -0.14644 0.1241 0.30508 0.12893 0.26747 0.15855 -0.35717 0.058315 -0.29059 0.094022 0.10742 -0.34808 -0.021376 0.3769 -0.1346 0.014965 -0.31851 -0.21627 -0.10154 0.24133 -0.055568 -0.0067641 -0.18369 -0.49408 -0.057747 0.011428 -0.069612 0.10548 -0.096915 0.27739 0.19513 -0.37789 -0.56336 -0.057233 0.047311 -0.23055 0.14309 -0.26779 -0.27936 -0.13195 0.096439 -0.15716 -0.41049 0.19773 -0.23808 -0.10194 -0.29595 -0.28319 -0.069216 -0.17183 0.0020155 0.17198 -0.083034 -0.033433 -0.26689 0.07492 -0.30216 0.07286 -0.14971 -0.20344 0.19121 -0.048715 -0.3372 -0.41573 0.22831 -0.47338 0.010032 -0.23968 -0.010642 0.18009 0.0030024 0.19295 0.18022 -0.22653 -0.15107 -0.017432 0.18805 -0.17587 -0.20834 -0.20829 -0.026511 -0.15081 -0.17723 -0.17763 0.037601 -0.067885 -0.020752 -0.10982 -0.019458 -0.03111 0.036238 -0.031103 0.076458 0.4747 0.30359 -0.13505 0.015244 0.26614 0.10663 -0.052591 -0.20918 -0.048858 0.11482 -0.35336 -0.0005779 -0.0074881 -0.038449 -0.12845 -0.10859 -0.12366 0.17288 0.33145 0.27318 -0.096436 0.12686 0.33511 -0.064089 0.50429 -0.076428 -0.16729 0.0071752 0.063244 -0.1362 0.23163 -0.27564 -0.050757 -0.050049 0.44024 0.3212 0.21447 -0.23659 -0.016377 0.41899 -0.097858 -0.37923 0.48435 -0.22634 -0.082605 0.10244 0.2488 0.50553 0.22282 0.34177 -0.36023 0.01935 -0.31271 -0.25777 -0.52617 -0.015584 0.097681 0.26067 -0.497 0.16929 0.40506 -0.31071 -0.18839 -0.44841 -0.053825 -0.067856 -0.19574 -0.0014038 -0.25996 -0.079169 0.34953 0.071602 -0.23857 0.43035 -0.20127 -0.41661 -0.16342 -0.16489 0.044754 -0.54634 0.24563 -0.16364 0.18911 -0.09881 0.30804 -0.156 -0.081239 0.066644 -0.23198 0.44193 -0.25716 -0.43099 -0.11016 0.015242 0.15578 -0.44105 -0.0775 0.071542 0.10305 -0.16169 -0.09135 -0.021842 0.10948 0.14119 0.28462 -0.1491 0.23405 -0.02571 -0.36548 0.1017 -0.25288 0.30954 -0.23144 0.23023 0.14733 0.0049278 0.31888 
heflin -0.077169 -0.13782 -0.26869 0.014843 0.42084 0.064961 0.34734 -0.11357 0.077778 0.41771 0.10174 -0.16344 0.4592 0.32364 0.29331 0.34355 -0.087944 -0.10532 0.25224 0.26798 -0.16481 0.21584 0.25304 -0.10463 -0.4327 -0.04058 -0.07177 0.23045 -0.58564 0.3861 -0.20038 0.21542 -0.56385 -0.099183 -0.31693 -0.078192 0.20493 -0.066303 -0.28534 -0.39215 -0.44511 -0.04853 0.025673 0.0012699 -0.26641 -0.17525 0.32536 0.035388 -0.30445 -0.42033 0.3952 -0.34039 -0.029174 -0.10704 0.305 0.24126 0.50381 -0.11042 -0.011511 -0.22609 -0.2959 0.10129 0.19985 0.045977 -0.17376 0.6973 -0.13533 0.11536 0.41532 -0.43232 -0.0015696 0.18364 -0.011198 0.012065 0.20525 -0.17059 0.45347 0.049547 0.060308 0.24726 -0.17829 -0.44452 -0.26073 -0.19044 0.18763 0.12143 -0.022959 -0.047841 -0.62224 0.047606 0.11394 -0.086055 -0.39004 0.1675 0.2001 0.39169 -0.18249 -0.2094 0.093801 -0.023277 0.51038 -0.35919 -0.15361 0.18083 -0.065023 0.085737 -0.11216 -0.71069 -0.098185 0.10204 -0.19932 -0.35858 -0.13316 -0.50904 -0.022045 -0.0017703 -0.38928 0.42334 -0.37868 -0.26369 -0.092049 -0.17717 -0.59303 -0.071601 -0.44989 0.31812 0.20759 0.088241 -0.27651 -0.30209 0.31219 -0.27088 0.048538 0.25575 -0.34347 -0.21436 -0.68377 -0.19232 -0.24224 -0.27248 0.48398 0.065176 -0.15754 0.1581 0.052541 -0.29823 -0.82999 -0.189 0.26322 0.30506 -0.15475 -0.21924 0.012162 -0.057968 0.18684 -0.6087 0.093507 -0.30604 0.046016 0.10054 0.15525 0.22163 0.060721 -0.19378 -0.034756 -0.048107 0.37053 -0.12422 0.38002 0.17257 -0.25299 0.020601 0.23705 0.08322 0.036578 -0.13224 -0.04134 -0.097985 -0.22281 0.22293 0.056202 0.072175 -0.21817 0.56017 0.47839 -0.58698 0.2401 0.17585 0.13081 0.12049 0.0004423 -0.31968 0.16569 -0.30043 -0.48372 0.16112 0.098594 0.20785 -0.24911 -0.13112 0.16161 0.31084 0.14395 -0.13651 0.2413 0.052801 -0.56918 0.33304 0.48859 0.23157 0.26451 -0.19607 -0.1106 0.43555 -0.35209 -0.63271 -0.38718 0.29071 0.64909 0.36678 -0.23334 -0.1651 0.59447 0.36853 -0.26741 0.0026628 0.21372 0.35785 -0.046382 0.00093817 0.79196 0.057668 0.40975 -0.67912 -0.30664 -0.51711 -0.20756 -0.60193 0.015185 0.047386 0.8463 -0.1523 0.16021 0.11131 0.14292 0.31891 0.018744 0.038618 0.37266 -0.10042 0.21746 -0.32606 -0.081451 -0.13753 0.2489 -0.16699 0.34441 -0.27841 -0.39804 0.43506 -0.36255 -0.36947 -0.7095 -0.06329 -0.19977 0.12699 0.27178 0.14237 -0.051784 -0.011177 0.62941 0.0096273 1.0605 -0.28273 -0.020981 -0.11745 0.3204 0.35913 -0.2355 -0.18298 -0.28508 0.091444 -0.41405 -0.080483 -0.1465 0.12233 0.0098818 0.19198 -0.081026 0.17267 -0.028411 -0.19947 0.12961 -0.23047 0.042039 -0.44937 -0.14494 0.16582 0.14446 0.66063 
stevens 0.23887 -0.32586 -0.31689 -0.14839 0.18167 0.049766 -0.10707 -0.22909 0.14631 0.22511 0.10799 0.22402 0.17605 0.079266 0.18511 0.10015 -0.05339 -0.023768 0.036344 0.01695 -0.21852 0.36205 0.26005 0.059101 -0.32252 -0.20561 0.10914 -0.13004 -0.31697 0.048659 -0.08573 0.1866 0.0095531 0.22823 0.071733 -0.17208 0.21168 -0.19421 -0.14117 -0.17961 -0.22835 0.23375 -0.26116 -0.24522 0.40652 0.27456 -0.011372 -0.30646 0.16867 -0.12902 0.16519 -0.3737 -0.20475 -0.15936 0.37256 0.14745 -0.016276 0.36064 -0.13059 -0.28251 0.053798 -0.043454 -0.22069 0.10374 -0.19229 0.083582 -0.20084 -0.19941 0.24955 0.03917 0.10653 0.071668 -0.12991 -0.067319 0.30659 -0.17417 0.033247 -0.083727 -0.076187 -0.0022928 0.093779 -0.20227 -0.12726 0.13386 -0.17807 0.26197 -0.37142 -0.090006 -0.048745 0.4654 -0.23974 0.29908 0.11765 0.14444 -0.043558 -0.054408 0.012252 0.084185 -0.19244 -0.24295 0.0056696 -0.64013 -0.22305 -0.11497 0.01835 -0.24274 -0.42737 -0.31539 0.21623 0.30876 -0.49818 0.097223 -0.12337 -0.052003 0.012829 0.14654 -0.21149 0.2063 0.13473 0.18248 0.41918 -0.093561 -0.047396 0.12971 -0.03593 -0.2046 0.16362 -0.047793 -0.16906 -0.28636 -0.17143 -0.20498 -0.27757 0.30513 -0.62785 -0.11195 -0.35004 0.13279 -0.057542 -0.17871 0.14607 -0.0059802 0.25795 0.22616 0.11585 -0.38581 -0.12571 0.047866 0.45839 0.29881 -0.11734 -0.30957 0.13078 -0.59976 0.21222 0.0070698 -0.009685 0.26712 0.30272 -0.10181 0.7539 -0.11549 0.23183 0.30459 0.065422 0.012351 -0.1027 -0.042138 0.041264 0.13123 -0.041135 0.18157 -0.10456 0.061923 0.21799 0.28454 -0.075845 0.078544 -0.41652 0.26751 -0.2755 -0.28576 -0.0088937 0.34741 0.047515 -0.10128 0.25014 0.065515 0.27696 -0.09685 -0.30441 -0.18168 -0.042046 -0.05076 -0.27029 0.049043 0.13543 0.075713 0.0090108 -0.13114 -0.16089 0.24705 -0.085907 -0.038253 -0.15137 -0.04172 -0.22562 -0.024332 0.32336 0.12408 -0.051608 -0.27812 -0.008013 0.31657 -0.2713 -0.56824 -0.17725 -0.0092205 0.41184 0.05137 0.12816 0.054721 0.50883 -0.052225 -0.029619 0.39093 0.049422 -0.097605 -0.27896 -0.024446 0.36156 0.15172 0.38662 -0.18221 -0.03631 0.085088 -0.038448 -0.023879 -0.099793 -0.046408 0.49648 -0.15035 -0.1025 0.42913 0.10545 0.30277 0.12506 -0.18616 0.027651 -0.3462 0.080002 -0.46892 -0.34226 -0.17106 0.017718 -0.21063 -0.012743 0.038307 -0.20086 0.2504 -0.13417 0.057355 -0.13857 -0.042792 -0.21199 0.44299 -0.0084303 -0.16346 0.11007 0.078078 0.35491 0.27106 0.25411 -0.23799 -0.17009 0.24316 0.027987 0.28506 -0.40309 0.15536 -0.28224 -0.19759 -0.51863 0.29114 0.087958 -0.23387 0.12251 0.12776 0.062997 0.41019 -0.0073074 -0.20236 0.027188 -0.33577 0.27521 -0.021774 0.12063 0.11861 -0.47293 0.19073 
murkowski -0.008324 -0.29096 -0.3004 -0.1116 -0.21959 -0.15786 -0.05373 0.35494 0.057609 -0.1848 0.10226 0.068684 0.33466 0.19942 0.41366 0.023917 -0.26396 0.27294 0.26983 0.31514 0.084284 0.26412 0.027755 0.084362 -0.2435 0.079709 0.13402 -0.27564 -0.24513 0.3015 0.026262 0.36762 0.40643 -0.25875 -0.27824 0.15894 0.024602 -0.21804 -0.13966 -0.2924 -0.1689 0.034401 -0.29379 -0.067956 -0.094314 0.14269 0.0030723 -0.21465 -0.011384 -0.55314 0.39852 -0.36818 -0.35458 -0.092476 0.38831 -0.216 0.28601 0.25042 -0.3682 -0.098452 -0.11436 0.23444 0.11255 -0.18798 -0.016407 0.30772 -0.22169 -0.19854 0.47998 -0.0026933 -0.13813 0.41992 0.16428 0.057131 0.45532 -0.13653 -0.057373 0.24795 -0.1649 0.0009715 -0.034406 -0.52328 -0.033048 -0.25887 -0.057464 0.5203 0.078391 -0.10991 -0.054336 0.21118 0.081816 0.0059131 0.07859 -0.16613 0.04619 0.11436 0.33363 -0.08088 -0.06248 -0.27502 0.40608 -0.13569 -0.09417 0.24725 0.36678 -0.15721 -0.13835 -0.047678 0.37148 0.52436 -0.42614 0.12947 -0.2803 -0.16638 0.36235 0.079786 -0.14066 0.19653 -0.32899 -0.049786 0.25602 0.33721 -0.26663 0.01827 0.29451 0.16298 -0.06117 -0.62498 -0.25722 -0.33997 0.2067 0.051586 -0.23156 0.38308 -0.3391 0.093121 0.10366 0.3229 0.080338 -0.37283 0.511 -0.30339 0.0036312 -0.33423 0.062025 -0.2265 -0.44239 0.3352 -0.20548 0.24636 -0.043746 -0.14393 0.0046265 -0.36841 -0.045713 -0.15622 0.066766 0.21639 0.37824 0.1664 0.48283 -0.041245 0.17399 0.39403 -0.018195 0.21384 -0.0037906 0.079618 -0.090452 0.35455 -0.18345 0.01518 -0.020949 0.33135 0.14444 -0.21381 -0.49642 0.14558 -0.075504 -0.0079213 0.0093796 -0.14108 -0.44173 0.29703 -0.36544 -0.44883 -0.016403 0.38175 0.010516 0.20267 -0.35875 -0.43267 0.2632 -0.40106 -0.40871 0.17285 -0.29824 0.4207 0.016119 -0.46016 0.13869 0.23175 -0.018423 -0.092812 -0.34488 0.35247 -0.043913 0.33293 0.28307 0.053237 -0.16229 -0.49533 0.051868 0.42353 -0.23375 -0.70385 -0.11611 0.24873 -0.02451 0.12567 0.049553 0.019403 0.62376 0.24408 -0.17855 0.42946 -0.11462 0.48346 -0.36139 0.071858 0.38911 0.50303 0.2559 -0.65846 -0.19704 -0.35391 -0.099758 -0.45892 -0.27542 0.32049 0.22756 -0.24823 -0.11371 0.0056718 -0.48357 0.41844 -0.092677 -0.28773 -0.1676 -0.54442 -0.10989 -0.36692 -0.33133 -0.037976 0.088362 -0.71025 -0.31669 0.27539 -0.40696 0.14997 -0.29845 -0.2088 -0.23527 0.14222 -0.007766 0.41152 -0.36962 0.30188 0.43745 -0.21427 -0.077638 0.24687 0.47574 -0.49689 -0.20277 0.69669 -0.046904 0.58736 -0.0031573 0.51503 -0.31503 0.21613 -0.29649 0.16841 0.34044 0.17837 0.10772 0.57157 0.042147 0.27391 -0.30087 -0.59821 0.08512 -0.26754 -0.054463 0.094308 0.35193 0.14164 -0.30262 0.35743 
deconcini -0.056699 -0.50767 -0.44838 -0.23844 0.2448 0.57656 0.2855 -0.098545 0.3566 0.82777 0.11169 -0.23485 0.30683 0.22558 0.13637 0.066376 -0.3445 0.047293 0.5538 0.31433 0.091354 0.28556 0.24242 0.3001 -0.28529 -0.11884 0.19768 0.019949 -0.53559 0.2403 -0.46041 0.27892 0.40241 -0.14316 -0.10937 0.17064 -0.21325 -0.38359 0.12031 -0.2737 -0.48534 0.038325 -0.38411 -0.37485 -0.19886 -0.24008 0.38992 -0.15685 -0.0085766 -0.25697 0.17969 -0.30176 -0.1437 -0.030001 0.4826 0.12156 0.40444 0.19299 -0.23367 -0.45152 -0.25969 0.27638 0.058514 0.23048 0.012797 0.48969 -0.3225 0.067097 0.036123 -0.20368 -0.10045 0.1071 0.09332 -0.30916 0.1751 0.012377 0.03369 -0.093793 0.10271 -0.13227 -0.021298 -0.54497 -0.070556 0.08649 0.23341 0.36381 -0.48645 -0.057508 -0.6141 0.1905 0.26307 -0.3063 0.10545 0.074876 -0.12371 -0.2456 -0.095539 -0.23854 -0.29127 -0.59083 0.38609 -0.38557 0.15701 0.2675 -0.25648 -0.17744 -0.49118 -0.088376 -0.17914 0.15123 0.23777 0.19789 -0.39081 -0.32411 0.20842 0.018939 -0.37008 0.48117 -0.061097 -0.019202 -0.058733 -0.41078 -0.44843 -0.040611 0.17301 0.21043 0.072501 0.13799 0.076894 -0.26289 0.24063 -0.45238 -0.3466 0.56804 -0.28125 -0.49988 -0.48674 0.087056 -0.063456 -0.05927 0.24508 0.13916 0.13795 0.14841 0.46365 -0.47938 -0.46643 0.027873 0.21518 0.15899 -0.13758 -0.18704 -0.096927 -0.21238 -0.00019226 -0.31374 -0.10458 -0.47174 0.085526 0.28368 0.3762 0.36521 0.22604 0.25206 -0.30344 0.0204 0.45823 -0.018991 0.04477 -0.18739 -0.22937 -0.18809 0.25065 0.1678 -0.19051 -0.27837 0.20767 0.096031 0.1998 0.18285 0.00055005 -0.28286 -0.51129 0.45193 0.021797 -0.51245 0.22173 0.071266 -0.41477 0.1092 0.14634 -0.22663 0.6272 -0.51522 -0.26531 0.013595 -0.0092986 0.45646 0.014718 -0.51307 0.032584 0.10773 -0.085396 -0.17683 0.12126 0.23659 -0.40237 0.15063 0.10136 0.18955 0.21061 -0.16131 -0.13136 0.78562 -0.44855 -0.34126 -0.055306 0.03463 0.34045 0.25537 -0.0012518 -0.13742 0.36488 0.051566 0.033225 0.43343 -0.17952 0.46863 -0.12021 0.12447 0.13795 -0.10558 0.29185 -0.25393 -0.43702 -0.42636 -0.19867 -0.40486 0.13553 -0.27249 0.68434 0.027644 -0.10638 0.36622 0.044255 0.21878 0.044473 -0.13929 0.66919 -0.41913 -0.0029396 -0.46969 0.11709 0.024186 0.27175 -0.62102 0.28446 -0.06593 4.0262e-05 0.19395 -0.23322 -0.097443 -0.35532 0.038269 0.34906 0.11466 0.27936 0.14122 0.15276 0.055409 0.19964 0.14702 0.1848 -0.28461 0.029988 -0.33083 0.28334 0.67883 -0.28311 0.048119 -0.085957 0.31578 0.016229 -0.059068 -0.058831 -0.10083 0.2339 -0.042767 -0.059595 0.53937 -0.1951 -0.032842 0.11472 0.036988 -0.30737 -0.089422 -0.31001 0.43567 0.11015 0.58917 
mccain -0.023866 -0.3333 -0.17473 -0.20652 -0.020352 -0.075869 -0.36342 -0.003788 0.30011 0.12442 0.0065001 -0.28008 0.35509 0.24515 -0.10729 0.069979 -0.21316 0.17349 0.12649 -0.00059309 0.052829 0.099441 -0.071503 0.39452 -0.24034 -0.016742 -0.16375 -0.26758 0.28579 -0.049196 -0.16992 0.11331 0.13792 -0.22456 -0.14603 0.0024771 -0.0073693 0.072169 -0.061009 -0.28285 -0.45614 0.086777 -0.24953 -0.44234 -0.53706 0.26915 -0.084033 -0.040083 0.04011 -0.28927 0.36802 -0.17648 0.026453 0.09109 0.11898 0.33508 -0.14986 0.25437 -0.4608 -0.21995 -0.09443 0.037386 -0.069788 0.19395 -0.29669 0.33768 -0.14381 0.036875 0.29963 0.11762 -0.11875 -0.059033 0.26488 -0.30097 0.2942 -0.053208 -0.04817 -0.064779 -0.17086 0.15252 -0.1541 -0.50979 0.054883 -0.21885 0.25721 0.06631 -0.22769 0.094909 0.013284 0.0049163 0.23008 -0.19318 0.056632 -0.27336 0.034415 0.054547 0.050035 -0.25534 -0.077203 -0.2203 0.26157 -0.12738 0.18602 0.22484 -0.22662 -0.085986 -0.1745 0.084258 0.24103 0.27463 -0.022413 0.13084 -0.23178 0.051488 0.21189 0.16385 -0.13194 0.038595 -0.10906 -0.048583 0.27498 -0.048279 -0.62066 -0.0062718 0.091322 -0.10204 -0.21656 -0.0027064 -0.11584 0.14439 0.060519 -0.61816 -0.22641 0.35809 -0.047882 0.13607 -0.080072 0.17811 -0.016496 -0.16001 0.32526 0.01728 0.047144 -0.044621 0.37751 0.014756 -0.23537 0.091024 -0.045623 0.25526 -0.20509 -0.073103 0.0046671 -0.41931 0.25238 -0.040742 -0.040756 -0.09907 0.18858 0.13473 0.24196 -0.11221 -0.10829 0.059388 0.0709 0.024222 -0.20595 0.28696 0.080247 -0.1622 -0.070932 -0.070125 0.40982 0.013001 -0.29262 -0.0061668 -0.022487 0.13513 -0.12602 -0.080338 -0.18174 -0.12424 -0.11896 0.16074 0.17576 -0.0146 -0.16898 -0.037058 -0.17559 0.16301 -0.29678 -0.19515 0.13151 -0.51728 -0.12766 -0.02431 -0.049276 0.20789 -0.059404 -0.32721 -0.039271 -0.079576 -0.28761 -0.33093 0.083304 -0.07997 -0.18794 0.10106 0.43713 0.067826 -0.060781 -0.20329 0.2303 0.2608 -0.31759 -0.50747 -0.0086417 0.25999 -0.012977 -0.002649 0.096925 0.30078 0.33973 -0.088672 -0.1262 0.040549 -0.29103 0.081508 -0.020112 0.19681 0.28295 -0.019656 0.25492 -0.30609 -0.16262 -0.17835 0.054601 -0.28389 0.013807 0.025582 0.41056 0.055588 -0.050614 0.0059889 -0.037363 0.41683 0.12192 -0.030058 0.11153 -0.35988 0.32913 -0.37607 0.18826 -0.06516 0.099348 -0.52087 0.16783 0.32471 0.068329 0.16132 -0.27896 -0.19446 -0.18739 -0.097089 0.068722 0.2881 0.13959 0.0084755 -0.040832 0.12991 0.34347 -0.13077 0.17847 -0.14154 0.30244 0.23263 0.030467 0.37293 -0.47646 0.13995 0.057242 0.10911 0.15737 -0.32613 -0.22469 0.1253 0.21047 -0.075981 -0.3147 -0.009857 0.057097 -0.12241 -0.0082684 -0.054527 0.083971 -0.10755 -0.1754 0.35251 -0.30523 0.49747 
pryor -0.013069 0.012746 -0.2731 -0.081373 0.13621 -0.11955 0.024728 0.31684 0.42196 0.30256 -0.065188 -0.33154 0.10443 -0.11269 0.17088 0.48978 -0.45889 -0.070017 0.39115 0.060929 -0.21051 0.11739 0.24185 -0.011984 -0.5846 -0.19718 0.28403 -0.080572 -0.20409 0.26545 -0.14313 0.53089 0.098887 -0.062946 -0.099302 0.095537 0.22431 0.21559 -0.46735 -0.22393 -0.19239 0.25971 -0.013722 -0.39294 -0.14616 0.066887 -0.30021 0.22698 -0.097585 -0.37748 0.26164 -0.017299 -0.25017 -0.23692 0.11491 -0.074717 0.13348 0.37776 -0.16769 -0.4343 0.10001 -0.0094533 0.39032 0.18128 -0.3024 0.40757 -0.24164 -0.20898 0.090633 0.039736 -0.35692 0.31089 0.01119 -0.16532 0.066085 0.052215 0.22032 0.036198 -0.041933 0.16225 0.095101 0.0027064 0.057466 -0.34867 0.069267 0.081926 -0.11373 -0.16913 -0.3998 -0.20438 0.027338 -0.22132 -0.019073 0.28747 -0.24009 0.40947 0.10902 -0.10739 0.13046 0.08982 0.26349 -0.33402 -0.15395 0.23253 0.31539 0.15603 -0.25995 -0.39004 -0.14211 0.22992 -0.12778 -0.58255 -0.45851 -0.096304 -0.19857 0.22098 -0.2326 0.33297 -0.030425 0.12014 0.23353 -0.021567 -0.15499 -0.1164 -0.00031473 -0.022783 0.11707 0.04066 0.0032301 -0.25225 0.44116 -0.15867 -0.10687 0.35008 -0.44982 -0.34395 -0.37836 0.015463 -0.21222 -0.27479 0.079445 0.2801 -0.38134 -0.092274 0.33796 -0.090425 -0.51452 0.26952 0.15016 0.10707 0.025654 -0.2705 -0.043009 -0.15573 0.26807 -0.42438 0.058458 -0.27297 0.147 0.086271 0.086945 0.083131 -0.13645 -0.1894 0.10373 -0.23562 0.33895 -0.15526 0.024442 0.16464 -0.044854 0.087101 0.39181 -0.049131 -0.041128 -0.36075 -0.11597 0.062816 -0.20074 0.29961 0.3095 -0.12154 -0.20862 0.73542 -0.081494 -0.34397 0.031811 0.1422 -0.0032872 0.048885 -0.43645 -0.23004 0.16934 -0.49315 -0.44562 -0.13447 -0.4302 0.38207 -0.16914 -0.1713 0.38648 0.44765 0.0026088 0.071962 -0.031366 -0.31236 -0.34308 0.45228 0.24596 0.32313 0.029648 -0.14134 0.051299 0.099945 -0.20697 -0.38967 -0.21849 0.52929 0.047288 0.38752 0.48087 0.23749 0.33733 0.43327 -0.26461 -0.02732 -0.11065 0.064815 0.34069 0.14096 0.66713 0.14879 0.20206 -0.54645 -0.20053 -0.19885 0.093434 -0.56665 0.19629 -0.23249 0.3837 0.1831 0.049495 0.35812 -0.10554 0.088994 -0.031229 0.0611 0.26212 -0.4214 0.13328 -0.46869 -0.039768 -0.20165 0.092005 -0.67695 0.43171 0.014991 -0.14515 0.24499 0.048848 -0.22017 -0.26038 -0.16323 -0.4925 0.55396 0.014267 0.31274 -0.26438 -0.21218 0.016434 -0.41381 0.50606 -0.28834 -0.062711 -0.02732 0.23154 0.32702 -0.19947 -0.2857 0.14409 0.078852 -0.35885 0.236 0.12274 -0.055513 -0.16211 0.037382 -0.001598 0.59788 0.013619 -0.22421 -0.14935 -0.53819 0.1711 -0.25304 0.030964 0.41421 -0.34584 0.19263 
bumpers 0.01301 -0.34138 -0.31512 -0.32656 -0.046315 -0.18825 0.25005 0.35955 0.18896 0.079128 -0.53456 -0.20942 0.26623 0.095857 -0.14633 0.45001 -0.063231 -0.044344 0.13232 -0.0013193 0.061466 -0.072682 -0.0064833 -0.059362 -0.42855 -0.0818 -0.027315 -0.14109 -0.52043 0.3737 -0.22744 -0.11219 -0.39278 -0.019846 0.020424 0.26614 -0.022776 0.29881 -0.43012 -0.13833 -0.5231 0.39228 0.2982 -0.27334 -0.11377 0.048228 0.075651 -0.020839 -0.23905 -0.050322 -0.20236 -0.12537 -0.21497 -0.085693 0.37745 -0.13112 0.40882 -0.025534 -0.035257 -0.10632 -0.065342 0.043671 -0.15359 0.27317 0.098693 0.13884 0.041995 0.074969 -0.070379 -0.0044035 -0.048078 -0.089961 0.19096 -0.36766 0.16942 0.13659 0.22524 0.30448 -0.012164 -0.22461 0.21608 -0.060285 -0.41482 -0.29517 -0.004442 0.15352 0.0025118 -0.12851 -0.3873 -0.31723 -0.19441 -0.27247 -0.12566 -0.134 -0.40867 0.046652 -0.30668 -0.11063 0.17982 -0.20653 0.23195 -0.16862 -0.034176 0.073745 0.077406 -0.095448 0.061723 -0.33806 -0.035049 0.48835 -0.065759 -0.02906 -0.27006 -0.20594 0.17607 0.00035666 -0.22968 8.935e-05 -0.25809 -0.19397 -0.040623 0.052841 -0.53134 0.34299 0.13934 0.17497 0.21821 0.26356 -0.10457 0.082193 0.46232 0.17267 -0.14244 0.37186 -0.28699 -0.3398 -0.55719 0.21876 -0.069149 -0.5608 0.019653 -0.13018 -0.14295 0.10721 0.52678 -0.091241 -0.21636 -0.14608 0.096962 0.20646 -0.043354 -0.015348 -0.066451 0.02021 0.078998 -0.44345 -0.54353 -0.50282 -0.24754 0.12511 -0.043927 0.33143 0.23686 0.016187 0.10227 -0.18182 0.054024 -0.28265 0.33515 0.42395 -0.25229 0.090627 0.26828 0.55991 -0.17484 -0.30049 -0.029769 -0.13771 -0.35977 0.088941 0.064744 -0.23065 -0.36058 0.36238 -0.081372 -0.35119 0.17626 -0.10897 0.30931 0.013562 -0.26319 -0.38987 0.76922 -0.052484 0.12396 -0.025099 -0.15362 0.24644 0.070209 -0.13359 0.21999 0.65162 0.064858 -0.063091 0.37113 0.21479 -0.25381 0.31678 0.40506 0.046598 -0.41991 -0.22523 0.056909 0.029723 -0.42666 -0.39103 -0.27242 0.2088 -0.016698 0.18237 0.24971 0.19156 0.46436 0.42113 -0.20559 0.26115 -0.3453 0.15022 0.006585 0.24034 0.52512 -0.13409 0.20182 -0.39338 -0.37733 -0.83333 -0.28722 -0.64401 -0.081229 -0.36516 0.072131 0.13577 0.41241 0.26932 -0.57613 0.19556 0.07015 -0.18001 0.75167 -0.2665 0.058414 -0.50608 0.30539 0.10131 0.079895 -0.48352 0.010465 0.03258 -0.24764 0.42287 0.10542 -0.24016 -0.16672 0.21142 -0.47336 -0.06936 0.11009 -0.17291 -0.14814 0.013858 0.23428 -0.18013 0.62264 -0.16987 0.06843 -0.26745 -0.19394 0.17575 -0.58988 -0.30569 0.081074 0.17859 -0.34955 0.23893 -0.43641 -0.29839 -0.37301 0.26355 0.084528 0.062015 -0.34442 -0.36239 -0.081243 0.083534 0.26047 -0.3401 0.17735 0.27313 -0.12235 0.22459 
cranston -0.15001 -0.086332 -0.21624 -0.30914 0.39683 0.41906 -0.011689 0.013627 0.19396 0.52353 0.12334 -0.2582 0.10359 -0.13131 0.080141 0.12156 -0.45164 0.029949 0.076997 0.3307 -0.11414 0.13731 0.23094 0.40475 -0.54421 0.0072061 0.084943 0.17365 -0.49792 -0.10971 -0.36934 -0.16449 0.086437 -0.069347 0.016748 0.29577 -0.25968 -0.19368 -0.086639 -0.19879 -0.4974 -0.045169 0.1008 -0.11375 0.096236 -0.19953 0.45335 0.005179 -0.013054 -0.20345 0.2227 -0.14959 -0.062725 -0.16469 0.57839 0.2327 0.13833 0.13718 -0.17401 -0.21083 -0.023473 0.011778 -0.15055 0.083906 -0.060504 0.15609 -0.39586 -0.092354 0.024329 -0.22954 0.083351 -0.23623 0.10779 -0.13369 0.40932 -0.046291 0.40113 0.049915 -0.29302 -0.034611 -0.061197 -0.39522 -0.30093 -0.23651 0.0091571 0.43736 -0.059429 0.091476 -0.2808 -0.20246 -0.026588 -0.00083013 -0.13118 -0.031017 0.007727 -0.055715 -0.16249 -0.15857 0.18755 -0.45109 0.35256 -0.37655 -0.076561 0.29438 0.0080101 0.066333 -0.18787 -0.14553 0.18914 0.28505 -0.012748 0.045927 -0.2792 -0.23035 0.16532 -0.052223 -0.39603 0.10421 -0.39061 -0.24977 -0.067285 -0.31139 -0.37036 0.1082 -0.12344 0.12362 -0.1452 0.106 0.070942 -0.34161 0.27736 -0.23044 -0.2138 0.50488 -0.43365 -0.59211 -0.12855 0.047215 -0.19572 -0.058173 -0.18322 0.037356 -0.042974 0.046547 0.35202 -0.19176 0.177 0.11381 0.23504 0.34859 0.026431 0.14544 -0.18246 -0.010856 0.040649 -0.40041 0.12179 -0.16844 0.060774 0.39627 0.30506 -0.031174 0.14995 0.30157 0.0011269 0.051295 0.41624 0.096821 0.24596 -0.0024511 -0.34428 -0.2885 0.31534 0.26926 -0.46926 -0.46531 0.043009 -0.20312 0.098873 0.25189 0.013901 -0.051905 -0.23159 0.27836 0.27798 -0.36887 0.12258 0.63477 -0.18655 -0.10969 0.084464 -0.26364 0.41095 -0.40409 -0.13343 -0.17858 -0.022198 0.15142 -0.033448 -0.30968 0.011207 0.13453 0.26947 0.095647 -0.083814 -0.19136 -0.30493 0.085403 0.2304 -0.076017 -0.086032 -0.097375 0.17899 0.47163 -0.34151 -0.2179 -0.056758 -0.37741 0.56633 0.22382 -0.16556 0.12635 0.3891 -0.2564 -0.31595 0.01265 -0.21607 0.3499 0.10416 0.46109 0.21106 -0.049127 0.35494 -0.12829 -0.44553 -0.47273 -0.20405 -0.36694 0.32704 0.10614 0.50363 0.1334 -0.23539 0.015157 -0.077038 0.12311 0.28505 0.17246 0.19983 -0.44176 0.065636 -0.33843 0.33905 -0.18066 0.28651 -0.51305 0.016331 -0.00087745 -0.14706 0.25687 -0.15998 -0.13717 -0.17523 0.30112 0.23536 0.059431 0.18313 -0.12606 -0.23406 0.038424 0.2563 0.11015 0.57343 -0.18209 -0.0069695 0.047358 0.062063 0.54876 -0.29733 -0.16034 0.1436 0.24925 -0.1866 -0.037379 -0.38301 0.15595 0.11647 -0.26918 0.082485 0.12811 -0.1072 -0.37163 0.10611 0.13314 -0.044728 -0.097881 -0.039181 0.32343 0.15059 0.61097 
wilson 0.13433 -0.027569 -0.13933 0.089904 0.41621 -0.10142 0.11804 0.15344 0.11972 0.15345 0.063187 -0.116 -0.1177 -0.10233 -0.056174 0.094384 -0.21346 -0.02888 0.038776 -0.10077 0.066559 0.066594 -0.12373 0.037848 -0.31765 -0.063799 -0.035113 -0.14941 -0.03288 -0.13443 -0.36335 -0.060701 -0.038089 0.28257 0.19312 0.095539 0.13685 -0.27761 -0.053021 -0.1626 -0.11351 -0.1773 -0.0020297 -0.12359 0.13556 -0.31973 0.025228 -0.19847 0.11222 0.10086 0.086421 -0.1806 -0.18129 -0.35646 0.32305 0.56645 0.38911 0.28195 -0.35015 -0.053644 0.34712 -0.0036823 -0.0076988 0.12654 0.19323 0.18505 -0.15064 -0.14201 0.16446 -0.034428 0.17332 -0.12741 -0.030907 -0.077833 0.012969 -0.4052 0.25084 0.2339 -0.13991 0.17808 0.073079 -0.013882 -0.023436 -0.27141 0.22624 0.013554 -0.21584 -0.021437 0.025087 0.10708 -0.33013 0.026187 0.24774 0.014102 0.12697 -0.20421 -0.13508 0.13429 -0.18535 -0.25946 -0.0012615 -0.18764 0.14893 -0.025054 -0.23568 0.15689 -0.067368 -0.060373 -0.079049 0.18151 -0.23741 0.20084 -0.21272 -0.095478 0.1043 0.19904 -0.39865 0.15403 -0.17529 -0.0072385 0.34977 0.024783 -0.33879 0.039794 0.015841 0.13711 0.13975 0.16568 0.0023233 0.114 -0.13192 -0.17687 -0.061511 0.10645 -0.12143 -0.23842 0.17034 -0.24093 -0.22168 -0.015209 -0.1236 -0.0046731 0.17701 0.049474 0.056018 -0.089643 -0.022587 0.18449 -0.26219 -0.15791 0.17185 -0.34165 -0.16259 -0.33886 -0.1115 -0.079805 -0.11922 0.11169 0.31742 0.28677 0.24496 -0.29778 0.32838 0.070607 0.11777 0.23582 0.11614 -0.096179 0.11029 0.056295 -0.17209 -0.035299 0.31571 -0.10448 0.29767 -0.058311 0.19535 0.018686 -0.12722 -0.039973 0.22109 -0.35083 -0.23401 0.30616 0.17037 -0.38212 -0.25996 -0.02816 -0.23772 0.075341 0.015932 -0.030686 0.26099 -0.036194 -0.029622 -0.36693 -0.10717 0.11137 0.075693 -0.030358 0.00088461 0.15905 0.12576 0.015911 0.2835 0.084323 0.0076612 0.45632 0.066323 -0.06677 -0.12985 0.20745 -0.047406 0.15923 -0.10355 -0.061633 -0.19732 -0.13373 -0.018986 -0.0047107 -0.00067158 0.11391 0.16642 -0.11645 -0.038914 0.25064 0.21112 0.15837 0.062853 0.084169 0.29207 -0.028045 0.13913 -0.12255 -0.30601 -0.33315 -0.27717 -0.51825 -0.01802 0.37579 0.3234 -0.27683 -0.087738 0.17604 0.1243 0.21805 -0.16035 -0.033794 -0.055755 -0.051282 0.096713 -0.26482 -0.17554 -0.073943 0.25399 -0.050277 0.045893 -0.19702 0.15203 0.18813 -0.03031 -0.13921 0.2101 -0.093874 -0.16879 0.20357 -0.093844 -0.044584 -0.29801 -0.40899 0.21405 -0.1532 0.37548 -0.11503 0.041901 0.48267 -0.13478 0.32799 -0.30609 -0.16883 -0.16076 0.10765 -0.0084991 0.36037 0.18525 0.12793 0.097991 -0.21618 0.41606 0.51589 -0.30854 -0.19818 -0.24618 -0.023411 0.24273 -0.024115 0.029156 0.18139 0.091603 0.16067 
armstrong -0.35815 -0.069231 -0.22758 0.045874 0.43072 -0.3259 -0.098041 0.15276 0.14107 0.28507 0.10076 -0.089911 0.20545 -0.14398 0.033459 0.21058 0.45309 -0.084444 0.0092052 0.068438 0.049157 -0.11211 -0.0062728 0.059302 -0.18399 -0.036662 0.066292 -0.087557 0.028794 -0.16061 -0.10055 0.04323 -0.50796 0.036188 -0.072071 0.032025 0.10056 -0.13496 0.034296 -0.13902 -0.31184 0.3322 -0.25643 -0.25815 -0.069491 0.1125 0.021554 0.10434 -0.099513 -0.031821 -0.018994 -0.22362 -0.41697 0.19804 0.30244 0.12708 0.26841 0.28269 0.15466 0.13106 -0.079307 -0.22971 0.033024 0.077017 -0.087068 0.4485 -0.24513 -0.070432 -0.15894 0.18717 -0.38423 -0.1166 0.5833 -0.28613 0.45137 0.0439 0.21658 0.085688 -0.3376 0.16819 -0.0050042 0.064414 -0.1871 -0.33655 0.33313 0.24184 -0.19072 -0.007159 0.22906 0.020215 -0.2243 -0.11408 0.19593 -0.23599 0.0033738 0.025542 -0.1385 -0.0077368 -0.21437 0.077932 0.1674 -0.021621 -0.086103 -0.088161 -0.064158 -0.16416 0.012784 -0.42875 0.033065 -0.067445 -0.38977 0.14496 0.11962 -0.47907 -0.15963 -0.051604 -0.49638 -0.2152 -0.30614 0.020659 0.29888 -0.16288 -0.18721 0.397 0.062479 -0.1876 0.31956 -0.15398 -0.21001 -0.13405 0.045142 0.35412 -0.1367 0.080527 -0.2839 0.029399 0.11655 0.13381 -0.1282 0.11894 -0.050572 0.33103 0.024231 0.22229 0.12393 -0.042496 -0.31104 0.18846 -0.044669 -0.13806 -0.072511 -0.32572 0.062487 -0.45808 0.57606 -0.33445 -0.16516 -0.24681 0.4212 -0.018839 0.17472 -0.12604 -0.11413 0.0098148 0.091208 0.099661 0.12867 -0.072289 0.064673 -0.0031997 0.05167 0.49224 -0.082063 -0.027961 0.028301 -0.16886 0.038625 0.18332 0.0075385 0.34935 0.21449 -0.32404 -0.33525 0.050737 0.065959 -0.17738 -0.28103 0.36244 0.07738 -0.014978 -0.028553 0.12671 0.026369 -0.48104 0.078805 -0.082222 -0.2647 0.047055 -0.14957 0.24985 0.055181 0.25288 -0.11919 -0.12172 0.40957 -0.42859 0.067432 0.074088 0.22128 -0.038162 -0.0006873 -0.33932 0.094343 0.081569 -0.53735 -0.027932 -0.022417 0.15321 0.11215 0.070562 -0.050952 0.12573 -0.015205 -0.18712 0.26677 0.45001 -0.2618 0.24944 0.11295 0.026361 0.55191 0.1113 0.17245 0.10253 -0.019029 -0.23191 -0.30981 -0.42043 0.085545 0.15165 0.39108 -0.10471 -0.16274 0.074403 0.14483 0.31058 -0.26703 -0.058833 -0.12062 -0.12653 -0.15062 -0.18389 -0.39607 -0.038444 0.12898 -0.37056 0.46176 0.034469 -0.34891 0.12249 -0.15159 0.056669 -0.018583 0.076054 -0.1598 0.12105 -0.007297 -0.10554 -0.25946 -0.36312 0.053415 -0.25135 0.078968 -0.28118 -0.30071 0.24108 -0.059096 0.14247 -0.31923 0.1029 -0.10065 0.025801 -0.12327 -0.028395 0.02219 0.089122 0.35992 0.10211 0.15558 0.4607 0.022633 -0.10517 -0.039515 -0.31324 0.19431 -0.17423 0.30488 0.1276 0.13557 0.12538 
wirth -0.56868 -0.1603 -0.14813 0.0071626 -0.16453 0.17039 -0.129 0.11336 -0.20336 0.31612 -0.24811 -0.04886 -0.06176 0.11856 0.21311 -0.018459 -0.36519 -0.12362 -0.12174 0.16029 0.10818 0.13987 0.23663 -0.0067442 -0.45267 0.10699 0.068769 -0.12712 -0.19177 0.40603 -0.074338 0.12182 0.13542 0.41933 -0.37681 0.080575 -0.084967 -0.25506 -0.12288 -0.43319 -0.15054 0.067081 0.16817 -0.37656 -0.19013 0.2023 0.14212 0.14822 -0.43531 0.10206 0.0029483 0.16504 -0.36782 -0.27991 0.26902 0.12484 0.70288 0.27149 -0.22498 -0.39621 0.10785 0.24805 0.16342 0.079312 -0.20659 0.24224 -0.38142 0.23948 0.17175 0.0028705 -0.46397 0.21498 0.10249 0.11467 0.36924 0.20115 -0.038872 0.18071 -0.025699 0.031261 -0.13703 -0.46957 -0.25776 0.24114 0.086615 0.0016945 0.036497 0.037036 -0.22766 -0.11392 0.24311 -0.08727 0.20949 -0.070488 0.4304 0.014482 0.14912 -0.29149 -0.21702 -0.30289 0.23389 -0.24696 0.36519 0.11561 0.061858 -0.083625 -0.00090547 -0.45972 -0.069319 0.15497 -0.40764 0.030434 0.044295 -0.28424 -0.23441 0.0050787 -0.16374 -0.070691 -0.30341 -0.0080943 0.039324 -0.039578 -0.61737 0.42655 -0.055181 0.60267 0.27548 0.26618 -0.064444 -0.17308 0.018357 0.0523 -0.051324 0.049564 -0.49311 0.22105 -0.18204 0.12788 0.26378 -0.28882 -0.44148 0.2519 0.22746 0.47803 0.28082 -0.16152 -0.11231 0.045026 0.11278 0.37081 0.13598 -0.47863 0.0092494 0.028528 0.39461 -0.33996 0.21593 0.035672 0.33127 0.077534 -0.052508 0.166 0.19772 0.16293 0.16933 0.42441 0.096331 0.40735 -0.039296 0.045605 -0.1411 -0.12473 0.43804 0.55175 0.32969 -0.24773 0.23764 0.027371 0.10404 0.27095 0.051103 -0.64463 -0.07995 0.25532 0.10915 -0.44835 -0.18203 0.62689 -0.041055 -0.027332 -0.068335 -0.22357 0.084541 -0.10132 0.27597 -0.43141 -0.54312 0.20951 0.013801 -0.19811 0.11445 0.097786 0.0029518 -0.045842 0.30876 0.24385 -0.060312 0.018678 0.047481 0.068667 -0.12341 0.34071 -0.093428 0.49189 -0.37282 -0.16549 -0.22639 -0.27268 -0.044463 0.18394 0.58068 0.2087 0.55707 -0.04048 -0.07369 0.40727 -0.02422 0.60103 0.1553 0.44103 0.46651 0.466 0.4347 -0.3108 0.10428 -0.22712 0.054794 -0.32039 -0.14681 0.22935 0.6537 0.17846 0.26286 0.15667 -0.20808 -0.070155 -0.090323 0.49212 0.26904 -0.1128 -0.51399 -0.29855 -0.066478 -0.06836 0.22857 -0.27568 -0.096462 -0.20148 -0.49951 0.042433 -0.26419 -0.27208 -0.24589 -0.046446 0.05831 -0.098478 -0.11134 -0.32829 -0.26132 -0.15467 0.28893 0.045413 0.58673 -0.1612 -0.046568 0.13947 0.13813 0.23809 -0.56499 0.14215 0.14221 0.35365 0.0083323 0.20799 0.045926 0.10858 0.39826 -0.19019 -0.033785 0.47261 -0.15725 -0.18182 -0.084537 0.056304 -0.26436 -0.097278 0.16345 0.072234 0.34429 0.45551 
weicker 0.013794 -0.47245 -0.16052 -0.45256 -0.18846 -0.040925 -0.073812 0.3018 0.38942 0.14904 0.04526 -0.42174 0.16528 0.08428 -0.19634 0.31608 -0.62431 0.034407 -0.26692 0.17183 0.095108 -0.12468 0.0039042 -0.22684 -0.36459 -0.028622 -0.11186 -0.06256 -0.25214 0.11306 -0.17721 -0.072754 -0.55897 -0.25066 -0.42381 0.087226 0.0081762 -0.17434 0.24737 -0.34494 -0.6271 0.05798 -0.20375 -0.60199 -0.076686 -0.076129 -0.072372 -0.34107 0.073585 -0.23872 0.599 -0.33251 -0.2063 -0.12123 0.36391 0.34486 0.3078 0.088024 -0.074788 -0.0031152 0.053107 -0.2209 0.25213 0.098859 -0.1043 0.15375 -0.21341 -0.15294 -0.17023 -0.16551 -0.12629 -0.048786 -0.19009 -0.021632 -0.031846 0.62108 0.25487 0.051542 -0.29841 0.25229 -0.12428 -0.40698 -0.56766 -0.2567 0.11753 0.26603 0.1213 -0.36385 -0.43167 0.14311 -0.18758 -0.081236 -0.054099 -0.093053 -0.036913 -0.63052 -0.0049285 -0.56485 0.26623 -0.37503 0.67462 -0.29132 0.093491 -0.057012 -0.0028204 -0.32559 -0.37961 -0.22216 -0.056924 0.3477 -0.40137 0.2004 -0.24736 -0.19617 0.15009 -0.10374 -0.12462 0.63366 -0.39923 0.036178 -0.027615 -0.14285 -0.37575 -0.036735 0.096183 0.21809 -0.26207 -0.14968 -0.072163 -0.21406 0.15719 -0.29671 -0.037115 0.66342 -0.42572 -0.45384 -0.075125 -0.3794 -0.10398 -0.23029 0.05803 0.11768 0.3113 -0.079122 0.49062 0.001997 -0.12078 -0.027089 0.46681 0.40918 -0.34487 0.15745 0.28156 -0.45055 -0.015722 -0.33996 0.34033 -0.35768 0.27799 0.32578 0.33227 0.13758 -0.32276 -0.0074743 -0.11311 0.35444 0.037815 -0.33396 -0.081642 0.18119 -0.34623 -0.14377 0.068972 -0.098281 0.0095038 -0.050269 0.12305 0.28737 -0.25282 0.018045 0.021035 -0.24788 -0.4116 0.44046 -0.12435 -0.2749 -0.26644 0.059616 0.029919 0.13327 -0.048652 -0.25817 0.55698 -0.51789 -0.13255 -0.027644 -0.28675 0.29683 -0.12274 -0.29292 -0.18173 0.085102 0.12056 0.29701 0.32537 -0.48557 -0.56178 0.3018 0.42438 -0.17718 -0.093347 -0.22299 0.11531 0.49633 -0.3363 -0.26796 -0.4443 -0.14573 0.069777 0.31403 0.10603 0.32471 -0.011424 0.21735 -0.1858 0.46001 0.036837 0.5597 0.25444 -0.1927 0.34085 -0.12549 0.12599 -0.72411 -0.38148 -0.32989 -0.12626 -0.20416 0.16522 0.012373 0.44 -0.040833 -0.25233 -0.20579 -0.044057 0.096644 -0.011137 -0.23724 0.34487 -0.52299 0.10894 -0.17154 -0.43155 0.3155 0.16633 -0.56293 -0.19312 0.12003 -0.42999 0.43894 -0.20562 -0.23444 -0.3301 0.0018848 0.14692 -0.097777 0.19602 0.016753 -0.15709 -0.097374 0.20213 -0.088204 0.53745 -0.11594 0.043822 0.23454 -0.22727 0.53644 -0.60099 0.11139 -0.10177 0.25847 -0.15223 -0.2654 -0.07992 0.16925 -0.17827 0.049836 0.69768 0.23771 -0.10697 -0.58779 -0.20191 -0.050388 -0.42605 -0.39036 -0.047254 0.11692 -0.0069269 0.36289 
dodd -0.16163 -0.17751 -0.07133 -0.45995 -0.11421 -0.082096 -0.072727 0.22931 0.081861 0.42599 0.00014495 -0.60486 0.29425 -0.13325 0.037781 0.16977 -0.4137 -0.1282 -0.00056701 -0.030156 0.097958 0.028139 -0.10453 0.14894 -0.35395 -0.064874 -0.074634 -0.075664 -0.31252 0.15777 -0.016454 -0.03454 0.13006 0.11221 -0.1748 0.16008 -0.035494 -0.051157 -0.16165 -0.14928 -0.29232 0.13257 -0.19771 -0.27802 -0.30701 -0.009669 -0.047914 -0.3178 -0.10215 -0.27939 0.17369 -0.11115 -0.080301 -0.35891 0.16074 0.020352 0.032734 0.18056 -0.15561 -0.063374 -0.44272 -0.2094 0.28814 0.22352 -0.12814 0.16919 -0.10823 -0.050603 0.30232 -0.31322 -0.057481 0.16282 0.14937 0.097021 0.37423 0.19924 0.094095 0.11322 -0.010256 -0.23046 0.020423 -0.77475 -0.09259 0.27815 0.40643 0.14101 -0.11128 -0.028635 -0.20215 0.19015 -0.01443 0.073332 0.29646 -0.35804 0.32799 -0.30659 0.34558 -0.41926 -0.016515 -0.99799 0.33617 -0.40823 -0.018551 0.16628 -0.074665 0.0016171 -0.32226 -0.11016 -0.45197 0.18538 -0.65998 0.02381 -0.125 -0.56029 0.30498 -0.027649 -0.33739 0.11171 -0.11859 -0.15814 -0.088763 -0.552 -0.37988 0.26159 0.010787 -0.26971 0.14851 -0.20924 -0.15602 0.13697 0.22504 -0.0055206 -0.08913 0.47687 -0.39833 -0.31523 -0.14184 0.033595 -0.22156 -0.11749 0.17671 0.063975 -0.0099622 -0.25168 0.24553 -0.16073 0.097165 0.31273 -0.013901 -0.11382 0.045353 -0.2795 0.13435 -0.010883 0.39854 -0.20896 0.054738 -0.16931 -0.052434 0.10104 0.23967 0.20488 -0.020792 -0.10318 -0.082531 0.15669 -0.056416 -0.031727 -0.31387 0.25988 -0.11653 -0.030317 0.038196 -0.024052 0.089553 -0.32801 0.2219 0.063693 -0.27364 -0.1286 -0.044601 -0.31523 -0.16054 0.70211 0.2193 -0.10697 0.14953 0.02575 0.059785 0.21041 -0.17477 0.078106 0.38417 -0.13523 0.02379 -0.11911 -0.10064 0.31535 -0.30394 -0.32986 0.2841 -0.020246 -0.28974 0.10807 0.095688 0.14806 0.06947 0.026418 0.079021 0.14271 -0.02227 -0.030168 -0.14688 0.38632 -0.48521 -0.070702 -0.02843 0.21561 0.22259 0.48982 -0.056968 0.048866 0.23381 0.14401 -0.11056 0.029444 0.017304 0.37972 -0.086626 0.34033 0.48255 -0.11533 0.41238 -0.060718 -0.40327 -0.056514 -0.15321 -0.26004 -0.31639 -0.016637 0.32938 -0.18601 0.11137 -0.2427 -0.15003 0.32651 0.29697 0.025021 0.57946 -0.042035 0.068397 -0.34303 -0.14428 0.0090498 0.23149 -0.25136 0.13412 -0.069375 -0.29778 0.004294 -0.33796 -0.077631 -0.2246 -0.11587 0.18803 -0.19667 0.22357 -0.22815 0.073007 -0.025448 0.15369 0.099412 0.3138 -0.46227 -0.059452 -0.026779 0.021999 0.56607 -0.72515 0.14331 0.17951 0.0776 -0.1423 -0.33729 -0.21106 0.096707 -0.14 0.27624 -0.022266 0.27827 -0.096864 -0.18013 0.086607 0.12425 -0.14796 -0.2738 -0.26956 0.1302 -0.15493 0.6374 
roth -0.064718 -0.15482 -0.12129 0.095852 0.23124 0.08134 0.075696 -0.092879 -0.33186 0.55354 -0.27968 0.11255 0.0067001 0.030013 -0.14488 -0.027758 -0.25221 -0.22237 0.19647 -0.012891 0.19983 0.040924 0.14777 0.021599 -0.38575 -0.056999 0.017157 -0.47578 -0.091604 0.24974 0.19502 0.32233 -0.21777 -0.12574 -0.13397 -0.12864 -0.010298 -0.21857 -0.28476 -0.11609 -0.34068 0.097444 -0.13326 0.034061 -0.12881 -0.11269 -0.071269 -0.538 -0.030367 -0.20184 0.57509 -0.098101 -0.0062912 -0.034287 0.46885 0.31417 0.2113 -0.12054 -0.070135 -0.30909 0.30051 -0.23282 0.0073041 0.36065 0.068522 0.25411 -0.12211 0.13801 -0.37224 -0.0093317 -0.31059 0.45333 -0.25392 0.10364 0.35676 0.14764 0.1257 0.22723 -0.17357 0.33847 0.10085 0.045755 -0.15487 -0.30312 -0.40688 0.39729 -0.022517 -0.028728 -0.062409 0.25279 0.032144 0.1234 -0.025345 0.027113 0.16323 0.01139 -0.36272 -0.2762 0.12273 0.17273 0.22359 -0.32251 0.058578 -0.24441 -0.21646 -0.18604 0.016772 -0.33911 -0.10156 0.046986 -0.22084 -0.060637 -0.40826 -0.33234 0.3443 0.27515 -0.2335 0.12292 0.1755 0.26845 -0.0060862 -0.10322 -0.35542 -0.095514 0.051413 0.14811 -0.0055244 0.097704 -0.38534 -0.065529 0.038402 0.2065 0.15936 0.37879 -0.34275 0.05519 -0.46826 -0.24154 0.099202 -0.16369 -0.1986 0.26789 0.071678 -0.16446 0.21402 -0.41704 0.26971 0.061935 0.019998 -0.18218 0.042809 -0.2125 0.061614 -0.32649 0.35917 -0.36985 0.07143 -0.3481 0.24677 0.17455 0.0019238 0.038567 -0.042182 -0.025964 0.048746 0.060837 0.016538 -0.37873 -0.14368 -0.21987 0.24483 -0.1679 0.18909 -0.16176 -0.12173 -0.38796 0.0192 0.19295 -0.39154 0.23267 0.32288 -0.10993 -0.208 0.21631 -0.10655 -0.10919 -0.56624 -0.075479 0.17007 -0.26346 -0.80563 0.21426 0.18193 -0.29767 0.14519 -0.15522 0.22145 -0.034898 0.034129 0.18995 0.11785 0.19449 -0.078955 0.29298 0.052507 -0.11773 -0.37689 0.24711 0.3229 0.0070537 -0.0053492 0.28343 0.044199 -0.23171 -0.29213 -0.27057 -0.13395 0.37303 0.011545 0.07857 0.18782 0.39935 0.35262 0.049055 -0.03677 0.17561 0.12363 0.1874 0.13666 0.036923 0.35755 0.028764 0.37555 -0.37615 -0.032635 -0.25558 0.17609 -0.28838 0.43727 0.45939 -0.19744 -0.079745 0.21347 0.17716 -0.32355 -0.0023947 0.02557 0.034134 0.087296 -0.26262 -0.033922 -0.32284 -0.42768 0.12556 -0.15656 -0.11571 0.060696 -0.20904 -0.3882 0.11887 -0.18226 -0.12002 -0.42375 0.18406 -0.3634 -0.15816 0.371 -0.026092 -0.086308 -0.237 0.217 0.21683 0.29098 -0.54504 -0.13148 -0.24645 0.034446 0.55464 -0.51663 0.56975 -0.02589 0.26836 -0.44379 -0.17399 0.32822 0.13318 0.073578 0.30511 0.078563 0.28324 0.32522 -0.30501 -0.06121 -0.25597 -0.17585 -0.065068 0.17863 0.14611 0.27914 0.19833 
biden -0.057116 -0.026423 0.017886 -0.23186 0.18202 -0.2811 -0.11047 0.16499 -0.33028 0.29592 0.039922 -0.1309 0.067406 0.29866 -0.28541 0.069695 -0.059826 -0.1266 0.22897 0.19399 -0.067786 -0.268 -0.10737 0.19054 -0.54862 0.11648 -0.099767 -0.27153 -0.36039 0.050981 0.092161 0.039763 -0.049564 0.063596 -0.43828 0.024068 0.11602 -0.23075 0.063669 -0.47637 -0.33028 -0.13658 0.36919 -0.26943 -0.53512 0.17512 0.080145 -0.72217 0.063685 -0.42508 0.33298 -0.36471 -0.36919 -0.3487 0.087888 0.095688 0.17105 0.37135 -0.25262 -0.48776 0.10648 -0.28325 0.25049 0.15964 -0.28556 0.30204 -0.23822 0.30646 0.32133 -0.14048 -0.0081573 0.076529 0.0020641 0.021582 0.12551 0.22424 0.033822 0.079499 0.12737 0.013877 -0.0074261 0.07753 -0.15829 -0.14941 0.21111 -0.038495 -0.056933 0.0091007 0.049428 0.12544 0.2217 0.19617 0.40703 -0.10686 0.1886 -0.18315 -0.1627 -0.28041 0.17222 -0.42932 0.28741 -0.39402 -0.0032141 -0.13525 -0.19793 -0.070729 -0.22612 0.1126 0.042752 0.23058 -0.58229 0.11387 -0.29571 -0.29889 0.27837 0.013554 0.074283 0.35248 -0.25161 0.16263 0.37484 -0.25216 -0.26409 -0.070959 0.026418 -0.13847 -0.038666 0.17307 -0.29061 0.282 0.039665 -0.40338 -0.11092 0.31746 -0.31243 0.16943 -0.41015 0.16041 -0.45403 -0.33713 0.12588 -0.014555 -0.019617 -0.15597 0.07188 -0.1976 0.098143 0.63019 -0.10444 -0.10161 -0.27182 0.097785 0.50815 -0.056419 0.35263 0.11635 -0.073253 -0.11737 0.24069 0.063607 0.11653 -0.02217 0.12379 -0.022129 0.011601 -0.023687 -0.20474 0.014228 -0.18573 0.079234 -0.10527 -0.19231 0.24353 -0.089681 -0.25096 -0.22299 0.16434 0.24103 -0.12845 -0.04113 -0.025826 -0.14308 -0.16799 0.19978 0.13336 0.030101 -0.034453 -0.069533 0.022882 -0.0028774 -0.057023 -0.12801 0.55017 -0.046124 -0.14408 -0.046693 -0.36219 0.30487 -0.059537 0.11463 0.28141 0.10293 -0.073736 0.021627 0.20743 -0.10475 -0.03537 -0.11689 0.045242 0.21928 -0.034196 0.23762 0.29549 0.050226 -0.38516 -0.65205 -0.29489 0.66179 -0.15144 -0.04316 0.11073 -0.010202 0.21987 -0.053534 -0.10177 0.22084 -0.0014924 0.32961 0.037572 0.5147 0.25406 0.015372 0.41019 -0.2985 -0.33444 -0.068395 0.024084 -0.19077 0.23373 0.013536 -0.038947 0.00041072 0.17236 -0.066395 -0.1906 0.29225 0.25823 -0.33276 0.40693 -0.33803 0.16859 -0.28948 -0.26072 0.071051 0.17522 -0.35711 0.20047 0.34949 -0.075738 -0.18456 -0.18033 0.037634 -0.073013 -0.067433 0.075644 0.12314 0.11343 0.014749 0.049839 -0.050363 0.44506 0.037864 0.24422 -0.22165 0.07532 0.1545 0.12261 0.23896 -0.59548 0.18178 -0.059383 0.17174 -0.098498 -0.37733 -0.056014 0.064459 -0.292 0.034242 0.034872 -0.098684 -0.076135 -0.30696 -0.33099 -0.075346 -0.14295 -0.17661 -0.22993 0.31959 -0.012081 0.1736 
chiles 0.2246 -0.62181 -0.13771 -0.13906 -0.09465 0.18191 0.20608 0.17742 0.24828 0.46353 0.017968 -0.22949 0.33614 0.5994 0.037135 0.31136 -0.49057 -0.1429 0.032549 0.11199 0.1201 0.33241 -0.14013 0.37801 -0.39797 -0.046677 -0.14672 -0.13206 -0.33549 -0.083066 -0.044972 0.40588 -0.16265 0.086189 -0.04919 0.304 -0.17763 -0.17783 0.0053641 -0.098593 -0.4846 0.46342 0.31596 -0.68634 0.061846 -0.078234 -0.2049 -0.10715 -0.0021166 -0.087596 0.25999 -0.20364 -0.52455 -0.09771 0.39061 0.49771 0.28837 0.054869 -0.093129 -0.15936 -0.051456 0.11512 0.18052 0.40049 -0.028365 0.37172 -0.22146 -0.00050419 -0.015092 -0.46766 -0.13468 -0.32564 0.29055 -0.1083 0.15265 -0.0678 0.22475 -0.062545 0.087592 0.2165 0.18986 -0.26529 -0.086148 0.048339 0.055467 0.13634 -0.3854 -0.020413 -0.39241 -0.0042083 0.029402 -0.43162 -0.064318 0.026506 -0.41116 -0.099719 -0.10485 0.037036 0.24098 -0.31588 0.34343 -0.30298 0.38577 0.3027 0.043276 0.23979 -0.2138 0.027868 0.10235 0.36136 0.090404 -0.083639 -0.10167 -0.49009 -0.12502 0.00087171 -0.048588 0.52134 -0.37231 0.043834 -0.1434 -0.18497 -0.47347 0.048719 -0.41715 0.021413 0.0087397 0.026323 -0.1465 0.25103 0.095893 0.074954 0.098306 0.17285 -0.34081 0.035203 -0.16184 0.10964 0.051572 -0.029413 0.50036 0.14651 0.15095 -0.11877 0.47216 0.0079689 -0.051929 0.033006 0.095474 -0.062695 0.17116 -0.15259 -0.12832 0.17026 -0.024173 -0.39286 0.25224 -0.16592 0.098038 0.28854 0.69241 -0.11626 0.029132 -0.072294 0.29568 0.2611 0.12917 -0.10059 0.20855 0.059575 0.069799 0.062078 0.31681 0.071655 -0.11364 -0.39228 0.46627 -0.027961 0.079975 0.047265 0.081255 0.22702 -0.10688 0.32722 0.32875 -0.36642 -0.14262 0.37763 -0.3701 -0.3824 -0.18759 -0.28348 0.43714 -0.63487 0.00069518 0.13911 -0.23238 0.24904 -0.02572 -0.22684 -0.14516 0.055051 0.29534 -0.12545 0.17954 -0.30087 -0.48509 0.34722 -0.075553 -0.018812 -0.026752 0.065947 0.097766 0.36367 -0.37148 0.17363 -0.39934 0.15872 0.17417 0.20252 -0.046998 -0.20717 0.43139 0.035896 -0.1723 0.30321 -0.46721 0.27933 0.033253 -0.23937 0.36011 0.17826 0.37938 -0.57757 -0.24485 -0.6507 -0.11334 -0.51429 0.024671 -0.11871 0.34549 -0.0038751 -0.54648 0.38429 -0.22021 0.32932 -0.050428 -0.03542 0.29283 -0.054265 0.30702 -0.32064 0.21353 -0.031523 -0.054101 -0.64767 0.042089 -0.091177 -0.19235 0.43785 -0.18371 -0.20683 -0.13008 -0.37927 0.14601 0.13326 0.25127 0.25397 0.17841 -0.18251 0.011577 -0.20333 0.13424 -0.14425 0.36194 0.19466 -0.12028 0.37764 -0.11219 -0.52867 -0.017977 0.1809 -0.22929 0.045377 0.28225 0.061063 0.083347 0.034238 0.1817 0.16356 -0.21502 -0.32817 0.041097 0.073067 0.0021029 0.10191 0.21873 0.43297 -0.017846 0.28486 
graham 0.031844 0.073358 -0.18548 0.097546 0.33583 0.069303 0.0081547 -0.080387 -0.072208 0.1965 -0.21037 -0.15328 0.18271 0.10063 -0.010525 0.064956 -0.16267 -0.28531 -0.030195 -0.12234 0.029634 0.10012 -0.28071 0.085693 -0.30309 -0.12665 -0.19064 -0.41405 0.019783 -0.11664 0.16788 0.64888 -0.11202 0.0098779 -0.012588 -0.20186 -0.19828 -0.094627 -0.2369 -0.083912 -0.24512 0.23809 -0.2951 -0.20688 -0.15355 0.11117 -0.14664 -0.22998 -0.072684 0.22795 0.23385 -0.084408 -0.29405 -0.034751 0.2946 0.19255 -0.10033 0.17805 -0.18254 0.11133 -0.03758 -0.038243 -0.017632 0.51493 -0.19119 0.35015 -0.10772 0.26143 0.30601 -0.035785 -0.19075 -0.39735 0.17006 -0.17099 0.0267 -0.11046 0.2616 0.14023 -0.041119 -0.013485 -0.0084346 0.071531 0.10255 0.30217 0.35062 -0.12248 -0.24802 -0.026594 0.20704 0.35498 -0.084098 -0.12794 0.10255 -0.19093 0.057414 0.15355 -0.034503 0.048311 -0.040906 -0.020114 0.32434 -0.15603 0.14984 -0.034796 -0.34726 0.23866 -0.11887 -0.081714 -0.083786 -0.17403 -0.24234 -0.15845 -0.15756 -0.32093 -0.22354 0.10863 -0.014833 -0.024735 -0.23935 -0.076168 -0.020016 -0.10966 -0.43899 -0.0045391 -0.011107 0.09476 0.085335 -0.12749 -0.17274 0.11798 0.0033434 0.32479 -0.24217 0.47786 0.059313 0.036697 -0.15424 -0.031619 -0.079683 0.09808 0.23969 -0.13139 -0.078251 -0.41343 0.096708 -0.057981 -0.22598 0.29612 -0.014757 0.054938 -0.084213 -0.083488 0.19469 -0.14825 0.19297 -0.16634 -0.038689 -0.13275 -0.17794 0.01662 0.36012 -0.1598 0.19462 -0.039366 0.068969 0.22097 0.17141 0.051732 -0.038884 -0.12142 0.01726 0.01947 0.056023 0.087499 0.091525 0.12562 0.17612 -0.068702 -0.21964 -0.13303 0.065545 -0.073732 -0.3157 0.051158 0.26583 -0.16934 -0.26213 0.019469 -0.21102 -0.065199 -0.24079 -0.1566 0.30986 -0.097991 0.23369 -0.09665 0.0069952 0.16073 -0.2435 -0.33636 -0.099201 0.10501 -0.17805 -0.33617 0.16801 0.0066929 -0.1842 0.14373 0.22363 0.10508 -0.0052042 -0.12225 0.14109 0.24865 -0.10414 -0.36118 -0.21754 0.20872 0.086705 -0.011456 0.058791 0.027505 0.040179 0.15546 -0.050522 -0.034352 0.090745 0.2993 -0.13423 0.0085675 0.40243 -0.020489 0.023789 -0.41801 0.3317 -0.15703 -0.11982 -0.22376 0.29034 0.3006 0.2752 -0.10487 -0.13444 0.076887 -0.17143 0.062638 -0.0029057 0.15559 0.054163 -0.3195 0.36302 -0.17378 -0.059096 -0.028682 0.033851 -0.11378 0.29685 0.13948 -0.1691 0.16678 -0.22789 -0.20201 -0.15175 0.0063114 0.025143 0.30265 0.2855 -0.17303 -0.21759 -0.21352 0.56201 -0.07876 0.30417 -0.40345 0.10742 0.14029 0.059676 0.19738 -0.48995 0.057981 0.075823 0.30744 -0.20028 0.042822 -0.038352 -0.1116 0.11741 -0.023589 0.0073643 -0.011642 -0.12567 -0.49588 0.081391 -0.24051 0.10064 -0.15867 -0.12173 0.34026 0.21302 0.16516 
nunn -0.17826 -0.12847 -0.040475 -0.13585 -0.065269 -0.05431 0.016603 0.39322 0.25324 0.66642 -0.39564 -0.19343 -0.22101 0.12515 -0.52278 0.14316 -0.14469 -0.21486 0.25472 -0.093863 -0.014405 0.21075 0.089365 0.18814 -0.2858 -0.34805 0.39342 -0.13924 -0.2029 -0.02611 -0.070266 0.43098 0.011058 -0.11519 -0.32425 0.055299 -0.087945 -0.28461 -0.38009 0.022853 -0.21948 0.21117 0.10784 -0.52657 -0.25307 0.10826 0.035973 -0.41314 -0.27445 -0.30557 0.38227 -0.54409 -0.52628 -0.1166 0.77781 0.11231 0.093344 0.094079 -0.1774 -0.1705 -0.17315 0.17733 0.3925 -0.10431 -0.35305 0.35946 -0.31516 0.26285 -0.073684 -0.20213 0.092875 -0.0062832 0.040938 -0.33346 0.028215 -0.065879 0.063254 0.40079 0.1602 -0.053197 -0.043053 -0.45269 -0.41143 -0.062266 0.17835 -0.013666 -0.00046105 0.16211 -0.18493 -0.051623 0.14448 0.2078 0.096016 0.15226 -0.010883 0.40295 0.28992 -0.18588 0.39866 -0.10223 0.74418 -0.1793 -0.19919 0.12007 0.16816 0.060129 -0.21745 -0.2888 0.13077 0.11392 -0.28092 -0.14883 -0.50799 -0.32575 -0.030949 -0.11392 -0.20591 0.39658 -0.33537 -0.20594 0.082522 -0.047939 -0.30463 -0.0018176 0.19258 0.11147 -0.043581 -0.17488 -0.17249 -0.21582 0.020828 -0.2324 -0.031645 0.11298 -0.013563 0.032431 -0.088039 -0.081475 -0.01094 -0.50758 0.33431 0.2675 -0.55168 -0.16046 0.13114 -0.16608 -0.30293 0.2165 0.21805 0.2127 0.22157 0.0030585 -0.066619 -0.020121 -0.12717 -0.16482 -0.095682 -0.18748 0.19817 0.17128 0.11681 -0.18024 0.23954 0.083309 0.23188 0.1946 0.37645 -0.36109 0.15701 0.23616 -0.23121 -0.075973 0.25879 0.10782 0.21537 -0.23862 -0.0068659 0.21579 -0.15536 0.04655 -0.09728 0.3007 -0.13487 0.46678 -0.085239 -0.18561 -0.3093 0.15976 -0.090124 0.14832 -0.31171 0.14011 0.41265 -0.23053 0.041183 0.19835 0.073725 0.31253 -0.19362 -0.17461 0.32529 0.07477 0.025691 -0.10467 0.5313 0.18802 -0.30593 0.52128 0.31808 0.28438 -0.45708 0.27836 0.104 0.19903 -0.080015 -0.57978 -0.30268 0.12943 0.11577 0.0011229 -0.10313 -0.045804 0.3793 -0.15741 0.20401 0.20246 -0.23052 0.16533 0.20865 0.15994 0.93005 0.25811 0.31746 -0.58397 0.0014635 -0.18289 -0.010393 -0.36542 0.10886 0.019054 0.049485 0.26313 0.1785 -0.10826 -0.013134 0.11944 0.065264 0.21745 0.24143 0.011637 0.040643 -0.09283 -0.11123 0.077589 -0.017075 -0.54842 -0.066023 0.093995 -0.43394 0.2174 -0.33844 -0.42033 -0.010499 0.49397 0.067464 -0.1688 0.10096 0.071533 0.22198 0.039964 0.33638 -0.36329 0.66539 -0.057537 -0.17241 0.13577 0.24417 0.1755 -0.22283 -0.16835 -0.16241 0.31374 -0.067646 0.1246 -0.26339 -0.1496 0.22384 -0.066803 0.27928 0.068883 -0.20298 -0.51041 0.001515 -0.23316 0.047386 0.19547 0.30728 0.31162 0.10856 0.37296 
fowler -0.42961 0.35128 -0.25236 -0.33253 0.119 0.19958 0.086515 0.085459 0.08218 0.18035 -0.3873 -0.30578 -0.14732 0.071624 -0.045751 0.022354 -0.12571 -0.23354 0.0482 0.21749 -0.20676 0.1192 -0.076944 0.20515 -0.19062 -0.066729 0.13206 -0.14118 -0.075133 0.115 0.044165 0.49069 -0.0095812 0.46765 -0.050694 0.37705 0.15901 -0.074085 -0.15804 -0.012728 -0.087973 0.40705 -0.056359 -0.30468 0.095485 -0.09916 0.1048 -0.1418 -0.31308 0.11461 0.33686 -0.24679 -0.22246 0.10204 0.4393 -0.2283 0.43353 -0.13593 -0.42166 -0.28091 0.060481 0.0034931 0.36529 0.10743 -0.34236 0.45944 -0.14869 -0.17217 0.072994 0.32789 0.13338 0.25287 0.094767 -0.22222 0.12857 -0.23831 0.048929 0.29799 -0.051084 0.27566 -0.10609 -0.30003 -0.16871 -0.18843 0.12333 0.062878 -0.09614 0.055376 0.33933 0.067301 -0.1143 -0.14332 0.10774 -0.077758 -0.13291 0.11405 0.28312 -0.015451 -0.15795 0.030798 0.35783 -0.4848 -0.040431 0.18106 -0.26595 0.15679 -0.090856 -0.010913 0.023895 0.011744 -0.21085 -0.15998 0.098567 -0.25491 -0.1151 -0.054297 -0.44776 0.22278 -0.35957 0.017055 0.13866 -0.12411 -0.17236 0.26144 -0.051919 0.027647 -0.012077 -0.040996 -0.1228 -0.26334 0.044429 -0.028199 -0.38474 -0.071439 -0.47844 -0.078805 -0.28439 0.094925 -0.37141 -0.15999 0.0041076 -0.049708 0.19146 -0.28755 0.049849 -0.2121 -0.02571 0.10866 -0.38781 0.076236 0.1483 0.099143 0.10356 0.077186 0.37546 -0.18949 -0.17015 0.012879 0.29682 0.029137 0.53805 0.027562 0.31057 -0.19618 0.054134 -0.017926 0.34278 -0.22235 0.2173 0.26784 -0.11143 0.12999 0.13355 0.285 0.15928 -0.41031 0.13312 0.027873 0.12959 -0.095132 0.10686 -0.2434 0.046679 0.10352 0.096128 -0.13713 0.06119 -0.035951 -0.0026373 -0.053856 0.037385 -0.014636 0.17277 0.12053 0.14596 -0.22647 0.039624 0.079318 -0.30581 -0.19366 0.11939 0.20967 0.49176 -0.077037 0.22673 -0.045482 -0.25916 0.2235 0.041653 -0.26963 0.44448 -0.44109 -0.36461 0.16744 -0.23691 -0.23116 -0.22751 0.28314 0.21979 0.050225 -0.058404 0.016961 0.033924 -0.030855 -0.21686 -0.050199 -0.045431 0.30999 -0.14196 0.4684 0.43734 0.1282 0.2267 0.0085214 0.3552 -0.32014 0.13944 -0.18914 0.065539 0.24411 0.26581 -0.15887 -0.063219 0.176 -0.14707 0.37336 0.24802 0.24726 0.092678 -0.30728 -0.043295 -0.31251 -0.21584 -0.1354 -0.098651 -0.35978 0.13957 -0.061607 -0.16347 0.12977 -0.20051 -0.13548 -0.15758 0.25046 -0.13854 0.32636 -0.14961 0.23632 -0.16697 -0.086228 0.19122 -0.10094 0.40929 -0.017611 -0.071179 0.45889 0.35757 0.59448 -0.28761 -0.17363 0.061054 0.16726 0.04211 0.37992 0.11609 -0.15233 -0.068127 0.037608 0.14764 0.17933 -0.16283 -0.51642 -0.10524 0.10478 0.085993 -0.31258 0.030954 0.292 0.077667 0.22703 
inouye -0.22009 -0.10915 -0.22449 -0.1683 -0.24473 -0.093304 0.19503 0.16847 -0.1688 0.41662 0.089998 -0.082324 -0.24124 -0.10404 0.02947 0.27735 -0.087458 0.098358 0.24312 -0.11605 -0.29729 0.19091 0.017555 0.088139 -0.071947 0.15237 0.15637 0.28534 -0.27546 0.12541 -0.32832 0.16945 -0.19965 -0.78557 0.1809 0.37072 -0.0059909 -0.1601 -0.46263 -0.036363 -0.27046 -0.13226 -0.12178 -0.47374 -0.23484 -0.32596 0.024083 -0.62716 -0.029942 -0.50985 0.40478 -0.2871 -0.46286 0.46965 0.7045 0.0011094 0.2185 -0.0070979 -0.063541 -0.25643 -0.48042 -0.12051 -0.16785 0.10514 0.11093 0.11902 -0.77699 0.27605 0.13073 -0.2442 -0.13108 -0.26962 0.15701 0.30268 0.027147 -0.34596 0.21157 0.15395 -0.2059 -0.3096 -0.11869 -0.42935 -0.32699 0.033566 0.30807 0.43157 -0.17932 0.26724 -0.21922 0.28437 0.0023673 0.21347 -0.085186 0.19585 0.60804 -0.1344 0.14937 -0.55062 -0.037038 -0.26205 0.40898 -0.65291 -0.7687 -0.15795 0.031696 -0.12647 -0.34986 -0.53529 0.26603 0.21663 -0.056625 0.12368 0.09433 -0.16055 -0.18338 0.21002 -0.085783 0.75523 -0.37207 -0.26796 -0.25121 -0.23573 -0.35745 -0.020363 0.25487 -0.1005 0.094931 -0.13921 0.058279 -0.48577 0.38223 -0.18787 -0.28988 0.65059 -0.24605 -0.32014 -0.38425 0.11911 -0.011587 -0.37414 0.057947 0.1984 -0.35496 -0.050047 -0.1546 0.030839 -0.57205 0.35109 0.30043 0.052721 -0.101 -0.38295 -0.0017381 0.016424 -0.013441 -0.51959 0.06582 -0.32496 0.40906 -0.068868 0.47849 -0.083064 0.16122 -0.10346 -0.24063 0.20926 0.048194 -0.061034 0.29222 0.32026 -0.052526 0.17609 -0.097166 0.013917 0.062568 -0.45007 0.31114 0.051715 -0.37525 0.44897 -0.16249 -0.058167 -0.29381 0.40824 0.23362 -0.68134 -0.0021723 0.42463 0.080509 0.18889 -0.0014145 -0.22827 0.35041 -0.39585 0.021147 0.080618 0.16674 0.35838 -0.23631 -0.063411 -0.055884 0.41042 -0.044096 -0.034504 0.15605 -0.12987 -0.014123 0.19694 0.39422 0.1085 0.0653 -0.083304 0.0069287 0.34658 -0.31433 -0.62813 0.0273 -0.19226 0.26646 0.40689 -0.0036841 -0.12176 0.58111 -0.1154 -0.12984 0.42183 -0.63647 0.10132 0.37316 0.096664 0.42492 -0.083016 0.23141 -0.39417 -0.27299 -0.49763 -0.34177 -0.67237 0.16348 -0.31893 0.27802 -0.16455 -0.15908 0.62278 0.2598 0.33024 0.039966 -0.034394 0.15433 -0.34945 0.12785 -0.2204 -0.014317 0.08033 0.21537 -0.61085 0.16716 0.10782 -0.69081 -0.17887 -0.24935 0.083893 -0.21923 0.17607 0.037987 0.1043 -0.048275 0.2457 0.39661 0.088987 0.51643 0.19906 0.669 -0.28137 0.09523 0.15267 0.18079 0.44548 -0.16815 -0.1039 -0.054515 0.10515 -0.24084 -0.069823 -0.067904 0.33664 0.093667 -0.04641 -0.29309 -0.15066 -0.092618 -0.67097 0.19345 0.051724 0.028335 -0.22792 0.23443 0.54222 -0.23929 0.16609 
matsunaga -0.12704 -0.15251 -0.35172 -0.087851 -0.50834 -0.21696 0.42013 0.20445 -0.12435 0.24654 0.14915 -0.39035 0.14829 0.031936 0.52746 -0.05284 -0.38046 -0.012395 0.38459 0.079677 -0.40308 0.39776 0.33259 -0.020181 0.29942 -0.11719 0.041808 0.060684 -0.49291 0.98522 -0.47525 -0.19757 -0.051368 -0.15568 -0.44937 0.18484 -0.17892 -0.15331 -0.55118 -0.15409 0.078057 -0.51407 0.0088866 -0.0909 -0.27922 -0.36355 -0.013299 -0.45961 -0.10174 -0.47296 0.47188 -0.18585 -0.71081 -0.31886 0.32307 -0.12468 1.0381 0.28572 -0.34035 -0.097799 -0.36462 -0.2039 -0.54593 0.17083 0.2548 0.39412 -0.55271 0.43296 0.060054 -0.56392 -0.71628 0.28004 0.073365 0.039317 0.10016 -0.5454 -0.11822 -0.205 -0.78537 0.021227 -0.20692 -0.048421 -0.51248 -0.087216 0.25165 0.082101 -0.25986 -0.03647 -0.16065 -0.14 -0.23859 0.36274 -0.22144 -0.54081 0.13536 0.12408 0.24622 -0.41385 -0.040328 0.15592 0.53853 -0.47793 -0.36008 -0.25563 0.47816 -0.13965 -0.4092 -0.36325 0.14889 0.36732 0.080748 0.37816 0.34655 -0.46812 0.24862 0.094826 -0.19622 0.92164 -0.61672 -0.045323 -0.15428 -0.3044 -0.40383 -0.11194 0.087739 0.25773 0.33024 0.30981 0.075888 -0.39146 0.35959 -0.10813 0.087056 0.76524 -0.33268 -0.051908 0.20055 -0.027336 -0.25644 -0.62236 -0.15908 0.08121 -0.39295 -0.15052 -0.28717 -0.44144 -0.80174 0.4354 0.25467 0.094966 0.33805 -0.34171 0.055707 0.081955 0.18722 0.10658 -0.14214 -0.46779 0.038362 -0.04811 0.32403 -0.208 0.5325 -0.052556 -0.31272 0.30694 0.1072 -0.22809 0.2258 -0.014831 -0.24861 0.18228 0.093853 0.54752 -0.2026 -0.28451 0.49209 -0.095477 -0.16156 0.12513 0.010752 -0.21961 -0.57996 0.10531 0.11626 -0.98063 0.037264 0.64144 0.44126 -0.27391 0.053977 -0.3993 0.32879 -0.0098963 -0.19531 -0.14559 0.33391 0.44654 -0.50651 0.17573 -0.1905 0.43066 -0.017146 -0.1775 0.34454 -0.54894 0.16693 0.1914 -0.13044 -0.077649 0.013564 -0.76071 0.36826 0.37917 0.035939 -0.57155 -0.14686 0.07117 0.13113 0.7763 0.14357 0.16616 0.66088 0.24549 0.17497 0.41424 -0.55431 -0.18687 0.32738 -0.089039 0.50689 -0.07558 0.66211 -0.35607 -0.31776 -0.52985 -0.5271 -0.4455 -0.073651 0.13875 0.6032 -0.0087291 -0.3041 -0.06519 -0.3658 0.69951 0.51317 0.22014 0.15464 -0.54515 0.29479 -0.28426 -0.51712 -0.35814 0.019527 -0.88567 0.15283 0.066242 -0.43889 -0.51365 -0.26643 0.10341 -0.15683 -0.51228 -0.45104 0.42973 0.037863 0.2523 0.12744 0.054661 0.30899 0.28118 0.43088 0.022528 0.67172 0.37907 0.2118 0.75361 -0.11422 -0.26085 -0.11133 0.11669 -0.41643 0.37883 0.17204 0.18284 0.055164 0.31292 0.33907 -0.10114 -0.94059 -0.19979 0.26649 -0.21312 -0.34781 -0.079315 0.45739 -0.50489 -0.15349 0.62887 
mcclure 0.049023 -0.11548 -0.1423 -0.42311 0.3035 -0.036022 0.042215 -0.04501 0.018372 -0.044868 -0.077959 0.050398 0.18072 0.27619 0.13357 -0.033183 -0.14388 0.021408 0.080695 0.021054 0.093185 0.013615 -0.053207 -0.14583 -0.51484 -0.2986 0.17613 0.028701 0.086233 0.23752 -0.26171 0.13066 0.070894 -0.14813 0.0014476 0.15686 0.22198 -0.30456 -0.14611 -0.078761 -0.55122 0.084229 -0.47047 -0.19671 -0.070704 0.082407 0.01299 -0.26659 -0.1983 0.084521 0.43779 -0.26546 -0.087623 0.014823 0.5864 0.096226 0.31851 0.30759 -0.11802 -0.13669 0.057698 -0.12546 0.07722 0.33909 0.21815 0.18037 -0.15701 -0.051533 0.069475 -0.034382 -0.49528 0.07429 0.21491 -0.58775 0.4671 0.020167 0.18778 0.77964 -0.39826 0.18519 -0.17342 -0.40704 -0.011059 -0.31381 0.015162 0.087752 -0.23126 0.26463 -0.08187 0.17507 -0.039091 -0.052954 0.23922 -0.34389 0.13723 0.30976 0.16553 -0.32054 -0.060388 0.10847 -0.12507 -0.080382 -0.1603 -0.041838 -0.20358 -0.033869 -0.12132 -0.20486 0.021837 0.25759 0.020173 0.05646 -0.29614 -0.0074843 0.11896 -0.13905 0.010357 0.11335 -0.27556 -0.11029 -0.20016 0.33636 -0.32101 0.29705 0.34609 0.30072 0.13403 -0.012909 -0.12661 -0.22959 0.047758 0.28256 -0.069512 0.48779 -0.28522 -0.05798 0.032857 -0.073136 0.14596 -0.31096 0.094542 0.37656 0.25061 0.10132 -0.05824 0.077518 -0.066344 0.13043 0.053484 -0.0040762 -0.062816 0.0033813 -0.11403 -0.31417 0.17588 -0.70426 0.078485 0.095279 -0.037007 0.3539 0.18974 -0.0033429 0.12851 0.093093 -0.1991 -0.048162 0.51859 -0.039854 0.074431 -0.032523 -0.198 0.29287 -0.051245 0.42938 0.17487 -0.12962 -0.28733 0.34509 -0.28599 0.2503 0.1766 -0.2135 -0.3755 0.12719 -0.063992 -0.52456 0.0076061 0.2784 -0.065607 0.25079 -0.48597 -0.19877 -0.1843 -0.41325 -0.40011 -0.11984 0.060046 0.11652 -0.22839 -0.41057 0.20646 0.20501 0.19246 -0.069934 0.064801 0.16234 -0.40274 -0.049149 0.36667 -0.41338 -0.040299 -0.20486 0.031864 0.14726 -0.3638 -0.19498 -0.14031 0.16561 0.02487 0.32138 -0.052268 0.15695 0.51624 -0.21704 -0.14589 0.6243 0.26926 0.2727 -0.19067 0.12845 0.46303 0.10428 0.090319 -0.68102 -0.20393 -0.34251 0.2145 -0.50796 -0.13182 0.14064 0.71718 -0.20931 0.073767 0.016293 -0.18919 0.16493 0.0049899 0.010249 -0.048147 -0.22767 0.055521 -0.32804 -0.28953 0.090938 0.15997 -0.28515 0.11929 0.039367 -0.37662 0.11245 -0.33059 -0.10481 -0.25696 0.0067599 -0.25053 0.12245 0.33936 0.41215 0.36606 -0.21506 0.13711 -0.032835 0.75269 -0.35693 0.028079 0.37796 0.025986 0.66477 -0.17327 0.10578 -0.13897 -0.1678 -0.13571 0.28289 -0.090467 0.036301 0.42513 0.27426 -0.065194 0.35019 0.13271 -0.39342 -0.42013 0.046361 0.22621 -0.23719 0.12922 0.10032 -0.16984 0.15184 
symms -0.023015 -0.093162 -0.60252 -0.13645 0.11838 0.10379 0.19554 -0.025926 -0.0020718 0.42638 0.034891 -0.08856 0.0019681 0.2506 -0.095255 0.048378 -0.53649 0.24434 0.29563 0.45667 0.21285 -0.045071 0.31302 -0.21088 -0.1981 0.052549 0.10424 -0.051498 -0.054227 0.16891 -0.26573 0.26288 0.075955 -0.24006 -0.4103 -0.21758 0.22128 -0.39356 0.030145 0.25256 -0.51957 -0.068243 -0.29893 -0.51403 -0.20616 -0.12399 0.069952 -0.40762 -0.16473 -0.03134 0.39146 -0.4078 0.0094612 0.01187 0.772 0.38974 -0.03358 0.16002 -0.40897 -0.25794 -0.25726 -0.14259 0.24306 -0.027471 0.32739 -0.0095281 -0.099599 -0.20305 0.35097 -0.47517 -0.33116 0.054678 -0.20795 0.15021 0.31482 -0.055068 0.16006 0.28164 -0.40083 0.20163 0.48 -0.66823 -0.1996 -0.24893 0.27722 0.27502 0.1893 0.143 -0.40748 -0.22106 0.055613 0.11867 0.2808 -0.0023689 -0.13705 -0.2131 -0.32386 -0.090854 -0.15241 -0.14741 0.61309 -0.49926 -0.2746 0.1028 0.28345 -0.20076 0.18305 -0.20955 0.013654 0.37194 -0.42549 -0.12744 -0.24393 -0.33037 0.16314 -0.32912 -0.31211 0.12645 -0.40483 0.0049429 0.2659 0.37327 -0.66628 0.15127 -0.18982 -0.079901 0.1516 -0.28744 -0.35321 -0.35508 -0.068945 -0.18006 -0.18765 0.46038 -0.63192 0.089766 -0.084934 -0.12521 0.74202 -0.089002 -0.21606 -0.12792 0.55971 -0.16566 0.16794 0.38258 0.22613 0.50615 0.45601 0.18087 -0.44038 -0.23195 0.10834 -0.49555 -0.059656 -0.77109 0.12371 -0.053912 0.062908 0.58661 0.58815 0.24559 0.25128 0.21403 -0.24425 0.049044 0.12984 0.38405 0.13709 0.10627 -0.2596 0.053325 0.53878 0.28179 0.43686 -0.32121 -0.73079 0.241 -0.63864 0.36006 -0.28458 -0.29252 -0.17647 0.19922 -0.14527 -0.42614 -0.14432 0.33896 0.068277 0.33566 -0.3984 0.047508 0.18042 -0.70647 -0.28063 0.076454 0.15084 0.26983 -0.19789 0.091329 0.18996 0.25187 -0.096979 0.2892 0.053407 0.12259 -0.33914 0.18767 0.42939 -0.39596 -0.11319 -0.66364 0.045686 0.48391 -0.22205 -0.14729 -0.19369 -0.038847 -0.13621 0.46832 0.079932 0.22442 0.61688 0.17812 -0.26524 -0.050418 0.12614 0.27988 -0.47697 0.091227 0.56609 0.10367 0.35402 -0.61765 0.060295 -0.46811 -0.090881 -0.40751 0.19241 0.43824 0.71242 -0.067008 -0.050319 0.21071 0.1516 0.0958 0.054934 -0.082193 0.27414 -0.30183 -0.14006 -0.37587 -0.21345 -0.42037 -0.051775 -0.74037 -0.54003 -0.02834 -0.52887 0.42033 -0.5189 0.10312 -0.42995 0.15813 -0.093951 0.32629 0.077658 0.18845 0.67346 0.086806 0.41594 0.67835 0.37259 -0.17565 -0.27424 -0.23336 -0.028186 0.32444 -0.61491 -0.075104 -0.29073 0.26585 -0.312 0.3389 0.37634 0.28061 0.3122 0.36263 0.16012 0.57676 -0.15202 -0.35811 0.24304 0.12886 0.093377 -0.07551 -0.28245 0.15268 0.43054 0.33646 
simon -0.20689 -0.25953 -0.09945 -0.16847 0.38686 0.23285 -0.070942 0.038454 -0.32222 0.14768 -0.10107 0.071432 0.10543 0.041003 0.17488 -0.073762 -0.10797 -0.052013 0.13093 -0.2636 0.30698 0.22028 0.076906 0.045681 0.024792 -0.0046269 -0.14607 -0.18561 -0.030198 0.063496 -0.034318 0.059763 -0.21721 0.091167 -0.080928 0.15717 -0.18891 -0.14554 -0.034941 -0.13099 -0.38378 0.30854 -0.10185 0.013374 0.34489 -0.46099 0.49534 -0.27422 -0.086499 -0.087084 0.026776 -0.043678 -0.15428 -0.36152 0.52422 -0.087335 -0.020611 -0.062399 0.039289 -0.17323 0.10599 -0.12014 0.043404 0.036649 -0.22155 0.39554 -0.38209 0.0037862 -0.096004 0.13949 -0.17154 -0.073449 0.19862 -0.060199 0.082027 -0.07243 0.17141 -0.056285 -0.0096158 0.36724 -0.14536 -0.14187 -0.09532 -0.16143 -0.055832 -0.12341 -0.24163 0.16144 -0.025558 -0.085517 0.10907 0.013337 0.19841 0.019226 0.054959 0.10532 0.16445 0.014143 0.13256 0.047131 0.17335 -0.49435 0.018117 0.14895 -0.22914 -0.21873 -0.1921 -0.65709 0.084939 0.15485 -0.26912 0.30251 -0.14241 -0.077043 -0.011781 0.13623 -0.19054 0.036012 -0.13418 0.17906 0.51005 -0.24077 -0.39737 0.10479 -0.1216 -0.1855 0.16992 0.22711 0.19091 0.089927 0.089224 0.4646 0.067928 0.35788 -0.50262 0.049698 -0.32545 -0.22432 -0.028575 -0.2759 -0.08499 -0.10391 -0.07653 -0.10035 0.011117 0.14942 0.17119 0.24978 0.014215 0.15523 -0.10661 -0.099335 0.15121 -0.37973 0.050634 -0.01102 -0.0087953 -0.10143 0.12442 -0.040732 0.071614 -0.11955 0.30983 0.015217 0.092396 0.38344 0.18753 -0.1248 0.01818 0.18437 0.22314 0.04447 0.28847 -0.25249 0.18345 -0.36843 0.22927 -0.043602 0.051402 0.21121 0.21802 -0.31764 0.087258 0.30061 -0.20331 -0.19912 0.050588 0.28867 0.19726 0.00039199 -0.26283 -0.00026718 -0.035531 -0.1896 0.39098 -0.14397 0.049707 0.093152 -0.14532 -0.14058 0.30067 0.14453 0.0034508 0.019205 0.035462 -0.15184 0.16634 0.033646 0.16661 -0.18794 -0.23031 0.14502 0.040093 0.36714 -0.47127 -0.22054 0.14772 0.12231 0.31935 0.13449 0.10187 0.12143 0.49253 0.032859 0.041903 -0.15773 0.04195 0.12924 0.14523 0.14707 0.25213 0.10768 0.11075 -0.028457 0.1992 -0.14217 -0.43583 -0.30916 0.3068 0.15377 0.14408 -0.026618 -0.018144 0.033211 0.19235 0.14622 -0.18015 0.3394 0.071363 -0.14672 0.0058092 -0.20794 0.17825 0.042014 -0.026719 -0.047097 0.061953 -0.026838 0.091054 0.063434 0.018975 0.11605 -0.47826 -0.22048 0.25798 0.069532 -0.062914 0.43413 -0.19609 -0.29594 0.27651 -0.43012 0.43672 -0.19255 0.051041 0.039618 0.11332 0.47777 -0.028452 0.0014993 -0.15522 0.090489 -0.26411 0.081498 0.1586 0.029512 0.11453 -0.41054 -0.017866 0.12114 0.20792 -0.13306 -0.081752 -0.11766 0.07689 0.09359 -0.13517 0.029732 0.05124 0.12461 
dixon -0.22469 -0.16687 -0.28866 -0.27252 0.052117 0.29024 0.10321 0.047732 0.073924 0.21684 -0.16162 -0.16439 0.44562 -0.21633 0.018511 -0.20872 -0.53342 -0.074712 0.2008 0.15193 0.17625 0.10439 -0.22571 0.2531 -0.37483 0.022895 -0.11281 -0.26875 -0.66063 -0.47103 -0.032952 0.14844 0.10474 0.35036 -0.12845 -0.033544 0.068635 0.24402 -0.10414 0.096007 -0.36733 0.46257 0.16509 -0.32196 0.096335 -0.19369 0.13615 0.020694 -0.12915 0.10117 -0.14579 -0.3178 -0.046584 -0.10538 0.60851 -0.10524 0.086764 0.33739 0.033723 -0.34047 0.24636 0.0057221 0.16294 0.34234 -0.0086104 0.44144 -0.01479 0.096959 -0.012094 0.13258 0.43108 0.14801 0.084609 -0.2602 -0.17786 -0.2758 0.58757 0.12241 -0.12505 0.16095 -0.027708 -0.28944 -0.2402 -0.31908 0.24858 0.40453 -0.15506 0.41514 0.014703 -0.32011 0.056986 -0.23715 -0.16497 -0.010783 0.033224 0.1208 -0.11877 -0.028025 -0.13989 -0.11441 0.044404 -0.089593 -0.23852 0.27112 -0.21255 -0.17313 -0.28422 -0.11635 -0.1476 0.056879 0.1105 0.11306 -0.27165 -0.07756 0.12526 -0.10852 -0.5637 0.11115 -0.4395 0.16402 0.051961 -0.23576 0.17293 0.11888 0.049027 -0.12106 0.33326 -0.083729 0.10089 -0.10589 0.40934 0.20175 -0.15516 0.15501 -0.46212 -0.10086 -0.25339 0.061821 -0.092381 -0.10434 -0.029274 0.12596 -0.03701 0.030273 -0.015346 -0.10907 -0.21152 0.33294 -0.017592 -0.0126 0.52399 -0.30442 -0.25714 -0.20003 0.29906 -0.2295 -0.39842 -0.27232 -0.019189 0.38094 0.40548 -0.12411 0.17159 -0.11633 0.22725 -0.0094433 0.26874 0.037038 -0.10799 0.27834 -0.046904 -0.16817 -0.030047 0.26879 -0.054365 -0.3319 0.15442 -0.19108 0.19229 0.13575 0.11051 -0.34226 -0.017495 0.40607 -0.063364 0.0017728 0.020883 0.032181 -0.13861 -0.0031273 -0.14165 -0.27659 0.2736 -0.22422 -0.2254 -0.24229 0.43305 0.36424 0.0032841 0.0082293 -0.079846 0.066565 0.037429 0.12766 0.11898 -0.077773 0.11553 0.53593 -0.014195 -0.38792 0.069457 -0.14891 -0.19539 0.11243 -0.19018 -0.07438 -0.11913 0.18833 0.18391 0.42529 -0.06112 -0.14337 0.15849 0.010057 -0.25293 0.010211 0.088577 0.23427 0.3716 0.16285 0.23794 -0.028765 0.31198 0.07907 0.026415 -0.47991 -0.55212 -0.2204 0.1017 0.37062 0.18205 -0.40901 -0.097813 -0.12614 -0.067654 -0.096567 -0.015793 0.13697 -0.021604 -0.18273 0.22026 -0.67904 0.062121 0.19397 0.26527 -0.46914 -0.19057 -0.12121 -0.19773 0.2446 -0.078698 -0.15566 -0.090272 -0.0028683 0.07764 0.19129 0.1164 0.070624 -0.024027 -0.15932 -0.072186 -0.18054 0.14464 -0.38742 0.0082717 -0.1561 0.34659 0.47024 -0.37727 -0.036973 0.11772 -0.032885 -0.059371 -0.079787 0.249 0.0060596 0.10957 -0.14119 -0.024411 0.50801 -0.20796 -0.26862 0.088241 0.048398 0.15957 -0.0019331 0.13856 0.35221 -0.16719 0.39521 
quayle 0.0030899 -0.33732 -0.20059 -0.18701 -0.14557 0.11114 0.1119 0.3162 0.058604 -0.069391 -0.020478 0.16082 -0.20768 0.40646 -0.065074 0.029971 0.15677 0.20849 0.26412 0.14953 0.17698 -0.19674 -0.28778 0.0049282 0.0071598 0.062774 0.083579 -0.14209 -0.081749 0.020874 -0.27892 0.12614 -0.23457 0.1744 0.045016 0.17274 0.088689 0.02768 -0.17455 -0.32354 -0.37787 -0.013721 0.19391 -0.21309 -0.66822 -0.080243 0.30619 -0.51391 -0.028075 0.082094 0.2796 -0.051202 -0.11804 -0.37127 0.34038 0.24548 -0.10852 -0.029323 -0.38358 -0.2782 0.23135 0.2138 -0.16449 0.035285 -0.48224 0.22715 -0.099628 0.25829 0.029725 -0.11261 -0.18973 -0.0014419 0.040405 -0.11135 0.23821 0.1577 0.19388 0.14617 -0.20115 0.027235 -0.086756 -0.17428 -0.067086 -0.32523 -0.042368 0.40718 -0.35824 0.33191 -0.064742 -0.15493 0.20709 -0.34505 -0.070912 0.041535 -0.27583 -0.14584 -0.090781 0.031371 0.10254 -0.023746 0.26162 -0.11295 0.012575 0.16334 0.015869 -0.18422 -0.14656 -0.39905 0.30305 0.31387 -0.23631 0.25687 -0.0060875 -0.063754 -0.0961 -0.099128 -0.025177 0.075112 -0.32 0.19156 0.18057 0.060317 -0.69242 0.05239 0.34869 0.2212 -0.12095 0.15985 -0.13528 -0.084115 0.17617 -0.30555 0.017572 0.31018 -0.29668 0.01554 -0.0019687 0.16551 -0.21717 -0.24205 0.23056 0.064936 0.22788 0.17689 0.0071154 -0.16502 0.062175 0.14533 0.26413 0.093752 0.0010839 0.11571 0.02395 -0.30159 0.22708 -0.08373 -0.010145 -0.079195 0.1131 -0.025646 0.16772 -0.21172 -0.11023 0.019993 0.11422 0.51876 0.076265 0.021556 0.38479 -0.15531 -0.14298 -0.19692 0.48312 0.064265 -0.18504 -0.30798 0.0143 -0.31328 -0.084096 0.25172 -0.11734 -0.40012 -0.33811 0.16221 -0.018788 -0.16311 -0.24918 -0.080353 0.10324 0.36623 -0.42008 -0.26671 0.23148 -0.65128 -0.050459 0.17088 -0.25099 0.1761 -0.12317 0.22728 0.29731 0.30936 -0.1256 0.28746 0.28722 -0.10569 -0.3079 0.015904 0.2388 -0.14943 0.063232 0.23067 0.2454 0.24401 -0.29227 -0.11652 -0.17713 0.42388 0.24558 0.11146 -0.1916 0.057517 0.17207 -0.17343 0.080608 0.062211 0.0029436 0.25719 -0.029679 0.26011 -0.056076 0.3435 0.21896 -0.2851 -0.13593 0.01451 0.21611 -0.64837 0.17781 0.053739 0.12963 0.13639 -0.091388 -0.17362 -0.13176 0.36045 0.11831 -0.25181 -0.0096544 -0.047998 0.065097 -0.46188 0.090222 -0.099106 0.073325 -0.56153 -0.24359 0.51501 -0.083176 0.052565 -0.20963 -0.059075 -0.16499 -0.0094241 -0.2709 0.1926 0.12358 0.058659 -0.11249 -0.16922 0.49697 0.20924 0.56587 0.22862 0.027905 0.0053872 -0.10836 0.074064 -0.32988 0.036869 -0.087678 0.41565 -0.16855 -0.24193 -0.11627 -0.19041 -0.050481 -0.10889 -0.17978 -0.0023388 -0.14279 -0.19036 -0.20851 0.0038927 -0.18861 -0.30353 0.33924 0.18865 0.20843 0.43893 
lugar -0.13896 -0.28714 -0.22598 -0.21007 -0.37031 0.046975 0.18931 0.4845 -0.043265 -0.039681 -0.015984 -0.31885 0.1805 0.20893 -0.31345 0.20935 -0.099563 0.17055 0.13891 0.0020994 0.01092 0.16365 0.35774 0.18375 -0.28574 -0.02708 0.41374 -0.16588 0.056138 -0.010172 -0.21463 0.33503 -0.066549 -0.24832 -0.27944 0.20785 0.20085 -0.49376 -0.59757 -0.40095 -0.054956 -0.0076918 -0.043792 -0.22944 -0.10293 -0.22421 -0.068198 -0.5944 -0.41825 -0.16611 0.23358 -0.3503 -0.22011 -0.058232 0.45682 0.029367 0.08505 0.3004 -0.27748 -0.21459 0.14124 0.12015 -0.11651 0.36674 0.010732 0.10774 -0.35387 0.17443 0.22141 -0.40198 -0.039793 -0.040183 -0.099149 -0.47944 0.16529 0.1228 0.013258 0.42662 -0.015206 -0.11547 -0.024879 -0.37111 -0.6689 -0.23532 -0.054477 0.60316 -0.080321 -0.00055839 -0.291 0.18216 0.14189 0.35889 0.30848 -0.027617 0.20961 0.35382 -0.032107 -0.076817 -0.18599 -0.39722 0.53864 -0.060604 -0.17245 0.33679 0.45871 0.094177 -0.29037 -0.10749 0.24563 0.34133 -0.41972 -0.0019239 -0.21704 -0.49687 0.20819 -0.1123 0.15155 0.37457 -0.29977 0.04253 0.18573 -0.0059094 -0.63196 0.1352 0.0072277 0.27316 -0.13688 -0.12242 -0.41008 -0.12341 0.0075924 0.10778 -0.53714 0.32022 -0.22669 0.09678 0.16392 -0.087392 0.08594 -0.31662 0.20766 0.16256 -0.24931 -0.03103 -0.068218 -0.36394 -0.023785 0.61164 0.24068 0.004213 -0.45258 0.40706 -0.037295 -0.139 0.19578 -0.26525 0.34496 -0.30179 0.12258 -0.059399 0.10858 -0.16194 0.15196 -0.35286 0.057574 0.41205 0.12977 0.077774 0.088461 -0.17179 -0.29956 -0.3426 0.19142 0.21155 -0.26734 -0.032061 -0.30438 0.20022 -0.34212 0.46723 -0.21976 -0.17679 -0.028237 0.34423 -0.23848 -0.48322 -0.14101 0.26722 -0.49407 -0.070897 -0.33413 -0.23919 -0.018035 -0.22819 -0.3163 0.15656 -0.39198 0.29633 -0.20847 -0.094752 0.43645 0.086347 -0.43094 -0.084001 0.06495 0.01992 -0.16206 0.45509 0.11084 -0.098837 -0.079463 0.25047 -0.11626 0.3086 -0.50832 -0.56264 0.086887 0.47628 0.034969 0.14902 0.093569 0.15376 0.32699 0.14831 -0.18201 0.27163 -0.34504 0.022558 0.30945 0.34027 0.28748 -0.12381 0.34284 -0.51176 -0.11153 -0.28327 0.08706 -0.72388 0.13693 0.013012 0.58133 -0.12643 0.086801 0.084861 -0.22755 0.13757 -0.062429 -0.24431 -0.086172 -0.52897 0.12584 -0.24896 -0.3872 0.3916 0.15511 -0.60479 0.07491 0.002937 -0.14326 0.14548 -0.255 0.074287 -0.11553 0.11966 0.14923 -0.022537 0.53973 0.11782 -0.052798 0.0027603 0.47755 0.41749 0.63828 -0.16024 -0.14604 0.048876 0.042848 0.29949 -0.32457 0.10292 -0.42184 0.45719 0.014132 0.080465 -0.25906 -0.046775 0.03737 0.0013161 -0.26417 0.12933 -0.56489 -0.60295 -0.021629 0.19645 -0.03396 -0.45059 0.064742 0.22275 0.18322 0.54183 
grassley -0.0040392 -0.16757 -0.55346 0.056192 -0.07424 -0.12389 0.041975 0.017472 -0.10134 0.24995 0.48496 -0.036913 -0.06274 0.2947 0.090105 0.47264 -0.2477 -0.095339 0.37022 -0.046292 -0.1415 0.13289 0.23114 0.33285 -0.33874 0.11959 0.092751 -0.23698 0.046956 -0.070044 -0.1669 0.27619 -0.031628 -0.36954 -0.30352 0.26401 0.077969 -0.3776 -0.08362 -0.16618 -0.30893 0.087241 -0.10816 0.27543 -0.20185 0.017203 -0.085201 -0.21089 -0.11934 -0.21327 0.049669 -0.046155 -0.20279 -0.069364 0.30279 0.023684 -0.028079 0.37877 -0.20801 -0.23176 -0.42732 0.39424 -0.17443 0.39638 -0.080831 0.4336 -0.13384 0.040635 0.42364 -0.30396 -0.5583 -0.058676 0.37069 0.025549 0.72838 0.25247 -0.25264 0.41577 -0.18299 -0.04731 0.012639 -0.36562 -0.21338 0.12769 -0.030232 0.20846 -0.18477 -0.067376 -0.33249 0.17587 0.23615 -0.23377 0.072055 0.22299 0.095971 0.20058 -0.46478 -0.50102 -0.10119 -0.14951 0.20162 -0.15829 -0.21629 0.19036 -0.1393 -0.090432 -0.21761 -0.42834 0.115 0.0054889 -0.22858 0.15614 -0.21326 -0.40123 0.16459 -0.16388 -0.46447 0.24376 0.0062759 0.18661 0.11216 0.14119 -0.43964 0.095061 -0.12148 0.037893 0.32157 -0.039268 -0.36231 0.12752 -0.032661 -0.17619 -0.4211 0.35158 -0.29717 0.010585 -0.21515 0.14632 0.093255 0.096934 0.40986 0.56991 -0.11739 -0.086844 0.10696 -0.075425 -0.57954 0.26787 0.16652 -0.093949 -0.30634 -0.29599 0.012703 0.024454 0.34995 -0.43427 0.1706 -0.20591 0.18971 0.25422 0.29315 0.17892 -0.37993 -0.079478 0.00052552 -0.31124 0.090313 0.27233 0.333 -0.10541 -0.24458 0.10965 0.074945 -0.16119 -0.37296 -0.23154 -0.1712 0.3901 -0.031671 0.13283 0.03526 0.14281 -0.19219 0.40277 0.44149 -0.21614 -0.45851 0.20987 -0.37367 0.14091 -0.06926 -0.024082 0.29192 -0.51047 -0.45663 0.096 -0.17873 0.26825 -0.070524 -0.61963 0.31673 0.26617 -0.46211 -0.39606 -0.22651 0.082719 -0.16255 -0.02365 -0.013426 0.16611 -0.28167 0.12281 -0.03302 0.35382 -0.11906 -0.3881 -0.368 0.24441 -0.18422 0.53651 -0.097512 0.38522 0.37306 0.22921 -0.29478 -0.00081053 0.051876 0.24245 0.11021 0.03737 0.51794 0.12154 0.12567 -0.53113 -0.048071 -0.16067 -0.21021 -0.32031 0.18221 0.091015 0.45722 0.15709 0.44 0.28838 -0.31863 0.013741 -0.14344 0.55292 -0.089618 -0.73348 0.28612 -0.39111 -0.28737 -0.043928 -0.014349 -0.49206 0.063677 0.12056 -0.38595 0.12122 -0.33682 -0.0019001 -0.31374 0.25456 0.38435 0.26226 -0.21344 -0.22416 -0.048152 -0.027303 0.096122 0.14585 0.16706 -0.44868 -0.37815 -0.093514 0.47091 0.21374 -0.51703 0.1231 -0.11223 0.25256 -0.14994 -0.1124 0.089651 0.19789 0.34592 0.26271 0.1553 0.36913 0.06727 -0.64058 -0.1865 -0.2932 0.065741 -0.56474 0.018023 0.15126 -0.088131 0.2428 
harkin -0.043031 -0.32301 -0.051089 -0.33909 -0.13873 0.020198 -0.22497 0.036275 -0.087215 0.085948 0.16368 -0.084203 0.043668 0.20104 -0.43694 0.039824 -0.36533 0.022936 0.01323 0.26328 0.0092747 -0.10472 0.026669 0.29698 -0.037817 0.16162 0.13546 -0.2861 -0.23401 -0.04102 0.070149 0.068208 -0.2267 -0.053866 -0.50029 0.04172 0.076018 -0.21706 -0.2411 -0.11549 -0.45069 -0.024817 0.11931 0.05288 -0.27986 0.02181 -0.1644 -0.11742 0.035998 -0.26188 0.093617 -0.37415 -0.35733 0.11659 0.54772 0.30582 0.358 0.1298 -0.18054 -0.1198 -0.44848 0.074204 -0.13787 0.19453 -0.33087 0.22899 -0.25977 0.12467 0.16893 -0.098777 -0.25108 -0.28326 0.24412 0.35764 0.51855 0.040088 0.26104 0.08153 -0.043959 0.2688 0.18057 -0.34275 -0.21569 0.12917 0.10741 0.2237 -0.16808 0.37361 -0.37547 -0.10228 0.18446 -0.0048682 0.23907 -0.26173 -0.020604 0.15925 0.17692 -0.1314 0.35819 -0.62606 0.3721 -0.17307 -0.25224 0.16881 -0.033252 -0.0053509 -0.34585 -0.39389 -0.012437 -0.029768 -0.34796 -0.23533 -0.2218 -0.28537 -0.038846 -0.25016 -0.54277 -0.080813 -0.20956 -0.20881 0.12067 0.1198 -0.75922 0.18812 -0.13048 0.30196 0.049773 -0.21865 -0.15125 0.08041 0.16427 -0.22405 -0.24218 0.1791 -0.37893 0.032293 -0.31991 0.20289 -0.2332 -0.10085 0.15047 0.13814 -0.13342 -0.046048 0.29194 -0.017698 -0.5536 0.17838 0.17773 0.049846 0.030565 -0.32871 0.094572 -0.26712 -0.019928 -0.33681 0.13966 -0.18165 -0.028815 0.10924 0.16566 0.061537 0.0073897 -0.34946 -0.031032 0.11131 0.10016 0.17689 -0.12192 0.081533 -0.14724 -0.086008 0.27725 0.1423 -0.19941 -0.5465 0.088195 -0.0029193 -0.040736 0.30692 -0.14431 0.078199 -0.15299 0.48668 0.2288 -0.26257 -0.30605 0.21004 0.044902 -0.0024759 -0.051246 -0.1547 0.24018 -0.21873 -0.086981 0.01884 -0.25873 0.15683 -0.22524 -0.29429 0.10332 0.43444 0.094445 -0.039444 -0.033125 0.038865 -0.098185 0.23473 0.10129 -0.042883 -0.3303 0.14709 -0.081102 0.27464 -0.20723 -0.30784 -0.16296 0.25734 0.0056014 0.45424 0.11682 0.17453 0.47752 0.48398 -0.30965 0.017023 -0.088046 0.13782 -0.077234 0.095968 0.53822 0.065 0.33206 -0.27311 -0.00064578 -0.023082 -0.079463 -0.55511 0.024049 0.0085813 0.30076 0.32136 0.045231 0.12369 -0.19201 0.41826 -0.15776 0.39845 0.24869 -0.33383 0.091433 -0.40635 0.18422 -0.076875 0.34555 -0.62799 -0.1832 -0.084327 -0.10357 0.37154 -0.1857 -0.061739 -0.22235 -0.11272 -0.031758 0.22886 0.33417 0.2635 -0.46132 -0.011848 0.32546 -0.12053 0.43574 -0.11795 0.026443 0.095604 0.26048 0.30182 -0.39495 -0.14287 0.12367 0.2273 -0.16211 -0.059289 -0.1491 -0.099427 0.019997 0.07407 -0.13685 0.48265 -0.0096155 -0.36182 -0.019458 0.0944 0.29552 -0.33879 0.039884 0.18625 0.13931 0.40878 
dole 0.059729 -0.3763 -0.061696 -0.32039 -0.10413 0.021524 -0.017995 -0.1196 0.26861 0.28622 0.13599 -0.28596 -0.087602 0.25404 -0.37009 -0.117 -0.046964 -0.12016 0.23133 0.0019328 0.12844 -0.087193 -0.11616 0.19668 -0.35953 0.040876 0.1088 -0.059933 -0.0097269 0.014958 -0.14509 0.085489 -0.37951 0.10567 -0.051944 0.17046 0.13563 -0.32221 -0.099864 -0.34821 -0.62945 0.18472 0.056158 -0.055624 -0.42388 0.17471 0.20217 -0.32382 -0.029967 -0.089645 0.094129 0.012669 -0.21609 -0.027092 0.46916 0.29783 0.14376 -0.2403 -0.23388 -0.20073 -0.10669 0.27272 0.020892 0.19725 -0.48398 0.28793 -0.13403 0.066406 0.061209 -0.23823 -0.20945 -0.27558 0.24999 -0.06661 0.27238 -0.018002 -0.11846 0.31611 -0.14036 0.0308 -0.1162 -0.42384 -0.19838 -0.030039 0.23185 0.27996 -0.4095 0.17954 -0.024247 0.30634 -0.14027 -0.26252 -0.049981 0.015351 -0.22511 -0.12268 -0.0035162 0.086914 -0.048529 -0.26046 0.45064 -0.23309 -0.20688 0.24512 -0.069032 -0.084363 -0.10113 -0.064054 0.3021 0.46115 -0.22738 0.056716 -0.11687 -0.23003 0.026243 -0.40824 -0.24 0.027398 -0.10716 0.040844 0.06156 0.12097 -0.67516 0.27882 -0.22181 0.39135 -0.13342 0.12455 -0.27035 0.23927 -0.060766 -0.097598 -0.33366 0.19325 -0.15395 -0.23175 -0.0016972 0.15493 0.12861 -0.29237 0.17998 0.2333 0.20051 -0.081196 0.12938 0.11299 0.068561 0.21129 0.28987 0.20997 0.11642 0.028971 0.050335 -0.42875 0.54736 -0.17705 0.12845 -0.20187 0.4122 -0.034528 0.22195 -0.078244 0.063178 -0.26277 0.052864 0.099855 0.11941 -0.18078 0.020203 -0.15236 -0.01329 -0.28038 0.36641 0.04302 -0.21009 -0.1297 0.22175 -0.20732 0.15999 0.23414 -0.35491 -0.19953 -0.13718 -0.057428 0.084192 -0.28846 -0.3773 -0.0028561 -0.19084 0.26869 -0.30242 -0.17924 0.18059 -0.43278 0.42592 0.22605 -0.15163 0.36207 -0.31224 -0.19074 -0.054734 0.41427 -0.14457 0.031508 0.061889 -0.087007 -0.33243 0.15974 0.095981 0.073863 -0.1549 -0.033518 0.031129 -0.08019 -0.37432 -0.21804 -0.096724 0.26778 -0.063199 0.076812 -0.085087 0.0068236 0.13442 -0.070239 -0.38341 0.16365 0.12613 0.17089 0.032173 0.13115 0.255 -0.13776 0.39409 -0.47061 -0.10913 0.041416 0.078563 -0.30873 0.14998 0.24407 0.18928 0.35652 -0.28887 0.33665 -0.30403 0.36036 -0.0056728 -0.13275 0.0059255 -0.16331 -0.068263 -0.41146 0.28647 -0.087841 0.069505 -0.5349 -0.11223 0.2819 -0.12193 0.09161 -0.31259 -0.37732 -0.15792 -0.16834 -0.14488 0.23365 0.35626 -0.1344 -0.19055 -0.076627 0.093962 -0.10539 0.38813 0.13166 0.12832 0.48338 0.14925 0.50213 -0.38902 0.07422 0.00089332 0.13918 -0.10404 -0.36811 -0.011168 0.038104 0.038182 -0.11703 -0.12382 0.10108 -0.19646 -0.43644 0.061638 0.28635 0.23123 -0.26201 0.41325 0.24641 -0.055091 0.52236 
kassebaum 0.025917 -0.31289 -0.38109 0.030081 -0.44663 0.06624 0.066792 0.0011516 0.06383 0.48494 0.43883 -0.35011 0.085748 -0.16208 -0.15258 -0.32089 -0.40769 -0.2404 0.29481 -0.20349 0.16442 -0.019881 -0.12624 0.062293 -0.67718 0.43325 0.051653 -0.040397 -0.1559 0.35358 -0.057091 0.026283 -0.1333 -0.39982 -0.57295 0.40118 0.21604 -0.62286 0.011646 -0.37935 -0.34981 -0.17115 -0.14208 -0.60787 -0.204 -0.084561 0.20918 -0.25659 -0.67686 -0.39767 0.26709 -0.093544 -0.51096 -0.31201 0.79776 -0.07222 0.19563 0.17705 -0.26438 -0.28609 -0.16729 0.15976 -0.25998 0.24392 -0.27361 0.15719 -0.33326 -0.1801 -0.090054 -0.097841 -0.6363 0.3044 0.23737 -0.1357 0.23064 -0.0076657 -0.037796 0.36294 0.0091583 -0.34922 0.37663 -0.30069 -0.65332 -0.47048 -0.1509 0.40126 0.040195 -0.11946 -0.24835 0.21559 0.05219 -0.20551 -0.37619 0.06398 0.12768 0.29317 0.3173 -0.007227 0.014703 -0.11248 0.13097 -0.30701 -0.50182 0.2898 0.2435 0.057639 -0.048995 -0.41815 0.076783 0.16066 -0.31827 -0.062979 -0.2407 -0.52647 0.21013 -0.038854 -0.37021 0.32782 0.15983 -0.15854 -0.029404 -0.014876 -0.94638 0.38589 0.19263 0.33695 0.17319 -0.14633 -0.38101 -0.083673 0.20215 0.16226 -0.67995 0.68228 0.15652 -0.47653 -0.21243 -0.01971 -0.045029 -0.43474 -0.096638 0.17914 0.29856 -0.12354 0.26762 -0.056537 -0.21206 0.2873 0.289 0.23435 -0.30674 0.068284 0.061123 -0.12461 0.10246 -0.67942 0.24029 -0.027358 0.031714 -0.18218 0.29975 -0.058454 0.38171 -0.10053 -0.29952 0.0096078 0.066996 -0.32621 0.0385 -0.082401 -0.020637 0.086172 0.068075 0.27885 -0.16247 -0.21799 -0.022616 0.3424 -0.11263 0.12241 -0.37343 0.050934 -0.36389 0.21194 -0.039664 0.026151 -0.12673 0.32867 -0.018036 0.11681 -0.23662 -0.49485 0.13626 -0.42636 0.12396 0.042102 -0.35582 0.11992 -0.12819 -0.60143 0.30242 0.60765 0.11055 0.16317 0.064441 -0.12819 -0.35865 0.30501 0.29989 0.15847 -0.23344 -0.24065 0.012289 0.040431 0.13926 -0.3136 -0.19833 0.2802 -0.073913 0.86265 -0.083892 -0.051479 -0.049101 0.14001 -0.39758 0.45431 -0.091323 0.023462 0.19144 -0.19624 0.4035 0.0031448 0.37919 -0.78871 -0.39152 -0.14819 -0.1759 -0.55857 0.034476 -0.057637 0.48372 -0.068095 -0.16659 0.25233 -0.13972 0.27513 -0.19068 -0.027846 0.26804 -0.14029 -0.34823 -0.54256 0.02511 0.044538 0.086511 -0.61645 -0.15333 -0.25905 -0.60253 0.065025 -0.52147 -0.2089 -0.29415 -0.14302 -0.13879 0.032064 0.64126 0.24969 0.4099 -0.099134 0.25665 0.3515 0.66688 -0.27373 -0.25418 0.25247 0.16354 0.43967 -0.37519 0.27574 -0.086966 0.55679 -0.4326 0.20599 -0.11492 -0.32696 0.28824 0.36378 0.10012 -0.0015722 -0.17759 -0.80322 -0.16368 0.13801 0.28794 -0.030841 0.47443 0.18607 0.20427 0.46753 
