conservative 0.33274 0.32182 -0.19147 -0.23513 -0.054022 0.035739 -0.083691 0.1807 0.15378 0.00011456 -0.087111 -0.42144 0.66463 -0.10757 0.040499 -0.11151 -0.1668 -0.30677 -0.39854 0.084849 0.084475 0.21922 -0.034727 0.29536 0.019689 -0.087787 -0.041002 -0.29017 -0.01855 0.26965 0.04269 0.13506 0.028816 0.032031 -0.20061 -0.20726 0.024785 0.067584 -0.0018203 -0.014841 -0.16634 0.057259 0.045426 0.042903 -2.1692e-05 0.35564 0.15545 -0.14816 -0.046743 0.51079 0.48482 -0.11341 0.13869 0.017475 0.11605 0.070726 -0.29778 -0.029222 -0.31857 -0.35108 0.078416 -0.017122 0.19156 -0.13525 -0.14948 0.1373 0.094141 0.22408 -0.17576 0.029725 -0.23073 -0.069398 0.16853 -0.18645 0.18782 -0.12897 -0.099951 0.089587 -0.29666 -0.25149 -0.087109 0.048101 -0.004789 -0.085856 -0.1178 -0.15051 -0.17831 -0.064094 0.04252 0.045432 -0.04374 0.01499 -0.096539 -0.12098 -0.18057 -0.050151 -0.049656 -0.093323 -0.18859 0.086257 -0.26666 -0.40686 -0.070934 0.29122 -0.049109 0.010422 0.055962 0.098894 0.025407 -0.1024 -0.087532 0.33389 0.024146 0.0698 -0.10908 0.068984 -0.21392 0.0094192 0.2248 0.45842 0.35007 -0.10466 -0.39784 -0.20129 -0.19853 -0.062317 -0.24027 -0.14472 0.16722 -0.022917 0.07309 -0.075423 -0.22215 -0.2007 -0.15501 -0.14292 0.020762 -0.073934 -0.1297 -0.17733 0.00040018 0.37486 -0.23568 0.2873 -0.09412 -0.30545 0.10058 0.13206 0.034703 0.25295 -0.00025812 -0.25604 0.10521 -0.37451 0.054506 -0.3641 0.023067 0.28082 0.075776 -0.0085844 -0.028469 -0.32731 -0.25453 -0.24361 0.14963 -0.018535 -0.046559 0.27258 0.1117 0.044678 0.068228 0.0055006 0.19131 -0.07009 -0.081737 0.29043 -0.063953 -0.21298 -0.098314 0.3272 0.21177 0.0063094 0.18614 -0.026134 -0.19672 -0.19871 -0.23843 -0.13453 -0.16033 0.33616 0.061887 -0.24282 0.041914 -0.058487 0.10543 0.010916 0.0074689 -0.072874 -0.087537 -0.27248 0.32189 0.18007 -0.07637 -0.057976 0.080317 -0.13742 -0.32417 0.23343 0.21642 -0.2611 0.082234 -0.30399 -0.11936 0.14208 -0.052509 -0.25122 -0.22477 0.052094 -0.34903 0.27491 -0.11244 0.29951 0.26191 0.12437 0.30532 -0.061578 0.068883 -0.0021915 -0.069667 0.32008 0.26071 -0.23254 0.076379 -0.20056 0.064546 -0.31387 0.062595 -0.15019 0.33912 -0.0090496 0.36837 0.19216 -0.22625 -0.0082418 -0.11223 0.16118 -0.46052 -0.091179 -0.2101 -0.024787 0.12483 -0.33266 -0.011648 -0.046781 -0.16715 -0.045204 -0.012046 -0.18273 0.027313 -0.052088 -0.12463 0.089849 0.031236 -0.046284 -0.10183 0.015689 0.028505 0.41893 -0.33513 -0.16907 0.081215 -0.31798 0.33488 -0.07572 0.12465 0.19711 0.13179 0.042467 -0.10059 -0.061605 -0.23083 0.55137 -0.16056 0.46969 0.21441 0.20486 -0.14737 -0.072532 -0.062257 -0.027511 -0.13189 -0.40392 -0.018608 -0.43712 0.035436 -0.022148 -0.10226 -0.13832 0.029951 0.3291 
liberal 0.090607 0.36529 -0.19312 -0.25308 -0.033109 -0.1188 -0.33458 0.063354 0.10623 0.017053 0.089328 -0.45124 0.36229 0.053601 -0.02754 0.016722 -0.3191 -0.42605 -0.3777 0.035212 0.09083 0.15125 -0.050783 -0.001745 0.076772 -0.16323 -0.063784 -0.16904 -0.10583 0.4679 0.014489 0.0048005 -0.1126 0.14732 -0.4157 -0.1015 0.18477 0.15661 -0.091867 0.15153 -0.13571 -0.079006 0.026274 -0.18476 0.11025 0.32564 0.20221 -0.12903 -0.013804 0.15212 0.38487 0.0090648 0.069068 -0.078112 -0.043551 0.18201 -0.059005 -0.0027491 -0.23607 -0.29858 0.037092 -0.0071566 0.19578 0.096405 -0.08231 0.12455 0.11042 0.13677 -0.15373 0.014829 -0.20246 -0.13591 0.086614 0.062782 0.15586 -0.093518 0.095772 0.038938 -0.26957 -0.1982 0.025342 -0.048738 -0.16691 0.041296 -0.091853 -0.12832 -0.095145 -0.11604 0.14243 0.10903 -0.097424 0.19277 -0.24189 -0.14014 -0.29761 -0.12605 0.29218 -0.22387 -0.15482 -0.016378 0.0017319 -0.4767 -0.033939 -0.053121 -0.10942 0.025321 -0.073524 -0.072448 0.060892 0.004104 -0.27068 0.25007 0.14362 0.029647 -0.21011 -0.031208 -0.4995 0.073759 0.12451 0.53412 0.24372 0.063341 -0.25336 -0.23129 -0.27841 0.10183 -0.23976 -0.012231 0.27085 0.088145 0.23213 -0.33494 -0.46183 -0.25608 -0.30565 -0.34089 0.01684 0.0019952 -0.11602 -0.17165 -0.25161 0.04116 -0.30917 0.27613 0.017433 -0.22169 0.052068 0.069653 0.19815 0.12321 0.004844 -0.33784 -0.01735 -0.37408 0.21121 -0.34565 0.046829 0.1609 -0.036393 -0.16464 -0.10348 -0.25823 -0.34872 -0.29738 0.37147 -0.053458 -0.1045 0.25769 0.062898 0.12581 0.10178 0.10331 0.31859 -0.019577 -0.093692 -0.15975 0.20224 -0.23101 -0.075848 0.13913 0.036372 0.10395 0.13825 0.063121 0.014421 -0.067676 -0.10752 -0.2503 -0.038857 0.25 0.31258 -0.094815 0.19308 -0.025422 0.10345 -0.037341 0.12154 -0.036495 -0.16208 -0.17097 0.47083 0.36532 -0.085195 0.020242 0.051521 0.083129 -0.14753 0.10452 0.068049 -0.0091868 -0.00172 -0.10529 0.2049 0.29546 -0.08613 -0.39496 -0.14676 -0.35903 -0.31686 0.35388 -0.023758 0.2327 0.26915 0.14196 0.23391 0.019676 0.10334 -0.13497 -0.11415 0.27774 0.041845 -0.22134 0.23839 -0.080588 0.10982 -0.26328 -0.081454 -0.099192 0.19334 -0.2627 0.043125 0.061196 -0.15405 -0.11602 0.054723 0.17562 -0.38208 0.05369 -0.058253 -0.12401 0.19362 -0.24181 0.01149 -0.034489 -0.20122 -0.092529 0.0093997 -0.16565 0.13575 -0.17731 0.16804 0.16131 0.0191 0.041237 -0.17555 -0.13607 0.079564 0.22308 -0.301 -0.10808 0.087299 -0.18933 0.40592 -0.16576 0.27296 0.15096 0.030514 0.27544 0.1983 -0.091117 -0.046274 0.28548 -0.14929 0.43594 0.068681 0.21151 -0.19568 0.024883 -0.12255 0.033272 -0.20332 -0.29354 0.1822 -0.44097 0.30081 0.28203 0.032423 -0.20491 0.18981 0.37296 
good -0.17416 0.15926 -0.16148 -0.039977 -0.099657 0.17113 -0.15669 -0.010151 0.18706 0.1588 -0.11971 -0.064372 0.10525 0.25221 -0.21945 -0.045934 0.14315 0.13017 -0.073385 0.03471 0.02925 -0.040645 -0.17094 -0.031914 -0.14073 0.016793 -0.16378 -0.039733 -0.32424 0.090783 -0.025423 0.14096 0.050933 0.057188 0.11608 0.066583 0.029596 -0.18915 -0.21081 -0.28749 -0.17113 0.012643 0.11435 -0.31525 -0.082045 0.15507 0.015761 -0.089197 -0.21749 -0.10049 0.1834 -0.028259 -0.23143 -0.044201 -0.23486 0.16719 -0.14699 0.11897 -0.044533 0.21743 0.036744 -0.21604 0.089207 0.060042 -0.351 0.26905 0.15401 0.37547 0.011377 0.0103 -0.017329 -0.018642 0.11359 0.070832 0.049536 0.014688 0.26568 0.06663 -0.17661 -0.033615 -0.056174 -0.18165 0.24832 -0.33814 -0.26338 -0.21847 0.055443 0.11473 -0.093589 0.043926 -0.060139 -0.098059 0.24711 -0.064575 -0.14505 -0.11541 -0.11 -0.23908 -0.025743 -0.036964 -0.056413 0.11046 -0.0062308 -0.17838 0.011346 0.12047 0.025257 0.068783 -0.028833 0.12213 -0.30127 0.15387 0.10646 -0.16517 0.28419 -0.26954 -0.28371 -0.040856 -0.29673 -0.1152 0.10693 -0.055379 -0.079481 0.034277 0.15974 0.00015344 0.005882 0.086325 -0.24709 0.11007 0.15346 0.20443 -0.21262 -0.029675 -0.30546 0.20236 -0.10823 -0.28904 0.12557 -0.11196 0.11791 0.051958 0.06342 0.11605 0.07672 0.033011 0.20704 0.0345 0.094293 -0.095681 -0.32611 -0.13105 0.06373 -0.017112 0.12612 -0.20266 -0.031323 -0.028017 0.1193 -0.20375 0.11044 -0.41447 -0.058223 -0.21662 0.32471 -0.10063 -0.050489 -0.20483 -0.039159 -0.26886 0.28818 0.022328 0.087049 0.027829 0.018999 0.14092 0.086767 -0.091707 0.0033263 0.20469 -0.095018 -0.2079 0.098259 -0.080213 0.09455 0.015685 -0.032075 -0.05882 -0.44025 -0.060855 -0.10502 -0.084592 0.10757 0.076313 0.040101 0.13636 -0.093133 0.030751 -0.05603 0.14615 0.24216 0.12168 -0.25207 0.15683 -0.088152 -0.09706 0.11693 0.079763 0.072022 -0.057813 0.12081 -0.14308 0.055195 -0.043797 -0.23986 -0.22905 0.11064 0.2125 -0.054812 0.2605 0.013119 0.18689 -0.053176 0.16275 0.053049 0.069332 0.12024 -0.070683 0.016269 0.080775 0.15873 0.037206 0.31826 -0.10542 -0.11552 -0.10391 -0.12097 -0.19567 0.3405 -0.14851 0.040038 0.050863 -0.15591 -0.15607 -0.10396 0.15919 -0.11725 -0.058141 -0.015634 0.0014237 0.14244 -0.055807 -0.047644 0.03331 -0.09297 0.10779 0.35589 0.11344 0.043093 -0.20089 0.20868 0.064589 0.06677 0.0032134 -0.10295 0.11812 0.024293 -0.095011 -0.19627 -0.018019 0.038754 -0.12616 0.090741 -0.17358 0.14025 -0.16916 0.16502 0.35847 0.11964 -0.080442 0.19395 0.337 -0.050962 -0.11655 -0.082951 -0.26978 0.069547 0.13944 0.14015 0.17826 -0.01448 0.068827 0.11478 0.085038 0.059229 -0.10142 0.0085801 -0.013934 -0.27635 0.14858 
bad -0.19931 0.10521 -0.07457 0.23225 -0.040549 0.14715 -0.031882 -0.20638 0.23219 0.13524 -0.25712 0.074775 0.09448 0.19193 -0.15024 -0.0045901 0.15481 -0.079699 0.059892 0.059968 0.011039 0.098307 -0.12108 0.21672 -0.034677 0.12684 0.032936 -0.1193 -0.33236 0.10054 -0.0067356 0.10491 -0.025958 0.0014471 -0.03568 0.03989 0.012795 -0.15053 -0.18329 -0.22157 -0.20806 -0.14638 0.14497 -0.17827 -0.14056 -0.042416 -0.080649 0.073611 -0.094603 -0.0145 0.20588 0.045535 -0.14255 -0.143 -0.19937 0.29203 -0.088824 -0.054389 -0.025762 -0.036006 0.29622 -0.19654 0.29283 0.07604 -0.32793 0.21861 -0.14119 0.3114 0.024992 0.12527 -0.09654 0.053354 0.10757 -0.050724 -0.00059507 0.17679 0.17036 0.11246 -0.089363 -0.17165 -0.25212 -0.15971 0.11324 -0.30164 -0.23702 -0.32793 -0.18643 -0.046425 -0.050797 0.053214 -0.13115 -0.14588 0.22183 -0.013862 -0.26062 -0.064912 -0.086646 -0.21873 -0.16294 -0.18113 -0.12995 -0.15901 0.078029 -0.19023 -0.031592 0.030779 0.12761 0.15814 -0.025353 0.11097 -0.27152 0.073002 0.14315 -0.036609 0.37182 -0.35587 -0.41274 -0.23857 -0.25803 0.06873 -0.063694 0.041555 -0.21957 0.031012 0.19198 -0.1409 0.048069 0.14179 -0.11746 0.16919 0.25142 0.27232 -0.063201 0.038836 -0.31154 0.023403 0.038382 -0.17493 -0.084802 -0.10685 -0.0062652 -0.023459 0.065772 0.17565 0.23066 0.0819 0.10937 0.19185 0.10607 -0.12096 -0.31016 -0.083048 -0.098067 0.084215 0.033747 -0.14873 -0.020364 -0.061681 0.20596 -0.34355 0.19071 -0.3622 0.0057642 -0.075891 0.34303 0.092137 -0.035026 -0.17427 0.061538 -0.2382 0.27217 -0.085171 0.16815 -0.10702 0.16283 0.099813 -0.016368 -0.13544 0.13542 0.19916 -0.24368 -0.076779 0.029918 -0.13066 0.29693 0.12392 0.075358 -0.20637 -0.48758 -0.010737 -0.04896 0.085296 -0.0011419 -0.19121 -0.03067 0.14716 -0.022898 -0.17218 0.26768 0.161 0.28249 0.17156 -0.29641 0.10843 -0.13279 0.15021 0.26984 0.031897 0.0033 -0.055065 0.044446 -0.32465 0.014347 0.073509 -0.3378 0.02369 0.10331 0.18176 0.081394 0.42377 0.038923 0.19238 -0.10215 0.11904 0.13575 -0.026952 -0.066729 0.11579 -0.083746 -0.050382 0.12891 -0.044872 0.41648 -0.10691 -0.35055 -0.17921 -0.060974 -0.2023 0.27813 -0.19265 -0.13301 -0.10204 -0.20394 -0.24801 -0.083389 0.063305 -0.2303 -0.010951 0.024401 -0.12333 -0.038989 -0.0684 -0.031993 0.085541 -0.16834 0.11173 0.39606 0.1061 -0.14214 -0.04712 0.26911 -0.080368 0.13478 -0.082961 -0.11651 0.17881 -0.05095 -0.14117 -0.10421 0.0011704 0.15424 -0.14835 0.10815 -0.19106 0.21602 -0.24764 0.10208 0.32643 -0.054012 -0.23516 0.33701 0.17646 -0.064672 -0.19213 0.10898 -0.12703 0.13045 0.32218 0.092046 0.009581 0.13011 0.22171 0.096972 -0.11912 0.079704 -0.10432 -0.15031 -0.052694 -0.246 0.022444 
clinton -0.00088083 -0.30359 0.14642 -0.21473 -0.243 -0.069628 -0.12976 -0.24175 0.039904 0.096007 0.032191 -0.13632 0.064174 0.25065 -0.2957 0.12367 -0.16757 -0.12526 0.0027134 0.077794 0.072843 -0.023813 -0.12619 0.2138 -0.23266 0.20476 -0.089138 -0.047901 -0.021213 0.10898 -0.14184 0.29012 -0.08577 0.10301 -0.14443 0.52784 0.05283 -0.10607 0.3136 -0.22502 -0.1707 0.28975 -0.012615 -0.30233 -0.1131 0.26925 -0.0089718 -0.11722 0.031853 -0.037021 -0.026375 -0.056682 -0.12303 -0.17176 0.23804 0.14851 -0.29825 0.089487 -0.22521 -0.2203 0.15759 -0.01996 0.057175 -0.01085 -0.45902 -0.0009841 -0.13385 0.022813 0.039943 -0.31786 -0.032692 0.023977 0.11536 0.084439 -0.058345 0.074869 0.02573 0.099761 0.11236 0.033424 0.004353 -0.096392 -0.12516 0.092093 0.17746 -0.1025 -0.25461 0.025087 0.071987 0.053694 -0.10444 -0.15566 0.0089324 0.0024519 0.025682 0.055688 0.11746 -0.070864 0.05719 -0.25379 0.32657 -0.2086 0.20339 -0.039131 -0.29143 -0.11094 -0.10657 -0.040861 -4.9296e-05 0.26148 -0.059369 0.055526 0.19035 -0.097837 0.099671 -0.070507 -0.24968 -0.0091836 -0.11338 0.19595 0.33178 -0.13608 -0.25464 -0.14287 0.21041 0.13141 0.11082 0.012808 -0.088013 0.4761 -0.14098 -0.33111 -0.32945 0.096797 -0.053026 0.058972 -0.051648 0.27396 -0.16407 -0.29975 -0.064365 0.018367 -0.066817 -0.057421 0.24489 -0.074765 0.14094 0.28433 0.12348 0.08764 -0.016147 0.077934 -0.10314 -0.015112 0.32866 0.1745 -0.22464 -0.10702 0.24903 0.0056743 -0.010392 -0.084179 -0.0061936 -0.16934 0.50804 0.058414 -0.14331 0.11294 -0.07289 0.028917 -0.19434 0.023588 0.27593 0.28262 -0.079397 -0.41619 0.23908 0.086366 0.097167 0.082236 -0.21266 -0.14861 -0.16148 0.17228 -0.10658 0.20163 -0.13214 -0.094755 -0.097404 0.35219 -0.042526 0.028346 0.27446 -0.22532 0.24935 -0.066606 -0.064888 0.28493 -0.24606 -0.054216 0.24197 0.31885 -0.20428 0.046232 0.058378 0.21782 -0.15935 -0.03246 0.045495 0.020242 -0.21745 -0.064382 0.01483 0.027017 -0.052995 -0.25623 -0.15351 0.21924 -0.034533 0.055539 0.2522 0.076088 0.0448 -0.043937 -0.29445 0.021198 -0.1096 -0.052935 0.1462 0.25231 0.11309 0.018876 0.1964 -0.14132 0.022549 0.10029 0.017966 -0.56516 0.14028 0.10855 0.076699 -0.065114 0.031379 0.22346 -0.25133 0.34082 0.11055 -0.031163 0.2256 -0.11905 0.085143 -0.29619 0.21008 -0.018573 0.1279 -0.2592 -0.080056 0.23077 0.18101 -0.092088 0.030827 -0.078438 0.07934 -0.11979 -0.11017 0.18695 0.013098 0.0013697 -0.23583 -0.11236 0.10818 -0.20587 0.39344 0.0035666 0.32849 0.15046 0.212 0.34374 -0.2594 -0.28764 0.057709 0.20192 -0.023082 -0.22059 -0.14717 -0.033978 -0.32671 -0.1672 0.16748 0.44469 0.0090777 -0.18976 0.087895 0.022111 0.088327 -0.11494 0.0033324 0.15922 -0.18815 0.43771 
heflin -0.077169 -0.13782 -0.26869 0.014843 0.42084 0.064961 0.34734 -0.11357 0.077778 0.41771 0.10174 -0.16344 0.4592 0.32364 0.29331 0.34355 -0.087944 -0.10532 0.25224 0.26798 -0.16481 0.21584 0.25304 -0.10463 -0.4327 -0.04058 -0.07177 0.23045 -0.58564 0.3861 -0.20038 0.21542 -0.56385 -0.099183 -0.31693 -0.078192 0.20493 -0.066303 -0.28534 -0.39215 -0.44511 -0.04853 0.025673 0.0012699 -0.26641 -0.17525 0.32536 0.035388 -0.30445 -0.42033 0.3952 -0.34039 -0.029174 -0.10704 0.305 0.24126 0.50381 -0.11042 -0.011511 -0.22609 -0.2959 0.10129 0.19985 0.045977 -0.17376 0.6973 -0.13533 0.11536 0.41532 -0.43232 -0.0015696 0.18364 -0.011198 0.012065 0.20525 -0.17059 0.45347 0.049547 0.060308 0.24726 -0.17829 -0.44452 -0.26073 -0.19044 0.18763 0.12143 -0.022959 -0.047841 -0.62224 0.047606 0.11394 -0.086055 -0.39004 0.1675 0.2001 0.39169 -0.18249 -0.2094 0.093801 -0.023277 0.51038 -0.35919 -0.15361 0.18083 -0.065023 0.085737 -0.11216 -0.71069 -0.098185 0.10204 -0.19932 -0.35858 -0.13316 -0.50904 -0.022045 -0.0017703 -0.38928 0.42334 -0.37868 -0.26369 -0.092049 -0.17717 -0.59303 -0.071601 -0.44989 0.31812 0.20759 0.088241 -0.27651 -0.30209 0.31219 -0.27088 0.048538 0.25575 -0.34347 -0.21436 -0.68377 -0.19232 -0.24224 -0.27248 0.48398 0.065176 -0.15754 0.1581 0.052541 -0.29823 -0.82999 -0.189 0.26322 0.30506 -0.15475 -0.21924 0.012162 -0.057968 0.18684 -0.6087 0.093507 -0.30604 0.046016 0.10054 0.15525 0.22163 0.060721 -0.19378 -0.034756 -0.048107 0.37053 -0.12422 0.38002 0.17257 -0.25299 0.020601 0.23705 0.08322 0.036578 -0.13224 -0.04134 -0.097985 -0.22281 0.22293 0.056202 0.072175 -0.21817 0.56017 0.47839 -0.58698 0.2401 0.17585 0.13081 0.12049 0.0004423 -0.31968 0.16569 -0.30043 -0.48372 0.16112 0.098594 0.20785 -0.24911 -0.13112 0.16161 0.31084 0.14395 -0.13651 0.2413 0.052801 -0.56918 0.33304 0.48859 0.23157 0.26451 -0.19607 -0.1106 0.43555 -0.35209 -0.63271 -0.38718 0.29071 0.64909 0.36678 -0.23334 -0.1651 0.59447 0.36853 -0.26741 0.0026628 0.21372 0.35785 -0.046382 0.00093817 0.79196 0.057668 0.40975 -0.67912 -0.30664 -0.51711 -0.20756 -0.60193 0.015185 0.047386 0.8463 -0.1523 0.16021 0.11131 0.14292 0.31891 0.018744 0.038618 0.37266 -0.10042 0.21746 -0.32606 -0.081451 -0.13753 0.2489 -0.16699 0.34441 -0.27841 -0.39804 0.43506 -0.36255 -0.36947 -0.7095 -0.06329 -0.19977 0.12699 0.27178 0.14237 -0.051784 -0.011177 0.62941 0.0096273 1.0605 -0.28273 -0.020981 -0.11745 0.3204 0.35913 -0.2355 -0.18298 -0.28508 0.091444 -0.41405 -0.080483 -0.1465 0.12233 0.0098818 0.19198 -0.081026 0.17267 -0.028411 -0.19947 0.12961 -0.23047 0.042039 -0.44937 -0.14494 0.16582 0.14446 0.66063 
shelby -0.19023 -0.21615 -0.077666 -0.28746 0.24035 -0.0935 -0.058115 0.022503 0.098252 0.5257 -0.27848 -0.027276 0.25633 0.049478 0.42869 0.30904 -0.34047 -0.19131 0.27354 -0.18004 0.096415 0.35577 -0.15686 0.065972 -0.49141 -0.17216 -0.25863 -0.14817 0.029186 -0.043986 -0.30774 0.35567 -0.21167 0.28092 -0.041039 0.25925 0.34531 0.055221 -0.37022 0.017156 -0.28517 0.078225 -0.22962 -0.24185 0.036829 -0.021689 0.14736 -0.18102 0.13246 -0.052018 0.48874 -0.28965 -0.25584 -0.045105 0.42874 -0.14686 0.10277 -0.12348 -0.14195 -0.20266 -0.13322 0.23065 0.20955 0.14504 -0.24399 0.20511 0.11196 -0.11872 0.24381 -0.23575 -0.34268 0.48254 0.17785 -0.31961 -0.016695 0.077695 0.093319 0.15838 0.074178 0.18451 -0.016388 -0.52893 -0.1684 0.016629 0.27024 -0.28497 -0.50062 -0.015004 0.015433 0.38004 -0.14644 0.1241 0.30508 0.12893 0.26747 0.15855 -0.35717 0.058315 -0.29059 0.094022 0.10742 -0.34808 -0.021376 0.3769 -0.1346 0.014965 -0.31851 -0.21627 -0.10154 0.24133 -0.055568 -0.0067641 -0.18369 -0.49408 -0.057747 0.011428 -0.069612 0.10548 -0.096915 0.27739 0.19513 -0.37789 -0.56336 -0.057233 0.047311 -0.23055 0.14309 -0.26779 -0.27936 -0.13195 0.096439 -0.15716 -0.41049 0.19773 -0.23808 -0.10194 -0.29595 -0.28319 -0.069216 -0.17183 0.0020155 0.17198 -0.083034 -0.033433 -0.26689 0.07492 -0.30216 0.07286 -0.14971 -0.20344 0.19121 -0.048715 -0.3372 -0.41573 0.22831 -0.47338 0.010032 -0.23968 -0.010642 0.18009 0.0030024 0.19295 0.18022 -0.22653 -0.15107 -0.017432 0.18805 -0.17587 -0.20834 -0.20829 -0.026511 -0.15081 -0.17723 -0.17763 0.037601 -0.067885 -0.020752 -0.10982 -0.019458 -0.03111 0.036238 -0.031103 0.076458 0.4747 0.30359 -0.13505 0.015244 0.26614 0.10663 -0.052591 -0.20918 -0.048858 0.11482 -0.35336 -0.0005779 -0.0074881 -0.038449 -0.12845 -0.10859 -0.12366 0.17288 0.33145 0.27318 -0.096436 0.12686 0.33511 -0.064089 0.50429 -0.076428 -0.16729 0.0071752 0.063244 -0.1362 0.23163 -0.27564 -0.050757 -0.050049 0.44024 0.3212 0.21447 -0.23659 -0.016377 0.41899 -0.097858 -0.37923 0.48435 -0.22634 -0.082605 0.10244 0.2488 0.50553 0.22282 0.34177 -0.36023 0.01935 -0.31271 -0.25777 -0.52617 -0.015584 0.097681 0.26067 -0.497 0.16929 0.40506 -0.31071 -0.18839 -0.44841 -0.053825 -0.067856 -0.19574 -0.0014038 -0.25996 -0.079169 0.34953 0.071602 -0.23857 0.43035 -0.20127 -0.41661 -0.16342 -0.16489 0.044754 -0.54634 0.24563 -0.16364 0.18911 -0.09881 0.30804 -0.156 -0.081239 0.066644 -0.23198 0.44193 -0.25716 -0.43099 -0.11016 0.015242 0.15578 -0.44105 -0.0775 0.071542 0.10305 -0.16169 -0.09135 -0.021842 0.10948 0.14119 0.28462 -0.1491 0.23405 -0.02571 -0.36548 0.1017 -0.25288 0.30954 -0.23144 0.23023 0.14733 0.0049278 0.31888 
stevens 0.23887 -0.32586 -0.31689 -0.14839 0.18167 0.049766 -0.10707 -0.22909 0.14631 0.22511 0.10799 0.22402 0.17605 0.079266 0.18511 0.10015 -0.05339 -0.023768 0.036344 0.01695 -0.21852 0.36205 0.26005 0.059101 -0.32252 -0.20561 0.10914 -0.13004 -0.31697 0.048659 -0.08573 0.1866 0.0095531 0.22823 0.071733 -0.17208 0.21168 -0.19421 -0.14117 -0.17961 -0.22835 0.23375 -0.26116 -0.24522 0.40652 0.27456 -0.011372 -0.30646 0.16867 -0.12902 0.16519 -0.3737 -0.20475 -0.15936 0.37256 0.14745 -0.016276 0.36064 -0.13059 -0.28251 0.053798 -0.043454 -0.22069 0.10374 -0.19229 0.083582 -0.20084 -0.19941 0.24955 0.03917 0.10653 0.071668 -0.12991 -0.067319 0.30659 -0.17417 0.033247 -0.083727 -0.076187 -0.0022928 0.093779 -0.20227 -0.12726 0.13386 -0.17807 0.26197 -0.37142 -0.090006 -0.048745 0.4654 -0.23974 0.29908 0.11765 0.14444 -0.043558 -0.054408 0.012252 0.084185 -0.19244 -0.24295 0.0056696 -0.64013 -0.22305 -0.11497 0.01835 -0.24274 -0.42737 -0.31539 0.21623 0.30876 -0.49818 0.097223 -0.12337 -0.052003 0.012829 0.14654 -0.21149 0.2063 0.13473 0.18248 0.41918 -0.093561 -0.047396 0.12971 -0.03593 -0.2046 0.16362 -0.047793 -0.16906 -0.28636 -0.17143 -0.20498 -0.27757 0.30513 -0.62785 -0.11195 -0.35004 0.13279 -0.057542 -0.17871 0.14607 -0.0059802 0.25795 0.22616 0.11585 -0.38581 -0.12571 0.047866 0.45839 0.29881 -0.11734 -0.30957 0.13078 -0.59976 0.21222 0.0070698 -0.009685 0.26712 0.30272 -0.10181 0.7539 -0.11549 0.23183 0.30459 0.065422 0.012351 -0.1027 -0.042138 0.041264 0.13123 -0.041135 0.18157 -0.10456 0.061923 0.21799 0.28454 -0.075845 0.078544 -0.41652 0.26751 -0.2755 -0.28576 -0.0088937 0.34741 0.047515 -0.10128 0.25014 0.065515 0.27696 -0.09685 -0.30441 -0.18168 -0.042046 -0.05076 -0.27029 0.049043 0.13543 0.075713 0.0090108 -0.13114 -0.16089 0.24705 -0.085907 -0.038253 -0.15137 -0.04172 -0.22562 -0.024332 0.32336 0.12408 -0.051608 -0.27812 -0.008013 0.31657 -0.2713 -0.56824 -0.17725 -0.0092205 0.41184 0.05137 0.12816 0.054721 0.50883 -0.052225 -0.029619 0.39093 0.049422 -0.097605 -0.27896 -0.024446 0.36156 0.15172 0.38662 -0.18221 -0.03631 0.085088 -0.038448 -0.023879 -0.099793 -0.046408 0.49648 -0.15035 -0.1025 0.42913 0.10545 0.30277 0.12506 -0.18616 0.027651 -0.3462 0.080002 -0.46892 -0.34226 -0.17106 0.017718 -0.21063 -0.012743 0.038307 -0.20086 0.2504 -0.13417 0.057355 -0.13857 -0.042792 -0.21199 0.44299 -0.0084303 -0.16346 0.11007 0.078078 0.35491 0.27106 0.25411 -0.23799 -0.17009 0.24316 0.027987 0.28506 -0.40309 0.15536 -0.28224 -0.19759 -0.51863 0.29114 0.087958 -0.23387 0.12251 0.12776 0.062997 0.41019 -0.0073074 -0.20236 0.027188 -0.33577 0.27521 -0.021774 0.12063 0.11861 -0.47293 0.19073 
murkowski -0.008324 -0.29096 -0.3004 -0.1116 -0.21959 -0.15786 -0.05373 0.35494 0.057609 -0.1848 0.10226 0.068684 0.33466 0.19942 0.41366 0.023917 -0.26396 0.27294 0.26983 0.31514 0.084284 0.26412 0.027755 0.084362 -0.2435 0.079709 0.13402 -0.27564 -0.24513 0.3015 0.026262 0.36762 0.40643 -0.25875 -0.27824 0.15894 0.024602 -0.21804 -0.13966 -0.2924 -0.1689 0.034401 -0.29379 -0.067956 -0.094314 0.14269 0.0030723 -0.21465 -0.011384 -0.55314 0.39852 -0.36818 -0.35458 -0.092476 0.38831 -0.216 0.28601 0.25042 -0.3682 -0.098452 -0.11436 0.23444 0.11255 -0.18798 -0.016407 0.30772 -0.22169 -0.19854 0.47998 -0.0026933 -0.13813 0.41992 0.16428 0.057131 0.45532 -0.13653 -0.057373 0.24795 -0.1649 0.0009715 -0.034406 -0.52328 -0.033048 -0.25887 -0.057464 0.5203 0.078391 -0.10991 -0.054336 0.21118 0.081816 0.0059131 0.07859 -0.16613 0.04619 0.11436 0.33363 -0.08088 -0.06248 -0.27502 0.40608 -0.13569 -0.09417 0.24725 0.36678 -0.15721 -0.13835 -0.047678 0.37148 0.52436 -0.42614 0.12947 -0.2803 -0.16638 0.36235 0.079786 -0.14066 0.19653 -0.32899 -0.049786 0.25602 0.33721 -0.26663 0.01827 0.29451 0.16298 -0.06117 -0.62498 -0.25722 -0.33997 0.2067 0.051586 -0.23156 0.38308 -0.3391 0.093121 0.10366 0.3229 0.080338 -0.37283 0.511 -0.30339 0.0036312 -0.33423 0.062025 -0.2265 -0.44239 0.3352 -0.20548 0.24636 -0.043746 -0.14393 0.0046265 -0.36841 -0.045713 -0.15622 0.066766 0.21639 0.37824 0.1664 0.48283 -0.041245 0.17399 0.39403 -0.018195 0.21384 -0.0037906 0.079618 -0.090452 0.35455 -0.18345 0.01518 -0.020949 0.33135 0.14444 -0.21381 -0.49642 0.14558 -0.075504 -0.0079213 0.0093796 -0.14108 -0.44173 0.29703 -0.36544 -0.44883 -0.016403 0.38175 0.010516 0.20267 -0.35875 -0.43267 0.2632 -0.40106 -0.40871 0.17285 -0.29824 0.4207 0.016119 -0.46016 0.13869 0.23175 -0.018423 -0.092812 -0.34488 0.35247 -0.043913 0.33293 0.28307 0.053237 -0.16229 -0.49533 0.051868 0.42353 -0.23375 -0.70385 -0.11611 0.24873 -0.02451 0.12567 0.049553 0.019403 0.62376 0.24408 -0.17855 0.42946 -0.11462 0.48346 -0.36139 0.071858 0.38911 0.50303 0.2559 -0.65846 -0.19704 -0.35391 -0.099758 -0.45892 -0.27542 0.32049 0.22756 -0.24823 -0.11371 0.0056718 -0.48357 0.41844 -0.092677 -0.28773 -0.1676 -0.54442 -0.10989 -0.36692 -0.33133 -0.037976 0.088362 -0.71025 -0.31669 0.27539 -0.40696 0.14997 -0.29845 -0.2088 -0.23527 0.14222 -0.007766 0.41152 -0.36962 0.30188 0.43745 -0.21427 -0.077638 0.24687 0.47574 -0.49689 -0.20277 0.69669 -0.046904 0.58736 -0.0031573 0.51503 -0.31503 0.21613 -0.29649 0.16841 0.34044 0.17837 0.10772 0.57157 0.042147 0.27391 -0.30087 -0.59821 0.08512 -0.26754 -0.054463 0.094308 0.35193 0.14164 -0.30262 0.35743 
mccain -0.023866 -0.3333 -0.17473 -0.20652 -0.020352 -0.075869 -0.36342 -0.003788 0.30011 0.12442 0.0065001 -0.28008 0.35509 0.24515 -0.10729 0.069979 -0.21316 0.17349 0.12649 -0.00059309 0.052829 0.099441 -0.071503 0.39452 -0.24034 -0.016742 -0.16375 -0.26758 0.28579 -0.049196 -0.16992 0.11331 0.13792 -0.22456 -0.14603 0.0024771 -0.0073693 0.072169 -0.061009 -0.28285 -0.45614 0.086777 -0.24953 -0.44234 -0.53706 0.26915 -0.084033 -0.040083 0.04011 -0.28927 0.36802 -0.17648 0.026453 0.09109 0.11898 0.33508 -0.14986 0.25437 -0.4608 -0.21995 -0.09443 0.037386 -0.069788 0.19395 -0.29669 0.33768 -0.14381 0.036875 0.29963 0.11762 -0.11875 -0.059033 0.26488 -0.30097 0.2942 -0.053208 -0.04817 -0.064779 -0.17086 0.15252 -0.1541 -0.50979 0.054883 -0.21885 0.25721 0.06631 -0.22769 0.094909 0.013284 0.0049163 0.23008 -0.19318 0.056632 -0.27336 0.034415 0.054547 0.050035 -0.25534 -0.077203 -0.2203 0.26157 -0.12738 0.18602 0.22484 -0.22662 -0.085986 -0.1745 0.084258 0.24103 0.27463 -0.022413 0.13084 -0.23178 0.051488 0.21189 0.16385 -0.13194 0.038595 -0.10906 -0.048583 0.27498 -0.048279 -0.62066 -0.0062718 0.091322 -0.10204 -0.21656 -0.0027064 -0.11584 0.14439 0.060519 -0.61816 -0.22641 0.35809 -0.047882 0.13607 -0.080072 0.17811 -0.016496 -0.16001 0.32526 0.01728 0.047144 -0.044621 0.37751 0.014756 -0.23537 0.091024 -0.045623 0.25526 -0.20509 -0.073103 0.0046671 -0.41931 0.25238 -0.040742 -0.040756 -0.09907 0.18858 0.13473 0.24196 -0.11221 -0.10829 0.059388 0.0709 0.024222 -0.20595 0.28696 0.080247 -0.1622 -0.070932 -0.070125 0.40982 0.013001 -0.29262 -0.0061668 -0.022487 0.13513 -0.12602 -0.080338 -0.18174 -0.12424 -0.11896 0.16074 0.17576 -0.0146 -0.16898 -0.037058 -0.17559 0.16301 -0.29678 -0.19515 0.13151 -0.51728 -0.12766 -0.02431 -0.049276 0.20789 -0.059404 -0.32721 -0.039271 -0.079576 -0.28761 -0.33093 0.083304 -0.07997 -0.18794 0.10106 0.43713 0.067826 -0.060781 -0.20329 0.2303 0.2608 -0.31759 -0.50747 -0.0086417 0.25999 -0.012977 -0.002649 0.096925 0.30078 0.33973 -0.088672 -0.1262 0.040549 -0.29103 0.081508 -0.020112 0.19681 0.28295 -0.019656 0.25492 -0.30609 -0.16262 -0.17835 0.054601 -0.28389 0.013807 0.025582 0.41056 0.055588 -0.050614 0.0059889 -0.037363 0.41683 0.12192 -0.030058 0.11153 -0.35988 0.32913 -0.37607 0.18826 -0.06516 0.099348 -0.52087 0.16783 0.32471 0.068329 0.16132 -0.27896 -0.19446 -0.18739 -0.097089 0.068722 0.2881 0.13959 0.0084755 -0.040832 0.12991 0.34347 -0.13077 0.17847 -0.14154 0.30244 0.23263 0.030467 0.37293 -0.47646 0.13995 0.057242 0.10911 0.15737 -0.32613 -0.22469 0.1253 0.21047 -0.075981 -0.3147 -0.009857 0.057097 -0.12241 -0.0082684 -0.054527 0.083971 -0.10755 -0.1754 0.35251 -0.30523 0.49747 
kyl -0.17322 -0.22599 -0.47637 -0.12203 -0.18955 0.17265 -0.0091632 0.028471 0.13769 0.35152 0.16988 -0.3989 0.28258 -0.19877 0.29755 0.11003 -0.34814 -0.25816 0.55126 -0.056578 0.083179 0.50817 0.19874 0.50619 -0.34255 0.016267 0.09211 -0.21244 -0.17679 0.47297 -0.58983 0.36751 -0.018524 -0.24529 -0.51943 -0.017431 -0.031762 -0.37983 -0.37883 -0.14968 -0.11754 -0.1449 -0.23869 -0.1356 -0.22844 -0.01312 -0.1856 -0.26152 0.049438 -0.19606 0.36195 -0.26689 -0.17563 -0.025486 0.50193 -0.21224 -0.25996 0.32669 -0.16498 -0.20043 -0.27149 0.14912 -0.027616 0.15968 -0.059226 0.3764 -0.0096436 0.39855 0.38602 0.0083099 -0.42678 -0.065709 0.20375 -0.05148 -0.092256 0.34643 -0.11828 0.12463 -0.40206 0.0044383 0.21406 -0.52593 -0.047954 0.075537 0.031575 -0.12066 -0.066138 -0.24113 -0.21577 0.2948 0.029058 -0.064379 0.53698 -0.21602 0.17282 0.2228 -0.38541 -0.10053 -0.020525 -0.23163 0.068179 -0.29839 0.056801 0.31537 0.091165 0.39735 -0.46932 0.06053 -0.038362 0.26725 -0.28323 -0.17341 -0.2869 -0.063336 0.24444 0.53291 0.055607 0.24955 -0.4021 0.090718 0.51545 -0.035721 -0.55648 -0.30422 0.086268 -0.10027 -0.25465 0.34587 -0.49416 0.11838 0.031137 -0.45905 -0.41606 0.13894 -0.0022112 0.16706 -0.11999 0.21501 -0.032945 -0.23848 0.26435 0.16396 0.0016413 -0.62407 0.040566 -0.11482 -0.36049 0.42378 -0.018978 0.27261 -0.28418 -0.21516 -0.025631 -0.24784 0.049641 -0.38896 0.35359 -0.21226 -0.36576 0.045336 0.30238 0.07442 -0.10331 -0.077857 -0.16654 -0.25662 -0.13887 0.17299 0.0007074 -0.24998 -0.49776 -0.08639 0.13833 0.056152 -0.20881 0.12961 -0.14369 -0.0742 -0.58304 -0.19181 -0.15754 0.0561 -0.10688 0.29909 0.096488 0.16299 -0.21321 0.11567 -0.18279 0.47622 -0.39094 0.048451 0.27491 -0.31086 -0.025374 0.044294 -0.41504 0.47067 -0.15498 -0.32051 0.20711 0.39085 -0.25779 0.0072609 -0.081629 0.41255 -0.32761 0.19485 0.45625 0.33666 -0.13906 -0.25951 -0.086419 0.96566 -0.29945 -0.24722 -0.24906 0.35368 -0.21901 -0.10443 0.27887 0.55168 0.18091 -0.12269 -0.05347 0.71328 0.085988 -0.010467 0.12636 0.37776 0.53412 0.11891 0.30864 -0.5103 -0.49436 -0.31057 -0.48785 -0.59988 0.077276 0.08882 0.4838 0.11159 -0.39351 0.25992 -0.21302 0.048121 -0.13475 -0.23118 0.11661 -0.27763 0.19782 -0.37517 -0.057078 0.34755 -0.22338 -0.48292 0.52573 -0.056932 -0.79642 0.19929 -0.37868 0.19315 -0.18107 0.028345 0.23 0.18972 0.090625 0.00028173 0.21412 0.23812 0.36295 0.15514 0.023545 -0.36644 -0.32727 -0.0052781 -0.051483 0.35109 -0.55679 0.24986 -0.19988 0.051734 0.08498 0.011398 -0.28066 -0.16217 0.067374 0.25784 -0.014462 0.55399 -0.16366 -0.37743 0.068564 -0.037895 -0.24545 -0.23069 -0.14812 0.3382 -0.31173 0.5503 
pryor -0.013069 0.012746 -0.2731 -0.081373 0.13621 -0.11955 0.024728 0.31684 0.42196 0.30256 -0.065188 -0.33154 0.10443 -0.11269 0.17088 0.48978 -0.45889 -0.070017 0.39115 0.060929 -0.21051 0.11739 0.24185 -0.011984 -0.5846 -0.19718 0.28403 -0.080572 -0.20409 0.26545 -0.14313 0.53089 0.098887 -0.062946 -0.099302 0.095537 0.22431 0.21559 -0.46735 -0.22393 -0.19239 0.25971 -0.013722 -0.39294 -0.14616 0.066887 -0.30021 0.22698 -0.097585 -0.37748 0.26164 -0.017299 -0.25017 -0.23692 0.11491 -0.074717 0.13348 0.37776 -0.16769 -0.4343 0.10001 -0.0094533 0.39032 0.18128 -0.3024 0.40757 -0.24164 -0.20898 0.090633 0.039736 -0.35692 0.31089 0.01119 -0.16532 0.066085 0.052215 0.22032 0.036198 -0.041933 0.16225 0.095101 0.0027064 0.057466 -0.34867 0.069267 0.081926 -0.11373 -0.16913 -0.3998 -0.20438 0.027338 -0.22132 -0.019073 0.28747 -0.24009 0.40947 0.10902 -0.10739 0.13046 0.08982 0.26349 -0.33402 -0.15395 0.23253 0.31539 0.15603 -0.25995 -0.39004 -0.14211 0.22992 -0.12778 -0.58255 -0.45851 -0.096304 -0.19857 0.22098 -0.2326 0.33297 -0.030425 0.12014 0.23353 -0.021567 -0.15499 -0.1164 -0.00031473 -0.022783 0.11707 0.04066 0.0032301 -0.25225 0.44116 -0.15867 -0.10687 0.35008 -0.44982 -0.34395 -0.37836 0.015463 -0.21222 -0.27479 0.079445 0.2801 -0.38134 -0.092274 0.33796 -0.090425 -0.51452 0.26952 0.15016 0.10707 0.025654 -0.2705 -0.043009 -0.15573 0.26807 -0.42438 0.058458 -0.27297 0.147 0.086271 0.086945 0.083131 -0.13645 -0.1894 0.10373 -0.23562 0.33895 -0.15526 0.024442 0.16464 -0.044854 0.087101 0.39181 -0.049131 -0.041128 -0.36075 -0.11597 0.062816 -0.20074 0.29961 0.3095 -0.12154 -0.20862 0.73542 -0.081494 -0.34397 0.031811 0.1422 -0.0032872 0.048885 -0.43645 -0.23004 0.16934 -0.49315 -0.44562 -0.13447 -0.4302 0.38207 -0.16914 -0.1713 0.38648 0.44765 0.0026088 0.071962 -0.031366 -0.31236 -0.34308 0.45228 0.24596 0.32313 0.029648 -0.14134 0.051299 0.099945 -0.20697 -0.38967 -0.21849 0.52929 0.047288 0.38752 0.48087 0.23749 0.33733 0.43327 -0.26461 -0.02732 -0.11065 0.064815 0.34069 0.14096 0.66713 0.14879 0.20206 -0.54645 -0.20053 -0.19885 0.093434 -0.56665 0.19629 -0.23249 0.3837 0.1831 0.049495 0.35812 -0.10554 0.088994 -0.031229 0.0611 0.26212 -0.4214 0.13328 -0.46869 -0.039768 -0.20165 0.092005 -0.67695 0.43171 0.014991 -0.14515 0.24499 0.048848 -0.22017 -0.26038 -0.16323 -0.4925 0.55396 0.014267 0.31274 -0.26438 -0.21218 0.016434 -0.41381 0.50606 -0.28834 -0.062711 -0.02732 0.23154 0.32702 -0.19947 -0.2857 0.14409 0.078852 -0.35885 0.236 0.12274 -0.055513 -0.16211 0.037382 -0.001598 0.59788 0.013619 -0.22421 -0.14935 -0.53819 0.1711 -0.25304 0.030964 0.41421 -0.34584 0.19263 
bumpers 0.01301 -0.34138 -0.31512 -0.32656 -0.046315 -0.18825 0.25005 0.35955 0.18896 0.079128 -0.53456 -0.20942 0.26623 0.095857 -0.14633 0.45001 -0.063231 -0.044344 0.13232 -0.0013193 0.061466 -0.072682 -0.0064833 -0.059362 -0.42855 -0.0818 -0.027315 -0.14109 -0.52043 0.3737 -0.22744 -0.11219 -0.39278 -0.019846 0.020424 0.26614 -0.022776 0.29881 -0.43012 -0.13833 -0.5231 0.39228 0.2982 -0.27334 -0.11377 0.048228 0.075651 -0.020839 -0.23905 -0.050322 -0.20236 -0.12537 -0.21497 -0.085693 0.37745 -0.13112 0.40882 -0.025534 -0.035257 -0.10632 -0.065342 0.043671 -0.15359 0.27317 0.098693 0.13884 0.041995 0.074969 -0.070379 -0.0044035 -0.048078 -0.089961 0.19096 -0.36766 0.16942 0.13659 0.22524 0.30448 -0.012164 -0.22461 0.21608 -0.060285 -0.41482 -0.29517 -0.004442 0.15352 0.0025118 -0.12851 -0.3873 -0.31723 -0.19441 -0.27247 -0.12566 -0.134 -0.40867 0.046652 -0.30668 -0.11063 0.17982 -0.20653 0.23195 -0.16862 -0.034176 0.073745 0.077406 -0.095448 0.061723 -0.33806 -0.035049 0.48835 -0.065759 -0.02906 -0.27006 -0.20594 0.17607 0.00035666 -0.22968 8.935e-05 -0.25809 -0.19397 -0.040623 0.052841 -0.53134 0.34299 0.13934 0.17497 0.21821 0.26356 -0.10457 0.082193 0.46232 0.17267 -0.14244 0.37186 -0.28699 -0.3398 -0.55719 0.21876 -0.069149 -0.5608 0.019653 -0.13018 -0.14295 0.10721 0.52678 -0.091241 -0.21636 -0.14608 0.096962 0.20646 -0.043354 -0.015348 -0.066451 0.02021 0.078998 -0.44345 -0.54353 -0.50282 -0.24754 0.12511 -0.043927 0.33143 0.23686 0.016187 0.10227 -0.18182 0.054024 -0.28265 0.33515 0.42395 -0.25229 0.090627 0.26828 0.55991 -0.17484 -0.30049 -0.029769 -0.13771 -0.35977 0.088941 0.064744 -0.23065 -0.36058 0.36238 -0.081372 -0.35119 0.17626 -0.10897 0.30931 0.013562 -0.26319 -0.38987 0.76922 -0.052484 0.12396 -0.025099 -0.15362 0.24644 0.070209 -0.13359 0.21999 0.65162 0.064858 -0.063091 0.37113 0.21479 -0.25381 0.31678 0.40506 0.046598 -0.41991 -0.22523 0.056909 0.029723 -0.42666 -0.39103 -0.27242 0.2088 -0.016698 0.18237 0.24971 0.19156 0.46436 0.42113 -0.20559 0.26115 -0.3453 0.15022 0.006585 0.24034 0.52512 -0.13409 0.20182 -0.39338 -0.37733 -0.83333 -0.28722 -0.64401 -0.081229 -0.36516 0.072131 0.13577 0.41241 0.26932 -0.57613 0.19556 0.07015 -0.18001 0.75167 -0.2665 0.058414 -0.50608 0.30539 0.10131 0.079895 -0.48352 0.010465 0.03258 -0.24764 0.42287 0.10542 -0.24016 -0.16672 0.21142 -0.47336 -0.06936 0.11009 -0.17291 -0.14814 0.013858 0.23428 -0.18013 0.62264 -0.16987 0.06843 -0.26745 -0.19394 0.17575 -0.58988 -0.30569 0.081074 0.17859 -0.34955 0.23893 -0.43641 -0.29839 -0.37301 0.26355 0.084528 0.062015 -0.34442 -0.36239 -0.081243 0.083534 0.26047 -0.3401 0.17735 0.27313 -0.12235 0.22459 
boxer -0.46442 -0.1226 -0.57306 -0.16065 -0.38458 -0.085141 -0.19134 0.098949 -0.1141 0.035357 0.39564 -0.06603 0.35936 0.18682 -0.32205 0.020894 -0.26583 -0.32884 -0.20226 0.090272 0.31979 0.28627 -0.13369 -0.19081 -0.62132 0.1057 -0.1902 -0.16059 -0.20179 -0.26302 -0.050849 0.18584 0.13725 -0.018155 -0.2349 0.083095 0.13182 -0.023411 0.023263 -0.12504 -0.077294 -0.35764 -0.077513 -0.1836 -0.0022395 0.020216 0.088086 0.018089 -0.12051 -0.33473 0.0027563 -0.52534 -0.2433 -0.18867 0.018532 -0.15467 0.51407 0.16091 -0.074235 -0.22039 0.1168 -0.12269 0.33367 0.3179 0.040615 0.087378 -0.31274 -0.13105 0.23442 -0.065444 -0.17135 -0.11718 0.36876 -0.14575 0.25784 -0.28746 0.41573 0.11491 0.12491 -0.30187 -0.0082834 -0.051385 0.11415 -0.17069 0.086939 0.081721 -0.20452 -0.16762 -0.19299 -0.08795 -0.074184 0.12883 0.11698 -0.059428 0.24181 -0.27368 0.2208 -0.13385 0.24342 -0.38672 0.28795 -0.28944 -0.014291 0.47081 -0.0056458 0.061106 0.35575 0.087549 0.21506 0.019871 0.085003 0.055469 -0.10053 -0.36584 0.075748 0.15821 -0.16031 0.13739 -0.41011 -0.052367 0.25192 0.28403 -0.22106 -0.14195 0.1429 0.21512 -0.04768 0.24524 0.10211 0.1218 -0.19167 -0.18108 -0.29474 0.32366 -0.65951 -0.29363 -0.08364 0.41653 -0.53007 -0.49237 -0.034167 0.08144 0.069184 -0.25182 0.12766 -0.12158 -0.34506 -0.21833 -0.080262 0.21055 0.11811 -0.3942 -0.26361 -0.079293 0.1299 -0.31129 -0.25735 0.15391 0.22472 0.13123 0.25878 -0.23781 0.14968 -0.18317 0.1879 0.29271 -0.14972 0.078825 -0.32896 0.10529 -0.18617 -0.069394 0.22319 -0.10913 -0.057502 -0.072707 -0.023716 -0.31313 0.22059 0.14846 -0.26481 -0.19321 0.023616 0.34153 0.23704 0.11467 0.04875 0.010553 -0.057455 0.21741 0.10646 -0.0084715 0.10204 -0.011271 -0.004594 -0.43038 -0.10627 0.21997 0.00949 -0.28667 0.14459 0.20429 0.18533 0.12678 0.21667 0.37658 0.27382 0.39076 0.2672 0.39343 -0.24003 -0.12298 0.28963 0.18997 -0.073479 -0.27411 -0.084532 0.050282 0.25792 0.036037 0.56491 -0.029102 0.042872 0.075855 0.032978 0.029507 -0.16681 0.064038 0.2688 -0.1077 0.45157 0.30565 0.01724 -0.28185 -0.36701 -0.47334 -0.30748 -0.36512 -0.12415 0.3363 -0.021581 0.027807 -0.23047 0.19645 -0.26833 0.42809 -0.13764 0.64933 0.13734 -0.33518 0.20254 -0.18997 0.25596 0.16067 0.073929 -0.36529 -0.061378 0.17157 -0.55952 -0.18919 0.033044 -0.032472 -0.18147 0.31934 -0.077685 -0.045183 0.047925 0.1617 0.32189 -0.026357 0.44198 -0.047308 0.51831 -0.055499 0.21048 0.14772 0.11745 0.39857 -0.1377 0.29367 0.17463 0.2087 -0.23378 -0.10675 -0.36182 0.017055 0.24195 0.02141 -0.018374 0.14353 -0.31102 -0.077625 0.14 -0.139 0.19338 0.10035 0.18217 0.38007 0.18417 0.38442 
feinstein -0.26308 -0.12508 -0.48842 -0.20171 0.083195 0.043459 -0.10929 0.15122 0.030255 0.14496 0.31096 -0.17719 0.3122 -0.08172 0.13921 0.18537 -0.5408 -0.15409 0.13259 0.066565 0.3984 0.36326 0.066658 -0.05691 -0.59738 -0.018337 0.0022859 -0.13493 -0.22857 0.0047272 0.10438 0.10612 -0.077277 0.16351 -0.3957 0.30455 0.23387 -0.22752 0.24184 -0.0087963 0.0030954 -0.25121 0.10351 -0.16247 -0.088631 -0.10557 0.042048 -0.2192 -0.00023617 -0.43305 -0.054443 -0.52101 -0.246 -0.30198 0.32194 -0.12189 0.43823 0.14948 -0.069802 -0.15686 0.17614 -0.059782 0.26072 0.54902 -0.3832 0.22807 -0.2129 -0.28227 0.46506 -0.031484 -0.2263 -0.16944 0.40235 -0.23732 0.68659 -0.3343 0.26044 0.1301 0.21312 0.17048 -0.0010035 -0.3038 -0.10158 -0.15953 0.15316 0.11372 -0.2649 -0.23685 -0.21349 0.10993 0.011402 0.053183 0.54752 0.1154 0.061632 0.035829 -0.057382 -0.39398 0.33009 -0.39681 0.23072 0.0040732 -0.22188 0.11643 -0.26572 0.21884 -0.039953 0.136 0.21831 0.36462 0.13771 -0.16267 -0.10401 -0.62072 0.18827 0.16648 -0.22712 0.1464 -0.12686 -0.22584 0.42316 0.077262 -0.51427 -0.24155 0.029535 0.057987 -0.16847 0.12267 0.091323 0.39379 0.084787 -0.16959 -0.24617 0.24604 -0.28445 -0.52249 0.2254 -0.062721 -0.53202 -0.039304 -0.13127 0.012416 -0.22498 -0.27292 0.30846 0.018194 -0.081831 0.17397 -0.21022 0.072317 0.076464 -0.25809 -0.14545 -0.037114 0.050788 -0.15283 -0.19227 0.069849 -0.036447 0.067234 0.095518 -0.051023 0.028138 0.32246 0.31329 -0.013048 -0.24878 0.13831 0.011685 -0.17507 -0.44767 -0.13728 0.13568 -0.090659 -0.24485 -0.25921 -0.094188 0.10022 -0.060496 0.18561 0.011175 -0.016243 -0.24915 0.42269 0.31435 0.02779 -0.16511 0.34177 0.14347 -0.042664 -0.014729 -0.47836 0.20523 -0.26825 -0.20129 -0.059091 -0.16193 0.34625 0.069559 -0.12523 0.14053 0.31681 -0.092093 0.20809 0.011519 0.28591 -0.021789 0.35572 0.34846 0.22055 -0.16286 -0.008078 0.043819 0.44146 0.099365 -0.14459 0.094421 -0.18013 0.1864 0.10184 -0.053424 0.17295 0.18184 -0.42274 -0.37461 0.16539 -0.061558 -0.036069 0.53628 0.018718 0.22777 0.13657 0.3242 -0.32097 -0.40513 -0.37716 -0.39186 -0.68659 0.039016 0.31369 0.28881 -0.00042881 -0.077401 0.061582 -0.10503 0.144 0.10715 0.21658 0.12624 -0.30225 0.19795 -0.38552 0.27478 0.015396 0.1934 -0.28723 0.10939 -0.0242 -0.35407 0.074719 0.14611 -0.085634 0.16117 -0.097203 -0.092646 0.069234 0.037339 -0.098431 -0.037974 -0.34364 0.19791 -0.19341 0.2244 -0.30631 -0.019248 -0.074475 -0.16437 0.5163 0.095099 0.059151 0.062529 0.38008 -0.019198 0.082921 -0.4416 0.26546 -0.00024525 -0.23439 -0.01291 0.15292 -0.23045 -0.40547 0.0013046 -0.19018 0.19762 0.21726 0.085338 0.20957 -0.17581 0.29207 
brown 0.076323 0.26148 -0.30967 -0.13008 0.32973 0.032538 -0.3225 0.2658 0.032115 0.062486 -0.19873 -0.085261 0.074809 0.06118 -0.077931 0.065583 0.01854 0.028156 0.011688 0.11256 0.067806 -0.15258 -0.036577 0.23897 -0.33834 -0.090606 0.080994 -0.36403 -0.34282 -0.17213 0.12102 0.10583 -0.017221 0.32605 0.057428 -0.19795 -0.10702 0.12094 -0.18093 -0.29907 -0.19289 -0.14606 -0.086681 -0.22255 -0.040475 -0.23689 -0.19241 0.16175 0.15154 -0.10385 0.082922 -0.066976 0.08092 -0.24208 0.1824 0.22722 0.21164 0.0013162 -0.038629 -0.15964 0.33605 -0.095297 0.059517 0.22458 -0.1344 0.20555 0.0092276 -0.16808 0.098886 0.012966 -0.11283 -0.15598 0.16293 0.091362 0.21775 -0.0027315 0.26204 0.04596 0.15441 0.23793 -0.23523 0.055054 -0.25068 -0.30571 -0.020616 -0.044342 -0.12696 -0.11059 0.28894 0.033102 -0.29539 0.011851 0.25324 -0.11957 -0.0053146 -0.011123 -0.0035238 -0.26249 -0.17481 -0.14756 0.12695 -0.15992 0.090702 0.10453 -0.075175 0.2174 -0.041936 0.14195 0.12449 -0.035539 -0.025705 0.005088 -0.077965 -0.42599 -0.28089 -0.040106 -0.43394 0.12549 -0.28054 0.18343 0.18659 0.041761 -0.069236 0.18389 0.19058 0.11213 0.1894 0.13875 -0.13803 0.39441 -0.021806 0.040028 -0.039973 -0.091424 -0.42994 -0.1095 -0.018954 -0.06426 -0.28399 0.12419 -0.078285 0.12005 0.16598 0.18656 0.27943 -0.028877 0.058546 0.35465 0.16758 0.033522 0.3374 -0.20899 0.041318 -0.41653 0.15493 -0.25102 -0.099827 0.42161 0.29639 -0.022052 0.2046 0.031877 0.38751 -0.13333 0.27703 0.12886 0.25143 0.16264 -0.20231 0.16969 0.049849 0.045543 0.10355 -0.019943 -0.0040238 -0.18529 0.13422 -0.1921 0.1458 0.1422 0.069618 -0.17156 -0.25707 0.17501 -0.062085 0.069727 -0.17325 0.00010192 -0.10528 0.19294 -0.16698 -0.15954 -0.0072119 -0.17907 0.15655 -0.16158 0.087958 0.15764 0.088787 0.20746 -0.11898 0.015676 0.31446 0.28269 0.20836 0.13339 -0.085547 0.12419 0.19987 -0.075319 0.095857 -0.26712 -0.032681 0.10844 -0.30084 -0.32614 -0.34663 -0.0012089 0.28013 -0.053999 -0.044063 -0.12376 0.25899 0.086159 0.12768 0.057657 0.0618 0.063347 0.25652 0.10323 0.16489 0.32359 0.24617 0.012761 -0.028977 -0.089872 0.048516 -0.4497 -0.068532 0.13352 0.42061 -0.20039 -0.11821 0.39166 -0.29101 0.081552 -0.11311 0.34905 -0.15003 -0.065712 -0.11158 -0.2543 0.034327 -0.10101 0.19084 -0.068707 0.056941 0.14114 -0.074713 0.26507 0.032517 -0.017303 0.043592 -0.23487 -0.15941 0.076319 0.017512 -0.046806 -0.15213 -0.13045 0.089411 -0.3571 0.36114 -0.11937 0.21818 0.32833 0.20893 0.22429 -0.12077 0.23533 0.072202 0.14056 -0.20107 0.24334 -0.026691 0.13934 0.021228 0.060891 0.1351 0.52161 0.026693 -0.13892 -0.27425 -0.15495 0.14271 0.14458 0.020665 0.54314 -0.11963 0.43859 
campbell 0.076677 0.27746 -0.28285 0.048434 0.41749 0.10265 -0.049394 0.0011534 0.067486 0.059117 -0.20844 -0.31725 -0.19262 -0.068636 -0.1529 -0.15724 -0.052646 0.04325 0.02629 0.13105 0.1257 -0.21642 -0.0657 0.055427 -0.39677 -0.22428 0.065058 -0.17727 -0.21156 0.13133 -0.036686 0.39328 -0.11511 0.19363 -0.15587 -0.11689 0.061236 0.038395 -0.10789 0.12487 -0.10591 0.15874 0.064019 -0.30591 -0.16431 -0.012971 0.11483 0.081846 0.093153 -0.10339 0.14268 -0.17692 -0.1788 -0.11892 0.57645 0.065033 0.15507 -0.061137 -0.056977 -0.17345 0.082971 -0.072735 -0.0001358 0.15345 -0.22177 0.29156 -0.090991 -0.011814 -0.093052 0.08498 0.17877 -0.13956 0.064228 -0.10354 -0.058131 -0.36839 0.29587 0.22407 -0.037205 0.12095 -0.18795 0.20723 0.083667 -0.064649 0.091661 -0.17421 -0.020995 0.19836 0.26755 0.032048 -0.25908 -0.056279 0.046263 -0.059786 0.038919 0.18797 0.083489 -0.065019 -0.11857 -0.19018 0.13248 -0.37126 -0.10539 -0.059462 -0.18694 0.37135 0.078668 -0.26366 0.063759 0.039131 -0.066857 -0.016393 0.027422 -0.34411 -0.092214 0.043565 -0.13498 0.28364 -0.059661 0.21429 0.079402 0.0044395 -0.42262 0.071274 0.10124 0.08481 0.34099 0.096657 -0.31236 0.0028416 -0.050433 0.12033 -0.2359 0.25157 -0.36472 0.060766 0.083324 0.014398 -0.4541 0.015576 -0.055217 0.22375 0.11981 0.29044 0.14418 -0.037448 -0.12659 0.048251 -0.13689 -0.051791 0.23969 -0.45739 0.052099 -0.42988 0.2915 -0.17752 -0.17582 0.17365 0.019838 -0.18071 0.60421 -0.14778 -0.03084 0.012846 0.1644 0.12452 0.27795 0.2383 0.016274 -0.054976 -0.050418 0.17948 0.0014903 0.091304 -0.034387 -0.085334 0.045062 0.013703 -0.14185 0.047789 0.18329 -0.24006 -0.096787 0.25893 -0.13673 -0.17159 -0.14403 0.18657 0.020813 -0.035758 0.030748 -0.13466 0.033563 0.020768 0.24205 0.026999 0.22623 -0.0075291 -0.10736 -0.11531 -0.12843 -0.090064 -0.1958 0.23757 0.31541 0.14149 -0.22065 0.15702 0.31771 -0.078642 -0.078299 0.054965 -0.23193 -0.020907 -0.17896 -0.0941 -0.17456 -0.16819 -0.062114 -0.082799 -0.023156 0.19627 -0.030226 0.11571 -0.068168 0.18891 0.0063352 0.2612 0.02926 0.082388 0.41061 0.16934 0.28243 -0.073569 0.11638 -0.017142 -0.13136 -0.32721 -0.032037 0.65483 0.21749 -0.14637 -0.049066 0.2955 -0.17599 0.047119 -0.018357 0.23692 -0.079636 -0.29123 -0.13476 -0.3492 0.011211 -0.19825 -0.043539 -0.17503 0.12806 -0.15599 -0.12421 0.29089 -0.11186 -0.28296 0.002501 -0.00041707 0.060503 0.31014 0.092226 0.056081 -0.33748 -0.064793 0.2479 0.028278 0.24741 -0.11538 0.12295 0.1764 0.2122 0.63859 -0.29459 -0.035983 0.2973 0.068908 -0.38128 0.27094 0.28959 -0.14137 0.03354 -0.11245 -0.31835 0.15237 -0.25541 -0.16219 -0.31716 -0.064436 0.07017 0.12855 0.32469 0.31877 -0.051563 0.065502 
campbell 0.076677 0.27746 -0.28285 0.048434 0.41749 0.10265 -0.049394 0.0011534 0.067486 0.059117 -0.20844 -0.31725 -0.19262 -0.068636 -0.1529 -0.15724 -0.052646 0.04325 0.02629 0.13105 0.1257 -0.21642 -0.0657 0.055427 -0.39677 -0.22428 0.065058 -0.17727 -0.21156 0.13133 -0.036686 0.39328 -0.11511 0.19363 -0.15587 -0.11689 0.061236 0.038395 -0.10789 0.12487 -0.10591 0.15874 0.064019 -0.30591 -0.16431 -0.012971 0.11483 0.081846 0.093153 -0.10339 0.14268 -0.17692 -0.1788 -0.11892 0.57645 0.065033 0.15507 -0.061137 -0.056977 -0.17345 0.082971 -0.072735 -0.0001358 0.15345 -0.22177 0.29156 -0.090991 -0.011814 -0.093052 0.08498 0.17877 -0.13956 0.064228 -0.10354 -0.058131 -0.36839 0.29587 0.22407 -0.037205 0.12095 -0.18795 0.20723 0.083667 -0.064649 0.091661 -0.17421 -0.020995 0.19836 0.26755 0.032048 -0.25908 -0.056279 0.046263 -0.059786 0.038919 0.18797 0.083489 -0.065019 -0.11857 -0.19018 0.13248 -0.37126 -0.10539 -0.059462 -0.18694 0.37135 0.078668 -0.26366 0.063759 0.039131 -0.066857 -0.016393 0.027422 -0.34411 -0.092214 0.043565 -0.13498 0.28364 -0.059661 0.21429 0.079402 0.0044395 -0.42262 0.071274 0.10124 0.08481 0.34099 0.096657 -0.31236 0.0028416 -0.050433 0.12033 -0.2359 0.25157 -0.36472 0.060766 0.083324 0.014398 -0.4541 0.015576 -0.055217 0.22375 0.11981 0.29044 0.14418 -0.037448 -0.12659 0.048251 -0.13689 -0.051791 0.23969 -0.45739 0.052099 -0.42988 0.2915 -0.17752 -0.17582 0.17365 0.019838 -0.18071 0.60421 -0.14778 -0.03084 0.012846 0.1644 0.12452 0.27795 0.2383 0.016274 -0.054976 -0.050418 0.17948 0.0014903 0.091304 -0.034387 -0.085334 0.045062 0.013703 -0.14185 0.047789 0.18329 -0.24006 -0.096787 0.25893 -0.13673 -0.17159 -0.14403 0.18657 0.020813 -0.035758 0.030748 -0.13466 0.033563 0.020768 0.24205 0.026999 0.22623 -0.0075291 -0.10736 -0.11531 -0.12843 -0.090064 -0.1958 0.23757 0.31541 0.14149 -0.22065 0.15702 0.31771 -0.078642 -0.078299 0.054965 -0.23193 -0.020907 -0.17896 -0.0941 -0.17456 -0.16819 -0.062114 -0.082799 -0.023156 0.19627 -0.030226 0.11571 -0.068168 0.18891 0.0063352 0.2612 0.02926 0.082388 0.41061 0.16934 0.28243 -0.073569 0.11638 -0.017142 -0.13136 -0.32721 -0.032037 0.65483 0.21749 -0.14637 -0.049066 0.2955 -0.17599 0.047119 -0.018357 0.23692 -0.079636 -0.29123 -0.13476 -0.3492 0.011211 -0.19825 -0.043539 -0.17503 0.12806 -0.15599 -0.12421 0.29089 -0.11186 -0.28296 0.002501 -0.00041707 0.060503 0.31014 0.092226 0.056081 -0.33748 -0.064793 0.2479 0.028278 0.24741 -0.11538 0.12295 0.1764 0.2122 0.63859 -0.29459 -0.035983 0.2973 0.068908 -0.38128 0.27094 0.28959 -0.14137 0.03354 -0.11245 -0.31835 0.15237 -0.25541 -0.16219 -0.31716 -0.064436 0.07017 0.12855 0.32469 0.31877 -0.051563 0.065502 
dodd -0.16163 -0.17751 -0.07133 -0.45995 -0.11421 -0.082096 -0.072727 0.22931 0.081861 0.42599 0.00014495 -0.60486 0.29425 -0.13325 0.037781 0.16977 -0.4137 -0.1282 -0.00056701 -0.030156 0.097958 0.028139 -0.10453 0.14894 -0.35395 -0.064874 -0.074634 -0.075664 -0.31252 0.15777 -0.016454 -0.03454 0.13006 0.11221 -0.1748 0.16008 -0.035494 -0.051157 -0.16165 -0.14928 -0.29232 0.13257 -0.19771 -0.27802 -0.30701 -0.009669 -0.047914 -0.3178 -0.10215 -0.27939 0.17369 -0.11115 -0.080301 -0.35891 0.16074 0.020352 0.032734 0.18056 -0.15561 -0.063374 -0.44272 -0.2094 0.28814 0.22352 -0.12814 0.16919 -0.10823 -0.050603 0.30232 -0.31322 -0.057481 0.16282 0.14937 0.097021 0.37423 0.19924 0.094095 0.11322 -0.010256 -0.23046 0.020423 -0.77475 -0.09259 0.27815 0.40643 0.14101 -0.11128 -0.028635 -0.20215 0.19015 -0.01443 0.073332 0.29646 -0.35804 0.32799 -0.30659 0.34558 -0.41926 -0.016515 -0.99799 0.33617 -0.40823 -0.018551 0.16628 -0.074665 0.0016171 -0.32226 -0.11016 -0.45197 0.18538 -0.65998 0.02381 -0.125 -0.56029 0.30498 -0.027649 -0.33739 0.11171 -0.11859 -0.15814 -0.088763 -0.552 -0.37988 0.26159 0.010787 -0.26971 0.14851 -0.20924 -0.15602 0.13697 0.22504 -0.0055206 -0.08913 0.47687 -0.39833 -0.31523 -0.14184 0.033595 -0.22156 -0.11749 0.17671 0.063975 -0.0099622 -0.25168 0.24553 -0.16073 0.097165 0.31273 -0.013901 -0.11382 0.045353 -0.2795 0.13435 -0.010883 0.39854 -0.20896 0.054738 -0.16931 -0.052434 0.10104 0.23967 0.20488 -0.020792 -0.10318 -0.082531 0.15669 -0.056416 -0.031727 -0.31387 0.25988 -0.11653 -0.030317 0.038196 -0.024052 0.089553 -0.32801 0.2219 0.063693 -0.27364 -0.1286 -0.044601 -0.31523 -0.16054 0.70211 0.2193 -0.10697 0.14953 0.02575 0.059785 0.21041 -0.17477 0.078106 0.38417 -0.13523 0.02379 -0.11911 -0.10064 0.31535 -0.30394 -0.32986 0.2841 -0.020246 -0.28974 0.10807 0.095688 0.14806 0.06947 0.026418 0.079021 0.14271 -0.02227 -0.030168 -0.14688 0.38632 -0.48521 -0.070702 -0.02843 0.21561 0.22259 0.48982 -0.056968 0.048866 0.23381 0.14401 -0.11056 0.029444 0.017304 0.37972 -0.086626 0.34033 0.48255 -0.11533 0.41238 -0.060718 -0.40327 -0.056514 -0.15321 -0.26004 -0.31639 -0.016637 0.32938 -0.18601 0.11137 -0.2427 -0.15003 0.32651 0.29697 0.025021 0.57946 -0.042035 0.068397 -0.34303 -0.14428 0.0090498 0.23149 -0.25136 0.13412 -0.069375 -0.29778 0.004294 -0.33796 -0.077631 -0.2246 -0.11587 0.18803 -0.19667 0.22357 -0.22815 0.073007 -0.025448 0.15369 0.099412 0.3138 -0.46227 -0.059452 -0.026779 0.021999 0.56607 -0.72515 0.14331 0.17951 0.0776 -0.1423 -0.33729 -0.21106 0.096707 -0.14 0.27624 -0.022266 0.27827 -0.096864 -0.18013 0.086607 0.12425 -0.14796 -0.2738 -0.26956 0.1302 -0.15493 0.6374 
lieberman -0.22527 -0.15251 -0.14728 0.15194 0.0076319 0.13429 -0.26865 -0.0069581 -0.049806 0.30944 -0.15292 -0.23662 0.50856 0.37793 -0.13446 0.12864 -0.28425 -0.11795 -0.11647 0.051818 0.13932 0.11931 -0.10136 -0.17638 -0.27014 -0.053541 -0.063432 -0.029807 -0.14946 -0.0096632 0.11761 0.09053 -0.039356 -0.30113 -0.27156 -0.099437 -0.23684 0.092133 -0.05806 -0.075853 -0.37362 0.061651 -0.051661 -0.25873 -0.52294 0.18902 -0.06353 -0.17037 0.096602 -0.29592 0.24047 -0.01982 -0.078275 0.032107 0.027653 0.17664 0.15846 0.34764 -0.20367 -0.034238 -0.19419 -0.36076 0.23157 0.356 -0.18126 0.63492 -0.19705 0.24857 0.32629 -0.32811 -0.27118 0.05333 -0.023422 0.076971 0.15906 0.32768 -0.18171 -0.15044 -0.072416 -0.017758 0.046908 -0.22745 -0.15977 0.01166 0.061383 0.14116 -0.06539 -0.075995 -0.099108 0.024568 0.11121 -0.084848 -0.045966 -0.29478 0.020435 -0.11064 0.12032 -0.34022 -0.031383 -0.32224 0.27073 -0.32764 -0.11007 0.0031177 -0.22411 0.095085 -0.35009 -0.31585 0.012515 0.34176 -0.25708 -0.025613 -0.22586 -0.18211 0.12075 -0.1295 -0.14752 0.19856 -0.46428 0.20807 0.19078 -0.15835 -0.45007 -0.10708 -0.31496 -0.020682 -0.2275 -0.18661 -0.12936 0.04344 0.046783 -0.14534 -0.18479 0.29786 -0.15235 0.094795 -0.3276 0.035741 -0.33773 0.04567 0.23617 -0.19909 -0.22704 -0.1752 -0.13714 -0.13935 -0.26529 0.31396 0.057761 0.2936 -0.1248 -0.011816 0.3111 -0.19916 0.57483 -0.007369 -0.12547 -0.36885 0.11517 -0.070225 0.42979 -0.25729 -0.030096 -0.36314 -0.039161 0.069938 -0.28438 0.19617 -0.045465 0.13162 0.016848 -0.14872 0.33863 -0.12755 -0.032122 -0.5894 0.13737 0.18352 -0.38824 -0.25756 0.068416 -0.27879 -0.19132 0.26379 0.035899 0.31491 -0.28639 -0.057542 0.17682 0.051323 -0.1097 -0.038826 0.40395 -0.29611 -0.1332 -0.084476 -0.19838 0.11903 -0.27837 -0.045626 -0.20719 0.15789 -0.22052 -0.26282 0.23333 0.12485 -0.097119 0.028429 0.22933 0.3437 0.038134 0.033737 0.086047 0.16281 -0.60481 -0.42654 0.075036 0.1491 -0.27916 -0.15126 0.2245 0.039701 0.051869 -0.090952 -0.083695 0.0060409 -0.39024 -0.10177 0.13425 0.29692 0.17778 -0.24869 0.37629 -0.14959 -0.2971 -0.39576 -0.15889 -0.25159 0.15217 0.4116 0.031078 0.098797 -0.12229 -0.18364 0.07563 0.2565 0.076644 0.11092 0.29975 -0.24486 0.25264 -0.50345 0.081584 0.19661 0.075144 -0.46526 -0.028122 0.42692 0.06436 0.067685 -0.402 0.10729 -0.19818 -0.021473 -0.09241 -0.084133 0.2122 -0.029617 -0.050915 0.061063 0.54357 -0.025159 0.43066 -0.29606 0.19929 0.010342 0.01389 0.45209 -0.46654 0.39278 -0.0099826 0.10648 0.21709 -0.36411 -0.64476 -0.10443 -0.3373 -0.19256 -0.22868 0.07358 -0.076145 -0.1964 -0.20614 -0.28347 0.13862 0.0067693 -0.11527 0.47427 -0.0078817 0.15308 
roth -0.064718 -0.15482 -0.12129 0.095852 0.23124 0.08134 0.075696 -0.092879 -0.33186 0.55354 -0.27968 0.11255 0.0067001 0.030013 -0.14488 -0.027758 -0.25221 -0.22237 0.19647 -0.012891 0.19983 0.040924 0.14777 0.021599 -0.38575 -0.056999 0.017157 -0.47578 -0.091604 0.24974 0.19502 0.32233 -0.21777 -0.12574 -0.13397 -0.12864 -0.010298 -0.21857 -0.28476 -0.11609 -0.34068 0.097444 -0.13326 0.034061 -0.12881 -0.11269 -0.071269 -0.538 -0.030367 -0.20184 0.57509 -0.098101 -0.0062912 -0.034287 0.46885 0.31417 0.2113 -0.12054 -0.070135 -0.30909 0.30051 -0.23282 0.0073041 0.36065 0.068522 0.25411 -0.12211 0.13801 -0.37224 -0.0093317 -0.31059 0.45333 -0.25392 0.10364 0.35676 0.14764 0.1257 0.22723 -0.17357 0.33847 0.10085 0.045755 -0.15487 -0.30312 -0.40688 0.39729 -0.022517 -0.028728 -0.062409 0.25279 0.032144 0.1234 -0.025345 0.027113 0.16323 0.01139 -0.36272 -0.2762 0.12273 0.17273 0.22359 -0.32251 0.058578 -0.24441 -0.21646 -0.18604 0.016772 -0.33911 -0.10156 0.046986 -0.22084 -0.060637 -0.40826 -0.33234 0.3443 0.27515 -0.2335 0.12292 0.1755 0.26845 -0.0060862 -0.10322 -0.35542 -0.095514 0.051413 0.14811 -0.0055244 0.097704 -0.38534 -0.065529 0.038402 0.2065 0.15936 0.37879 -0.34275 0.05519 -0.46826 -0.24154 0.099202 -0.16369 -0.1986 0.26789 0.071678 -0.16446 0.21402 -0.41704 0.26971 0.061935 0.019998 -0.18218 0.042809 -0.2125 0.061614 -0.32649 0.35917 -0.36985 0.07143 -0.3481 0.24677 0.17455 0.0019238 0.038567 -0.042182 -0.025964 0.048746 0.060837 0.016538 -0.37873 -0.14368 -0.21987 0.24483 -0.1679 0.18909 -0.16176 -0.12173 -0.38796 0.0192 0.19295 -0.39154 0.23267 0.32288 -0.10993 -0.208 0.21631 -0.10655 -0.10919 -0.56624 -0.075479 0.17007 -0.26346 -0.80563 0.21426 0.18193 -0.29767 0.14519 -0.15522 0.22145 -0.034898 0.034129 0.18995 0.11785 0.19449 -0.078955 0.29298 0.052507 -0.11773 -0.37689 0.24711 0.3229 0.0070537 -0.0053492 0.28343 0.044199 -0.23171 -0.29213 -0.27057 -0.13395 0.37303 0.011545 0.07857 0.18782 0.39935 0.35262 0.049055 -0.03677 0.17561 0.12363 0.1874 0.13666 0.036923 0.35755 0.028764 0.37555 -0.37615 -0.032635 -0.25558 0.17609 -0.28838 0.43727 0.45939 -0.19744 -0.079745 0.21347 0.17716 -0.32355 -0.0023947 0.02557 0.034134 0.087296 -0.26262 -0.033922 -0.32284 -0.42768 0.12556 -0.15656 -0.11571 0.060696 -0.20904 -0.3882 0.11887 -0.18226 -0.12002 -0.42375 0.18406 -0.3634 -0.15816 0.371 -0.026092 -0.086308 -0.237 0.217 0.21683 0.29098 -0.54504 -0.13148 -0.24645 0.034446 0.55464 -0.51663 0.56975 -0.02589 0.26836 -0.44379 -0.17399 0.32822 0.13318 0.073578 0.30511 0.078563 0.28324 0.32522 -0.30501 -0.06121 -0.25597 -0.17585 -0.065068 0.17863 0.14611 0.27914 0.19833 
biden -0.057116 -0.026423 0.017886 -0.23186 0.18202 -0.2811 -0.11047 0.16499 -0.33028 0.29592 0.039922 -0.1309 0.067406 0.29866 -0.28541 0.069695 -0.059826 -0.1266 0.22897 0.19399 -0.067786 -0.268 -0.10737 0.19054 -0.54862 0.11648 -0.099767 -0.27153 -0.36039 0.050981 0.092161 0.039763 -0.049564 0.063596 -0.43828 0.024068 0.11602 -0.23075 0.063669 -0.47637 -0.33028 -0.13658 0.36919 -0.26943 -0.53512 0.17512 0.080145 -0.72217 0.063685 -0.42508 0.33298 -0.36471 -0.36919 -0.3487 0.087888 0.095688 0.17105 0.37135 -0.25262 -0.48776 0.10648 -0.28325 0.25049 0.15964 -0.28556 0.30204 -0.23822 0.30646 0.32133 -0.14048 -0.0081573 0.076529 0.0020641 0.021582 0.12551 0.22424 0.033822 0.079499 0.12737 0.013877 -0.0074261 0.07753 -0.15829 -0.14941 0.21111 -0.038495 -0.056933 0.0091007 0.049428 0.12544 0.2217 0.19617 0.40703 -0.10686 0.1886 -0.18315 -0.1627 -0.28041 0.17222 -0.42932 0.28741 -0.39402 -0.0032141 -0.13525 -0.19793 -0.070729 -0.22612 0.1126 0.042752 0.23058 -0.58229 0.11387 -0.29571 -0.29889 0.27837 0.013554 0.074283 0.35248 -0.25161 0.16263 0.37484 -0.25216 -0.26409 -0.070959 0.026418 -0.13847 -0.038666 0.17307 -0.29061 0.282 0.039665 -0.40338 -0.11092 0.31746 -0.31243 0.16943 -0.41015 0.16041 -0.45403 -0.33713 0.12588 -0.014555 -0.019617 -0.15597 0.07188 -0.1976 0.098143 0.63019 -0.10444 -0.10161 -0.27182 0.097785 0.50815 -0.056419 0.35263 0.11635 -0.073253 -0.11737 0.24069 0.063607 0.11653 -0.02217 0.12379 -0.022129 0.011601 -0.023687 -0.20474 0.014228 -0.18573 0.079234 -0.10527 -0.19231 0.24353 -0.089681 -0.25096 -0.22299 0.16434 0.24103 -0.12845 -0.04113 -0.025826 -0.14308 -0.16799 0.19978 0.13336 0.030101 -0.034453 -0.069533 0.022882 -0.0028774 -0.057023 -0.12801 0.55017 -0.046124 -0.14408 -0.046693 -0.36219 0.30487 -0.059537 0.11463 0.28141 0.10293 -0.073736 0.021627 0.20743 -0.10475 -0.03537 -0.11689 0.045242 0.21928 -0.034196 0.23762 0.29549 0.050226 -0.38516 -0.65205 -0.29489 0.66179 -0.15144 -0.04316 0.11073 -0.010202 0.21987 -0.053534 -0.10177 0.22084 -0.0014924 0.32961 0.037572 0.5147 0.25406 0.015372 0.41019 -0.2985 -0.33444 -0.068395 0.024084 -0.19077 0.23373 0.013536 -0.038947 0.00041072 0.17236 -0.066395 -0.1906 0.29225 0.25823 -0.33276 0.40693 -0.33803 0.16859 -0.28948 -0.26072 0.071051 0.17522 -0.35711 0.20047 0.34949 -0.075738 -0.18456 -0.18033 0.037634 -0.073013 -0.067433 0.075644 0.12314 0.11343 0.014749 0.049839 -0.050363 0.44506 0.037864 0.24422 -0.22165 0.07532 0.1545 0.12261 0.23896 -0.59548 0.18178 -0.059383 0.17174 -0.098498 -0.37733 -0.056014 0.064459 -0.292 0.034242 0.034872 -0.098684 -0.076135 -0.30696 -0.33099 -0.075346 -0.14295 -0.17661 -0.22993 0.31959 -0.012081 0.1736 
mack 0.1666 0.17676 -0.27456 -0.12877 0.099681 -0.090559 -0.027792 0.1174 -0.20325 0.10391 -0.048582 0.18793 -0.09518 0.32769 0.14837 0.072819 0.089896 -0.24003 0.245 -0.031914 -0.1299 -0.0085906 -0.17492 0.58179 -0.15777 -0.14532 -0.24517 0.11395 -0.19104 0.006762 0.11539 0.41407 0.39583 0.53459 0.11734 0.33657 0.019237 -0.35753 -0.52902 -0.06928 -0.39379 0.18508 -0.043513 -0.044658 0.17757 0.15765 0.015064 -0.34789 -0.10242 -0.077705 0.21907 -0.35741 -0.22626 -0.25176 0.71093 -0.18036 0.11356 0.044977 -0.092745 -0.26617 0.12868 0.02519 0.038316 0.16144 -0.11307 0.48887 0.16302 -0.14836 0.076237 -0.043427 -0.094662 -0.13973 0.083531 -0.052885 -0.0084662 -0.092217 0.35808 0.17223 -0.19069 0.017154 -0.029296 0.042636 0.015665 -0.11673 -0.031914 0.038493 -0.26107 -0.34545 0.10158 0.29 -0.11825 -0.42652 0.16767 0.2028 0.063052 0.024436 -0.15429 -0.13431 -0.077826 0.10546 0.24852 -0.26956 0.14941 0.20707 -0.12694 0.05131 -0.22021 -0.022286 0.23976 0.0038001 -0.15275 0.17274 -0.11326 -0.56141 0.18011 0.0062251 -0.23623 0.040511 -0.29082 0.021345 0.040217 -0.18499 -0.37217 0.15293 -0.054827 0.029578 0.22163 0.37105 -0.15565 0.16336 0.228 0.31961 -0.098612 0.44113 -0.51702 0.037182 -0.30937 0.050818 -0.010289 -0.13073 0.060319 -0.010785 0.32807 -0.27992 0.23537 -0.15774 -0.5228 -0.15038 0.020696 0.20633 0.17733 -0.011321 -0.11815 -0.11139 0.23711 -0.20304 0.15803 -0.15554 0.13567 0.012819 0.53057 0.043041 0.20963 -0.11212 0.22235 0.16338 0.17215 -0.036282 0.2296 0.18794 0.10298 0.16423 0.041039 -0.015324 -0.08684 -0.08885 0.044531 0.16222 -0.20454 -0.27542 0.027105 -0.17706 0.098136 0.37624 0.070008 -0.41088 -0.21507 0.089552 -0.30802 -0.21229 -0.25393 -0.19927 0.16431 0.066689 0.16784 -0.073614 -0.1393 -0.070289 0.081271 -0.11848 -0.021974 -0.021036 0.27614 -0.20574 0.19457 0.14526 0.127 0.32947 -0.040572 0.21644 0.22141 -0.028214 0.030699 0.035125 -0.2978 -0.30423 -0.31985 0.38438 0.49132 -0.18782 -0.0060654 0.24567 0.15585 -0.16492 -0.1769 0.21725 -0.028174 0.34987 -0.16793 0.15116 0.56012 0.038148 0.17346 -0.11755 -0.19804 -0.62177 -0.14033 -0.32186 0.023164 0.47589 0.43238 0.10515 -0.1464 0.11094 -0.082428 0.25157 -0.099584 -0.024923 -0.20091 -0.40502 0.062793 -0.43018 0.14395 -0.17227 0.079426 -0.16025 0.1333 0.030784 -0.36441 0.23044 -0.53696 0.16739 0.0026921 -0.14782 -0.10268 0.16042 0.33365 0.17131 0.062876 0.096835 0.52875 -0.11216 0.37852 0.11974 -0.15757 0.42222 -0.010192 0.53307 -0.14673 0.096234 -0.054943 -0.19027 -0.24096 -0.095844 -0.23871 -0.14196 -0.046191 0.39589 0.081691 0.21979 0.1674 -0.054724 0.24362 0.0046157 0.21129 0.030576 0.21585 0.16422 0.094742 0.28379 
graham 0.031844 0.073358 -0.18548 0.097546 0.33583 0.069303 0.0081547 -0.080387 -0.072208 0.1965 -0.21037 -0.15328 0.18271 0.10063 -0.010525 0.064956 -0.16267 -0.28531 -0.030195 -0.12234 0.029634 0.10012 -0.28071 0.085693 -0.30309 -0.12665 -0.19064 -0.41405 0.019783 -0.11664 0.16788 0.64888 -0.11202 0.0098779 -0.012588 -0.20186 -0.19828 -0.094627 -0.2369 -0.083912 -0.24512 0.23809 -0.2951 -0.20688 -0.15355 0.11117 -0.14664 -0.22998 -0.072684 0.22795 0.23385 -0.084408 -0.29405 -0.034751 0.2946 0.19255 -0.10033 0.17805 -0.18254 0.11133 -0.03758 -0.038243 -0.017632 0.51493 -0.19119 0.35015 -0.10772 0.26143 0.30601 -0.035785 -0.19075 -0.39735 0.17006 -0.17099 0.0267 -0.11046 0.2616 0.14023 -0.041119 -0.013485 -0.0084346 0.071531 0.10255 0.30217 0.35062 -0.12248 -0.24802 -0.026594 0.20704 0.35498 -0.084098 -0.12794 0.10255 -0.19093 0.057414 0.15355 -0.034503 0.048311 -0.040906 -0.020114 0.32434 -0.15603 0.14984 -0.034796 -0.34726 0.23866 -0.11887 -0.081714 -0.083786 -0.17403 -0.24234 -0.15845 -0.15756 -0.32093 -0.22354 0.10863 -0.014833 -0.024735 -0.23935 -0.076168 -0.020016 -0.10966 -0.43899 -0.0045391 -0.011107 0.09476 0.085335 -0.12749 -0.17274 0.11798 0.0033434 0.32479 -0.24217 0.47786 0.059313 0.036697 -0.15424 -0.031619 -0.079683 0.09808 0.23969 -0.13139 -0.078251 -0.41343 0.096708 -0.057981 -0.22598 0.29612 -0.014757 0.054938 -0.084213 -0.083488 0.19469 -0.14825 0.19297 -0.16634 -0.038689 -0.13275 -0.17794 0.01662 0.36012 -0.1598 0.19462 -0.039366 0.068969 0.22097 0.17141 0.051732 -0.038884 -0.12142 0.01726 0.01947 0.056023 0.087499 0.091525 0.12562 0.17612 -0.068702 -0.21964 -0.13303 0.065545 -0.073732 -0.3157 0.051158 0.26583 -0.16934 -0.26213 0.019469 -0.21102 -0.065199 -0.24079 -0.1566 0.30986 -0.097991 0.23369 -0.09665 0.0069952 0.16073 -0.2435 -0.33636 -0.099201 0.10501 -0.17805 -0.33617 0.16801 0.0066929 -0.1842 0.14373 0.22363 0.10508 -0.0052042 -0.12225 0.14109 0.24865 -0.10414 -0.36118 -0.21754 0.20872 0.086705 -0.011456 0.058791 0.027505 0.040179 0.15546 -0.050522 -0.034352 0.090745 0.2993 -0.13423 0.0085675 0.40243 -0.020489 0.023789 -0.41801 0.3317 -0.15703 -0.11982 -0.22376 0.29034 0.3006 0.2752 -0.10487 -0.13444 0.076887 -0.17143 0.062638 -0.0029057 0.15559 0.054163 -0.3195 0.36302 -0.17378 -0.059096 -0.028682 0.033851 -0.11378 0.29685 0.13948 -0.1691 0.16678 -0.22789 -0.20201 -0.15175 0.0063114 0.025143 0.30265 0.2855 -0.17303 -0.21759 -0.21352 0.56201 -0.07876 0.30417 -0.40345 0.10742 0.14029 0.059676 0.19738 -0.48995 0.057981 0.075823 0.30744 -0.20028 0.042822 -0.038352 -0.1116 0.11741 -0.023589 0.0073643 -0.011642 -0.12567 -0.49588 0.081391 -0.24051 0.10064 -0.15867 -0.12173 0.34026 0.21302 0.16516 
nunn -0.17826 -0.12847 -0.040475 -0.13585 -0.065269 -0.05431 0.016603 0.39322 0.25324 0.66642 -0.39564 -0.19343 -0.22101 0.12515 -0.52278 0.14316 -0.14469 -0.21486 0.25472 -0.093863 -0.014405 0.21075 0.089365 0.18814 -0.2858 -0.34805 0.39342 -0.13924 -0.2029 -0.02611 -0.070266 0.43098 0.011058 -0.11519 -0.32425 0.055299 -0.087945 -0.28461 -0.38009 0.022853 -0.21948 0.21117 0.10784 -0.52657 -0.25307 0.10826 0.035973 -0.41314 -0.27445 -0.30557 0.38227 -0.54409 -0.52628 -0.1166 0.77781 0.11231 0.093344 0.094079 -0.1774 -0.1705 -0.17315 0.17733 0.3925 -0.10431 -0.35305 0.35946 -0.31516 0.26285 -0.073684 -0.20213 0.092875 -0.0062832 0.040938 -0.33346 0.028215 -0.065879 0.063254 0.40079 0.1602 -0.053197 -0.043053 -0.45269 -0.41143 -0.062266 0.17835 -0.013666 -0.00046105 0.16211 -0.18493 -0.051623 0.14448 0.2078 0.096016 0.15226 -0.010883 0.40295 0.28992 -0.18588 0.39866 -0.10223 0.74418 -0.1793 -0.19919 0.12007 0.16816 0.060129 -0.21745 -0.2888 0.13077 0.11392 -0.28092 -0.14883 -0.50799 -0.32575 -0.030949 -0.11392 -0.20591 0.39658 -0.33537 -0.20594 0.082522 -0.047939 -0.30463 -0.0018176 0.19258 0.11147 -0.043581 -0.17488 -0.17249 -0.21582 0.020828 -0.2324 -0.031645 0.11298 -0.013563 0.032431 -0.088039 -0.081475 -0.01094 -0.50758 0.33431 0.2675 -0.55168 -0.16046 0.13114 -0.16608 -0.30293 0.2165 0.21805 0.2127 0.22157 0.0030585 -0.066619 -0.020121 -0.12717 -0.16482 -0.095682 -0.18748 0.19817 0.17128 0.11681 -0.18024 0.23954 0.083309 0.23188 0.1946 0.37645 -0.36109 0.15701 0.23616 -0.23121 -0.075973 0.25879 0.10782 0.21537 -0.23862 -0.0068659 0.21579 -0.15536 0.04655 -0.09728 0.3007 -0.13487 0.46678 -0.085239 -0.18561 -0.3093 0.15976 -0.090124 0.14832 -0.31171 0.14011 0.41265 -0.23053 0.041183 0.19835 0.073725 0.31253 -0.19362 -0.17461 0.32529 0.07477 0.025691 -0.10467 0.5313 0.18802 -0.30593 0.52128 0.31808 0.28438 -0.45708 0.27836 0.104 0.19903 -0.080015 -0.57978 -0.30268 0.12943 0.11577 0.0011229 -0.10313 -0.045804 0.3793 -0.15741 0.20401 0.20246 -0.23052 0.16533 0.20865 0.15994 0.93005 0.25811 0.31746 -0.58397 0.0014635 -0.18289 -0.010393 -0.36542 0.10886 0.019054 0.049485 0.26313 0.1785 -0.10826 -0.013134 0.11944 0.065264 0.21745 0.24143 0.011637 0.040643 -0.09283 -0.11123 0.077589 -0.017075 -0.54842 -0.066023 0.093995 -0.43394 0.2174 -0.33844 -0.42033 -0.010499 0.49397 0.067464 -0.1688 0.10096 0.071533 0.22198 0.039964 0.33638 -0.36329 0.66539 -0.057537 -0.17241 0.13577 0.24417 0.1755 -0.22283 -0.16835 -0.16241 0.31374 -0.067646 0.1246 -0.26339 -0.1496 0.22384 -0.066803 0.27928 0.068883 -0.20298 -0.51041 0.001515 -0.23316 0.047386 0.19547 0.30728 0.31162 0.10856 0.37296 
coverdell -0.064428 -0.53318 -0.35494 -0.45608 0.12014 -0.10905 0.26769 0.19408 0.1583 0.34567 -0.19431 -0.11378 0.32067 0.2683 -0.34541 -0.12033 -0.33997 -0.25598 0.40191 0.28632 0.016898 0.23434 0.33393 0.26605 -0.35117 -0.11885 0.17832 -0.42235 -0.12932 0.22023 0.12682 0.18404 0.042706 0.096558 -0.32434 0.31536 0.18246 -0.39354 -0.27491 0.020205 -0.39193 0.24737 0.064063 -0.38524 -0.043893 -0.13526 -0.11923 -0.058301 0.034321 -0.33266 0.27877 -0.3912 -0.045012 0.32025 0.49286 0.019635 0.27801 -0.010258 0.055456 -0.26333 0.073914 0.090973 -0.31256 0.090584 0.27764 0.39168 0.10853 0.12994 0.049806 -0.29027 -0.29817 -0.24948 0.27806 0.18506 -0.076743 0.13148 0.076336 0.27269 -0.48633 0.039497 -0.12432 -0.3169 0.021552 -0.43121 -0.010314 0.16869 0.23326 0.20117 -0.047747 0.28593 0.042746 0.24426 0.036284 -0.34916 -0.19165 0.032369 0.29034 -0.016985 0.13681 0.096257 0.65162 -0.5539 0.043679 0.21306 -0.06774 -0.025089 0.012862 -0.27095 0.32186 0.090479 -0.21607 0.11361 0.0053026 -0.44507 -0.1151 -0.00041777 -0.33931 0.43777 -0.25917 0.021885 0.1664 0.076052 -0.45283 0.026633 0.014333 -0.0093854 -0.13207 0.17213 -0.28392 -0.17524 0.014477 -0.078488 -0.09381 -0.077925 -0.43433 0.038226 -0.026269 -0.294 0.060252 -0.27268 0.1938 0.14908 0.15424 -0.12641 -0.21742 -0.10291 -0.46868 0.18561 -0.04794 0.43793 0.037108 0.30193 0.058952 -0.032719 0.1229 0.12769 0.25283 0.22711 0.11 -0.098555 0.37758 0.26353 -0.028923 0.10931 0.16179 0.4254 0.29603 0.12506 0.25257 -0.217 -0.25061 0.17582 0.228 0.043328 -0.019625 -0.079562 0.22282 -0.093171 -0.064424 0.21815 0.063995 0.19133 -0.075063 0.40621 -0.16069 -0.1864 -0.30142 0.090458 -0.13186 0.29912 -0.43555 -0.16834 0.10049 -0.37345 -0.095454 -0.0080266 0.044208 0.27744 -0.43081 -0.33276 0.019535 0.37161 0.20516 0.16787 0.15927 -0.04364 -0.14574 0.18657 0.076699 -0.0063658 -0.20662 -0.21712 -0.098866 0.40841 -0.21154 -0.58265 -0.0036484 0.11093 0.5277 0.33374 0.12784 -0.013596 0.17247 0.022099 -0.013319 0.090473 0.052193 0.27799 -0.083226 0.25077 0.55961 0.12613 0.26368 -0.43479 -0.19999 -0.37789 -0.28844 -0.61512 -0.024642 -0.0048784 0.68459 0.38093 0.068067 0.0075188 -0.054341 0.13191 -0.24034 0.21118 -0.037427 -0.44503 0.28366 -0.13406 0.064445 0.21107 -0.15766 -0.75623 0.086743 -0.029747 -0.069229 0.22077 -0.19249 0.095252 -0.29702 -0.025275 -0.25073 0.35997 -0.048885 0.1124 -0.032338 -0.13665 0.36797 0.083188 0.35957 -0.32968 0.23343 0.35513 0.041502 0.50402 -0.30888 -0.38085 -0.47196 -0.2746 0.021544 0.39878 -0.073065 -0.024852 0.13588 0.13792 0.30425 0.46855 -0.24176 -0.17868 -0.15878 -0.12895 0.1912 -0.046546 0.19352 0.26505 -0.048062 0.28086 
inouye -0.22009 -0.10915 -0.22449 -0.1683 -0.24473 -0.093304 0.19503 0.16847 -0.1688 0.41662 0.089998 -0.082324 -0.24124 -0.10404 0.02947 0.27735 -0.087458 0.098358 0.24312 -0.11605 -0.29729 0.19091 0.017555 0.088139 -0.071947 0.15237 0.15637 0.28534 -0.27546 0.12541 -0.32832 0.16945 -0.19965 -0.78557 0.1809 0.37072 -0.0059909 -0.1601 -0.46263 -0.036363 -0.27046 -0.13226 -0.12178 -0.47374 -0.23484 -0.32596 0.024083 -0.62716 -0.029942 -0.50985 0.40478 -0.2871 -0.46286 0.46965 0.7045 0.0011094 0.2185 -0.0070979 -0.063541 -0.25643 -0.48042 -0.12051 -0.16785 0.10514 0.11093 0.11902 -0.77699 0.27605 0.13073 -0.2442 -0.13108 -0.26962 0.15701 0.30268 0.027147 -0.34596 0.21157 0.15395 -0.2059 -0.3096 -0.11869 -0.42935 -0.32699 0.033566 0.30807 0.43157 -0.17932 0.26724 -0.21922 0.28437 0.0023673 0.21347 -0.085186 0.19585 0.60804 -0.1344 0.14937 -0.55062 -0.037038 -0.26205 0.40898 -0.65291 -0.7687 -0.15795 0.031696 -0.12647 -0.34986 -0.53529 0.26603 0.21663 -0.056625 0.12368 0.09433 -0.16055 -0.18338 0.21002 -0.085783 0.75523 -0.37207 -0.26796 -0.25121 -0.23573 -0.35745 -0.020363 0.25487 -0.1005 0.094931 -0.13921 0.058279 -0.48577 0.38223 -0.18787 -0.28988 0.65059 -0.24605 -0.32014 -0.38425 0.11911 -0.011587 -0.37414 0.057947 0.1984 -0.35496 -0.050047 -0.1546 0.030839 -0.57205 0.35109 0.30043 0.052721 -0.101 -0.38295 -0.0017381 0.016424 -0.013441 -0.51959 0.06582 -0.32496 0.40906 -0.068868 0.47849 -0.083064 0.16122 -0.10346 -0.24063 0.20926 0.048194 -0.061034 0.29222 0.32026 -0.052526 0.17609 -0.097166 0.013917 0.062568 -0.45007 0.31114 0.051715 -0.37525 0.44897 -0.16249 -0.058167 -0.29381 0.40824 0.23362 -0.68134 -0.0021723 0.42463 0.080509 0.18889 -0.0014145 -0.22827 0.35041 -0.39585 0.021147 0.080618 0.16674 0.35838 -0.23631 -0.063411 -0.055884 0.41042 -0.044096 -0.034504 0.15605 -0.12987 -0.014123 0.19694 0.39422 0.1085 0.0653 -0.083304 0.0069287 0.34658 -0.31433 -0.62813 0.0273 -0.19226 0.26646 0.40689 -0.0036841 -0.12176 0.58111 -0.1154 -0.12984 0.42183 -0.63647 0.10132 0.37316 0.096664 0.42492 -0.083016 0.23141 -0.39417 -0.27299 -0.49763 -0.34177 -0.67237 0.16348 -0.31893 0.27802 -0.16455 -0.15908 0.62278 0.2598 0.33024 0.039966 -0.034394 0.15433 -0.34945 0.12785 -0.2204 -0.014317 0.08033 0.21537 -0.61085 0.16716 0.10782 -0.69081 -0.17887 -0.24935 0.083893 -0.21923 0.17607 0.037987 0.1043 -0.048275 0.2457 0.39661 0.088987 0.51643 0.19906 0.669 -0.28137 0.09523 0.15267 0.18079 0.44548 -0.16815 -0.1039 -0.054515 0.10515 -0.24084 -0.069823 -0.067904 0.33664 0.093667 -0.04641 -0.29309 -0.15066 -0.092618 -0.67097 0.19345 0.051724 0.028335 -0.22792 0.23443 0.54222 -0.23929 0.16609 
akaka -0.29003 -0.21239 -0.032301 0.052637 -0.25749 -0.36704 0.1831 0.26263 -0.016161 0.23958 0.46958 -0.14243 -0.16656 0.08579 0.043463 0.27242 -0.3685 -0.036186 0.47091 -0.056711 -0.19078 -0.045429 0.22915 0.15331 0.24937 0.18803 -0.068532 0.2119 -0.40853 0.43712 -0.29966 -0.07193 -0.0063773 -0.42585 -0.51657 0.28368 -0.32974 -0.1931 -0.208 -0.32441 -0.13084 -0.27625 -0.018071 -0.25239 0.048868 0.34748 0.042264 -0.27232 -0.24325 -0.31033 0.37889 -0.40039 -0.35132 0.12297 0.43125 -0.2946 0.80945 0.059391 -0.15337 -0.25866 -0.33338 0.19851 -0.26395 0.19305 0.22733 0.53287 -0.3362 0.45183 0.041464 -0.27198 -0.54063 -0.15728 0.39094 0.24677 0.29224 -0.34679 0.18023 0.23321 -0.67896 -0.10634 -0.59228 -0.34722 0.351 0.11731 0.26806 0.092014 0.39069 0.28737 -0.32305 0.26015 0.16454 0.10024 0.13365 -0.43275 0.33006 0.028627 0.015075 -0.48577 0.41859 0.17798 0.51983 -0.3544 -0.4538 0.17421 0.21497 0.19274 -0.025982 -0.22988 -0.19939 0.51263 0.0055339 -0.21269 0.08532 -0.53789 -0.19213 -0.068369 -0.1692 0.69617 -0.15989 -0.44153 -0.043171 0.086581 -0.2767 -0.26277 0.35705 -0.43295 0.11458 0.041099 0.051249 0.16555 -0.091687 -0.18864 -0.12237 0.42803 -0.53908 0.036536 -0.16432 0.037845 -0.48583 -0.28428 0.016414 0.15902 -0.23619 -0.035898 -0.29379 -0.31514 -0.87771 0.46983 -0.041616 0.00079063 -0.20324 -0.032775 0.41013 -0.12227 0.40882 -0.62696 0.30551 0.29344 0.41339 0.13089 0.39086 0.072724 0.025295 -0.22469 -0.0088163 0.39609 0.029309 0.29046 0.3675 0.33912 -0.33211 0.26391 -0.17006 0.12211 0.13219 -0.65715 0.12718 0.35732 -0.35818 0.52866 0.19128 -0.31918 -0.51092 0.16958 -0.15153 -0.59217 -0.16031 0.80354 0.38314 0.33105 -0.32708 -0.19328 0.18636 -0.29782 -0.53849 -0.14749 -0.17712 0.86508 -0.046326 -0.17477 0.15465 0.06588 0.11403 0.019456 -0.067016 0.017267 0.32097 -0.10519 0.2256 -0.25105 -0.2566 0.18524 -0.065808 0.79684 -0.31617 -0.71866 0.10807 -0.10352 0.26196 0.007839 0.26476 0.027195 0.40612 0.10161 0.10588 0.26801 -0.36656 0.21277 0.055855 -0.030746 0.64116 0.058226 -0.0093653 -0.3626 0.16359 -0.51304 -0.47223 -0.8585 -0.03946 -0.11791 0.18095 -0.37017 -0.2016 0.05373 0.0070196 0.65949 -0.61961 -0.25591 0.049605 -0.56942 0.21844 -0.68435 0.02426 0.1186 0.13953 -0.4913 0.31035 -0.41244 -0.99522 -0.046146 -0.28205 -0.20983 0.010659 -0.036302 -0.26594 0.25215 0.16231 0.32197 0.1801 0.21395 0.26982 0.31321 0.29655 -0.069478 0.15326 0.25932 0.052456 0.60337 -0.48928 -0.27358 -0.17222 0.053796 -0.11689 0.39015 0.080797 0.34229 -0.10946 0.31475 0.087829 0.057573 -0.2407 -0.38679 0.085441 0.21363 0.0088539 -0.088323 0.49475 0.26049 0.37421 0.45207 
craig -0.36531 0.068747 -0.45427 -0.26003 0.3784 -0.050524 0.19832 -0.079407 -0.35573 0.24808 -0.13935 0.12678 0.024212 0.15801 0.19086 -0.10503 -0.1727 -0.12425 0.30054 -0.072765 -0.064228 -0.090689 0.095337 0.27557 0.044184 -0.13047 0.11063 -0.1571 -0.10155 0.26027 -0.081156 0.12335 0.083668 0.022153 0.061661 0.16455 0.18529 -0.061991 -0.22089 -0.11363 -0.17702 0.099933 -0.24988 -0.03883 0.11733 -0.044025 0.13208 -0.079792 0.042251 0.040737 0.016896 -0.24421 -0.053155 0.074491 0.44883 0.19764 0.13216 0.28652 -0.60697 -0.15115 0.08797 0.026029 -0.17613 0.2096 -0.13515 0.18167 -0.028665 -0.081999 0.21823 -0.15088 -0.58486 0.08422 0.16763 -0.35819 0.16759 -0.26239 0.33234 0.44752 -0.15526 0.009804 0.0682 0.15231 -0.0027156 -0.22116 0.2396 -0.21375 0.19034 -0.037431 0.31168 0.026417 -0.14046 -0.26155 -0.14052 -0.15011 0.019747 0.11587 -0.20358 0.12022 -0.20917 -0.084911 0.26915 -0.14635 0.22957 -0.10196 -0.004864 -0.22001 0.063634 -0.55721 0.10291 0.095887 -0.10761 0.026255 0.22223 -0.10734 0.12865 -0.15824 -0.37306 0.16656 -0.51286 0.18878 0.094939 0.25265 0.16126 -0.054932 0.13049 -0.045821 0.39242 0.017117 -0.23588 -0.012796 -0.074104 0.19348 -0.13832 0.27143 -0.15166 0.039027 -0.0255 -0.061533 -0.33262 -0.23083 0.031493 0.10968 0.11185 0.16489 -0.0187 0.10542 0.0066007 0.020676 -0.082954 -0.059409 0.051025 0.1437 0.086479 -0.15162 0.29897 -0.42452 -0.063007 -0.064863 0.20065 0.14148 0.33531 0.096599 0.042758 -0.02222 0.060647 -0.062105 0.29996 0.22763 0.065129 -0.12726 -0.12974 0.065653 0.0051268 0.21201 0.20311 0.046742 0.17781 -0.10302 -0.35616 0.018624 0.16286 -0.064999 -0.081233 0.26612 0.18645 -0.33684 -0.14124 0.21979 0.12055 -0.020347 -0.24761 -0.016389 0.12125 -0.19929 -0.11403 -0.025696 0.15587 -0.05854 -0.0083478 -0.074271 0.1272 0.14385 -0.23486 0.065381 0.027375 0.1524 0.15245 -0.10973 0.23599 -0.36867 -0.25723 -0.14519 0.019054 0.22798 -0.13911 -0.30954 -0.069538 -0.12108 0.41884 0.066421 0.095006 0.35027 0.058868 -0.021544 0.15001 -0.0014397 0.087003 0.21171 0.0452 0.098813 0.43798 0.2045 0.1658 -0.12272 0.14033 -0.33775 -0.0027878 -0.46835 0.23867 0.13314 0.23609 -0.2792 0.005105 0.045605 -0.10968 -0.16746 0.23356 -0.055517 -0.082579 -0.48582 -0.11124 -0.12379 0.14046 -0.13622 0.22163 -0.068559 -0.047261 0.078249 0.051389 -0.01576 -0.16316 -0.23336 -0.49527 0.074626 -0.0087598 0.54677 -0.13548 0.1898 -0.14849 -0.13587 0.1853 -0.1249 0.060849 -0.066729 0.059945 -0.017207 0.28627 0.39522 -0.1834 0.14123 -0.33234 0.01789 -0.16743 0.20879 -0.08485 -0.039155 0.15068 -0.069175 -0.079656 0.25428 0.21159 -0.095998 0.032347 0.042536 0.11424 0.090292 0.074376 0.23209 0.14481 0.067474 
kempthorne 0.079635 -0.21075 -0.40135 -0.17962 0.1929 0.088501 0.53738 0.0085326 0.23166 0.16966 0.33101 -0.16522 0.025448 0.45686 0.28187 0.21031 -0.44642 0.26901 -0.011394 0.19717 0.39779 0.23436 0.1096 0.2213 -0.093928 0.34813 0.10257 -0.034002 -0.41812 0.56959 -0.1615 0.28436 0.33348 -0.04148 -0.13265 -0.13088 0.19431 -0.2567 0.030794 -0.74805 -0.17548 0.36793 0.02127 -0.31025 0.019674 0.71383 0.0021056 0.030023 -0.2053 -0.14608 0.25707 0.058346 0.075156 0.024601 0.35926 0.12137 -0.0024117 0.58217 -0.40969 -0.067124 -0.14659 0.23861 -0.14942 -0.11963 0.17343 0.11945 -0.25387 -0.0042755 0.30818 0.023259 -0.32318 0.15969 -0.14077 -0.06282 0.2797 -0.1948 0.6257 0.17781 -0.42416 -0.031096 -0.11743 -0.39839 0.015513 -0.30757 0.19751 0.15557 0.1384 -0.40079 -0.14879 0.1279 0.39897 0.097212 0.59684 -0.097364 0.028597 0.45174 -0.013939 0.1096 -0.25498 -0.1342 -0.23885 -0.23792 0.28028 0.20556 0.0095312 -0.09754 -0.11783 -0.13507 0.39025 0.2414 -0.4024 0.17304 -0.055273 -0.60953 -0.15073 -0.2641 0.15777 0.0071434 -0.19854 0.14555 0.12469 0.39757 -0.30514 0.041111 0.3962 0.43828 0.18797 -0.38107 -0.37052 0.041763 -0.077542 0.46225 -0.44516 -0.14134 -0.04031 0.10173 0.13789 -0.049469 -0.067322 -0.34272 0.19208 0.41493 0.27525 -0.013882 0.31921 0.019402 -0.32163 -0.029101 -0.21121 0.098768 0.03708 -0.29671 0.042311 -0.39323 0.23908 -0.41931 0.32725 0.12232 -0.17332 0.065767 0.30916 -0.06891 0.34957 0.34758 0.11359 0.29068 0.055402 -0.13976 -0.21288 0.18742 -0.28698 0.16731 -0.2018 0.54894 0.28791 -0.23896 0.091905 -0.12667 -0.22257 0.099424 0.22369 0.10333 -0.63011 -0.18163 -0.41172 -0.2954 -0.080514 0.27141 -0.35845 0.5609 -0.65202 -0.20561 0.2968 -0.34947 -0.1213 -0.12979 -0.27486 0.18851 -0.35671 -0.14514 0.021437 0.098737 -0.22208 0.095162 0.27608 0.10038 -0.21512 -0.10697 0.043747 -0.20727 -0.32157 0.19096 0.010101 0.49286 -0.26008 -0.52793 0.18403 0.066354 -0.25754 0.25229 0.63805 -0.17154 0.89796 0.10285 -0.39829 0.95152 -0.020807 0.3156 0.23603 0.21916 0.42037 0.18839 -0.073644 -0.59591 -0.22517 -0.18149 0.085839 -0.35308 0.052119 0.13593 0.66132 -0.16125 -0.38458 0.26609 -0.34831 -0.15267 -0.16972 -0.36634 0.19161 -0.24604 -0.37386 -0.29877 -0.27326 0.24415 -0.0756 -0.22203 0.033804 0.24955 -0.56572 -0.034935 0.035661 -0.21281 -0.19161 -0.10367 0.2271 0.34422 0.23071 -0.10359 -0.21997 0.23574 -0.077499 -0.005248 0.4882 -0.43188 0.32393 0.32978 0.20345 0.70567 -0.38497 0.1478 0.026257 0.14393 0.0074269 0.28803 -0.15654 0.055936 0.060828 0.0069791 -0.10929 0.54562 0.23455 -0.19495 -0.089205 0.011045 -0.070234 -0.21548 0.28578 -0.097533 -0.15104 0.4841 
simon -0.20689 -0.25953 -0.09945 -0.16847 0.38686 0.23285 -0.070942 0.038454 -0.32222 0.14768 -0.10107 0.071432 0.10543 0.041003 0.17488 -0.073762 -0.10797 -0.052013 0.13093 -0.2636 0.30698 0.22028 0.076906 0.045681 0.024792 -0.0046269 -0.14607 -0.18561 -0.030198 0.063496 -0.034318 0.059763 -0.21721 0.091167 -0.080928 0.15717 -0.18891 -0.14554 -0.034941 -0.13099 -0.38378 0.30854 -0.10185 0.013374 0.34489 -0.46099 0.49534 -0.27422 -0.086499 -0.087084 0.026776 -0.043678 -0.15428 -0.36152 0.52422 -0.087335 -0.020611 -0.062399 0.039289 -0.17323 0.10599 -0.12014 0.043404 0.036649 -0.22155 0.39554 -0.38209 0.0037862 -0.096004 0.13949 -0.17154 -0.073449 0.19862 -0.060199 0.082027 -0.07243 0.17141 -0.056285 -0.0096158 0.36724 -0.14536 -0.14187 -0.09532 -0.16143 -0.055832 -0.12341 -0.24163 0.16144 -0.025558 -0.085517 0.10907 0.013337 0.19841 0.019226 0.054959 0.10532 0.16445 0.014143 0.13256 0.047131 0.17335 -0.49435 0.018117 0.14895 -0.22914 -0.21873 -0.1921 -0.65709 0.084939 0.15485 -0.26912 0.30251 -0.14241 -0.077043 -0.011781 0.13623 -0.19054 0.036012 -0.13418 0.17906 0.51005 -0.24077 -0.39737 0.10479 -0.1216 -0.1855 0.16992 0.22711 0.19091 0.089927 0.089224 0.4646 0.067928 0.35788 -0.50262 0.049698 -0.32545 -0.22432 -0.028575 -0.2759 -0.08499 -0.10391 -0.07653 -0.10035 0.011117 0.14942 0.17119 0.24978 0.014215 0.15523 -0.10661 -0.099335 0.15121 -0.37973 0.050634 -0.01102 -0.0087953 -0.10143 0.12442 -0.040732 0.071614 -0.11955 0.30983 0.015217 0.092396 0.38344 0.18753 -0.1248 0.01818 0.18437 0.22314 0.04447 0.28847 -0.25249 0.18345 -0.36843 0.22927 -0.043602 0.051402 0.21121 0.21802 -0.31764 0.087258 0.30061 -0.20331 -0.19912 0.050588 0.28867 0.19726 0.00039199 -0.26283 -0.00026718 -0.035531 -0.1896 0.39098 -0.14397 0.049707 0.093152 -0.14532 -0.14058 0.30067 0.14453 0.0034508 0.019205 0.035462 -0.15184 0.16634 0.033646 0.16661 -0.18794 -0.23031 0.14502 0.040093 0.36714 -0.47127 -0.22054 0.14772 0.12231 0.31935 0.13449 0.10187 0.12143 0.49253 0.032859 0.041903 -0.15773 0.04195 0.12924 0.14523 0.14707 0.25213 0.10768 0.11075 -0.028457 0.1992 -0.14217 -0.43583 -0.30916 0.3068 0.15377 0.14408 -0.026618 -0.018144 0.033211 0.19235 0.14622 -0.18015 0.3394 0.071363 -0.14672 0.0058092 -0.20794 0.17825 0.042014 -0.026719 -0.047097 0.061953 -0.026838 0.091054 0.063434 0.018975 0.11605 -0.47826 -0.22048 0.25798 0.069532 -0.062914 0.43413 -0.19609 -0.29594 0.27651 -0.43012 0.43672 -0.19255 0.051041 0.039618 0.11332 0.47777 -0.028452 0.0014993 -0.15522 0.090489 -0.26411 0.081498 0.1586 0.029512 0.11453 -0.41054 -0.017866 0.12114 0.20792 -0.13306 -0.081752 -0.11766 0.07689 0.09359 -0.13517 0.029732 0.05124 0.12461 
moseley-braun -0.32458 -0.2087 -0.24533 0.031598 0.17488 0.038187 0.019141 -0.0989 0.12164 0.11443 -0.013742 -0.1502 0.21912 0.30947 -0.08651 -0.10302 -0.24027 0.042937 0.12778 0.09001 0.19332 0.010734 0.17643 -0.0085471 -0.40321 0.1457 0.10844 -0.044031 -0.018284 -0.093796 -0.023531 0.1257 0.067773 0.16562 -0.24132 0.25724 -0.048639 0.040061 -0.0064289 -0.1219 0.013785 -0.11639 0.11068 -0.15651 -0.065968 -0.10251 0.036442 -0.11204 -0.084491 -0.13236 -0.022574 -0.20032 -0.11349 -0.20735 0.23269 -0.027237 0.21057 0.34037 -0.073736 -0.22534 0.058569 -0.16276 -0.05555 0.013887 -0.13612 0.13846 -0.12447 0.11057 0.12647 -0.12775 -0.050604 -0.029952 0.34282 0.20953 0.098625 0.092865 0.29249 -0.026323 0.08251 0.21505 -0.090281 0.091465 -0.11941 -0.065393 0.15839 0.086174 -0.11443 0.094099 -0.14338 -0.093271 -0.13059 -0.081014 0.096828 -0.00045609 0.18789 -0.058177 -0.0047424 0.03886 -0.016888 0.24615 -0.040278 -0.094469 -0.052936 0.011517 -0.007074 -0.18035 0.023454 0.018585 0.23113 0.27926 -0.11502 0.071949 -0.056608 -0.25498 -0.26789 0.035609 -0.23526 -0.10996 -0.21646 0.054872 0.23089 -0.17175 -0.090378 -0.15308 -0.15861 0.041802 0.23577 0.026322 -0.079101 -0.19619 -0.097189 0.051788 -0.34261 0.2232 -0.16683 -0.016909 -0.15078 -0.11025 -0.076627 -0.079915 -0.1351 0.026942 -0.22123 0.12191 -0.083447 0.055487 -0.016219 0.13509 0.08839 -0.10749 -0.065394 -0.0037474 -0.20548 -0.15994 -0.15225 -0.040273 -0.08983 -0.063943 0.10568 0.028154 0.27744 -0.042605 0.099986 -0.023817 0.19477 -0.1965 0.076843 0.19483 -0.10939 0.061376 -0.055235 -0.071983 -0.11162 0.18877 -0.22847 -0.34028 -0.054822 0.13917 -0.034169 0.12481 0.041434 0.010652 -0.065895 0.0052168 0.033757 0.20214 -0.10166 -0.032196 0.06161 0.14187 0.1249 -0.062528 0.21607 -0.17219 0.20941 -0.18941 0.11863 0.39322 -0.064769 0.062146 0.18896 0.45717 0.019036 -0.0088312 0.060229 0.048093 0.024338 0.31263 0.12152 0.026676 -0.072799 -0.09963 0.06892 0.035028 -0.16767 0.014216 -0.013352 0.23621 0.10789 0.16492 0.0032568 0.1368 0.23588 -0.003556 -0.1645 0.064809 -0.088439 0.054961 0.13313 0.025401 0.24452 -0.17828 0.099204 -0.049935 -0.066315 -0.1154 -0.28125 -0.26604 0.18727 0.25143 -0.078482 -0.16721 -0.091825 -0.096701 0.00071638 0.12822 0.0037939 0.086774 -0.094407 -0.24883 -0.0072643 -0.30389 0.13272 -0.19321 0.15519 -0.19446 0.037657 -0.052695 0.031204 0.088477 0.077178 0.072283 -0.24922 -0.11618 0.0058811 0.042963 -0.046252 -0.074702 -0.17847 -0.22358 0.28921 -0.11001 0.35959 -0.28969 0.11721 0.15119 0.15018 0.39898 -0.078503 0.13204 0.19171 0.069271 -0.023841 -0.087966 -0.096149 0.11655 0.0028399 0.031837 -0.12244 0.019688 -0.20422 -0.12121 0.010563 -0.15674 0.069102 0.1183 0.17942 0.058808 0.027421 0.21422 
lugar -0.13896 -0.28714 -0.22598 -0.21007 -0.37031 0.046975 0.18931 0.4845 -0.043265 -0.039681 -0.015984 -0.31885 0.1805 0.20893 -0.31345 0.20935 -0.099563 0.17055 0.13891 0.0020994 0.01092 0.16365 0.35774 0.18375 -0.28574 -0.02708 0.41374 -0.16588 0.056138 -0.010172 -0.21463 0.33503 -0.066549 -0.24832 -0.27944 0.20785 0.20085 -0.49376 -0.59757 -0.40095 -0.054956 -0.0076918 -0.043792 -0.22944 -0.10293 -0.22421 -0.068198 -0.5944 -0.41825 -0.16611 0.23358 -0.3503 -0.22011 -0.058232 0.45682 0.029367 0.08505 0.3004 -0.27748 -0.21459 0.14124 0.12015 -0.11651 0.36674 0.010732 0.10774 -0.35387 0.17443 0.22141 -0.40198 -0.039793 -0.040183 -0.099149 -0.47944 0.16529 0.1228 0.013258 0.42662 -0.015206 -0.11547 -0.024879 -0.37111 -0.6689 -0.23532 -0.054477 0.60316 -0.080321 -0.00055839 -0.291 0.18216 0.14189 0.35889 0.30848 -0.027617 0.20961 0.35382 -0.032107 -0.076817 -0.18599 -0.39722 0.53864 -0.060604 -0.17245 0.33679 0.45871 0.094177 -0.29037 -0.10749 0.24563 0.34133 -0.41972 -0.0019239 -0.21704 -0.49687 0.20819 -0.1123 0.15155 0.37457 -0.29977 0.04253 0.18573 -0.0059094 -0.63196 0.1352 0.0072277 0.27316 -0.13688 -0.12242 -0.41008 -0.12341 0.0075924 0.10778 -0.53714 0.32022 -0.22669 0.09678 0.16392 -0.087392 0.08594 -0.31662 0.20766 0.16256 -0.24931 -0.03103 -0.068218 -0.36394 -0.023785 0.61164 0.24068 0.004213 -0.45258 0.40706 -0.037295 -0.139 0.19578 -0.26525 0.34496 -0.30179 0.12258 -0.059399 0.10858 -0.16194 0.15196 -0.35286 0.057574 0.41205 0.12977 0.077774 0.088461 -0.17179 -0.29956 -0.3426 0.19142 0.21155 -0.26734 -0.032061 -0.30438 0.20022 -0.34212 0.46723 -0.21976 -0.17679 -0.028237 0.34423 -0.23848 -0.48322 -0.14101 0.26722 -0.49407 -0.070897 -0.33413 -0.23919 -0.018035 -0.22819 -0.3163 0.15656 -0.39198 0.29633 -0.20847 -0.094752 0.43645 0.086347 -0.43094 -0.084001 0.06495 0.01992 -0.16206 0.45509 0.11084 -0.098837 -0.079463 0.25047 -0.11626 0.3086 -0.50832 -0.56264 0.086887 0.47628 0.034969 0.14902 0.093569 0.15376 0.32699 0.14831 -0.18201 0.27163 -0.34504 0.022558 0.30945 0.34027 0.28748 -0.12381 0.34284 -0.51176 -0.11153 -0.28327 0.08706 -0.72388 0.13693 0.013012 0.58133 -0.12643 0.086801 0.084861 -0.22755 0.13757 -0.062429 -0.24431 -0.086172 -0.52897 0.12584 -0.24896 -0.3872 0.3916 0.15511 -0.60479 0.07491 0.002937 -0.14326 0.14548 -0.255 0.074287 -0.11553 0.11966 0.14923 -0.022537 0.53973 0.11782 -0.052798 0.0027603 0.47755 0.41749 0.63828 -0.16024 -0.14604 0.048876 0.042848 0.29949 -0.32457 0.10292 -0.42184 0.45719 0.014132 0.080465 -0.25906 -0.046775 0.03737 0.0013161 -0.26417 0.12933 -0.56489 -0.60295 -0.021629 0.19645 -0.03396 -0.45059 0.064742 0.22275 0.18322 0.54183 
coats -0.042172 -0.13697 -0.66526 0.23056 0.36672 0.25309 -0.03483 0.54752 -0.4365 0.12962 -0.27592 -0.0081432 0.22779 0.44573 -0.4367 0.176 0.13181 0.11185 0.12515 -0.033351 -0.28062 -0.0080059 0.20101 0.3245 -0.19203 0.0093885 -0.031129 -0.16561 -0.094052 0.14395 -0.04579 -0.58172 -0.13393 0.042289 -0.030619 -0.0043425 0.23603 0.30066 -0.44261 0.063954 -0.018622 -0.35467 0.014167 -0.13472 0.0064715 0.066266 0.047795 -0.54206 -0.010852 0.18328 0.20648 -0.3679 -0.19926 0.029153 -0.12477 -0.33729 0.22156 0.41799 0.22997 -0.41856 0.30854 0.22422 -0.095832 0.49891 0.078678 0.30474 -0.50483 -0.071748 0.067793 -0.047945 -0.49222 0.14468 0.15714 -0.11686 -0.10951 -0.12733 0.28026 0.30938 0.17402 -0.26672 -0.0097311 0.038691 0.10364 -0.53178 0.030328 -0.098646 -0.27136 0.21428 0.094742 -0.036806 0.28796 -0.031657 0.22188 -0.011747 -0.29983 0.17987 0.0038754 -0.30656 -0.024885 0.10796 -0.1177 -0.43818 -0.17291 0.19665 0.17245 -0.087091 0.522 0.037871 0.24907 0.19034 -0.048095 0.31415 -0.17858 -0.099842 0.15987 0.2077 -0.33768 0.064322 -0.52008 -0.19495 -0.25225 -0.25837 -0.48587 0.059689 0.43035 0.2945 0.27455 -0.064901 -0.055393 -0.058089 -0.15422 0.31197 0.002727 -0.058703 -0.44126 0.23226 0.085935 0.16215 0.14771 -0.042621 0.11353 -0.095725 -0.060374 0.31386 0.15897 -0.11792 0.092359 0.20228 -0.074825 0.27501 0.089928 0.14276 -0.2527 -0.52507 0.18215 -0.43328 -0.033256 0.26456 -0.0059617 0.23634 0.42374 0.26964 -0.1741 -0.18653 -0.11446 0.13242 0.53423 -0.080824 -0.069865 0.057136 0.049256 0.019544 -0.084063 0.093289 -0.17754 -0.087198 -0.085819 0.077218 -0.7419 0.46841 0.068042 -0.024089 -0.31079 0.34161 -0.27856 -0.21169 0.30141 -0.088315 -0.2434 0.1356 -0.31684 -0.19504 -0.18717 -0.2404 0.064502 0.31402 -0.014305 0.30267 -0.18401 -0.065605 0.10395 0.021421 -0.37698 0.27749 0.16844 0.25311 0.15197 -0.22125 -0.09277 -0.13929 0.43196 0.069414 -0.24239 0.14396 -0.68184 -0.4002 -0.10825 0.53216 0.16062 0.18911 0.14817 -0.16809 0.30235 -0.074958 0.31229 -0.27842 -0.24549 -0.15022 0.10942 -0.064882 0.052388 0.27079 -0.014155 -0.36044 -0.025394 0.11624 -0.28385 -0.44268 -0.050338 -0.0916 -0.061854 0.20324 -0.16672 0.2563 -0.34953 0.17205 -0.32681 -0.11443 -0.10437 -0.28198 0.16791 -0.51041 -0.019504 0.15719 0.26827 -0.081432 -0.32674 0.21433 0.024394 0.43472 -0.19174 0.095454 -0.15484 -0.014539 -0.22826 -0.0096659 0.13988 -0.027856 0.13904 -0.18913 0.16709 0.39958 0.67598 0.078853 -0.064536 -0.28244 0.044691 0.26237 -0.51265 0.018156 0.1984 0.11671 -0.50955 0.23031 -0.19597 0.18197 0.12921 0.27639 0.18716 0.11215 0.069488 -0.27508 -0.035675 0.036823 0.47147 -0.02782 0.47963 0.28955 -0.20772 0.25682 
grassley -0.0040392 -0.16757 -0.55346 0.056192 -0.07424 -0.12389 0.041975 0.017472 -0.10134 0.24995 0.48496 -0.036913 -0.06274 0.2947 0.090105 0.47264 -0.2477 -0.095339 0.37022 -0.046292 -0.1415 0.13289 0.23114 0.33285 -0.33874 0.11959 0.092751 -0.23698 0.046956 -0.070044 -0.1669 0.27619 -0.031628 -0.36954 -0.30352 0.26401 0.077969 -0.3776 -0.08362 -0.16618 -0.30893 0.087241 -0.10816 0.27543 -0.20185 0.017203 -0.085201 -0.21089 -0.11934 -0.21327 0.049669 -0.046155 -0.20279 -0.069364 0.30279 0.023684 -0.028079 0.37877 -0.20801 -0.23176 -0.42732 0.39424 -0.17443 0.39638 -0.080831 0.4336 -0.13384 0.040635 0.42364 -0.30396 -0.5583 -0.058676 0.37069 0.025549 0.72838 0.25247 -0.25264 0.41577 -0.18299 -0.04731 0.012639 -0.36562 -0.21338 0.12769 -0.030232 0.20846 -0.18477 -0.067376 -0.33249 0.17587 0.23615 -0.23377 0.072055 0.22299 0.095971 0.20058 -0.46478 -0.50102 -0.10119 -0.14951 0.20162 -0.15829 -0.21629 0.19036 -0.1393 -0.090432 -0.21761 -0.42834 0.115 0.0054889 -0.22858 0.15614 -0.21326 -0.40123 0.16459 -0.16388 -0.46447 0.24376 0.0062759 0.18661 0.11216 0.14119 -0.43964 0.095061 -0.12148 0.037893 0.32157 -0.039268 -0.36231 0.12752 -0.032661 -0.17619 -0.4211 0.35158 -0.29717 0.010585 -0.21515 0.14632 0.093255 0.096934 0.40986 0.56991 -0.11739 -0.086844 0.10696 -0.075425 -0.57954 0.26787 0.16652 -0.093949 -0.30634 -0.29599 0.012703 0.024454 0.34995 -0.43427 0.1706 -0.20591 0.18971 0.25422 0.29315 0.17892 -0.37993 -0.079478 0.00052552 -0.31124 0.090313 0.27233 0.333 -0.10541 -0.24458 0.10965 0.074945 -0.16119 -0.37296 -0.23154 -0.1712 0.3901 -0.031671 0.13283 0.03526 0.14281 -0.19219 0.40277 0.44149 -0.21614 -0.45851 0.20987 -0.37367 0.14091 -0.06926 -0.024082 0.29192 -0.51047 -0.45663 0.096 -0.17873 0.26825 -0.070524 -0.61963 0.31673 0.26617 -0.46211 -0.39606 -0.22651 0.082719 -0.16255 -0.02365 -0.013426 0.16611 -0.28167 0.12281 -0.03302 0.35382 -0.11906 -0.3881 -0.368 0.24441 -0.18422 0.53651 -0.097512 0.38522 0.37306 0.22921 -0.29478 -0.00081053 0.051876 0.24245 0.11021 0.03737 0.51794 0.12154 0.12567 -0.53113 -0.048071 -0.16067 -0.21021 -0.32031 0.18221 0.091015 0.45722 0.15709 0.44 0.28838 -0.31863 0.013741 -0.14344 0.55292 -0.089618 -0.73348 0.28612 -0.39111 -0.28737 -0.043928 -0.014349 -0.49206 0.063677 0.12056 -0.38595 0.12122 -0.33682 -0.0019001 -0.31374 0.25456 0.38435 0.26226 -0.21344 -0.22416 -0.048152 -0.027303 0.096122 0.14585 0.16706 -0.44868 -0.37815 -0.093514 0.47091 0.21374 -0.51703 0.1231 -0.11223 0.25256 -0.14994 -0.1124 0.089651 0.19789 0.34592 0.26271 0.1553 0.36913 0.06727 -0.64058 -0.1865 -0.2932 0.065741 -0.56474 0.018023 0.15126 -0.088131 0.2428 
harkin -0.043031 -0.32301 -0.051089 -0.33909 -0.13873 0.020198 -0.22497 0.036275 -0.087215 0.085948 0.16368 -0.084203 0.043668 0.20104 -0.43694 0.039824 -0.36533 0.022936 0.01323 0.26328 0.0092747 -0.10472 0.026669 0.29698 -0.037817 0.16162 0.13546 -0.2861 -0.23401 -0.04102 0.070149 0.068208 -0.2267 -0.053866 -0.50029 0.04172 0.076018 -0.21706 -0.2411 -0.11549 -0.45069 -0.024817 0.11931 0.05288 -0.27986 0.02181 -0.1644 -0.11742 0.035998 -0.26188 0.093617 -0.37415 -0.35733 0.11659 0.54772 0.30582 0.358 0.1298 -0.18054 -0.1198 -0.44848 0.074204 -0.13787 0.19453 -0.33087 0.22899 -0.25977 0.12467 0.16893 -0.098777 -0.25108 -0.28326 0.24412 0.35764 0.51855 0.040088 0.26104 0.08153 -0.043959 0.2688 0.18057 -0.34275 -0.21569 0.12917 0.10741 0.2237 -0.16808 0.37361 -0.37547 -0.10228 0.18446 -0.0048682 0.23907 -0.26173 -0.020604 0.15925 0.17692 -0.1314 0.35819 -0.62606 0.3721 -0.17307 -0.25224 0.16881 -0.033252 -0.0053509 -0.34585 -0.39389 -0.012437 -0.029768 -0.34796 -0.23533 -0.2218 -0.28537 -0.038846 -0.25016 -0.54277 -0.080813 -0.20956 -0.20881 0.12067 0.1198 -0.75922 0.18812 -0.13048 0.30196 0.049773 -0.21865 -0.15125 0.08041 0.16427 -0.22405 -0.24218 0.1791 -0.37893 0.032293 -0.31991 0.20289 -0.2332 -0.10085 0.15047 0.13814 -0.13342 -0.046048 0.29194 -0.017698 -0.5536 0.17838 0.17773 0.049846 0.030565 -0.32871 0.094572 -0.26712 -0.019928 -0.33681 0.13966 -0.18165 -0.028815 0.10924 0.16566 0.061537 0.0073897 -0.34946 -0.031032 0.11131 0.10016 0.17689 -0.12192 0.081533 -0.14724 -0.086008 0.27725 0.1423 -0.19941 -0.5465 0.088195 -0.0029193 -0.040736 0.30692 -0.14431 0.078199 -0.15299 0.48668 0.2288 -0.26257 -0.30605 0.21004 0.044902 -0.0024759 -0.051246 -0.1547 0.24018 -0.21873 -0.086981 0.01884 -0.25873 0.15683 -0.22524 -0.29429 0.10332 0.43444 0.094445 -0.039444 -0.033125 0.038865 -0.098185 0.23473 0.10129 -0.042883 -0.3303 0.14709 -0.081102 0.27464 -0.20723 -0.30784 -0.16296 0.25734 0.0056014 0.45424 0.11682 0.17453 0.47752 0.48398 -0.30965 0.017023 -0.088046 0.13782 -0.077234 0.095968 0.53822 0.065 0.33206 -0.27311 -0.00064578 -0.023082 -0.079463 -0.55511 0.024049 0.0085813 0.30076 0.32136 0.045231 0.12369 -0.19201 0.41826 -0.15776 0.39845 0.24869 -0.33383 0.091433 -0.40635 0.18422 -0.076875 0.34555 -0.62799 -0.1832 -0.084327 -0.10357 0.37154 -0.1857 -0.061739 -0.22235 -0.11272 -0.031758 0.22886 0.33417 0.2635 -0.46132 -0.011848 0.32546 -0.12053 0.43574 -0.11795 0.026443 0.095604 0.26048 0.30182 -0.39495 -0.14287 0.12367 0.2273 -0.16211 -0.059289 -0.1491 -0.099427 0.019997 0.07407 -0.13685 0.48265 -0.0096155 -0.36182 -0.019458 0.0944 0.29552 -0.33879 0.039884 0.18625 0.13931 0.40878 
dole 0.059729 -0.3763 -0.061696 -0.32039 -0.10413 0.021524 -0.017995 -0.1196 0.26861 0.28622 0.13599 -0.28596 -0.087602 0.25404 -0.37009 -0.117 -0.046964 -0.12016 0.23133 0.0019328 0.12844 -0.087193 -0.11616 0.19668 -0.35953 0.040876 0.1088 -0.059933 -0.0097269 0.014958 -0.14509 0.085489 -0.37951 0.10567 -0.051944 0.17046 0.13563 -0.32221 -0.099864 -0.34821 -0.62945 0.18472 0.056158 -0.055624 -0.42388 0.17471 0.20217 -0.32382 -0.029967 -0.089645 0.094129 0.012669 -0.21609 -0.027092 0.46916 0.29783 0.14376 -0.2403 -0.23388 -0.20073 -0.10669 0.27272 0.020892 0.19725 -0.48398 0.28793 -0.13403 0.066406 0.061209 -0.23823 -0.20945 -0.27558 0.24999 -0.06661 0.27238 -0.018002 -0.11846 0.31611 -0.14036 0.0308 -0.1162 -0.42384 -0.19838 -0.030039 0.23185 0.27996 -0.4095 0.17954 -0.024247 0.30634 -0.14027 -0.26252 -0.049981 0.015351 -0.22511 -0.12268 -0.0035162 0.086914 -0.048529 -0.26046 0.45064 -0.23309 -0.20688 0.24512 -0.069032 -0.084363 -0.10113 -0.064054 0.3021 0.46115 -0.22738 0.056716 -0.11687 -0.23003 0.026243 -0.40824 -0.24 0.027398 -0.10716 0.040844 0.06156 0.12097 -0.67516 0.27882 -0.22181 0.39135 -0.13342 0.12455 -0.27035 0.23927 -0.060766 -0.097598 -0.33366 0.19325 -0.15395 -0.23175 -0.0016972 0.15493 0.12861 -0.29237 0.17998 0.2333 0.20051 -0.081196 0.12938 0.11299 0.068561 0.21129 0.28987 0.20997 0.11642 0.028971 0.050335 -0.42875 0.54736 -0.17705 0.12845 -0.20187 0.4122 -0.034528 0.22195 -0.078244 0.063178 -0.26277 0.052864 0.099855 0.11941 -0.18078 0.020203 -0.15236 -0.01329 -0.28038 0.36641 0.04302 -0.21009 -0.1297 0.22175 -0.20732 0.15999 0.23414 -0.35491 -0.19953 -0.13718 -0.057428 0.084192 -0.28846 -0.3773 -0.0028561 -0.19084 0.26869 -0.30242 -0.17924 0.18059 -0.43278 0.42592 0.22605 -0.15163 0.36207 -0.31224 -0.19074 -0.054734 0.41427 -0.14457 0.031508 0.061889 -0.087007 -0.33243 0.15974 0.095981 0.073863 -0.1549 -0.033518 0.031129 -0.08019 -0.37432 -0.21804 -0.096724 0.26778 -0.063199 0.076812 -0.085087 0.0068236 0.13442 -0.070239 -0.38341 0.16365 0.12613 0.17089 0.032173 0.13115 0.255 -0.13776 0.39409 -0.47061 -0.10913 0.041416 0.078563 -0.30873 0.14998 0.24407 0.18928 0.35652 -0.28887 0.33665 -0.30403 0.36036 -0.0056728 -0.13275 0.0059255 -0.16331 -0.068263 -0.41146 0.28647 -0.087841 0.069505 -0.5349 -0.11223 0.2819 -0.12193 0.09161 -0.31259 -0.37732 -0.15792 -0.16834 -0.14488 0.23365 0.35626 -0.1344 -0.19055 -0.076627 0.093962 -0.10539 0.38813 0.13166 0.12832 0.48338 0.14925 0.50213 -0.38902 0.07422 0.00089332 0.13918 -0.10404 -0.36811 -0.011168 0.038104 0.038182 -0.11703 -0.12382 0.10108 -0.19646 -0.43644 0.061638 0.28635 0.23123 -0.26201 0.41325 0.24641 -0.055091 0.52236 
