conservative 0.33274 0.32182 -0.19147 -0.23513 -0.054022 0.035739 -0.083691 0.1807 0.15378 0.00011456 -0.087111 -0.42144 0.66463 -0.10757 0.040499 -0.11151 -0.1668 -0.30677 -0.39854 0.084849 0.084475 0.21922 -0.034727 0.29536 0.019689 -0.087787 -0.041002 -0.29017 -0.01855 0.26965 0.04269 0.13506 0.028816 0.032031 -0.20061 -0.20726 0.024785 0.067584 -0.0018203 -0.014841 -0.16634 0.057259 0.045426 0.042903 -2.1692e-05 0.35564 0.15545 -0.14816 -0.046743 0.51079 0.48482 -0.11341 0.13869 0.017475 0.11605 0.070726 -0.29778 -0.029222 -0.31857 -0.35108 0.078416 -0.017122 0.19156 -0.13525 -0.14948 0.1373 0.094141 0.22408 -0.17576 0.029725 -0.23073 -0.069398 0.16853 -0.18645 0.18782 -0.12897 -0.099951 0.089587 -0.29666 -0.25149 -0.087109 0.048101 -0.004789 -0.085856 -0.1178 -0.15051 -0.17831 -0.064094 0.04252 0.045432 -0.04374 0.01499 -0.096539 -0.12098 -0.18057 -0.050151 -0.049656 -0.093323 -0.18859 0.086257 -0.26666 -0.40686 -0.070934 0.29122 -0.049109 0.010422 0.055962 0.098894 0.025407 -0.1024 -0.087532 0.33389 0.024146 0.0698 -0.10908 0.068984 -0.21392 0.0094192 0.2248 0.45842 0.35007 -0.10466 -0.39784 -0.20129 -0.19853 -0.062317 -0.24027 -0.14472 0.16722 -0.022917 0.07309 -0.075423 -0.22215 -0.2007 -0.15501 -0.14292 0.020762 -0.073934 -0.1297 -0.17733 0.00040018 0.37486 -0.23568 0.2873 -0.09412 -0.30545 0.10058 0.13206 0.034703 0.25295 -0.00025812 -0.25604 0.10521 -0.37451 0.054506 -0.3641 0.023067 0.28082 0.075776 -0.0085844 -0.028469 -0.32731 -0.25453 -0.24361 0.14963 -0.018535 -0.046559 0.27258 0.1117 0.044678 0.068228 0.0055006 0.19131 -0.07009 -0.081737 0.29043 -0.063953 -0.21298 -0.098314 0.3272 0.21177 0.0063094 0.18614 -0.026134 -0.19672 -0.19871 -0.23843 -0.13453 -0.16033 0.33616 0.061887 -0.24282 0.041914 -0.058487 0.10543 0.010916 0.0074689 -0.072874 -0.087537 -0.27248 0.32189 0.18007 -0.07637 -0.057976 0.080317 -0.13742 -0.32417 0.23343 0.21642 -0.2611 0.082234 -0.30399 -0.11936 0.14208 -0.052509 -0.25122 -0.22477 0.052094 -0.34903 0.27491 -0.11244 0.29951 0.26191 0.12437 0.30532 -0.061578 0.068883 -0.0021915 -0.069667 0.32008 0.26071 -0.23254 0.076379 -0.20056 0.064546 -0.31387 0.062595 -0.15019 0.33912 -0.0090496 0.36837 0.19216 -0.22625 -0.0082418 -0.11223 0.16118 -0.46052 -0.091179 -0.2101 -0.024787 0.12483 -0.33266 -0.011648 -0.046781 -0.16715 -0.045204 -0.012046 -0.18273 0.027313 -0.052088 -0.12463 0.089849 0.031236 -0.046284 -0.10183 0.015689 0.028505 0.41893 -0.33513 -0.16907 0.081215 -0.31798 0.33488 -0.07572 0.12465 0.19711 0.13179 0.042467 -0.10059 -0.061605 -0.23083 0.55137 -0.16056 0.46969 0.21441 0.20486 -0.14737 -0.072532 -0.062257 -0.027511 -0.13189 -0.40392 -0.018608 -0.43712 0.035436 -0.022148 -0.10226 -0.13832 0.029951 0.3291 
liberal 0.090607 0.36529 -0.19312 -0.25308 -0.033109 -0.1188 -0.33458 0.063354 0.10623 0.017053 0.089328 -0.45124 0.36229 0.053601 -0.02754 0.016722 -0.3191 -0.42605 -0.3777 0.035212 0.09083 0.15125 -0.050783 -0.001745 0.076772 -0.16323 -0.063784 -0.16904 -0.10583 0.4679 0.014489 0.0048005 -0.1126 0.14732 -0.4157 -0.1015 0.18477 0.15661 -0.091867 0.15153 -0.13571 -0.079006 0.026274 -0.18476 0.11025 0.32564 0.20221 -0.12903 -0.013804 0.15212 0.38487 0.0090648 0.069068 -0.078112 -0.043551 0.18201 -0.059005 -0.0027491 -0.23607 -0.29858 0.037092 -0.0071566 0.19578 0.096405 -0.08231 0.12455 0.11042 0.13677 -0.15373 0.014829 -0.20246 -0.13591 0.086614 0.062782 0.15586 -0.093518 0.095772 0.038938 -0.26957 -0.1982 0.025342 -0.048738 -0.16691 0.041296 -0.091853 -0.12832 -0.095145 -0.11604 0.14243 0.10903 -0.097424 0.19277 -0.24189 -0.14014 -0.29761 -0.12605 0.29218 -0.22387 -0.15482 -0.016378 0.0017319 -0.4767 -0.033939 -0.053121 -0.10942 0.025321 -0.073524 -0.072448 0.060892 0.004104 -0.27068 0.25007 0.14362 0.029647 -0.21011 -0.031208 -0.4995 0.073759 0.12451 0.53412 0.24372 0.063341 -0.25336 -0.23129 -0.27841 0.10183 -0.23976 -0.012231 0.27085 0.088145 0.23213 -0.33494 -0.46183 -0.25608 -0.30565 -0.34089 0.01684 0.0019952 -0.11602 -0.17165 -0.25161 0.04116 -0.30917 0.27613 0.017433 -0.22169 0.052068 0.069653 0.19815 0.12321 0.004844 -0.33784 -0.01735 -0.37408 0.21121 -0.34565 0.046829 0.1609 -0.036393 -0.16464 -0.10348 -0.25823 -0.34872 -0.29738 0.37147 -0.053458 -0.1045 0.25769 0.062898 0.12581 0.10178 0.10331 0.31859 -0.019577 -0.093692 -0.15975 0.20224 -0.23101 -0.075848 0.13913 0.036372 0.10395 0.13825 0.063121 0.014421 -0.067676 -0.10752 -0.2503 -0.038857 0.25 0.31258 -0.094815 0.19308 -0.025422 0.10345 -0.037341 0.12154 -0.036495 -0.16208 -0.17097 0.47083 0.36532 -0.085195 0.020242 0.051521 0.083129 -0.14753 0.10452 0.068049 -0.0091868 -0.00172 -0.10529 0.2049 0.29546 -0.08613 -0.39496 -0.14676 -0.35903 -0.31686 0.35388 -0.023758 0.2327 0.26915 0.14196 0.23391 0.019676 0.10334 -0.13497 -0.11415 0.27774 0.041845 -0.22134 0.23839 -0.080588 0.10982 -0.26328 -0.081454 -0.099192 0.19334 -0.2627 0.043125 0.061196 -0.15405 -0.11602 0.054723 0.17562 -0.38208 0.05369 -0.058253 -0.12401 0.19362 -0.24181 0.01149 -0.034489 -0.20122 -0.092529 0.0093997 -0.16565 0.13575 -0.17731 0.16804 0.16131 0.0191 0.041237 -0.17555 -0.13607 0.079564 0.22308 -0.301 -0.10808 0.087299 -0.18933 0.40592 -0.16576 0.27296 0.15096 0.030514 0.27544 0.1983 -0.091117 -0.046274 0.28548 -0.14929 0.43594 0.068681 0.21151 -0.19568 0.024883 -0.12255 0.033272 -0.20332 -0.29354 0.1822 -0.44097 0.30081 0.28203 0.032423 -0.20491 0.18981 0.37296 
good -0.17416 0.15926 -0.16148 -0.039977 -0.099657 0.17113 -0.15669 -0.010151 0.18706 0.1588 -0.11971 -0.064372 0.10525 0.25221 -0.21945 -0.045934 0.14315 0.13017 -0.073385 0.03471 0.02925 -0.040645 -0.17094 -0.031914 -0.14073 0.016793 -0.16378 -0.039733 -0.32424 0.090783 -0.025423 0.14096 0.050933 0.057188 0.11608 0.066583 0.029596 -0.18915 -0.21081 -0.28749 -0.17113 0.012643 0.11435 -0.31525 -0.082045 0.15507 0.015761 -0.089197 -0.21749 -0.10049 0.1834 -0.028259 -0.23143 -0.044201 -0.23486 0.16719 -0.14699 0.11897 -0.044533 0.21743 0.036744 -0.21604 0.089207 0.060042 -0.351 0.26905 0.15401 0.37547 0.011377 0.0103 -0.017329 -0.018642 0.11359 0.070832 0.049536 0.014688 0.26568 0.06663 -0.17661 -0.033615 -0.056174 -0.18165 0.24832 -0.33814 -0.26338 -0.21847 0.055443 0.11473 -0.093589 0.043926 -0.060139 -0.098059 0.24711 -0.064575 -0.14505 -0.11541 -0.11 -0.23908 -0.025743 -0.036964 -0.056413 0.11046 -0.0062308 -0.17838 0.011346 0.12047 0.025257 0.068783 -0.028833 0.12213 -0.30127 0.15387 0.10646 -0.16517 0.28419 -0.26954 -0.28371 -0.040856 -0.29673 -0.1152 0.10693 -0.055379 -0.079481 0.034277 0.15974 0.00015344 0.005882 0.086325 -0.24709 0.11007 0.15346 0.20443 -0.21262 -0.029675 -0.30546 0.20236 -0.10823 -0.28904 0.12557 -0.11196 0.11791 0.051958 0.06342 0.11605 0.07672 0.033011 0.20704 0.0345 0.094293 -0.095681 -0.32611 -0.13105 0.06373 -0.017112 0.12612 -0.20266 -0.031323 -0.028017 0.1193 -0.20375 0.11044 -0.41447 -0.058223 -0.21662 0.32471 -0.10063 -0.050489 -0.20483 -0.039159 -0.26886 0.28818 0.022328 0.087049 0.027829 0.018999 0.14092 0.086767 -0.091707 0.0033263 0.20469 -0.095018 -0.2079 0.098259 -0.080213 0.09455 0.015685 -0.032075 -0.05882 -0.44025 -0.060855 -0.10502 -0.084592 0.10757 0.076313 0.040101 0.13636 -0.093133 0.030751 -0.05603 0.14615 0.24216 0.12168 -0.25207 0.15683 -0.088152 -0.09706 0.11693 0.079763 0.072022 -0.057813 0.12081 -0.14308 0.055195 -0.043797 -0.23986 -0.22905 0.11064 0.2125 -0.054812 0.2605 0.013119 0.18689 -0.053176 0.16275 0.053049 0.069332 0.12024 -0.070683 0.016269 0.080775 0.15873 0.037206 0.31826 -0.10542 -0.11552 -0.10391 -0.12097 -0.19567 0.3405 -0.14851 0.040038 0.050863 -0.15591 -0.15607 -0.10396 0.15919 -0.11725 -0.058141 -0.015634 0.0014237 0.14244 -0.055807 -0.047644 0.03331 -0.09297 0.10779 0.35589 0.11344 0.043093 -0.20089 0.20868 0.064589 0.06677 0.0032134 -0.10295 0.11812 0.024293 -0.095011 -0.19627 -0.018019 0.038754 -0.12616 0.090741 -0.17358 0.14025 -0.16916 0.16502 0.35847 0.11964 -0.080442 0.19395 0.337 -0.050962 -0.11655 -0.082951 -0.26978 0.069547 0.13944 0.14015 0.17826 -0.01448 0.068827 0.11478 0.085038 0.059229 -0.10142 0.0085801 -0.013934 -0.27635 0.14858 
bad -0.19931 0.10521 -0.07457 0.23225 -0.040549 0.14715 -0.031882 -0.20638 0.23219 0.13524 -0.25712 0.074775 0.09448 0.19193 -0.15024 -0.0045901 0.15481 -0.079699 0.059892 0.059968 0.011039 0.098307 -0.12108 0.21672 -0.034677 0.12684 0.032936 -0.1193 -0.33236 0.10054 -0.0067356 0.10491 -0.025958 0.0014471 -0.03568 0.03989 0.012795 -0.15053 -0.18329 -0.22157 -0.20806 -0.14638 0.14497 -0.17827 -0.14056 -0.042416 -0.080649 0.073611 -0.094603 -0.0145 0.20588 0.045535 -0.14255 -0.143 -0.19937 0.29203 -0.088824 -0.054389 -0.025762 -0.036006 0.29622 -0.19654 0.29283 0.07604 -0.32793 0.21861 -0.14119 0.3114 0.024992 0.12527 -0.09654 0.053354 0.10757 -0.050724 -0.00059507 0.17679 0.17036 0.11246 -0.089363 -0.17165 -0.25212 -0.15971 0.11324 -0.30164 -0.23702 -0.32793 -0.18643 -0.046425 -0.050797 0.053214 -0.13115 -0.14588 0.22183 -0.013862 -0.26062 -0.064912 -0.086646 -0.21873 -0.16294 -0.18113 -0.12995 -0.15901 0.078029 -0.19023 -0.031592 0.030779 0.12761 0.15814 -0.025353 0.11097 -0.27152 0.073002 0.14315 -0.036609 0.37182 -0.35587 -0.41274 -0.23857 -0.25803 0.06873 -0.063694 0.041555 -0.21957 0.031012 0.19198 -0.1409 0.048069 0.14179 -0.11746 0.16919 0.25142 0.27232 -0.063201 0.038836 -0.31154 0.023403 0.038382 -0.17493 -0.084802 -0.10685 -0.0062652 -0.023459 0.065772 0.17565 0.23066 0.0819 0.10937 0.19185 0.10607 -0.12096 -0.31016 -0.083048 -0.098067 0.084215 0.033747 -0.14873 -0.020364 -0.061681 0.20596 -0.34355 0.19071 -0.3622 0.0057642 -0.075891 0.34303 0.092137 -0.035026 -0.17427 0.061538 -0.2382 0.27217 -0.085171 0.16815 -0.10702 0.16283 0.099813 -0.016368 -0.13544 0.13542 0.19916 -0.24368 -0.076779 0.029918 -0.13066 0.29693 0.12392 0.075358 -0.20637 -0.48758 -0.010737 -0.04896 0.085296 -0.0011419 -0.19121 -0.03067 0.14716 -0.022898 -0.17218 0.26768 0.161 0.28249 0.17156 -0.29641 0.10843 -0.13279 0.15021 0.26984 0.031897 0.0033 -0.055065 0.044446 -0.32465 0.014347 0.073509 -0.3378 0.02369 0.10331 0.18176 0.081394 0.42377 0.038923 0.19238 -0.10215 0.11904 0.13575 -0.026952 -0.066729 0.11579 -0.083746 -0.050382 0.12891 -0.044872 0.41648 -0.10691 -0.35055 -0.17921 -0.060974 -0.2023 0.27813 -0.19265 -0.13301 -0.10204 -0.20394 -0.24801 -0.083389 0.063305 -0.2303 -0.010951 0.024401 -0.12333 -0.038989 -0.0684 -0.031993 0.085541 -0.16834 0.11173 0.39606 0.1061 -0.14214 -0.04712 0.26911 -0.080368 0.13478 -0.082961 -0.11651 0.17881 -0.05095 -0.14117 -0.10421 0.0011704 0.15424 -0.14835 0.10815 -0.19106 0.21602 -0.24764 0.10208 0.32643 -0.054012 -0.23516 0.33701 0.17646 -0.064672 -0.19213 0.10898 -0.12703 0.13045 0.32218 0.092046 0.009581 0.13011 0.22171 0.096972 -0.11912 0.079704 -0.10432 -0.15031 -0.052694 -0.246 0.022444 
bush 0.2047 -0.14365 0.086565 -0.12069 0.13859 -0.050707 -0.13778 0.079098 0.23056 -0.075813 -0.27006 -0.0049621 0.020651 0.3966 0.10684 0.0091113 -0.15161 0.10418 -0.16394 0.048828 -0.11189 -0.24777 -0.35199 0.30534 -0.24439 0.091533 0.012318 -0.15108 0.098601 0.018058 -0.32837 0.10259 -0.19531 0.1104 -0.069658 0.12202 0.044841 0.029942 0.18292 -0.21538 -0.42811 0.19533 0.26322 -0.19311 -0.26168 0.22771 -0.002661 -0.040578 0.1071 0.18088 0.20824 -0.05982 -0.1724 -0.10116 0.20747 0.44454 -0.26115 0.0070422 -0.29851 -0.17107 0.096494 -0.088412 -0.014283 0.043198 -0.39076 0.24484 0.036747 -0.093814 -0.0068057 -0.052009 0.089423 -0.12697 0.16933 0.066624 0.12468 0.038935 -0.091737 -0.048423 -0.077299 -0.034541 -0.08132 -0.17994 -0.080603 -0.2182 0.16161 0.019598 -0.26601 0.0049339 -0.0097399 -0.10488 0.11581 -0.24628 -0.080431 0.025526 -0.077344 -0.19266 -0.17638 0.10634 -0.12056 -0.01163 0.16029 -0.036069 0.26513 0.12445 -0.14614 -0.26007 -0.20732 -0.077257 0.17101 0.24244 -0.045639 0.1141 -0.016674 -0.33008 0.17838 0.12441 -0.13523 0.19464 -0.20474 0.31478 0.3034 -0.076667 -0.32272 -0.021973 0.044299 0.067899 -0.15639 0.050162 -0.1456 0.2378 -0.062376 -0.21191 -0.32108 -0.052898 0.088624 0.072489 0.049358 0.26028 -0.19944 -0.19677 0.37218 0.18334 0.00067118 0.061224 0.14731 -0.10771 0.088802 0.11013 0.14593 0.10173 -0.037147 0.10012 0.0035 -0.30291 0.15464 0.077791 -0.13721 0.069482 0.12114 -0.017133 0.12343 -0.17451 0.013694 0.060661 0.28697 0.33762 -0.25265 0.32937 0.089368 -0.14485 -0.081332 -0.0072261 0.59285 -0.0034181 -0.045584 -0.17639 0.063568 -0.044938 -0.082992 0.037536 -0.32002 -0.099674 -0.15783 -0.024456 -0.068115 -0.14539 -0.40883 -0.11508 -0.36608 0.19757 -0.39615 -0.074198 0.17368 -0.39057 -0.00090617 0.020894 -0.10369 0.031469 -0.38691 0.04855 -0.14157 0.14763 -0.15387 -0.078478 0.19578 -0.091926 -0.2512 0.17948 0.1096 -0.12416 -0.094022 0.14956 0.23239 0.12827 -0.29853 -0.33305 -0.085428 0.17013 0.16059 0.10737 0.26311 0.023206 0.1484 -0.1167 -0.3188 0.28993 -0.22539 -0.016942 0.17234 0.081856 -0.02917 0.10717 0.21749 -0.20342 -0.078814 -0.14296 0.18746 -0.54524 0.22509 0.16563 0.035402 0.28019 -0.26109 0.11654 -0.21991 0.21653 0.19949 -0.19164 0.044583 -0.017755 0.22911 -0.21355 0.018354 0.054048 -0.048171 -0.37586 -0.015126 0.087877 0.094836 0.10597 0.02232 -0.04531 0.095763 -0.041962 -0.12463 0.41282 0.12803 -0.095317 -0.055421 0.042532 0.10111 -0.1921 0.30443 0.13107 0.16916 0.083331 0.20105 0.10404 -0.17603 -0.12383 0.036534 0.34967 0.071896 -0.14425 0.04483 -0.048876 0.11803 -0.07439 0.034995 0.33189 -0.0051542 -0.14937 0.0091839 0.015881 -0.12535 -0.25587 -0.093963 0.22794 0.037112 0.34707 
sessions -0.081669 0.44212 -0.087372 -0.048624 0.40276 -0.32158 -0.15571 0.2209 0.40318 0.2239 0.062959 0.065376 0.23669 0.10049 -0.002014 0.13574 -0.3698 -0.20722 0.33513 0.1372 -0.13903 0.27976 -0.11822 0.00036774 -0.40575 -0.029677 -0.30584 -0.42815 -0.3166 -0.033592 -0.1997 0.30187 -0.25323 -0.093032 0.15725 -0.077471 -0.26742 -0.1283 0.12694 -0.30413 -0.29736 -0.089648 0.068467 0.50019 0.0603 -0.12311 0.26195 -0.27924 0.13117 0.035088 -0.034753 -0.33355 -0.13401 -0.067581 -0.084306 -0.11941 -0.28063 0.23274 0.11716 -0.30526 -0.038182 0.037595 0.040525 0.2821 0.049735 0.28357 0.057673 0.083735 0.040034 -0.13827 -0.2405 -0.061342 0.18182 -0.48912 0.16413 -0.25604 0.00015606 0.33345 -0.064155 -0.062704 -0.11624 0.23715 -0.166 -0.08573 -0.09999 -0.083332 -0.31339 0.010261 0.021035 0.31925 0.20996 -0.15173 0.17285 -0.19952 -0.29607 -0.074928 -0.2191 -0.19316 -0.36878 -0.21425 0.26176 0.017661 -0.024356 -0.13404 0.0096545 0.2901 -0.25536 -0.25658 0.28504 0.056332 -0.12 0.13218 0.23255 0.42703 0.26337 0.022553 0.19884 0.014546 -0.078428 0.033318 0.18557 -0.21692 -0.26169 0.023843 -0.039231 0.045762 -0.0047419 0.43221 -0.25388 0.28847 0.15749 -0.30097 -0.48796 -0.022395 0.028482 0.13991 -0.21405 -0.12684 -0.26191 -0.23637 -0.1371 0.058941 -0.31041 0.12058 -0.09542 -0.013588 -0.064651 -0.093031 0.064596 -0.10048 -0.0717 -0.012171 0.039018 -0.22679 0.24466 -0.34311 -0.014006 -0.17522 0.171 0.014367 0.16752 -0.29715 -0.32024 0.063276 -0.0082024 0.099813 0.028299 0.10449 0.10965 -0.032755 0.078426 -0.10657 0.074509 -0.094276 -0.26249 0.077697 0.083288 0.00068524 -0.37849 0.29907 0.02648 -0.060353 -0.29588 0.16426 0.032703 -0.38797 -0.26719 0.003939 0.37825 -0.27105 0.063637 -0.070684 -0.18652 0.05704 -0.039274 -0.042014 -0.13495 0.090941 -0.052211 -0.13236 0.29351 0.39119 0.039121 0.12589 -0.00062332 0.21259 -0.39178 0.22065 0.21446 -0.183 0.17202 0.048981 -0.22754 -0.030854 -0.14446 -0.024717 -0.11841 0.3559 0.20901 0.078603 0.12096 -0.52291 0.0807 0.02871 -0.18461 0.11823 -0.16823 0.11189 -0.011825 -0.062997 0.48667 0.20425 0.088891 -0.13588 -0.29426 0.035911 0.077249 -0.2163 -0.042736 0.075709 0.24335 0.15312 0.048485 0.24473 -0.009586 -0.14964 -0.13072 0.044165 0.2695 0.063916 0.37469 -0.095343 0.057105 0.040976 -0.048349 0.026669 0.21261 0.019903 -0.13037 0.029233 -0.27217 0.030652 -0.1816 -0.16335 -0.030444 0.13621 -0.02496 0.37525 0.26012 0.10896 0.11408 0.10914 0.097738 -0.066676 -0.080776 -0.19378 0.057505 0.16791 -0.15993 -0.59647 0.14915 0.53604 -0.48106 -0.063864 -0.045088 -0.20118 -0.25364 0.21752 0.40594 0.24053 -0.2207 -0.33652 0.13046 -0.43742 -0.081939 -0.26368 0.093327 0.022913 0.024493 0.21881 
shelby -0.19023 -0.21615 -0.077666 -0.28746 0.24035 -0.0935 -0.058115 0.022503 0.098252 0.5257 -0.27848 -0.027276 0.25633 0.049478 0.42869 0.30904 -0.34047 -0.19131 0.27354 -0.18004 0.096415 0.35577 -0.15686 0.065972 -0.49141 -0.17216 -0.25863 -0.14817 0.029186 -0.043986 -0.30774 0.35567 -0.21167 0.28092 -0.041039 0.25925 0.34531 0.055221 -0.37022 0.017156 -0.28517 0.078225 -0.22962 -0.24185 0.036829 -0.021689 0.14736 -0.18102 0.13246 -0.052018 0.48874 -0.28965 -0.25584 -0.045105 0.42874 -0.14686 0.10277 -0.12348 -0.14195 -0.20266 -0.13322 0.23065 0.20955 0.14504 -0.24399 0.20511 0.11196 -0.11872 0.24381 -0.23575 -0.34268 0.48254 0.17785 -0.31961 -0.016695 0.077695 0.093319 0.15838 0.074178 0.18451 -0.016388 -0.52893 -0.1684 0.016629 0.27024 -0.28497 -0.50062 -0.015004 0.015433 0.38004 -0.14644 0.1241 0.30508 0.12893 0.26747 0.15855 -0.35717 0.058315 -0.29059 0.094022 0.10742 -0.34808 -0.021376 0.3769 -0.1346 0.014965 -0.31851 -0.21627 -0.10154 0.24133 -0.055568 -0.0067641 -0.18369 -0.49408 -0.057747 0.011428 -0.069612 0.10548 -0.096915 0.27739 0.19513 -0.37789 -0.56336 -0.057233 0.047311 -0.23055 0.14309 -0.26779 -0.27936 -0.13195 0.096439 -0.15716 -0.41049 0.19773 -0.23808 -0.10194 -0.29595 -0.28319 -0.069216 -0.17183 0.0020155 0.17198 -0.083034 -0.033433 -0.26689 0.07492 -0.30216 0.07286 -0.14971 -0.20344 0.19121 -0.048715 -0.3372 -0.41573 0.22831 -0.47338 0.010032 -0.23968 -0.010642 0.18009 0.0030024 0.19295 0.18022 -0.22653 -0.15107 -0.017432 0.18805 -0.17587 -0.20834 -0.20829 -0.026511 -0.15081 -0.17723 -0.17763 0.037601 -0.067885 -0.020752 -0.10982 -0.019458 -0.03111 0.036238 -0.031103 0.076458 0.4747 0.30359 -0.13505 0.015244 0.26614 0.10663 -0.052591 -0.20918 -0.048858 0.11482 -0.35336 -0.0005779 -0.0074881 -0.038449 -0.12845 -0.10859 -0.12366 0.17288 0.33145 0.27318 -0.096436 0.12686 0.33511 -0.064089 0.50429 -0.076428 -0.16729 0.0071752 0.063244 -0.1362 0.23163 -0.27564 -0.050757 -0.050049 0.44024 0.3212 0.21447 -0.23659 -0.016377 0.41899 -0.097858 -0.37923 0.48435 -0.22634 -0.082605 0.10244 0.2488 0.50553 0.22282 0.34177 -0.36023 0.01935 -0.31271 -0.25777 -0.52617 -0.015584 0.097681 0.26067 -0.497 0.16929 0.40506 -0.31071 -0.18839 -0.44841 -0.053825 -0.067856 -0.19574 -0.0014038 -0.25996 -0.079169 0.34953 0.071602 -0.23857 0.43035 -0.20127 -0.41661 -0.16342 -0.16489 0.044754 -0.54634 0.24563 -0.16364 0.18911 -0.09881 0.30804 -0.156 -0.081239 0.066644 -0.23198 0.44193 -0.25716 -0.43099 -0.11016 0.015242 0.15578 -0.44105 -0.0775 0.071542 0.10305 -0.16169 -0.09135 -0.021842 0.10948 0.14119 0.28462 -0.1491 0.23405 -0.02571 -0.36548 0.1017 -0.25288 0.30954 -0.23144 0.23023 0.14733 0.0049278 0.31888 
stevens 0.23887 -0.32586 -0.31689 -0.14839 0.18167 0.049766 -0.10707 -0.22909 0.14631 0.22511 0.10799 0.22402 0.17605 0.079266 0.18511 0.10015 -0.05339 -0.023768 0.036344 0.01695 -0.21852 0.36205 0.26005 0.059101 -0.32252 -0.20561 0.10914 -0.13004 -0.31697 0.048659 -0.08573 0.1866 0.0095531 0.22823 0.071733 -0.17208 0.21168 -0.19421 -0.14117 -0.17961 -0.22835 0.23375 -0.26116 -0.24522 0.40652 0.27456 -0.011372 -0.30646 0.16867 -0.12902 0.16519 -0.3737 -0.20475 -0.15936 0.37256 0.14745 -0.016276 0.36064 -0.13059 -0.28251 0.053798 -0.043454 -0.22069 0.10374 -0.19229 0.083582 -0.20084 -0.19941 0.24955 0.03917 0.10653 0.071668 -0.12991 -0.067319 0.30659 -0.17417 0.033247 -0.083727 -0.076187 -0.0022928 0.093779 -0.20227 -0.12726 0.13386 -0.17807 0.26197 -0.37142 -0.090006 -0.048745 0.4654 -0.23974 0.29908 0.11765 0.14444 -0.043558 -0.054408 0.012252 0.084185 -0.19244 -0.24295 0.0056696 -0.64013 -0.22305 -0.11497 0.01835 -0.24274 -0.42737 -0.31539 0.21623 0.30876 -0.49818 0.097223 -0.12337 -0.052003 0.012829 0.14654 -0.21149 0.2063 0.13473 0.18248 0.41918 -0.093561 -0.047396 0.12971 -0.03593 -0.2046 0.16362 -0.047793 -0.16906 -0.28636 -0.17143 -0.20498 -0.27757 0.30513 -0.62785 -0.11195 -0.35004 0.13279 -0.057542 -0.17871 0.14607 -0.0059802 0.25795 0.22616 0.11585 -0.38581 -0.12571 0.047866 0.45839 0.29881 -0.11734 -0.30957 0.13078 -0.59976 0.21222 0.0070698 -0.009685 0.26712 0.30272 -0.10181 0.7539 -0.11549 0.23183 0.30459 0.065422 0.012351 -0.1027 -0.042138 0.041264 0.13123 -0.041135 0.18157 -0.10456 0.061923 0.21799 0.28454 -0.075845 0.078544 -0.41652 0.26751 -0.2755 -0.28576 -0.0088937 0.34741 0.047515 -0.10128 0.25014 0.065515 0.27696 -0.09685 -0.30441 -0.18168 -0.042046 -0.05076 -0.27029 0.049043 0.13543 0.075713 0.0090108 -0.13114 -0.16089 0.24705 -0.085907 -0.038253 -0.15137 -0.04172 -0.22562 -0.024332 0.32336 0.12408 -0.051608 -0.27812 -0.008013 0.31657 -0.2713 -0.56824 -0.17725 -0.0092205 0.41184 0.05137 0.12816 0.054721 0.50883 -0.052225 -0.029619 0.39093 0.049422 -0.097605 -0.27896 -0.024446 0.36156 0.15172 0.38662 -0.18221 -0.03631 0.085088 -0.038448 -0.023879 -0.099793 -0.046408 0.49648 -0.15035 -0.1025 0.42913 0.10545 0.30277 0.12506 -0.18616 0.027651 -0.3462 0.080002 -0.46892 -0.34226 -0.17106 0.017718 -0.21063 -0.012743 0.038307 -0.20086 0.2504 -0.13417 0.057355 -0.13857 -0.042792 -0.21199 0.44299 -0.0084303 -0.16346 0.11007 0.078078 0.35491 0.27106 0.25411 -0.23799 -0.17009 0.24316 0.027987 0.28506 -0.40309 0.15536 -0.28224 -0.19759 -0.51863 0.29114 0.087958 -0.23387 0.12251 0.12776 0.062997 0.41019 -0.0073074 -0.20236 0.027188 -0.33577 0.27521 -0.021774 0.12063 0.11861 -0.47293 0.19073 
murkowski -0.008324 -0.29096 -0.3004 -0.1116 -0.21959 -0.15786 -0.05373 0.35494 0.057609 -0.1848 0.10226 0.068684 0.33466 0.19942 0.41366 0.023917 -0.26396 0.27294 0.26983 0.31514 0.084284 0.26412 0.027755 0.084362 -0.2435 0.079709 0.13402 -0.27564 -0.24513 0.3015 0.026262 0.36762 0.40643 -0.25875 -0.27824 0.15894 0.024602 -0.21804 -0.13966 -0.2924 -0.1689 0.034401 -0.29379 -0.067956 -0.094314 0.14269 0.0030723 -0.21465 -0.011384 -0.55314 0.39852 -0.36818 -0.35458 -0.092476 0.38831 -0.216 0.28601 0.25042 -0.3682 -0.098452 -0.11436 0.23444 0.11255 -0.18798 -0.016407 0.30772 -0.22169 -0.19854 0.47998 -0.0026933 -0.13813 0.41992 0.16428 0.057131 0.45532 -0.13653 -0.057373 0.24795 -0.1649 0.0009715 -0.034406 -0.52328 -0.033048 -0.25887 -0.057464 0.5203 0.078391 -0.10991 -0.054336 0.21118 0.081816 0.0059131 0.07859 -0.16613 0.04619 0.11436 0.33363 -0.08088 -0.06248 -0.27502 0.40608 -0.13569 -0.09417 0.24725 0.36678 -0.15721 -0.13835 -0.047678 0.37148 0.52436 -0.42614 0.12947 -0.2803 -0.16638 0.36235 0.079786 -0.14066 0.19653 -0.32899 -0.049786 0.25602 0.33721 -0.26663 0.01827 0.29451 0.16298 -0.06117 -0.62498 -0.25722 -0.33997 0.2067 0.051586 -0.23156 0.38308 -0.3391 0.093121 0.10366 0.3229 0.080338 -0.37283 0.511 -0.30339 0.0036312 -0.33423 0.062025 -0.2265 -0.44239 0.3352 -0.20548 0.24636 -0.043746 -0.14393 0.0046265 -0.36841 -0.045713 -0.15622 0.066766 0.21639 0.37824 0.1664 0.48283 -0.041245 0.17399 0.39403 -0.018195 0.21384 -0.0037906 0.079618 -0.090452 0.35455 -0.18345 0.01518 -0.020949 0.33135 0.14444 -0.21381 -0.49642 0.14558 -0.075504 -0.0079213 0.0093796 -0.14108 -0.44173 0.29703 -0.36544 -0.44883 -0.016403 0.38175 0.010516 0.20267 -0.35875 -0.43267 0.2632 -0.40106 -0.40871 0.17285 -0.29824 0.4207 0.016119 -0.46016 0.13869 0.23175 -0.018423 -0.092812 -0.34488 0.35247 -0.043913 0.33293 0.28307 0.053237 -0.16229 -0.49533 0.051868 0.42353 -0.23375 -0.70385 -0.11611 0.24873 -0.02451 0.12567 0.049553 0.019403 0.62376 0.24408 -0.17855 0.42946 -0.11462 0.48346 -0.36139 0.071858 0.38911 0.50303 0.2559 -0.65846 -0.19704 -0.35391 -0.099758 -0.45892 -0.27542 0.32049 0.22756 -0.24823 -0.11371 0.0056718 -0.48357 0.41844 -0.092677 -0.28773 -0.1676 -0.54442 -0.10989 -0.36692 -0.33133 -0.037976 0.088362 -0.71025 -0.31669 0.27539 -0.40696 0.14997 -0.29845 -0.2088 -0.23527 0.14222 -0.007766 0.41152 -0.36962 0.30188 0.43745 -0.21427 -0.077638 0.24687 0.47574 -0.49689 -0.20277 0.69669 -0.046904 0.58736 -0.0031573 0.51503 -0.31503 0.21613 -0.29649 0.16841 0.34044 0.17837 0.10772 0.57157 0.042147 0.27391 -0.30087 -0.59821 0.08512 -0.26754 -0.054463 0.094308 0.35193 0.14164 -0.30262 0.35743 
mccain -0.023866 -0.3333 -0.17473 -0.20652 -0.020352 -0.075869 -0.36342 -0.003788 0.30011 0.12442 0.0065001 -0.28008 0.35509 0.24515 -0.10729 0.069979 -0.21316 0.17349 0.12649 -0.00059309 0.052829 0.099441 -0.071503 0.39452 -0.24034 -0.016742 -0.16375 -0.26758 0.28579 -0.049196 -0.16992 0.11331 0.13792 -0.22456 -0.14603 0.0024771 -0.0073693 0.072169 -0.061009 -0.28285 -0.45614 0.086777 -0.24953 -0.44234 -0.53706 0.26915 -0.084033 -0.040083 0.04011 -0.28927 0.36802 -0.17648 0.026453 0.09109 0.11898 0.33508 -0.14986 0.25437 -0.4608 -0.21995 -0.09443 0.037386 -0.069788 0.19395 -0.29669 0.33768 -0.14381 0.036875 0.29963 0.11762 -0.11875 -0.059033 0.26488 -0.30097 0.2942 -0.053208 -0.04817 -0.064779 -0.17086 0.15252 -0.1541 -0.50979 0.054883 -0.21885 0.25721 0.06631 -0.22769 0.094909 0.013284 0.0049163 0.23008 -0.19318 0.056632 -0.27336 0.034415 0.054547 0.050035 -0.25534 -0.077203 -0.2203 0.26157 -0.12738 0.18602 0.22484 -0.22662 -0.085986 -0.1745 0.084258 0.24103 0.27463 -0.022413 0.13084 -0.23178 0.051488 0.21189 0.16385 -0.13194 0.038595 -0.10906 -0.048583 0.27498 -0.048279 -0.62066 -0.0062718 0.091322 -0.10204 -0.21656 -0.0027064 -0.11584 0.14439 0.060519 -0.61816 -0.22641 0.35809 -0.047882 0.13607 -0.080072 0.17811 -0.016496 -0.16001 0.32526 0.01728 0.047144 -0.044621 0.37751 0.014756 -0.23537 0.091024 -0.045623 0.25526 -0.20509 -0.073103 0.0046671 -0.41931 0.25238 -0.040742 -0.040756 -0.09907 0.18858 0.13473 0.24196 -0.11221 -0.10829 0.059388 0.0709 0.024222 -0.20595 0.28696 0.080247 -0.1622 -0.070932 -0.070125 0.40982 0.013001 -0.29262 -0.0061668 -0.022487 0.13513 -0.12602 -0.080338 -0.18174 -0.12424 -0.11896 0.16074 0.17576 -0.0146 -0.16898 -0.037058 -0.17559 0.16301 -0.29678 -0.19515 0.13151 -0.51728 -0.12766 -0.02431 -0.049276 0.20789 -0.059404 -0.32721 -0.039271 -0.079576 -0.28761 -0.33093 0.083304 -0.07997 -0.18794 0.10106 0.43713 0.067826 -0.060781 -0.20329 0.2303 0.2608 -0.31759 -0.50747 -0.0086417 0.25999 -0.012977 -0.002649 0.096925 0.30078 0.33973 -0.088672 -0.1262 0.040549 -0.29103 0.081508 -0.020112 0.19681 0.28295 -0.019656 0.25492 -0.30609 -0.16262 -0.17835 0.054601 -0.28389 0.013807 0.025582 0.41056 0.055588 -0.050614 0.0059889 -0.037363 0.41683 0.12192 -0.030058 0.11153 -0.35988 0.32913 -0.37607 0.18826 -0.06516 0.099348 -0.52087 0.16783 0.32471 0.068329 0.16132 -0.27896 -0.19446 -0.18739 -0.097089 0.068722 0.2881 0.13959 0.0084755 -0.040832 0.12991 0.34347 -0.13077 0.17847 -0.14154 0.30244 0.23263 0.030467 0.37293 -0.47646 0.13995 0.057242 0.10911 0.15737 -0.32613 -0.22469 0.1253 0.21047 -0.075981 -0.3147 -0.009857 0.057097 -0.12241 -0.0082684 -0.054527 0.083971 -0.10755 -0.1754 0.35251 -0.30523 0.49747 
kyl -0.17322 -0.22599 -0.47637 -0.12203 -0.18955 0.17265 -0.0091632 0.028471 0.13769 0.35152 0.16988 -0.3989 0.28258 -0.19877 0.29755 0.11003 -0.34814 -0.25816 0.55126 -0.056578 0.083179 0.50817 0.19874 0.50619 -0.34255 0.016267 0.09211 -0.21244 -0.17679 0.47297 -0.58983 0.36751 -0.018524 -0.24529 -0.51943 -0.017431 -0.031762 -0.37983 -0.37883 -0.14968 -0.11754 -0.1449 -0.23869 -0.1356 -0.22844 -0.01312 -0.1856 -0.26152 0.049438 -0.19606 0.36195 -0.26689 -0.17563 -0.025486 0.50193 -0.21224 -0.25996 0.32669 -0.16498 -0.20043 -0.27149 0.14912 -0.027616 0.15968 -0.059226 0.3764 -0.0096436 0.39855 0.38602 0.0083099 -0.42678 -0.065709 0.20375 -0.05148 -0.092256 0.34643 -0.11828 0.12463 -0.40206 0.0044383 0.21406 -0.52593 -0.047954 0.075537 0.031575 -0.12066 -0.066138 -0.24113 -0.21577 0.2948 0.029058 -0.064379 0.53698 -0.21602 0.17282 0.2228 -0.38541 -0.10053 -0.020525 -0.23163 0.068179 -0.29839 0.056801 0.31537 0.091165 0.39735 -0.46932 0.06053 -0.038362 0.26725 -0.28323 -0.17341 -0.2869 -0.063336 0.24444 0.53291 0.055607 0.24955 -0.4021 0.090718 0.51545 -0.035721 -0.55648 -0.30422 0.086268 -0.10027 -0.25465 0.34587 -0.49416 0.11838 0.031137 -0.45905 -0.41606 0.13894 -0.0022112 0.16706 -0.11999 0.21501 -0.032945 -0.23848 0.26435 0.16396 0.0016413 -0.62407 0.040566 -0.11482 -0.36049 0.42378 -0.018978 0.27261 -0.28418 -0.21516 -0.025631 -0.24784 0.049641 -0.38896 0.35359 -0.21226 -0.36576 0.045336 0.30238 0.07442 -0.10331 -0.077857 -0.16654 -0.25662 -0.13887 0.17299 0.0007074 -0.24998 -0.49776 -0.08639 0.13833 0.056152 -0.20881 0.12961 -0.14369 -0.0742 -0.58304 -0.19181 -0.15754 0.0561 -0.10688 0.29909 0.096488 0.16299 -0.21321 0.11567 -0.18279 0.47622 -0.39094 0.048451 0.27491 -0.31086 -0.025374 0.044294 -0.41504 0.47067 -0.15498 -0.32051 0.20711 0.39085 -0.25779 0.0072609 -0.081629 0.41255 -0.32761 0.19485 0.45625 0.33666 -0.13906 -0.25951 -0.086419 0.96566 -0.29945 -0.24722 -0.24906 0.35368 -0.21901 -0.10443 0.27887 0.55168 0.18091 -0.12269 -0.05347 0.71328 0.085988 -0.010467 0.12636 0.37776 0.53412 0.11891 0.30864 -0.5103 -0.49436 -0.31057 -0.48785 -0.59988 0.077276 0.08882 0.4838 0.11159 -0.39351 0.25992 -0.21302 0.048121 -0.13475 -0.23118 0.11661 -0.27763 0.19782 -0.37517 -0.057078 0.34755 -0.22338 -0.48292 0.52573 -0.056932 -0.79642 0.19929 -0.37868 0.19315 -0.18107 0.028345 0.23 0.18972 0.090625 0.00028173 0.21412 0.23812 0.36295 0.15514 0.023545 -0.36644 -0.32727 -0.0052781 -0.051483 0.35109 -0.55679 0.24986 -0.19988 0.051734 0.08498 0.011398 -0.28066 -0.16217 0.067374 0.25784 -0.014462 0.55399 -0.16366 -0.37743 0.068564 -0.037895 -0.24545 -0.23069 -0.14812 0.3382 -0.31173 0.5503 
lincoln 0.2715 -0.25886 0.010227 -0.22122 0.38244 -0.07322 0.075033 -0.11952 0.24956 0.10428 -0.058969 0.21295 0.25959 0.22496 0.037128 0.16467 -0.055117 0.25815 0.031676 -0.3239 0.040365 -0.085906 -0.25965 0.19185 -0.21403 0.17897 -0.17599 0.18154 0.15914 0.42653 -0.33435 0.40393 0.21626 0.24423 0.49987 -0.087681 -0.10467 0.13455 -0.12779 0.070433 -0.36764 0.040257 -0.40157 -0.049729 -0.14566 -0.26647 -0.25779 -0.48882 -0.07535 -0.016537 0.34218 -0.094494 -0.16975 -0.20714 -0.044867 -0.097764 0.25886 0.17403 -0.3945 -0.1012 0.26024 0.16011 0.19478 -0.018772 -0.19022 0.18573 0.3514 0.17396 0.06764 0.36009 -0.071908 -0.25738 -0.12978 -0.075913 0.0084557 0.020205 0.16852 -0.0034967 -0.19757 0.10129 0.39127 -0.19923 -0.1595 -0.18873 0.38593 0.034442 0.067181 -0.17305 0.22452 0.26644 -0.028004 -0.13186 -0.10301 -0.25771 0.036465 -0.073922 -0.086801 -0.023608 -0.16174 0.24717 0.039409 -0.43325 -0.43667 -0.35397 -0.25846 -0.032298 -0.10765 -0.25745 -0.15997 0.32801 0.16016 0.52972 -0.0942 -0.14956 0.10756 0.14622 -0.26863 -0.15138 -0.076092 0.12879 0.38481 0.025955 -0.16859 0.17729 0.057015 -0.24792 -0.085375 0.10205 0.28384 -0.05069 0.2948 0.05714 0.1031 0.070781 -0.11317 -0.31284 -0.22615 -0.082078 -0.28946 -0.038666 -0.39664 0.0010848 -0.067567 0.14162 0.2127 -0.2344 -0.44495 0.11482 -0.017528 -0.09029 0.41422 0.062053 -0.03219 0.10158 0.00034303 -0.37629 0.21139 0.027645 0.10625 0.094309 -0.20012 0.070051 0.21362 0.20778 0.11448 0.049172 -0.03258 -0.071501 0.059416 0.034618 -0.47873 0.36424 0.45309 -0.07164 -0.057744 -0.3912 -0.20569 0.012433 -0.072504 -0.060946 0.096652 -0.1311 -0.25377 0.18735 0.31458 -0.12174 -0.026928 -0.13586 0.0022286 0.27611 0.053145 0.013062 0.12584 -0.3773 0.35946 -0.57868 -0.13344 -0.099371 -0.27242 -0.11245 0.15235 0.044511 0.26315 0.14224 0.24167 -0.059113 0.10351 -0.070431 0.3966 0.074391 -0.004097 -0.24488 0.11746 0.39317 -0.11098 -0.23221 -0.30694 0.09955 -0.23693 0.45725 0.046963 -0.15294 0.30953 -0.083577 0.033665 0.057989 -0.052333 0.00042674 0.40376 0.10577 0.49817 -0.37703 0.29223 0.032167 0.036619 0.13447 -0.16846 -0.44337 -0.098389 -0.079405 -0.088738 0.078615 -0.27435 0.39856 -0.18416 -0.16386 -0.03852 -0.058585 0.035197 -0.23146 0.10233 -0.45346 0.15941 -0.14696 -0.33734 -0.41335 0.24831 0.36414 0.18093 0.17895 0.60505 0.23215 -0.14175 0.044491 -0.061362 0.41689 0.45818 0.079754 -0.020141 -0.33416 -0.043419 0.031431 0.27353 -0.3826 0.23361 0.024315 -0.1378 0.29978 -0.24992 -0.33705 0.23738 0.13591 -0.011498 0.017209 -0.16372 0.21569 -0.092299 0.083655 -0.061894 0.35087 0.2677 -0.21721 0.037679 -0.081929 0.25981 -0.17576 0.22056 0.14527 -0.27838 0.19681 
pryor -0.013069 0.012746 -0.2731 -0.081373 0.13621 -0.11955 0.024728 0.31684 0.42196 0.30256 -0.065188 -0.33154 0.10443 -0.11269 0.17088 0.48978 -0.45889 -0.070017 0.39115 0.060929 -0.21051 0.11739 0.24185 -0.011984 -0.5846 -0.19718 0.28403 -0.080572 -0.20409 0.26545 -0.14313 0.53089 0.098887 -0.062946 -0.099302 0.095537 0.22431 0.21559 -0.46735 -0.22393 -0.19239 0.25971 -0.013722 -0.39294 -0.14616 0.066887 -0.30021 0.22698 -0.097585 -0.37748 0.26164 -0.017299 -0.25017 -0.23692 0.11491 -0.074717 0.13348 0.37776 -0.16769 -0.4343 0.10001 -0.0094533 0.39032 0.18128 -0.3024 0.40757 -0.24164 -0.20898 0.090633 0.039736 -0.35692 0.31089 0.01119 -0.16532 0.066085 0.052215 0.22032 0.036198 -0.041933 0.16225 0.095101 0.0027064 0.057466 -0.34867 0.069267 0.081926 -0.11373 -0.16913 -0.3998 -0.20438 0.027338 -0.22132 -0.019073 0.28747 -0.24009 0.40947 0.10902 -0.10739 0.13046 0.08982 0.26349 -0.33402 -0.15395 0.23253 0.31539 0.15603 -0.25995 -0.39004 -0.14211 0.22992 -0.12778 -0.58255 -0.45851 -0.096304 -0.19857 0.22098 -0.2326 0.33297 -0.030425 0.12014 0.23353 -0.021567 -0.15499 -0.1164 -0.00031473 -0.022783 0.11707 0.04066 0.0032301 -0.25225 0.44116 -0.15867 -0.10687 0.35008 -0.44982 -0.34395 -0.37836 0.015463 -0.21222 -0.27479 0.079445 0.2801 -0.38134 -0.092274 0.33796 -0.090425 -0.51452 0.26952 0.15016 0.10707 0.025654 -0.2705 -0.043009 -0.15573 0.26807 -0.42438 0.058458 -0.27297 0.147 0.086271 0.086945 0.083131 -0.13645 -0.1894 0.10373 -0.23562 0.33895 -0.15526 0.024442 0.16464 -0.044854 0.087101 0.39181 -0.049131 -0.041128 -0.36075 -0.11597 0.062816 -0.20074 0.29961 0.3095 -0.12154 -0.20862 0.73542 -0.081494 -0.34397 0.031811 0.1422 -0.0032872 0.048885 -0.43645 -0.23004 0.16934 -0.49315 -0.44562 -0.13447 -0.4302 0.38207 -0.16914 -0.1713 0.38648 0.44765 0.0026088 0.071962 -0.031366 -0.31236 -0.34308 0.45228 0.24596 0.32313 0.029648 -0.14134 0.051299 0.099945 -0.20697 -0.38967 -0.21849 0.52929 0.047288 0.38752 0.48087 0.23749 0.33733 0.43327 -0.26461 -0.02732 -0.11065 0.064815 0.34069 0.14096 0.66713 0.14879 0.20206 -0.54645 -0.20053 -0.19885 0.093434 -0.56665 0.19629 -0.23249 0.3837 0.1831 0.049495 0.35812 -0.10554 0.088994 -0.031229 0.0611 0.26212 -0.4214 0.13328 -0.46869 -0.039768 -0.20165 0.092005 -0.67695 0.43171 0.014991 -0.14515 0.24499 0.048848 -0.22017 -0.26038 -0.16323 -0.4925 0.55396 0.014267 0.31274 -0.26438 -0.21218 0.016434 -0.41381 0.50606 -0.28834 -0.062711 -0.02732 0.23154 0.32702 -0.19947 -0.2857 0.14409 0.078852 -0.35885 0.236 0.12274 -0.055513 -0.16211 0.037382 -0.001598 0.59788 0.013619 -0.22421 -0.14935 -0.53819 0.1711 -0.25304 0.030964 0.41421 -0.34584 0.19263 
boxer -0.46442 -0.1226 -0.57306 -0.16065 -0.38458 -0.085141 -0.19134 0.098949 -0.1141 0.035357 0.39564 -0.06603 0.35936 0.18682 -0.32205 0.020894 -0.26583 -0.32884 -0.20226 0.090272 0.31979 0.28627 -0.13369 -0.19081 -0.62132 0.1057 -0.1902 -0.16059 -0.20179 -0.26302 -0.050849 0.18584 0.13725 -0.018155 -0.2349 0.083095 0.13182 -0.023411 0.023263 -0.12504 -0.077294 -0.35764 -0.077513 -0.1836 -0.0022395 0.020216 0.088086 0.018089 -0.12051 -0.33473 0.0027563 -0.52534 -0.2433 -0.18867 0.018532 -0.15467 0.51407 0.16091 -0.074235 -0.22039 0.1168 -0.12269 0.33367 0.3179 0.040615 0.087378 -0.31274 -0.13105 0.23442 -0.065444 -0.17135 -0.11718 0.36876 -0.14575 0.25784 -0.28746 0.41573 0.11491 0.12491 -0.30187 -0.0082834 -0.051385 0.11415 -0.17069 0.086939 0.081721 -0.20452 -0.16762 -0.19299 -0.08795 -0.074184 0.12883 0.11698 -0.059428 0.24181 -0.27368 0.2208 -0.13385 0.24342 -0.38672 0.28795 -0.28944 -0.014291 0.47081 -0.0056458 0.061106 0.35575 0.087549 0.21506 0.019871 0.085003 0.055469 -0.10053 -0.36584 0.075748 0.15821 -0.16031 0.13739 -0.41011 -0.052367 0.25192 0.28403 -0.22106 -0.14195 0.1429 0.21512 -0.04768 0.24524 0.10211 0.1218 -0.19167 -0.18108 -0.29474 0.32366 -0.65951 -0.29363 -0.08364 0.41653 -0.53007 -0.49237 -0.034167 0.08144 0.069184 -0.25182 0.12766 -0.12158 -0.34506 -0.21833 -0.080262 0.21055 0.11811 -0.3942 -0.26361 -0.079293 0.1299 -0.31129 -0.25735 0.15391 0.22472 0.13123 0.25878 -0.23781 0.14968 -0.18317 0.1879 0.29271 -0.14972 0.078825 -0.32896 0.10529 -0.18617 -0.069394 0.22319 -0.10913 -0.057502 -0.072707 -0.023716 -0.31313 0.22059 0.14846 -0.26481 -0.19321 0.023616 0.34153 0.23704 0.11467 0.04875 0.010553 -0.057455 0.21741 0.10646 -0.0084715 0.10204 -0.011271 -0.004594 -0.43038 -0.10627 0.21997 0.00949 -0.28667 0.14459 0.20429 0.18533 0.12678 0.21667 0.37658 0.27382 0.39076 0.2672 0.39343 -0.24003 -0.12298 0.28963 0.18997 -0.073479 -0.27411 -0.084532 0.050282 0.25792 0.036037 0.56491 -0.029102 0.042872 0.075855 0.032978 0.029507 -0.16681 0.064038 0.2688 -0.1077 0.45157 0.30565 0.01724 -0.28185 -0.36701 -0.47334 -0.30748 -0.36512 -0.12415 0.3363 -0.021581 0.027807 -0.23047 0.19645 -0.26833 0.42809 -0.13764 0.64933 0.13734 -0.33518 0.20254 -0.18997 0.25596 0.16067 0.073929 -0.36529 -0.061378 0.17157 -0.55952 -0.18919 0.033044 -0.032472 -0.18147 0.31934 -0.077685 -0.045183 0.047925 0.1617 0.32189 -0.026357 0.44198 -0.047308 0.51831 -0.055499 0.21048 0.14772 0.11745 0.39857 -0.1377 0.29367 0.17463 0.2087 -0.23378 -0.10675 -0.36182 0.017055 0.24195 0.02141 -0.018374 0.14353 -0.31102 -0.077625 0.14 -0.139 0.19338 0.10035 0.18217 0.38007 0.18417 0.38442 
feinstein -0.26308 -0.12508 -0.48842 -0.20171 0.083195 0.043459 -0.10929 0.15122 0.030255 0.14496 0.31096 -0.17719 0.3122 -0.08172 0.13921 0.18537 -0.5408 -0.15409 0.13259 0.066565 0.3984 0.36326 0.066658 -0.05691 -0.59738 -0.018337 0.0022859 -0.13493 -0.22857 0.0047272 0.10438 0.10612 -0.077277 0.16351 -0.3957 0.30455 0.23387 -0.22752 0.24184 -0.0087963 0.0030954 -0.25121 0.10351 -0.16247 -0.088631 -0.10557 0.042048 -0.2192 -0.00023617 -0.43305 -0.054443 -0.52101 -0.246 -0.30198 0.32194 -0.12189 0.43823 0.14948 -0.069802 -0.15686 0.17614 -0.059782 0.26072 0.54902 -0.3832 0.22807 -0.2129 -0.28227 0.46506 -0.031484 -0.2263 -0.16944 0.40235 -0.23732 0.68659 -0.3343 0.26044 0.1301 0.21312 0.17048 -0.0010035 -0.3038 -0.10158 -0.15953 0.15316 0.11372 -0.2649 -0.23685 -0.21349 0.10993 0.011402 0.053183 0.54752 0.1154 0.061632 0.035829 -0.057382 -0.39398 0.33009 -0.39681 0.23072 0.0040732 -0.22188 0.11643 -0.26572 0.21884 -0.039953 0.136 0.21831 0.36462 0.13771 -0.16267 -0.10401 -0.62072 0.18827 0.16648 -0.22712 0.1464 -0.12686 -0.22584 0.42316 0.077262 -0.51427 -0.24155 0.029535 0.057987 -0.16847 0.12267 0.091323 0.39379 0.084787 -0.16959 -0.24617 0.24604 -0.28445 -0.52249 0.2254 -0.062721 -0.53202 -0.039304 -0.13127 0.012416 -0.22498 -0.27292 0.30846 0.018194 -0.081831 0.17397 -0.21022 0.072317 0.076464 -0.25809 -0.14545 -0.037114 0.050788 -0.15283 -0.19227 0.069849 -0.036447 0.067234 0.095518 -0.051023 0.028138 0.32246 0.31329 -0.013048 -0.24878 0.13831 0.011685 -0.17507 -0.44767 -0.13728 0.13568 -0.090659 -0.24485 -0.25921 -0.094188 0.10022 -0.060496 0.18561 0.011175 -0.016243 -0.24915 0.42269 0.31435 0.02779 -0.16511 0.34177 0.14347 -0.042664 -0.014729 -0.47836 0.20523 -0.26825 -0.20129 -0.059091 -0.16193 0.34625 0.069559 -0.12523 0.14053 0.31681 -0.092093 0.20809 0.011519 0.28591 -0.021789 0.35572 0.34846 0.22055 -0.16286 -0.008078 0.043819 0.44146 0.099365 -0.14459 0.094421 -0.18013 0.1864 0.10184 -0.053424 0.17295 0.18184 -0.42274 -0.37461 0.16539 -0.061558 -0.036069 0.53628 0.018718 0.22777 0.13657 0.3242 -0.32097 -0.40513 -0.37716 -0.39186 -0.68659 0.039016 0.31369 0.28881 -0.00042881 -0.077401 0.061582 -0.10503 0.144 0.10715 0.21658 0.12624 -0.30225 0.19795 -0.38552 0.27478 0.015396 0.1934 -0.28723 0.10939 -0.0242 -0.35407 0.074719 0.14611 -0.085634 0.16117 -0.097203 -0.092646 0.069234 0.037339 -0.098431 -0.037974 -0.34364 0.19791 -0.19341 0.2244 -0.30631 -0.019248 -0.074475 -0.16437 0.5163 0.095099 0.059151 0.062529 0.38008 -0.019198 0.082921 -0.4416 0.26546 -0.00024525 -0.23439 -0.01291 0.15292 -0.23045 -0.40547 0.0013046 -0.19018 0.19762 0.21726 0.085338 0.20957 -0.17581 0.29207 
allard -0.40138 -0.074098 -0.50615 -0.090677 0.20915 0.32338 -0.11463 0.065479 0.080437 0.18113 0.31138 -0.090407 0.23806 0.038846 0.15825 0.024693 -0.20047 -0.1417 -0.080172 0.2914 0.11666 0.083616 -0.10456 -0.033845 -0.028729 -0.022961 -0.10674 0.13636 -0.043723 0.30082 -0.065965 -0.051795 0.28251 0.010587 -0.0058069 0.14276 0.19326 -0.066739 -0.33989 -0.15695 0.22671 0.11397 -0.0029753 -0.12612 -0.11286 0.11943 0.031699 0.048305 -0.025629 -0.26506 0.32232 -0.34102 -0.22672 -0.40105 0.67724 -0.39928 0.29717 0.19019 -0.29607 -0.30223 0.063629 -0.17325 -0.030433 0.00021462 -0.22712 0.30912 -0.088888 -0.25371 -0.019539 -0.083846 -0.097352 -0.060036 0.27551 -0.20708 -0.050053 -0.16128 0.4055 0.10565 -0.49592 0.024739 -0.094834 0.017123 0.2297 -0.18372 0.187 0.29053 -0.008248 -0.2847 0.18309 0.069875 -0.17699 0.037854 0.14267 0.078162 0.31419 0.1971 0.17138 -0.10576 -0.20392 -0.13141 0.231 -0.38494 0.3521 0.38193 -0.14893 0.09834 0.06788 -0.23849 0.28389 0.16302 -0.1312 -0.12396 -0.16194 -0.45349 0.14308 0.079321 -0.16888 -0.0030586 -0.27647 -0.047171 0.32823 -0.092666 -0.42083 0.11892 0.020865 0.1597 -0.061587 0.086067 -0.015304 0.22875 -0.11563 -0.21915 -0.15196 0.15339 -0.60634 0.10816 0.044353 0.10172 -0.501 -0.16287 -0.63122 0.047403 0.18819 0.3857 0.054516 0.10588 0.014633 0.047858 0.14539 -0.033258 -0.32113 -0.60878 0.025936 -0.074206 0.5022 -0.22675 0.0095744 -0.26352 0.056987 -0.29046 0.35056 0.13756 0.08561 -0.40076 0.30102 0.03307 0.18725 0.038149 0.28056 -0.078282 -0.03372 -0.36778 0.28035 0.43975 0.092064 -0.4563 0.0018629 -0.031418 -0.42749 -0.095211 0.154 -0.36966 -0.3273 0.01941 -0.014392 -0.14849 0.0028564 0.36147 0.00094537 -0.13432 0.11602 -0.49925 0.27864 -0.40531 -0.012573 -0.18365 -0.058122 -0.081303 -0.32531 -0.071619 0.086976 0.018007 -0.26483 0.030236 0.036584 -0.06709 -0.12854 0.096553 0.081639 -0.031152 0.011902 -0.087981 -0.088564 0.16198 -0.23554 -0.38678 -0.25198 -0.024272 0.40489 0.17269 0.22971 0.35161 0.45645 -0.010154 -0.030084 0.069943 0.046919 0.19251 0.017195 0.43526 0.36525 0.047798 0.15005 -0.3861 0.063536 -0.069398 0.073449 -0.28078 0.038274 0.36219 0.2972 0.19146 -0.36445 0.5414 -0.070792 0.16193 -0.19677 0.22065 -0.066617 -0.55163 -0.12938 -0.72954 0.21879 0.17409 0.19395 -0.53098 0.14387 0.014072 -0.20707 0.032162 0.11863 -0.13774 -0.12677 -0.28999 -0.055698 -0.00083151 0.17306 0.036342 0.10481 0.37155 -0.13349 -0.0091771 0.17716 -0.21437 0.20647 -0.36002 0.028588 0.67933 -0.48431 -0.083919 0.21686 0.066869 -0.016246 0.80558 -0.23209 -0.30748 0.21108 0.1855 -0.096945 0.58327 0.021117 -0.0044763 0.1374 0.28293 0.092141 -0.10016 0.093413 -0.0028521 0.12841 0.23241 
salazar -0.12704 -0.13938 -0.010076 -0.19033 0.50913 0.029716 0.19359 -0.13152 0.2652 -0.11198 -0.013793 0.39465 0.16274 0.18469 0.067665 0.22337 -0.42767 0.048721 0.15871 -0.089651 0.26042 0.10116 0.36545 -0.037414 -0.27681 0.24464 0.37879 -0.16933 -0.21173 -0.10983 0.24148 0.5761 -0.024575 -0.094906 -0.5388 -0.13523 0.019339 0.12237 -0.26467 -0.19043 -0.11212 0.4932 0.17737 -0.5518 -0.52615 0.38067 0.015086 0.23139 -0.0052065 0.017767 0.057046 0.16523 -0.32327 0.17128 -0.26173 0.5107 0.18244 0.32681 -0.048258 -0.30368 -0.019091 -0.43296 0.28344 0.3579 -0.011026 0.13313 -0.35459 -0.28205 0.11681 0.067681 -0.12044 0.058514 0.23667 -0.0055833 0.1897 -0.29695 0.19293 0.15563 0.053823 0.10501 -0.35176 0.20018 0.28654 0.43734 0.092529 0.01126 -0.34067 0.07693 -0.074627 0.0893 -0.10982 -0.33134 0.47488 -0.085229 -0.080946 0.31669 0.067327 -0.33152 -0.13517 -0.032783 -0.11594 -0.24905 0.14834 0.050417 -0.014548 0.29626 -0.10464 -0.10351 0.19122 -0.10313 -0.49996 0.17577 -0.025249 -0.18977 0.13927 0.15022 -0.10779 -0.019155 -0.10921 0.062891 0.41022 0.30623 -0.020351 0.10439 0.010371 0.13002 -0.081448 0.16918 -0.1353 0.22459 -0.061469 0.2386 -0.010218 -0.046298 -0.059832 0.081372 0.21501 0.25706 -0.56471 -0.017315 0.086452 0.32263 -0.37821 -0.019477 -0.020185 -0.21268 -0.098286 -0.11133 -0.21164 0.062767 0.091886 -0.44505 0.0087548 -0.14747 0.40901 -0.13351 -0.042938 -0.18816 0.12314 0.0064022 0.19814 0.099048 0.040407 0.025507 0.22437 0.29793 0.14186 0.22561 -0.31731 0.053308 0.16878 0.22315 0.050595 0.28089 0.54559 -0.28991 -0.058774 -0.14088 -0.10298 0.24592 0.22737 -0.02316 -0.48422 0.29137 0.35036 -0.2404 0.17766 0.49414 0.068722 -0.012363 -0.1138 -0.2449 0.096122 -0.07932 -0.28372 0.04975 -0.4136 -0.035304 -0.05618 0.00099577 0.27333 -0.27672 -0.31631 0.15675 0.3057 0.036843 0.24399 -0.17359 0.0063852 0.094614 -0.038371 0.33951 -0.13854 0.45095 -0.38975 -0.43199 -0.21677 -0.15869 -0.24402 0.25874 0.11968 0.47631 0.32628 0.31514 -0.35955 0.74877 -0.081009 0.066252 0.10652 0.20768 0.21105 0.16788 -0.28277 -0.047222 -0.011202 -0.16941 0.43554 -0.59205 0.04942 0.43882 0.39002 0.17131 -0.18666 0.37186 -0.12407 0.2175 -0.034835 -0.082343 0.21205 -0.32589 -0.052507 -0.41029 0.032278 -0.20599 -0.10227 -0.51699 0.19528 -0.21509 -0.74158 -0.21493 0.05616 0.18624 0.031403 0.16475 -0.14905 -0.0089781 0.2329 -0.14719 -0.19065 0.09119 0.056218 0.22798 -0.037886 -0.17009 0.39911 0.27498 -0.17431 0.29542 -0.26675 -0.074141 0.27618 -0.035642 -0.023566 0.22515 -0.20414 0.23868 0.21551 -0.16716 0.19288 0.53417 -0.094857 -0.27112 0.19828 0.06283 0.21229 -0.31129 0.099324 0.20229 0.0045802 0.016213 
dodd -0.16163 -0.17751 -0.07133 -0.45995 -0.11421 -0.082096 -0.072727 0.22931 0.081861 0.42599 0.00014495 -0.60486 0.29425 -0.13325 0.037781 0.16977 -0.4137 -0.1282 -0.00056701 -0.030156 0.097958 0.028139 -0.10453 0.14894 -0.35395 -0.064874 -0.074634 -0.075664 -0.31252 0.15777 -0.016454 -0.03454 0.13006 0.11221 -0.1748 0.16008 -0.035494 -0.051157 -0.16165 -0.14928 -0.29232 0.13257 -0.19771 -0.27802 -0.30701 -0.009669 -0.047914 -0.3178 -0.10215 -0.27939 0.17369 -0.11115 -0.080301 -0.35891 0.16074 0.020352 0.032734 0.18056 -0.15561 -0.063374 -0.44272 -0.2094 0.28814 0.22352 -0.12814 0.16919 -0.10823 -0.050603 0.30232 -0.31322 -0.057481 0.16282 0.14937 0.097021 0.37423 0.19924 0.094095 0.11322 -0.010256 -0.23046 0.020423 -0.77475 -0.09259 0.27815 0.40643 0.14101 -0.11128 -0.028635 -0.20215 0.19015 -0.01443 0.073332 0.29646 -0.35804 0.32799 -0.30659 0.34558 -0.41926 -0.016515 -0.99799 0.33617 -0.40823 -0.018551 0.16628 -0.074665 0.0016171 -0.32226 -0.11016 -0.45197 0.18538 -0.65998 0.02381 -0.125 -0.56029 0.30498 -0.027649 -0.33739 0.11171 -0.11859 -0.15814 -0.088763 -0.552 -0.37988 0.26159 0.010787 -0.26971 0.14851 -0.20924 -0.15602 0.13697 0.22504 -0.0055206 -0.08913 0.47687 -0.39833 -0.31523 -0.14184 0.033595 -0.22156 -0.11749 0.17671 0.063975 -0.0099622 -0.25168 0.24553 -0.16073 0.097165 0.31273 -0.013901 -0.11382 0.045353 -0.2795 0.13435 -0.010883 0.39854 -0.20896 0.054738 -0.16931 -0.052434 0.10104 0.23967 0.20488 -0.020792 -0.10318 -0.082531 0.15669 -0.056416 -0.031727 -0.31387 0.25988 -0.11653 -0.030317 0.038196 -0.024052 0.089553 -0.32801 0.2219 0.063693 -0.27364 -0.1286 -0.044601 -0.31523 -0.16054 0.70211 0.2193 -0.10697 0.14953 0.02575 0.059785 0.21041 -0.17477 0.078106 0.38417 -0.13523 0.02379 -0.11911 -0.10064 0.31535 -0.30394 -0.32986 0.2841 -0.020246 -0.28974 0.10807 0.095688 0.14806 0.06947 0.026418 0.079021 0.14271 -0.02227 -0.030168 -0.14688 0.38632 -0.48521 -0.070702 -0.02843 0.21561 0.22259 0.48982 -0.056968 0.048866 0.23381 0.14401 -0.11056 0.029444 0.017304 0.37972 -0.086626 0.34033 0.48255 -0.11533 0.41238 -0.060718 -0.40327 -0.056514 -0.15321 -0.26004 -0.31639 -0.016637 0.32938 -0.18601 0.11137 -0.2427 -0.15003 0.32651 0.29697 0.025021 0.57946 -0.042035 0.068397 -0.34303 -0.14428 0.0090498 0.23149 -0.25136 0.13412 -0.069375 -0.29778 0.004294 -0.33796 -0.077631 -0.2246 -0.11587 0.18803 -0.19667 0.22357 -0.22815 0.073007 -0.025448 0.15369 0.099412 0.3138 -0.46227 -0.059452 -0.026779 0.021999 0.56607 -0.72515 0.14331 0.17951 0.0776 -0.1423 -0.33729 -0.21106 0.096707 -0.14 0.27624 -0.022266 0.27827 -0.096864 -0.18013 0.086607 0.12425 -0.14796 -0.2738 -0.26956 0.1302 -0.15493 0.6374 
lieberman -0.22527 -0.15251 -0.14728 0.15194 0.0076319 0.13429 -0.26865 -0.0069581 -0.049806 0.30944 -0.15292 -0.23662 0.50856 0.37793 -0.13446 0.12864 -0.28425 -0.11795 -0.11647 0.051818 0.13932 0.11931 -0.10136 -0.17638 -0.27014 -0.053541 -0.063432 -0.029807 -0.14946 -0.0096632 0.11761 0.09053 -0.039356 -0.30113 -0.27156 -0.099437 -0.23684 0.092133 -0.05806 -0.075853 -0.37362 0.061651 -0.051661 -0.25873 -0.52294 0.18902 -0.06353 -0.17037 0.096602 -0.29592 0.24047 -0.01982 -0.078275 0.032107 0.027653 0.17664 0.15846 0.34764 -0.20367 -0.034238 -0.19419 -0.36076 0.23157 0.356 -0.18126 0.63492 -0.19705 0.24857 0.32629 -0.32811 -0.27118 0.05333 -0.023422 0.076971 0.15906 0.32768 -0.18171 -0.15044 -0.072416 -0.017758 0.046908 -0.22745 -0.15977 0.01166 0.061383 0.14116 -0.06539 -0.075995 -0.099108 0.024568 0.11121 -0.084848 -0.045966 -0.29478 0.020435 -0.11064 0.12032 -0.34022 -0.031383 -0.32224 0.27073 -0.32764 -0.11007 0.0031177 -0.22411 0.095085 -0.35009 -0.31585 0.012515 0.34176 -0.25708 -0.025613 -0.22586 -0.18211 0.12075 -0.1295 -0.14752 0.19856 -0.46428 0.20807 0.19078 -0.15835 -0.45007 -0.10708 -0.31496 -0.020682 -0.2275 -0.18661 -0.12936 0.04344 0.046783 -0.14534 -0.18479 0.29786 -0.15235 0.094795 -0.3276 0.035741 -0.33773 0.04567 0.23617 -0.19909 -0.22704 -0.1752 -0.13714 -0.13935 -0.26529 0.31396 0.057761 0.2936 -0.1248 -0.011816 0.3111 -0.19916 0.57483 -0.007369 -0.12547 -0.36885 0.11517 -0.070225 0.42979 -0.25729 -0.030096 -0.36314 -0.039161 0.069938 -0.28438 0.19617 -0.045465 0.13162 0.016848 -0.14872 0.33863 -0.12755 -0.032122 -0.5894 0.13737 0.18352 -0.38824 -0.25756 0.068416 -0.27879 -0.19132 0.26379 0.035899 0.31491 -0.28639 -0.057542 0.17682 0.051323 -0.1097 -0.038826 0.40395 -0.29611 -0.1332 -0.084476 -0.19838 0.11903 -0.27837 -0.045626 -0.20719 0.15789 -0.22052 -0.26282 0.23333 0.12485 -0.097119 0.028429 0.22933 0.3437 0.038134 0.033737 0.086047 0.16281 -0.60481 -0.42654 0.075036 0.1491 -0.27916 -0.15126 0.2245 0.039701 0.051869 -0.090952 -0.083695 0.0060409 -0.39024 -0.10177 0.13425 0.29692 0.17778 -0.24869 0.37629 -0.14959 -0.2971 -0.39576 -0.15889 -0.25159 0.15217 0.4116 0.031078 0.098797 -0.12229 -0.18364 0.07563 0.2565 0.076644 0.11092 0.29975 -0.24486 0.25264 -0.50345 0.081584 0.19661 0.075144 -0.46526 -0.028122 0.42692 0.06436 0.067685 -0.402 0.10729 -0.19818 -0.021473 -0.09241 -0.084133 0.2122 -0.029617 -0.050915 0.061063 0.54357 -0.025159 0.43066 -0.29606 0.19929 0.010342 0.01389 0.45209 -0.46654 0.39278 -0.0099826 0.10648 0.21709 -0.36411 -0.64476 -0.10443 -0.3373 -0.19256 -0.22868 0.07358 -0.076145 -0.1964 -0.20614 -0.28347 0.13862 0.0067693 -0.11527 0.47427 -0.0078817 0.15308 
biden -0.057116 -0.026423 0.017886 -0.23186 0.18202 -0.2811 -0.11047 0.16499 -0.33028 0.29592 0.039922 -0.1309 0.067406 0.29866 -0.28541 0.069695 -0.059826 -0.1266 0.22897 0.19399 -0.067786 -0.268 -0.10737 0.19054 -0.54862 0.11648 -0.099767 -0.27153 -0.36039 0.050981 0.092161 0.039763 -0.049564 0.063596 -0.43828 0.024068 0.11602 -0.23075 0.063669 -0.47637 -0.33028 -0.13658 0.36919 -0.26943 -0.53512 0.17512 0.080145 -0.72217 0.063685 -0.42508 0.33298 -0.36471 -0.36919 -0.3487 0.087888 0.095688 0.17105 0.37135 -0.25262 -0.48776 0.10648 -0.28325 0.25049 0.15964 -0.28556 0.30204 -0.23822 0.30646 0.32133 -0.14048 -0.0081573 0.076529 0.0020641 0.021582 0.12551 0.22424 0.033822 0.079499 0.12737 0.013877 -0.0074261 0.07753 -0.15829 -0.14941 0.21111 -0.038495 -0.056933 0.0091007 0.049428 0.12544 0.2217 0.19617 0.40703 -0.10686 0.1886 -0.18315 -0.1627 -0.28041 0.17222 -0.42932 0.28741 -0.39402 -0.0032141 -0.13525 -0.19793 -0.070729 -0.22612 0.1126 0.042752 0.23058 -0.58229 0.11387 -0.29571 -0.29889 0.27837 0.013554 0.074283 0.35248 -0.25161 0.16263 0.37484 -0.25216 -0.26409 -0.070959 0.026418 -0.13847 -0.038666 0.17307 -0.29061 0.282 0.039665 -0.40338 -0.11092 0.31746 -0.31243 0.16943 -0.41015 0.16041 -0.45403 -0.33713 0.12588 -0.014555 -0.019617 -0.15597 0.07188 -0.1976 0.098143 0.63019 -0.10444 -0.10161 -0.27182 0.097785 0.50815 -0.056419 0.35263 0.11635 -0.073253 -0.11737 0.24069 0.063607 0.11653 -0.02217 0.12379 -0.022129 0.011601 -0.023687 -0.20474 0.014228 -0.18573 0.079234 -0.10527 -0.19231 0.24353 -0.089681 -0.25096 -0.22299 0.16434 0.24103 -0.12845 -0.04113 -0.025826 -0.14308 -0.16799 0.19978 0.13336 0.030101 -0.034453 -0.069533 0.022882 -0.0028774 -0.057023 -0.12801 0.55017 -0.046124 -0.14408 -0.046693 -0.36219 0.30487 -0.059537 0.11463 0.28141 0.10293 -0.073736 0.021627 0.20743 -0.10475 -0.03537 -0.11689 0.045242 0.21928 -0.034196 0.23762 0.29549 0.050226 -0.38516 -0.65205 -0.29489 0.66179 -0.15144 -0.04316 0.11073 -0.010202 0.21987 -0.053534 -0.10177 0.22084 -0.0014924 0.32961 0.037572 0.5147 0.25406 0.015372 0.41019 -0.2985 -0.33444 -0.068395 0.024084 -0.19077 0.23373 0.013536 -0.038947 0.00041072 0.17236 -0.066395 -0.1906 0.29225 0.25823 -0.33276 0.40693 -0.33803 0.16859 -0.28948 -0.26072 0.071051 0.17522 -0.35711 0.20047 0.34949 -0.075738 -0.18456 -0.18033 0.037634 -0.073013 -0.067433 0.075644 0.12314 0.11343 0.014749 0.049839 -0.050363 0.44506 0.037864 0.24422 -0.22165 0.07532 0.1545 0.12261 0.23896 -0.59548 0.18178 -0.059383 0.17174 -0.098498 -0.37733 -0.056014 0.064459 -0.292 0.034242 0.034872 -0.098684 -0.076135 -0.30696 -0.33099 -0.075346 -0.14295 -0.17661 -0.22993 0.31959 -0.012081 0.1736 
carper -0.12936 -0.36828 -0.10088 -0.27657 0.54244 0.039188 -0.058926 0.26151 0.15113 0.36952 0.044027 -0.13132 0.26527 0.091998 0.32791 0.52374 -0.33351 -0.1601 -0.0019289 -0.0958 0.039383 -0.2242 -0.054367 -0.1007 -0.51978 0.09076 -0.47071 -0.18808 -0.32303 0.28423 0.0086534 0.17926 -0.14171 0.22879 -0.48176 0.069627 0.036709 -0.11781 -0.018378 -0.40637 -0.53831 0.15855 0.16639 -0.40386 -0.38338 -0.069405 -0.051957 -0.19512 -0.21065 -0.020097 0.25438 -0.45068 -0.76934 0.076415 0.46022 -0.083022 0.86328 0.19221 -0.20771 -0.28575 -0.16505 0.088319 -0.00044279 0.24792 -0.20535 0.2314 0.16176 0.11699 0.33114 -0.27693 -0.41851 -0.085879 0.023121 0.20347 0.32834 -0.17433 0.49367 -0.10758 0.038709 -0.23555 0.062937 -0.28994 0.16151 0.025417 0.41781 -0.17025 0.25942 0.081982 -0.37094 0.19789 0.050878 0.02626 0.11647 -0.060296 0.028885 -0.44235 0.11993 -0.65127 0.059645 -0.51665 0.40471 -0.51378 0.18424 0.10191 -0.35211 0.043251 -0.1119 -0.069614 0.047853 0.050985 -0.11289 -0.012536 -0.4444 -0.54617 0.075747 -0.051144 -0.20085 0.2645 -0.20525 -0.041615 -0.26329 -0.28135 -0.2502 0.20158 -0.096685 -0.19828 0.08934 -0.0034625 0.019583 0.39851 -0.16835 0.068313 -0.15553 -0.052932 -0.82671 0.12665 -0.073423 0.21353 -0.12958 -0.065509 -0.42055 -0.0034915 -0.20573 -0.23016 0.061342 -0.22828 -0.41202 0.45167 -0.20398 0.19375 -0.14194 -0.030541 0.099776 0.11331 0.27433 -0.18986 0.042427 -0.047651 0.082567 -0.16845 0.15919 0.38342 -0.051878 -0.21595 -0.080788 0.099432 0.33553 -0.20613 -0.1343 -0.1627 -0.4941 0.062141 0.12684 -0.038373 0.025611 -0.20393 0.40894 0.37014 -0.42449 -0.14104 0.015933 -0.49855 -0.24673 0.28814 -0.48491 -0.23791 -0.19366 0.057088 0.0052911 -0.13784 -0.090643 -0.045231 0.37922 -0.35629 0.029629 -0.23626 -0.15366 0.22678 -0.14136 -0.1929 0.028068 -0.043191 0.032818 0.24962 -0.10639 0.19615 -0.20294 -0.070042 -0.08103 -0.0097115 -0.1651 0.17086 0.11519 0.23624 -0.17845 -0.13976 -0.26795 0.43483 -0.12852 -0.090654 0.34555 0.18593 0.37381 0.29642 -0.23583 0.37813 -0.30104 0.34485 -0.074464 -0.10545 0.75558 0.03945 0.14742 -0.39568 -0.15294 -0.23966 -0.25042 -0.4857 0.019282 0.3427 0.28883 0.060507 -0.2635 0.26438 0.29635 0.26964 -0.1403 -0.061412 0.16875 -0.2392 0.15388 -0.61162 -0.13174 0.33235 0.13866 -0.25561 0.037459 -0.036748 -0.19518 0.39298 -0.15634 -0.031369 -0.13443 -0.037853 -0.28373 -0.040356 0.50911 -0.1376 0.082177 0.095745 0.22261 -0.35288 0.0050401 -0.17679 -0.017236 0.25432 0.064136 0.7963 -0.72393 0.12655 0.0027768 -0.011249 -0.19103 0.09449 0.18417 0.092235 0.034079 0.20565 0.1415 0.39979 -0.63042 -0.47546 0.084912 -0.14406 0.032534 -0.30029 0.25664 0.068188 -0.030845 0.45854 
nelson 0.10591 0.0076483 -0.029422 -0.083178 0.079147 -0.07504 0.24596 0.015123 -0.25054 0.063511 0.27539 0.055443 -0.067693 -0.00084474 0.06681 0.065645 -0.023399 -0.069197 0.13548 -0.0080315 -0.056772 0.17791 -0.20314 -0.19777 -0.25489 -0.20571 -0.20023 0.075867 -0.021087 0.03505 -0.18409 0.23712 0.20665 0.067136 -0.16956 -0.24256 0.011906 -0.0325 -0.12868 -0.20046 -0.41632 0.32569 0.10469 -0.49257 0.21896 -0.12515 -0.11817 0.10983 0.022276 -0.013146 -0.082233 -0.24884 -0.246 0.11606 0.14597 0.21369 0.24102 0.037046 -0.2196 -0.16789 0.049988 -0.10427 0.26934 0.30639 -0.25028 0.23404 -0.043959 -0.00097498 0.078478 0.35372 0.079231 -0.28849 -0.093641 -0.048902 0.019544 -0.30773 0.42882 0.23987 0.063593 0.015267 -0.063515 0.039885 -0.085131 0.12545 0.095548 -0.4119 -0.069801 0.043257 0.066101 0.35144 -0.14828 -0.45396 -0.14845 0.023111 -0.26363 -0.12199 0.010043 0.12274 0.04606 -0.25637 0.11149 -0.067192 0.21694 0.38581 -0.26261 0.098118 -0.01693 -0.24153 0.23747 -0.078218 -0.26888 0.34678 -0.094433 -0.37452 -0.062395 -0.087064 -0.11649 -0.14034 -0.026 0.096973 0.11927 -0.2146 -0.29026 0.14125 0.042489 -0.14124 0.0426 0.089258 -0.12194 0.12879 -0.0082475 0.31922 -0.42196 0.44234 -0.19399 -0.12464 -0.076461 -0.2011 -0.29079 0.13603 0.081423 -0.014365 0.2489 -0.20061 0.23375 0.031147 -0.25682 -0.045569 -0.20597 -0.23495 0.38384 -0.29926 0.0041179 -0.077237 0.48364 -0.25073 0.17883 -0.057501 -0.028082 -0.045389 0.051829 -0.10746 0.26694 -0.083546 0.23983 -0.15483 0.14871 0.18324 0.06795 0.0018331 -0.12496 0.17176 0.20697 0.11016 0.026156 -0.38319 0.11596 0.085909 -0.48511 0.11979 0.27573 -0.13115 -0.26796 0.018069 0.18866 -0.21229 0.034077 -0.0089179 0.10448 0.069449 -0.30395 0.031494 0.05634 -0.34404 0.02074 -0.23934 -0.082966 0.025203 -0.32425 -0.035179 -0.0018541 0.15089 0.048558 -0.26065 -0.092794 -0.2415 -0.13308 -0.085175 0.086463 0.24959 0.0057773 0.035582 0.13949 0.11165 -0.096082 -0.17508 -0.24708 -0.015248 -0.13151 0.35484 0.1699 0.27354 0.052323 -0.16874 0.11578 0.2137 -0.27355 -0.039603 0.29134 0.018817 0.58369 0.013273 0.061888 -0.18347 0.1792 -0.26626 -0.42005 -0.49169 0.19083 0.20586 0.086607 -0.051137 -0.39779 0.26096 0.19583 0.042875 -0.15518 0.12498 -0.0011426 -0.15445 0.1387 -0.29976 0.2489 -0.037124 -0.13068 -0.43791 -0.046715 -0.11418 -0.15987 0.098039 -0.30464 0.077208 -0.12556 -0.22522 -0.15334 0.21335 0.33737 -0.079544 -0.38568 -0.22596 0.32817 -0.33864 0.33252 -0.23863 -0.14844 0.29533 0.16704 0.483 -0.10416 -0.14252 -0.0014029 0.17479 -0.49182 -0.026142 0.066583 0.13118 0.079215 -0.10994 0.091301 0.16237 0.25215 -0.32544 -0.14205 0.0641 0.20666 -0.13671 0.064804 0.26999 -0.085134 -0.15951 
martinez -0.24435 -0.081301 -0.28058 0.11545 0.18466 0.086366 0.44163 -0.057524 0.25449 0.19537 0.18258 0.32738 0.034132 0.14496 0.29984 0.11074 -0.30906 0.066327 -0.012484 -0.12049 0.22512 -0.05803 -0.35106 0.24816 -0.18017 -0.041296 0.1668 -0.19297 -0.29922 -0.32847 0.19457 0.39413 0.014067 0.15784 -0.099351 0.20476 0.0096126 -0.077182 -0.37655 0.16418 -0.29461 0.16947 0.40349 -0.41634 -0.17858 0.047338 -0.034863 0.13967 0.30895 0.12131 0.090492 -0.23797 -0.38642 -0.15534 0.30558 0.19151 0.24911 0.18583 0.16095 -0.16861 -0.079631 -0.33526 0.227 0.38679 0.0078135 0.12271 -0.16644 -0.15215 -0.025722 -0.030812 -0.17596 -0.18202 0.20348 -0.29928 0.084731 -0.54384 0.22325 -0.093316 0.15357 -0.11794 0.01259 0.083653 0.12676 -0.16151 0.10039 0.25921 -0.1798 -0.0017972 0.086129 0.21762 -0.12757 -0.29165 0.053871 -0.3286 -0.065514 0.19603 0.053508 -0.14647 -0.043742 0.0030773 0.35313 -0.48592 0.018241 0.33157 0.12685 0.11897 -0.0010897 0.022817 0.44601 -0.03728 -0.18114 0.1192 -0.27038 -0.14771 0.18854 -0.15962 -0.076962 0.11219 -0.36339 0.14639 0.40751 -0.15831 -0.0738 0.070438 -0.10259 0.16043 -0.28851 0.43853 -0.097821 0.36188 -0.10866 0.35723 0.047447 0.34268 0.019106 -0.01048 0.10907 0.086228 -0.39159 -0.02659 0.21221 0.10735 0.14956 -0.25133 0.22747 -0.0079093 0.10327 -0.11069 -0.076397 -0.069993 0.17895 -0.35371 -0.21204 -0.010813 0.20902 -0.19125 0.31897 -0.6133 -0.064314 0.15699 0.34774 -0.16857 0.08568 -0.13156 0.14473 0.28775 0.025014 -0.029465 0.019417 0.19048 -0.026401 0.01639 0.16028 0.16446 0.27769 -0.059079 0.26648 -0.24723 -0.20761 0.093472 0.15738 0.074978 -0.34867 0.12269 0.21285 -0.24661 -0.095637 -0.02251 -0.27851 -0.075039 -0.0035713 -0.18724 0.056768 -0.1732 0.15919 -0.33094 -0.30315 -0.080721 -0.1094 -0.21399 -0.009717 -0.11305 -0.066294 0.069915 0.072808 -0.042197 0.085336 0.26573 0.018989 0.021582 0.22443 0.022602 -0.071959 0.11545 -0.096288 0.1134 0.014791 0.10055 -0.0035112 0.046623 -0.020298 0.16939 0.37143 0.16488 -0.042796 0.083039 -0.12573 -0.10012 -0.12569 0.098296 0.19812 0.050611 -0.12608 -0.065393 0.14931 -0.23923 -0.10722 -0.52396 0.12766 0.31182 0.47097 0.024515 -0.2762 0.22656 -0.25844 0.13788 -0.011562 0.041303 0.057414 -0.18842 0.14537 -0.4455 0.16942 -0.13275 0.01363 -0.40183 -0.021196 -0.039349 -0.124 0.16777 0.18706 0.21675 -0.18834 -0.24445 0.10193 -0.076749 0.29405 0.0949 -0.1414 -0.14683 0.30737 -0.076156 -0.10002 -0.22449 0.1877 0.46033 -0.2971 0.23425 -0.0083325 -0.24529 -0.10579 -0.049545 -0.058794 0.47479 -0.01326 0.188 0.1493 0.049556 0.32979 0.30259 -0.23896 -0.42698 0.047519 -0.054488 0.092104 -0.12686 0.14784 0.18197 -0.14216 0.013184 
chambliss 0.0046075 0.10689 -0.025415 0.16142 0.095566 0.03998 0.078106 -0.058196 0.087368 0.40759 -0.10216 -0.15577 -0.0052449 0.11791 0.034093 0.5061 -0.1894 -0.36762 0.25826 0.088394 0.021589 0.18698 0.0093233 0.39677 -0.32286 -0.11154 0.18632 -0.28136 0.16053 -0.4229 0.17875 0.29439 0.18197 0.17577 -0.11581 0.21596 -0.093394 -0.053717 -0.52134 -0.17982 0.19811 0.088159 -0.25177 0.016598 -0.2482 0.07306 -0.42078 -0.32556 -0.10257 -0.029305 0.58074 -0.41426 0.20744 -0.24652 0.49312 -0.0031097 0.28225 0.12048 -0.36878 -0.024411 0.010126 0.22082 0.18651 0.066819 -0.58102 0.36316 0.14344 -0.24699 0.29798 0.21496 -0.026172 -0.06059 0.18901 -0.27804 0.1515 0.081744 0.31802 0.3345 -0.38788 0.15732 -0.23889 -0.19165 -0.1435 -0.053457 0.24565 0.068786 -0.32805 -0.035751 -0.10906 0.27688 0.086195 -0.22672 -0.073966 -0.099654 -0.11313 0.26888 0.2227 -0.17975 0.16173 -0.58598 0.3624 -0.18886 0.072533 0.43333 0.23465 0.14533 -0.15122 0.060113 0.11833 -0.10136 -0.099363 -0.40823 -0.2621 -0.461 0.080692 0.14769 -0.27754 0.4737 -0.045059 -0.031501 0.32711 -0.082712 -0.29955 -0.052238 -0.13086 -0.085727 0.091788 0.12761 -0.12464 -0.31195 0.12697 -0.21988 -0.21413 0.2806 -0.34723 0.2253 -0.19628 -0.12544 0.21829 -0.3561 0.19022 0.32193 -0.51228 -0.098126 -0.017271 0.15342 -0.47453 0.35344 -0.31886 0.18015 0.22041 -0.086941 -0.18274 -0.078506 0.32469 -0.21158 0.11837 0.12415 0.26898 -0.48643 0.24035 0.05814 -0.066535 -0.29127 0.28333 0.16718 0.29856 0.091743 0.38802 0.24427 -0.53385 0.15625 0.18572 -0.15906 -0.096557 -0.28821 0.037878 -0.026295 -0.1764 -0.0086076 -0.27528 -0.064751 0.28628 0.29933 0.06172 -0.36125 -0.18169 0.0017209 -0.086619 0.11179 -0.46753 -0.32579 -0.062327 -0.1257 -0.17602 0.28595 0.23332 0.007825 -0.19848 -0.013494 -0.025457 0.26287 0.23485 -0.27462 0.27471 -0.24669 0.051764 0.47313 0.27428 0.19648 -0.11939 -0.030382 0.096159 0.13681 -0.22679 -0.55591 -0.19395 0.40074 0.21021 -0.14731 -0.02516 0.37278 0.58349 0.28334 -0.058407 0.32921 -0.26778 0.34424 -0.449 0.066492 0.69511 0.38771 0.43141 -0.48331 -0.084514 -0.63109 -0.19468 -0.655 -0.026809 0.40253 0.20357 -0.025553 0.43131 0.090435 0.18206 0.24157 0.023466 0.13607 0.085513 -0.47142 0.50918 -0.21163 0.26185 0.091129 0.035075 -0.44998 0.31081 0.29124 -0.5723 0.22323 -0.11832 -0.041294 -0.41038 -0.19985 -0.066064 0.38051 0.04888 -0.027672 -0.037016 0.18416 0.34644 0.21444 -0.036512 -0.12169 -0.25219 0.051079 0.091923 0.49017 -0.74038 0.021324 -0.10151 0.12501 -0.041682 0.17865 -0.32328 0.075177 0.12121 -0.12413 0.14541 0.042778 -0.44553 -0.65891 0.017329 0.087225 0.35133 0.17471 0.44385 -0.0027245 -0.081279 0.50967 
isakson -0.22225 0.044924 -0.069351 -0.086427 0.23566 0.0074216 0.1198 -0.058757 0.38695 0.4607 0.093092 -0.022701 0.52316 -0.11158 -0.25998 0.22901 -0.41349 0.016504 0.12912 0.25501 -0.036804 0.10227 -0.062978 0.29968 -0.52212 -0.52529 -0.01328 -0.4237 -0.059011 -0.16674 0.15836 0.50264 0.20206 -0.054615 -0.27746 0.043753 -0.057455 -0.15786 -0.25454 -0.088282 -0.52464 0.0030148 -0.065889 0.0052867 -0.067287 0.1448 -0.39391 -0.10099 0.23998 -0.27322 0.2168 -0.42128 -0.15012 0.011068 0.53931 -0.44294 -0.16592 0.46752 -0.35561 -0.07741 -0.024668 0.12773 -0.02906 0.074878 -0.20692 0.44005 0.15025 -0.15257 0.32756 0.0070395 -0.38731 -0.12145 0.55228 -0.19086 -0.026725 0.12775 0.36861 0.012842 -0.48729 0.0051612 -0.070948 -0.37755 0.25439 0.010571 0.21279 0.014019 0.11813 0.2427 -0.2144 0.29438 -0.10934 0.10427 0.070433 -0.014669 -0.36308 0.31547 0.29277 -0.40116 -0.019031 -0.26836 0.56907 -0.13992 -0.19375 0.57159 0.40639 0.47497 -0.28454 0.5348 -0.08619 0.15809 0.028384 -0.25009 -0.4409 -0.51605 -0.059934 0.39921 -0.021959 0.22857 -0.093611 -0.041854 0.14656 0.11964 -0.62222 0.027795 -0.24136 -0.035672 -0.014463 0.14343 0.12806 0.011884 0.12407 0.11253 -0.40396 0.028124 -0.19706 0.22688 0.10999 0.2215 -0.039464 -0.3975 0.20879 0.22615 -0.4469 -0.14176 -0.075629 0.23245 -0.3512 0.46199 -0.52502 0.070294 -0.099153 0.093231 0.03051 0.1258 0.4982 -0.5342 0.27206 0.16314 -0.15802 -0.028278 0.28738 -0.16216 -0.11276 -0.43198 0.0010782 0.24401 0.22299 -0.21646 0.26606 0.0693 -0.11109 -0.064017 0.10866 0.30813 -0.12637 0.2228 0.14324 -0.20808 0.095557 -0.10483 0.04633 -0.30027 0.13926 0.5614 -0.03419 -0.07816 -0.54812 0.073162 -0.40436 0.24085 -0.034513 -0.050447 0.12033 -0.36846 0.18324 0.099076 -0.084398 0.37929 -0.45518 -0.46421 0.31626 0.15045 -0.36487 0.088549 0.036861 0.18028 -0.22758 -0.069521 0.32217 0.020682 0.072968 -0.22473 -0.20953 0.25893 -0.32553 -0.35005 -0.34659 0.55329 0.27436 -0.22291 0.34025 0.020375 -0.13135 -0.13346 -0.0073131 0.58421 -0.018777 0.11746 0.14905 0.23748 0.98298 0.13968 0.1533 -0.65465 -0.32946 -0.26032 -0.13108 -0.35162 -0.15436 0.28878 0.17996 0.29254 -0.13952 -0.32043 -0.083086 -0.090193 -0.087003 0.33471 -0.28737 -0.31723 -0.014236 -0.23075 0.17413 0.19492 0.27982 -0.38757 0.3975 -0.05868 -0.6387 0.0049104 -0.079909 -0.19242 -0.2294 -0.13554 -0.16203 0.3748 0.34639 -0.36946 0.1735 -0.52941 0.5696 0.061344 0.2963 -0.10312 -0.31245 0.50366 0.069913 0.63083 -0.58709 0.015587 0.020606 -0.034007 -0.016128 0.24177 -0.23802 -0.033227 0.19829 0.17275 0.0087069 0.1758 -0.39386 -0.40125 0.11818 0.12425 0.44149 -0.13592 0.23887 0.0055658 -0.2772 0.58457 
inouye -0.22009 -0.10915 -0.22449 -0.1683 -0.24473 -0.093304 0.19503 0.16847 -0.1688 0.41662 0.089998 -0.082324 -0.24124 -0.10404 0.02947 0.27735 -0.087458 0.098358 0.24312 -0.11605 -0.29729 0.19091 0.017555 0.088139 -0.071947 0.15237 0.15637 0.28534 -0.27546 0.12541 -0.32832 0.16945 -0.19965 -0.78557 0.1809 0.37072 -0.0059909 -0.1601 -0.46263 -0.036363 -0.27046 -0.13226 -0.12178 -0.47374 -0.23484 -0.32596 0.024083 -0.62716 -0.029942 -0.50985 0.40478 -0.2871 -0.46286 0.46965 0.7045 0.0011094 0.2185 -0.0070979 -0.063541 -0.25643 -0.48042 -0.12051 -0.16785 0.10514 0.11093 0.11902 -0.77699 0.27605 0.13073 -0.2442 -0.13108 -0.26962 0.15701 0.30268 0.027147 -0.34596 0.21157 0.15395 -0.2059 -0.3096 -0.11869 -0.42935 -0.32699 0.033566 0.30807 0.43157 -0.17932 0.26724 -0.21922 0.28437 0.0023673 0.21347 -0.085186 0.19585 0.60804 -0.1344 0.14937 -0.55062 -0.037038 -0.26205 0.40898 -0.65291 -0.7687 -0.15795 0.031696 -0.12647 -0.34986 -0.53529 0.26603 0.21663 -0.056625 0.12368 0.09433 -0.16055 -0.18338 0.21002 -0.085783 0.75523 -0.37207 -0.26796 -0.25121 -0.23573 -0.35745 -0.020363 0.25487 -0.1005 0.094931 -0.13921 0.058279 -0.48577 0.38223 -0.18787 -0.28988 0.65059 -0.24605 -0.32014 -0.38425 0.11911 -0.011587 -0.37414 0.057947 0.1984 -0.35496 -0.050047 -0.1546 0.030839 -0.57205 0.35109 0.30043 0.052721 -0.101 -0.38295 -0.0017381 0.016424 -0.013441 -0.51959 0.06582 -0.32496 0.40906 -0.068868 0.47849 -0.083064 0.16122 -0.10346 -0.24063 0.20926 0.048194 -0.061034 0.29222 0.32026 -0.052526 0.17609 -0.097166 0.013917 0.062568 -0.45007 0.31114 0.051715 -0.37525 0.44897 -0.16249 -0.058167 -0.29381 0.40824 0.23362 -0.68134 -0.0021723 0.42463 0.080509 0.18889 -0.0014145 -0.22827 0.35041 -0.39585 0.021147 0.080618 0.16674 0.35838 -0.23631 -0.063411 -0.055884 0.41042 -0.044096 -0.034504 0.15605 -0.12987 -0.014123 0.19694 0.39422 0.1085 0.0653 -0.083304 0.0069287 0.34658 -0.31433 -0.62813 0.0273 -0.19226 0.26646 0.40689 -0.0036841 -0.12176 0.58111 -0.1154 -0.12984 0.42183 -0.63647 0.10132 0.37316 0.096664 0.42492 -0.083016 0.23141 -0.39417 -0.27299 -0.49763 -0.34177 -0.67237 0.16348 -0.31893 0.27802 -0.16455 -0.15908 0.62278 0.2598 0.33024 0.039966 -0.034394 0.15433 -0.34945 0.12785 -0.2204 -0.014317 0.08033 0.21537 -0.61085 0.16716 0.10782 -0.69081 -0.17887 -0.24935 0.083893 -0.21923 0.17607 0.037987 0.1043 -0.048275 0.2457 0.39661 0.088987 0.51643 0.19906 0.669 -0.28137 0.09523 0.15267 0.18079 0.44548 -0.16815 -0.1039 -0.054515 0.10515 -0.24084 -0.069823 -0.067904 0.33664 0.093667 -0.04641 -0.29309 -0.15066 -0.092618 -0.67097 0.19345 0.051724 0.028335 -0.22792 0.23443 0.54222 -0.23929 0.16609 
akaka -0.29003 -0.21239 -0.032301 0.052637 -0.25749 -0.36704 0.1831 0.26263 -0.016161 0.23958 0.46958 -0.14243 -0.16656 0.08579 0.043463 0.27242 -0.3685 -0.036186 0.47091 -0.056711 -0.19078 -0.045429 0.22915 0.15331 0.24937 0.18803 -0.068532 0.2119 -0.40853 0.43712 -0.29966 -0.07193 -0.0063773 -0.42585 -0.51657 0.28368 -0.32974 -0.1931 -0.208 -0.32441 -0.13084 -0.27625 -0.018071 -0.25239 0.048868 0.34748 0.042264 -0.27232 -0.24325 -0.31033 0.37889 -0.40039 -0.35132 0.12297 0.43125 -0.2946 0.80945 0.059391 -0.15337 -0.25866 -0.33338 0.19851 -0.26395 0.19305 0.22733 0.53287 -0.3362 0.45183 0.041464 -0.27198 -0.54063 -0.15728 0.39094 0.24677 0.29224 -0.34679 0.18023 0.23321 -0.67896 -0.10634 -0.59228 -0.34722 0.351 0.11731 0.26806 0.092014 0.39069 0.28737 -0.32305 0.26015 0.16454 0.10024 0.13365 -0.43275 0.33006 0.028627 0.015075 -0.48577 0.41859 0.17798 0.51983 -0.3544 -0.4538 0.17421 0.21497 0.19274 -0.025982 -0.22988 -0.19939 0.51263 0.0055339 -0.21269 0.08532 -0.53789 -0.19213 -0.068369 -0.1692 0.69617 -0.15989 -0.44153 -0.043171 0.086581 -0.2767 -0.26277 0.35705 -0.43295 0.11458 0.041099 0.051249 0.16555 -0.091687 -0.18864 -0.12237 0.42803 -0.53908 0.036536 -0.16432 0.037845 -0.48583 -0.28428 0.016414 0.15902 -0.23619 -0.035898 -0.29379 -0.31514 -0.87771 0.46983 -0.041616 0.00079063 -0.20324 -0.032775 0.41013 -0.12227 0.40882 -0.62696 0.30551 0.29344 0.41339 0.13089 0.39086 0.072724 0.025295 -0.22469 -0.0088163 0.39609 0.029309 0.29046 0.3675 0.33912 -0.33211 0.26391 -0.17006 0.12211 0.13219 -0.65715 0.12718 0.35732 -0.35818 0.52866 0.19128 -0.31918 -0.51092 0.16958 -0.15153 -0.59217 -0.16031 0.80354 0.38314 0.33105 -0.32708 -0.19328 0.18636 -0.29782 -0.53849 -0.14749 -0.17712 0.86508 -0.046326 -0.17477 0.15465 0.06588 0.11403 0.019456 -0.067016 0.017267 0.32097 -0.10519 0.2256 -0.25105 -0.2566 0.18524 -0.065808 0.79684 -0.31617 -0.71866 0.10807 -0.10352 0.26196 0.007839 0.26476 0.027195 0.40612 0.10161 0.10588 0.26801 -0.36656 0.21277 0.055855 -0.030746 0.64116 0.058226 -0.0093653 -0.3626 0.16359 -0.51304 -0.47223 -0.8585 -0.03946 -0.11791 0.18095 -0.37017 -0.2016 0.05373 0.0070196 0.65949 -0.61961 -0.25591 0.049605 -0.56942 0.21844 -0.68435 0.02426 0.1186 0.13953 -0.4913 0.31035 -0.41244 -0.99522 -0.046146 -0.28205 -0.20983 0.010659 -0.036302 -0.26594 0.25215 0.16231 0.32197 0.1801 0.21395 0.26982 0.31321 0.29655 -0.069478 0.15326 0.25932 0.052456 0.60337 -0.48928 -0.27358 -0.17222 0.053796 -0.11689 0.39015 0.080797 0.34229 -0.10946 0.31475 0.087829 0.057573 -0.2407 -0.38679 0.085441 0.21363 0.0088539 -0.088323 0.49475 0.26049 0.37421 0.45207 
craig -0.36531 0.068747 -0.45427 -0.26003 0.3784 -0.050524 0.19832 -0.079407 -0.35573 0.24808 -0.13935 0.12678 0.024212 0.15801 0.19086 -0.10503 -0.1727 -0.12425 0.30054 -0.072765 -0.064228 -0.090689 0.095337 0.27557 0.044184 -0.13047 0.11063 -0.1571 -0.10155 0.26027 -0.081156 0.12335 0.083668 0.022153 0.061661 0.16455 0.18529 -0.061991 -0.22089 -0.11363 -0.17702 0.099933 -0.24988 -0.03883 0.11733 -0.044025 0.13208 -0.079792 0.042251 0.040737 0.016896 -0.24421 -0.053155 0.074491 0.44883 0.19764 0.13216 0.28652 -0.60697 -0.15115 0.08797 0.026029 -0.17613 0.2096 -0.13515 0.18167 -0.028665 -0.081999 0.21823 -0.15088 -0.58486 0.08422 0.16763 -0.35819 0.16759 -0.26239 0.33234 0.44752 -0.15526 0.009804 0.0682 0.15231 -0.0027156 -0.22116 0.2396 -0.21375 0.19034 -0.037431 0.31168 0.026417 -0.14046 -0.26155 -0.14052 -0.15011 0.019747 0.11587 -0.20358 0.12022 -0.20917 -0.084911 0.26915 -0.14635 0.22957 -0.10196 -0.004864 -0.22001 0.063634 -0.55721 0.10291 0.095887 -0.10761 0.026255 0.22223 -0.10734 0.12865 -0.15824 -0.37306 0.16656 -0.51286 0.18878 0.094939 0.25265 0.16126 -0.054932 0.13049 -0.045821 0.39242 0.017117 -0.23588 -0.012796 -0.074104 0.19348 -0.13832 0.27143 -0.15166 0.039027 -0.0255 -0.061533 -0.33262 -0.23083 0.031493 0.10968 0.11185 0.16489 -0.0187 0.10542 0.0066007 0.020676 -0.082954 -0.059409 0.051025 0.1437 0.086479 -0.15162 0.29897 -0.42452 -0.063007 -0.064863 0.20065 0.14148 0.33531 0.096599 0.042758 -0.02222 0.060647 -0.062105 0.29996 0.22763 0.065129 -0.12726 -0.12974 0.065653 0.0051268 0.21201 0.20311 0.046742 0.17781 -0.10302 -0.35616 0.018624 0.16286 -0.064999 -0.081233 0.26612 0.18645 -0.33684 -0.14124 0.21979 0.12055 -0.020347 -0.24761 -0.016389 0.12125 -0.19929 -0.11403 -0.025696 0.15587 -0.05854 -0.0083478 -0.074271 0.1272 0.14385 -0.23486 0.065381 0.027375 0.1524 0.15245 -0.10973 0.23599 -0.36867 -0.25723 -0.14519 0.019054 0.22798 -0.13911 -0.30954 -0.069538 -0.12108 0.41884 0.066421 0.095006 0.35027 0.058868 -0.021544 0.15001 -0.0014397 0.087003 0.21171 0.0452 0.098813 0.43798 0.2045 0.1658 -0.12272 0.14033 -0.33775 -0.0027878 -0.46835 0.23867 0.13314 0.23609 -0.2792 0.005105 0.045605 -0.10968 -0.16746 0.23356 -0.055517 -0.082579 -0.48582 -0.11124 -0.12379 0.14046 -0.13622 0.22163 -0.068559 -0.047261 0.078249 0.051389 -0.01576 -0.16316 -0.23336 -0.49527 0.074626 -0.0087598 0.54677 -0.13548 0.1898 -0.14849 -0.13587 0.1853 -0.1249 0.060849 -0.066729 0.059945 -0.017207 0.28627 0.39522 -0.1834 0.14123 -0.33234 0.01789 -0.16743 0.20879 -0.08485 -0.039155 0.15068 -0.069175 -0.079656 0.25428 0.21159 -0.095998 0.032347 0.042536 0.11424 0.090292 0.074376 0.23209 0.14481 0.067474 
crapo 0.33466 -0.011193 -0.55822 -0.32515 -0.27189 -0.028851 0.17176 -0.040566 0.48673 0.3668 -0.0023814 -0.16934 0.40208 0.032832 0.22213 0.3953 -0.53413 -0.049574 0.37855 -0.097677 0.04492 0.17326 -0.048364 0.41328 0.14012 0.068521 0.2894 -0.512 0.025436 0.26021 -0.12014 0.55359 0.36952 0.0012333 0.16083 -0.047001 0.094888 -0.1312 -0.18031 -0.40513 -0.3778 -0.13832 0.064048 -0.24491 -0.26717 0.056877 -0.10379 -0.31445 -0.25964 0.1104 0.14146 -0.70527 0.27278 0.41017 0.42687 -0.26929 0.19245 0.29379 -0.42264 -0.3694 0.083193 0.32344 0.23293 0.20299 0.43668 0.08604 0.56082 0.51005 0.62819 0.24044 -0.4333 0.38527 0.35849 0.049274 0.49125 -0.13721 0.45258 0.54463 -0.64781 -0.18385 -0.23728 -0.69001 0.019024 -0.21394 0.021148 0.083771 -0.27181 -0.32886 -0.57641 0.23114 0.37583 0.019836 0.40015 -0.0011138 0.24442 0.10449 0.011101 -0.6249 -0.07614 -0.3439 0.35898 -0.010307 0.24605 -0.2447 -0.27363 -0.040163 0.035865 -0.5028 -0.22265 -0.025535 0.076123 -0.23895 -0.20082 -0.35261 0.42798 -0.13845 -0.27635 0.10598 -0.62051 0.19836 0.2183 0.15955 -0.52145 -0.20733 0.086355 0.078095 0.3727 0.21858 -0.17021 -0.092849 -0.063981 0.34891 -0.37885 0.21624 -0.73166 0.18407 0.0017634 -0.28611 0.24414 -0.20469 -0.22782 0.35552 -0.13947 -0.68589 0.14287 0.38339 -0.263 0.43627 0.21461 -0.082525 0.048711 -0.302 0.036316 -0.32115 0.52835 -0.5349 -0.38012 0.12061 -0.069799 0.14965 -0.039021 0.1268 -0.054112 0.41959 0.10302 -0.13578 0.35931 -0.11626 -0.013307 -0.16468 -0.30676 -0.048873 0.19238 0.1046 -0.097551 -0.060548 -0.27536 -0.12593 -0.53825 -0.20825 0.17114 -0.229 -0.21068 -0.023008 0.15428 -0.57895 0.093484 0.31309 0.023068 0.29094 -0.23244 0.28725 0.22654 -0.42589 -0.43437 -0.39779 -0.10721 0.25654 -0.13469 -0.32197 0.049445 0.24529 -0.1951 0.18477 0.22672 0.51371 0.18382 -0.22209 -0.09811 -0.097577 -0.45874 -0.55111 0.096249 0.71861 -0.2547 -0.69183 -0.14856 0.18724 0.20906 0.012624 -0.29765 0.41866 0.33321 0.19239 -0.069699 0.031536 0.25812 0.71308 -0.4793 -0.0053615 0.95318 0.050569 0.26273 -0.46502 -0.21355 -0.61313 -0.54867 -0.63311 0.22333 0.044996 0.31222 -0.066374 -0.022139 0.034113 -0.57506 0.32443 0.2275 -0.051705 0.14377 -0.53921 0.10406 -0.16908 0.14047 -0.0052094 -0.17985 -0.22186 0.37773 -0.07555 -0.38063 0.5072 -0.056349 -0.24959 -0.4918 0.075823 -0.085016 0.12168 0.27305 -0.14775 0.085283 -0.0019603 0.18753 0.21153 -0.080205 0.056832 -0.38977 0.37987 0.25496 0.37101 -0.43448 0.37226 -0.02822 0.15905 -0.13102 0.1341 0.3724 0.22679 0.32147 0.292 -0.090024 0.55935 -0.35781 -0.37497 -0.059823 0.15408 0.24369 -0.48931 0.07918 -0.13135 0.027805 0.36596 
durbin -0.31861 -0.28729 -0.12816 -0.10832 0.0047421 0.15616 0.11843 0.13497 -0.12997 0.49411 0.20207 -0.14037 0.45427 0.15728 0.1336 0.10513 -0.41583 -0.21307 0.0083949 -0.0073358 0.15213 0.42748 0.34619 0.097948 -0.4211 0.044509 0.24936 -0.011777 -0.020383 -0.22669 -0.10417 0.22912 0.11349 0.10886 -0.21461 -0.17485 0.036214 0.066601 -0.37027 -0.20949 -0.13289 -0.080005 0.031568 0.035273 -0.35235 -0.040281 -0.03204 -0.21565 0.26053 -0.26317 0.04826 -0.27629 -0.33308 -0.1829 0.15717 -0.28161 0.080639 0.29151 -0.070052 -0.23744 -0.21267 0.34143 0.18283 0.38852 -0.2137 0.31197 -0.074657 0.64294 0.54749 0.0030107 -0.16215 0.13639 0.53392 0.31235 0.66401 -0.30797 -0.11758 -0.016936 -0.21373 0.13766 -0.1277 -0.62973 -0.22724 0.35159 0.216 0.3531 0.0089938 0.022687 -0.33916 0.21186 0.15982 0.043112 0.086627 -0.019472 0.60063 0.1166 -0.12131 -0.17674 -0.13232 -0.29009 -0.042382 -0.17286 -0.34387 0.22242 0.27059 -0.15012 -0.30436 -0.19432 0.12348 0.19225 -0.21526 -0.21843 0.22276 -0.55937 0.32856 0.18859 0.0040025 0.2495 -0.39931 0.32746 0.1485 -0.032455 -0.14005 0.010069 0.31683 0.23364 0.15055 0.0060224 -0.033553 0.12707 -0.012475 -0.039698 -0.55941 0.5381 -0.51873 -0.28788 0.013291 0.099872 -0.1758 -0.092777 0.055745 -0.11044 -0.35164 -0.15206 -0.18592 -0.056181 -0.088142 0.41338 0.022853 -0.39315 -0.060874 -0.24566 0.14947 -0.30503 0.15039 -0.2964 0.047869 -0.24076 -0.11624 0.0057205 0.16975 0.18467 0.048877 -0.068001 0.010919 0.21592 -0.13553 0.34936 -0.21654 -0.053511 -0.4756 -0.383 0.098323 -0.10492 0.17005 -0.31608 -0.12445 -0.20882 -0.39833 0.016572 -0.17751 -0.23121 -0.3303 0.33529 0.28583 -0.039119 0.08731 0.41596 -0.12039 -0.27271 -0.08358 -0.084524 -0.12619 -0.76724 -0.11296 -0.10071 -0.28071 0.28688 -0.46979 -0.0098592 0.20441 -0.06786 -0.31769 -0.1612 -0.14217 0.72378 -0.18974 0.42515 0.11031 0.21258 -0.30345 0.10623 -0.25222 0.57818 -0.51493 -0.29998 -0.086427 0.054752 -0.011891 0.18384 -0.12311 0.067427 0.45605 0.34189 -0.063275 0.33577 -0.26075 0.5754 0.40936 0.35708 0.33877 0.18663 0.27691 -0.42434 -0.39173 0.051987 -0.3786 -0.15289 0.039625 -0.12917 0.46933 0.11747 0.038039 0.014984 -0.001822 -0.14982 -0.20166 0.26488 0.14587 -0.47686 -0.019131 -0.31541 -0.006937 -0.22249 0.13397 -0.36392 0.078333 0.34672 -0.21864 0.018776 0.036019 0.28314 -0.42794 -0.096564 -0.11214 -0.04452 0.43362 -0.080425 -0.20521 0.051638 0.24555 0.13081 0.41395 -0.19906 -0.59219 -0.42639 0.50035 0.58167 -0.26061 0.1735 -0.092435 0.30214 -0.17359 0.055835 -0.046172 -0.076738 -0.16377 0.23307 -0.096694 0.18178 -0.17086 -0.45192 -0.053682 0.1762 -0.17612 -0.066947 -0.19599 0.15759 -0.16377 0.27089 
obama -0.056733 -0.058515 0.059112 0.014398 0.15521 -0.22407 -0.26613 -0.11639 -0.188 0.10567 0.015897 0.048297 0.081954 0.27511 0.049461 0.15293 -0.23303 -0.13044 0.11438 0.084398 -0.080277 -0.013796 -0.13829 0.14618 -0.26663 0.13621 0.030662 0.061752 -0.041031 0.19428 -0.075481 0.063445 0.052881 -0.14094 -0.086833 0.052234 -0.0652 0.073711 0.12275 -0.19026 0.019382 0.096438 0.15999 -0.16101 -0.20358 0.17115 -0.037101 -0.47515 0.18291 0.0051369 0.16194 -0.1462 -0.26917 -0.1764 -0.041287 0.12803 -0.40664 0.16189 -0.33078 -0.25023 0.32314 -0.058716 0.020898 -0.12835 -0.19913 0.18791 -0.0086389 0.15003 0.39977 -0.049245 -0.055866 -0.016189 0.18045 0.064781 0.1283 0.088338 -0.0039009 0.018827 0.16968 -0.19545 -0.010538 -0.18448 -0.13097 0.035411 0.39141 -0.25109 -0.11929 -0.019392 0.25194 0.12185 0.013843 -0.0048512 0.20518 -0.16598 0.31796 0.057818 0.034068 -0.078055 -0.17952 -0.245 -0.0534 -0.074205 0.082901 0.1098 -0.16573 -0.20317 -0.26142 0.045405 0.01773 0.049066 -0.14871 0.056792 0.15909 -0.099816 0.23796 0.16865 -0.13152 0.11223 -0.044653 0.25079 0.49734 -0.15998 -0.13796 -0.30129 0.3583 -0.088837 0.047928 -0.07761 -0.16074 0.27793 -0.023396 -0.32832 -0.34671 -0.035153 0.045138 0.0078466 0.0071465 0.17757 -0.17205 -0.042498 0.1372 0.22174 -0.2208 -0.010374 0.092047 0.048094 0.022554 0.54655 -0.043295 0.018571 -0.24235 -0.1565 0.02351 -0.065462 0.23184 0.024074 -0.17872 0.025695 0.1984 -0.11784 -0.081513 0.020638 0.10372 0.064497 0.32034 -0.028816 -0.34283 0.44724 -0.097114 -0.088406 -0.066923 0.090259 0.23471 0.012201 -0.045779 -0.15053 -0.065464 0.20734 -0.053726 0.072945 -0.14839 -0.12127 -0.18364 0.095098 0.1673 0.25198 0.21634 0.17727 -0.15278 0.25059 -0.2269 0.06419 0.19383 -0.21487 -0.056541 -0.16617 -0.22657 0.075109 -0.14141 -0.037709 0.34158 0.08598 -0.063725 0.07551 0.13246 -0.021489 0.16687 0.12903 0.13806 0.17636 -0.17166 0.1571 0.11644 0.026758 -0.18687 -0.54566 0.031561 0.31055 -0.16132 0.13115 0.077966 0.017152 0.20103 0.13917 -0.041837 0.024319 -0.08813 -0.025717 0.18638 0.41129 -0.080604 0.26289 0.3301 -0.068882 0.011154 0.10475 -0.041978 -0.34057 0.071974 0.02731 0.12486 0.0006127 -0.059259 0.10787 -0.20717 0.20686 0.17377 -0.12669 0.32657 -0.20362 0.15784 -0.16566 -0.0051306 -0.0029455 0.044005 -0.20482 0.13206 0.19463 0.049808 -0.28986 -0.074247 0.069368 -0.013712 -0.075829 0.21168 0.22462 0.066105 -0.16984 -0.024419 0.14967 0.14144 -0.080105 0.12455 -0.014564 0.18481 0.2566 0.12373 0.063068 -0.16523 -0.1455 -0.19766 0.25751 0.12094 -0.14789 -0.13171 0.22864 -0.19758 0.14605 0.065283 0.43716 0.1459 -0.2909 0.05386 0.11208 0.051819 -0.13528 -0.26093 0.30031 -0.26375 0.34087 
lugar -0.13896 -0.28714 -0.22598 -0.21007 -0.37031 0.046975 0.18931 0.4845 -0.043265 -0.039681 -0.015984 -0.31885 0.1805 0.20893 -0.31345 0.20935 -0.099563 0.17055 0.13891 0.0020994 0.01092 0.16365 0.35774 0.18375 -0.28574 -0.02708 0.41374 -0.16588 0.056138 -0.010172 -0.21463 0.33503 -0.066549 -0.24832 -0.27944 0.20785 0.20085 -0.49376 -0.59757 -0.40095 -0.054956 -0.0076918 -0.043792 -0.22944 -0.10293 -0.22421 -0.068198 -0.5944 -0.41825 -0.16611 0.23358 -0.3503 -0.22011 -0.058232 0.45682 0.029367 0.08505 0.3004 -0.27748 -0.21459 0.14124 0.12015 -0.11651 0.36674 0.010732 0.10774 -0.35387 0.17443 0.22141 -0.40198 -0.039793 -0.040183 -0.099149 -0.47944 0.16529 0.1228 0.013258 0.42662 -0.015206 -0.11547 -0.024879 -0.37111 -0.6689 -0.23532 -0.054477 0.60316 -0.080321 -0.00055839 -0.291 0.18216 0.14189 0.35889 0.30848 -0.027617 0.20961 0.35382 -0.032107 -0.076817 -0.18599 -0.39722 0.53864 -0.060604 -0.17245 0.33679 0.45871 0.094177 -0.29037 -0.10749 0.24563 0.34133 -0.41972 -0.0019239 -0.21704 -0.49687 0.20819 -0.1123 0.15155 0.37457 -0.29977 0.04253 0.18573 -0.0059094 -0.63196 0.1352 0.0072277 0.27316 -0.13688 -0.12242 -0.41008 -0.12341 0.0075924 0.10778 -0.53714 0.32022 -0.22669 0.09678 0.16392 -0.087392 0.08594 -0.31662 0.20766 0.16256 -0.24931 -0.03103 -0.068218 -0.36394 -0.023785 0.61164 0.24068 0.004213 -0.45258 0.40706 -0.037295 -0.139 0.19578 -0.26525 0.34496 -0.30179 0.12258 -0.059399 0.10858 -0.16194 0.15196 -0.35286 0.057574 0.41205 0.12977 0.077774 0.088461 -0.17179 -0.29956 -0.3426 0.19142 0.21155 -0.26734 -0.032061 -0.30438 0.20022 -0.34212 0.46723 -0.21976 -0.17679 -0.028237 0.34423 -0.23848 -0.48322 -0.14101 0.26722 -0.49407 -0.070897 -0.33413 -0.23919 -0.018035 -0.22819 -0.3163 0.15656 -0.39198 0.29633 -0.20847 -0.094752 0.43645 0.086347 -0.43094 -0.084001 0.06495 0.01992 -0.16206 0.45509 0.11084 -0.098837 -0.079463 0.25047 -0.11626 0.3086 -0.50832 -0.56264 0.086887 0.47628 0.034969 0.14902 0.093569 0.15376 0.32699 0.14831 -0.18201 0.27163 -0.34504 0.022558 0.30945 0.34027 0.28748 -0.12381 0.34284 -0.51176 -0.11153 -0.28327 0.08706 -0.72388 0.13693 0.013012 0.58133 -0.12643 0.086801 0.084861 -0.22755 0.13757 -0.062429 -0.24431 -0.086172 -0.52897 0.12584 -0.24896 -0.3872 0.3916 0.15511 -0.60479 0.07491 0.002937 -0.14326 0.14548 -0.255 0.074287 -0.11553 0.11966 0.14923 -0.022537 0.53973 0.11782 -0.052798 0.0027603 0.47755 0.41749 0.63828 -0.16024 -0.14604 0.048876 0.042848 0.29949 -0.32457 0.10292 -0.42184 0.45719 0.014132 0.080465 -0.25906 -0.046775 0.03737 0.0013161 -0.26417 0.12933 -0.56489 -0.60295 -0.021629 0.19645 -0.03396 -0.45059 0.064742 0.22275 0.18322 0.54183 
bayh -0.10587 -0.27222 -0.074347 -0.29625 -0.26468 0.12574 -0.071063 0.6471 -0.23675 0.28979 -0.24532 -0.37409 0.25766 0.40325 -0.061926 0.2314 -0.22817 -0.23895 -0.087465 0.19284 0.40741 0.31458 0.13384 0.059779 -0.20471 -0.32565 0.1722 -0.31346 0.27121 0.2947 0.13744 0.078988 -0.11175 0.12658 -0.24494 -0.050155 0.21116 -0.036857 -0.76819 -0.35021 -0.35085 0.27947 -0.2651 -0.64295 -0.47328 0.046448 -0.23671 -0.27537 0.32165 -0.17425 0.28161 -0.39223 -0.082765 -0.18053 0.16906 0.059545 0.28628 -0.13896 -0.17464 -0.23941 -0.022428 0.36427 0.0092579 0.052987 -0.29986 0.3009 -0.26873 0.37917 0.25783 -0.14953 -0.21855 0.03579 -0.2254 -0.081468 0.27116 0.05335 0.048276 -0.024139 -0.12014 -0.22827 0.054101 -0.58114 -0.35403 0.11284 0.22094 0.055947 -0.048143 0.11432 -0.040878 0.01367 0.058377 0.062774 0.043831 -0.12733 -0.032925 0.20982 0.29532 -0.47778 0.19718 -0.26427 0.60028 -0.66312 0.23167 -0.098316 0.050973 -0.10836 -0.040388 -0.18663 0.12145 0.13399 -0.50859 -0.058859 -0.20595 -0.55327 0.38023 0.12735 -0.11476 0.29213 -0.36935 0.1494 0.31949 0.013246 -0.31422 -0.033574 0.14835 0.11139 -0.17573 0.089035 -0.30072 -0.0043097 0.10877 -0.19673 -0.19949 0.28982 -0.25224 0.26991 -0.063052 -0.20993 -0.22627 -0.2507 -0.046133 0.13157 -0.10206 -0.088436 0.020314 -0.016421 -0.48483 0.62587 -0.19746 0.033105 -0.073712 -0.18705 0.10468 -0.37125 0.23542 0.2042 0.12227 0.074088 -0.071502 -0.23891 0.11922 0.26107 0.18857 0.046914 0.21449 0.25072 -0.31222 0.076799 0.23348 0.10075 -0.32478 0.085639 0.30018 0.034949 -0.094024 -0.45613 0.11025 -0.029728 -0.11403 0.15209 0.13315 0.026079 -0.1751 0.30537 -0.23989 0.045435 -0.14012 0.11075 -0.12187 0.019268 -0.1558 -0.29037 0.54245 -0.33682 -0.34149 0.037268 -0.74025 0.05182 -0.11009 0.017061 0.24506 0.27522 -0.34388 0.1418 -0.13286 0.15814 -0.05385 0.10055 0.69273 0.23465 0.19694 -0.0097391 0.036248 0.51075 -0.41864 -0.44634 0.072297 0.36503 0.19159 0.24541 0.17324 0.21042 0.49415 0.096676 0.13519 0.15731 -0.08099 0.11861 -0.066926 0.53973 0.33961 0.092065 0.54468 -0.28166 -0.27371 -0.059168 -0.14611 -0.79696 0.34614 -0.0086451 0.19803 0.0071273 0.075066 -0.16236 -0.22187 0.37263 -0.23813 -0.4259 0.11474 -0.16391 0.37888 -0.32087 -0.048676 -0.11956 -0.0085371 -0.25878 0.20438 0.15779 -0.076089 -0.016661 -0.23201 -0.35641 0.14199 -0.10528 -0.074176 -0.010044 0.2688 -0.22214 0.059554 0.16535 0.51333 0.012179 0.16115 -0.37636 0.50603 0.33329 -0.0896 0.37289 -0.33414 0.22451 -0.20431 0.048963 -0.21335 -0.017758 -0.19216 -0.08307 -0.19106 0.073757 -0.034589 -0.07194 -0.165 -0.46324 -0.079506 -0.079208 -0.21394 -0.21093 0.29751 0.15966 -0.14473 0.66011 
grassley -0.0040392 -0.16757 -0.55346 0.056192 -0.07424 -0.12389 0.041975 0.017472 -0.10134 0.24995 0.48496 -0.036913 -0.06274 0.2947 0.090105 0.47264 -0.2477 -0.095339 0.37022 -0.046292 -0.1415 0.13289 0.23114 0.33285 -0.33874 0.11959 0.092751 -0.23698 0.046956 -0.070044 -0.1669 0.27619 -0.031628 -0.36954 -0.30352 0.26401 0.077969 -0.3776 -0.08362 -0.16618 -0.30893 0.087241 -0.10816 0.27543 -0.20185 0.017203 -0.085201 -0.21089 -0.11934 -0.21327 0.049669 -0.046155 -0.20279 -0.069364 0.30279 0.023684 -0.028079 0.37877 -0.20801 -0.23176 -0.42732 0.39424 -0.17443 0.39638 -0.080831 0.4336 -0.13384 0.040635 0.42364 -0.30396 -0.5583 -0.058676 0.37069 0.025549 0.72838 0.25247 -0.25264 0.41577 -0.18299 -0.04731 0.012639 -0.36562 -0.21338 0.12769 -0.030232 0.20846 -0.18477 -0.067376 -0.33249 0.17587 0.23615 -0.23377 0.072055 0.22299 0.095971 0.20058 -0.46478 -0.50102 -0.10119 -0.14951 0.20162 -0.15829 -0.21629 0.19036 -0.1393 -0.090432 -0.21761 -0.42834 0.115 0.0054889 -0.22858 0.15614 -0.21326 -0.40123 0.16459 -0.16388 -0.46447 0.24376 0.0062759 0.18661 0.11216 0.14119 -0.43964 0.095061 -0.12148 0.037893 0.32157 -0.039268 -0.36231 0.12752 -0.032661 -0.17619 -0.4211 0.35158 -0.29717 0.010585 -0.21515 0.14632 0.093255 0.096934 0.40986 0.56991 -0.11739 -0.086844 0.10696 -0.075425 -0.57954 0.26787 0.16652 -0.093949 -0.30634 -0.29599 0.012703 0.024454 0.34995 -0.43427 0.1706 -0.20591 0.18971 0.25422 0.29315 0.17892 -0.37993 -0.079478 0.00052552 -0.31124 0.090313 0.27233 0.333 -0.10541 -0.24458 0.10965 0.074945 -0.16119 -0.37296 -0.23154 -0.1712 0.3901 -0.031671 0.13283 0.03526 0.14281 -0.19219 0.40277 0.44149 -0.21614 -0.45851 0.20987 -0.37367 0.14091 -0.06926 -0.024082 0.29192 -0.51047 -0.45663 0.096 -0.17873 0.26825 -0.070524 -0.61963 0.31673 0.26617 -0.46211 -0.39606 -0.22651 0.082719 -0.16255 -0.02365 -0.013426 0.16611 -0.28167 0.12281 -0.03302 0.35382 -0.11906 -0.3881 -0.368 0.24441 -0.18422 0.53651 -0.097512 0.38522 0.37306 0.22921 -0.29478 -0.00081053 0.051876 0.24245 0.11021 0.03737 0.51794 0.12154 0.12567 -0.53113 -0.048071 -0.16067 -0.21021 -0.32031 0.18221 0.091015 0.45722 0.15709 0.44 0.28838 -0.31863 0.013741 -0.14344 0.55292 -0.089618 -0.73348 0.28612 -0.39111 -0.28737 -0.043928 -0.014349 -0.49206 0.063677 0.12056 -0.38595 0.12122 -0.33682 -0.0019001 -0.31374 0.25456 0.38435 0.26226 -0.21344 -0.22416 -0.048152 -0.027303 0.096122 0.14585 0.16706 -0.44868 -0.37815 -0.093514 0.47091 0.21374 -0.51703 0.1231 -0.11223 0.25256 -0.14994 -0.1124 0.089651 0.19789 0.34592 0.26271 0.1553 0.36913 0.06727 -0.64058 -0.1865 -0.2932 0.065741 -0.56474 0.018023 0.15126 -0.088131 0.2428 
harkin -0.043031 -0.32301 -0.051089 -0.33909 -0.13873 0.020198 -0.22497 0.036275 -0.087215 0.085948 0.16368 -0.084203 0.043668 0.20104 -0.43694 0.039824 -0.36533 0.022936 0.01323 0.26328 0.0092747 -0.10472 0.026669 0.29698 -0.037817 0.16162 0.13546 -0.2861 -0.23401 -0.04102 0.070149 0.068208 -0.2267 -0.053866 -0.50029 0.04172 0.076018 -0.21706 -0.2411 -0.11549 -0.45069 -0.024817 0.11931 0.05288 -0.27986 0.02181 -0.1644 -0.11742 0.035998 -0.26188 0.093617 -0.37415 -0.35733 0.11659 0.54772 0.30582 0.358 0.1298 -0.18054 -0.1198 -0.44848 0.074204 -0.13787 0.19453 -0.33087 0.22899 -0.25977 0.12467 0.16893 -0.098777 -0.25108 -0.28326 0.24412 0.35764 0.51855 0.040088 0.26104 0.08153 -0.043959 0.2688 0.18057 -0.34275 -0.21569 0.12917 0.10741 0.2237 -0.16808 0.37361 -0.37547 -0.10228 0.18446 -0.0048682 0.23907 -0.26173 -0.020604 0.15925 0.17692 -0.1314 0.35819 -0.62606 0.3721 -0.17307 -0.25224 0.16881 -0.033252 -0.0053509 -0.34585 -0.39389 -0.012437 -0.029768 -0.34796 -0.23533 -0.2218 -0.28537 -0.038846 -0.25016 -0.54277 -0.080813 -0.20956 -0.20881 0.12067 0.1198 -0.75922 0.18812 -0.13048 0.30196 0.049773 -0.21865 -0.15125 0.08041 0.16427 -0.22405 -0.24218 0.1791 -0.37893 0.032293 -0.31991 0.20289 -0.2332 -0.10085 0.15047 0.13814 -0.13342 -0.046048 0.29194 -0.017698 -0.5536 0.17838 0.17773 0.049846 0.030565 -0.32871 0.094572 -0.26712 -0.019928 -0.33681 0.13966 -0.18165 -0.028815 0.10924 0.16566 0.061537 0.0073897 -0.34946 -0.031032 0.11131 0.10016 0.17689 -0.12192 0.081533 -0.14724 -0.086008 0.27725 0.1423 -0.19941 -0.5465 0.088195 -0.0029193 -0.040736 0.30692 -0.14431 0.078199 -0.15299 0.48668 0.2288 -0.26257 -0.30605 0.21004 0.044902 -0.0024759 -0.051246 -0.1547 0.24018 -0.21873 -0.086981 0.01884 -0.25873 0.15683 -0.22524 -0.29429 0.10332 0.43444 0.094445 -0.039444 -0.033125 0.038865 -0.098185 0.23473 0.10129 -0.042883 -0.3303 0.14709 -0.081102 0.27464 -0.20723 -0.30784 -0.16296 0.25734 0.0056014 0.45424 0.11682 0.17453 0.47752 0.48398 -0.30965 0.017023 -0.088046 0.13782 -0.077234 0.095968 0.53822 0.065 0.33206 -0.27311 -0.00064578 -0.023082 -0.079463 -0.55511 0.024049 0.0085813 0.30076 0.32136 0.045231 0.12369 -0.19201 0.41826 -0.15776 0.39845 0.24869 -0.33383 0.091433 -0.40635 0.18422 -0.076875 0.34555 -0.62799 -0.1832 -0.084327 -0.10357 0.37154 -0.1857 -0.061739 -0.22235 -0.11272 -0.031758 0.22886 0.33417 0.2635 -0.46132 -0.011848 0.32546 -0.12053 0.43574 -0.11795 0.026443 0.095604 0.26048 0.30182 -0.39495 -0.14287 0.12367 0.2273 -0.16211 -0.059289 -0.1491 -0.099427 0.019997 0.07407 -0.13685 0.48265 -0.0096155 -0.36182 -0.019458 0.0944 0.29552 -0.33879 0.039884 0.18625 0.13931 0.40878 
roberts 0.10374 0.15536 -0.51266 -0.15081 0.091664 0.08015 -0.11315 0.033426 0.28041 0.20655 0.0038491 0.032208 -0.015927 0.059277 0.29953 -0.16509 -0.041304 -0.059289 0.15994 -0.053415 -0.21819 0.035008 -0.066947 0.28806 -0.4195 -0.20703 -0.084997 -0.24909 -0.075205 -0.01251 -0.012195 0.35165 -0.12675 0.4539 0.17805 0.079202 0.12107 -0.10053 -0.24012 -0.095132 -0.07545 0.050299 0.10456 0.045416 0.033544 0.062162 0.14473 0.11186 -0.081842 -0.0016221 0.16786 -0.0086162 -0.11685 -0.30713 0.29113 0.12447 -0.021686 0.082374 -0.30361 -0.42371 0.19236 0.015474 -0.024952 0.45422 -0.37754 0.31651 0.041632 0.030334 0.12252 0.052708 -0.30654 -0.13305 -0.074561 -0.19976 0.11663 -0.4005 0.063012 -0.0069055 0.12174 -0.10115 -0.15142 -0.019128 -0.047455 -0.019587 -0.002771 -0.0078242 0.031605 -0.17915 -0.015036 0.21525 -0.07576 0.10988 0.17637 -0.24179 -0.021836 0.11268 -0.0053891 0.10328 -0.155 0.1377 0.23051 -0.47267 -0.14744 0.049557 -0.0039746 -0.066539 -0.33671 -0.15442 0.028733 0.069795 -0.45425 0.058179 -0.29587 -0.23336 0.039139 0.071567 -0.49655 0.32444 -0.010834 0.30093 0.15488 0.090356 0.1236 -0.075806 -0.088505 -0.12764 0.12979 -0.015643 -0.33497 0.11119 0.14741 0.045766 -0.40899 0.029774 -0.29997 -0.20211 0.023769 0.014438 -0.062858 -0.16177 0.069338 0.40993 -0.059005 0.0088451 0.061374 -0.035238 -0.14981 -0.065389 -0.061853 0.30924 -0.022601 -0.23707 0.19665 -0.5704 0.22361 -0.4799 0.25974 -0.12575 0.0437 -0.027727 0.35992 -0.15193 0.21398 0.14145 0.20573 -0.026485 0.21555 -0.066768 -0.071623 -0.29214 -0.021775 -0.094217 -0.028234 0.096015 -0.00032833 0.20727 -0.090989 -0.076235 -0.030173 0.045537 -0.097018 -0.067101 -0.25533 0.17878 -0.024466 0.044855 -0.057151 -0.073936 -0.059365 -0.13056 -0.28054 -0.067668 -0.081206 0.0067769 -0.13016 0.14504 0.030309 0.23106 -0.25013 0.043141 0.29015 0.15947 -0.052445 -0.25487 0.014173 0.022905 -0.28056 0.1623 0.045102 0.20836 0.051882 0.075598 -0.074192 0.30755 -0.19714 -0.46858 -0.19431 0.36858 -0.036505 0.042938 0.079317 0.22558 0.39437 -0.14479 0.15267 0.25473 0.31444 -0.26315 0.029385 0.12958 0.26891 -0.087598 0.19326 -0.32122 -0.03822 0.033156 0.044026 -0.21833 0.030729 0.30532 0.39867 -0.1935 0.23817 0.27728 -0.14293 0.29424 0.051659 -0.0084038 0.073619 -0.18497 0.28981 -0.58544 -0.37119 -0.10376 0.10416 -0.073635 0.076791 0.039312 -0.23717 0.34383 -0.21132 -0.18753 -0.26753 -0.24656 -0.18793 0.32144 0.25728 -0.043233 -0.11263 0.22024 -0.0047824 -0.057698 0.4514 -0.11113 0.085719 0.28714 0.2674 0.27538 -0.16705 -0.012432 -0.0074733 0.087521 -0.11633 0.31235 -0.10537 0.030768 0.072983 0.23351 -0.30262 0.37816 -0.06081 -0.56397 -0.17929 -0.31912 0.15325 -0.22743 -0.10565 0.34038 -0.11296 0.12973 
brownback 0.42701 0.1252 -0.40694 -0.087607 -0.19781 -0.058842 -0.074876 -0.13523 0.4588 0.3334 -0.086956 -0.28073 0.29158 0.34623 -0.1895 -0.083089 -0.061166 -0.19056 0.19039 -0.35461 0.27911 -0.10085 -0.083951 0.37673 -0.38938 -0.065808 -0.43969 -0.44549 -0.015263 -0.011143 0.099195 0.22677 0.10126 -0.071322 -0.31634 -0.17343 0.063275 -0.23395 -0.30624 -0.076113 -0.32834 0.081421 -0.10008 -0.43117 -0.33121 0.010279 -0.14666 0.23186 0.3174 0.068995 0.27591 -0.48171 -0.037202 -0.072502 0.23719 -0.027954 0.014187 -0.092522 -0.46766 -0.11401 -0.40932 0.20676 0.091169 0.16597 -0.12543 0.097317 0.085556 0.090839 0.11999 -0.15249 -0.51083 -0.024441 0.23963 -0.22771 0.095617 -0.16603 -0.039942 0.15109 -0.51526 0.090927 -0.15142 -0.40616 -0.072826 -0.10497 0.35754 0.26509 0.072709 -0.014705 -0.019047 0.046613 -0.047357 0.0097426 0.044826 -0.12551 0.12669 0.15279 0.05992 -0.20612 0.22705 -0.20581 0.27371 -0.34822 -0.10187 0.093452 0.19655 -0.13089 -0.39974 0.022787 -0.25272 0.082868 -0.15888 -0.21163 0.0023834 -0.46479 -0.015688 0.16593 0.017139 -0.07439 -0.050844 0.29226 0.38684 -0.19919 -0.69852 0.05544 0.41083 0.25299 -0.29584 -0.040917 -0.32673 0.23731 0.13174 0.072722 -0.23614 -0.017992 0.14165 -0.03258 0.20862 -0.22409 -0.014471 -0.12383 0.42549 0.40232 -0.44211 -0.3317 0.16813 0.16265 -0.39602 0.3302 -0.028398 0.16322 -0.17303 -0.351 0.38622 -0.6515 0.3307 -0.46007 0.44216 -0.21649 0.18274 0.36577 0.32771 -0.20333 -0.1327 -0.35627 0.25868 0.18392 0.076865 0.07419 0.24442 -0.043974 -0.086741 -0.35301 0.022872 -0.48391 -0.06273 -0.039 0.012136 0.0040517 0.023422 -0.16706 -0.0074769 0.10367 -0.11847 0.21259 -0.04102 -0.02785 -0.52213 -0.14082 -0.42825 0.2854 -0.2715 -0.060642 0.25125 -0.33251 0.10654 -0.10039 -0.36005 0.1535 -0.14138 -0.27781 -0.068802 0.1777 -0.17571 -0.19256 0.21427 -0.041727 0.16693 -0.089013 0.015105 0.14867 -0.13257 0.21893 -0.52615 0.18067 -0.27913 -0.53515 -0.19437 0.21021 -0.19666 0.033262 -0.037335 0.075459 0.33272 0.1818 0.065747 0.079237 -0.16043 0.27103 0.084906 0.20556 0.49084 0.24577 0.014831 -0.61904 -0.33848 0.09842 -0.26128 -0.4604 -0.029953 0.09199 0.12435 0.090139 0.03769 0.0032552 -0.32185 0.24611 -0.19975 -0.14805 0.10508 -0.28375 0.24674 -0.39073 0.011103 0.11004 -0.0092242 -0.52381 0.33362 -0.056898 -0.23685 0.23798 -0.073519 -0.18285 0.071217 -0.24178 -0.13625 0.50792 0.24616 0.016808 -0.051524 0.23068 0.2542 -0.19969 0.39725 -0.052948 -0.14073 0.072007 0.5511 0.10641 -0.28483 0.15101 0.015353 0.20487 -0.46083 0.097853 0.093987 0.28318 -0.1756 0.15159 -0.22272 0.18983 0.090818 -0.52773 0.14241 -0.2246 0.064691 -0.009365 -0.15439 0.20299 -0.2448 0.40118 
