conservative 0.33274 0.32182 -0.19147 -0.23513 -0.054022 0.035739 -0.083691 0.1807 0.15378 0.00011456 -0.087111 -0.42144 0.66463 -0.10757 0.040499 -0.11151 -0.1668 -0.30677 -0.39854 0.084849 0.084475 0.21922 -0.034727 0.29536 0.019689 -0.087787 -0.041002 -0.29017 -0.01855 0.26965 0.04269 0.13506 0.028816 0.032031 -0.20061 -0.20726 0.024785 0.067584 -0.0018203 -0.014841 -0.16634 0.057259 0.045426 0.042903 -2.1692e-05 0.35564 0.15545 -0.14816 -0.046743 0.51079 0.48482 -0.11341 0.13869 0.017475 0.11605 0.070726 -0.29778 -0.029222 -0.31857 -0.35108 0.078416 -0.017122 0.19156 -0.13525 -0.14948 0.1373 0.094141 0.22408 -0.17576 0.029725 -0.23073 -0.069398 0.16853 -0.18645 0.18782 -0.12897 -0.099951 0.089587 -0.29666 -0.25149 -0.087109 0.048101 -0.004789 -0.085856 -0.1178 -0.15051 -0.17831 -0.064094 0.04252 0.045432 -0.04374 0.01499 -0.096539 -0.12098 -0.18057 -0.050151 -0.049656 -0.093323 -0.18859 0.086257 -0.26666 -0.40686 -0.070934 0.29122 -0.049109 0.010422 0.055962 0.098894 0.025407 -0.1024 -0.087532 0.33389 0.024146 0.0698 -0.10908 0.068984 -0.21392 0.0094192 0.2248 0.45842 0.35007 -0.10466 -0.39784 -0.20129 -0.19853 -0.062317 -0.24027 -0.14472 0.16722 -0.022917 0.07309 -0.075423 -0.22215 -0.2007 -0.15501 -0.14292 0.020762 -0.073934 -0.1297 -0.17733 0.00040018 0.37486 -0.23568 0.2873 -0.09412 -0.30545 0.10058 0.13206 0.034703 0.25295 -0.00025812 -0.25604 0.10521 -0.37451 0.054506 -0.3641 0.023067 0.28082 0.075776 -0.0085844 -0.028469 -0.32731 -0.25453 -0.24361 0.14963 -0.018535 -0.046559 0.27258 0.1117 0.044678 0.068228 0.0055006 0.19131 -0.07009 -0.081737 0.29043 -0.063953 -0.21298 -0.098314 0.3272 0.21177 0.0063094 0.18614 -0.026134 -0.19672 -0.19871 -0.23843 -0.13453 -0.16033 0.33616 0.061887 -0.24282 0.041914 -0.058487 0.10543 0.010916 0.0074689 -0.072874 -0.087537 -0.27248 0.32189 0.18007 -0.07637 -0.057976 0.080317 -0.13742 -0.32417 0.23343 0.21642 -0.2611 0.082234 -0.30399 -0.11936 0.14208 -0.052509 -0.25122 -0.22477 0.052094 -0.34903 0.27491 -0.11244 0.29951 0.26191 0.12437 0.30532 -0.061578 0.068883 -0.0021915 -0.069667 0.32008 0.26071 -0.23254 0.076379 -0.20056 0.064546 -0.31387 0.062595 -0.15019 0.33912 -0.0090496 0.36837 0.19216 -0.22625 -0.0082418 -0.11223 0.16118 -0.46052 -0.091179 -0.2101 -0.024787 0.12483 -0.33266 -0.011648 -0.046781 -0.16715 -0.045204 -0.012046 -0.18273 0.027313 -0.052088 -0.12463 0.089849 0.031236 -0.046284 -0.10183 0.015689 0.028505 0.41893 -0.33513 -0.16907 0.081215 -0.31798 0.33488 -0.07572 0.12465 0.19711 0.13179 0.042467 -0.10059 -0.061605 -0.23083 0.55137 -0.16056 0.46969 0.21441 0.20486 -0.14737 -0.072532 -0.062257 -0.027511 -0.13189 -0.40392 -0.018608 -0.43712 0.035436 -0.022148 -0.10226 -0.13832 0.029951 0.3291 
liberal 0.090607 0.36529 -0.19312 -0.25308 -0.033109 -0.1188 -0.33458 0.063354 0.10623 0.017053 0.089328 -0.45124 0.36229 0.053601 -0.02754 0.016722 -0.3191 -0.42605 -0.3777 0.035212 0.09083 0.15125 -0.050783 -0.001745 0.076772 -0.16323 -0.063784 -0.16904 -0.10583 0.4679 0.014489 0.0048005 -0.1126 0.14732 -0.4157 -0.1015 0.18477 0.15661 -0.091867 0.15153 -0.13571 -0.079006 0.026274 -0.18476 0.11025 0.32564 0.20221 -0.12903 -0.013804 0.15212 0.38487 0.0090648 0.069068 -0.078112 -0.043551 0.18201 -0.059005 -0.0027491 -0.23607 -0.29858 0.037092 -0.0071566 0.19578 0.096405 -0.08231 0.12455 0.11042 0.13677 -0.15373 0.014829 -0.20246 -0.13591 0.086614 0.062782 0.15586 -0.093518 0.095772 0.038938 -0.26957 -0.1982 0.025342 -0.048738 -0.16691 0.041296 -0.091853 -0.12832 -0.095145 -0.11604 0.14243 0.10903 -0.097424 0.19277 -0.24189 -0.14014 -0.29761 -0.12605 0.29218 -0.22387 -0.15482 -0.016378 0.0017319 -0.4767 -0.033939 -0.053121 -0.10942 0.025321 -0.073524 -0.072448 0.060892 0.004104 -0.27068 0.25007 0.14362 0.029647 -0.21011 -0.031208 -0.4995 0.073759 0.12451 0.53412 0.24372 0.063341 -0.25336 -0.23129 -0.27841 0.10183 -0.23976 -0.012231 0.27085 0.088145 0.23213 -0.33494 -0.46183 -0.25608 -0.30565 -0.34089 0.01684 0.0019952 -0.11602 -0.17165 -0.25161 0.04116 -0.30917 0.27613 0.017433 -0.22169 0.052068 0.069653 0.19815 0.12321 0.004844 -0.33784 -0.01735 -0.37408 0.21121 -0.34565 0.046829 0.1609 -0.036393 -0.16464 -0.10348 -0.25823 -0.34872 -0.29738 0.37147 -0.053458 -0.1045 0.25769 0.062898 0.12581 0.10178 0.10331 0.31859 -0.019577 -0.093692 -0.15975 0.20224 -0.23101 -0.075848 0.13913 0.036372 0.10395 0.13825 0.063121 0.014421 -0.067676 -0.10752 -0.2503 -0.038857 0.25 0.31258 -0.094815 0.19308 -0.025422 0.10345 -0.037341 0.12154 -0.036495 -0.16208 -0.17097 0.47083 0.36532 -0.085195 0.020242 0.051521 0.083129 -0.14753 0.10452 0.068049 -0.0091868 -0.00172 -0.10529 0.2049 0.29546 -0.08613 -0.39496 -0.14676 -0.35903 -0.31686 0.35388 -0.023758 0.2327 0.26915 0.14196 0.23391 0.019676 0.10334 -0.13497 -0.11415 0.27774 0.041845 -0.22134 0.23839 -0.080588 0.10982 -0.26328 -0.081454 -0.099192 0.19334 -0.2627 0.043125 0.061196 -0.15405 -0.11602 0.054723 0.17562 -0.38208 0.05369 -0.058253 -0.12401 0.19362 -0.24181 0.01149 -0.034489 -0.20122 -0.092529 0.0093997 -0.16565 0.13575 -0.17731 0.16804 0.16131 0.0191 0.041237 -0.17555 -0.13607 0.079564 0.22308 -0.301 -0.10808 0.087299 -0.18933 0.40592 -0.16576 0.27296 0.15096 0.030514 0.27544 0.1983 -0.091117 -0.046274 0.28548 -0.14929 0.43594 0.068681 0.21151 -0.19568 0.024883 -0.12255 0.033272 -0.20332 -0.29354 0.1822 -0.44097 0.30081 0.28203 0.032423 -0.20491 0.18981 0.37296 
good -0.17416 0.15926 -0.16148 -0.039977 -0.099657 0.17113 -0.15669 -0.010151 0.18706 0.1588 -0.11971 -0.064372 0.10525 0.25221 -0.21945 -0.045934 0.14315 0.13017 -0.073385 0.03471 0.02925 -0.040645 -0.17094 -0.031914 -0.14073 0.016793 -0.16378 -0.039733 -0.32424 0.090783 -0.025423 0.14096 0.050933 0.057188 0.11608 0.066583 0.029596 -0.18915 -0.21081 -0.28749 -0.17113 0.012643 0.11435 -0.31525 -0.082045 0.15507 0.015761 -0.089197 -0.21749 -0.10049 0.1834 -0.028259 -0.23143 -0.044201 -0.23486 0.16719 -0.14699 0.11897 -0.044533 0.21743 0.036744 -0.21604 0.089207 0.060042 -0.351 0.26905 0.15401 0.37547 0.011377 0.0103 -0.017329 -0.018642 0.11359 0.070832 0.049536 0.014688 0.26568 0.06663 -0.17661 -0.033615 -0.056174 -0.18165 0.24832 -0.33814 -0.26338 -0.21847 0.055443 0.11473 -0.093589 0.043926 -0.060139 -0.098059 0.24711 -0.064575 -0.14505 -0.11541 -0.11 -0.23908 -0.025743 -0.036964 -0.056413 0.11046 -0.0062308 -0.17838 0.011346 0.12047 0.025257 0.068783 -0.028833 0.12213 -0.30127 0.15387 0.10646 -0.16517 0.28419 -0.26954 -0.28371 -0.040856 -0.29673 -0.1152 0.10693 -0.055379 -0.079481 0.034277 0.15974 0.00015344 0.005882 0.086325 -0.24709 0.11007 0.15346 0.20443 -0.21262 -0.029675 -0.30546 0.20236 -0.10823 -0.28904 0.12557 -0.11196 0.11791 0.051958 0.06342 0.11605 0.07672 0.033011 0.20704 0.0345 0.094293 -0.095681 -0.32611 -0.13105 0.06373 -0.017112 0.12612 -0.20266 -0.031323 -0.028017 0.1193 -0.20375 0.11044 -0.41447 -0.058223 -0.21662 0.32471 -0.10063 -0.050489 -0.20483 -0.039159 -0.26886 0.28818 0.022328 0.087049 0.027829 0.018999 0.14092 0.086767 -0.091707 0.0033263 0.20469 -0.095018 -0.2079 0.098259 -0.080213 0.09455 0.015685 -0.032075 -0.05882 -0.44025 -0.060855 -0.10502 -0.084592 0.10757 0.076313 0.040101 0.13636 -0.093133 0.030751 -0.05603 0.14615 0.24216 0.12168 -0.25207 0.15683 -0.088152 -0.09706 0.11693 0.079763 0.072022 -0.057813 0.12081 -0.14308 0.055195 -0.043797 -0.23986 -0.22905 0.11064 0.2125 -0.054812 0.2605 0.013119 0.18689 -0.053176 0.16275 0.053049 0.069332 0.12024 -0.070683 0.016269 0.080775 0.15873 0.037206 0.31826 -0.10542 -0.11552 -0.10391 -0.12097 -0.19567 0.3405 -0.14851 0.040038 0.050863 -0.15591 -0.15607 -0.10396 0.15919 -0.11725 -0.058141 -0.015634 0.0014237 0.14244 -0.055807 -0.047644 0.03331 -0.09297 0.10779 0.35589 0.11344 0.043093 -0.20089 0.20868 0.064589 0.06677 0.0032134 -0.10295 0.11812 0.024293 -0.095011 -0.19627 -0.018019 0.038754 -0.12616 0.090741 -0.17358 0.14025 -0.16916 0.16502 0.35847 0.11964 -0.080442 0.19395 0.337 -0.050962 -0.11655 -0.082951 -0.26978 0.069547 0.13944 0.14015 0.17826 -0.01448 0.068827 0.11478 0.085038 0.059229 -0.10142 0.0085801 -0.013934 -0.27635 0.14858 
bad -0.19931 0.10521 -0.07457 0.23225 -0.040549 0.14715 -0.031882 -0.20638 0.23219 0.13524 -0.25712 0.074775 0.09448 0.19193 -0.15024 -0.0045901 0.15481 -0.079699 0.059892 0.059968 0.011039 0.098307 -0.12108 0.21672 -0.034677 0.12684 0.032936 -0.1193 -0.33236 0.10054 -0.0067356 0.10491 -0.025958 0.0014471 -0.03568 0.03989 0.012795 -0.15053 -0.18329 -0.22157 -0.20806 -0.14638 0.14497 -0.17827 -0.14056 -0.042416 -0.080649 0.073611 -0.094603 -0.0145 0.20588 0.045535 -0.14255 -0.143 -0.19937 0.29203 -0.088824 -0.054389 -0.025762 -0.036006 0.29622 -0.19654 0.29283 0.07604 -0.32793 0.21861 -0.14119 0.3114 0.024992 0.12527 -0.09654 0.053354 0.10757 -0.050724 -0.00059507 0.17679 0.17036 0.11246 -0.089363 -0.17165 -0.25212 -0.15971 0.11324 -0.30164 -0.23702 -0.32793 -0.18643 -0.046425 -0.050797 0.053214 -0.13115 -0.14588 0.22183 -0.013862 -0.26062 -0.064912 -0.086646 -0.21873 -0.16294 -0.18113 -0.12995 -0.15901 0.078029 -0.19023 -0.031592 0.030779 0.12761 0.15814 -0.025353 0.11097 -0.27152 0.073002 0.14315 -0.036609 0.37182 -0.35587 -0.41274 -0.23857 -0.25803 0.06873 -0.063694 0.041555 -0.21957 0.031012 0.19198 -0.1409 0.048069 0.14179 -0.11746 0.16919 0.25142 0.27232 -0.063201 0.038836 -0.31154 0.023403 0.038382 -0.17493 -0.084802 -0.10685 -0.0062652 -0.023459 0.065772 0.17565 0.23066 0.0819 0.10937 0.19185 0.10607 -0.12096 -0.31016 -0.083048 -0.098067 0.084215 0.033747 -0.14873 -0.020364 -0.061681 0.20596 -0.34355 0.19071 -0.3622 0.0057642 -0.075891 0.34303 0.092137 -0.035026 -0.17427 0.061538 -0.2382 0.27217 -0.085171 0.16815 -0.10702 0.16283 0.099813 -0.016368 -0.13544 0.13542 0.19916 -0.24368 -0.076779 0.029918 -0.13066 0.29693 0.12392 0.075358 -0.20637 -0.48758 -0.010737 -0.04896 0.085296 -0.0011419 -0.19121 -0.03067 0.14716 -0.022898 -0.17218 0.26768 0.161 0.28249 0.17156 -0.29641 0.10843 -0.13279 0.15021 0.26984 0.031897 0.0033 -0.055065 0.044446 -0.32465 0.014347 0.073509 -0.3378 0.02369 0.10331 0.18176 0.081394 0.42377 0.038923 0.19238 -0.10215 0.11904 0.13575 -0.026952 -0.066729 0.11579 -0.083746 -0.050382 0.12891 -0.044872 0.41648 -0.10691 -0.35055 -0.17921 -0.060974 -0.2023 0.27813 -0.19265 -0.13301 -0.10204 -0.20394 -0.24801 -0.083389 0.063305 -0.2303 -0.010951 0.024401 -0.12333 -0.038989 -0.0684 -0.031993 0.085541 -0.16834 0.11173 0.39606 0.1061 -0.14214 -0.04712 0.26911 -0.080368 0.13478 -0.082961 -0.11651 0.17881 -0.05095 -0.14117 -0.10421 0.0011704 0.15424 -0.14835 0.10815 -0.19106 0.21602 -0.24764 0.10208 0.32643 -0.054012 -0.23516 0.33701 0.17646 -0.064672 -0.19213 0.10898 -0.12703 0.13045 0.32218 0.092046 0.009581 0.13011 0.22171 0.096972 -0.11912 0.079704 -0.10432 -0.15031 -0.052694 -0.246 0.022444 
obama -0.056733 -0.058515 0.059112 0.014398 0.15521 -0.22407 -0.26613 -0.11639 -0.188 0.10567 0.015897 0.048297 0.081954 0.27511 0.049461 0.15293 -0.23303 -0.13044 0.11438 0.084398 -0.080277 -0.013796 -0.13829 0.14618 -0.26663 0.13621 0.030662 0.061752 -0.041031 0.19428 -0.075481 0.063445 0.052881 -0.14094 -0.086833 0.052234 -0.0652 0.073711 0.12275 -0.19026 0.019382 0.096438 0.15999 -0.16101 -0.20358 0.17115 -0.037101 -0.47515 0.18291 0.0051369 0.16194 -0.1462 -0.26917 -0.1764 -0.041287 0.12803 -0.40664 0.16189 -0.33078 -0.25023 0.32314 -0.058716 0.020898 -0.12835 -0.19913 0.18791 -0.0086389 0.15003 0.39977 -0.049245 -0.055866 -0.016189 0.18045 0.064781 0.1283 0.088338 -0.0039009 0.018827 0.16968 -0.19545 -0.010538 -0.18448 -0.13097 0.035411 0.39141 -0.25109 -0.11929 -0.019392 0.25194 0.12185 0.013843 -0.0048512 0.20518 -0.16598 0.31796 0.057818 0.034068 -0.078055 -0.17952 -0.245 -0.0534 -0.074205 0.082901 0.1098 -0.16573 -0.20317 -0.26142 0.045405 0.01773 0.049066 -0.14871 0.056792 0.15909 -0.099816 0.23796 0.16865 -0.13152 0.11223 -0.044653 0.25079 0.49734 -0.15998 -0.13796 -0.30129 0.3583 -0.088837 0.047928 -0.07761 -0.16074 0.27793 -0.023396 -0.32832 -0.34671 -0.035153 0.045138 0.0078466 0.0071465 0.17757 -0.17205 -0.042498 0.1372 0.22174 -0.2208 -0.010374 0.092047 0.048094 0.022554 0.54655 -0.043295 0.018571 -0.24235 -0.1565 0.02351 -0.065462 0.23184 0.024074 -0.17872 0.025695 0.1984 -0.11784 -0.081513 0.020638 0.10372 0.064497 0.32034 -0.028816 -0.34283 0.44724 -0.097114 -0.088406 -0.066923 0.090259 0.23471 0.012201 -0.045779 -0.15053 -0.065464 0.20734 -0.053726 0.072945 -0.14839 -0.12127 -0.18364 0.095098 0.1673 0.25198 0.21634 0.17727 -0.15278 0.25059 -0.2269 0.06419 0.19383 -0.21487 -0.056541 -0.16617 -0.22657 0.075109 -0.14141 -0.037709 0.34158 0.08598 -0.063725 0.07551 0.13246 -0.021489 0.16687 0.12903 0.13806 0.17636 -0.17166 0.1571 0.11644 0.026758 -0.18687 -0.54566 0.031561 0.31055 -0.16132 0.13115 0.077966 0.017152 0.20103 0.13917 -0.041837 0.024319 -0.08813 -0.025717 0.18638 0.41129 -0.080604 0.26289 0.3301 -0.068882 0.011154 0.10475 -0.041978 -0.34057 0.071974 0.02731 0.12486 0.0006127 -0.059259 0.10787 -0.20717 0.20686 0.17377 -0.12669 0.32657 -0.20362 0.15784 -0.16566 -0.0051306 -0.0029455 0.044005 -0.20482 0.13206 0.19463 0.049808 -0.28986 -0.074247 0.069368 -0.013712 -0.075829 0.21168 0.22462 0.066105 -0.16984 -0.024419 0.14967 0.14144 -0.080105 0.12455 -0.014564 0.18481 0.2566 0.12373 0.063068 -0.16523 -0.1455 -0.19766 0.25751 0.12094 -0.14789 -0.13171 0.22864 -0.19758 0.14605 0.065283 0.43716 0.1459 -0.2909 0.05386 0.11208 0.051819 -0.13528 -0.26093 0.30031 -0.26375 0.34087 
sessions -0.081669 0.44212 -0.087372 -0.048624 0.40276 -0.32158 -0.15571 0.2209 0.40318 0.2239 0.062959 0.065376 0.23669 0.10049 -0.002014 0.13574 -0.3698 -0.20722 0.33513 0.1372 -0.13903 0.27976 -0.11822 0.00036774 -0.40575 -0.029677 -0.30584 -0.42815 -0.3166 -0.033592 -0.1997 0.30187 -0.25323 -0.093032 0.15725 -0.077471 -0.26742 -0.1283 0.12694 -0.30413 -0.29736 -0.089648 0.068467 0.50019 0.0603 -0.12311 0.26195 -0.27924 0.13117 0.035088 -0.034753 -0.33355 -0.13401 -0.067581 -0.084306 -0.11941 -0.28063 0.23274 0.11716 -0.30526 -0.038182 0.037595 0.040525 0.2821 0.049735 0.28357 0.057673 0.083735 0.040034 -0.13827 -0.2405 -0.061342 0.18182 -0.48912 0.16413 -0.25604 0.00015606 0.33345 -0.064155 -0.062704 -0.11624 0.23715 -0.166 -0.08573 -0.09999 -0.083332 -0.31339 0.010261 0.021035 0.31925 0.20996 -0.15173 0.17285 -0.19952 -0.29607 -0.074928 -0.2191 -0.19316 -0.36878 -0.21425 0.26176 0.017661 -0.024356 -0.13404 0.0096545 0.2901 -0.25536 -0.25658 0.28504 0.056332 -0.12 0.13218 0.23255 0.42703 0.26337 0.022553 0.19884 0.014546 -0.078428 0.033318 0.18557 -0.21692 -0.26169 0.023843 -0.039231 0.045762 -0.0047419 0.43221 -0.25388 0.28847 0.15749 -0.30097 -0.48796 -0.022395 0.028482 0.13991 -0.21405 -0.12684 -0.26191 -0.23637 -0.1371 0.058941 -0.31041 0.12058 -0.09542 -0.013588 -0.064651 -0.093031 0.064596 -0.10048 -0.0717 -0.012171 0.039018 -0.22679 0.24466 -0.34311 -0.014006 -0.17522 0.171 0.014367 0.16752 -0.29715 -0.32024 0.063276 -0.0082024 0.099813 0.028299 0.10449 0.10965 -0.032755 0.078426 -0.10657 0.074509 -0.094276 -0.26249 0.077697 0.083288 0.00068524 -0.37849 0.29907 0.02648 -0.060353 -0.29588 0.16426 0.032703 -0.38797 -0.26719 0.003939 0.37825 -0.27105 0.063637 -0.070684 -0.18652 0.05704 -0.039274 -0.042014 -0.13495 0.090941 -0.052211 -0.13236 0.29351 0.39119 0.039121 0.12589 -0.00062332 0.21259 -0.39178 0.22065 0.21446 -0.183 0.17202 0.048981 -0.22754 -0.030854 -0.14446 -0.024717 -0.11841 0.3559 0.20901 0.078603 0.12096 -0.52291 0.0807 0.02871 -0.18461 0.11823 -0.16823 0.11189 -0.011825 -0.062997 0.48667 0.20425 0.088891 -0.13588 -0.29426 0.035911 0.077249 -0.2163 -0.042736 0.075709 0.24335 0.15312 0.048485 0.24473 -0.009586 -0.14964 -0.13072 0.044165 0.2695 0.063916 0.37469 -0.095343 0.057105 0.040976 -0.048349 0.026669 0.21261 0.019903 -0.13037 0.029233 -0.27217 0.030652 -0.1816 -0.16335 -0.030444 0.13621 -0.02496 0.37525 0.26012 0.10896 0.11408 0.10914 0.097738 -0.066676 -0.080776 -0.19378 0.057505 0.16791 -0.15993 -0.59647 0.14915 0.53604 -0.48106 -0.063864 -0.045088 -0.20118 -0.25364 0.21752 0.40594 0.24053 -0.2207 -0.33652 0.13046 -0.43742 -0.081939 -0.26368 0.093327 0.022913 0.024493 0.21881 
shelby -0.19023 -0.21615 -0.077666 -0.28746 0.24035 -0.0935 -0.058115 0.022503 0.098252 0.5257 -0.27848 -0.027276 0.25633 0.049478 0.42869 0.30904 -0.34047 -0.19131 0.27354 -0.18004 0.096415 0.35577 -0.15686 0.065972 -0.49141 -0.17216 -0.25863 -0.14817 0.029186 -0.043986 -0.30774 0.35567 -0.21167 0.28092 -0.041039 0.25925 0.34531 0.055221 -0.37022 0.017156 -0.28517 0.078225 -0.22962 -0.24185 0.036829 -0.021689 0.14736 -0.18102 0.13246 -0.052018 0.48874 -0.28965 -0.25584 -0.045105 0.42874 -0.14686 0.10277 -0.12348 -0.14195 -0.20266 -0.13322 0.23065 0.20955 0.14504 -0.24399 0.20511 0.11196 -0.11872 0.24381 -0.23575 -0.34268 0.48254 0.17785 -0.31961 -0.016695 0.077695 0.093319 0.15838 0.074178 0.18451 -0.016388 -0.52893 -0.1684 0.016629 0.27024 -0.28497 -0.50062 -0.015004 0.015433 0.38004 -0.14644 0.1241 0.30508 0.12893 0.26747 0.15855 -0.35717 0.058315 -0.29059 0.094022 0.10742 -0.34808 -0.021376 0.3769 -0.1346 0.014965 -0.31851 -0.21627 -0.10154 0.24133 -0.055568 -0.0067641 -0.18369 -0.49408 -0.057747 0.011428 -0.069612 0.10548 -0.096915 0.27739 0.19513 -0.37789 -0.56336 -0.057233 0.047311 -0.23055 0.14309 -0.26779 -0.27936 -0.13195 0.096439 -0.15716 -0.41049 0.19773 -0.23808 -0.10194 -0.29595 -0.28319 -0.069216 -0.17183 0.0020155 0.17198 -0.083034 -0.033433 -0.26689 0.07492 -0.30216 0.07286 -0.14971 -0.20344 0.19121 -0.048715 -0.3372 -0.41573 0.22831 -0.47338 0.010032 -0.23968 -0.010642 0.18009 0.0030024 0.19295 0.18022 -0.22653 -0.15107 -0.017432 0.18805 -0.17587 -0.20834 -0.20829 -0.026511 -0.15081 -0.17723 -0.17763 0.037601 -0.067885 -0.020752 -0.10982 -0.019458 -0.03111 0.036238 -0.031103 0.076458 0.4747 0.30359 -0.13505 0.015244 0.26614 0.10663 -0.052591 -0.20918 -0.048858 0.11482 -0.35336 -0.0005779 -0.0074881 -0.038449 -0.12845 -0.10859 -0.12366 0.17288 0.33145 0.27318 -0.096436 0.12686 0.33511 -0.064089 0.50429 -0.076428 -0.16729 0.0071752 0.063244 -0.1362 0.23163 -0.27564 -0.050757 -0.050049 0.44024 0.3212 0.21447 -0.23659 -0.016377 0.41899 -0.097858 -0.37923 0.48435 -0.22634 -0.082605 0.10244 0.2488 0.50553 0.22282 0.34177 -0.36023 0.01935 -0.31271 -0.25777 -0.52617 -0.015584 0.097681 0.26067 -0.497 0.16929 0.40506 -0.31071 -0.18839 -0.44841 -0.053825 -0.067856 -0.19574 -0.0014038 -0.25996 -0.079169 0.34953 0.071602 -0.23857 0.43035 -0.20127 -0.41661 -0.16342 -0.16489 0.044754 -0.54634 0.24563 -0.16364 0.18911 -0.09881 0.30804 -0.156 -0.081239 0.066644 -0.23198 0.44193 -0.25716 -0.43099 -0.11016 0.015242 0.15578 -0.44105 -0.0775 0.071542 0.10305 -0.16169 -0.09135 -0.021842 0.10948 0.14119 0.28462 -0.1491 0.23405 -0.02571 -0.36548 0.1017 -0.25288 0.30954 -0.23144 0.23023 0.14733 0.0049278 0.31888 
murkowski -0.008324 -0.29096 -0.3004 -0.1116 -0.21959 -0.15786 -0.05373 0.35494 0.057609 -0.1848 0.10226 0.068684 0.33466 0.19942 0.41366 0.023917 -0.26396 0.27294 0.26983 0.31514 0.084284 0.26412 0.027755 0.084362 -0.2435 0.079709 0.13402 -0.27564 -0.24513 0.3015 0.026262 0.36762 0.40643 -0.25875 -0.27824 0.15894 0.024602 -0.21804 -0.13966 -0.2924 -0.1689 0.034401 -0.29379 -0.067956 -0.094314 0.14269 0.0030723 -0.21465 -0.011384 -0.55314 0.39852 -0.36818 -0.35458 -0.092476 0.38831 -0.216 0.28601 0.25042 -0.3682 -0.098452 -0.11436 0.23444 0.11255 -0.18798 -0.016407 0.30772 -0.22169 -0.19854 0.47998 -0.0026933 -0.13813 0.41992 0.16428 0.057131 0.45532 -0.13653 -0.057373 0.24795 -0.1649 0.0009715 -0.034406 -0.52328 -0.033048 -0.25887 -0.057464 0.5203 0.078391 -0.10991 -0.054336 0.21118 0.081816 0.0059131 0.07859 -0.16613 0.04619 0.11436 0.33363 -0.08088 -0.06248 -0.27502 0.40608 -0.13569 -0.09417 0.24725 0.36678 -0.15721 -0.13835 -0.047678 0.37148 0.52436 -0.42614 0.12947 -0.2803 -0.16638 0.36235 0.079786 -0.14066 0.19653 -0.32899 -0.049786 0.25602 0.33721 -0.26663 0.01827 0.29451 0.16298 -0.06117 -0.62498 -0.25722 -0.33997 0.2067 0.051586 -0.23156 0.38308 -0.3391 0.093121 0.10366 0.3229 0.080338 -0.37283 0.511 -0.30339 0.0036312 -0.33423 0.062025 -0.2265 -0.44239 0.3352 -0.20548 0.24636 -0.043746 -0.14393 0.0046265 -0.36841 -0.045713 -0.15622 0.066766 0.21639 0.37824 0.1664 0.48283 -0.041245 0.17399 0.39403 -0.018195 0.21384 -0.0037906 0.079618 -0.090452 0.35455 -0.18345 0.01518 -0.020949 0.33135 0.14444 -0.21381 -0.49642 0.14558 -0.075504 -0.0079213 0.0093796 -0.14108 -0.44173 0.29703 -0.36544 -0.44883 -0.016403 0.38175 0.010516 0.20267 -0.35875 -0.43267 0.2632 -0.40106 -0.40871 0.17285 -0.29824 0.4207 0.016119 -0.46016 0.13869 0.23175 -0.018423 -0.092812 -0.34488 0.35247 -0.043913 0.33293 0.28307 0.053237 -0.16229 -0.49533 0.051868 0.42353 -0.23375 -0.70385 -0.11611 0.24873 -0.02451 0.12567 0.049553 0.019403 0.62376 0.24408 -0.17855 0.42946 -0.11462 0.48346 -0.36139 0.071858 0.38911 0.50303 0.2559 -0.65846 -0.19704 -0.35391 -0.099758 -0.45892 -0.27542 0.32049 0.22756 -0.24823 -0.11371 0.0056718 -0.48357 0.41844 -0.092677 -0.28773 -0.1676 -0.54442 -0.10989 -0.36692 -0.33133 -0.037976 0.088362 -0.71025 -0.31669 0.27539 -0.40696 0.14997 -0.29845 -0.2088 -0.23527 0.14222 -0.007766 0.41152 -0.36962 0.30188 0.43745 -0.21427 -0.077638 0.24687 0.47574 -0.49689 -0.20277 0.69669 -0.046904 0.58736 -0.0031573 0.51503 -0.31503 0.21613 -0.29649 0.16841 0.34044 0.17837 0.10772 0.57157 0.042147 0.27391 -0.30087 -0.59821 0.08512 -0.26754 -0.054463 0.094308 0.35193 0.14164 -0.30262 0.35743 
begich -0.14334 -0.21076 0.070591 -0.14371 -0.35791 -0.13242 -0.33436 0.089329 -0.1946 0.033738 -0.35132 -0.094199 0.10566 0.35165 0.13409 0.37847 -0.60696 0.18931 0.10621 0.13329 -0.38223 0.33959 0.2595 -0.043287 -0.26709 0.14696 0.44582 -0.26261 0.18193 0.33092 -0.058608 0.46485 0.1716 -0.12781 -0.21969 0.18487 0.010897 0.085289 -0.42645 0.0077695 -0.25282 0.82411 0.03084 -0.42397 0.10062 0.064352 -0.36356 0.040905 0.19476 -0.22417 -0.17027 -0.58732 -0.16877 0.1511 0.13555 -0.13893 0.03653 0.41868 -0.28579 -0.22656 0.20379 0.073787 0.028785 0.27281 0.26259 0.48587 -0.47391 0.08725 0.5453 -0.03456 -0.44696 0.27094 0.13155 -0.078245 0.44364 -0.080796 0.49505 0.17427 -0.21346 0.0063426 -0.19791 -0.16076 0.28342 -0.091561 0.29956 0.31106 0.18792 -0.035718 -0.067119 0.17866 0.2969 -0.0058887 -0.064788 0.31139 -0.21214 0.082232 0.48855 -0.35662 -0.10121 -0.10934 0.051965 -0.2369 -0.21539 0.28364 0.5358 -0.16374 0.19021 0.13115 0.4817 0.40657 -0.42098 -0.33748 -0.40249 -0.24557 0.31645 0.089276 -0.021325 0.099024 0.018841 0.042928 1.0515 0.27891 0.22086 -0.20491 0.14131 0.47248 -0.008587 -0.37183 -0.037406 0.11523 0.036883 -0.19371 0.16404 0.20315 -0.611 -0.20979 -0.056912 0.25388 0.030798 -0.38818 0.15697 -0.13369 -0.36831 0.002658 0.27015 -0.36226 -0.25774 0.63551 -0.36479 -0.070956 -0.14231 -0.30548 -0.28721 -0.57792 0.45787 -0.18334 -0.17299 0.48849 0.51781 -0.081691 0.21121 0.0058415 0.2541 0.15363 0.12293 -0.1253 0.2623 0.41615 0.040017 0.4018 0.12774 0.20016 -0.13563 -0.26868 -0.024789 -0.4188 -0.33488 -0.0021262 -0.06003 0.031629 0.097455 -0.085947 -0.3323 0.23682 -0.20474 -0.37427 0.15874 0.27332 0.21903 0.24755 -0.38279 -0.36465 0.199 -0.54511 -1.0176 0.022379 -0.27885 0.41974 -0.11539 0.26898 0.0065385 0.12999 0.16961 0.028111 -0.38524 -0.1088 0.21709 0.062003 0.55654 0.14916 0.029041 -0.13499 0.26646 0.11834 -0.15044 -0.73894 -0.32599 -0.031281 0.13991 0.095331 -0.072445 0.40335 0.72639 0.51169 -0.31233 0.20708 -0.46158 0.0063529 -0.26667 0.20365 0.55214 0.25034 0.32568 -0.66595 -0.33716 -0.45655 -0.25147 -0.35092 0.040392 0.069273 0.23602 -0.085003 -0.15577 0.10198 -0.06333 0.7182 -0.34171 -0.21604 -0.032359 -0.60904 0.31385 -0.27701 0.14019 -0.28271 0.27342 -0.71759 0.014699 0.16223 -0.079944 0.1809 -0.19036 -0.36968 -0.15257 -0.036513 -0.069002 0.47038 -0.47221 0.067282 0.26173 0.053734 0.36675 -0.14386 0.36915 -0.25832 0.16331 0.14074 -0.058088 0.63603 -0.31331 0.030308 -0.12823 0.067783 -0.45736 0.32587 0.019012 0.018376 -0.11629 -0.093656 0.033708 0.40936 -0.14318 -0.056359 0.40847 -0.47188 0.24576 0.16743 0.17726 0.10884 -0.61831 0.50509 
mccain -0.023866 -0.3333 -0.17473 -0.20652 -0.020352 -0.075869 -0.36342 -0.003788 0.30011 0.12442 0.0065001 -0.28008 0.35509 0.24515 -0.10729 0.069979 -0.21316 0.17349 0.12649 -0.00059309 0.052829 0.099441 -0.071503 0.39452 -0.24034 -0.016742 -0.16375 -0.26758 0.28579 -0.049196 -0.16992 0.11331 0.13792 -0.22456 -0.14603 0.0024771 -0.0073693 0.072169 -0.061009 -0.28285 -0.45614 0.086777 -0.24953 -0.44234 -0.53706 0.26915 -0.084033 -0.040083 0.04011 -0.28927 0.36802 -0.17648 0.026453 0.09109 0.11898 0.33508 -0.14986 0.25437 -0.4608 -0.21995 -0.09443 0.037386 -0.069788 0.19395 -0.29669 0.33768 -0.14381 0.036875 0.29963 0.11762 -0.11875 -0.059033 0.26488 -0.30097 0.2942 -0.053208 -0.04817 -0.064779 -0.17086 0.15252 -0.1541 -0.50979 0.054883 -0.21885 0.25721 0.06631 -0.22769 0.094909 0.013284 0.0049163 0.23008 -0.19318 0.056632 -0.27336 0.034415 0.054547 0.050035 -0.25534 -0.077203 -0.2203 0.26157 -0.12738 0.18602 0.22484 -0.22662 -0.085986 -0.1745 0.084258 0.24103 0.27463 -0.022413 0.13084 -0.23178 0.051488 0.21189 0.16385 -0.13194 0.038595 -0.10906 -0.048583 0.27498 -0.048279 -0.62066 -0.0062718 0.091322 -0.10204 -0.21656 -0.0027064 -0.11584 0.14439 0.060519 -0.61816 -0.22641 0.35809 -0.047882 0.13607 -0.080072 0.17811 -0.016496 -0.16001 0.32526 0.01728 0.047144 -0.044621 0.37751 0.014756 -0.23537 0.091024 -0.045623 0.25526 -0.20509 -0.073103 0.0046671 -0.41931 0.25238 -0.040742 -0.040756 -0.09907 0.18858 0.13473 0.24196 -0.11221 -0.10829 0.059388 0.0709 0.024222 -0.20595 0.28696 0.080247 -0.1622 -0.070932 -0.070125 0.40982 0.013001 -0.29262 -0.0061668 -0.022487 0.13513 -0.12602 -0.080338 -0.18174 -0.12424 -0.11896 0.16074 0.17576 -0.0146 -0.16898 -0.037058 -0.17559 0.16301 -0.29678 -0.19515 0.13151 -0.51728 -0.12766 -0.02431 -0.049276 0.20789 -0.059404 -0.32721 -0.039271 -0.079576 -0.28761 -0.33093 0.083304 -0.07997 -0.18794 0.10106 0.43713 0.067826 -0.060781 -0.20329 0.2303 0.2608 -0.31759 -0.50747 -0.0086417 0.25999 -0.012977 -0.002649 0.096925 0.30078 0.33973 -0.088672 -0.1262 0.040549 -0.29103 0.081508 -0.020112 0.19681 0.28295 -0.019656 0.25492 -0.30609 -0.16262 -0.17835 0.054601 -0.28389 0.013807 0.025582 0.41056 0.055588 -0.050614 0.0059889 -0.037363 0.41683 0.12192 -0.030058 0.11153 -0.35988 0.32913 -0.37607 0.18826 -0.06516 0.099348 -0.52087 0.16783 0.32471 0.068329 0.16132 -0.27896 -0.19446 -0.18739 -0.097089 0.068722 0.2881 0.13959 0.0084755 -0.040832 0.12991 0.34347 -0.13077 0.17847 -0.14154 0.30244 0.23263 0.030467 0.37293 -0.47646 0.13995 0.057242 0.10911 0.15737 -0.32613 -0.22469 0.1253 0.21047 -0.075981 -0.3147 -0.009857 0.057097 -0.12241 -0.0082684 -0.054527 0.083971 -0.10755 -0.1754 0.35251 -0.30523 0.49747 
flake 0.15885 -0.10686 -0.41069 -0.0011899 0.016468 0.25937 0.095933 -0.10122 0.038375 0.24258 -0.13251 0.10576 0.12999 0.13322 -0.18623 0.43133 -0.16353 -0.23078 0.47447 -0.22609 -0.16197 0.0052129 0.031019 0.31823 -0.26603 0.1398 0.16953 -0.32729 -0.20372 0.031377 0.25171 0.30497 0.20591 -0.35968 -0.52389 -0.44866 -0.14465 0.44305 -0.33171 -0.23015 0.16886 0.013194 -0.092907 -0.1776 -0.46374 0.11561 -0.085425 0.10839 0.31481 0.0252 -0.020305 -0.58175 -0.049559 0.096818 0.26806 -0.14047 -0.15061 -0.17057 -0.099177 -0.22141 -0.053914 0.089138 -0.037391 0.40963 0.11299 0.20211 -0.31429 0.13528 0.27385 0.2762 -0.33099 -0.39423 0.49314 -0.20818 0.47386 -0.18681 0.3935 -0.053265 -0.3025 0.25337 -0.063258 -0.031999 0.28515 0.007056 0.068849 0.2519 0.19154 0.031755 -0.26227 0.27198 0.35839 -0.039304 0.028712 -0.33625 0.33167 0.086314 -0.17254 -0.38893 -0.18335 -0.33047 0.072411 -0.40999 -0.24191 -0.042434 -0.10756 0.21008 0.38043 0.089785 -0.25377 0.096825 -0.21853 0.19642 -0.3205 -0.1272 0.29153 0.010899 -0.29651 0.06929 -0.31105 0.15738 0.1603 -0.28927 -0.41318 -0.1653 0.35189 -0.033131 -0.14457 0.35402 -0.061227 0.45414 0.20728 -0.30444 -0.23285 0.4762 -0.0058879 0.014082 -0.35761 0.12722 0.13282 0.30602 0.20095 -0.039752 -0.38152 0.06177 0.14695 -0.22252 -0.28664 0.30542 -0.25073 0.12024 -0.28012 -0.25099 0.39925 -0.16664 0.40161 -0.66786 0.30275 0.060989 -0.071073 -0.069587 0.017507 0.014135 -0.065955 -0.062966 0.149 0.069239 -0.0059674 0.10305 -0.12002 -0.10585 -0.12172 0.066459 -0.012694 -0.016007 -0.053761 0.023569 0.029034 0.0084682 -0.0042988 0.037871 0.12505 -0.074258 -0.34891 -0.261 -0.24904 -0.40394 -0.008158 0.31408 -0.048772 -0.20557 -0.01955 0.26889 0.24212 -0.65239 0.031339 -0.30231 -0.1231 0.22496 -0.27199 -0.27316 0.28515 0.019244 -0.26477 -0.11452 0.23755 0.38191 -0.045065 0.30758 0.63047 0.07944 -0.18346 0.061051 0.099478 0.3103 -0.25455 -0.3426 -0.10263 -0.041309 0.088626 0.10847 -0.24233 0.63413 0.26608 0.083284 -0.089436 0.32126 -0.064481 -0.043174 0.2163 0.58471 0.32022 0.15507 0.023748 -0.13984 -0.25397 -0.30247 -0.20534 -0.33585 0.1256 0.028953 0.45489 -0.1282 -0.13502 0.14322 -0.53888 0.079378 -0.3632 0.07557 -0.23024 -0.2456 0.28995 -0.11751 0.3051 0.25533 -0.19108 -0.26194 0.46008 0.14815 -0.52288 0.12052 -0.093048 0.076442 -0.39483 -0.066169 0.54436 -0.14663 0.20509 0.00026941 0.17088 0.17174 0.50265 -0.071498 0.034611 -0.1776 0.080249 -0.27665 -0.20632 0.31498 -0.34046 0.4592 -0.17719 0.24061 -0.36083 -0.07869 -0.15705 0.088326 0.27942 0.13798 0.027162 0.33555 -0.019984 -0.61811 0.094733 -0.070206 0.055737 0.13372 0.061365 0.14921 -0.17907 0.42436 
boozman -0.13951 -0.1281 -0.16584 0.081336 -0.33245 -0.23497 -0.11332 0.014381 0.2614 -0.00072517 0.20046 0.019288 0.21134 0.048305 0.26943 0.094184 -0.34125 -0.25631 0.26272 -0.13337 -0.19406 0.28716 -0.60609 0.59577 -0.27627 0.10934 -0.093935 -0.7213 0.31974 0.6273 0.26646 0.42242 0.55252 0.22765 0.08127 0.29592 -0.082055 -0.0053217 -0.098457 0.053674 0.24707 0.16009 -0.23941 -0.0049137 -0.18959 0.17483 -0.24533 -0.14324 -0.081985 -0.0835 0.13541 -0.62213 -0.19083 0.13246 0.54757 -0.20507 -0.035983 0.39768 -0.12777 -0.74644 -0.32364 0.11088 0.18824 0.067686 -0.26804 0.5258 0.022474 0.20258 0.39567 -0.079988 -0.30063 -0.031813 0.66851 0.14148 0.19681 0.022744 0.3716 0.087952 -0.3897 0.10019 -0.085671 -0.3507 0.36648 -0.10636 0.33122 0.058558 0.03453 -0.20776 -0.020682 0.35402 0.33556 0.15659 -0.13053 -0.10323 0.083547 0.32544 0.39365 -0.32861 -0.51445 -0.22693 0.51125 -0.52669 0.078424 0.064483 -0.21719 0.10631 0.022539 -0.31204 -0.19835 0.47019 0.15215 0.15641 -0.16588 -0.22858 0.32822 0.22538 0.20987 0.41814 -0.64412 -0.19587 0.46391 0.19277 -0.68656 -0.15244 0.091479 0.12025 0.059079 0.013031 0.14857 0.26809 0.20918 -0.02512 -0.53436 0.37143 -0.31781 -0.077481 0.26325 -0.19994 0.18228 -0.30918 -0.023508 0.22305 -0.23124 -0.52406 -0.18789 0.21563 -0.60349 0.56578 -0.029512 0.38987 -0.040859 -0.27094 0.14575 -0.043843 0.31349 -0.28463 0.13113 0.045192 -0.13211 -0.27342 0.1718 0.32033 0.10845 0.053552 0.068607 0.18911 0.10798 0.25093 0.070396 -0.0040121 -0.23747 0.16068 0.44392 0.27756 -0.0014463 0.011066 0.10397 0.060665 -0.15592 -0.35246 0.31593 -0.46755 -0.049112 0.15695 0.24203 -0.24052 -0.12121 0.028023 -0.11765 0.044642 -0.42244 -0.14744 0.29326 -0.64423 -0.012292 -0.19627 -0.52826 -0.11751 -0.42671 -0.3836 0.13607 0.10513 -0.077211 0.068915 -0.41747 0.2876 -0.086272 0.27848 0.12269 0.2943 -0.068442 -0.050904 0.41633 0.3806 0.14674 -0.46635 -0.31827 0.4758 0.18188 -0.14353 -0.072775 0.26678 0.36775 0.32951 -0.14253 0.11835 0.36037 0.14817 0.12624 0.36177 0.75676 -0.090439 0.17417 -0.37375 -0.087762 -0.24554 -0.25576 -0.81049 0.11663 -0.034214 0.15403 -0.12656 0.20734 0.17949 -0.26058 0.56707 -0.15969 0.08976 0.19519 -0.44915 0.2822 -0.65803 0.10341 0.35883 0.19658 -0.73855 0.41971 -0.2139 -0.20481 0.33587 -0.01742 0.051315 -0.15991 -0.11038 -0.27547 0.39276 0.21297 0.22998 0.17399 0.52851 0.37054 -0.072371 0.10177 -0.15551 0.15165 0.23726 -0.063533 0.5921 -0.49519 -0.23367 0.097723 -0.41153 -0.16444 0.56066 -0.10385 -0.19106 -0.16503 0.24137 -0.2803 0.38657 0.010447 -0.17523 0.13927 -0.2835 0.15197 0.19503 0.2238 -0.031577 -0.48352 0.54148 
pryor -0.013069 0.012746 -0.2731 -0.081373 0.13621 -0.11955 0.024728 0.31684 0.42196 0.30256 -0.065188 -0.33154 0.10443 -0.11269 0.17088 0.48978 -0.45889 -0.070017 0.39115 0.060929 -0.21051 0.11739 0.24185 -0.011984 -0.5846 -0.19718 0.28403 -0.080572 -0.20409 0.26545 -0.14313 0.53089 0.098887 -0.062946 -0.099302 0.095537 0.22431 0.21559 -0.46735 -0.22393 -0.19239 0.25971 -0.013722 -0.39294 -0.14616 0.066887 -0.30021 0.22698 -0.097585 -0.37748 0.26164 -0.017299 -0.25017 -0.23692 0.11491 -0.074717 0.13348 0.37776 -0.16769 -0.4343 0.10001 -0.0094533 0.39032 0.18128 -0.3024 0.40757 -0.24164 -0.20898 0.090633 0.039736 -0.35692 0.31089 0.01119 -0.16532 0.066085 0.052215 0.22032 0.036198 -0.041933 0.16225 0.095101 0.0027064 0.057466 -0.34867 0.069267 0.081926 -0.11373 -0.16913 -0.3998 -0.20438 0.027338 -0.22132 -0.019073 0.28747 -0.24009 0.40947 0.10902 -0.10739 0.13046 0.08982 0.26349 -0.33402 -0.15395 0.23253 0.31539 0.15603 -0.25995 -0.39004 -0.14211 0.22992 -0.12778 -0.58255 -0.45851 -0.096304 -0.19857 0.22098 -0.2326 0.33297 -0.030425 0.12014 0.23353 -0.021567 -0.15499 -0.1164 -0.00031473 -0.022783 0.11707 0.04066 0.0032301 -0.25225 0.44116 -0.15867 -0.10687 0.35008 -0.44982 -0.34395 -0.37836 0.015463 -0.21222 -0.27479 0.079445 0.2801 -0.38134 -0.092274 0.33796 -0.090425 -0.51452 0.26952 0.15016 0.10707 0.025654 -0.2705 -0.043009 -0.15573 0.26807 -0.42438 0.058458 -0.27297 0.147 0.086271 0.086945 0.083131 -0.13645 -0.1894 0.10373 -0.23562 0.33895 -0.15526 0.024442 0.16464 -0.044854 0.087101 0.39181 -0.049131 -0.041128 -0.36075 -0.11597 0.062816 -0.20074 0.29961 0.3095 -0.12154 -0.20862 0.73542 -0.081494 -0.34397 0.031811 0.1422 -0.0032872 0.048885 -0.43645 -0.23004 0.16934 -0.49315 -0.44562 -0.13447 -0.4302 0.38207 -0.16914 -0.1713 0.38648 0.44765 0.0026088 0.071962 -0.031366 -0.31236 -0.34308 0.45228 0.24596 0.32313 0.029648 -0.14134 0.051299 0.099945 -0.20697 -0.38967 -0.21849 0.52929 0.047288 0.38752 0.48087 0.23749 0.33733 0.43327 -0.26461 -0.02732 -0.11065 0.064815 0.34069 0.14096 0.66713 0.14879 0.20206 -0.54645 -0.20053 -0.19885 0.093434 -0.56665 0.19629 -0.23249 0.3837 0.1831 0.049495 0.35812 -0.10554 0.088994 -0.031229 0.0611 0.26212 -0.4214 0.13328 -0.46869 -0.039768 -0.20165 0.092005 -0.67695 0.43171 0.014991 -0.14515 0.24499 0.048848 -0.22017 -0.26038 -0.16323 -0.4925 0.55396 0.014267 0.31274 -0.26438 -0.21218 0.016434 -0.41381 0.50606 -0.28834 -0.062711 -0.02732 0.23154 0.32702 -0.19947 -0.2857 0.14409 0.078852 -0.35885 0.236 0.12274 -0.055513 -0.16211 0.037382 -0.001598 0.59788 0.013619 -0.22421 -0.14935 -0.53819 0.1711 -0.25304 0.030964 0.41421 -0.34584 0.19263 
boxer -0.46442 -0.1226 -0.57306 -0.16065 -0.38458 -0.085141 -0.19134 0.098949 -0.1141 0.035357 0.39564 -0.06603 0.35936 0.18682 -0.32205 0.020894 -0.26583 -0.32884 -0.20226 0.090272 0.31979 0.28627 -0.13369 -0.19081 -0.62132 0.1057 -0.1902 -0.16059 -0.20179 -0.26302 -0.050849 0.18584 0.13725 -0.018155 -0.2349 0.083095 0.13182 -0.023411 0.023263 -0.12504 -0.077294 -0.35764 -0.077513 -0.1836 -0.0022395 0.020216 0.088086 0.018089 -0.12051 -0.33473 0.0027563 -0.52534 -0.2433 -0.18867 0.018532 -0.15467 0.51407 0.16091 -0.074235 -0.22039 0.1168 -0.12269 0.33367 0.3179 0.040615 0.087378 -0.31274 -0.13105 0.23442 -0.065444 -0.17135 -0.11718 0.36876 -0.14575 0.25784 -0.28746 0.41573 0.11491 0.12491 -0.30187 -0.0082834 -0.051385 0.11415 -0.17069 0.086939 0.081721 -0.20452 -0.16762 -0.19299 -0.08795 -0.074184 0.12883 0.11698 -0.059428 0.24181 -0.27368 0.2208 -0.13385 0.24342 -0.38672 0.28795 -0.28944 -0.014291 0.47081 -0.0056458 0.061106 0.35575 0.087549 0.21506 0.019871 0.085003 0.055469 -0.10053 -0.36584 0.075748 0.15821 -0.16031 0.13739 -0.41011 -0.052367 0.25192 0.28403 -0.22106 -0.14195 0.1429 0.21512 -0.04768 0.24524 0.10211 0.1218 -0.19167 -0.18108 -0.29474 0.32366 -0.65951 -0.29363 -0.08364 0.41653 -0.53007 -0.49237 -0.034167 0.08144 0.069184 -0.25182 0.12766 -0.12158 -0.34506 -0.21833 -0.080262 0.21055 0.11811 -0.3942 -0.26361 -0.079293 0.1299 -0.31129 -0.25735 0.15391 0.22472 0.13123 0.25878 -0.23781 0.14968 -0.18317 0.1879 0.29271 -0.14972 0.078825 -0.32896 0.10529 -0.18617 -0.069394 0.22319 -0.10913 -0.057502 -0.072707 -0.023716 -0.31313 0.22059 0.14846 -0.26481 -0.19321 0.023616 0.34153 0.23704 0.11467 0.04875 0.010553 -0.057455 0.21741 0.10646 -0.0084715 0.10204 -0.011271 -0.004594 -0.43038 -0.10627 0.21997 0.00949 -0.28667 0.14459 0.20429 0.18533 0.12678 0.21667 0.37658 0.27382 0.39076 0.2672 0.39343 -0.24003 -0.12298 0.28963 0.18997 -0.073479 -0.27411 -0.084532 0.050282 0.25792 0.036037 0.56491 -0.029102 0.042872 0.075855 0.032978 0.029507 -0.16681 0.064038 0.2688 -0.1077 0.45157 0.30565 0.01724 -0.28185 -0.36701 -0.47334 -0.30748 -0.36512 -0.12415 0.3363 -0.021581 0.027807 -0.23047 0.19645 -0.26833 0.42809 -0.13764 0.64933 0.13734 -0.33518 0.20254 -0.18997 0.25596 0.16067 0.073929 -0.36529 -0.061378 0.17157 -0.55952 -0.18919 0.033044 -0.032472 -0.18147 0.31934 -0.077685 -0.045183 0.047925 0.1617 0.32189 -0.026357 0.44198 -0.047308 0.51831 -0.055499 0.21048 0.14772 0.11745 0.39857 -0.1377 0.29367 0.17463 0.2087 -0.23378 -0.10675 -0.36182 0.017055 0.24195 0.02141 -0.018374 0.14353 -0.31102 -0.077625 0.14 -0.139 0.19338 0.10035 0.18217 0.38007 0.18417 0.38442 
feinstein -0.26308 -0.12508 -0.48842 -0.20171 0.083195 0.043459 -0.10929 0.15122 0.030255 0.14496 0.31096 -0.17719 0.3122 -0.08172 0.13921 0.18537 -0.5408 -0.15409 0.13259 0.066565 0.3984 0.36326 0.066658 -0.05691 -0.59738 -0.018337 0.0022859 -0.13493 -0.22857 0.0047272 0.10438 0.10612 -0.077277 0.16351 -0.3957 0.30455 0.23387 -0.22752 0.24184 -0.0087963 0.0030954 -0.25121 0.10351 -0.16247 -0.088631 -0.10557 0.042048 -0.2192 -0.00023617 -0.43305 -0.054443 -0.52101 -0.246 -0.30198 0.32194 -0.12189 0.43823 0.14948 -0.069802 -0.15686 0.17614 -0.059782 0.26072 0.54902 -0.3832 0.22807 -0.2129 -0.28227 0.46506 -0.031484 -0.2263 -0.16944 0.40235 -0.23732 0.68659 -0.3343 0.26044 0.1301 0.21312 0.17048 -0.0010035 -0.3038 -0.10158 -0.15953 0.15316 0.11372 -0.2649 -0.23685 -0.21349 0.10993 0.011402 0.053183 0.54752 0.1154 0.061632 0.035829 -0.057382 -0.39398 0.33009 -0.39681 0.23072 0.0040732 -0.22188 0.11643 -0.26572 0.21884 -0.039953 0.136 0.21831 0.36462 0.13771 -0.16267 -0.10401 -0.62072 0.18827 0.16648 -0.22712 0.1464 -0.12686 -0.22584 0.42316 0.077262 -0.51427 -0.24155 0.029535 0.057987 -0.16847 0.12267 0.091323 0.39379 0.084787 -0.16959 -0.24617 0.24604 -0.28445 -0.52249 0.2254 -0.062721 -0.53202 -0.039304 -0.13127 0.012416 -0.22498 -0.27292 0.30846 0.018194 -0.081831 0.17397 -0.21022 0.072317 0.076464 -0.25809 -0.14545 -0.037114 0.050788 -0.15283 -0.19227 0.069849 -0.036447 0.067234 0.095518 -0.051023 0.028138 0.32246 0.31329 -0.013048 -0.24878 0.13831 0.011685 -0.17507 -0.44767 -0.13728 0.13568 -0.090659 -0.24485 -0.25921 -0.094188 0.10022 -0.060496 0.18561 0.011175 -0.016243 -0.24915 0.42269 0.31435 0.02779 -0.16511 0.34177 0.14347 -0.042664 -0.014729 -0.47836 0.20523 -0.26825 -0.20129 -0.059091 -0.16193 0.34625 0.069559 -0.12523 0.14053 0.31681 -0.092093 0.20809 0.011519 0.28591 -0.021789 0.35572 0.34846 0.22055 -0.16286 -0.008078 0.043819 0.44146 0.099365 -0.14459 0.094421 -0.18013 0.1864 0.10184 -0.053424 0.17295 0.18184 -0.42274 -0.37461 0.16539 -0.061558 -0.036069 0.53628 0.018718 0.22777 0.13657 0.3242 -0.32097 -0.40513 -0.37716 -0.39186 -0.68659 0.039016 0.31369 0.28881 -0.00042881 -0.077401 0.061582 -0.10503 0.144 0.10715 0.21658 0.12624 -0.30225 0.19795 -0.38552 0.27478 0.015396 0.1934 -0.28723 0.10939 -0.0242 -0.35407 0.074719 0.14611 -0.085634 0.16117 -0.097203 -0.092646 0.069234 0.037339 -0.098431 -0.037974 -0.34364 0.19791 -0.19341 0.2244 -0.30631 -0.019248 -0.074475 -0.16437 0.5163 0.095099 0.059151 0.062529 0.38008 -0.019198 0.082921 -0.4416 0.26546 -0.00024525 -0.23439 -0.01291 0.15292 -0.23045 -0.40547 0.0013046 -0.19018 0.19762 0.21726 0.085338 0.20957 -0.17581 0.29207 
udall -0.37024 -0.1759 -0.17966 -0.19827 0.19836 -0.23285 -0.18631 -0.038382 0.18448 -0.12327 0.036634 -0.11747 0.4001 0.10793 0.050683 0.30711 -0.50835 -0.23659 0.20269 0.46225 -0.38703 0.17455 0.38853 -0.097489 0.0057197 0.61767 0.42994 -0.17989 -0.19487 0.14004 -0.26573 0.39548 -0.089729 0.0075979 -0.24464 0.0072406 0.12457 0.090959 -0.14279 -0.60486 0.33613 0.13944 -0.3951 -0.28614 -0.0010991 0.1897 0.31877 0.32477 0.085486 -0.24874 0.034649 -0.26596 -0.20501 0.36335 0.19041 0.11951 0.36737 0.026013 -0.31378 -0.091959 0.052168 0.12768 -0.099712 0.020265 -0.19421 0.24297 -0.32849 0.25104 0.17636 -0.012856 -0.066934 -0.097333 0.29265 -0.10155 0.13192 -0.21636 0.13623 0.42344 -0.35416 -0.06957 -0.1557 -0.32852 -0.089519 0.033397 0.22676 0.099509 -0.044388 -0.14997 -0.2165 0.40887 0.43632 0.22368 0.36999 0.0027696 0.42712 0.012017 -0.27212 -0.61955 -0.32873 -0.022537 0.10724 -0.44828 0.29927 0.010741 0.21265 0.68513 0.022757 -0.090347 0.12272 -0.018292 -0.59287 -0.38702 0.0047974 -0.12489 0.36604 0.27613 -0.18614 0.043118 -0.25227 -0.088557 0.31173 0.075272 -0.42608 0.24886 0.23403 0.17397 -0.035578 0.36605 -0.13471 0.016522 0.090908 -0.0859 -0.10123 0.092929 -0.394 0.22428 -0.16025 0.046213 -0.074282 -0.35492 -0.14975 -0.23386 -0.13961 0.29844 0.17861 -0.16231 -0.23616 0.21586 0.010168 0.034488 0.00076271 -0.50244 -0.10581 -0.16646 0.23565 -0.4994 -0.038658 0.29022 0.070209 -0.20762 -0.21823 -0.10661 0.029837 -0.051408 0.084177 0.039431 0.25365 0.35065 -0.090159 0.21759 -0.23108 -0.16732 0.022155 0.22137 0.13452 -0.39852 0.15468 -0.29699 -0.27114 -0.016312 -0.02817 -0.43573 -0.15025 0.20104 0.12435 -0.35498 0.076378 0.69554 0.095754 0.0068209 -0.15383 -0.17588 0.36545 -0.54939 -0.65829 -0.23978 -0.1243 0.78654 0.057865 0.093316 0.18468 -0.090582 0.21186 0.080481 -0.029843 0.13448 -0.073765 0.027512 0.53377 0.10519 -0.085014 -0.066633 -0.17974 0.58196 -0.24311 -0.22297 -0.17947 -0.24761 0.089725 0.34661 -0.14809 0.60399 0.20209 0.14529 -0.1405 0.71422 -0.06795 0.33516 -0.077917 0.091401 0.45681 0.33067 -0.016995 -0.1681 -0.27288 -0.3804 0.23079 -0.64014 -0.0039535 -0.083717 0.54254 -0.0041519 -0.25858 0.42204 0.0070596 0.54263 -0.15887 -0.054901 -0.079642 -0.60032 -0.052768 -0.68057 -0.01383 -0.20629 0.10472 -0.9418 -0.17341 -0.11562 -0.35644 0.079784 -0.23523 -0.4762 -0.060378 0.21618 0.057272 -0.06008 0.11936 0.09964 0.11524 0.12797 0.040703 -0.10988 0.20776 -0.41929 0.11339 0.33814 0.15154 0.15026 -0.55492 -0.077586 0.236 0.24871 0.035134 0.40457 -0.33947 0.098712 0.091627 0.040057 -0.2694 0.50781 -0.014385 -0.63386 0.049254 -0.29245 0.21233 -0.094061 -0.10124 0.25922 -0.0044983 0.37641 
bennet -0.54971 -0.18651 -0.17717 0.21557 0.064763 -0.14976 -0.42526 0.31752 0.28761 0.34788 -0.22407 -0.23271 0.31986 0.093872 0.22083 -0.22855 -0.5632 -0.21666 0.10271 0.3337 -0.32767 0.20706 -0.12525 0.033827 -0.25432 0.10859 -0.0011318 -0.28378 0.050575 0.42762 0.028054 -0.047513 -0.062661 -0.17663 0.095621 0.095781 -0.056738 -0.047349 -0.10681 -0.21224 0.025288 0.18645 -0.35892 -0.10947 -0.59346 0.27493 0.077731 0.33459 -0.076623 -0.14737 -0.14131 -0.084053 -0.16029 0.041482 6.0546e-06 -0.10805 0.06465 0.24216 0.10007 -0.54194 0.16675 0.019872 0.24112 0.018713 -0.14561 0.12633 -0.35441 -0.087125 0.43973 0.11714 -0.2703 0.058849 0.055515 -0.083531 0.20794 0.015847 0.29064 0.18445 -0.42871 0.16741 -0.21318 -0.29558 0.12364 -0.096018 0.0015319 0.093649 -0.084272 0.1863 0.026538 0.1398 0.0043814 -0.19554 0.055047 -0.076755 0.1884 0.39533 0.064444 -0.49009 -0.15009 -0.25063 0.41661 -0.04876 -0.27199 0.27687 -0.068811 0.20721 0.034686 0.037 -0.0038624 0.0045919 -0.42356 0.0037251 0.066505 -0.24496 -0.10179 -0.029198 0.024089 0.056755 -0.073157 0.10923 0.55598 0.18563 -0.10068 0.017957 0.24512 -0.0036619 0.069116 -0.030689 -0.0063227 0.17989 0.051315 -0.044654 -0.036371 0.16726 -0.14336 -0.015875 0.25212 0.076637 -0.1029 0.072562 -0.27791 -0.43597 -0.65512 -0.015479 0.12442 0.12296 0.20763 0.58377 -0.17079 0.069124 -0.17295 -0.26234 -0.032825 -0.33193 0.24652 -0.41495 -0.13305 -0.039793 0.092628 -0.0019255 -0.12492 0.16493 -0.051614 -0.079996 0.24064 0.18591 0.11065 0.2488 -0.079507 -0.19441 0.17258 0.24582 0.17058 0.11822 0.13943 -0.267 0.47907 0.089526 -0.21809 0.0028048 0.30529 -0.24113 -0.46247 0.26707 0.066712 -0.43229 0.14049 0.27446 0.15815 0.32807 -0.02303 -0.44318 0.30184 -0.69921 -0.023204 -0.41583 -0.43654 0.11669 -0.18116 -0.069586 0.13209 -0.0068091 -0.065341 0.13566 0.08325 0.15322 -0.23879 0.061102 0.53402 0.24611 -0.19014 0.13531 0.014577 0.44028 -0.25494 -0.52998 -0.095591 -0.12129 -0.05559 0.12642 -0.25064 0.32298 0.41896 0.16832 0.1754 0.031904 0.14971 0.32561 -0.20423 0.031641 0.37979 0.023678 0.1356 -0.50327 -0.05146 -0.16737 0.22286 -0.43952 0.29788 -0.087063 0.33591 -0.22342 -0.072064 0.076091 -0.061735 0.24928 -0.16352 0.25233 -0.14276 -0.50189 0.043741 -0.66003 -0.026353 0.1741 0.12084 -0.36236 0.4248 0.18699 -0.04228 0.11346 -0.26322 -0.23307 -0.023183 -0.013246 0.048671 -0.045788 0.24182 -0.21256 -0.089501 0.15684 0.10424 -0.084882 0.12875 -0.28881 0.41837 0.49471 0.1222 0.65445 -0.27571 0.25879 0.074122 -0.0045769 -0.41138 0.18496 -0.11297 0.094189 0.088169 -0.11067 0.041724 0.63484 -0.011514 -0.12158 0.32388 -0.31176 0.13484 0.10256 0.36622 0.49359 -0.049974 0.34161 
murphy -0.14132 -0.062346 -0.23364 -0.096694 0.13516 -0.049894 0.017505 0.18765 0.022183 0.29685 -0.12783 0.052733 -0.044184 0.24961 0.036688 -0.14092 -0.034 -0.051185 0.22022 -0.15733 0.16954 0.0015009 -0.037189 0.15686 -0.35454 -0.14803 0.022742 -0.31198 -0.19357 -0.045657 0.021248 0.025152 0.017038 0.20736 0.11795 -0.17378 -0.11884 0.020136 -0.22834 -0.18437 0.12131 -0.014388 0.16666 -0.28219 -0.089217 0.25916 -0.29359 0.11549 0.14525 0.13058 0.16539 -0.27891 -0.22323 -0.16684 0.15482 0.17532 0.25253 0.24061 -0.5164 -0.17669 0.18462 -0.21431 0.2065 0.039587 -0.15832 0.25141 -0.149 -0.033777 0.26213 -0.043794 0.033987 0.042697 0.16292 0.11291 0.14286 -0.32126 0.031057 0.099839 -0.15182 0.37336 -0.064339 0.096634 -0.098129 -0.022627 0.14099 0.32114 -0.22096 0.27108 -0.33273 0.050052 0.056231 -0.13382 -0.048517 -0.23806 -0.018376 -0.28609 -0.10021 -0.050323 -0.22878 -0.13216 0.29723 -0.19819 0.013412 -0.10882 -0.1804 -0.16665 -0.072995 0.068639 -0.025283 -0.14994 -0.23639 -0.093478 -0.29105 -0.32578 -0.10479 0.17476 -0.25207 0.12407 -0.18123 0.28783 0.11538 -0.061982 0.19668 0.11289 0.00090809 0.073648 0.046763 0.020187 0.030226 0.014694 -0.085243 0.09234 -0.052092 0.38296 -0.30143 -0.048536 0.045279 -0.063402 -0.035576 0.18473 -0.07909 -0.017165 0.17664 -0.0058045 0.2048 0.091713 0.22866 -0.054233 -0.24039 -0.019615 0.016742 0.059754 0.12677 -0.39243 0.38537 -0.044862 -0.1585 -0.021076 0.10464 -0.074522 0.33272 -0.34214 -0.072556 0.048661 -0.17879 0.34845 -0.10708 0.094856 -0.12921 0.032781 0.035626 -0.023599 0.050338 -0.039573 0.16065 -0.061773 0.047693 -0.18991 -0.24688 0.17197 -0.18374 -0.41866 -0.23395 0.035538 -0.080408 -0.26377 -0.10665 0.089522 -0.055964 0.15482 -0.047766 -0.34137 -0.29005 -0.32396 0.13696 -0.12026 0.056402 0.18943 0.0060478 -0.079527 -0.017677 -0.088187 -0.17223 0.15664 -0.039745 0.017175 -0.15015 -0.10676 0.60618 -0.025142 -0.067203 0.04446 -0.016345 0.21225 -0.23918 -0.16565 -0.21789 0.09743 0.19577 0.045763 0.056177 0.23157 0.13829 -0.056392 -0.017571 0.30397 0.077159 0.16572 -0.14571 0.2505 0.16435 0.12719 0.23359 0.081996 0.026087 -0.16404 -0.0032109 -0.42219 0.28754 0.25516 0.27537 -0.062865 0.061191 0.0065484 -0.081269 0.11327 -0.21014 0.22449 -0.0046884 -0.19848 0.021448 -0.43319 -0.25495 0.020691 0.43493 -0.16236 0.10864 -0.13545 0.020645 -0.083652 -0.085133 -0.11678 -0.29045 -0.20826 -0.17744 0.1715 0.061692 -0.15896 -0.15351 -0.17035 -0.14873 -0.18397 0.23391 -0.23316 0.018033 -0.0075672 0.20699 0.35209 -0.34045 0.2982 0.0059933 0.068345 -0.2505 0.12046 0.29359 -0.075835 -0.052573 0.1434 -0.09504 0.25331 -0.15812 -0.086813 -0.12157 0.10106 -0.012815 0.22473 0.2683 0.37796 0.0062676 0.15455 
blumenthal -0.42924 -0.10292 -0.31084 0.16182 0.11671 0.00088488 0.14793 -0.17086 0.096505 0.37945 -0.10878 -0.18759 0.43341 0.0074357 -0.31525 0.0004945 -0.1794 -0.20291 0.20965 -0.055216 -0.27421 0.0035976 0.17997 -0.12199 -0.1779 -0.15124 -0.28303 0.25561 0.0056627 0.28659 -0.048455 0.091417 -0.23774 0.19117 0.20586 0.45561 0.12512 -0.13588 -0.12414 -0.39858 0.12111 0.29951 -0.32854 -0.057318 -0.066644 -0.10172 -0.16663 0.025223 0.15547 0.039804 -0.25775 -0.0061388 -0.23847 0.094785 0.23783 -0.056651 -0.072243 0.24438 -0.059847 -0.11789 0.12321 0.022525 0.1058 0.04566 -0.37264 0.18838 -0.34796 -0.2114 0.33008 -0.15716 0.070829 0.33495 0.082117 -0.037724 -0.043509 0.13053 -0.0086102 0.20031 0.31444 0.20359 -0.0084512 -0.12022 -0.13669 0.25229 0.092627 0.10622 -0.15851 0.23487 0.069946 0.28902 0.070484 0.077834 0.013771 0.13546 0.14939 -0.0059478 -0.3697 -0.57099 -0.18814 -0.3768 0.61655 -0.50234 -0.23424 0.13587 -0.46718 -0.066856 0.085661 -0.30156 0.0096716 0.27041 -0.26283 -0.12963 0.33633 -0.39273 0.092355 -0.036138 -0.194 -0.13583 -0.31398 -0.22851 0.26202 -0.24718 0.083477 0.055345 0.089936 0.036389 0.04088 0.14703 0.027973 0.19652 -0.043386 -0.14725 -0.34816 0.33079 -0.35084 0.073999 0.16669 0.11039 -0.11807 -0.20208 -0.049433 -0.24016 -0.07652 0.11221 0.15993 -0.052675 0.0050291 0.30324 -0.13021 0.22982 0.019439 -0.23878 -0.072518 -0.22688 0.43254 0.072021 -0.084963 -0.1142 0.04932 -0.32715 0.12781 -0.20361 0.024104 -0.042824 0.25803 -0.058958 -0.031819 0.20942 -0.32815 -0.1246 -0.070135 -0.16896 0.17109 -0.007865 0.021858 -0.43722 0.081272 0.34389 -0.00015555 -0.26186 0.29132 -0.42944 -0.39903 0.075686 0.034293 -0.01112 -0.13295 0.12765 0.0029992 0.028244 -0.12471 0.13486 0.023402 -0.22214 -0.25907 -0.14514 -0.34921 0.33458 -0.45473 -0.010628 0.17713 0.31789 -0.11677 -0.014147 0.17352 0.51325 -0.24073 -0.1107 0.34621 -0.26954 0.094983 0.29534 -0.33796 0.16976 -0.12622 -0.36719 -0.15057 -0.0045247 -0.077445 -0.090694 0.018262 0.50596 0.3648 0.089573 0.023646 0.22986 -0.13818 -0.12806 0.010843 0.29624 0.19653 -0.0082373 0.26101 -0.037876 -0.20379 0.086645 -0.31635 -0.29856 0.15623 0.097912 0.13282 -0.49738 0.049564 0.033399 0.10582 0.0052769 0.19063 0.39546 0.18132 -0.23284 -0.010708 -0.56938 -0.10344 0.0064187 0.2921 -0.42381 -0.055357 0.093404 -0.060008 0.099572 0.030597 0.10578 -0.22098 -0.094358 -0.32854 0.30138 0.058362 -0.053242 -0.03009 0.036146 0.48046 -0.31309 0.41832 0.02057 0.13994 -0.38094 0.096384 0.56955 -0.52228 0.41115 -0.056233 0.35356 0.056361 -0.010732 -0.26878 -0.063026 -0.4858 -0.061156 0.15879 0.56264 -0.13415 -0.11084 0.072709 -0.2085 0.16517 -0.32841 -0.31712 0.1045 -0.15717 0.25156 
carper -0.12936 -0.36828 -0.10088 -0.27657 0.54244 0.039188 -0.058926 0.26151 0.15113 0.36952 0.044027 -0.13132 0.26527 0.091998 0.32791 0.52374 -0.33351 -0.1601 -0.0019289 -0.0958 0.039383 -0.2242 -0.054367 -0.1007 -0.51978 0.09076 -0.47071 -0.18808 -0.32303 0.28423 0.0086534 0.17926 -0.14171 0.22879 -0.48176 0.069627 0.036709 -0.11781 -0.018378 -0.40637 -0.53831 0.15855 0.16639 -0.40386 -0.38338 -0.069405 -0.051957 -0.19512 -0.21065 -0.020097 0.25438 -0.45068 -0.76934 0.076415 0.46022 -0.083022 0.86328 0.19221 -0.20771 -0.28575 -0.16505 0.088319 -0.00044279 0.24792 -0.20535 0.2314 0.16176 0.11699 0.33114 -0.27693 -0.41851 -0.085879 0.023121 0.20347 0.32834 -0.17433 0.49367 -0.10758 0.038709 -0.23555 0.062937 -0.28994 0.16151 0.025417 0.41781 -0.17025 0.25942 0.081982 -0.37094 0.19789 0.050878 0.02626 0.11647 -0.060296 0.028885 -0.44235 0.11993 -0.65127 0.059645 -0.51665 0.40471 -0.51378 0.18424 0.10191 -0.35211 0.043251 -0.1119 -0.069614 0.047853 0.050985 -0.11289 -0.012536 -0.4444 -0.54617 0.075747 -0.051144 -0.20085 0.2645 -0.20525 -0.041615 -0.26329 -0.28135 -0.2502 0.20158 -0.096685 -0.19828 0.08934 -0.0034625 0.019583 0.39851 -0.16835 0.068313 -0.15553 -0.052932 -0.82671 0.12665 -0.073423 0.21353 -0.12958 -0.065509 -0.42055 -0.0034915 -0.20573 -0.23016 0.061342 -0.22828 -0.41202 0.45167 -0.20398 0.19375 -0.14194 -0.030541 0.099776 0.11331 0.27433 -0.18986 0.042427 -0.047651 0.082567 -0.16845 0.15919 0.38342 -0.051878 -0.21595 -0.080788 0.099432 0.33553 -0.20613 -0.1343 -0.1627 -0.4941 0.062141 0.12684 -0.038373 0.025611 -0.20393 0.40894 0.37014 -0.42449 -0.14104 0.015933 -0.49855 -0.24673 0.28814 -0.48491 -0.23791 -0.19366 0.057088 0.0052911 -0.13784 -0.090643 -0.045231 0.37922 -0.35629 0.029629 -0.23626 -0.15366 0.22678 -0.14136 -0.1929 0.028068 -0.043191 0.032818 0.24962 -0.10639 0.19615 -0.20294 -0.070042 -0.08103 -0.0097115 -0.1651 0.17086 0.11519 0.23624 -0.17845 -0.13976 -0.26795 0.43483 -0.12852 -0.090654 0.34555 0.18593 0.37381 0.29642 -0.23583 0.37813 -0.30104 0.34485 -0.074464 -0.10545 0.75558 0.03945 0.14742 -0.39568 -0.15294 -0.23966 -0.25042 -0.4857 0.019282 0.3427 0.28883 0.060507 -0.2635 0.26438 0.29635 0.26964 -0.1403 -0.061412 0.16875 -0.2392 0.15388 -0.61162 -0.13174 0.33235 0.13866 -0.25561 0.037459 -0.036748 -0.19518 0.39298 -0.15634 -0.031369 -0.13443 -0.037853 -0.28373 -0.040356 0.50911 -0.1376 0.082177 0.095745 0.22261 -0.35288 0.0050401 -0.17679 -0.017236 0.25432 0.064136 0.7963 -0.72393 0.12655 0.0027768 -0.011249 -0.19103 0.09449 0.18417 0.092235 0.034079 0.20565 0.1415 0.39979 -0.63042 -0.47546 0.084912 -0.14406 0.032534 -0.30029 0.25664 0.068188 -0.030845 0.45854 
coons 0.079574 0.037382 0.044253 -0.079586 0.38472 0.023003 -0.048338 0.28277 0.01536 0.22401 -0.1311 -0.17187 -0.096604 0.33259 -0.083351 0.087026 -0.50074 -0.35323 -0.17825 0.3814 0.043625 0.14828 -0.12819 0.019861 -0.32493 0.10935 -0.018812 -0.47815 -0.22202 0.18706 -0.14758 0.2832 -0.20984 0.13587 -0.16877 0.15566 -0.023278 0.011904 -0.24867 -0.26226 0.10482 0.14373 -0.059866 -0.29447 0.1873 0.26794 -0.25281 -0.34655 -0.099307 0.015521 0.034653 -0.2877 -0.47665 -0.50101 0.2379 0.11389 0.47511 0.63632 -0.17989 -0.52376 -0.1378 -0.3362 0.58199 0.33934 -0.017167 0.076442 -0.15917 0.25416 0.085228 -0.13638 -0.18336 0.10472 0.13427 0.11193 0.1566 0.23631 -0.058885 -0.049535 0.29787 -0.037644 -0.078097 -0.27087 0.041223 0.037545 0.075255 -0.17953 0.16049 -0.20564 -0.37719 0.24185 -0.3347 0.15633 0.33971 0.016688 -0.068715 -0.23728 -0.23237 -0.17993 0.16903 -0.66786 0.4793 -0.32077 -0.12129 0.023207 0.049977 -0.019722 0.10795 0.15709 -0.19456 -0.12551 -0.65426 -0.20774 -0.23203 -0.47169 -0.13458 0.13542 -0.1068 0.06371 -0.15511 -0.10607 0.2144 -0.34243 -0.45765 -0.13312 -0.16735 -0.25408 -0.06277 -0.18222 -0.33014 0.07504 0.01661 0.18757 -0.39866 -0.091294 -0.71597 0.07314 0.030887 0.44474 -0.16327 -0.18705 -0.22915 -0.14394 -0.12345 -0.25729 0.071434 -0.11351 -0.13803 0.092825 -0.35469 -0.26156 -0.17642 0.11345 0.29789 -0.18254 0.10455 -0.29517 0.063991 -0.2095 0.0015915 0.065974 0.085908 -0.20583 -0.098763 -0.14564 0.37652 -0.01425 -0.19965 0.12887 -0.25988 0.14228 -0.53057 0.076 -0.148 -0.032019 -0.283 0.052573 0.059378 -0.020537 -0.26082 0.0047358 -0.12656 -0.32526 -0.24679 0.21494 0.16539 -0.21417 0.038121 -0.011552 -0.015677 0.1814 -0.26562 -0.04859 -0.24921 -0.25775 0.088427 0.064538 -0.35922 0.38779 -0.36007 0.094451 0.47905 -0.031532 0.0048566 0.31981 -0.052556 0.2977 0.11649 0.024159 0.51252 -0.2536 0.057221 0.18733 -0.079014 0.071825 -0.507 -0.16907 -0.1414 0.2457 -0.12768 0.016838 0.20041 0.15147 0.35305 0.10709 0.15084 0.052838 -0.17941 0.37138 -0.0088193 0.18137 0.55829 0.1394 0.34309 -0.31779 -0.30117 -0.11789 -0.19667 -0.41067 -0.032099 0.043327 0.063663 -0.13414 0.047441 0.091588 0.18001 0.45246 -0.1994 0.085894 -0.055438 -0.43541 0.22385 -0.42777 -0.30454 0.41111 -0.23714 -0.39676 0.13199 0.37438 0.11719 0.17301 -0.19985 0.098162 -0.18218 -0.28064 0.12786 0.081117 0.26268 -0.044509 0.10269 -0.32892 0.26819 -0.18205 0.10987 -0.15737 0.3127 0.18296 0.23636 0.69089 -0.63066 0.44946 -0.46378 0.2078 -0.49988 0.069055 0.10104 -0.055637 -0.29935 0.18758 0.18488 0.42334 -0.32632 -0.42588 0.27344 -0.068581 0.16922 -0.32182 0.081093 0.27642 -0.22315 0.12748 
nelson 0.10591 0.0076483 -0.029422 -0.083178 0.079147 -0.07504 0.24596 0.015123 -0.25054 0.063511 0.27539 0.055443 -0.067693 -0.00084474 0.06681 0.065645 -0.023399 -0.069197 0.13548 -0.0080315 -0.056772 0.17791 -0.20314 -0.19777 -0.25489 -0.20571 -0.20023 0.075867 -0.021087 0.03505 -0.18409 0.23712 0.20665 0.067136 -0.16956 -0.24256 0.011906 -0.0325 -0.12868 -0.20046 -0.41632 0.32569 0.10469 -0.49257 0.21896 -0.12515 -0.11817 0.10983 0.022276 -0.013146 -0.082233 -0.24884 -0.246 0.11606 0.14597 0.21369 0.24102 0.037046 -0.2196 -0.16789 0.049988 -0.10427 0.26934 0.30639 -0.25028 0.23404 -0.043959 -0.00097498 0.078478 0.35372 0.079231 -0.28849 -0.093641 -0.048902 0.019544 -0.30773 0.42882 0.23987 0.063593 0.015267 -0.063515 0.039885 -0.085131 0.12545 0.095548 -0.4119 -0.069801 0.043257 0.066101 0.35144 -0.14828 -0.45396 -0.14845 0.023111 -0.26363 -0.12199 0.010043 0.12274 0.04606 -0.25637 0.11149 -0.067192 0.21694 0.38581 -0.26261 0.098118 -0.01693 -0.24153 0.23747 -0.078218 -0.26888 0.34678 -0.094433 -0.37452 -0.062395 -0.087064 -0.11649 -0.14034 -0.026 0.096973 0.11927 -0.2146 -0.29026 0.14125 0.042489 -0.14124 0.0426 0.089258 -0.12194 0.12879 -0.0082475 0.31922 -0.42196 0.44234 -0.19399 -0.12464 -0.076461 -0.2011 -0.29079 0.13603 0.081423 -0.014365 0.2489 -0.20061 0.23375 0.031147 -0.25682 -0.045569 -0.20597 -0.23495 0.38384 -0.29926 0.0041179 -0.077237 0.48364 -0.25073 0.17883 -0.057501 -0.028082 -0.045389 0.051829 -0.10746 0.26694 -0.083546 0.23983 -0.15483 0.14871 0.18324 0.06795 0.0018331 -0.12496 0.17176 0.20697 0.11016 0.026156 -0.38319 0.11596 0.085909 -0.48511 0.11979 0.27573 -0.13115 -0.26796 0.018069 0.18866 -0.21229 0.034077 -0.0089179 0.10448 0.069449 -0.30395 0.031494 0.05634 -0.34404 0.02074 -0.23934 -0.082966 0.025203 -0.32425 -0.035179 -0.0018541 0.15089 0.048558 -0.26065 -0.092794 -0.2415 -0.13308 -0.085175 0.086463 0.24959 0.0057773 0.035582 0.13949 0.11165 -0.096082 -0.17508 -0.24708 -0.015248 -0.13151 0.35484 0.1699 0.27354 0.052323 -0.16874 0.11578 0.2137 -0.27355 -0.039603 0.29134 0.018817 0.58369 0.013273 0.061888 -0.18347 0.1792 -0.26626 -0.42005 -0.49169 0.19083 0.20586 0.086607 -0.051137 -0.39779 0.26096 0.19583 0.042875 -0.15518 0.12498 -0.0011426 -0.15445 0.1387 -0.29976 0.2489 -0.037124 -0.13068 -0.43791 -0.046715 -0.11418 -0.15987 0.098039 -0.30464 0.077208 -0.12556 -0.22522 -0.15334 0.21335 0.33737 -0.079544 -0.38568 -0.22596 0.32817 -0.33864 0.33252 -0.23863 -0.14844 0.29533 0.16704 0.483 -0.10416 -0.14252 -0.0014029 0.17479 -0.49182 -0.026142 0.066583 0.13118 0.079215 -0.10994 0.091301 0.16237 0.25215 -0.32544 -0.14205 0.0641 0.20666 -0.13671 0.064804 0.26999 -0.085134 -0.15951 
rubio 0.061858 -0.033336 -0.096376 -0.04749 -0.1228 0.29246 -0.056649 0.15007 0.29671 -0.05058 0.10615 -0.25837 0.37734 -0.031564 -0.10276 0.18951 -0.032023 -0.093917 -0.0094077 0.28505 0.083356 -0.15688 -0.30122 0.55714 -0.047503 0.16167 -0.038992 -0.50305 0.079294 -0.1712 0.014193 0.39321 0.33803 -0.064988 -0.099995 -0.020587 -0.23575 -0.098611 -0.23473 -0.14714 -0.35663 0.05973 0.20042 -0.46385 -0.31809 0.33555 -0.21463 -0.020017 0.28626 -0.037761 0.18614 -0.30424 -0.2278 -0.053613 0.065353 0.3423 -0.61727 0.44276 -0.45002 -0.19782 -0.19069 -0.15816 0.076286 -0.11042 -0.075038 -0.066968 -0.20341 0.087598 0.36342 -0.26675 -0.046409 -0.40792 0.18708 0.2101 0.34818 0.15845 0.0071525 -0.081234 -0.091118 -0.030245 0.19396 0.0098648 0.19324 0.13537 -0.040734 -0.028255 0.04862 -0.13191 0.011907 0.28088 -0.14593 -0.45442 0.082825 -0.20625 0.29145 0.19924 0.21739 -0.021093 0.016304 -0.0078898 0.33084 -0.18313 0.023063 0.43258 -0.17968 -0.057829 -0.27679 0.13894 0.12623 0.033119 -0.38153 0.21972 -0.2024 -0.15411 0.19138 -0.066657 0.009745 -0.089697 -0.28473 0.072374 0.51331 -0.10453 -0.56241 -0.23883 -0.022226 -0.012871 0.021978 0.20012 -0.32016 0.49974 -0.28106 -0.2388 0.28135 0.2595 0.075317 -0.008568 -0.1133 0.27363 -0.16122 -0.20657 0.42539 0.01942 -0.19061 -0.40734 0.25458 0.27123 -0.082876 0.16644 0.0086865 -0.06602 -0.37727 0.11384 0.11946 -0.17449 0.076099 -0.062257 0.39737 -0.20634 0.047304 -0.067794 0.061776 -0.025419 -0.11151 0.0086429 0.044173 0.13633 -0.17769 0.35947 0.23431 -0.099259 -0.014451 0.042609 -0.059253 -0.14263 0.0067642 0.11154 -0.12413 -0.16064 -0.02304 0.12502 -0.32908 0.058236 0.18452 0.40149 0.17292 0.076357 0.025794 -0.13424 -0.36707 0.2747 -0.15174 -0.013373 0.3261 -0.6207 0.20835 -0.36399 -0.24843 0.17895 -0.050415 -0.43767 0.046635 -0.16033 -0.12543 -0.11247 -0.22074 -0.14659 0.040101 -0.056424 0.41376 0.005263 -0.24678 -0.14055 -0.080995 0.44568 -0.33787 -0.18281 -0.55577 -0.066435 0.33138 -0.13525 -0.12439 -0.16202 0.27682 0.23536 -0.27249 -0.38263 -0.12629 0.22056 0.1418 -0.020908 0.31236 -0.027383 0.16473 -0.49391 0.023245 -0.051605 0.086214 -0.34142 0.042631 -0.11144 0.55845 -0.00039975 -0.14767 0.034369 -0.27002 0.51756 -0.01164 0.13483 -0.030858 -0.47754 0.61087 -0.47537 0.059822 0.068367 -0.089547 -0.65203 0.1572 0.11031 -0.056594 0.070053 0.082079 0.47209 -0.16308 -0.04399 0.41373 0.36463 0.2877 0.12672 0.066426 0.067071 0.36387 0.0045033 0.016402 -0.14631 0.074973 0.37369 0.26012 0.24551 -0.47178 0.13451 -0.24867 0.34542 -0.066204 0.021421 0.10431 0.082802 0.021194 -0.037034 -0.014134 0.22112 -0.067599 -0.48381 0.35772 -0.48079 -0.091291 -0.20431 -0.21548 0.36073 -0.54796 0.36823 
chambliss 0.0046075 0.10689 -0.025415 0.16142 0.095566 0.03998 0.078106 -0.058196 0.087368 0.40759 -0.10216 -0.15577 -0.0052449 0.11791 0.034093 0.5061 -0.1894 -0.36762 0.25826 0.088394 0.021589 0.18698 0.0093233 0.39677 -0.32286 -0.11154 0.18632 -0.28136 0.16053 -0.4229 0.17875 0.29439 0.18197 0.17577 -0.11581 0.21596 -0.093394 -0.053717 -0.52134 -0.17982 0.19811 0.088159 -0.25177 0.016598 -0.2482 0.07306 -0.42078 -0.32556 -0.10257 -0.029305 0.58074 -0.41426 0.20744 -0.24652 0.49312 -0.0031097 0.28225 0.12048 -0.36878 -0.024411 0.010126 0.22082 0.18651 0.066819 -0.58102 0.36316 0.14344 -0.24699 0.29798 0.21496 -0.026172 -0.06059 0.18901 -0.27804 0.1515 0.081744 0.31802 0.3345 -0.38788 0.15732 -0.23889 -0.19165 -0.1435 -0.053457 0.24565 0.068786 -0.32805 -0.035751 -0.10906 0.27688 0.086195 -0.22672 -0.073966 -0.099654 -0.11313 0.26888 0.2227 -0.17975 0.16173 -0.58598 0.3624 -0.18886 0.072533 0.43333 0.23465 0.14533 -0.15122 0.060113 0.11833 -0.10136 -0.099363 -0.40823 -0.2621 -0.461 0.080692 0.14769 -0.27754 0.4737 -0.045059 -0.031501 0.32711 -0.082712 -0.29955 -0.052238 -0.13086 -0.085727 0.091788 0.12761 -0.12464 -0.31195 0.12697 -0.21988 -0.21413 0.2806 -0.34723 0.2253 -0.19628 -0.12544 0.21829 -0.3561 0.19022 0.32193 -0.51228 -0.098126 -0.017271 0.15342 -0.47453 0.35344 -0.31886 0.18015 0.22041 -0.086941 -0.18274 -0.078506 0.32469 -0.21158 0.11837 0.12415 0.26898 -0.48643 0.24035 0.05814 -0.066535 -0.29127 0.28333 0.16718 0.29856 0.091743 0.38802 0.24427 -0.53385 0.15625 0.18572 -0.15906 -0.096557 -0.28821 0.037878 -0.026295 -0.1764 -0.0086076 -0.27528 -0.064751 0.28628 0.29933 0.06172 -0.36125 -0.18169 0.0017209 -0.086619 0.11179 -0.46753 -0.32579 -0.062327 -0.1257 -0.17602 0.28595 0.23332 0.007825 -0.19848 -0.013494 -0.025457 0.26287 0.23485 -0.27462 0.27471 -0.24669 0.051764 0.47313 0.27428 0.19648 -0.11939 -0.030382 0.096159 0.13681 -0.22679 -0.55591 -0.19395 0.40074 0.21021 -0.14731 -0.02516 0.37278 0.58349 0.28334 -0.058407 0.32921 -0.26778 0.34424 -0.449 0.066492 0.69511 0.38771 0.43141 -0.48331 -0.084514 -0.63109 -0.19468 -0.655 -0.026809 0.40253 0.20357 -0.025553 0.43131 0.090435 0.18206 0.24157 0.023466 0.13607 0.085513 -0.47142 0.50918 -0.21163 0.26185 0.091129 0.035075 -0.44998 0.31081 0.29124 -0.5723 0.22323 -0.11832 -0.041294 -0.41038 -0.19985 -0.066064 0.38051 0.04888 -0.027672 -0.037016 0.18416 0.34644 0.21444 -0.036512 -0.12169 -0.25219 0.051079 0.091923 0.49017 -0.74038 0.021324 -0.10151 0.12501 -0.041682 0.17865 -0.32328 0.075177 0.12121 -0.12413 0.14541 0.042778 -0.44553 -0.65891 0.017329 0.087225 0.35133 0.17471 0.44385 -0.0027245 -0.081279 0.50967 
isakson -0.22225 0.044924 -0.069351 -0.086427 0.23566 0.0074216 0.1198 -0.058757 0.38695 0.4607 0.093092 -0.022701 0.52316 -0.11158 -0.25998 0.22901 -0.41349 0.016504 0.12912 0.25501 -0.036804 0.10227 -0.062978 0.29968 -0.52212 -0.52529 -0.01328 -0.4237 -0.059011 -0.16674 0.15836 0.50264 0.20206 -0.054615 -0.27746 0.043753 -0.057455 -0.15786 -0.25454 -0.088282 -0.52464 0.0030148 -0.065889 0.0052867 -0.067287 0.1448 -0.39391 -0.10099 0.23998 -0.27322 0.2168 -0.42128 -0.15012 0.011068 0.53931 -0.44294 -0.16592 0.46752 -0.35561 -0.07741 -0.024668 0.12773 -0.02906 0.074878 -0.20692 0.44005 0.15025 -0.15257 0.32756 0.0070395 -0.38731 -0.12145 0.55228 -0.19086 -0.026725 0.12775 0.36861 0.012842 -0.48729 0.0051612 -0.070948 -0.37755 0.25439 0.010571 0.21279 0.014019 0.11813 0.2427 -0.2144 0.29438 -0.10934 0.10427 0.070433 -0.014669 -0.36308 0.31547 0.29277 -0.40116 -0.019031 -0.26836 0.56907 -0.13992 -0.19375 0.57159 0.40639 0.47497 -0.28454 0.5348 -0.08619 0.15809 0.028384 -0.25009 -0.4409 -0.51605 -0.059934 0.39921 -0.021959 0.22857 -0.093611 -0.041854 0.14656 0.11964 -0.62222 0.027795 -0.24136 -0.035672 -0.014463 0.14343 0.12806 0.011884 0.12407 0.11253 -0.40396 0.028124 -0.19706 0.22688 0.10999 0.2215 -0.039464 -0.3975 0.20879 0.22615 -0.4469 -0.14176 -0.075629 0.23245 -0.3512 0.46199 -0.52502 0.070294 -0.099153 0.093231 0.03051 0.1258 0.4982 -0.5342 0.27206 0.16314 -0.15802 -0.028278 0.28738 -0.16216 -0.11276 -0.43198 0.0010782 0.24401 0.22299 -0.21646 0.26606 0.0693 -0.11109 -0.064017 0.10866 0.30813 -0.12637 0.2228 0.14324 -0.20808 0.095557 -0.10483 0.04633 -0.30027 0.13926 0.5614 -0.03419 -0.07816 -0.54812 0.073162 -0.40436 0.24085 -0.034513 -0.050447 0.12033 -0.36846 0.18324 0.099076 -0.084398 0.37929 -0.45518 -0.46421 0.31626 0.15045 -0.36487 0.088549 0.036861 0.18028 -0.22758 -0.069521 0.32217 0.020682 0.072968 -0.22473 -0.20953 0.25893 -0.32553 -0.35005 -0.34659 0.55329 0.27436 -0.22291 0.34025 0.020375 -0.13135 -0.13346 -0.0073131 0.58421 -0.018777 0.11746 0.14905 0.23748 0.98298 0.13968 0.1533 -0.65465 -0.32946 -0.26032 -0.13108 -0.35162 -0.15436 0.28878 0.17996 0.29254 -0.13952 -0.32043 -0.083086 -0.090193 -0.087003 0.33471 -0.28737 -0.31723 -0.014236 -0.23075 0.17413 0.19492 0.27982 -0.38757 0.3975 -0.05868 -0.6387 0.0049104 -0.079909 -0.19242 -0.2294 -0.13554 -0.16203 0.3748 0.34639 -0.36946 0.1735 -0.52941 0.5696 0.061344 0.2963 -0.10312 -0.31245 0.50366 0.069913 0.63083 -0.58709 0.015587 0.020606 -0.034007 -0.016128 0.24177 -0.23802 -0.033227 0.19829 0.17275 0.0087069 0.1758 -0.39386 -0.40125 0.11818 0.12425 0.44149 -0.13592 0.23887 0.0055658 -0.2772 0.58457 
hirono -0.59348 0.12998 -0.17024 0.11946 -0.71948 0.10904 -0.29898 0.17953 0.29341 0.016237 0.28981 -0.24909 0.29445 0.25271 0.12943 0.22716 -0.76782 -0.18253 0.053254 0.29262 -0.30011 0.2647 -0.003452 -0.0021345 0.11209 0.29796 0.30071 -0.088116 -0.029498 0.18235 -0.1762 0.036217 0.26685 -0.55078 -0.074861 0.34848 -0.10855 -0.088664 -0.13137 -0.24318 0.049021 -0.3118 0.26114 -0.49118 0.040468 -0.17499 -0.37805 0.15415 0.24686 -0.54612 0.29676 -0.44218 -0.36958 0.11809 0.0089614 -0.37195 0.58908 0.0058774 -0.5626 -0.11141 -0.13423 0.063241 -0.21463 0.39457 -0.13799 0.015038 -0.34397 0.19827 0.16371 -0.089384 -0.23098 -0.12675 0.36921 0.42987 0.58954 -0.48787 0.040971 -0.31887 -0.51537 0.49576 -0.15392 0.11677 0.091849 0.054833 -0.092494 0.35869 0.23933 0.12888 -0.39918 0.28196 0.15975 0.16284 0.099031 -0.10657 0.29969 -0.007178 0.057445 -0.36164 0.026182 0.17515 0.19222 -0.41461 -0.10157 -0.45578 -0.13599 0.32601 -0.18375 0.040621 0.40391 -0.058202 -0.14705 -0.17756 0.23568 -0.42088 -0.18861 -0.19145 -0.059961 0.32434 -0.40787 -0.070509 0.04305 0.085522 -0.17257 -0.11222 0.10049 0.21147 -0.19389 0.25426 0.056543 0.10754 -0.10405 -0.010567 -0.34726 0.27293 -0.44513 -0.13027 0.036609 0.20906 -0.088863 -0.2692 -0.13683 0.0074171 -0.8424 -0.12298 -0.21371 -0.082621 -1.0808 0.24351 -0.38947 -0.025149 -0.032291 -0.51075 -0.073234 -0.03775 0.10912 -0.47336 -0.020785 -0.03844 0.18363 -0.19584 0.32749 -0.18442 0.21427 -0.30144 0.2977 0.57961 -0.11525 0.56008 0.20415 0.058975 -0.28642 0.028031 -0.44442 0.076002 0.085137 0.094907 0.37363 0.2204 -0.10952 -0.023188 0.025979 -0.17637 -0.18538 0.24142 0.4788 -0.52863 -0.32437 0.24436 0.1738 0.27624 0.066243 -0.10762 0.30631 -0.072461 0.095787 -0.47592 0.35932 0.19691 -0.081107 0.1649 -0.032217 -0.18593 -0.22816 -0.21605 -0.44073 0.10291 0.03398 -0.004643 0.43361 -0.35777 0.12257 0.23204 0.086814 0.42168 -0.11878 -0.5452 -0.27691 0.013133 -0.2179 0.54768 -0.11169 0.30139 0.37062 0.064814 -0.085333 0.51669 -0.39289 0.22834 0.66179 -0.23267 0.57763 0.50275 0.39307 -0.64724 -0.43056 -0.23195 -0.29784 -0.95189 0.53135 0.17176 0.11874 -0.1887 0.0014368 0.233 -0.24212 0.55858 -0.061897 0.053752 -0.33986 -0.44842 0.4106 -0.45137 0.26194 0.067897 -0.31959 -0.51535 0.26254 0.20824 -0.41398 -0.26905 -0.045207 -0.14803 0.18541 -0.37606 -0.01422 0.37549 -0.30485 0.027931 0.066317 -0.022965 0.48107 0.31904 0.1094 -0.084565 0.36754 0.19812 0.18106 0.45969 0.0090108 -0.19372 0.27773 0.1793 -0.41501 0.22759 -0.24435 0.23242 -0.12835 0.0014938 0.072772 0.28576 0.0089172 -0.32255 0.61861 -0.212 0.39554 0.099135 0.27897 -0.10552 -0.47025 0.52002 
schatz -0.22451 0.12114 -0.17888 0.43793 0.30749 -0.036656 0.094735 0.10533 -0.17666 0.33126 -0.19367 -0.195 0.030367 0.11098 0.012926 -0.021637 -0.19475 0.26285 0.19607 -0.065457 0.16458 0.15755 -0.13134 0.137 -0.13936 -0.22625 -0.13839 -0.1201 -0.31009 -0.20654 0.2317 0.15294 0.38189 -0.15623 0.32148 0.13207 -0.0147 0.24612 -0.60906 0.007699 0.43977 -0.11611 0.073821 0.056711 0.27496 0.21684 -0.39546 0.084779 0.49986 0.070334 0.20863 -0.51672 -0.34987 -0.48484 0.39626 -0.062871 0.56335 -0.17362 -0.18354 0.21235 0.080431 -0.24526 -0.23038 -0.0081059 -0.04254 -0.031534 -0.42736 0.073199 0.40291 -0.061406 -0.31913 -0.39065 0.37686 0.26688 0.53215 -0.26829 0.2316 0.19715 -0.20228 0.23167 -0.4413 -0.14923 -0.42652 -0.10308 -0.2098 0.00093235 0.20414 0.042999 -0.071889 -0.23979 -0.044647 0.04201 0.074754 0.00078111 0.36123 -0.10871 0.021145 -0.28457 -0.13723 -0.33787 0.16871 -0.38039 -0.24083 -0.14812 -0.081443 0.30049 -0.050129 -0.070508 -0.081195 -0.34032 0.31931 -0.45791 -0.095161 -0.10185 -0.20939 -0.31001 -0.42442 0.45572 -0.23652 0.052922 0.14961 0.077851 -0.40837 0.12875 0.29721 -0.20976 0.28595 0.077869 0.14838 -0.25782 0.21026 0.16352 -0.15958 0.09619 -0.58132 -0.020863 -0.045427 0.12249 -0.11513 -0.084747 0.087277 -0.53575 -0.18959 -0.14314 -0.15722 0.22933 -0.59715 0.23987 0.14565 -0.014817 0.34838 -0.44436 0.012835 -0.017876 0.88082 -0.60332 0.11463 -0.22541 0.39027 -0.46458 0.25969 -0.12911 0.18336 0.49948 0.13835 0.59887 -0.23327 0.32133 -0.032379 -0.1103 -0.35008 -0.028362 -0.51404 0.042531 0.17403 -0.19565 0.056155 0.12203 -0.20096 0.35713 0.22813 -0.25109 -0.17483 -0.061953 0.16049 -0.14943 -0.067339 0.26874 0.41438 -0.086777 0.19918 -0.054278 0.055698 -0.21139 0.10456 -0.075267 -0.24565 0.24461 -0.1381 -0.071788 -0.10687 0.33864 0.12263 0.51198 -0.32213 -0.081853 0.028689 0.49886 0.19361 -0.16066 -0.094806 0.25438 -0.19371 0.22156 0.18212 -0.22969 -0.28827 0.022205 -0.24773 0.27397 -0.013146 0.40024 0.64123 0.18565 0.1673 0.25902 -0.18456 0.049083 0.09936 0.16612 0.39133 0.25818 0.20464 -0.46987 0.088095 -0.359 -0.24674 -0.42801 -0.02551 0.059043 -0.21088 0.19176 -0.30275 -0.1526 -0.071032 0.50869 -0.090787 0.11109 0.33218 -0.29056 0.49054 -0.059247 0.28779 -0.063733 0.13366 -0.7216 0.11126 0.18316 -0.32731 0.20846 -0.12246 -0.18182 -0.38225 0.034934 -0.16928 0.29819 -0.047069 -0.0053894 -0.16434 -0.47909 0.31444 -0.061169 0.11179 -0.19603 0.42622 0.48962 0.20256 0.54984 -0.081182 0.073773 0.15299 -0.20418 -0.075272 0.12049 -0.0034145 0.64221 0.010617 0.20115 0.11856 0.65796 0.070737 -0.65584 -0.20128 -0.12865 0.44554 0.33648 0.072748 0.17685 -0.3912 0.25023 
crapo 0.33466 -0.011193 -0.55822 -0.32515 -0.27189 -0.028851 0.17176 -0.040566 0.48673 0.3668 -0.0023814 -0.16934 0.40208 0.032832 0.22213 0.3953 -0.53413 -0.049574 0.37855 -0.097677 0.04492 0.17326 -0.048364 0.41328 0.14012 0.068521 0.2894 -0.512 0.025436 0.26021 -0.12014 0.55359 0.36952 0.0012333 0.16083 -0.047001 0.094888 -0.1312 -0.18031 -0.40513 -0.3778 -0.13832 0.064048 -0.24491 -0.26717 0.056877 -0.10379 -0.31445 -0.25964 0.1104 0.14146 -0.70527 0.27278 0.41017 0.42687 -0.26929 0.19245 0.29379 -0.42264 -0.3694 0.083193 0.32344 0.23293 0.20299 0.43668 0.08604 0.56082 0.51005 0.62819 0.24044 -0.4333 0.38527 0.35849 0.049274 0.49125 -0.13721 0.45258 0.54463 -0.64781 -0.18385 -0.23728 -0.69001 0.019024 -0.21394 0.021148 0.083771 -0.27181 -0.32886 -0.57641 0.23114 0.37583 0.019836 0.40015 -0.0011138 0.24442 0.10449 0.011101 -0.6249 -0.07614 -0.3439 0.35898 -0.010307 0.24605 -0.2447 -0.27363 -0.040163 0.035865 -0.5028 -0.22265 -0.025535 0.076123 -0.23895 -0.20082 -0.35261 0.42798 -0.13845 -0.27635 0.10598 -0.62051 0.19836 0.2183 0.15955 -0.52145 -0.20733 0.086355 0.078095 0.3727 0.21858 -0.17021 -0.092849 -0.063981 0.34891 -0.37885 0.21624 -0.73166 0.18407 0.0017634 -0.28611 0.24414 -0.20469 -0.22782 0.35552 -0.13947 -0.68589 0.14287 0.38339 -0.263 0.43627 0.21461 -0.082525 0.048711 -0.302 0.036316 -0.32115 0.52835 -0.5349 -0.38012 0.12061 -0.069799 0.14965 -0.039021 0.1268 -0.054112 0.41959 0.10302 -0.13578 0.35931 -0.11626 -0.013307 -0.16468 -0.30676 -0.048873 0.19238 0.1046 -0.097551 -0.060548 -0.27536 -0.12593 -0.53825 -0.20825 0.17114 -0.229 -0.21068 -0.023008 0.15428 -0.57895 0.093484 0.31309 0.023068 0.29094 -0.23244 0.28725 0.22654 -0.42589 -0.43437 -0.39779 -0.10721 0.25654 -0.13469 -0.32197 0.049445 0.24529 -0.1951 0.18477 0.22672 0.51371 0.18382 -0.22209 -0.09811 -0.097577 -0.45874 -0.55111 0.096249 0.71861 -0.2547 -0.69183 -0.14856 0.18724 0.20906 0.012624 -0.29765 0.41866 0.33321 0.19239 -0.069699 0.031536 0.25812 0.71308 -0.4793 -0.0053615 0.95318 0.050569 0.26273 -0.46502 -0.21355 -0.61313 -0.54867 -0.63311 0.22333 0.044996 0.31222 -0.066374 -0.022139 0.034113 -0.57506 0.32443 0.2275 -0.051705 0.14377 -0.53921 0.10406 -0.16908 0.14047 -0.0052094 -0.17985 -0.22186 0.37773 -0.07555 -0.38063 0.5072 -0.056349 -0.24959 -0.4918 0.075823 -0.085016 0.12168 0.27305 -0.14775 0.085283 -0.0019603 0.18753 0.21153 -0.080205 0.056832 -0.38977 0.37987 0.25496 0.37101 -0.43448 0.37226 -0.02822 0.15905 -0.13102 0.1341 0.3724 0.22679 0.32147 0.292 -0.090024 0.55935 -0.35781 -0.37497 -0.059823 0.15408 0.24369 -0.48931 0.07918 -0.13135 0.027805 0.36596 
risch -0.055302 -0.26343 -0.40961 0.21567 -0.061308 0.33335 -0.04323 0.043275 0.12101 0.45213 -0.12207 -0.22353 0.020485 0.25081 0.23908 0.043865 -0.37038 0.25109 0.06949 0.10995 -0.13408 -0.15919 0.02567 0.47646 -0.33294 -0.033176 0.16166 -0.61729 -0.098486 0.30257 -0.37211 0.32991 0.29606 -0.36421 0.12338 -0.26213 -0.0016146 -0.31536 -0.63751 -0.1917 -0.28734 0.067601 0.17727 -0.12184 0.2001 0.14596 -0.05125 0.091828 0.017745 -0.012732 0.030352 -0.47355 0.15473 -0.15597 0.43242 0.16998 0.098412 0.23433 -0.34288 -0.060503 0.00075706 0.18568 -0.072152 0.12265 0.009468 -0.0095752 0.13651 -0.16342 0.14819 -0.20501 -0.39373 0.11137 0.14891 -0.041513 0.32319 0.024006 0.18529 0.19712 -0.16879 0.0086323 -0.00017481 -0.021142 0.145 -0.028971 -0.064614 0.18261 0.20622 0.066806 0.092578 0.073505 0.28341 0.30167 0.57695 0.58789 -0.017546 0.33775 0.12413 -0.12205 -0.29655 -0.049595 0.29013 0.23781 -0.078253 0.036186 0.36243 0.23679 0.21695 0.044961 0.27423 0.32501 -0.54864 -0.17249 -0.14322 -0.098315 -0.11937 0.25805 -0.40202 0.34609 -0.48777 0.39084 0.23949 0.10954 -0.24819 0.24624 0.57521 0.46591 0.78165 -0.032407 -0.51392 -0.17034 0.25552 -0.097235 -0.24656 0.29316 -0.20775 0.24696 0.26626 0.098087 0.16079 0.26122 -0.21037 -0.12492 0.18388 -0.30388 0.20019 0.093874 -0.30269 0.048424 -0.41521 -0.13311 -0.090197 0.0057683 0.17795 -0.30551 -0.1496 -0.7372 0.079825 -0.2323 -0.030262 0.02904 0.43025 0.054139 0.29199 0.066538 -0.14508 0.20525 0.77721 0.046771 0.15289 0.022151 -0.46285 -0.18029 -0.013909 0.067119 0.29566 -0.36004 -0.33582 0.30594 -0.064971 -0.034227 0.19978 -0.36548 -0.33099 0.44812 0.092618 -0.23728 -0.056983 0.35777 -0.36503 0.33081 -0.063447 0.0097595 0.31459 -0.54708 -0.06789 -0.17332 -0.13774 0.18971 -0.072628 0.018065 0.41885 0.58693 -0.25272 0.14694 0.15334 0.34864 0.1226 0.043754 0.10597 0.063163 0.18152 0.074505 -0.47531 0.1374 -0.47163 -0.44695 -0.16245 -0.13324 -0.02742 0.013056 0.094757 0.084304 0.40835 0.046685 0.32516 0.058135 -0.18102 0.30673 -0.20391 0.091984 0.85264 0.098919 0.4002 -0.5265 -0.15265 -0.28486 0.24604 -0.65439 0.036223 0.63718 0.48427 0.015359 -0.18329 -0.11193 -0.15001 0.82258 0.024344 0.18699 -0.037467 -0.56825 0.30781 -0.34553 -0.20667 -0.1289 0.23947 -0.33861 0.49777 0.42337 -0.19588 0.18845 -0.033433 -0.62617 -0.035188 0.0087681 -0.017581 0.55866 0.12009 0.051805 0.1893 0.030724 0.1375 0.079724 0.11367 -0.27289 -0.18956 -0.11228 -0.073879 0.047645 -0.40842 0.39921 0.33046 0.12755 -0.60168 0.60402 0.3247 0.12877 0.2894 0.6253 -0.30397 0.41948 0.20082 -0.40917 -0.10848 0.21142 0.47427 -0.53661 -0.14045 0.51744 0.078969 0.34586 
durbin -0.31861 -0.28729 -0.12816 -0.10832 0.0047421 0.15616 0.11843 0.13497 -0.12997 0.49411 0.20207 -0.14037 0.45427 0.15728 0.1336 0.10513 -0.41583 -0.21307 0.0083949 -0.0073358 0.15213 0.42748 0.34619 0.097948 -0.4211 0.044509 0.24936 -0.011777 -0.020383 -0.22669 -0.10417 0.22912 0.11349 0.10886 -0.21461 -0.17485 0.036214 0.066601 -0.37027 -0.20949 -0.13289 -0.080005 0.031568 0.035273 -0.35235 -0.040281 -0.03204 -0.21565 0.26053 -0.26317 0.04826 -0.27629 -0.33308 -0.1829 0.15717 -0.28161 0.080639 0.29151 -0.070052 -0.23744 -0.21267 0.34143 0.18283 0.38852 -0.2137 0.31197 -0.074657 0.64294 0.54749 0.0030107 -0.16215 0.13639 0.53392 0.31235 0.66401 -0.30797 -0.11758 -0.016936 -0.21373 0.13766 -0.1277 -0.62973 -0.22724 0.35159 0.216 0.3531 0.0089938 0.022687 -0.33916 0.21186 0.15982 0.043112 0.086627 -0.019472 0.60063 0.1166 -0.12131 -0.17674 -0.13232 -0.29009 -0.042382 -0.17286 -0.34387 0.22242 0.27059 -0.15012 -0.30436 -0.19432 0.12348 0.19225 -0.21526 -0.21843 0.22276 -0.55937 0.32856 0.18859 0.0040025 0.2495 -0.39931 0.32746 0.1485 -0.032455 -0.14005 0.010069 0.31683 0.23364 0.15055 0.0060224 -0.033553 0.12707 -0.012475 -0.039698 -0.55941 0.5381 -0.51873 -0.28788 0.013291 0.099872 -0.1758 -0.092777 0.055745 -0.11044 -0.35164 -0.15206 -0.18592 -0.056181 -0.088142 0.41338 0.022853 -0.39315 -0.060874 -0.24566 0.14947 -0.30503 0.15039 -0.2964 0.047869 -0.24076 -0.11624 0.0057205 0.16975 0.18467 0.048877 -0.068001 0.010919 0.21592 -0.13553 0.34936 -0.21654 -0.053511 -0.4756 -0.383 0.098323 -0.10492 0.17005 -0.31608 -0.12445 -0.20882 -0.39833 0.016572 -0.17751 -0.23121 -0.3303 0.33529 0.28583 -0.039119 0.08731 0.41596 -0.12039 -0.27271 -0.08358 -0.084524 -0.12619 -0.76724 -0.11296 -0.10071 -0.28071 0.28688 -0.46979 -0.0098592 0.20441 -0.06786 -0.31769 -0.1612 -0.14217 0.72378 -0.18974 0.42515 0.11031 0.21258 -0.30345 0.10623 -0.25222 0.57818 -0.51493 -0.29998 -0.086427 0.054752 -0.011891 0.18384 -0.12311 0.067427 0.45605 0.34189 -0.063275 0.33577 -0.26075 0.5754 0.40936 0.35708 0.33877 0.18663 0.27691 -0.42434 -0.39173 0.051987 -0.3786 -0.15289 0.039625 -0.12917 0.46933 0.11747 0.038039 0.014984 -0.001822 -0.14982 -0.20166 0.26488 0.14587 -0.47686 -0.019131 -0.31541 -0.006937 -0.22249 0.13397 -0.36392 0.078333 0.34672 -0.21864 0.018776 0.036019 0.28314 -0.42794 -0.096564 -0.11214 -0.04452 0.43362 -0.080425 -0.20521 0.051638 0.24555 0.13081 0.41395 -0.19906 -0.59219 -0.42639 0.50035 0.58167 -0.26061 0.1735 -0.092435 0.30214 -0.17359 0.055835 -0.046172 -0.076738 -0.16377 0.23307 -0.096694 0.18178 -0.17086 -0.45192 -0.053682 0.1762 -0.17612 -0.066947 -0.19599 0.15759 -0.16377 0.27089 
kirk 0.094565 -0.022827 -0.020063 -0.20832 0.2983 0.0067376 -0.011755 -0.14033 0.050594 0.33312 -0.20466 0.20769 0.30771 0.13368 -0.012895 -0.03668 -0.40311 -0.057026 0.12224 0.1037 0.35798 0.098984 0.092076 0.28426 -0.22902 0.26689 0.1959 -0.3349 0.17855 -0.017299 0.0084932 0.09379 0.21171 0.33343 -0.036598 0.0066609 -0.1257 -0.18132 -0.6891 0.085165 -0.23891 -0.1611 0.039142 -0.048007 0.049888 -0.4645 -0.28322 -0.22246 -0.067437 0.038247 0.28026 -0.37211 -0.1833 0.0055985 0.36485 -0.21215 0.014211 -0.0087797 -0.53545 0.043394 0.10188 -0.059836 -0.0096834 0.26089 -0.010541 0.38679 0.33648 0.070476 0.22753 0.17156 -0.19661 0.19066 -0.1263 0.15665 0.32249 0.13263 0.63011 -0.070529 -0.090837 0.41637 -0.13826 -0.012368 -0.19715 -0.24139 0.26053 0.19164 -0.021849 0.10615 0.026753 -0.17103 0.094893 -0.085648 -0.033094 -0.046448 -0.0015145 0.0068471 0.22495 0.32288 -0.29127 -0.11921 0.40455 -0.24794 -0.13298 0.12082 0.019367 -0.070537 -0.013851 -0.12303 0.3739 0.21055 -0.3634 -0.16197 -0.20067 -0.22503 -0.27703 0.16227 -0.40479 0.2073 -0.16849 0.089657 0.39284 0.24765 -0.097709 0.14209 0.091952 -0.022247 -0.14594 -0.033513 -0.28157 -0.056385 0.072313 0.20191 -0.33803 0.08596 -0.51702 -0.018954 0.045715 -0.01673 -0.18044 -0.055614 -0.27064 0.055761 -0.026274 -0.090854 0.10443 0.2078 0.09318 0.23415 -0.032697 0.089184 -0.13614 -0.075581 0.14119 -0.12897 -0.024968 -0.23132 -0.038055 -0.022822 0.059221 0.013376 0.12935 0.028759 0.17722 -0.022208 0.17043 0.041977 0.23947 0.44459 -0.048904 0.25956 -0.041251 -0.09736 0.10577 -0.078588 0.038893 -0.13854 -0.031964 0.15376 -0.084949 0.37718 0.015238 -0.14527 -0.16349 0.32729 0.062952 -0.34517 -0.035619 -0.027354 0.10399 0.12658 0.097823 -0.22212 0.18185 -0.4688 -0.23517 -0.11081 -0.15803 0.37704 -0.079254 0.053193 0.14093 0.24348 -0.063963 -0.025978 -0.080231 -0.21289 0.035392 -0.16134 0.083663 -0.11626 -0.13598 -0.1344 -0.037059 0.27829 -0.16602 -0.26492 -0.19897 -0.031129 0.16909 0.28291 -0.074301 0.20131 0.03167 0.12436 0.076656 -0.05211 -0.21671 0.19977 -0.16584 0.093816 0.048433 0.22457 0.22305 -0.13629 0.016189 -0.17114 0.1241 -0.40348 0.21588 0.18916 0.29973 -0.44809 0.13066 -0.013853 0.22956 0.28939 0.13507 0.15542 0.073414 -0.41614 0.010038 -0.29665 -0.091856 -0.11102 0.025317 -0.1674 0.12382 0.21392 0.013239 0.035965 0.10401 0.07812 -0.32022 -0.18917 0.18305 0.46388 0.085575 0.13873 -0.18067 0.079311 0.29707 -0.19117 0.34981 -0.1269 0.19268 0.048192 0.0089597 0.7204 0.065493 -0.056947 -0.14665 0.03295 -0.30099 -0.002149 0.078639 -0.19619 0.16417 -0.1107 -0.11859 0.18415 -0.13908 -0.24357 -0.15266 0.034439 0.29464 -0.035118 -0.15135 0.23193 0.11899 0.30818 
coats -0.042172 -0.13697 -0.66526 0.23056 0.36672 0.25309 -0.03483 0.54752 -0.4365 0.12962 -0.27592 -0.0081432 0.22779 0.44573 -0.4367 0.176 0.13181 0.11185 0.12515 -0.033351 -0.28062 -0.0080059 0.20101 0.3245 -0.19203 0.0093885 -0.031129 -0.16561 -0.094052 0.14395 -0.04579 -0.58172 -0.13393 0.042289 -0.030619 -0.0043425 0.23603 0.30066 -0.44261 0.063954 -0.018622 -0.35467 0.014167 -0.13472 0.0064715 0.066266 0.047795 -0.54206 -0.010852 0.18328 0.20648 -0.3679 -0.19926 0.029153 -0.12477 -0.33729 0.22156 0.41799 0.22997 -0.41856 0.30854 0.22422 -0.095832 0.49891 0.078678 0.30474 -0.50483 -0.071748 0.067793 -0.047945 -0.49222 0.14468 0.15714 -0.11686 -0.10951 -0.12733 0.28026 0.30938 0.17402 -0.26672 -0.0097311 0.038691 0.10364 -0.53178 0.030328 -0.098646 -0.27136 0.21428 0.094742 -0.036806 0.28796 -0.031657 0.22188 -0.011747 -0.29983 0.17987 0.0038754 -0.30656 -0.024885 0.10796 -0.1177 -0.43818 -0.17291 0.19665 0.17245 -0.087091 0.522 0.037871 0.24907 0.19034 -0.048095 0.31415 -0.17858 -0.099842 0.15987 0.2077 -0.33768 0.064322 -0.52008 -0.19495 -0.25225 -0.25837 -0.48587 0.059689 0.43035 0.2945 0.27455 -0.064901 -0.055393 -0.058089 -0.15422 0.31197 0.002727 -0.058703 -0.44126 0.23226 0.085935 0.16215 0.14771 -0.042621 0.11353 -0.095725 -0.060374 0.31386 0.15897 -0.11792 0.092359 0.20228 -0.074825 0.27501 0.089928 0.14276 -0.2527 -0.52507 0.18215 -0.43328 -0.033256 0.26456 -0.0059617 0.23634 0.42374 0.26964 -0.1741 -0.18653 -0.11446 0.13242 0.53423 -0.080824 -0.069865 0.057136 0.049256 0.019544 -0.084063 0.093289 -0.17754 -0.087198 -0.085819 0.077218 -0.7419 0.46841 0.068042 -0.024089 -0.31079 0.34161 -0.27856 -0.21169 0.30141 -0.088315 -0.2434 0.1356 -0.31684 -0.19504 -0.18717 -0.2404 0.064502 0.31402 -0.014305 0.30267 -0.18401 -0.065605 0.10395 0.021421 -0.37698 0.27749 0.16844 0.25311 0.15197 -0.22125 -0.09277 -0.13929 0.43196 0.069414 -0.24239 0.14396 -0.68184 -0.4002 -0.10825 0.53216 0.16062 0.18911 0.14817 -0.16809 0.30235 -0.074958 0.31229 -0.27842 -0.24549 -0.15022 0.10942 -0.064882 0.052388 0.27079 -0.014155 -0.36044 -0.025394 0.11624 -0.28385 -0.44268 -0.050338 -0.0916 -0.061854 0.20324 -0.16672 0.2563 -0.34953 0.17205 -0.32681 -0.11443 -0.10437 -0.28198 0.16791 -0.51041 -0.019504 0.15719 0.26827 -0.081432 -0.32674 0.21433 0.024394 0.43472 -0.19174 0.095454 -0.15484 -0.014539 -0.22826 -0.0096659 0.13988 -0.027856 0.13904 -0.18913 0.16709 0.39958 0.67598 0.078853 -0.064536 -0.28244 0.044691 0.26237 -0.51265 0.018156 0.1984 0.11671 -0.50955 0.23031 -0.19597 0.18197 0.12921 0.27639 0.18716 0.11215 0.069488 -0.27508 -0.035675 0.036823 0.47147 -0.02782 0.47963 0.28955 -0.20772 0.25682 
donnelly -0.0103 -0.25817 -0.1188 -0.066063 -0.068123 0.17071 -0.23861 0.36887 0.027742 0.23608 -0.078436 -0.077662 0.33156 0.040883 0.36666 -0.050594 -0.20088 -0.019424 -0.17291 0.00013608 0.01486 0.20271 -0.16433 -0.09524 -0.27719 -0.074522 0.012811 -0.45294 -0.1855 -0.066211 -0.11669 0.032912 0.18352 0.13382 0.12904 -0.099928 -0.096426 0.16995 -0.28919 -0.086644 0.19422 0.38643 0.15362 -0.22033 -0.088951 0.31286 -0.3129 -0.15043 0.13128 0.38302 0.17067 -0.37596 -0.38334 -0.1854 0.22661 -0.1046 0.2393 0.35952 -0.21477 -0.22043 0.10268 -0.10987 0.26843 0.14789 0.1681 0.41111 -0.21284 -0.14479 0.16495 0.14154 -0.045587 0.22115 0.26264 -0.017119 0.16284 -0.077587 0.0012395 0.15546 -0.41267 0.0086037 0.18244 0.24824 -0.22742 -0.2034 0.11666 0.092329 0.13306 0.073785 -0.35404 -0.19422 0.14284 0.16 -0.15227 -0.28611 0.44922 0.019611 -0.088992 -0.48496 0.13536 -0.46061 0.45998 -0.371 0.015805 -0.020941 -0.043869 -0.12996 0.030813 0.0030993 0.036296 0.0076991 -0.39613 -0.13111 -0.34894 -0.28543 0.020677 0.084149 -0.32936 0.063211 -0.39406 0.14491 0.24673 -0.11149 -0.053688 0.46363 0.052625 -0.047026 0.15958 0.28339 0.078332 -0.18562 0.076569 0.04943 -0.13678 0.15984 -0.39021 -0.024018 0.1833 0.10182 -0.42002 -0.012035 -0.10665 -0.23065 -0.044541 -0.12161 0.33105 -0.10364 -0.089228 -0.017034 -0.19702 -0.1292 0.18466 -0.086611 -0.021986 -0.56397 0.33791 -0.61753 -0.091516 -0.14159 0.031989 -0.19663 0.50288 -0.31605 -0.038835 0.092896 0.19566 0.31184 -0.20344 0.04177 -0.34678 -0.13455 -0.40408 -0.10492 0.0093221 -0.037654 0.041908 -0.17228 -0.017474 0.22887 -0.55967 -0.13188 -0.27087 -0.57989 -0.12062 0.076258 0.013186 -0.3035 -0.1849 0.005321 0.21587 -0.16419 0.042566 -0.18267 0.060155 -0.14281 -0.031961 -0.1995 0.11748 0.0286 -0.12887 0.055011 0.29133 -0.075801 -0.11031 0.53586 -0.19855 0.27909 -0.12109 -0.15644 0.28508 -0.10789 -0.31031 0.047611 -0.017056 0.13662 -0.13932 -0.42588 -0.0090609 0.14156 -0.042371 0.039309 -0.027722 0.28395 0.27488 0.24765 -0.12116 -0.036499 0.0071571 0.30379 0.10266 0.20865 0.31202 0.35284 0.28263 -0.43515 0.043199 0.2573 -0.28336 -0.25989 0.056659 -0.12384 0.29038 -0.36412 -0.19527 -0.14344 -0.131 0.40337 0.0042894 0.076412 -0.057111 -0.26354 0.030897 -0.5011 -0.13955 0.17259 0.10434 -0.32403 0.292 -0.25367 -0.21639 0.30372 -0.0068408 -0.047532 -0.17261 -0.14957 -0.4253 -0.12822 0.024362 0.13441 0.29406 -0.036023 0.29419 -0.12602 0.19277 -0.34357 -0.04679 0.030401 0.24165 0.28004 -0.34342 0.17607 0.087925 0.25269 -0.48395 0.22062 0.18791 0.052548 -0.30264 0.095162 0.23095 0.39532 -0.26244 -0.077679 -0.028402 0.16947 0.21251 0.3667 0.074035 0.31218 -0.056932 0.38983 
grassley -0.0040392 -0.16757 -0.55346 0.056192 -0.07424 -0.12389 0.041975 0.017472 -0.10134 0.24995 0.48496 -0.036913 -0.06274 0.2947 0.090105 0.47264 -0.2477 -0.095339 0.37022 -0.046292 -0.1415 0.13289 0.23114 0.33285 -0.33874 0.11959 0.092751 -0.23698 0.046956 -0.070044 -0.1669 0.27619 -0.031628 -0.36954 -0.30352 0.26401 0.077969 -0.3776 -0.08362 -0.16618 -0.30893 0.087241 -0.10816 0.27543 -0.20185 0.017203 -0.085201 -0.21089 -0.11934 -0.21327 0.049669 -0.046155 -0.20279 -0.069364 0.30279 0.023684 -0.028079 0.37877 -0.20801 -0.23176 -0.42732 0.39424 -0.17443 0.39638 -0.080831 0.4336 -0.13384 0.040635 0.42364 -0.30396 -0.5583 -0.058676 0.37069 0.025549 0.72838 0.25247 -0.25264 0.41577 -0.18299 -0.04731 0.012639 -0.36562 -0.21338 0.12769 -0.030232 0.20846 -0.18477 -0.067376 -0.33249 0.17587 0.23615 -0.23377 0.072055 0.22299 0.095971 0.20058 -0.46478 -0.50102 -0.10119 -0.14951 0.20162 -0.15829 -0.21629 0.19036 -0.1393 -0.090432 -0.21761 -0.42834 0.115 0.0054889 -0.22858 0.15614 -0.21326 -0.40123 0.16459 -0.16388 -0.46447 0.24376 0.0062759 0.18661 0.11216 0.14119 -0.43964 0.095061 -0.12148 0.037893 0.32157 -0.039268 -0.36231 0.12752 -0.032661 -0.17619 -0.4211 0.35158 -0.29717 0.010585 -0.21515 0.14632 0.093255 0.096934 0.40986 0.56991 -0.11739 -0.086844 0.10696 -0.075425 -0.57954 0.26787 0.16652 -0.093949 -0.30634 -0.29599 0.012703 0.024454 0.34995 -0.43427 0.1706 -0.20591 0.18971 0.25422 0.29315 0.17892 -0.37993 -0.079478 0.00052552 -0.31124 0.090313 0.27233 0.333 -0.10541 -0.24458 0.10965 0.074945 -0.16119 -0.37296 -0.23154 -0.1712 0.3901 -0.031671 0.13283 0.03526 0.14281 -0.19219 0.40277 0.44149 -0.21614 -0.45851 0.20987 -0.37367 0.14091 -0.06926 -0.024082 0.29192 -0.51047 -0.45663 0.096 -0.17873 0.26825 -0.070524 -0.61963 0.31673 0.26617 -0.46211 -0.39606 -0.22651 0.082719 -0.16255 -0.02365 -0.013426 0.16611 -0.28167 0.12281 -0.03302 0.35382 -0.11906 -0.3881 -0.368 0.24441 -0.18422 0.53651 -0.097512 0.38522 0.37306 0.22921 -0.29478 -0.00081053 0.051876 0.24245 0.11021 0.03737 0.51794 0.12154 0.12567 -0.53113 -0.048071 -0.16067 -0.21021 -0.32031 0.18221 0.091015 0.45722 0.15709 0.44 0.28838 -0.31863 0.013741 -0.14344 0.55292 -0.089618 -0.73348 0.28612 -0.39111 -0.28737 -0.043928 -0.014349 -0.49206 0.063677 0.12056 -0.38595 0.12122 -0.33682 -0.0019001 -0.31374 0.25456 0.38435 0.26226 -0.21344 -0.22416 -0.048152 -0.027303 0.096122 0.14585 0.16706 -0.44868 -0.37815 -0.093514 0.47091 0.21374 -0.51703 0.1231 -0.11223 0.25256 -0.14994 -0.1124 0.089651 0.19789 0.34592 0.26271 0.1553 0.36913 0.06727 -0.64058 -0.1865 -0.2932 0.065741 -0.56474 0.018023 0.15126 -0.088131 0.2428 
harkin -0.043031 -0.32301 -0.051089 -0.33909 -0.13873 0.020198 -0.22497 0.036275 -0.087215 0.085948 0.16368 -0.084203 0.043668 0.20104 -0.43694 0.039824 -0.36533 0.022936 0.01323 0.26328 0.0092747 -0.10472 0.026669 0.29698 -0.037817 0.16162 0.13546 -0.2861 -0.23401 -0.04102 0.070149 0.068208 -0.2267 -0.053866 -0.50029 0.04172 0.076018 -0.21706 -0.2411 -0.11549 -0.45069 -0.024817 0.11931 0.05288 -0.27986 0.02181 -0.1644 -0.11742 0.035998 -0.26188 0.093617 -0.37415 -0.35733 0.11659 0.54772 0.30582 0.358 0.1298 -0.18054 -0.1198 -0.44848 0.074204 -0.13787 0.19453 -0.33087 0.22899 -0.25977 0.12467 0.16893 -0.098777 -0.25108 -0.28326 0.24412 0.35764 0.51855 0.040088 0.26104 0.08153 -0.043959 0.2688 0.18057 -0.34275 -0.21569 0.12917 0.10741 0.2237 -0.16808 0.37361 -0.37547 -0.10228 0.18446 -0.0048682 0.23907 -0.26173 -0.020604 0.15925 0.17692 -0.1314 0.35819 -0.62606 0.3721 -0.17307 -0.25224 0.16881 -0.033252 -0.0053509 -0.34585 -0.39389 -0.012437 -0.029768 -0.34796 -0.23533 -0.2218 -0.28537 -0.038846 -0.25016 -0.54277 -0.080813 -0.20956 -0.20881 0.12067 0.1198 -0.75922 0.18812 -0.13048 0.30196 0.049773 -0.21865 -0.15125 0.08041 0.16427 -0.22405 -0.24218 0.1791 -0.37893 0.032293 -0.31991 0.20289 -0.2332 -0.10085 0.15047 0.13814 -0.13342 -0.046048 0.29194 -0.017698 -0.5536 0.17838 0.17773 0.049846 0.030565 -0.32871 0.094572 -0.26712 -0.019928 -0.33681 0.13966 -0.18165 -0.028815 0.10924 0.16566 0.061537 0.0073897 -0.34946 -0.031032 0.11131 0.10016 0.17689 -0.12192 0.081533 -0.14724 -0.086008 0.27725 0.1423 -0.19941 -0.5465 0.088195 -0.0029193 -0.040736 0.30692 -0.14431 0.078199 -0.15299 0.48668 0.2288 -0.26257 -0.30605 0.21004 0.044902 -0.0024759 -0.051246 -0.1547 0.24018 -0.21873 -0.086981 0.01884 -0.25873 0.15683 -0.22524 -0.29429 0.10332 0.43444 0.094445 -0.039444 -0.033125 0.038865 -0.098185 0.23473 0.10129 -0.042883 -0.3303 0.14709 -0.081102 0.27464 -0.20723 -0.30784 -0.16296 0.25734 0.0056014 0.45424 0.11682 0.17453 0.47752 0.48398 -0.30965 0.017023 -0.088046 0.13782 -0.077234 0.095968 0.53822 0.065 0.33206 -0.27311 -0.00064578 -0.023082 -0.079463 -0.55511 0.024049 0.0085813 0.30076 0.32136 0.045231 0.12369 -0.19201 0.41826 -0.15776 0.39845 0.24869 -0.33383 0.091433 -0.40635 0.18422 -0.076875 0.34555 -0.62799 -0.1832 -0.084327 -0.10357 0.37154 -0.1857 -0.061739 -0.22235 -0.11272 -0.031758 0.22886 0.33417 0.2635 -0.46132 -0.011848 0.32546 -0.12053 0.43574 -0.11795 0.026443 0.095604 0.26048 0.30182 -0.39495 -0.14287 0.12367 0.2273 -0.16211 -0.059289 -0.1491 -0.099427 0.019997 0.07407 -0.13685 0.48265 -0.0096155 -0.36182 -0.019458 0.0944 0.29552 -0.33879 0.039884 0.18625 0.13931 0.40878 
roberts 0.10374 0.15536 -0.51266 -0.15081 0.091664 0.08015 -0.11315 0.033426 0.28041 0.20655 0.0038491 0.032208 -0.015927 0.059277 0.29953 -0.16509 -0.041304 -0.059289 0.15994 -0.053415 -0.21819 0.035008 -0.066947 0.28806 -0.4195 -0.20703 -0.084997 -0.24909 -0.075205 -0.01251 -0.012195 0.35165 -0.12675 0.4539 0.17805 0.079202 0.12107 -0.10053 -0.24012 -0.095132 -0.07545 0.050299 0.10456 0.045416 0.033544 0.062162 0.14473 0.11186 -0.081842 -0.0016221 0.16786 -0.0086162 -0.11685 -0.30713 0.29113 0.12447 -0.021686 0.082374 -0.30361 -0.42371 0.19236 0.015474 -0.024952 0.45422 -0.37754 0.31651 0.041632 0.030334 0.12252 0.052708 -0.30654 -0.13305 -0.074561 -0.19976 0.11663 -0.4005 0.063012 -0.0069055 0.12174 -0.10115 -0.15142 -0.019128 -0.047455 -0.019587 -0.002771 -0.0078242 0.031605 -0.17915 -0.015036 0.21525 -0.07576 0.10988 0.17637 -0.24179 -0.021836 0.11268 -0.0053891 0.10328 -0.155 0.1377 0.23051 -0.47267 -0.14744 0.049557 -0.0039746 -0.066539 -0.33671 -0.15442 0.028733 0.069795 -0.45425 0.058179 -0.29587 -0.23336 0.039139 0.071567 -0.49655 0.32444 -0.010834 0.30093 0.15488 0.090356 0.1236 -0.075806 -0.088505 -0.12764 0.12979 -0.015643 -0.33497 0.11119 0.14741 0.045766 -0.40899 0.029774 -0.29997 -0.20211 0.023769 0.014438 -0.062858 -0.16177 0.069338 0.40993 -0.059005 0.0088451 0.061374 -0.035238 -0.14981 -0.065389 -0.061853 0.30924 -0.022601 -0.23707 0.19665 -0.5704 0.22361 -0.4799 0.25974 -0.12575 0.0437 -0.027727 0.35992 -0.15193 0.21398 0.14145 0.20573 -0.026485 0.21555 -0.066768 -0.071623 -0.29214 -0.021775 -0.094217 -0.028234 0.096015 -0.00032833 0.20727 -0.090989 -0.076235 -0.030173 0.045537 -0.097018 -0.067101 -0.25533 0.17878 -0.024466 0.044855 -0.057151 -0.073936 -0.059365 -0.13056 -0.28054 -0.067668 -0.081206 0.0067769 -0.13016 0.14504 0.030309 0.23106 -0.25013 0.043141 0.29015 0.15947 -0.052445 -0.25487 0.014173 0.022905 -0.28056 0.1623 0.045102 0.20836 0.051882 0.075598 -0.074192 0.30755 -0.19714 -0.46858 -0.19431 0.36858 -0.036505 0.042938 0.079317 0.22558 0.39437 -0.14479 0.15267 0.25473 0.31444 -0.26315 0.029385 0.12958 0.26891 -0.087598 0.19326 -0.32122 -0.03822 0.033156 0.044026 -0.21833 0.030729 0.30532 0.39867 -0.1935 0.23817 0.27728 -0.14293 0.29424 0.051659 -0.0084038 0.073619 -0.18497 0.28981 -0.58544 -0.37119 -0.10376 0.10416 -0.073635 0.076791 0.039312 -0.23717 0.34383 -0.21132 -0.18753 -0.26753 -0.24656 -0.18793 0.32144 0.25728 -0.043233 -0.11263 0.22024 -0.0047824 -0.057698 0.4514 -0.11113 0.085719 0.28714 0.2674 0.27538 -0.16705 -0.012432 -0.0074733 0.087521 -0.11633 0.31235 -0.10537 0.030768 0.072983 0.23351 -0.30262 0.37816 -0.06081 -0.56397 -0.17929 -0.31912 0.15325 -0.22743 -0.10565 0.34038 -0.11296 0.12973 
moran -0.11814 -0.040002 -0.34914 0.24002 0.42957 0.21044 0.17319 -0.018705 0.027161 0.38533 -0.057972 -0.205 0.018192 -0.027295 -0.080534 -0.0010807 0.076279 -0.20261 0.10352 0.28807 0.082442 -0.031124 -0.0017269 -0.043861 -0.096811 -0.22526 -0.024166 -0.35894 -0.2648 0.059018 -0.11492 0.2664 0.0048881 -0.11585 0.09926 0.022339 -0.18324 -0.15839 -0.37813 0.083039 -0.097894 0.29856 0.19081 -0.10494 -0.046102 -0.016705 0.0060679 -0.057454 -0.2735 0.3662 0.22753 -0.062927 -0.069353 -0.17857 0.1976 0.069013 0.15041 0.29386 -0.073639 -0.2401 0.38002 -0.071429 0.12014 0.31731 -0.08778 0.13904 -0.072948 -0.097401 0.2492 0.015832 -0.26643 0.073675 0.15454 0.079536 0.31111 -0.16524 0.22714 0.27475 -0.19331 -0.014867 -0.34684 0.088986 -0.20957 0.10803 0.032723 0.10754 -0.1747 0.048477 -0.18441 0.14095 0.02971 0.012234 0.14523 -0.16283 0.19194 -0.20082 0.056551 -0.29262 -0.20905 -0.034164 0.44122 -0.39393 -0.14204 0.062558 -0.093881 0.075683 0.017931 -0.031999 -0.097644 0.024843 -0.30444 0.1318 -0.30326 -0.08875 0.017916 0.10501 -0.3137 0.17777 -0.31671 0.054865 0.24701 -0.13764 -0.086363 0.37412 0.075178 0.093234 -0.052319 0.3216 -0.060054 -0.031424 0.10377 0.26747 -0.066035 -0.0010353 -0.090753 -0.12166 0.032568 0.097161 -0.083345 0.03305 -0.17453 0.19341 -0.2464 -0.043645 0.097851 0.11039 0.11476 0.10064 -0.17577 -0.13033 0.023156 -0.37407 0.24786 -0.44941 0.28911 -0.19207 0.28611 -0.24811 0.18905 -0.26652 0.32028 -0.16303 -0.027446 -0.019255 0.2048 0.011177 0.18755 -0.080608 -0.080142 -0.076966 -0.082117 -0.15317 0.028506 0.14335 0.16719 0.071861 0.0043542 -0.0049241 -0.24838 0.25943 0.12383 -0.38826 -0.28318 0.36315 -0.15883 -0.2373 0.22224 -0.08099 0.098724 0.18088 -0.10167 -0.09599 -0.14468 -0.3268 0.14634 -0.45629 -0.22264 0.14202 -0.015234 0.20827 0.31428 0.18707 0.12569 -0.011364 0.21751 0.017741 -0.12164 0.066209 0.23067 -0.1141 -0.003148 0.24219 -0.11297 0.092715 -0.15487 -0.075172 -0.032289 0.34527 -0.086226 0.10258 0.095519 0.28015 -0.072282 0.035419 0.056882 0.47547 0.12217 0.22608 -0.0062631 0.30758 0.34052 0.18786 0.2414 -0.2923 -0.092383 -0.13405 -0.073566 -0.42368 0.40684 -0.061946 0.34795 0.12532 0.052975 0.2073 -0.019067 0.32482 0.023591 0.090057 -0.31568 -0.27791 0.0016329 -0.56281 0.0035996 0.028184 0.093103 -0.37133 -0.0064005 0.10337 0.012979 0.19218 0.07563 0.17902 -0.17484 -0.22094 -0.37605 0.25267 0.038744 0.078411 0.088355 -0.17132 0.10923 -0.11297 -0.16301 -0.2795 -0.092175 0.30249 0.063635 0.38777 -0.0030882 -0.047543 0.35199 -0.24365 -0.35361 0.15479 0.075227 0.080963 -0.079423 0.011411 0.018278 0.18626 0.09599 -0.37845 -0.062562 0.041143 0.27668 0.16722 0.49921 -0.0061789 -0.22471 -0.011119 
